
\data\
ngram 1=137
ngram 2=2997

\1-grams:
-2.930979	"	0.7748279
-3.806041	%	0.2470605
-4.287807	'	0.05790877
-2.718471	(	0.4213208
-2.502937	)	0.6259223
-3.783533	*	0.3311134
-4.699987	+	-0.004544006
-1.805394	,	0.2921357
-2.529726	-	0.4748444
-2.267954	.	0.5450122
-2.595045	/	-0.1033966
-2.677078	0	0.5415604
-2.316471	1	0.4470316
-2.437338	2	0.2575043
-2.667234	3	0.156745
-2.812089	4	0.2633789
-2.883194	5	0.56852
-2.817273	6	0.1961933
-2.850261	7	0.2218671
-2.831245	8	0.1084441
-2.552569	9	-0.05026278
-3.039596	:	0.5578983
-2.807893	;	0.2313401
-2.164482	</s>
-99	<s>	0.2568298
-4.63304	[	-0.01073303
-4.63304	]	-0.004653621
-3.718471	_	-0.03808125
-3.388233	a	0.02185149
-4.199385	b	0.00867971
-3.766331	c	-0.03413013
-3.898355	d	-0.04669905
-3.352657	e	0.1554033
-4.155919	f	-0.008907745
-4.188104	g	-0.04966627
-4.088973	h	-0.009555088
-3.097927	i	0.0527212
-4.737776	j	-0.003426858
-4.381228	k	-0.02703799
-3.839649	l	-0.06492853
-3.839649	m	0.0353143
-3.639289	n	-0.09466156
-3.648835	o	-0.05693129
-4.080198	p	-0.05684048
-4.548719	q	-0.005372639
-3.623832	r	-0.08048943
-3.703622	s	0.04201426
-3.710983	t	-0.06871888
-3.84467	u	-0.03108024
-3.605982	v	0.207331
-4.665225	w	-0.003815327
-4.381228	x	0.01566822
-4.436746	y	-0.02944456
-4.523896	z	-0.01791337
-4.548719	­	0.08333508
-4.260654	×	-0.01036202
-4.699987	ß	-0.005432871
-2.949222	à	-0.2566278
-3.820127	á	-0.06821868
-3.398957	â	-0.1093446
-3.810686	ã	-0.04665429
-3.423143	ä	-0.1015167
-3.106148	å	-0.2400223
-4.210967	æ	-0.0263755
-3.569654	ç	-0.09048566
-3.046775	è	-0.2220502
-4.364195	é	-0.02668566
-3.564325	ê	-0.08071371
-3.53613	ë	-0.08879023
-3.792397	ì	-0.05205636
-3.151803	í	-0.185733
-3.050004	î	-0.2347506
-3.500415	ï	-0.0817556
-3.290618	ð	-0.1479921
-3.343006	ñ	-0.1149427
-3.088972	ò	-0.1829496
-3.854889	ó	-0.075154
-4.456949	ô	-0.01744073
-4.41744	õ	-0.02490828
-3.986777	ö	-0.0311631
-3.959625	÷	-0.04168292
-4.478138	ø	-0.01811127
-4.274018	ù	-0.01840991
-3.92791	ú	-0.06385627
-4.603077	þ	-0.01091763
-3.71471	ÿ	-0.08157665
-4.737776	ά	-0.003514969
-4.737776	έ	-0.003515691
-4.737776	α	-0.003515691
-4.737776	γ	-0.003516414
-4.665225	δ	-0.01061822
-4.737776	η	-0.003514969
-4.699987	ι	-0.007053534
-4.699987	λ	-0.0070557
-4.699987	μ	-0.0070557
-4.699987	ο	-0.007054256
-4.665225	ρ	-0.01061894
-4.699987	ς	-0.006885238
-4.665225	σ	-0.01043402
-4.699987	υ	-0.0070557
-4.737776	ω	-0.003515691
-4.699987	ό	-0.007054978
-0.9697704	а	-0.3727203
-1.978314	б	0.183967
-1.362096	в	-0.2188175
-1.915608	г	-0.1445571
-1.464269	д	0.05066536
-1.056444	е	-0.03205113
-2.162168	ж	-0.08002038
-1.67308	з	0.2020773
-1.049065	и	-0.2770326
-2.6181	й	0.6562042
-1.556478	к	-0.1495887
-1.537448	л	0.2282314
-1.755792	м	0.3356906
-1.139144	н	0.02606907
-1.078664	о	-0.2540499
-1.517074	п	-0.1970378
-1.302801	р	-0.1108755
-1.365902	с	-0.0449894
-1.123109	т	0.06942983
-2.008537	у	0.33311
-2.402591	ф	0.1510948
-2.53095	х	0.2894705
-2.175483	ц	-0.03764079
-1.887185	ч	-0.2309014
-2.680525	ш	0.03868632
-2.243115	щ	0.3038695
-1.871274	ъ	-0.4168263
-4.347805	ь	0.02923546
-2.958311	ю	0.4438522
-1.796852	я	0.1801422
-3.286408	і	0.1485503
-4.603077	ѝ	0.06812998
-3.130808	№	-0.1311617
-4.665225	−	0.0718211
-4.63304		-0.008539733

\2-grams:
-2.011782	" (
-1.914872	" )
-2.233631	" *
-1.640714	" ,
-2.198869	" -
-1.650054	" .
-1.914872	" 1
-2.011782	" 2
-1.970389	" 3
-2.233631	" 4
-2.271419	" 5
-2.198869	" 6
-2.271419	" 7
-2.271419	" 8
-2.233631	" 9
-2.011782	" :
-1.721747	" ;
-1.404327	" </s>
-2.271419	" _
-2.166684	" b
-2.166684	" c
-2.233631	" d
-2.271419	" h
-2.166684	" i
-2.271419	" r
-2.271419	" s
-2.271419	" t
-2.271419	" á
-2.271419	" è
-2.271419	" ê
-2.198869	" í
-2.233631	" ï
-1.990592	" а
-1.990592	" б
-1.794298	" в
-1.951084	" г
-1.914872	" д
-1.74461	" е
-2.233631	" ж
-1.990592	" з
-1.74461	" и
-1.733028	" к
-2.233631	" л
-2.082363	" м
-1.689563	" н
-1.499898	" о
-1.700028	" п
-1.970389	" р
-1.534661	" с
-1.897838	" т
-2.136721	" у
-2.166684	" ф
-1.756509	" ч
-2.080386	% "
-1.728203	% ,
-1.929118	% .
-1.955447	% ;
-2.118175	% ç
-2.118175	% î
-2.118175	% а
-2.080386	% в
-2.118175	% д
-1.929118	% з
-2.045624	% и
-1.526099	% о
-2.118175	% п
-2.118175	% т
-2.118175	% я
-2.098801	' -
-2.061013	' .
-2.098801	' 1
-2.098801	' 5
-2.098801	' ;
-2.061013	' i
-2.098801	' o
-2.098801	' t
-2.098801	' б
-1.994066	' и
-2.061013	' м
-2.098801	' н
-2.098801	' ц
-2.061013	' ч
-2.251812	( "
-2.055517	( *
-2.251812	( -
-2.356547	( 0
-1.283997	( 1
-1.411168	( 2
-1.681937	( 3
-1.818156	( 4
-1.716699	( 5
-1.806875	( 6
-1.89279	( 7
-1.89279	( 8
-1.853872	( 9
-2.356547	( a
-2.318759	( b
-2.142668	( c
-2.356547	( d
-1.774691	( e
-2.318759	( f
-2.356547	( h
-1.69897	( i
-2.356547	( m
-2.356547	( o
-2.356547	( p
-2.283997	( s
-2.356547	( t
-2.283997	( v
-2.283997	( z
-2.221849	( à
-2.251812	( á
-2.283997	( â
-1.950782	( å
-2.017729	( а
-1.982967	( б
-1.935542	( в
-2.19382	( г
-2.251812	( д
-0.8113527	( е
-2.356547	( ж
-2.251812	( з
-2.167491	( и
-2.017729	( к
-2.119186	( м
-1.879426	( н
-2.075721	( о
-1.950782	( п
-2.356547	( р
-2.036212	( с
-1.754487	( т
-2.318759	( ф
-2.356547	( ц
-2.356547	( ч
-2.356547	( щ
-2.356547	( №
-1.690867	) "
-2.469018	) '
-2.005261	) (
-1.164058	) ,
-2.43123	) -
-1.778017	) .
-2.209381	) 1
-2.306291	) 2
-2.33432	) 3
-2.396468	) 4
-2.469018	) 5
-2.469018	) 6
-2.396468	) :
-1.857198	) ;
-1.82917	) </s>
-2.469018	) b
-2.43123	) i
-2.048013	) n
-2.469018	) s
-2.396468	) t
-2.469018	) w
-2.43123	) y
-2.469018	) á
-2.469018	) â
-2.469018	) ã
-2.43123	) ä
-2.43123	) è
-2.43123	) í
-2.255138	) î
-2.396468	) ï
-2.469018	) ù
-2.167988	) а
-2.33432	) б
-1.465088	) в
-2.43123	) г
-1.481027	) д
-2.148683	) е
-2.279962	) ж
-1.811441	) з
-1.497574	) и
-1.442225	) к
-2.396468	) л
-1.991897	) м
-1.62392	) н
-1.501811	) о
-1.434864	) п
-1.820215	) р
-1.39314	) с
-2.03329	) т
-2.079047	) у
-2.364283	) ф
-2.469018	) х
-2.469018	) ц
-1.954108	) ч
-2.469018	) щ
-0.9094381	) №
-2.081887	* "
-1.818646	* )
-1.537819	* *
-2.01494	* ,
-2.119676	* .
-2.119676	* 5
-2.119676	* </s>
-2.047125	* [
-2.081887	* â
-2.119676	* è
-2.119676	* ê
-2.119676	* ì
-2.081887	* а
-2.119676	* в
-2.047125	* д
-2.119676	* е
-2.119676	* ж
-1.984977	* и
-2.119676	* к
-2.119676	* м
-1.956948	* н
-2.047125	* о
-2.01494	* п
-2.092784	+ 2
-2.092784	+ 3
-2.634034	, "
-2.855882	, (
-2.952792	, ,
-2.91803	, -
-2.730944	, 0
-2.709754	, 1
-2.554852	, 2
-2.75322	, 3
-2.75322	, 4
-2.75322	, 5
-2.776701	, 6
-2.801525	, 7
-2.670246	, 8
-2.670246	, 9
-1.290035	, </s>
-2.885846	, b
-2.91803	, c
-2.990581	, d
-2.952792	, e
-2.584816	, i
-2.990581	, r
-2.952792	, s
-2.827854	, v
-2.952792	, à
-2.952792	, â
-2.952792	, ä
-2.91803	, ç
-2.801525	, è
-2.487906	, ê
-2.952792	, í
-2.952792	, î
-2.584816	, ï
-2.776701	, ñ
-2.827854	, ò
-2.952792	, ó
-2.776701	, ÷
-1.833317	, а
-1.703594	, б
-1.349829	, в
-2.276099	, г
-1.533663	, д
-1.945614	, е
-2.801525	, ж
-1.547674	, з
-1.203314	, и
-2.91803	, й
-0.9160305	, к
-2.569576	, л
-1.986651	, м
-1.401546	, н
-1.333873	, о
-0.7669199	, п
-1.827854	, р
-1.175849	, с
-1.683669	, т
-1.879685	, у
-2.268546	, ф
-2.634034	, х
-2.475671	, ц
-1.083072	, ч
-2.952792	, ш
-2.60061	, щ
-2.990581	, ю
-2.885846	, я
-2.990581	, і
-2.453596	- "
-2.453596	- 0
-2.097049	- 1
-2.318898	- 2
-2.453596	- 3
-2.415808	- 4
-2.415808	- 5
-2.453596	- 6
-2.381046	- 7
-2.453596	- 8
-2.415808	- 9
-2.453596	- </s>
-2.415808	- a
-2.453596	- b
-2.453596	- c
-2.381046	- d
-2.453596	- h
-2.453596	- i
-2.415808	- o
-2.415808	- s
-2.415808	- v
-2.453596	- ê
-2.453596	- ï
-2.216235	- ÷
-2.080016	- а
-2.063625	- б
-1.709659	- в
-1.851536	- г
-1.614175	- д
-2.047831	- е
-2.453596	- ж
-2.047831	- з
-1.903924	- и
-1.503763	- к
-1.449666	- м
-1.716838	- н
-1.96351	- о
-1.778986	- п
-1.87174	- р
-1.137054	- с
-2.003627	- т
-2.415808	- у
-2.290869	- ф
-2.290869	- х
-2.318898	- ц
-0.5609958	- ч
-2.318898	- ш
-2.381046	- щ
-2.381046	- я
-1.645252	. "
-2.548342	. (
-2.361255	. )
-1.849372	. ,
-2.548342	. -
-2.583104	. .
-2.548342	. 0
-2.071221	. 1
-2.130807	. 2
-2.486194	. 3
-2.458166	. 4
-2.516157	. 5
-2.620893	. 6
-2.431837	. 7
-2.407013	. 8
-2.548342	. :
-2.458166	. ;
-0.4994225	. </s>
-2.458166	. _
-2.548342	. a
-2.583104	. e
-2.620893	. o
-2.620893	. à
-2.516157	. â
-2.548342	. ç
-2.620893	. è
-2.620893	. ì
-2.620893	. î
-2.516157	. ï
-2.620893	. ñ
-2.548342	. ò
-1.869894	. а
-2.118217	. б
-1.421736	. в
-2.264345	. г
-1.429289	. д
-2.264345	. е
-2.583104	. ж
-1.620893	. з
-2.039036	. и
-1.45277	. к
-2.516157	. л
-2.094084	. м
-1.748472	. н
-1.388128	. о
-1.416773	. п
-1.946282	. р
-1.63698	. с
-1.597828	. т
-2.130807	. у
-2.548342	. ф
-2.458166	. ц
-1.906411	. ч
-2.583104	. ш
-2.583104	. щ
-2.620893	. ю
-2.583104	. №
-2.417698	/ /
-1.425667	/ 1
-1.398393	/ 2
-1.613993	/ 3
-1.345147	/ 4
-1.65975	/ 5
-1.331986	/ 6
-1.519572	/ 7
-1.467865	/ 8
-1.120634	/ 9
-2.417698	/ a
-2.417698	/ c
-2.417698	/ d
-1.940577	/ e
-2.417698	/ в
-2.417698	/ д
-0.7742454	/ е
-2.417698	/ з
-1.561464	/ и
-2.417698	/ л
-2.417698	/ м
-2.312963	/ п
-2.417698	/ с
-2.417698	/ т
-2.417698	/ ф
-2.417698	/ ц
-2.37991	/ ч
-2.33829	0 "
-1.693196	0 %
-2.116442	0 (
-2.055744	0 )
-1.572374	0 ,
-2.24138	0 -
-1.885993	0 .
-1.1574	0 /
-0.8516239	0 0
-1.536658	0 1
-1.439748	0 2
-1.685078	0 3
-1.970314	0 4
-2.075049	0 5
-2.002498	0 6
-1.84927	0 7
-1.94035	0 8
-1.955074	0 9
-2.376079	0 :
-2.271344	0 ;
-1.784003	0 </s>
-2.376079	0 e
-2.376079	0 f
-2.376079	0 î
-2.095253	0 а
-2.33829	0 б
-2.24138	0 в
-1.63932	0 г
-2.037261	0 д
-2.187023	0 е
-2.376079	0 з
-2.162199	0 и
-2.187023	0 к
-2.138718	0 м
-1.794222	0 н
-1.826407	0 о
-2.33829	0 п
-2.24138	0 р
-2.019532	0 с
-2.24138	0 т
-2.376079	0 ф
-2.33829	0 х
-2.376079	0 ц
-2.376079	0 ч
-2.055744	0 ю
-2.549412	1 "
-2.549412	1 %
-2.197229	1 (
-1.699174	1 )
-1.095839	1 ,
-2.424473	1 -
-1.154377	1 .
-1.449616	1 /
-1.378173	1 0
-1.452502	1 1
-1.495054	1 2
-1.538688	1 3
-1.538688	1 4
-1.51465	1 5
-1.646322	1 6
-1.61156	1 7
-1.694095	1 8
-0.9491653	1 9
-2.398144	1 :
-2.248382	1 ;
-1.646322	1 </s>
-2.549412	1 k
-2.327563	1 а
-2.549412	1 б
-2.587201	1 в
-1.904317	1 г
-1.985141	1 д
-2.549412	1 е
-2.482465	1 з
-1.736499	1 и
-2.587201	1 л
-2.181435	1 м
-2.015809	1 н
-1.628593	1 о
-2.373321	1 п
-2.51465	1 р
-2.015809	1 с
-2.549412	1 т
-2.51465	1 у
-2.587201	1 ф
-2.587201	1 ц
-2.587201	1 ч
-2.181435	1 ю
-1.888231	1 я
-2.508468	2 "
-2.403733	2 %
-2.403733	2 (
-1.558635	2 )
-1.120109	2 ,
-2.435918	2 -
-1.07419	2 .
-1.282689	2 /
-0.997193	2 0
-1.743681	2 1
-1.549861	2 2
-1.630783	2 3
-1.581378	2 4
-1.641376	2 5
-1.680629	2 6
-1.850891	2 7
-1.764531	2 8
-1.669048	2 9
-2.188133	2 ;
-1.485403	2 </s>
-2.47068	2 a
-2.435918	2 а
-2.508468	2 б
-2.508468	2 в
-1.736948	2 г
-2.248831	2 д
-2.47068	2 е
-2.435918	2 з
-1.833858	2 и
-2.435918	2 к
-2.508468	2 л
-2.248831	2 м
-1.896649	2 н
-1.581378	2 о
-2.319412	2 п
-2.508468	2 р
-1.926612	2 с
-2.47068	2 у
-2.47068	2 ф
-2.47068	2 ч
-2.271108	2 ю
-2.276133	3 %
-2.34308	3 (
-1.602718	3 )
-1.166989	3 ,
-2.218142	3 -
-1.15981	3 .
-1.263899	3 /
-1.541448	3 0
-1.508448	3 1
-1.681899	3 2
-1.820202	3 3
-1.903748	3 4
-1.865959	3 5
-1.583412	3 6
-1.714691	3 7
-1.865959	3 8
-1.788793	3 9
-2.308318	3 :
-2.143508	3 ;
-1.503183	3 </s>
-2.380869	3 e
-2.380869	3 è
-2.276133	3 а
-2.308318	3 б
-2.276133	3 в
-1.666387	3 г
-2.143508	3 д
-2.34308	3 з
-1.778809	3 и
-2.380869	3 к
-2.308318	3 м
-1.903748	3 н
-1.5472	3 о
-2.218142	3 п
-1.94514	3 с
-2.380869	3 т
-2.34308	3 ф
-2.380869	3 щ
-2.218142	3 ю
-2.24342	4 "
-2.278182	4 %
-2.211235	4 (
-1.649793	4 )
-1.253559	4 ,
-2.31597	4 -
-1.300458	4 .
-1.236789	4 /
-1.755303	4 0
-1.704151	4 1
-1.601488	4 2
-1.723895	4 3
-1.959423	4 4
-1.977152	4 5
-1.766298	4 6
-1.977152	4 7
-1.734114	4 8
-1.649793	4 9
-2.24342	4 :
-2.056333	4 ;
-1.518514	4 </s>
-2.31597	4 n
-2.31597	4 î
-2.31597	4 ÷
-2.126914	4 а
-2.31597	4 б
-2.211235	4 в
-1.755303	4 г
-2.126914	4 д
-2.31597	4 е
-2.31597	4 з
-1.894965	4 и
-2.278182	4 к
-2.278182	4 м
-1.995635	4 н
-1.685265	4 о
-2.24342	4 п
-1.94239	4 с
-2.31597	4 у
-2.278182	4 ф
-2.24342	4 ч
-2.078609	4 ю
-1.824655	5 %
-2.125684	5 (
-1.537413	5 )
-1.352081	5 ,
-2.215861	5 -
-1.43771	5 .
-1.366017	5 /
-1.696336	5 0
-1.785736	5 1
-1.761603	5 2
-1.852683	5 3
-1.750021	5 4
-2.028774	5 5
-1.773502	5 6
-1.914831	5 7
-1.838443	5 8
-2.007585	5 9
-2.250623	5 :
-2.074532	5 ;
-1.639608	5 </s>
-2.288412	5 ]
-2.288412	5 b
-2.288412	5 ä
-2.288412	5 ñ
-2.183676	5 а
-2.215861	5 в
-1.630834	5 г
-2.125684	5 д
-2.215861	5 е
-2.215861	5 з
-1.727745	5 и
-2.183676	5 к
-2.051051	5 м
-1.852683	5 н
-1.761603	5 о
-2.125684	5 п
-2.215861	5 р
-1.987382	5 с
-2.215861	5 т
-2.250623	5 ф
-1.987382	5 ю
-2.250623	5 я
-2.313867	6 "
-2.209132	6 %
-2.276079	6 (
-1.692502	6 )
-1.359625	6 ,
-2.276079	6 -
-1.630984	6 .
-1.112222	6 /
-1.591832	6 0
-1.892862	6 1
-1.577109	6 2
-1.892862	6 3
-1.775476	6 4
-1.878139	6 5
-1.562868	6 6
-1.65629	6 7
-1.522751	6 8
-1.892862	6 9
-2.313867	6 :
-2.099988	6 ;
-1.622866	6 </s>
-2.313867	6 e
-2.313867	6 à
-2.313867	6 ó
-2.313867	6 ù
-2.209132	6 а
-2.276079	6 в
-1.683162	6 г
-2.033041	6 д
-2.276079	6 е
-2.313867	6 з
-2.05423	6 и
-2.209132	6 м
-1.940287	6 н
-1.764195	6 о
-2.276079	6 п
-1.95732	6 с
-2.124811	6 ф
-2.033041	6 ю
-2.241317	6 я
-2.300833	7 "
-2.263044	7 %
-2.138105	7 (
-1.798157	7 )
-1.428411	7 ,
-2.263044	7 -
-1.774024	7 .
-1.235015	7 /
-1.617949	7 0
-1.762442	7 1
-1.634655	7 2
-1.689013	7 3
-1.798157	7 4
-1.609831	7 5
-1.617949	7 6
-1.594037	7 7
-1.509716	7 8
-1.751161	7 9
-2.166134	7 ;
-1.679467	7 </s>
-2.300833	7 e
-2.300833	7 ã
-2.228282	7 а
-2.300833	7 б
-2.300833	7 в
-1.660984	7 г
-2.041195	7 д
-2.300833	7 е
-2.300833	7 з
-1.944285	7 и
-2.086953	7 м
-1.865104	7 н
-1.785923	7 о
-2.166134	7 п
-2.111776	7 с
-2.196097	7 у
-2.263044	7 ф
-2.063472	7 ю
-2.203538	8 (
-1.736882	8 )
-1.523591	8 ,
-1.747606	8 .
-1.104153	8 /
-1.769882	8 0
-1.578814	8 1
-1.793363	8 2
-1.793363	8 3
-1.831152	8 4
-1.633663	8 5
-1.617272	8 6
-1.523591	8 7
-1.65947	8 8
-1.480434	8 9
-2.173575	8 ;
-1.686908	8 </s>
-2.203538	8 а
-2.308273	8 б
-2.308273	8 в
-1.65947	8 г
-2.070912	8 д
-1.934693	8 и
-2.119217	8 м
-1.831152	8 н
-1.805598	8 о
-2.308273	8 п
-2.070912	8 с
-2.308273	8 ф
-2.270485	8 ч
-2.048636	8 ю
-2.270485	8 я
-2.402977	9 (
-1.938091	9 )
-1.64331	9 ,
-1.891094	9 .
-1.264675	9 /
-1.465125	9 0
-1.452775	9 1
-1.432941	9 2
-1.452775	9 3
-1.618836	9 4
-1.624826	9 5
-1.448735	9 6
-1.432941	9 7
-1.289034	9 8
-0.9163109	9 9
-2.440766	9 :
-2.336031	9 ;
-1.925856	9 </s>
-2.368215	9 e
-2.368215	9 а
-2.306067	9 б
-1.774588	9 г
-2.278039	9 д
-2.440766	9 ж
-2.368215	9 з
-2.050795	9 и
-2.440766	9 к
-2.226886	9 м
-2.019761	9 н
-1.902375	9 о
-2.440766	9 п
-2.25171	9 с
-2.402977	9 ф
-2.181129	9 ю
-1.863552	: "
-2.199344	: '
-2.237132	: (
-2.132397	: -
-2.132397	: 1
-2.237132	: 3
-0.6073521	: </s>
-2.237132	: l
-1.936102	: а
-2.048076	: в
-2.199344	: г
-2.237132	: д
-2.164582	: е
-2.237132	: з
-2.199344	: и
-2.237132	: к
-2.164582	: м
-2.237132	: н
-2.237132	: о
-2.074405	: п
-2.237132	: р
-2.132397	: с
-2.132397	: т
-2.237132	: у
-2.237132	: ч
-2.182985	; "
-0.5133582	; </s>
-2.317683	; e
-2.317683	; è
-2.279895	; а
-2.016654	; в
-2.128627	; д
-2.279895	; з
-1.867715	; и
-1.128627	; к
-2.317683	; л
-2.279895	; м
-2.317683	; н
-2.279895	; о
-2.317683	; п
-2.212948	; с
-2.036857	; т
-2.279895	; ч
-1.729228	<s> "
-2.482556	<s> '
-1.182734	<s> (
-2.10436	<s> *
-1.334708	<s> -
-2.696436	<s> .
-1.334708	<s> 1
-1.343377	<s> 2
-1.550308	<s> 3
-1.793346	<s> 4
-2.005435	<s> 5
-2.19376	<s> 6
-2.29067	<s> 7
-2.459075	<s> 8
-2.436799	<s> 9
-2.696436	<s> [
-2.246467	<s> a
-2.696436	<s> c
-2.696436	<s> e
-2.339889	<s> i
-2.623885	<s> o
-2.696436	<s> s
-2.658647	<s> v
-2.50738	<s> ­
-2.482556	<s> ×
-2.658647	<s> â
-2.696436	<s> å
-2.591701	<s> è
-2.658647	<s> ê
-2.696436	<s> ï
-2.658647	<s> ò
-1.597949	<s> а
-1.651469	<s> б
-1.531003	<s> в
-1.89273	<s> г
-1.655043	<s> д
-2.030258	<s> е
-2.436799	<s> ж
-1.834738	<s> з
-2.094376	<s> и
-2.591701	<s> й
-0.9015044	<s> к
-2.561737	<s> л
-2.459075	<s> м
-1.724991	<s> н
-1.696436	<s> о
-1.438975	<s> п
-1.829343	<s> р
-1.778787	<s> с
-2.219315	<s> т
-2.50738	<s> у
-2.623885	<s> ф
-2.696436	<s> х
-2.561737	<s> ц
-1.018497	<s> ч
-2.623885	<s> −
-2.055633	[ p
-2.093422	[ s
-2.093422	[ v
-2.020871	] *
-2.093422	] </s>
-2.086656	_ (
-1.989746	_ </s>
-1.132414	_ _
-2.056905	a (
-1.579784	a )
-1.841305	a ,
-2.08909	a -
-2.123852	a .
-2.16164	a /
-2.16164	a 2
-1.998913	a a
-2.08909	a b
-1.740635	a c
-1.86061	a d
-2.026942	a e
-2.026942	a f
-2.056905	a g
-2.123852	a i
-1.671554	a l
-1.902003	a m
-1.684519	a n
-1.998913	a p
-1.805093	a r
-1.822822	a s
-1.78806	a t
-2.16164	a v
-2.123852	a z
-2.16164	a ç
-2.16164	a î
-2.16164	a д
-2.123852	a и
-2.16164	a м
-2.056905	a н
-2.123852	a о
-2.16164	a с
-2.063208	b ,
-2.100997	b -
-1.938269	b a
-1.911941	b e
-2.100997	b h
-2.100997	b i
-2.100997	b l
-2.063208	b r
-1.938269	b u
-2.100997	b и
-2.120873	c (
-2.083084	c ,
-2.120873	c .
-2.120873	c 3
-2.120873	c 9
-1.986174	c a
-2.083084	c c
-1.764326	c e
-2.120873	c f
-1.958146	c h
-1.840046	c i
-2.120873	c k
-2.120873	c l
-2.120873	c m
-2.083084	c n
-1.819843	c o
-1.840046	c p
-2.120873	c r
-2.083084	c s
-2.083084	c t
-1.883512	c u
-2.083084	c и
-2.120873	c к
-2.083084	c м
-2.007992	d "
-1.978028	d a
-2.074938	d c
-1.662758	d e
-2.040176	d g
-2.007992	d h
-1.923671	d i
-2.112727	d j
-2.112727	d k
-2.112727	d l
-2.112727	d m
-2.112727	d n
-1.978028	d o
-2.074938	d p
-2.074938	d r
-2.112727	d t
-2.112727	d u
-2.112727	d v
-2.112727	d w
-2.074938	d и
-2.00459	e "
-1.978261	e )
-2.094767	e ,
-2.167317	e -
-2.167317	e .
-2.167317	e /
-2.129529	e ;
-1.953438	e a
-2.00459	e c
-1.953438	e d
-2.129529	e e
-2.032619	e f
-2.094767	e g
-2.129529	e h
-2.062582	e i
-2.129529	e k
-1.828499	e l
-1.978261	e m
-1.828499	e n
-2.062582	e o
-2.129529	e q
-1.746312	e r
-1.717348	e s
-1.828499	e t
-1.677231	e u
-2.094767	e v
-2.032619	e x
-2.167317	e z
-2.094767	e в
-2.167317	e г
-2.167317	e е
-1.536612	e и
-2.167317	e к
-2.129529	e н
-1.746312	e о
-2.167317	e п
-2.129529	e р
-2.167317	e с
-2.102247	f (
-2.064458	f 1
-1.888367	f a
-2.064458	f e
-2.064458	f f
-2.102247	f g
-2.102247	f h
-2.102247	f l
-1.997511	f o
-1.997511	f r
-2.029696	f t
-2.064458	f u
-2.102247	f и
-2.10131	g "
-2.063521	g )
-1.996574	g a
-2.10131	g b
-2.10131	g d
-2.028759	g e
-2.10131	g h
-1.996574	g i
-2.10131	g m
-2.063521	g o
-1.938582	g r
-2.063521	g s
-2.10131	g u
-2.104425	h (
-2.031874	h )
-2.104425	h ,
-2.031874	h -
-2.104425	h /
-1.915369	h a
-1.867064	h e
-1.969726	h i
-2.066637	h m
-2.031874	h o
-2.066637	h r
-2.104425	h s
-2.104425	h н
-2.221058	i (
-1.411193	i )
-1.538175	i ,
-2.221058	i -
-2.058331	i .
-2.221058	i :
-2.18327	i ;
-2.148508	i </s>
-1.800053	i a
-2.032002	i c
-2.08636	i d
-2.007179	i e
-2.148508	i f
-2.08636	i g
-1.08636	i i
-2.058331	i l
-2.18327	i m
-1.639202	i n
-1.961421	i o
-2.18327	i p
-2.221058	i q
-2.116323	i r
-1.800053	i s
-2.08636	i t
-2.18327	i u
-1.757301	i v
-2.18327	i x
-2.221058	i z
-2.221058	i é
-2.221058	i ê
-2.221058	i ó
-2.18327	i б
-2.221058	i в
-2.221058	i д
-1.961421	i и
-1.730972	i к
-2.221058	i м
-2.18327	i н
-2.007179	i о
-2.221058	i п
-2.221058	i р
-2.148508	i с
-2.092465	j o
-2.09691	k a
-2.09691	k c
-2.059121	k e
-2.059121	k g
-2.09691	k k
-1.962211	k o
-2.024359	k s
-2.116064	l '
-2.011329	l .
-2.116064	l 1
-2.043513	l 3
-2.043513	l ]
-1.835238	l a
-2.078275	l b
-2.078275	l c
-2.043513	l d
-1.953337	l e
-2.078275	l f
-2.116064	l g
-1.856427	l i
-2.078275	l l
-2.116064	l n
-1.902184	l o
-2.011329	l q
-2.043513	l s
-2.011329	l t
-2.116064	l u
-2.116064	l v
-2.043513	l к
-2.116064	l с
-2.011329	m (
-2.116064	m )
-2.078275	m ,
-2.116064	m -
-2.116064	m 1
-2.043513	m 2
-2.116064	m 3
-2.116064	m </s>
-1.856427	m a
-2.116064	m b
-1.953337	m c
-1.902184	m e
-1.835238	m i
-2.116064	m l
-1.981366	m o
-2.116064	m p
-2.011329	m s
-2.043513	m t
-2.011329	m u
-2.043513	m y
-2.116064	m в
-2.078275	m з
-2.078275	m и
-2.116064	m о
-2.05866	n "
-2.13121	n (
-1.91733	n )
-2.093422	n +
-2.13121	n ,
-2.05866	n 1
-2.093422	n 2
-2.093422	n 4
-1.792392	n a
-2.05866	n c
-1.774663	n d
-2.05866	n e
-1.996512	n g
-1.83018	n i
-2.05866	n m
-2.13121	n n
-1.996512	n o
-2.05866	n r
-1.968483	n s
-1.774663	n t
-2.13121	n u
-2.13121	n y
-1.725445	n î
-2.13121	n к
-2.130334	o "
-2.130334	o '
-2.057783	o )
-2.057783	o ,
-2.130334	o 2
-2.130334	o 3
-2.092545	o a
-2.092545	o b
-1.941278	o c
-1.870696	o d
-2.130334	o e
-2.025599	o f
-2.092545	o g
-2.092545	o h
-1.995635	o k
-1.892973	o l
-1.809999	o m
-1.724568	o n
-2.057783	o o
-2.130334	o p
-1.870696	o r
-2.092545	o s
-1.995635	o t
-2.130334	o u
-1.995635	o v
-2.025599	o x
-2.130334	o z
-2.130334	o ρ
-2.130334	o σ
-2.130334	o и
-1.995635	o т
-2.104735	p )
-2.104735	p ,
-2.104735	p -
-2.066947	p .
-2.104735	p ;
-2.066947	p a
-2.032185	p e
-2.066947	p h
-2.032185	p l
-2	p o
-2.032185	p p
-2	p r
-2.104735	p s
-2.104735	p t
-2.104735	p u
-1.867374	p v
-2.104735	p y
-1.90532	q u
-2.094879	r "
-2.132667	r ,
-2.132667	r -
-2.132667	r .
-2.132667	r 3
-2.094879	r 6
-1.492819	r a
-2.094879	r b
-2.094879	r c
-2.132667	r d
-1.742696	r e
-2.060117	r h
-1.895306	r i
-2.094879	r k
-2.132667	r l
-2.094879	r m
-2.094879	r n
-1.682698	r o
-1.96994	r r
-1.997969	r s
-2.094879	r t
-1.96994	r u
-2.132667	r w
-2.060117	r y
-2.094879	r н
-2.087841	s "
-2.125629	s '
-2.087841	s (
-2.125629	s )
-1.962902	s ,
-2.087841	s -
-2.125629	s 5
-2.125629	s :
-2.125629	s ;
-2.087841	s </s>
-1.888268	s a
-1.990931	s c
-1.865992	s e
-1.990931	s f
-2.125629	s g
-2.125629	s h
-2.053078	s i
-2.125629	s k
-2.125629	s l
-1.844802	s m
-1.936573	s o
-2.020894	s p
-2.020894	s s
-1.769082	s t
-2.087841	s u
-2.125629	s é
-2.087841	s в
-2.125629	s д
-2.087841	s и
-2.125629	s о
-2.087841	s п
-2.125629	s с
-2.125629	s №
-2.087249	t "
-2.125037	t ,
-2.125037	t 1
-2.125037	t 2
-2.125037	t 3
-1.804702	t a
-1.647916	t e
-2.125037	t f
-2.087249	t g
-1.804702	t h
-1.719272	t i
-2.052487	t o
-1.824007	t r
-2.052487	t s
-2.087249	t t
-1.990339	t u
-2.125037	t v
-2.087249	t y
-2.125037	t é
-2.087249	t с
-2.115762	u .
-2.043211	u c
-2.115762	u d
-1.953034	u e
-2.043211	u i
-1.981063	u l
-1.878401	u m
-2.077973	u n
-2.077973	u o
-2.115762	u p
-1.56609	u r
-1.981063	u s
-2.011026	u t
-2.077973	u u
-2.115762	u з
-2.077973	u н
-2.134409	v "
-1.897048	v )
-1.744438	v ,
-1.971682	v .
-2.09662	v ;
-2.09662	v </s>
-1.99971	v a
-2.061858	v e
-1.670652	v i
-2.061858	v o
-2.134409	v p
-2.134409	v í
-2.134409	v ò
-2.061858	v в
-2.09662	v г
-2.09662	v з
-1.945353	v и
-1.920529	v к
-2.134409	v н
-2.061858	v о
-2.134409	v п
-2.09662	v с
-2.134409	v т
-1.513044	v і
-2.020552	w i
-2.059121	x ,
-1.962211	x a
-2.09691	x e
-2.09691	x i
-2.024359	x t
-2.059121	x к
-2.09691	x р
-2.058173	y a
-2.095961	y c
-2.058173	y l
-2.095961	y m
-2.023411	y o
-2.095961	y p
-2.095961	y r
-2.095961	y t
-2.094693	z a
-2.094693	z e
-2.056905	z i
-2.022143	z o
-2.094693	z s
-2.094376	­ в
-2.094376	­ д
-2.094376	­ з
-2.094376	­ к
-2.094376	­ т
-2.056587	­ ч
-1.622308	× ë
-2.092784	ß -
-2.092784	ß ò
-2.227458	à "
-1.964217	à (
-2.130548	à )
-1.815278	à ,
-2.227458	à -
-2.160511	à .
-2.227458	à ;
-2.07619	à ×
-2.265247	à à
-1.926428	à á
-1.643882	à â
-1.738438	à ã
-1.616443	à ä
-2.10252	à å
-2.130548	à æ
-1.653427	à ç
-1.908699	à è
-2.051367	à é
-1.875276	à ê
-1.964217	à ë
-2.051367	à ì
-1.231092	à í
-1.738438	à î
-1.590636	à ï
-1.715575	à ð
-1.574246	à ñ
-1.420149	à ò
-2.10252	à ó
-2.160511	à ô
-1.625398	à ö
-2.027886	à ÷
-2.130548	à ù
-2.160511	à ÿ
-2.160511	à р
-2.012536	á )
-1.954544	á à
-1.711506	á â
-2.012536	á å
-2.012536	á ç
-2.079483	á è
-1.954544	á ë
-2.044721	á í
-1.928215	á î
-1.928215	á ð
-1.982573	á ó
-2.044721	á õ
-1.982573	á ù
-1.928215	á ú
-2.087454	â )
-2.055269	â ×
-1.402057	â à
-2.122216	â á
-2.122216	â â
-2.122216	â ä
-1.461034	â å
-2.160004	â ç
-1.738999	â è
-1.997277	â ê
-2.025306	â ë
-2.055269	â í
-1.511201	â î
-2.087454	â ï
-2.087454	â ð
-1.724276	â ñ
-2.087454	â ò
-1.858974	â ú
-2.087454	â ÿ
-2.160004	â р
-2.117874	ã o
-1.478025	ã à
-1.928817	ã è
-1.903994	ã ë
-2.080085	ã í
-1.654116	ã î
-1.983175	ã ð
-1.993712	ä ,
-1.358983	ä à
-1.942559	ä â
-2.156439	ä ä
-1.766468	ä å
-1.62963	ä è
-1.967383	ä ë
-1.799892	ä í
-1.72071	ä î
-2.156439	ä ï
-1.967383	ä ð
-1.735434	ä ñ
-1.641529	ä ó
-2.051704	ä ú
-2.181129	å "
-1.898582	å ,
-2.029861	å -
-2.114182	å .
-2.181129	å 1
-2.218917	å 2
-2.181129	å ;
-2.146367	å i
-2.181129	å v
-2.114182	å à
-2.146367	å á
-2.05619	å â
-2.05619	å ã
-1.496882	å ä
-2.05619	å å
-2.146367	å æ
-1.797912	å ç
-1.981556	å è
-2.114182	å é
-1.86237	å ê
-1.783189	å ë
-2.05619	å ì
-1.159939	å í
-1.828946	å î
-1.813152	å ï
-1.86237	å ð
-1.47498	å ñ
-1.588212	å ò
-2.084219	å ó
-2.114182	å ô
-2.181129	å õ
-2.181129	å ö
-2.181129	å ÷
-2.181129	å ø
-2.114182	å ù
-2.218917	å ÿ
-1.965985	æ à
-1.995948	æ á
-2.062895	æ ä
-1.780349	æ å
-2.062895	æ è
-2.100684	æ í
-1.225309	ç à
-2.065609	ç á
-1.661038	ç â
-2.100371	ç ã
-2.065609	ç ä
-2.100371	ç ç
-1.781612	ç è
-2.065609	ç ë
-2.100371	ç ì
-2.003461	ç í
-2.033424	ç ï
-1.975432	ç ð
-2.138159	ç ò
-2.065609	ç õ
-2.197281	è "
-2.235069	è (
-1.829304	è ,
-2.235069	è -
-2.072342	è .
-2.235069	è 2
-2.235069	è ;
-2.235069	è ß
-2.130334	è à
-2.100371	è á
-1.878522	è â
-2.130334	è ã
-1.878522	è ä
-1.878522	è å
-1.373372	è ç
-1.674402	è è
-2.130334	è ê
-1.829304	è ë
-1.861488	è ì
-1.685397	è í
-1.799341	è î
-1.70826	è ï
-1.771312	è ð
-1.642993	è ñ
-1.227244	è ò
-2.235069	è ó
-2.235069	è ô
-2.235069	è õ
-1.954242	è ÷
-2.235069	è ø
-2.162519	è ù
-1.544068	è ÿ
-2.021189	è р
-2.097226	é a
-2.097226	é r
-2.097226	é t
-1.962527	é ê
-1.962527	é í
-2.059437	é ñ
-2.097226	é ò
-1.688764	ê à
-2.138733	ê â
-1.611924	ê è
-1.976006	ê ë
-1.387734	ê î
-2.033998	ê ð
-2.033998	ê ñ
-1.648647	ê ò
-2.004035	ê ó
-2.004035	ê ö
-2.004035	ê ú
-2.141877	ë ,
-2.141877	ë 1
-1.530057	ë à
-2.141877	ë á
-1.435082	ë å
-2.104089	ë æ
-2.141877	ë ç
-1.626967	ë è
-1.751906	ë í
-1.751906	ë î
-2.141877	ë ò
-1.927997	ë ó
-2.141877	ë ø
-2.037142	ë þ
-2.037142	ë ÿ
-2.119076	ì .
-1.745495	ì à
-1.698071	ì å
-1.604166	ì è
-1.780257	ì î
-2.01434	ì ï
-2.119076	ì ò
-2.119076	ì ó
-1.984377	ì ÿ
-1.947924	í 1
-2.044834	í 2
-2.13501	í 3
-2.207561	í 4
-2.169772	í 5
-2.207561	í 6
-1.081636	í à
-2.207561	í ã
-2.169772	í ä
-1.508591	í å
-2.207561	í ç
-1.166168	í è
-1.9702	í ê
-2.207561	í ì
-2.102826	í í
-1.493079	í î
-2.207561	í ï
-2.207561	í ð
-1.947924	í ñ
-1.851014	í ò
-2.169772	í ô
-2.207561	í ú
-2.13501	í ÿ
-2.19636	î "
-2.09945	î ,
-2.234149	î -
-1.79842	î .
-2.234149	î ;
-2.234149	î t
-2.19636	î ×
-1.770392	î á
-1.695758	î â
-2.020269	î ã
-1.336022	î ä
-1.974512	î å
-1.877602	î æ
-2.129414	î ç
-1.585346	î è
-2.234149	î é
-1.877602	î ê
-1.877602	î ë
-1.757028	î ì
-1.744063	î í
-2.071422	î î
-1.877602	î ï
-1.476201	î ð
-1.50469	î ñ
-1.351262	î ò
-2.19636	î ö
-2.161598	î ÷
-2.19636	î ø
-2.19636	î ù
-2.045093	î ÿ
-1.789581	ï à
-1.932248	ï å
-2.073577	ï ë
-1.395129	ï î
-1.162215	ï ð
-2.146128	ï ñ
-2.146128	ï ó
-2.073577	ï ú
-2.146128	ï ÿ
-1.356262	ð à
-2.073457	ð â
-1.728223	ð ã
-1.471396	ð å
-2.178192	ð æ
-2.140403	ð ç
-1.512014	ð è
-2.140403	ð ê
-2.140403	ð ì
-1.857857	ð í
-1.356262	ð î
-2.178192	ð ï
-2.178192	ð ñ
-1.989136	ð ò
-2.015465	ð ó
-2.140403	ð ø
-2.140403	ð ú
-2.178192	ð þ
-1.742463	ð ÿ
-1.76316	ñ )
-1.705168	ñ à
-2.168926	ñ á
-1.97987	ñ â
-1.642117	ñ å
-1.778955	ñ è
-1.931565	ñ ê
-1.909289	ñ ë
-1.909289	ñ ì
-1.931565	ñ í
-2.034227	ñ î
-1.909289	ñ ï
-2.168926	ñ ñ
-1.27582	ñ ò
-2.06419	ñ ó
-2.168926	ñ õ
-1.66625	ñ ú
-1.97987	ñ ÿ
-2.06419	ñ р
-2.223425	ò "
-2.009545	ò ,
-2.185637	ò .
-2.223425	ò 5
-2.185637	ò :
-2.185637	ò ×
-1.34574	ò à
-2.185637	ò á
-1.574622	ò â
-2.088727	ò ã
-1.922395	ò ä
-1.247784	ò å
-2.185637	ò ç
-1.548815	ò è
-2.11869	ò ê
-2.185637	ò ë
-2.088727	ò ì
-1.787697	ò í
-1.34574	ò î
-1.922395	ò ï
-1.574622	ò ð
-2.009545	ò ñ
-1.884607	ò ò
-2.185637	ò ó
-2.223425	ò ÷
-2.185637	ò ú
-2.060698	ò ÿ
-2.223425	ò п
-2.060698	ò р
-2.115156	ó n
-2.115156	ó á
-2.010421	ó â
-2.042606	ó ã
-2.115156	ó ä
-1.612481	ó ê
-2.115156	ó ë
-1.877796	ó ì
-2.115156	ó í
-1.980458	ó ï
-2.115156	ó ð
-2.042606	ó ñ
-2.010421	ó ò
-1.980458	ó ö
-1.901277	ó ÷
-2.077368	ó ø
-2.095645	ô 1
-2.095645	ô 2
-2.095645	ô 4
-2.057856	ô à
-1.990909	ô è
-2.057856	ô î
-2.058489	õ à
-2.058489	õ â
-2.096278	õ å
-2.096278	õ ê
-2.096278	õ í
-1.961579	õ î
-2.096278	õ ò
-2.035891	ö å
-1.401647	ö è
-2.108442	ö î
-2.108442	ö ñ
-2.108442	ö ÿ
-1.828844	÷ à
-2.03712	÷ â
-1.673942	÷ å
-2.071882	÷ è
-2.004935	÷ ê
-1.828844	÷ ë
-2.071882	÷ í
-2.03712	÷ ð
-2.057539	ø â
-1.960629	ø å
-2.095328	ø è
-2.095328	ø ë
-2.095328	ø í
-1.964417	ù à
-1.818289	ù å
-1.964417	ù í
-2.099115	ù î
-1.851564	ú â
-2.038651	ú ã
-1.851564	ú ä
-2.111201	ú æ
-2.111201	ú ç
-1.790866	ú ë
-2.111201	ú ì
-2.111201	ú í
-2.038651	ú î
-1.976503	ú ï
-1.922145	ú ð
-2.073413	ú ñ
-2.038651	ú ò
-2.111201	ú ù
-2.09374	þ ê
-2.09374	þ ñ
-2.021189	þ ÷
-1.962014	ÿ ,
-2.086953	ÿ .
-2.124741	ÿ ;
-2.020006	ÿ à
-1.73477	ÿ á
-1.910861	ÿ â
-2.124741	ÿ ã
-2.086953	ÿ ç
-2.020006	ÿ è
-1.962014	ÿ ê
-2.124741	ÿ ë
-2.086953	ÿ ì
-1.935685	ÿ í
-2.052191	ÿ ï
-2.052191	ÿ ñ
-1.512921	ÿ ò
-2.052191	ÿ õ
-2.124741	ÿ ÷
-2.092465	ά δ
-2.092465	έ λ
-2.092465	α υ
-2.092465	γ α
-2.093103	δ η
-2.093103	δ ο
-2.093103	δ ρ
-2.092465	η ρ
-2.092784	ι δ
-2.092784	ι σ
-2.092784	λ ά
-2.092784	λ λ
-2.092784	μ ω
-2.092784	μ ό
-2.092784	ο δ
-2.092784	ο ς
-2.093103	ρ γ
-2.093103	ρ ο
-2.093103	ρ ό
-2.092784	ς a
-2.092784	ς σ
-2.093103	σ e
-2.093103	σ ι
-2.093103	σ μ
-2.092784	υ έ
-2.092784	υ ι
-2.092465	ω υ
-2.092784	ό μ
-2.092784	ό ς
-2.873915	а "
-3.777005	а '
-2.814076	а (
-2.523931	а )
-3.777005	а *
-1.526363	а ,
-2.306514	а -
-2.100727	а .
-3.642306	а /
-3.672269	а 0
-2.704454	а 1
-2.926303	а 2
-3.174945	а 3
-3.313247	а 4
-3.387034	а 5
-3.227333	а 6
-2.831626	а 7
-2.888978	а 8
-2.61974	а 9
-2.633706	а :
-2.508767	а ;
-2.797208	а </s>
-3.475975	а a
-3.739216	а b
-3.704454	а c
-3.438186	а e
-3.438186	а i
-3.704454	а m
-3.739216	а n
-3.739216	а o
-3.739216	а p
-3.739216	а r
-3.777005	а s
-3.739216	а t
-3.539644	а v
-3.777005	а ß
-2.398442	а а
-1.698153	а б
-1.114848	а в
-1.595161	а г
-1.310407	а д
-1.898274	а е
-2.331259	а ж
-1.278318	а з
-1.53487	а и
-2.336955	а й
-1.395972	а к
-1.558326	а л
-1.515634	а м
-0.8569289	а н
-1.521952	а о
-1.227667	а п
-1.327036	а р
-1.132745	а с
-0.9002622	а т
-2.247854	а у
-1.84527	а ф
-2.416997	а х
-1.762255	а ц
-1.919124	а ч
-3.047545	а ш
-1.989738	а щ
-3.563125	а ю
-2.654045	а я
-3.403424	а і
-3.704454	а ѝ
-3.777005	а №
-2.843516	б (
-1.613067	б )
-2.453545	б ,
-2.680789	б .
-2.843516	б 1
-2.843516	б ;
-2.843516	б </s>
-1.222151	б а
-1.342083	б в
-2.606155	б д
-1.218391	б е
-2.73878	б ж
-2.805727	б з
-0.92826	б и
-2.770965	б к
-1.33224	б л
-2.305125	б м
-1.610751	б н
-1.083505	б о
-2.583879	б п
-1.079408	б р
-1.839586	б с
-2.843516	б т
-1.525073	б у
-1.337134	б х
-2.805727	б ш
-0.9560009	б щ
-1.145336	б ъ
-2.328606	б ю
-1.998418	б я
-3.234833	в "
-3.208505	в (
-2.259977	в )
-2.947592	в ,
-3.359772	в 1
-3.292825	в ;
-3.397561	в e
-3.292825	в l
-0.5749173	в а
-2.836894	в б
-2.342043	в в
-2.785741	в г
-2.151152	в д
-0.9081137	в е
-3.32501	в ж
-1.734803	в з
-0.7980747	в и
-1.647263	в к
-1.898624	в л
-2.535864	в м
-1.482785	в н
-1.034291	в о
-1.779989	в п
-1.43722	в р
-1.279086	в с
-2.064205	в т
-2.430353	в у
-2.920439	в ф
-2.894886	в х
-2.907475	в ц
-1.821953	в ч
-3.32501	в ш
-1.305415	в ъ
-1.691542	в я
-3.397561	в і
-3.292825	в №
-2.858036	г "
-2.791089	г (
-2.028732	г )
-2.575489	г ,
-1.41347	г .
-2.895824	г /
-2.895824	г 7
-2.895824	г :
-2.858036	г </s>
-0.6625973	г а
-2.594794	г в
-2.895824	г г
-2.858036	г д
-1.797338	г е
-2.895824	г з
-1.20402	г и
-2.895824	г к
-0.7824887	г л
-2.733097	г м
-1.928617	г н
-0.7758489	г о
-2.614998	г п
-0.8970103	г р
-2.761126	г с
-1.54452	г у
-2.895824	г ч
-2.335157	г ъ
-3.020184	д "
-3.263222	д '
-3.22846	д (
-2.610009	д )
-1.55993	д ,
-2.851041	д .
-2.99998	д 1
-3.196275	д 2
-3.166312	д 3
-3.30101	д 5
-3.30101	д 6
-3.30101	д 8
-3.30101	д :
-3.020184	д ;
-3.22846	д </s>
-0.719671	д а
-1.838612	д б
-1.081616	д в
-2.911039	д г
-2.065941	д д
-0.9761668	д е
-2.823889	д ж
-2.17805	д з
-0.9272626	д и
-2.418124	д к
-1.93247	д л
-2.146503	д м
-1.302989	д н
-1.006544	д о
-1.662975	д п
-1.449196	д р
-1.52949	д с
-2.69895	д т
-1.369275	д у
-2.810924	д ф
-2.175086	д х
-3.30101	д ц
-2.69895	д ч
-3.166312	д ш
-1.195655	д ъ
-2.005943	д я
-3.263222	д №
-2.934346	е "
-3.202208	е (
-2.970259	е )
-1.676782	е ,
-2.056993	е -
-2.419819	е .
-3.692294	е 0
-3.142622	е 1
-3.131627	е 2
-3.411467	е 3
-3.454933	е 4
-3.432657	е 5
-3.529567	е 6
-3.391264	е 7
-3.371959	е 8
-3.009411	е 9
-2.809407	е :
-2.708381	е ;
-3.080474	е </s>
-3.654505	е a
-3.692294	е b
-3.692294	е d
-3.692294	е f
-2.825202	е i
-3.692294	е o
-3.692294	е r
-3.080474	е v
-3.654505	е x
-2.738051	е а
-2.280368	е б
-1.611471	е в
-1.544758	е г
-0.916849	е д
-2.277321	е е
-1.935727	е ж
-1.502982	е з
-1.537511	е и
-1.886114	е й
-1.45539	е к
-1.334532	е л
-1.606258	е м
-0.6049967	е н
-1.502217	е о
-1.42003	е п
-1.407351	е р
-1.190612	е с
-1.044378	е т
-2.411467	е у
-2.441431	е ф
-2.240926	е х
-2.062514	е ц
-2.225831	е ч
-2.04084	е ш
-2.277321	е щ
-3.692294	е ъ
-3.587559	е ю
-2.640265	е я
-2.725086	е і
-3.692294	е №
-2.660391	ж (
-2.292414	ж )
-2.625629	ж ,
-2.69818	ж -
-2.660391	ж .
-0.6236292	ж а
-1.810153	ж б
-2.438542	ж в
-0.9614211	ж д
-0.6364531	ж е
-0.9867559	ж и
-2.277174	ж к
-2.69818	ж м
-1.26975	ж н
-2.438542	ж о
-2.69818	ж р
-2.69818	ж т
-2.660391	ж ъ
-3.070561	з "
-3.070561	з (
-2.751802	з )
-2.486984	з ,
-3.003614	з .
-3.035799	з 1
-3.070561	з 2
-3.10835	з 3
-3.10835	з :
-2.973651	з ;
-3.070561	з </s>
-0.4309917	з а
-2.172019	з б
-1.128967	з в
-2.032471	з г
-1.435413	з д
-1.351783	з е
-2.827523	з з
-1.057022	з и
-1.82546	з к
-1.817304	з л
-1.430411	з м
-1.370868	з н
-1.539082	з о
-1.193094	з п
-1.77683	з р
-1.945622	з с
-2.025891	з т
-1.857486	з у
-3.070561	з ф
-1.896889	з х
-2.687344	з ц
-2.357351	з ч
-2.672621	з ш
-2.80732	з щ
-2.477644	з ъ
-3.10835	з ь
-2.973651	з ю
-2.40938	з я
-3.02488	и "
-3.699491	и %
-3.62694	и '
-2.902035	и (
-3.184581	и )
-1.559326	и ,
-2.7115	и -
-2.163392	и .
-2.837794	и /
-3.594755	и 0
-2.178591	и 1
-2.62031	и 2
-2.948492	и 3
-3.209405	и 4
-3.235734	и 5
-3.398461	и 6
-3.293725	и 7
-3.209405	и 8
-3.235734	и 9
-2.985009	и :
-2.536763	и ;
-2.683979	и </s>
-3.62694	и a
-3.661702	и c
-3.699491	и d
-3.661702	и e
-3.439853	и i
-3.661702	и m
-3.564792	и n
-3.699491	и s
-3.485611	и v
-1.896406	и а
-2.317638	и б
-1.266085	и в
-2.177402	и г
-1.376708	и д
-1.216487	и е
-2.373528	и ж
-1.184822	и з
-1.554492	и и
-3.117634	и й
-1.584032	и к
-1.302025	и л
-1.41619	и м
-1.195329	и н
-1.380669	и о
-1.445756	и п
-1.358686	и р
-1.221187	и с
-0.8763725	и т
-2.33095	и у
-2.108426	и ф
-2.703457	и х
-1.758612	и ц
-1.556476	и ч
-2.570622	и ш
-2.348186	и щ
-3.196815	и ю
-1.078315	и я
-3.398461	и і
-3.699491	и ѝ
-3.594755	и №
-2.168249	й )
-1.955641	й ,
-1.353581	й -
-2.242883	й .
-2.085275	й 1
-2.300875	й 2
-2.40561	й 3
-2.40561	й :
-2.367822	й ;
-2.40561	й а
-2.33306	й б
-2.168249	й в
-2.40561	й г
-2.19173	й д
-2.242883	й е
-2.40561	й ж
-2.33306	й з
-2.242883	й и
-1.731	й к
-2.242883	й л
-2.216554	й м
-0.8931199	й н
-1.928489	й о
-2.085275	й п
-2.300875	й р
-0.6957238	й с
-1.20149	й т
-2.33306	й у
-1.676151	й ц
-2.066792	й ч
-2.40561	й щ
-2.751303	к "
-3.177272	к (
-2.825089	к )
-2.450273	к ,
-3.21506	к -
-2.809295	к .
-3.21506	к 4
-3.21506	к ;
-3.110325	к </s>
-0.6882514	к а
-1.456424	к в
-3.052333	к г
-2.84148	к д
-2.049627	к е
-3.21506	к ж
-2.724974	к з
-0.8335351	к и
-3.080362	к к
-1.455049	к л
-2.825089	к м
-2.001181	к н
-0.5616725	к о
-2.825089	к п
-1.706225	к р
-1.684744	к с
-0.9729258	к т
-1.726253	к у
-3.21506	к ф
-1.955423	к ц
-3.110325	к ч
-1.561848	к ъ
-3.21506	к ь
-2.794055	к ю
-2.995335	л "
-3.097997	л (
-3.12796	л )
-2.291817	л ,
-3.04364	л -
-2.705887	л .
-2.893877	л 1
-3.04364	л 2
-3.160145	л 3
-3.194907	л 4
-3.232696	л 8
-3.12796	л :
-2.931666	л ;
-3.12796	л </s>
-3.12796	л i
-3.097997	л v
-3.194907	л x
-0.7923594	л а
-2.672029	л б
-2.461175	л в
-2.826931	л г
-2.291817	л д
-0.6027305	л е
-1.993055	л ж
-1.884923	л з
-0.7586121	л и
-1.939635	л к
-3.232696	л л
-3.04364	л м
-1.027344	л н
-1.06004	л о
-2.64062	л п
-3.160145	л р
-1.811691	л с
-1.94165	л т
-1.611331	л у
-3.04364	л ф
-3.194907	л х
-3.097997	л ц
-3.04364	л ч
-3.12796	л ш
-3.232696	л щ
-2.393275	л ъ
-1.69089	л ю
-1.473372	л я
-2.973058	л і
-3.232696	л №
-3.034264	м "
-3.034264	м (
-2.961713	м )
-2.570507	м ,
-3.034264	м -
-2.796903	м .
-2.996475	м /
-2.845207	м 1
-2.996475	м 2
-3.034264	м 3
-3.034264	м 9
-3.034264	м :
-2.899565	м ;
-3.034264	м ò
-0.7203965	м а
-2.243148	м б
-1.815585	м в
-2.845207	м г
-2.161843	м д
-0.5545183	м е
-2.929528	м ж
-2.557142	м з
-0.80825	м и
-1.908339	м к
-2.312228	м л
-2.695445	м м
-1.704589	м н
-0.9051014	м о
-1.522988	м п
-2.200595	м р
-2.484592	м с
-2.644293	м т
-1.866141	м у
-2.733234	м ф
-3.034264	м х
-2.713929	м ц
-2.796903	м ч
-3.034264	м щ
-2.236807	м ъ
-1.890965	м я
-3.422802	н "
-3.449131	н (
-3.397979	н )
-2.588793	н ,
-3.57407	н -
-2.945681	н .
-3.449131	н 0
-1.956022	н 1
-2.154941	н 2
-2.365449	н 3
-2.592553	н 4
-2.69421	н 5
-2.604033	н 6
-2.703861	н 7
-2.772438	н 8
-2.77819	н 9
-3.352221	н :
-3.27304	н ;
-3.539308	н </s>
-0.5375408	н а
-3.27304	н б
-2.126912	н в
-2.494889	н г
-2.248417	н д
-0.957857	н е
-3.449131	н ж
-2.532677	н з
-0.6481135	н и
-3.611858	н й
-1.573708	н к
-3.134737	н л
-2.808153	н м
-1.929795	н н
-0.8321308	н о
-2.435767	н п
-2.981153	н р
-1.624273	н с
-1.36166	н т
-2.600173	н у
-2.133423	н ф
-3.374497	н х
-2.144049	н ц
-3.019783	н ч
-3.161889	н ш
-3.611858	н щ
-2.954281	н ъ
-3.331032	н ь
-3.611858	н ю
-1.898139	н я
-3.611858	н №
-3.039937	о "
-3.670642	о '
-3.180556	о (
-2.078566	о )
-3.565907	о *
-1.82951	о ,
-2.071553	о -
-2.575314	о .
-3.670642	о /
-3.670642	о 0
-2.919643	о 1
-3.220673	о 2
-3.099251	о 3
-3.314095	о 4
-3.433281	о 5
-3.481586	о 6
-3.632854	о 7
-3.535944	о 8
-3.456762	о 9
-2.825544	о :
-2.678611	о ;
-3.411005	о </s>
-3.670642	о a
-3.670642	о c
-3.632854	о e
-3.670642	о n
-3.670642	о p
-3.670642	о r
-3.670642	о u
-2.787755	о а
-1.280028	о б
-1.065435	о в
-1.59943	о г
-1.150218	о д
-1.90046	о е
-1.624608	о ж
-1.708574	о з
-1.273651	о и
-2.153326	о й
-1.743552	о к
-1.570272	о л
-1.365682	о м
-1.185437	о н
-1.760697	о о
-1.299406	о п
-1.228448	о р
-1.000059	о с
-0.8576074	о т
-2.402405	о у
-2.295394	о ф
-2.848712	о х
-2.051169	о ц
-1.759242	о ч
-2.344679	о ш
-2.361787	о щ
-3.632854	о ю
-1.679013	о я
-3.670642	о і
-3.670642	о ѝ
-3.632854	о №
-3.21385	п "
-2.81591	п )
-2.970812	п ,
-3.21385	п .
-3.251638	п 4
-3.21385	п 7
-3.21385	п ;
-3.251638	п à
-1.027741	п а
-3.251638	п б
-2.895091	п в
-2.787881	п д
-1.178754	п е
-2.970812	п з
-1.609084	п и
-2.486851	п к
-1.81591	п л
-3.251638	п м
-2.845873	п н
-0.6356882	п о
-2.992001	п п
-0.3550118	п р
-2.787881	п с
-2.306259	п т
-1.773203	п у
-2.537156	п ц
-2.931303	п ч
-3.179088	п ш
-1.596675	п ъ
-2.761552	п ю
-2.830633	п я
-3.265068	р "
-3.319425	р (
-3.194487	р )
-2.499882	р ,
-3.416335	р -
-2.852064	р .
-3.454124	р /
-3.381573	р 1
-3.454124	р 3
-3.381573	р :
-3.291397	р ;
-3.349389	р </s>
-3.454124	р c
-3.454124	р e
-3.454124	р i
-3.454124	р p
-0.6002598	р а
-2.964038	р б
-2.070635	р в
-1.690696	р г
-2.454124	р д
-0.5932961	р е
-1.449021	р ж
-2.283329	р з
-0.8667191	р и
-1.752791	р к
-2.371665	р л
-1.830875	р м
-1.845209	р н
-0.9812346	р о
-2.904452	р п
-3.240244	р р
-2.161063	р с
-1.955187	р т
-1.564568	р у
-3.194487	р ф
-2.597889	р х
-2.964038	р ц
-2.964038	р ч
-2.198851	р ш
-2.108127	р ъ
-3.381573	р ю
-1.675315	р я
-3.454124	р №
-3.003971	с "
-3.231215	с (
-3.204886	с )
-2.584076	с ,
-2.958213	с .
-3.321391	с 1
-3.393942	с 2
-3.393942	с 3
-3.393942	с 5
-3.204886	с :
-3.204886	с ;
-3.356153	с </s>
-3.393942	с a
-3.321391	с e
-3.356153	с i
-3.393942	с m
-3.356153	с r
-3.393942	с v
-1.437075	с а
-2.642943	с б
-1.752288	с в
-3.020361	с г
-2.348975	с д
-1.001085	с е
-3.321391	с ж
-2.745139	с з
-1.132355	с и
-3.393942	с й
-1.184671	с к
-1.241098	с л
-2.096878	с м
-1.351832	с н
-1.394337	с о
-1.388449	с п
-1.691042	с р
-2.129983	с с
-0.5396359	с т
-1.927479	с у
-2.891267	с ф
-2.664483	с х
-2.457611	с ц
-2.138669	с ч
-3.393942	с ш
-0.9990129	с ъ
-3.356153	с ь
-1.772577	с я
-3.356153	с і
-3.356153	с №
-3.006057	т "
-2.047638	т (
-3.413542	т )
-3.589633	т *
-1.947829	т ,
-3.413542	т -
-2.489837	т .
-3.627422	т /
-3.492723	т 0
-2.369961	т 1
-2.495628	т 2
-3.015602	т 3
-3.390061	т 4
-3.253841	т 5
-3.221656	т 6
-3.367785	т 7
-3.522686	т 8
-3.464694	т 9
-2.623492	т :
-2.760329	т ;
-3.221656	т </s>
-3.554871	т a
-3.627422	т b
-3.438365	т e
-3.438365	т i
-3.554871	т m
-3.627422	т n
-3.554871	т r
-3.627422	т å
-3.326392	т í
-0.7889733	т а
-2.729295	т б
-1.139898	т в
-2.276118	т г
-1.747648	т д
-0.7595259	т е
-2.996716	т ж
-2.178856	т з
-1.008423	т и
-1.966384	т к
-2.897962	т л
-2.367785	т м
-1.231698	т н
-0.7301446	т о
-1.766268	т п
-1.333156	т р
-1.655556	т с
-1.731798	т т
-2.154267	т у
-3.006057	т ф
-3.163664	т х
-3.137336	т ц
-2.438365	т ч
-3.307086	т ш
-3.589633	т щ
-1.872934	т ъ
-3.589633	т ь
-3.367785	т ю
-2.263981	т я
-3.163664	т №
-2.656038	у "
-2.818766	у )
-2.629709	у ,
-2.818766	у -
-2.684067	у .
-2.818766	у 5
-2.780977	у ;
-2.780977	у c
-2.818766	у r
-1.647971	у а
-1.559128	у б
-1.177111	у в
-1.317333	у г
-1.572357	у д
-2.39776	у е
-1.377285	у ж
-2.355008	у з
-2.537939	у и
-2.818766	у й
-1.012586	у к
-1.3236	у л
-1.299057	у м
-1.669827	у н
-2.445185	у о
-1.177111	у п
-1.054657	у р
-1.005852	у с
-1.905916	у т
-2.684067	у у
-2.71403	у ф
-2.104283	у х
-1.930739	у ц
-1.135064	у ч
-1.920639	у ш
-2.462218	у щ
-2.746215	у я
-2.530316	ф "
-2.316436	ф ,
-2.530316	ф .
-1.140345	ф 1
-1.259955	ф 2
-1.652631	ф 3
-1.823521	ф 4
-2.109311	ф 5
-2.156735	ф 6
-2.530316	ф 7
-2.492527	ф 8
-2.492527	ф 9
-2.425581	ф :
-1.612667	ф а
-2.492527	ф в
-1.170308	ф е
-0.6526307	ф и
-1.980644	ф л
-2.053195	ф н
-0.941281	ф о
-2.530316	ф п
-2.140345	ф р
-2.015406	ф с
-2.124551	ф т
-1.808281	ф у
-2.191498	ф ъ
-2.530316	ф ю
-2.457766	ф я
-2.452901	х (
-2.017173	х ,
-2.38035	х .
-2.348166	х ;
-1.155837	х а
-2.452901	х б
-1.360755	х в
-1.786724	х е
-2.38035	х з
-1.813053	х и
-2.031896	х л
-2.415112	х м
-1.051814	х н
-0.6238899	х о
-2.348166	х п
-1.188942	х р
-2.193264	х с
-2.047136	х т
-1.625062	х у
-2.452901	х ф
-2.452901	х ч
-2.290174	х і
-2.688177	ц (
-2.688177	ц )
-2.407351	ц ,
-2.650388	ц .
-2.688177	ц 2
-2.688177	ц :
-1.293407	ц а
-2.282412	ц б
-2.367842	ц в
-2.650388	ц г
-0.7559801	ц е
-2.650388	ц з
-0.3082949	ц и
-1.951419	ц к
-2.583442	ц н
-2.650388	ц о
-2.688177	ц п
-2.474297	ц с
-2.688177	ц т
-2.650388	ц ф
-2.583442	ц ъ
-1.890721	ц я
-2.882145	ч "
-2.919934	ч (
-2.815198	ч ,
-2.919934	ч ;
-1.053378	ч а
-1.675769	ч в
-2.882145	ч д
-0.5451851	ч е
-2.815198	ч з
-1.217033	ч и
-1.463016	ч к
-0.5595811	ч л
-2.882145	ч м
-1.18173	ч н
-2.348542	ч о
-1.718288	ч р
-2.730877	ч т
-2.317873	ч у
-2.882145	ч ъ
-1.301864	ш а
-1.231116	ш в
-0.5820234	ш е
-1.402971	ш и
-1.847606	ш к
-2.000834	ш л
-1.175259	ш н
-2.137054	ш о
-2.374415	ш ъ
-2.63858	щ "
-2.100189	щ ,
-2.600791	щ -
-2.533845	щ .
-2.63858	щ 1
-2.63858	щ 4
-2.63858	щ :
-2.600791	щ </s>
-0.8336356	щ а
-2.63858	щ б
-2.378943	щ в
-2.63858	щ г
-2.600791	щ д
-0.8166499	щ е
-2.264999	щ з
-0.6918598	щ и
-2.503881	щ к
-2.475853	щ м
-0.9135599	щ н
-1.187212	щ о
-2.357754	щ п
-2.449524	щ р
-2.318245	щ с
-2.088908	щ т
-2.100189	щ у
-2.566029	щ ф
-2.63858	щ ч
-2.566029	щ я
-2.226738	ъ б
-1.132941	ъ в
-1.603858	ъ г
-1.107458	ъ д
-2.430858	ъ е
-2.020684	ъ ж
-1.196775	ъ з
-2.719653	ъ й
-1.691625	ъ к
-1.188885	ъ л
-1.45118	ъ м
-2.105694	ъ н
-1.083946	ъ о
-1.634482	ъ п
-0.665083	ъ р
-1.348586	ъ с
-1.276825	ъ т
-2.933533	ъ у
-2.895745	ъ ф
-2.302828	ъ х
-1.988154	ъ ц
-1.828798	ъ ч
-2.770806	ъ ш
-1.473867	ъ щ
-2.258923	ъ ю
-1.70757	ь о
-2.1575	ю ,
-2.189685	ю .
-2.262235	ю 7
-2.262235	ю а
-2.002598	ю б
-2.224447	ю в
-2.224447	ю г
-1.464779	ю д
-2.262235	ю ж
-1.525477	ю з
-2.224447	ю и
-1.905688	ю к
-1.518298	ю л
-2.099508	ю м
-1.406001	ю н
-2.262235	ю о
-2.073179	ю п
-1.596058	ю р
-2.189685	ю с
-1.701568	ю т
-1.981409	ю ц
-0.8367603	ю ч
-2.548092	я "
-2.784181	я (
-2.835334	я )
-1.347489	я ,
-2.835334	я -
-1.960273	я .
-2.92551	я /
-2.62448	я 1
-2.835334	я 2
-2.863363	я 3
-2.835334	я 5
-2.960273	я 8
-2.998061	я 9
-2.396001	я :
-2.200605	я ;
-2.641514	я </s>
-2.998061	я a
-2.960273	я e
-2.809005	я i
-2.893326	я m
-2.960273	я n
-2.893326	я v
-2.641514	я а
-1.486786	я б
-1.008045	я в
-2.176131	я г
-1.942544	я д
-2.254124	я е
-2.835334	я ж
-1.70904	я з
-1.661056	я и
-2.261302	я й
-1.270816	я к
-1.843554	я л
-1.939083	я м
-1.148474	я н
-1.747198	я о
-1.524906	я п
-1.548092	я р
-1.413113	я с
-0.5944726	я т
-2.717234	я у
-2.592296	я ф
-1.92551	я х
-2.863363	я ц
-2.276026	я ч
-1.114658	я щ
-2.784181	я і
-2.998061	я №
-2.893326	я 
-2.074242	і "
-2.178977	і (
-2.178977	і )
-1.480007	і ,
-1.805396	і .
-2.178977	і 2
-1.965097	і ;
-2.074242	і </s>
-2.178977	і i
-1.773212	і v
-2.178977	і в
-2.141188	і д
-2.141188	і з
-1.729008	і и
-1.576917	і к
-2.141188	і м
-2.01625	і н
-1.965097	і о
-2.141188	і п
-2.01625	і с
-2.178977	і у
-2.178977	і х
-1.119999	і і
-2.09374	ѝ ;
-2.09374	ѝ б
-2.09374	ѝ д
-2.09374	ѝ о
-2.09374	ѝ р
-2.212672	№ (
-2.174883	№ .
-2.140121	№ 0
-0.9963859	№ 1
-1.117344	№ 2
-1.384833	№ 3
-1.931845	№ 4
-1.892337	№ 5
-2.140121	№ 6
-1.873853	№ 7
-1.856124	№ 8
-1.953034	№ 9
-2.212672	№ с
-2.093103	− t
-2.093103	− и
-2.093103	− о
-2.093422	 0
-2.093422	 3
-2.055633	 5

\end\
