
\data\
ngram 1=95
ngram 2=2357

\1-grams:
-2.855262	"	0.3753625
-3.7144	%	0.1890284
-4.673007	'	0.02844331
-2.741272	(	0.1187823
-2.472107	)	0.1974867
-4.600457	*	-0.005653876
-4.635219	+	-0.00728879
-1.971126	,	-0.235725
-3.046947	-	0.3800639
-2.017869	.	-0.178959
-2.535423	/	-0.2856008
-2.609231	0	0.0145744
-2.253803	1	-0.1719345
-2.36454	2	-0.05005295
-2.601125	3	-0.05185471
-2.743124	4	0.05629263
-2.811853	5	0.2144183
-2.750141	6	0.04133949
-2.778893	7	-0.07608655
-2.76501	8	-0.03494984
-2.489867	9	-0.04221025
-3.034065	:	0.0004200127
-2.770906	;	0.08368106
-2.099714	</s>
-99	<s>	-0.1672058
-3.064093	[	-0.1912628
-3.064093	]	0.1442433
-1.298093	a	-0.8382211
-1.875803	b	0.1804892
-1.641452	c	-0.2316106
-1.440404	d	0.08456209
-1.128759	e	-0.9687801
-2.70922	f	-0.05532606
-2.654458	g	0.0804256
-1.612791	h	-0.2726915
-1.492308	i	-0.371061
-1.817103	j	-0.2779491
-1.526457	k	-0.3279515
-1.494109	l	-0.2066104
-1.549809	m	0.8376253
-1.147091	n	-0.1523774
-1.085358	o	-1.039798
-1.440543	p	-0.3211363
-4.371977	q	0.01360552
-1.508952	r	-0.4940095
-1.342354	s	-0.3945162
-1.298759	t	0.1101832
-1.512075	u	-0.39499
-1.402879	v	-0.1040089
-4.334189	w	0.03894985
-3.347044	x	0.1248979
-1.805969	y	-0.2338616
-1.659481	z	-0.1998938
-1.67897	á	-0.4721299
-4.673007	ã	0.03212471
-4.635219	ä	0.01691591
-4.600457	å	0.01755149
-4.673007	ç	-0.005097453
-4.673007	è	0.008559508
-1.911832	é	-0.2655085
-1.442373	í	-0.4658714
-3.701563	ó	0.0380409
-2.647329	ú	-0.1326007
-4.673007	ü	0.008559508
-1.961047	ý	-0.2234473
-1.859609	č	-0.5685061
-4.091151	ď	0.192731
-1.931856	ě	-0.2623053
-3.053535	ň	0.1750404
-1.874608	ř	-0.5567163
-2.375944	š	-0.1572958
-3.657495	ť	0.1070127
-2.259403	ů	0.01628681
-2.036702	ž	-0.0263587
-4.673007	ά	-0.005095777
-4.673007	α	-0.005096615
-4.673007	γ	-0.005097453
-4.600457	δ	-0.01543844
-4.635219	ε	-0.008786049
-4.673007	η	-0.005095777
-4.635219	ι	-0.01024128
-4.635219	λ	-0.01024379
-4.635219	μ	-0.01024379
-4.635219	ν	-0.01024296
-4.568272	ο	-0.02068673
-4.600457	ρ	-0.01543928
-4.635219	ς	-0.009463469
-4.600457	σ	-0.01544012
-4.673007	ω	-0.005096615
-4.635219	ό	-0.01024296
-4.283036	–	0.06010617
-4.41337	—	0.07241843
-4.673007	’	0.01732487
-4.673007	…	-0.001640884
-4.568272	≥	-0.01309556

\2-grams:
-2.17688	" (
-1.66197	" )
-1.66197	" ,
-1.584804	" .
-1.8033	" 1
-1.896054	" 2
-1.856545	" 3
-2.17688	" 4
-2.17688	" 5
-2.10433	" 6
-2.17688	" 7
-2.17688	" 8
-2.139091	" 9
-2.072145	" :
-1.713123	" ;
-1.201239	" </s>
-1.674205	" a
-1.786909	" b
-2.139091	" c
-1.8033	" d
-2.014153	" e
-2.042181	" f
-2.042181	" h
-1.939519	" i
-1.87585	" j
-1.987824	" k
-2.072145	" l
-1.838062	" m
-1.425881	" n
-1.726911	" o
-1.392198	" p
-1.595024	" r
-1.584804	" s
-1.755875	" t
-2.042181	" u
-1.440122	" v
-2.17688	" w
-1.699759	" z
-1.987824	" ú
-1.616213	" č
-2.17688	" ř
-2.17688	" š
-2.17688	" ž
-2.10433	" —
-1.933656	% "
-1.971444	% (
-1.971444	% )
-1.632626	% ,
-1.651109	% .
-1.898894	% ;
-1.898894	% a
-1.971444	% b
-1.757565	% h
-1.866709	% j
-1.898894	% m
-1.866709	% n
-1.898894	% o
-1.898894	% p
-1.933656	% r
-1.651109	% s
-1.971444	% u
-1.808717	% v
-1.933656	% z
-1.933656	% č
-1.971444	% ž
-1.932197	' e
-2.125714	( "
-2.230449	( 0
-1.238418	( 1
-1.452298	( 2
-1.727774	( 3
-1.766692	( 4
-1.70364	( 5
-1.78048	( 6
-1.78048	( 7
-1.79472	( 8
-1.753328	( 9
-2.041393	( a
-2.041393	( b
-1.824684	( c
-1.766692	( d
-0.6283889	( e
-2.067722	( f
-2.230449	( h
-2.157898	( i
-2.067722	( j
-2.067722	( k
-2.041393	( m
-2.041393	( n
-1.89163	( o
-1.856868	( p
-2.125714	( r
-1.970812	( s
-1.753328	( t
-1.929419	( v
-2.230449	( w
-2.067722	( z
-2.230449	( ú
-2.157898	( č
-2.230449	( ž
-2.230449	( ο
-1.570316	) "
-2.313705	) (
-1.366951	) ,
-2.386256	) -
-1.79418	) .
-2.197199	) 1
-2.348467	) 2
-2.386256	) 4
-2.386256	) :
-1.859447	) ;
-1.764891	) </s>
-2.172376	) [
-2.386256	) ]
-1.468607	) a
-1.871346	) b
-2.348467	) c
-1.79418	) d
-2.197199	) e
-2.28152	) f
-2.386256	) g
-2.251557	) h
-2.223528	) i
-1.695255	) j
-1.737452	) k
-2.348467	) l
-1.871346	) m
-1.410615	) n
-1.608104	) o
-1.204932	) p
-1.936287	) r
-1.300544	) s
-1.922498	) t
-1.859447	) u
-1.215461	) v
-2.386256	) w
-2.348467	) y
-1.588799	) z
-2.126618	) ú
-0.769637	) č
-2.386256	) ř
-2.348467	) ž
-1.860568	* ]
-1.932658	+ 2
-1.932658	+ 3
-2.509673	, "
-2.696759	, (
-2.76931	, ,
-2.696759	, -
-2.509673	, 0
-2.55543	, 1
-2.333582	, 2
-2.531949	, 3
-2.531949	, 4
-2.55543	, 5
-2.531949	, 6
-2.55543	, 7
-2.448975	, 8
-2.46828	, 9
-1.023951	, </s>
-1.02823	, a
-1.941471	, b
-2.086427	, c
-1.935642	, d
-2.292189	, e
-2.292189	, f
-2.76931	, g
-2.531949	, h
-2.129462	, i
-1.342355	, j
-0.7874504	, k
-2.333582	, l
-1.527402	, m
-1.220753	, n
-1.823931	, o
-1.121394	, p
-2.242501	, r
-1.466311	, s
-2.078309	, t
-2.025373	, u
-1.416251	, v
-2.731522	, x
-1.452768	, z
-2.319341	, ú
-2.319341	, č
-2.696759	, ř
-2.731522	, š
-1.007246	, ž
-1.914125	- "
-2.103182	- 0
-2.030631	- 1
-2.103182	- 2
-2.065393	- 5
-2.103182	- 8
-2.065393	- a
-1.843544	- b
-1.940454	- c
-1.746634	- d
-1.914125	- e
-2.065393	- f
-2.065393	- h
-1.940454	- i
-1.639424	- j
-1.613095	- k
-1.040771	- l
-1.865821	- m
-1.682176	- n
-1.682176	- o
-1.331661	- p
-1.653213	- r
-1.55351	- s
-1.914125	- t
-1.865821	- u
-1.521325	- v
-1.71321	- z
-2.065393	- ú
-1.998446	- č
-2.030631	- ž
-2.103182	- ο
-1.677577	. "
-2.624871	. )
-2.729607	. ,
-2.691818	. .
-2.594908	. 0
-1.021263	. 1
-1.13351	. 2
-1.455029	. 3
-1.797871	. 4
-1.890186	. 5
-2.022811	. 6
-2.030637	. 7
-2.015124	. 8
-2.127547	. 9
-2.729607	. ;
-0.6190168	. </s>
-1.706541	. a
-1.775364	. b
-2.117787	. c
-1.884508	. d
-2.469969	. e
-2.428576	. f
-2.624871	. g
-2.409271	. h
-2.356026	. i
-2.030637	. j
-1.603682	. k
-1.766678	. l
-2.137531	. m
-1.878905	. n
-1.907676	. o
-1.247253	. p
-2.594908	. q
-2.373059	. r
-1.807211	. s
-1.836501	. t
-2.191216	. u
-1.467803	. v
-2.691818	. x
-1.797871	. z
-2.080803	. ú
-1.342864	. č
-2.14775	. ř
-2.566879	. ž
-2.345997	/ 0
-1.366201	/ 1
-1.330485	/ 2
-1.524067	/ 3
-1.273446	/ 4
-1.588049	/ 5
-1.257056	/ 6
-1.433147	/ 7
-1.358006	/ 8
-1.041037	/ 9
-2.345997	/ a
-2.308208	/ c
-2.345997	/ d
-0.6713865	/ e
-2.308208	/ h
-2.345997	/ i
-1.831087	/ n
-2.241262	/ s
-2.345997	/ y
-2.345997	/ é
-2.345997	/ ý
-2.301819	0 "
-1.595024	0 %
-2.197083	0 (
-1.945272	0 )
-1.602849	0 ,
-1.510703	0 .
-1.05991	0 /
-0.7715027	0 0
-1.456721	0 1
-1.36094	0 2
-1.610818	0 3
-1.896054	0 4
-2.000789	0 5
-1.928238	0 6
-1.786909	0 7
-1.880814	0 8
-1.880814	0 9
-2.229268	0 ;
-1.680454	0 </s>
-1.981484	0 [
-2.112763	0 ]
-1.911848	0 a
-2.26403	0 b
-2.16712	0 c
-2.042181	0 d
-2.064458	0 e
-2.301819	0 f
-2.229268	0 h
-2.087939	0 k
-2.139091	0 m
-2.112763	0 n
-1.557882	0 o
-2.16712	0 p
-2.26403	0 r
-1.86609	0 s
-2.042181	0 t
-2.197083	0 u
-2.26403	0 v
-2.301819	0 w
-1.880814	0 z
-2.301819	0 č
-2.301819	0 –
-2.540443	1 "
-2.502655	1 %
-2.303082	1 (
-1.818408	1 )
-1.647337	1 ,
-0.9433467	1 .
-1.399992	1 /
-1.341287	1 0
-1.40865	1 1
-1.435708	1 2
-1.49905	1 3
-1.488414	1 4
-1.461262	1 5
-1.604112	1 6
-1.577515	1 7
-1.662758	1 8
-0.912519	1 9
-2.435708	1 :
-2.183896	1 ;
-1.59061	1 </s>
-2.303082	1 [
-1.564803	1 ]
-1.712604	1 a
-2.435708	1 b
-2.540443	1 c
-2.104715	1 d
-2.502655	1 e
-2.540443	1 i
-2.467893	1 j
-2.467893	1 k
-2.239413	1 m
-1.849442	1 n
-1.573236	1 o
-1.524931	1 p
-2.540443	1 r
-1.712604	1 s
-2.119438	1 t
-2.134678	1 u
-2.303082	1 v
-2.201625	1 z
-2.435708	1 č
-2.386842	2 "
-2.324694	2 %
-2.386842	2 (
-1.694605	2 )
-1.571366	2 ,
-0.9757404	2 .
-1.228944	2 /
-0.9420766	2 0
-1.681241	2 1
-1.496464	2 2
-1.576506	2 3
-1.509559	2 4
-1.586971	2 5
-1.608691	2 6
-1.784782	2 7
-1.722634	2 8
-1.614294	2 9
-2.459393	2 :
-2.102845	2 ;
-1.418	2 </s>
-2.199755	2 [
-1.487948	2 ]
-1.729933	2 a
-2.270336	2 b
-2.324694	2 d
-2.459393	2 e
-2.421604	2 h
-2.459393	2 i
-2.296665	2 j
-2.421604	2 k
-2.459393	2 l
-1.969306	2 m
-1.888001	2 n
-1.523062	2 o
-1.694605	2 p
-2.386842	2 r
-1.637462	2 s
-2.102845	2 t
-2.069421	2 u
-2.245513	2 v
-2.038387	2 z
-2.386842	2 ú
-2.268734	3 "
-2.201787	3 %
-2.306523	3 (
-1.704463	3 )
-1.555524	3 ,
-1.023633	3 .
-1.180598	3 /
-1.467102	3 0
-1.444825	3 1
-1.615521	3 2
-1.756851	3 3
-1.856553	3 4
-1.791613	3 5
-1.496657	3 6
-1.648945	3 7
-1.756851	3 8
-1.714447	3 9
-2.306523	3 :
-2.233972	3 ;
-1.403432	3 </s>
-2.069162	3 [
-1.472854	3 ]
-1.623639	3 a
-2.171824	3 b
-2.306523	3 c
-2.143795	3 d
-2.306523	3 e
-2.268734	3 j
-2.306523	3 k
-2.092643	3 m
-1.803847	3 n
-1.423636	3 o
-1.768132	3 p
-1.59204	3 s
-2.005492	3 t
-1.932942	3 u
-2.233972	3 v
-2.046885	3 z
-2.156968	4 "
-2.19173	4 %
-2.19173	4 (
-1.627459	4 )
-1.571942	4 ,
-1.124784	4 .
-1.140578	4 /
-1.668852	4 0
-1.647662	4 1
-1.507484	4 2
-1.627459	4 3
-1.872972	4 4
-1.909184	4 5
-1.691128	4 6
-1.8907	4 7
-1.647662	4 8
-1.563341	4 9
-2.229519	4 :
-2.124784	4 ;
-1.432063	4 </s>
-2.015639	4 [
-1.47852	4 ]
-1.739433	4 a
-2.19173	4 b
-2.09482	4 d
-2.229519	4 e
-2.09482	4 h
-2.229519	4 l
-2.040463	4 m
-1.969882	4 n
-1.47852	4 o
-1.79379	4 p
-2.19173	4 r
-1.752398	4 s
-2.09482	4 t
-1.948692	4 u
-2.09482	4 v
-2.066792	4 z
-2.196402	5 "
-1.719281	5 %
-1.538825	5 )
-1.681492	5 ,
-1.18089	5 .
-1.24216	5 /
-1.614546	5 0
-1.746433	5 1
-1.64673	5 2
-1.760674	5 3
-1.658011	5 4
-1.936765	5 5
-1.693727	5 6
-1.839855	5 7
-1.719281	5 8
-1.936765	5 9
-2.196402	5 :
-2.061704	5 ;
-1.530225	5 </s>
-1.839855	5 [
-1.530225	5 ]
-1.635735	5 a
-2.196402	5 c
-2.033675	5 d
-2.158614	5 e
-2.196402	5 g
-2.196402	5 i
-2.196402	5 j
-2.033675	5 k
-2.196402	5 l
-2.091667	5 m
-1.822822	5 n
-1.424882	5 o
-1.876067	5 p
-2.196402	5 r
-1.746433	5 s
-1.959041	5 t
-2.061704	5 u
-2.123852	5 v
-1.876067	5 z
-2.196402	5 č
-2.121278	6 %
-2.188225	6 (
-1.748892	6 )
-1.762256	6 ,
-2.226014	6 -
-1.289683	6 .
-1.024368	6 /
-1.511532	6 0
-1.805008	6 1
-1.496554	6 2
-1.805008	6 3
-1.711104	6 4
-1.776045	6 5
-1.468066	6 6
-1.568436	6 7
-1.447863	6 8
-1.805008	6 9
-2.226014	6 :
-2.036958	6 ;
-1.527044	6 </s>
-1.966376	6 [
-1.654623	6 ]
-1.748892	6 a
-2.153463	6 d
-2.226014	6 e
-2.153463	6 j
-2.188225	6 k
-2.063287	6 m
-1.966376	6 n
-1.468066	6 o
-2.091315	6 p
-2.012134	6 r
-1.699205	6 s
-2.153463	6 t
-1.966376	6 u
-2.121278	6 v
-2.063287	6 z
-2.188225	6 č
-2.174157	7 %
-2.174157	7 (
-1.80618	7 )
-1.855398	7 ,
-2.211945	7 -
-1.414489	7 .
-1.136067	7 /
-1.520944	7 0
-1.662273	7 1
-1.572097	7 2
-1.600125	7 3
-1.70927	7 4
-1.50515	7 5
-1.545768	7 6
-1.482486	7 7
-1.414489	7 8
-1.651278	7 9
-2.211945	7 :
-2.049218	7 ;
-1.58124	7 </s>
-1.89161	7 [
-1.80618	7 ]
-1.734824	7 a
-2.174157	7 b
-2.10721	7 j
-2.211945	7 k
-2.077247	7 m
-1.952308	7 n
-1.440425	7 o
-1.998065	7 p
-2.10721	7 r
-1.697036	7 s
-2.139395	7 t
-2.211945	7 u
-2.10721	7 v
-1.855398	7 z
-2.211945	7 č
-2.211945	7 —
-2.218679	8 (
-1.680288	8 )
-1.845098	8 ,
-1.346258	8 .
-1.009651	8 /
-1.703769	8 0
-1.504197	8 1
-1.754921	8 2
-1.716003	8 3
-1.76871	8 4
-1.544068	8 5
-1.519709	8 6
-1.39084	8 7
-1.569875	8 8
-1.38501	8 9
-2.113943	8 ;
-1.587973	8 </s>
-1.937852	8 [
-1.812913	8 ]
-1.78295	8 a
-2.218679	8 b
-2.113943	8 d
-2.18089	8 h
-2.218679	8 j
-2.146128	8 m
-2.08398	8 n
-1.460731	8 o
-2.18089	8 p
-2.218679	8 r
-1.828708	8 s
-2.113943	8 t
-2.08398	8 u
-2.218679	8 v
-1.959041	8 z
-2.374748	9 %
-1.93902	9 )
-1.984777	9 ,
-2.374748	9 -
-1.513051	9 .
-1.198657	9 /
-1.386757	9 0
-1.382717	9 1
-1.378715	9 2
-1.399108	9 3
-1.535327	9 4
-1.535327	9 5
-1.382717	9 6
-1.382717	9 7
-1.248824	9 8
-0.8550397	9 9
-2.270013	9 ;
-1.825076	9 </s>
-2.185692	9 [
-2.03593	9 ]
-2.001168	9 a
-2.24005	9 b
-2.374748	9 d
-2.302198	9 e
-2.374748	9 g
-2.33696	9 h
-2.374748	9 i
-2.33696	9 k
-2.302198	9 m
-2.115111	9 n
-1.583632	9 o
-2.302198	9 p
-2.374748	9 r
-2.093922	9 s
-2.33696	9 t
-2.137388	9 u
-2.302198	9 v
-2.115111	9 z
-2.374748	9 ú
-1.657549	: "
-1.97282	: -
-2.034968	: 1
-0.5277347	: </s>
-1.944791	: a
-2.034968	: d
-2.107518	: e
-2.107518	: j
-2.06973	: k
-2.002783	: l
-2.034968	: p
-2.107518	: s
-2.034968	: t
-2.034968	: v
-2.107518	: z
-2.06973	: č
-2.107518	: —
-2.107518	: …
-1.978445	; "
-2.178017	; )
-2.215806	; ;
-0.4469659	; </s>
-2.143255	; a
-2.215806	; b
-2.215806	; c
-2.215806	; d
-2.215806	; e
-2.081107	; j
-2.143255	; k
-2.215806	; l
-2.081107	; m
-2.178017	; n
-2.178017	; o
-1.934979	; p
-2.02675	; t
-2.11107	; u
-1.81004	; v
-2.081107	; z
-2.143255	; č
-2.215806	; š
-1.064074	; ž
-1.669696	<s> "
-1.213161	<s> (
-1.240721	<s> -
-1.299999	<s> 1
-1.30692	<s> 2
-1.50722	<s> 3
-1.77884	<s> 4
-1.954931	<s> 5
-2.184605	<s> 6
-2.255961	<s> 7
-2.424366	<s> 8
-2.424366	<s> 9
-1.602749	<s> a
-1.582545	<s> b
-1.677814	<s> c
-1.816629	<s> d
-2.021878	<s> e
-2.07987	<s> f
-2.3809	<s> g
-2.3809	<s> h
-1.87061	<s> i
-2.255961	<s> j
-1.609698	<s> k
-2.498999	<s> l
-2.424366	<s> m
-1.896939	<s> n
-1.851861	<s> o
-1.308668	<s> p
-1.954931	<s> r
-1.211758	<s> s
-1.541751	<s> t
-2.402089	<s> u
-1.108727	<s> v
-1.634933	<s> z
-2.341392	<s> ú
-0.9404408	<s> č
-2.661727	<s> ř
-2.589176	<s> š
-2.623938	<s> ž
-2.589176	<s> —
-2.024991	[ *
-0.9866456	[ 1
-1.10551	[ 2
-1.263873	[ 3
-1.383059	[ 4
-1.505466	[ 5
-1.594866	[ 6
-1.758723	[ 7
-1.796511	[ 8
-1.908485	[ 9
-2.097541	[ v
-2.097541	] (
-0.6933298	] ,
-1.495481	] .
-1.55915	] ;
-2.097541	] </s>
-1.676536	] a
-1.962843	] b
-2.059753	] d
-2.059753	] j
-2.024991	] k
-2.097541	] m
-1.740994	] n
-1.992806	] o
-1.962843	] p
-2.097541	] r
-1.633784	] s
-2.097541	] t
-1.992806	] u
-1.962843	] v
-1.86018	] z
-1.992806	] ú
-2.059753	] ž
-2.683336	a "
-3.069797	a (
-2.09108	a )
-2.103145	a ,
-3.152771	a -
-2.440299	a .
-2.863323	a /
-3.317581	a 0
-2.128329	a 1
-2.435889	a 2
-2.887457	a 3
-3.051313	a 4
-3.130495	a 5
-3.176252	a 6
-3.051313	a 7
-3.033585	a 8
-2.913011	a 9
-3.051313	a :
-2.940163	a ;
-2.723954	a </s>
-3.352343	a [
-2.188487	a a
-1.632184	a b
-1.370449	a c
-1.036898	a d
-2.414491	a e
-2.60545	a f
-2.482135	a g
-1.642649	a h
-2.370827	a i
-1.328405	a j
-1.297029	a k
-1.429791	a l
-1.470104	a m
-0.926782	a n
-1.901325	a o
-1.337403	a p
-3.285397	a q
-1.737798	a r
-1.327721	a s
-0.9689769	a t
-2.045918	a u
-1.1003	a v
-2.550711	a x
-3.285397	a y
-1.397699	a z
-3.390132	a ç
-2.171453	a ú
-1.693537	a č
-3.130495	a ň
-1.445201	a ř
-2.750283	a š
-3.255433	a ť
-1.691952	a ž
-3.352343	a –
-2.852147	b "
-2.779597	b (
-1.614786	b )
-2.270291	b ,
-2.571321	b .
-2.779597	b 1
-2.852147	b 4
-2.717448	b ;
-2.814359	b </s>
-2.852147	b [
-1.422248	b a
-2.717448	b b
-1.645567	b c
-1.902314	b d
-1.215933	b e
-2.852147	b f
-2.814359	b h
-1.56516	b i
-1.78295	b j
-1.939297	b k
-1.539431	b l
-2.717448	b m
-1.446382	b n
-0.669525	b o
-2.462176	b p
-1.747412	b r
-1.658011	b s
-2.4956	b t
-1.330059	b u
-2.203344	b v
-0.7657873	b y
-2.571321	b z
-1.995913	b á
-2.663091	b é
-1.676056	b í
-1.176702	b ý
-2.747412	b č
-1.535605	b ě
-2.203344	b ř
-2.614786	b ů
-2.929725	c (
-1.923973	c )
-2.389813	c ,
-2.783597	c .
-2.744089	c 1
-2.804787	c 2
-2.929725	c 3
-3.064424	c 4
-3.026635	c 5
-2.991873	c 6
-3.026635	c 7
-2.901697	c 8
-3.026635	c 9
-3.026635	c :
-2.929725	c ;
-3.064424	c </s>
-2.643419	c a
-2.574338	c b
-3.026635	c c
-2.850544	c d
-0.7318019	c e
-0.3745503	c h
-1.110181	c i
-1.431875	c k
-2.725605	c l
-2.827063	c m
-2.076433	c n
-1.620095	c o
-2.161334	c p
-3.026635	c r
-2.804787	c s
-2.181537	c t
-2.080511	c u
-2.763394	c v
-2.929725	c y
-2.991873	c z
-2.643419	c á
-3.064424	c é
-0.939979	c í
-3.064424	c ú
-2.929725	c č
-3.064424	c ň
-3.064424	c ř
-1.87282	c ů
-2.993943	d "
-3.148845	d (
-2.386488	d )
-2.832575	d ,
-2.933245	d .
-3.25358	d 0
-2.715189	d 1
-3.064524	d 3
-3.25358	d 6
-3.25358	d 7
-3.25358	d 8
-3.064524	d :
-2.993943	d ;
-3.118882	d </s>
-1.254766	d a
-2.164639	d b
-2.016219	d c
-2.294973	d d
-0.9015733	d e
-3.18103	d f
-3.118882	d g
-2.692913	d h
-1.669661	d i
-2.124711	d j
-1.779099	d k
-1.260345	d l
-1.854064	d m
-0.9099032	d n
-0.922245	d o
-1.424569	d p
-1.452364	d r
-1.285097	d s
-2.546785	d t
-1.132409	d u
-1.966593	d v
-3.215792	d w
-1.453614	d y
-2.661505	d z
-1.476747	d á
-2.219426	d é
-1.791182	d í
-2.914762	d ú
-2.290652	d ý
-2.35049	d č
-1.237687	d ě
-2.897033	d ň
-2.381159	d ř
-3.148845	d š
-1.759679	d ů
-3.25358	d ž
-3.064524	e "
-2.682189	e (
-2.796662	e )
-2.039701	e ,
-2.897033	e -
-2.321845	e .
-3.55461	e /
-3.516822	e 0
-2.145754	e 1
-2.333552	e 2
-3.077489	e 3
-3.294973	e 4
-3.148845	e 5
-3.004938	e 6
-2.715189	e 7
-2.871727	e 8
-2.566619	e 9
-3.234275	e :
-2.847815	e ;
-3.027801	e </s>
-3.027801	e [
-2.357957	e a
-1.375372	e b
-1.598617	e c
-0.9777457	e d
-2.558577	e e
-2.389177	e f
-2.234275	e g
-1.665563	e h
-2.43165	e i
-1.388907	e j
-1.381954	e k
-1.547561	e l
-1.185563	e m
-0.6454921	e n
-1.916575	e o
-1.471825	e p
-3.55461	e q
-1.261952	e r
-1.308425	e s
-1.468574	e t
-2.056927	e u
-1.501183	e v
-3.55461	e w
-2.535305	e x
-1.40038	e z
-3.516822	e á
-2.825151	e ú
-1.398722	e č
-2.942791	e ň
-2.261549	e ř
-2.558577	e š
-2.039701	e ž
-3.516822	e –
-2.246856	f (
-1.589279	f )
-2.142121	f ,
-2.246856	f .
-2.209068	f 1
-1.555856	f a
-2.246856	f d
-1.379764	f e
-2.209068	f f
-2.246856	f g
-0.6994175	f i
-1.890309	f l
-0.7441812	f o
-2.246856	f p
-1.926521	f r
-2.112158	f t
-1.572246	f u
-2.246856	f v
-1.675465	f y
-2.084129	f á
-2.246856	f é
-2.246856	f ü
-2.246856	f ů
-2.276253	g "
-2.276253	g (
-1.840524	g )
-2.276253	g ,
-2.276253	g /
-0.9913097	g a
-2.276253	g b
-2.276253	g d
-1.22774	g e
-2.276253	g g
-1.105458	g i
-1.454323	g l
-2.276253	g m
-2.016616	g n
-1.16231	g o
-1.398567	g r
-2.203702	g s
-2.276253	g t
-1.414556	g u
-2.276253	g v
-2.238464	g y
-2.276253	g z
-0.8507779	g á
-2.276253	g é
-2.276253	g č
-2.902003	h "
-2.877179	h (
-2.655331	h )
-1.904565	h ,
-2.293603	h .
-3.091059	h /
-2.655331	h 1
-2.790029	h 2
-2.902003	h 3
-3.053271	h 4
-2.986324	h 6
-2.877179	h 7
-2.986324	h 8
-3.091059	h 9
-2.902003	h :
-2.64109	h ;
-2.902003	h </s>
-2.655331	h [
-1.521792	h a
-2.384264	h b
-2.3543	h c
-1.980163	h d
-2.064266	h e
-2.600973	h f
-3.091059	h g
-2.488999	h h
-2.275119	h i
-2.223967	h j
-1.804072	h k
-1.007296	h l
-1.882032	h m
-1.533661	h n
-0.5108601	h o
-1.235926	h p
-1.359397	h r
-1.066872	h s
-1.752241	h t
-1.404911	h u
-1.388942	h v
-3.091059	h w
-1.642493	h y
-1.682203	h z
-1.802038	h á
-3.091059	h ä
-2.3616	h é
-2.197953	h ú
-2.734512	h ý
-2.067994	h č
-3.091059	h ň
-2.853698	h ř
-3.018508	h š
-2.956361	h ť
-1.995731	h ů
-2.099028	h ž
-2.689358	i "
-3.015212	i (
-2.281873	i )
-1.863644	i ,
-2.017774	i .
-2.388328	i 1
-2.701593	i 2
-2.923441	i 3
-3.041541	i 4
-2.990388	i 5
-3.166479	i 6
-3.041541	i 7
-2.990388	i 8
-2.966907	i 9
-2.46751	i :
-2.376429	i ;
-2.677459	i </s>
-2.865449	i [
-1.793874	i a
-2.267937	i b
-0.994753	i c
-1.388328	i d
-1.851209	i e
-2.047004	i f
-2.944631	i g
-2.439481	i h
-1.714182	i i
-1.465343	i j
-1.372922	i k
-1.679813	i l
-1.551934	i m
-0.8401436	i n
-1.716744	i o
-1.431413	i p
-3.166479	i q
-2.115327	i r
-0.911207	i s
-0.9803711	i t
-2.208234	i u
-1.273921	i v
-3.166479	i w
-3.131717	i x
-1.504509	i z
-2.135071	i á
-3.204268	i é
-2.311162	i í
-3.166479	i ó
-2.622411	i ú
-1.953405	i č
-3.131717	i ň
-2.783263	i ř
-1.778793	i š
-1.997687	i ž
-3.204268	i –
-3.099533	i ≥
-2.831722	j "
-2.866484	j (
-2.644635	j )
-2.769574	j ,
-2.623446	j .
-2.904273	j </s>
-1.158205	j a
-2.741545	j b
-2.229662	j c
-1.954439	j d
-0.4882378	j e
-0.9187239	j i
-2.690393	j j
-2.498507	j k
-2.741545	j l
-1.198254	j m
-1.524062	j n
-2.401597	j o
-2.076434	j p
-2.904273	j r
-1.310182	j s
-2.715217	j t
-2.623446	j u
-2.126122	j v
-2.741545	j z
-2.246696	j á
-0.7621109	j í
-2.904273	j ó
-2.904273	j ú
-2.414186	j č
-2.799537	j ň
-2.03718	j š
-1.852244	j ů
-2.799537	j ž
-2.958112	k "
-3.037294	k (
-3.009265	k )
-2.134204	k ,
-2.798412	k .
-3.099442	k /
-1.891166	k 1
-2.014728	k 2
-2.21775	k 3
-2.400472	k 4
-2.579916	k 5
-2.480991	k 6
-2.579916	k 7
-2.645183	k 8
-2.62232	k 9
-3.171992	k :
-2.934631	k ;
-2.982936	k </s>
-3.134204	k [
-1.102459	k a
-2.782021	k b
-1.825995	k c
-1.988076	k d
-1.684468	k e
-3.134204	k f
-2.982936	k g
-3.067257	k h
-2.3049	k i
-2.560172	k j
-2.912355	k k
-1.350657	k l
-2.407205	k m
-1.980389	k n
-0.7815389	k o
-1.970347	k p
-1.641676	k r
-2.294307	k s
-0.8236874	k t
-1.014453	k u
-1.927828	k v
-1.175162	k y
-2.344153	k z
-1.713698	k á
-1.111638	k é
-2.428055	k ó
-2.982936	k ú
-1.275867	k ý
-2.380876	k č
-3.009265	k ř
-3.171992	k š
-1.696189	k ů
-3.067257	k ž
-3.202563	l "
-3.202563	l '
-3.097827	l (
-3.164774	l )
-2.398857	l ,
-3.097827	l -
-1.522145	l .
-3.202563	l 1
-3.164774	l 2
-3.164774	l 3
-3.202563	l 4
-3.164774	l 9
-3.164774	l :
-3.039835	l ;
-3.067864	l </s>
-3.039835	l [
-0.8597811	l a
-2.664172	l b
-2.942925	l c
-2.581198	l d
-0.5678106	l e
-3.067864	l f
-3.097827	l g
-2.226922	l h
-1.186289	l i
-2.882227	l j
-2.048056	l k
-3.164774	l l
-2.766834	l m
-1.336007	l n
-0.9322014	l o
-2.330142	l p
-2.882227	l r
-1.972114	l s
-2.239634	l t
-1.341408	l u
-2.590743	l v
-3.164774	l x
-1.490372	l y
-2.405106	l z
-0.9744424	l á
-1.790637	l é
-2.190877	l í
-3.130012	l ú
-2.168408	l ý
-3.130012	l č
-1.993535	l ň
-2.357465	l š
-2.140152	l ů
-2.846015	l ž
-3.202563	l ’
-2.467119	m "
-2.346297	m (
-2.960946	m )
-1.888199	m ,
-3.150002	m -
-1.773094	m .
-3.077452	m /
-3.112214	m 0
-2.483825	m 1
-2.776422	m 2
-2.829667	m 3
-3.112214	m 4
-3.077452	m 5
-2.960946	m 6
-3.015304	m 7
-2.987275	m 8
-2.960946	m 9
-2.611612	m :
-2.467119	m ;
-2.912642	m </s>
-2.987275	m [
-1.322751	m a
-2.130697	m b
-2.027042	m c
-2.06429	m d
-1.177715	m e
-2.811184	m f
-3.150002	m g
-2.728997	m h
-0.9493509	m i
-2.227607	m j
-1.443207	m k
-1.682193	m l
-2.28291	m m
-1.3146	m n
-1.10149	m o
-1.475392	m p
-2.138317	m r
-1.491557	m s
-1.784855	m t
-1.067217	m u
-1.733513	m v
-1.869176	m y
-1.848972	m z
-1.752062	m á
-1.665056	m é
-1.346918	m í
-3.150002	m ó
-2.392055	m ú
-2.557927	m ý
-2.237153	m č
-0.9332369	m ě
-2.623194	m ř
-2.987275	m š
-1.735029	m ů
-2.277581	m ž
-3.150002	m –
-3.00991	n "
-3.40202	n (
-3.255893	n )
-3.49893	n +
-2.609629	n ,
-2.934659	n .
-3.299358	n 0
-3.347663	n 1
-3.40202	n 2
-3.49893	n 4
-3.49893	n 9
-3.464168	n :
-3.180172	n ;
-3.373992	n </s>
-3.40202	n [
-0.8993204	n a
-3.373992	n b
-1.934659	n c
-2.457538	n d
-1.004081	n e
-2.164812	n f
-2.495327	n g
-3.431984	n h
-1.218846	n i
-3.163138	n j
-1.696727	n k
-3.322839	n l
-3.08675	n m
-1.815433	n n
-1.019163	n o
-2.669627	n p
-3.197901	n r
-1.372907	n s
-1.653832	n t
-1.729307	n u
-2.335074	n v
-1.60268	n y
-2.46084	n z
-1.371286	n á
-1.162471	n é
-0.7006828	n í
-3.49893	n ó
-3.464168	n ú
-1.308132	n ý
-2.158156	n č
-1.380005	n ě
-3.49893	n ř
-3.021809	n š
-2.347663	n ů
-3.49893	n ž
-3.047365	o "
-3.559248	o (
-3.359676	o )
-2.448098	o ,
-3.070228	o -
-3.106951	o .
-3.597037	o 0
-2.922426	o 1
-3.296007	o 2
-2.966331	o 3
-3.492301	o 4
-3.524486	o 5
-3.597037	o 7
-3.559248	o 9
-2.589211	o :
-3.258218	o ;
-2.939459	o </s>
-3.462338	o [
-2.521158	o a
-1.37314	o b
-1.853812	o c
-0.8654479	o d
-2.629829	o e
-2.71415	o f
-2.390456	o g
-1.446699	o h
-2.735339	o i
-1.850261	o j
-1.540132	o k
-1.339795	o l
-1.381231	o m
-1.421209	o n
-1.912518	o o
-1.255153	o p
-1.301769	o r
-1.023532	o s
-1.378358	o t
-1.112478	o u
-0.8856897	o v
-3.559248	o w
-2.930859	o x
-3.597037	o y
-1.284513	o z
-2.418321	o ú
-1.888693	o č
-3.524486	o ď
-2.8531	o ň
-2.359676	o ř
-2.860278	o š
-3.492301	o ť
-1.603	o ž
-3.559248	o –
-3.180897	p "
-2.750773	p )
-2.933113	p ,
-3.253448	p -
-3.180897	p .
-3.253448	p 2
-3.148713	p </s>
-1.258611	p a
-3.21566	p b
-2.174267	p c
-3.11875	p d
-1.615413	p e
-3.016087	p h
-1.513804	p i
-3.090721	p j
-2.803479	p k
-1.328699	p l
-3.064392	p m
-2.230383	p n
-0.491862	p o
-2.847683	p p
-0.6683978	p r
-1.670559	p s
-2.896901	p t
-1.865089	p u
-2.847683	p v
-2.455992	p y
-3.253448	p z
-2.554478	p á
-3.11875	p é
-1.838475	p í
-3.253448	p ó
-3.090721	p č
-2.245623	p ě
-0.7853695	p ř
-2.562447	p š
-1.739746	p ů
-1.937244	q )
-1.899456	q ,
-1.937244	q .
-1.748188	q u
-1.937244	q v
-2.907693	r "
-3.188519	r (
-3.053821	r )
-2.752791	r ,
-3.150731	r -
-2.907693	r .
-3.188519	r 3
-3.150731	r 6
-3.150731	r :
-3.115969	r ;
-3.083784	r </s>
-0.8527881	r a
-2.868184	r b
-2.481724	r c
-2.321427	r d
-1.427138	r e
-2.999463	r f
-1.551394	r g
-1.667619	r h
-1.570947	r i
-3.053821	r j
-2.466484	r k
-2.285429	r l
-1.569047	r m
-1.205837	r n
-0.5083488	r o
-2.321427	r p
-2.907693	r r
-2.451761	r s
-2.321427	r t
-1.314512	r u
-1.660538	r v
-3.188519	r w
-1.766019	r y
-2.295414	r z
-1.126108	r á
-3.150731	r å
-1.40319	r é
-3.188519	r ú
-1.643325	r ý
-1.80016	r č
-3.188519	r ň
-2.97464	r š
-1.920282	r ů
-1.920282	r ž
-3.133592	s "
-3.212773	s (
-1.725164	s )
-2.388865	s ,
-3.347472	s -
-2.707623	s .
-3.347472	s 1
-3.347472	s 5
-3.347472	s 6
-3.347472	s 8
-3.347472	s 9
-3.212773	s :
-2.941707	s ;
-3.027137	s </s>
-2.343542	s [
-1.597876	s a
-2.610713	s b
-2.006848	s c
-2.081369	s d
-1.025065	s e
-3.110111	s f
-3.309683	s g
-2.485775	s h
-1.749378	s i
-2.735652	s j
-0.9949386	s k
-1.402541	s l
-1.229297	s m
-1.838636	s n
-1.098385	s o
-1.110111	s p
-2.656471	s r
-2.48038	s s
-0.4928347	s t
-1.987464	s u
-1.812523	s v
-1.86642	s y
-2.434622	s z
-2.525542	s á
-1.656471	s í
-3.110111	s ú
-3.309683	s ý
-2.393229	s č
-3.242737	s ň
-3.274921	s ř
-2.168756	s ů
-3.347472	s ž
-3.347472	s –
-3.175608	t "
-3.25479	t (
-3.284753	t )
-2.078698	t ,
-3.316938	t -
-1.672726	t .
-3.389488	t /
-3.389488	t 0
-3.226761	t 1
-3.3517	t 2
-3.3517	t 3
-3.316938	t 5
-3.389488	t 8
-3.05067	t :
-2.758783	t ;
-3.316938	t </s>
-3.389488	t [
-1.01424	t a
-2.740685	t b
-2.682693	t c
-2.234981	t d
-0.9559366	t e
-3.015908	t f
-3.316938	t g
-2.723311	t h
-1.225406	t i
-2.385558	t j
-1.809705	t k
-2.205572	t l
-2.453157	t m
-1.190581	t n
-0.8581255	t o
-1.804541	t p
-1.365301	t r
-1.983723	t s
-2.385558	t t
-1.240549	t u
-1.343454	t v
-3.389488	t w
-1.402717	t y
-2.205572	t z
-1.32469	t á
-3.389488	t å
-3.389488	t è
-1.701716	t é
-1.403939	t í
-2.645551	t ú
-1.915007	t ý
-2.373976	t č
-1.65418	t ě
-2.435246	t ň
-1.381663	t ř
-2.675006	t š
-1.798424	t ů
-3.175608	t ž
-2.635896	u "
-2.749839	u (
-3.113017	u )
-1.316336	u ,
-2.795597	u -
-1.863349	u .
-3.185568	u /
-2.02284	u 1
-2.297542	u 2
-2.536765	u 3
-2.603711	u 4
-2.735599	u 5
-2.708447	u 6
-2.811987	u 7
-2.904741	u 8
-2.884538	u 9
-2.795597	u :
-2.21836	u ;
-2.795597	u </s>
-2.369628	u [
-1.695482	u a
-1.749839	u b
-1.764563	u c
-1.302165	u d
-2.420781	u e
-2.635896	u f
-2.865233	u g
-1.827287	u h
-2.400886	u i
-1.116708	u j
-1.380623	u k
-1.426931	u l
-1.593492	u m
-1.550267	u n
-1.749839	u o
-1.046261	u p
-1.449534	u r
-1.067694	u s
-1.249237	u t
-2.050869	u u
-1.000361	u v
-1.578601	u z
-2.865233	u á
-2.614177	u í
-2.502685	u ú
-1.719105	u č
-2.735599	u ď
-2.573748	u ř
-1.463533	u š
-3.185568	u ť
-1.426244	u ž
-3.080832	u –
-3.184671	v "
-3.289407	v %
-3.029769	v )
-2.751016	v ,
-2.932859	v .
-3.289407	v 1
-3.289407	v 5
-3.126679	v ;
-3.126679	v </s>
-3.216856	v [
-1.087513	v a
-2.524619	v b
-1.79047	v c
-2.339573	v d
-0.8825568	v e
-3.251618	v f
-3.289407	v g
-2.301415	v h
-1.310853	v i
-2.427709	v j
-1.7476	v k
-1.978617	v l
-2.687346	v m
-1.220546	v n
-1.123704	v o
-1.568121	v p
-1.501495	v r
-1.647752	v s
-2.289407	v t
-1.818916	v u
-2.899436	v v
-1.257447	v y
-1.431526	v z
-1.132142	v á
-1.600825	v é
-1.168235	v í
-2.786731	v ó
-2.504725	v ú
-1.154708	v ý
-1.666157	v č
-1.516552	v ě
-3.10035	v ň
-2.687346	v ř
-1.882093	v š
-2.567371	v ů
-2.915826	v ž
-1.938156	w )
-1.938156	w -
-1.938156	w g
-1.775428	w i
-1.938156	w n
-1.900367	w t
-1.938156	w y
-1.938156	w ä
-2.024187	x (
-1.951636	x ,
-2.024187	x 1
-1.786826	x a
-1.703852	x e
-0.9132914	x i
-1.951636	x k
-1.986398	x n
-1.835131	x p
-1.986398	x s
-1.393482	x t
-1.919452	x u
-1.986398	x y
-1.889488	x í
-1.986398	x —
-2.33239	y "
-1.828535	y (
-2.841696	y )
-1.238802	y ,
-1.73033	y .
-2.478518	y 1
-2.508482	y 2
-2.75152	y 3
-2.809512	y 4
-2.779548	y 5
-2.65461	y 6
-2.437126	y 7
-2.437126	y 8
-2.207452	y 9
-2.375856	y :
-1.926256	y ;
-2.387438	y </s>
-2.387438	y [
-1.494742	y a
-1.41406	y b
-2.069149	y c
-1.693189	y d
-2.524276	y e
-2.593912	y f
-2.464278	y g
-1.84843	y h
-1.93445	y i
-1.71509	y j
-1.554239	y k
-1.261034	y l
-1.42544	y m
-1.287254	y n
-1.5577	y o
-0.9918518	y p
-1.825306	y r
-1.109922	y s
-1.086995	y t
-1.529128	y u
-1.319152	y v
-2.914247	y x
-1.419081	y z
-2.779548	y í
-2.364575	y ú
-1.679178	y č
-2.478518	y ň
-2.437126	y ř
-2.047155	y š
-2.914247	y ť
-1.947039	y ž
-2.975184	z "
-2.885008	z ,
-3.047735	z -
-3.009946	z .
-3.047735	z :
-3.009946	z ;
-0.850329	z a
-1.617836	z b
-2.455659	z c
-1.535245	z d
-0.6458647	z e
-2.766908	z f
-3.047735	z g
-1.2264	z h
-1.411521	z i
-2.202637	z j
-1.680888	z k
-2.24403	z l
-1.654559	z m
-1.088693	z n
-1.565381	z o
-1.314611	z p
-2.07629	z r
-2.390158	z s
-1.777374	z t
-1.47423	z u
-1.404282	z v
-2.263053	z y
-2.833855	z z
-1.196477	z á
-1.794661	z í
-2.788098	z ó
-2.3257	z ú
-2.975184	z ý
-2.570614	z č
-2.139738	z ř
-2.532825	z š
-2.64197	z ů
-3.009946	z ž
-3.029752	á (
-2.427693	á ,
-2.656172	á -
-2.709417	á .
-3.029752	á 1
-2.991964	á ;
-2.957202	á </s>
-2.527077	á a
-2.251601	á b
-1.602798	á c
-1.151022	á d
-2.991964	á e
-2.770115	á f
-1.909777	á h
-2.673205	á i
-1.792392	á j
-1.468001	á k
-1.254904	á l
-1.498274	á m
-0.6286655	á n
-1.903828	á o
-1.767949	á p
-1.669745	á r
-1.270428	á s
-0.9167213	á t
-2.458361	á u
-0.9669998	á v
-1.425723	á z
-2.728723	á ú
-2.408387	á č
-2.991964	á ď
-2.957202	á ň
-1.578385	á ř
-1.683756	á š
-1.840696	á ž
-1.932197	ã o
-1.932658	ä d
-1.932658	ä h
-1.89533	å l
-1.933119	å r
-1.932197	ç ã
-1.932197	è r
-2.82056	é "
-2.782771	é (
-2.82056	é )
-1.91747	é ,
-2.464012	é .
-2.782771	é :
-2.560922	é ;
-2.782771	é </s>
-2.748009	é [
-1.927454	é a
-1.992721	é b
-2.399554	é c
-1.748009	é d
-2.430589	é e
-2.293751	é f
-0.7170669	é h
-1.99863	é i
-1.738101	é j
-1.569696	é k
-1.99863	é l
-0.9264451	é m
-1.141793	é n
-1.453712	é o
-1.135225	é p
-1.816629	é r
-1.028805	é s
-1.381945	é t
-2.00462	é u
-1.257726	é v
-1.527499	é z
-1.893469	é ú
-1.79007	é č
-2.631503	é ř
-2.583199	é š
-2.51953	é ž
-2.713314	í "
-1.903931	í (
-2.931369	í )
-1.343707	í ,
-2.611856	í -
-1.79341	í .
-2.713314	í 1
-2.970878	í 2
-3.117006	í 3
-3.062648	í 7
-2.950675	í 8
-2.680313	í 9
-2.108406	í :
-2.119911	í ;
-2.288776	í </s>
-2.761618	í [
-1.634132	í a
-1.766758	í b
-0.95305	í c
-1.517123	í d
-2.105577	í e
-2.639885	í f
-3.251704	í g
-1.491693	í h
-2.301871	í i
-1.742869	í j
-1.544134	í k
-1.418036	í l
-1.091154	í m
-1.335011	í n
-1.589806	í o
-1.065211	í p
-1.674004	í r
-1.079845	í s
-1.488958	í t
-1.925741	í u
-1.362148	í v
-1.101367	í z
-3.251704	í á
-3.251704	í í
-2.153218	í ú
-2.016635	í č
-1.922029	í ř
-2.544909	í š
-3.251704	í ť
-2.128744	í ž
-3.179154	í –
-1.243248	ó d
-1.671678	ó n
-1.972708	ó r
-1.434317	ó t
-1.900157	ó z
-1.07856	ú d
-2.020568	ú h
-2.117478	ú j
-1.753397	ú k
-1.830237	ú l
-1.803084	ú m
-1.79012	ú n
-1.482749	ú p
-1.288175	ú r
-1.816448	ú s
-2.020568	ú t
-1.446537	ú v
-1.508685	ú z
-0.6655002	ú č
-1.178584	ú ř
-1.932197	ü r
-2.588897	ý "
-2.740165	ý )
-2.439135	ý ,
-2.643255	ý .
-2.777954	ý /
-2.251145	ý a
-1.366028	ý b
-0.5383131	ý c
-1.850864	ý d
-2.740165	ý e
-2.615227	ý f
-2.12915	ý h
-2.777954	ý i
-1.900268	ý j
-1.355453	ý k
-2.314197	ý l
-0.816317	ý m
-2.138105	ý n
-1.7438	ý o
-1.571373	ý p
-1.397743	ý r
-1.424895	ý s
-1.110926	ý t
-2.540593	ý u
-1.43374	ý v
-1.64037	ý z
-2.564074	ý ú
-1.921719	ý č
-2.457619	ý ř
-1.682626	ý š
-2.404373	ý ž
-2.82866	č )
-1.235743	č .
-1.617807	č a
-2.866448	č b
-2.761713	č c
-0.7352382	č e
-1.10234	č i
-2.363773	č k
-0.4967267	č l
-2.82866	č m
-0.824697	č n
-1.963359	č o
-2.793898	č s
-1.835959	č t
-2.264389	č u
-2.82866	č z
-1.629088	č á
-1.652569	č í
-2.761713	č ň
-2.509901	č ů
-1.946274	ď </s>
-1.908485	ď a
-1.946274	ď d
-1.908485	ď k
-1.908485	ď n
-1.873723	ď o
-1.908485	ď p
-1.811575	ď t
-1.908485	ď u
-1.811575	ď v
-1.783546	ď z
-1.946274	ď ú
-2.765358	ě "
-2.765358	ě (
-1.737329	ě ,
-2.765358	ě -
-2.181782	ě .
-2.730596	ě 0
-2.482811	ě 1
-2.543509	ě 2
-2.765358	ě 3
-2.765358	ě 4
-2.698411	ě 5
-2.803147	ě 7
-2.765358	ě 9
-2.61409	ě :
-2.543509	ě ;
-2.803147	ě </s>
-2.698411	ě [
-2.01203	ě a
-2.397381	ě b
-1.414787	ě c
-1.326025	ě d
-2.668448	ě e
-2.589267	ě f
-2.803147	ě g
-1.853313	ě h
-2.276338	ě i
-1.413176	ě j
-1.609011	ě k
-1.118628	ě l
-1.707819	ě m
-0.7106812	ě n
-1.701524	ě o
-1.450088	ě p
-0.8807515	ě r
-1.251253	ě s
-1.357401	ě t
-1.999441	ě u
-1.645882	ě v
-1.82335	ě z
-2.565786	ě ú
-2.31306	ě č
-2.803147	ě ď
-2.668448	ě ň
-1.601501	ě ř
-2.565786	ě š
-1.629695	ě ž
-2.100997	ň "
-2.100997	ň )
-2.100997	ň ,
-2.028446	ň 1
-2.100997	ň 2
-2.100997	ň 5
-2.100997	ň 8
-2.100997	ň :
-2.100997	ň </s>
-1.82017	ň a
-2.063208	ň b
-1.938269	ň d
-2.100997	ň h
-2.028446	ň i
-1.863636	ň j
-1.322846	ň k
-2.100997	ň m
-1.996261	ň n
-0.9634125	ň o
-1.841359	ň p
-2.100997	ň r
-1.665268	ň s
-1.911941	ň t
-0.9355636	ň u
-1.911941	ň v
-2.028446	ň z
-2.028446	ň ú
-2.100997	ň š
-2.63932	ř .
-2.8532	ř [
-1.521681	ř a
-0.4761259	ř e
-0.8972065	ř i
-2.78065	ř j
-2.815412	ř k
-2.690473	ř l
-2.8532	ř m
-1.930805	ř n
-2.088413	ř o
-2.615839	ř p
-1.444344	ř s
-2.815412	ř t
-2.748465	ř u
-2.019532	ř á
-0.4858443	ř í
-2.8532	ř š
-2.403231	ř ů
-1.524277	š a
-2.413579	š c
-0.692731	š e
-1.375489	š i
-1.28864	š k
-1.776757	š l
-0.9084291	š n
-1.936458	š o
-2.28864	š p
-1.066249	š t
-1.744572	š u
-2.214007	š v
-2.451368	š z
-2.077787	š á
-1.005622	š í
-2.413579	š č
-1.8907	š š
-1.505989	š ť
-1.939519	ť ,
-1.977308	ť .
-1.977308	ť d
-1.904757	ť j
-1.939519	ť m
-1.179851	ť o
-1.977308	ť p
-1.977308	ť r
-1.904757	ť s
-1.462398	ť u
-1.939519	ť v
-1.904757	ť á
-2.255387	ů "
-2.298853	ů (
-2.431479	ů )
-1.127358	ů ,
-1.595335	ů .
-2.179667	ů 1
-2.162633	ů 2
-2.498425	ů 3
-2.401515	ů 4
-2.536214	ů 5
-2.536214	ů 6
-2.498425	ů 7
-2.431479	ů 8
-2.431479	ů 9
-2.431479	ů :
-1.845213	ů ;
-2.298853	ů </s>
-2.276577	ů [
-1.467017	ů a
-1.648188	ů b
-2.179667	ů c
-1.829419	ů d
-2.347158	ů e
-2.322334	ů f
-2.373487	ů h
-2.298853	ů i
-1.896365	ů j
-1.745098	ů k
-1.986542	ů l
-1.068404	ů m
-1.577607	ů n
-1.691116	ů o
-1.342078	ů p
-2.009405	ů r
-1.029832	ů s
-1.407345	ů t
-1.628217	ů u
-1.041048	ů v
-2.536214	ů x
-1.556417	ů z
-2.463663	ů ú
-1.751532	ů č
-2.536214	ů ř
-2.536214	ů š
-1.213995	ů ž
-2.713796	ž )
-2.713796	ž ,
-2.676007	ž .
-2.676007	ž 0
-2.278067	ž 1
-2.454159	ž 2
-2.579097	ž 3
-2.579097	ž 4
-2.499916	ž 5
-2.609061	ž 6
-2.713796	ž 7
-2.641245	ž 9
-2.713796	ž :
-2.713796	ž ;
-1.341889	ž a
-1.841375	ž b
-2.101976	ž c
-1.289806	ž d
-0.5050126	ž e
-2.551069	ž f
-2.713796	ž g
-2.499916	ž h
-0.9476535	ž i
-1.658279	ž j
-1.679642	ž k
-2.52474	ž l
-2.111736	ž m
-1.30187	ž n
-1.612174	ž o
-1.841375	ž p
-2.641245	ž r
-1.416732	ž s
-2.278067	ž t
-1.999314	ž u
-2.083091	ž v
-2.22371	ž z
-1.488017	ž á
-1.248684	ž í
-2.609061	ž ú
-2.499916	ž č
-2.579097	ž ď
-2.186987	ž ň
-2.278067	ž š
-2.609061	ž ů
-1.932197	ά δ
-1.932197	α ν
-1.932197	γ α
-1.933119	δ η
-1.933119	δ ο
-1.933119	δ ρ
-1.932658	ε )
-1.932658	ε λ
-1.932197	η ρ
-1.932658	ι δ
-1.932658	ι σ
-1.932658	λ ά
-1.932658	λ λ
-1.932658	μ ω
-1.932658	μ ό
-1.932658	ν ε
-1.932658	ν ι
-1.933579	ο δ
-1.933579	ο ρ
-1.933579	ο ς
-1.933579	ο σ
-1.933119	ρ γ
-1.933119	ρ ο
-1.933119	ρ ό
-1.932658	ς (
-1.932658	ς σ
-1.933119	σ ε
-1.933119	σ ι
-1.933119	σ μ
-1.932197	ω ν
-1.932658	ό μ
-1.932658	ό ς
-1.939519	– 1
-1.939519	– a
-1.866969	– b
-1.901731	– d
-1.939519	– j
-1.939519	– k
-1.750463	– p
-1.939519	– u
-1.936331	— "
-1.936331	— 1
-1.936331	— a
-1.936331	— b
-1.936331	— c
-1.898542	— o
-1.936331	— p
-1.898542	— z
-1.932197	’ a
-1.932197	… </s>
-1.933579	≥ 0
-1.895791	≥ 3
-1.933579	≥ 5

\end\
