
\data\
ngram 1=67
ngram 2=1823

\1-grams:
-3.317792	"	1.05914
-3.784227	%	0.2107327
-4.113286	'	0.3855999
-2.62037	(	0.4013675
-2.395615	)	0.6936296
-4.562378	*	0.06392733
-4.687317	+	-0.01202602
-1.894692	,	0.13138
-2.738741	-	0.6331362
-2.101293	.	0.4959072
-2.574489	/	-0.326656
-2.657933	0	-0.0280932
-2.303203	1	-0.03540706
-2.41625	2	-0.225431
-2.647243	3	0.0862375
-2.794759	4	-0.05334581
-2.868871	5	0.6616649
-2.798015	6	-0.03097833
-2.831495	7	0.00818825
-2.813222	8	-0.06493074
-2.533248	9	-0.1726187
-2.974107	:	0.6740215
-2.985461	;	0.4371223
-2.151812	</s>
-99	<s>	0.09707369
-4.62037	=	-0.02029969
-4.62037	>	-0.009244313
-4.590407	_	-0.006835676
-1.217188	a	-0.3273464
-1.926957	b	0.1951019
-2.57757	c	0.2615024
-1.234381	d	-0.2748206
-0.7949303	e	0.3725357
-1.481369	f	0.1725059
-1.462116	g	1.145772
-2.00352	h	-0.7119042
-1.217716	i	-0.5011531
-2.588673	j	0.1425235
-1.548436	k	-0.1146933
-1.300788	l	0.003699478
-1.54962	m	0.01178873
-1.144502	n	-0.1788117
-1.330002	o	-0.4170181
-1.911161	p	0.1439464
-4.465468	q	0.004042502
-1.080604	r	0.144681
-1.2166	s	-0.1268423
-1.162856	t	0.0495797
-1.895217	u	0.05085858
-1.743287	v	0.1654632
-4.31934	w	0.1891852
-4.034105	x	0.1232408
-2.377155	y	0.1901712
-3.953585	z	0.122473
-3.528452	«	0.195465
-4.687317	±	-0.01083497
-3.511226	»	0.5907627
-4.725106	ß	-0.006494798
-4.725106	á	0.01879625
-4.725106	ã	0.01351571
-2.401572	å	0.5549781
-2.254348	æ	-0.4042785
-4.725106	ç	-0.007279923
-4.687317	è	0.03162051
-3.669588	é	0.3554625
-4.62037	ó	0.05322134
-2.319495	ø	-0.05932975

\2-grams:
-1.889768	" (
-1.713677	" )
-1.626527	" ,
-1.889768	" -
-1.521792	" .
-1.76483	" 1
-1.822822	" 2
-1.76483	" 3
-1.927557	" 9
-1.437471	" :
-1.822822	" ;
-1.190798	" </s>
-1.588738	" a
-1.553976	" b
-1.889768	" c
-1.66792	" d
-1.521792	" e
-1.64673	" f
-1.927557	" g
-1.792858	" h
-1.588738	" i
-1.792858	" k
-1.822822	" l
-1.855006	" m
-1.822822	" n
-1.738501	" o
-1.889768	" p
-1.927557	" r
-1.822822	" s
-1.822822	" t
-1.822822	" u
-1.855006	" v
-1.927557	" w
-1.927557	" æ
-1.617466	% ,
-1.793558	% -
-1.64229	% .
-1.758795	% ;
-1.668619	% </s>
-1.191498	% a
-1.793558	% b
-1.793558	% e
-1.668619	% f
-1.758795	% i
-1.831346	% l
-1.831346	% m
-1.793558	% o
-1.831346	% p
-1.831346	% r
-1.831346	% v
-1.793558	% «
-1.762804	' )
-1.762804	' .
-1.665894	' :
-1.762804	' a
-1.728041	' b
-1.800592	' d
-1.762804	' e
-1.800592	' f
-1.762804	' i
-1.800592	' k
-1.800592	' o
-1.800592	' r
-1.540955	' s
-1.800592	' t
-1.800592	' u
-2.232573	( "
-2.270361	( '
-2.19781	( *
-2.081305	( -
-2.270361	( 0
-0.9351769	( 1
-1.078758	( 2
-1.286448	( 3
-1.419659	( 4
-1.460495	( 5
-1.563566	( 6
-1.688505	( 7
-1.678285	( 8
-1.668301	( 9
-2.165626	( a
-1.931543	( b
-2.010724	( c
-2.135663	( d
-0.6359755	( e
-1.989535	( f
-2.270361	( g
-2.033	( h
-1.849356	( i
-2.135663	( k
-2.270361	( l
-2.081305	( m
-2.107634	( n
-2.081305	( o
-2.081305	( p
-2.19781	( r
-1.931543	( s
-2.010724	( t
-2.033	( u
-2.270361	( v
-2.270361	( w
-2.19781	( z
-2.270361	( »
-2.19781	( å
-2.232573	( ø
-1.908775	) "
-2.330848	) '
-1.985615	) (
-2.435584	) )
-0.7437792	) ,
-2.246527	) -
-1.573887	) .
-2.221704	) 1
-2.397795	) 2
-2.435584	) 4
-2.363033	) :
-1.971826	) ;
-1.537457	) </s>
-1.369766	) a
-1.736614	) b
-2.435584	) c
-1.191419	) d
-1.557898	) e
-1.423898	) f
-2.198223	) g
-1.814219	) h
-1.306715	) i
-2.397795	) j
-1.760973	) k
-2.300885	) l
-1.833524	) m
-0.8076596	) n
-1.427758	) o
-1.814219	) p
-1.932908	) r
-1.625718	) s
-2.045613	) t
-1.999855	) u
-1.885912	) v
-2.435584	) w
-2.363033	) y
-2.300885	) «
-2.115249	) »
-2.435584	) å
-2.330848	) æ
-2.397795	) ø
-1.709531	* )
-1.782081	* 2
-1.782081	* e
-1.782081	* k
-1.779465	+ 2
-1.779465	+ 3
-2.866771	, "
-2.79422	, (
-2.828982	, -
-2.866771	, .
-2.607133	, 0
-2.677714	, 1
-2.461005	, 2
-2.652891	, 3
-2.652891	, 4
-2.677714	, 5
-2.652891	, 6
-2.677714	, 7
-2.565741	, 8
-2.585944	, 9
-1.544551	, </s>
-1.091922	, a
-1.715039	, b
-2.389649	, c
-0.7595605	, d
-1.408476	, e
-1.438341	, f
-2.144735	, g
-1.218854	, h
-1.293266	, i
-2.175769	, j
-1.643345	, k
-1.592193	, l
-1.66019	, m
-1.677714	, n
-1.089278	, o
-1.983884	, p
-2.295379	, r
-0.7081339	, s
-1.86284	, t
-1.878779	, u
-1.989085	, v
-2.732072	, y
-2.652891	, »
-2.866771	, å
-2.476799	, æ
-2.732072	, ø
-2.193125	- '
-1.87279	- ,
-2.193125	- 0
-1.912298	- 1
-2.088389	- 2
-2.155336	- 4
-2.155336	- 5
-2.193125	- 6
-2.120574	- 7
-2.155336	- 8
-2.193125	- 9
-1.076155	- </s>
-1.449187	- a
-1.591065	- b
-2.030397	- c
-1.471089	- d
-1.285127	- e
-1.371194	- f
-1.836577	- g
-1.803154	- h
-1.553276	- i
-2.120574	- j
-1.428337	- k
-1.979245	- l
-1.449187	- m
-1.716003	- n
-1.130714	- o
-1.137607	- p
-1.408442	- r
-1.421604	- s
-1.591065	- t
-2.058426	- u
-2.004068	- v
-2.193125	- »
-1.944154	. "
-2.608361	. (
-2.421275	. )
-2.608361	. ,
-2.643124	. -
-2.643124	. .
-2.546214	. 0
-1.002146	. 1
-1.136844	. 2
-1.489309	. 3
-1.835814	. 4
-2.032109	. 5
-2.230943	. 6
-2.217155	. 7
-2.166002	. 8
-2.360577	. 9
-0.5517497	. </s>
-1.515479	. a
-2.120245	. b
-2.608361	. c
-1.134594	. d
-1.735533	. e
-1.591971	. f
-2.217155	. g
-1.871046	. h
-1.661607	. i
-1.464626	. j
-1.713705	. k
-2.421275	. l
-1.381861	. m
-1.922964	. n
-1.951453	. o
-2.078852	. p
-2.217155	. r
-1.72667	. s
-2.275147	. t
-2.041064	. u
-2.099056	. v
-2.643124	. y
-1.958877	. «
-2.643124	. »
-2.680912	. æ
-2.302213	/ 0
-1.294387	/ 1
-1.282908	/ 2
-1.486273	/ 3
-1.233016	/ 4
-1.544265	/ 5
-1.216501	/ 6
-1.404086	/ 7
-1.322416	/ 8
-0.9762496	/ 9
-2.302213	/ a
-2.264424	/ c
-0.5786825	/ e
-2.264424	/ h
-2.264424	/ i
-2.264424	/ k
-2.302213	/ l
-2.302213	/ r
-2.264424	/ t
-1.523028	0 %
-1.855093	0 (
-1.684397	0 )
-1.405643	0 ,
-1.480276	0 .
-1.007703	0 /
-0.7147477	0 0
-1.399966	0 1
-1.317973	0 2
-1.546094	0 3
-1.809335	0 4
-1.924729	0 5
-1.839298	0 6
-1.730154	0 7
-1.824058	0 8
-1.809335	0 9
-2.245064	0 ;
-1.554063	0 </s>
-1.684397	0 a
-2.207275	0 b
-2.110365	0 c
-1.855093	0 d
-1.964237	0 e
-1.964237	0 f
-2.245064	0 g
-2.207275	0 h
-1.985426	0 i
-2.031184	0 k
-2.140328	0 m
-1.562181	0 o
-2.207275	0 p
-2.245064	0 r
-2.140328	0 s
-2.110365	0 t
-2.245064	0 v
-2.245064	0 w
-2.245064	0 «
-2.245064	0 æ
-2.509569	1 "
-2.471781	1 %
-2.0596	1 (
-1.281449	1 )
-1.019483	1 ,
-2.228742	1 -
-0.9510787	1 .
-1.363441	1 /
-1.305449	1 0
-1.383644	1 1
-1.447158	1 2
-1.454052	1 3
-1.454052	1 4
-1.423857	1 5
-1.573238	1 6
-1.533928	1 7
-1.631884	1 8
-0.8670146	1 9
-2.404834	1 :
-2.320513	1 ;
-1.501744	1 </s>
-2.045812	1 a
-2.404834	1 b
-2.437018	1 d
-2.170751	1 e
-2.320513	1 f
-2.471781	1 g
-2.509569	1 h
-1.948902	1 i
-2.320513	1 k
-2.437018	1 m
-2.208539	1 n
-1.582479	1 o
-2.471781	1 p
-2.471781	1 r
-2.374871	1 s
-2.228742	1 t
-2.471781	1 v
-2.509569	1 æ
-2.346955	2 %
-2.138679	2 (
-1.189056	2 )
-1.027929	2 ,
-2.182144	2 -
-0.9852266	2 .
-1.182144	2 /
-0.9033906	2 0
-1.634823	2 1
-1.448061	2 2
-1.547084	2 3
-1.483174	2 4
-1.54182	2 5
-1.563271	2 6
-1.744895	2 7
-1.661557	2 8
-1.563271	2 9
-2.419505	2 :
-2.284806	2 ;
-1.350308	2 </s>
-1.892696	2 a
-2.284806	2 b
-2.284806	2 d
-2.346955	2 e
-2.09917	2 f
-2.419505	2 g
-1.817445	2 i
-2.256778	2 k
-2.230449	2 m
-2.205625	2 n
-1.49711	2 o
-2.346955	2 p
-2.346955	2 s
-2.284806	2 t
-2.419505	2 u
-2.31477	2 v
-2.381716	2 «
-2.381716	2 æ
-2.252191	3 "
-2.17964	3 %
-2.01483	3 (
-1.153704	3 )
-1.035905	3 ,
-2.063135	3 -
-1.019426	3 .
-1.120397	3 /
-1.385098	3 0
-1.37977	3 1
-1.569308	3 2
-1.7138	3 3
-1.802222	3 4
-1.725382	3 5
-1.442325	3 6
-1.586013	3 7
-1.725382	3 8
-1.660115	3 9
-2.252191	3 :
-2.17964	3 ;
-1.320456	3 </s>
-1.802222	3 a
-2.147455	3 b
-2.252191	3 d
-2.063135	3 e
-1.992553	3 f
-2.252191	3 g
-1.691524	3 i
-2.147455	3 k
-2.252191	3 l
-2.214402	3 m
-2.252191	3 n
-1.47404	3 o
-2.214402	3 p
-2.147455	3 s
-1.992553	3 t
-2.252191	3 u
-2.214402	3 v
-2.252191	3 æ
-2.159184	4 "
-2.121396	4 %
-1.921823	4 (
-1.159184	4 )
-1.103667	4 ,
-1.114217	4 .
-1.067038	4 /
-1.587793	4 0
-1.567109	4 1
-1.444702	4 2
-1.567109	4 3
-1.802637	4 4
-1.838849	4 5
-1.644274	4 6
-1.820366	4 7
-1.567109	4 8
-1.484574	4 9
-2.086634	4 :
-2.086634	4 ;
-1.355479	4 </s>
-1.820366	4 a
-2.159184	4 b
-2.121396	4 d
-1.996457	4 e
-2.024486	4 f
-2.159184	4 h
-1.802637	4 i
-2.121396	4 k
-2.086634	4 m
-2.054449	4 n
-1.501607	4 o
-2.086634	4 s
-1.970128	4 t
-2.086634	4 v
-2.121396	4 «
-2.159184	4 æ
-1.653213	5 %
-1.778151	5 (
-1.154041	5 )
-1.141329	5 ,
-2.079181	5 -
-1.145525	5 .
-1.185235	5 /
-1.545579	5 0
-1.667001	5 1
-1.567298	5 2
-1.681241	5 3
-1.590161	5 4
-1.857332	5 5
-1.614294	5 6
-1.743389	5 7
-1.653213	5 8
-1.857332	5 9
-2.11697	5 :
-2.012234	5 ;
-1.418	5 </s>
-1.760422	5 a
-2.11697	5 b
-2.079181	5 c
-1.81594	5 d
-1.982271	5 e
-1.982271	5 f
-2.079181	5 g
-1.81594	5 i
-2.012234	5 k
-2.11697	5 l
-1.982271	5 m
-2.11697	5 n
-1.442359	5 o
-2.11697	5 r
-2.079181	5 s
-2.012234	5 t
-2.11697	5 u
-2.079181	5 v
-2.11697	5 «
-2.11697	5 æ
-2.052529	6 %
-2.157264	6 '
-1.876438	6 (
-1.341325	6 )
-1.225529	6 ,
-2.119476	6 -
-1.290172	6 .
-0.9409785	6 /
-1.427805	6 0
-1.736259	6 1
-1.442782	6 2
-1.721536	6 3
-1.630455	6 4
-1.736259	6 5
-1.399317	6 6
-1.508461	6 7
-1.379113	6 8
-1.736259	6 9
-2.157264	6 :
-1.427805	6 </s>
-1.818446	6 a
-2.119476	6 b
-1.968208	6 d
-2.119476	6 e
-1.994537	6 f
-2.157264	6 h
-1.818446	6 i
-2.119476	6 j
-2.022566	6 k
-2.084714	6 m
-2.119476	6 n
-1.420506	6 o
-2.084714	6 s
-2.084714	6 t
-2.157264	6 u
-2.157264	6 v
-2.100083	7 %
-1.764291	7 (
-1.431076	7 )
-1.260186	7 ,
-2.100083	7 -
-1.379924	7 .
-1.065321	7 /
-1.431076	7 0
-1.5882	7 1
-1.489068	7 2
-1.545796	7 3
-1.647786	7 4
-1.431076	7 5
-1.446871	7 6
-1.438902	7 7
-1.346756	7 8
-1.5882	7 9
-2.137872	7 :
-2.137872	7 ;
-1.480294	7 </s>
-1.660751	7 a
-2.065321	7 b
-2.137872	7 d
-2.033136	7 e
-1.975145	7 f
-2.065321	7 h
-1.764291	7 i
-2.137872	7 k
-2.137872	7 m
-1.480294	7 o
-2.137872	7 r
-2.137872	7 s
-2.100083	7 t
-2.137872	7 v
-2.137872	7 æ
-1.828043	8 (
-1.404441	8 )
-1.404441	8 ,
-2.11059	8 -
-1.30328	8 .
-0.939351	8 /
-1.621569	8 0
-1.426343	8 1
-1.684621	8 2
-1.645703	8 3
-1.698409	8 4
-1.465495	8 5
-1.449408	8 6
-1.326448	8 7
-1.490801	8 8
-1.320539	8 9
-2.148378	8 ;
-1.482201	8 </s>
-2.148378	8 _
-1.71265	8 a
-2.148378	8 d
-2.148378	8 e
-1.959322	8 f
-1.847348	8 i
-2.11059	8 m
-2.11059	8 n
-1.473768	8 o
-2.11059	8 p
-2.11059	8 s
-2.11059	8 t
-2.11059	8 u
-2.117824	9 (
-1.665526	9 )
-1.566916	9 ,
-2.331703	9 -
-1.553552	9 .
-1.15038	9 /
-1.351907	9 0
-1.339672	9 1
-1.30491	9 2
-1.331703	9 3
-1.481001	9 4
-1.527998	9 5
-1.323878	9 6
-1.316191	9 7
-1.177196	9 8
-0.8025531	9 9
-2.331703	9 :
-2.259153	9 ;
-1.739627	9 </s>
-2.050877	9 a
-2.168976	9 b
-2.293915	9 d
-2.197005	9 e
-2.117824	9 f
-2.331703	9 g
-2.293915	9 h
-2.030673	9 i
-2.293915	9 k
-2.331703	9 m
-2.331703	9 n
-1.609668	9 o
-2.293915	9 s
-2.293915	9 t
-2.331703	9 «
-1.656646	: "
-2.024622	: (
-1.98986	: -
-2.062411	: .
-1.927712	: 1
-0.4515574	: </s>
-1.58529	: a
-1.98986	: b
-1.67244	: d
-1.460351	: e
-1.781584	: f
-2.062411	: g
-1.98986	: h
-1.802774	: i
-1.927712	: k
-1.98986	: l
-1.98986	: m
-2.062411	: n
-2.062411	: o
-2.024622	: p
-1.98986	: r
-1.873355	: s
-1.957676	: t
-2.024622	: u
-1.927712	: v
-2.062411	: «
-1.98986	: »
-2.056905	; -
-0.5219562	; </s>
-1.894178	; a
-2.019116	; b
-1.102662	; d
-1.683324	; e
-1.621176	; f
-1.984354	; g
-1.843025	; h
-1.593148	; i
-1.755875	; k
-1.776078	; m
-1.922206	; n
-2.056905	; o
-1.843025	; p
-2.019116	; r
-1.776078	; s
-2.019116	; t
-1.922206	; u
-2.019116	; v
-2.056905	; «
-2.034883	<s> "
-1.192615	<s> (
-1.208514	<s> -
-1.275216	<s> 1
-1.283885	<s> 2
-1.482437	<s> 3
-1.754057	<s> 4
-1.945943	<s> 5
-2.159822	<s> 6
-2.246973	<s> 7
-2.399583	<s> 8
-2.399583	<s> 9
-0.8270779	<s> a
-1.468821	<s> b
-1.657147	<s> c
-1.124453	<s> d
-1.661303	<s> e
-1.532208	<s> f
-2.055087	<s> g
-1.962333	<s> h
-1.544797	<s> i
-2.502245	<s> j
-1.529117	<s> k
-2.399583	<s> l
-1.669736	<s> m
-2.087272	<s> n
-1.893006	<s> o
-2.263363	<s> p
-1.833238	<s> r
-1.945943	<s> s
-2.335914	<s> t
-1.067676	<s> u
-1.878996	<s> v
-2.636944	<s> y
-2.636944	<s> z
-1.815013	<s> »
-2.502245	<s> æ
-1.780775	= 0
-1.780775	= 3
-1.742987	= 5
-1.67604	> =
-1.64673	_ </s>
-3.515814	a "
-3.515814	a '
-3.353086	a (
-2.226793	a )
-2.757866	a ,
-2.588723	a -
-2.832931	a .
-3.515814	a /
-3.515814	a 0
-3.278453	a 1
-3.443263	a 2
-3.478025	a 3
-3.478025	a 5
-3.515814	a 6
-3.515814	a 7
-3.478025	a 9
-3.353086	a :
-3.443263	a ;
-3.381115	a </s>
-1.258572	a a
-1.493123	a b
-2.375363	a c
-1.484222	a d
-1.149306	a e
-0.8925644	a f
-1.177901	a g
-2.718357	a h
-2.712108	a i
-2.816844	a j
-1.669589	a k
-1.088859	a l
-1.644984	a m
-0.8220867	a n
-2.757866	a o
-2.057519	a p
-3.381115	a q
-0.9414666	a r
-1.526202	a s
-0.8832644	a t
-2.481659	a u
-1.825618	a v
-3.478025	a w
-3.478025	a x
-3.411078	a y
-3.326757	a z
-3.515814	a «
-3.515814	a å
-3.515814	a ç
-3.515814	a é
-3.478025	a ø
-2.799398	b "
-2.764636	b '
-2.702488	b (
-1.584113	b )
-1.635541	b ,
-2.416181	b -
-2.516851	b .
-2.764636	b 1
-2.799398	b :
-2.764636	b ;
-2.732451	b </s>
-1.425261	b a
-2.577549	b b
-2.799398	b d
-0.3263979	b e
-2.480639	b f
-2.799398	b g
-2.674459	b h
-1.020644	b i
-2.623307	b j
-2.577549	b k
-1.226333	b l
-2.55636	b m
-2.310378	b n
-1.463606	b o
-2.498368	b p
-1.226333	b r
-1.573228	b s
-2.431421	b t
-1.68268	b u
-2.623307	b v
-1.688248	b y
-2.764636	b «
-2.55636	b å
-2.416181	b æ
-1.604421	b ø
-2.300042	c '
-2.227491	c (
-1.165343	c )
-1.926461	c ,
-1.961223	c -
-2.262253	c .
-2.300042	c 3
-2.300042	c 9
-2.227491	c </s>
-1.850073	c a
-1.894276	c b
-1.864313	c c
-2.300042	c d
-0.4510135	c e
-2.262253	c f
-1.570583	c h
-0.7936598	c i
-2.165343	c k
-2.195307	c l
-2.300042	c m
-2.227491	c n
-1.707966	c o
-1.864313	c p
-1.894276	c r
-2.262253	c s
-2.040405	c t
-1.739375	c u
-2.110986	c y
-3.261576	d "
-3.498937	d '
-3.008851	d (
-2.60081	d )
-2.117084	d ,
-3.077931	d -
-2.621251	d .
-3.461148	d 0
-3.2393	d 1
-3.2393	d 2
-3.461148	d 3
-3.461148	d 5
-3.426386	d 6
-3.077931	d :
-2.938269	d ;
-3.093171	d </s>
-1.575599	d a
-1.990101	d b
-3.364238	d c
-1.7403	d d
-0.2990321	d e
-1.693374	d f
-1.967458	d g
-1.895891	d h
-1.159214	d i
-2.394202	d j
-1.990101	d k
-1.284575	d l
-2.193976	d m
-1.456827	d n
-1.866387	d o
-2.381967	d p
-1.472887	d r
-1.36164	d s
-1.352809	d t
-1.578434	d u
-1.73619	d v
-3.461148	d w
-2.169262	d y
-3.394202	d «
-3.461148	d ±
-3.364238	d »
-3.461148	d å
-3.063208	d æ
-3.261576	d é
-2.896877	d ø
-3.527414	e "
-3.89539	e '
-3.19642	e (
-3.10534	e )
-1.992753	e ,
-3.055493	e -
-2.420689	e .
-3.933179	e /
-3.652352	e 0
-3.341103	e 1
-3.673542	e 2
-3.719299	e 3
-3.860628	e 4
-3.828444	e 5
-3.89539	e 6
-3.860628	e 7
-3.89539	e 8
-3.860628	e 9
-3.142063	e :
-3.006088	e ;
-2.9878	e </s>
-1.705059	e a
-1.925354	e b
-2.620463	e c
-1.081476	e d
-1.933574	e e
-1.432992	e f
-1.754725	e g
-2.226383	e h
-1.8801	e i
-2.187111	e j
-1.595266	e k
-0.9753975	e l
-1.335284	e m
-0.8174171	e n
-1.787898	e o
-1.9923	e p
-0.6406811	e r
-1.166901	e s
-1.068236	e t
-2.045153	e u
-1.839757	e v
-3.933179	e w
-3.828444	e x
-3.302474	e y
-3.89539	e z
-3.49745	e «
-3.612844	e »
-3.394788	e å
-3.218697	e æ
-2.404029	e ø
-3.220348	f "
-3.258137	f '
-2.231343	f (
-1.598825	f )
-2.092703	f ,
-2.37011	f -
-2.282496	f .
-2.274223	f 1
-2.206107	f 2
-2.957106	f 3
-3.095409	f 4
-3.020776	f 5
-3.020776	f 6
-3.044257	f 7
-3.06908	f 8
-3.095409	f 9
-2.901589	f :
-2.868165	f ;
-2.755461	f </s>
-1.027455	f a
-2.087342	f b
-3.020776	f c
-1.353568	f d
-1.257347	f e
-1.277926	f f
-1.85862	f g
-2.340488	f h
-1.376804	f i
-2.567135	f j
-2.051556	f k
-1.784981	f l
-2.076813	f m
-2.436206	f n
-0.4986059	f o
-2.156514	f p
-1.174699	f r
-1.700739	f s
-1.240345	f t
-2.117686	f u
-2.290929	f v
-3.258137	f w
-2.027688	f y
-3.258137	f z
-3.220348	f «
-3.258137	f »
-3.258137	f ß
-2.618288	f å
-1.593665	f æ
-3.258137	f é
-1.374217	f ø
-3.062895	g "
-3.276775	g '
-1.63874	g (
-2.786689	g )
-3.276775	g *
-1.770393	g ,
-2.674715	g -
-2.147906	g .
-2.443106	g /
-3.17204	g 0
-2.705384	g 1
-2.547316	g 2
-2.749966	g 3
-2.87101	g 4
-3.039414	g 5
-3.087719	g 6
-2.85577	g 7
-2.886804	g 8
-2.547316	g 9
-2.35438	g :
-2.610598	g ;
-2.103324	g </s>
-1.081379	g a
-2.085172	g b
-2.705384	g c
-1.659203	g d
-0.5405959	g e
-1.599666	g f
-1.58018	g g
-1.475559	g h
-1.180814	g i
-2.738384	g j
-2.153815	g k
-1.790538	g l
-1.909928	g m
-1.557745	g n
-1.392856	g o
-2.050996	g p
-1.393372	g r
-1.174841	g s
-1.124765	g t
-1.979711	g u
-2.090281	g v
-3.062895	g x
-2.585774	g y
-3.238986	g z
-2.903194	g «
-3.17204	g »
-2.037134	g å
-2.04401	g æ
-3.238986	g é
-1.906548	g ø
-2.394182	h )
-2.729974	h ,
-2.695212	h -
-2.767763	h /
-2.729974	h 1
-2.767763	h 3
-2.767763	h 8
-0.7199572	h a
-2.767763	h c
-0.4496995	h e
-2.767763	h f
-1.983081	h i
-1.917061	h j
-2.486936	h l
-2.729974	h m
-0.8756682	h o
-2.767763	h p
-2.663028	h r
-2.767763	h s
-2.045727	h u
-0.8122063	h v
-2.767763	h w
-2.252853	h y
-2.290642	h å
-2.076762	h æ
-1.624464	h ø
-3.477507	i "
-3.301416	i (
-2.62219	i )
-3.515296	i *
-2.439417	i ,
-3.277935	i -
-2.933439	i .
-2.519262	i 1
-3.000386	i 2
-3.380597	i 3
-3.41056	i 5
-3.477507	i 8
-3.41056	i ;
-3.141715	i </s>
-1.636043	i a
-1.966739	i b
-2.157015	i c
-1.311917	i d
-1.587272	i e
-1.572611	i f
-1.07453	i g
-2.054261	i h
-2.052898	i i
-3.515296	i j
-1.042406	i k
-0.977591	i l
-1.962296	i m
-0.658457	i n
-1.197232	i o
-2.32116	i p
-3.515296	i q
-1.493731	i r
-0.972131	i s
-1.398326	i t
-2.778537	i u
-1.255658	i v
-3.477507	i w
-3.442745	i x
-3.214266	i z
-3.515296	i «
-3.442745	i å
-3.380597	i æ
-3.477507	i é
-3.477507	i ó
-3.194961	i ø
-2.032619	j )
-2.054895	j ,
-2.254467	j -
-2.219705	j .
-1.953438	j 1
-2.187521	j 2
-2.254467	j </s>
-1.351377	j a
-0.819101	j d
-0.5591318	j e
-1.617645	j f
-2.292256	j g
-2.032619	j h
-2.254467	j k
-1.593286	j l
-2.292256	j m
-1.842287	j n
-1.464417	j o
-2.292256	j r
-1.50114	j s
-1.991226	j t
-1.080796	j u
-1.871251	j æ
-1.871251	j ø
-3.193428	k "
-2.956067	k (
-3.088693	k )
-2.819848	k ,
-3.193428	k -
-1.390965	k .
-3.15564	k 1
-3.030701	k :
-3.030701	k ;
-3.088693	k </s>
-0.8032963	k a
-2.912601	k b
-3.193428	k c
-2.979548	k d
-0.5915657	k e
-2.716307	k f
-2.787663	k g
-2.729671	k h
-2.162939	k i
-3.120878	k j
-1.239625	k k
-1.708482	k l
-2.912601	k m
-1.733762	k n
-0.8789864	k o
-2.050129	k p
-1.305402	k r
-1.453784	k s
-0.8872957	k t
-1.679726	k u
-1.994272	k v
-2.038921	k y
-3.193428	k «
-2.892398	k å
-2.494458	k æ
-2.159274	k ø
-3.271144	l "
-3.433872	l '
-3.153045	l (
-3.299173	l )
-2.335385	l ,
-3.0439	l -
-2.56145	l .
-1.747723	l 1
-1.945065	l 2
-2.159294	l 3
-2.371461	l 4
-2.475264	l 5
-2.388905	l 6
-2.484038	l 7
-2.545845	l 8
-2.56145	l 9
-3.060291	l :
-3.060291	l ;
-3.153045	l </s>
-1.080638	l a
-2.045512	l b
-3.028106	l c
-1.144242	l d
-0.6667157	l e
-1.793119	l f
-1.585963	l g
-2.466664	l h
-1.004413	l i
-2.630166	l j
-1.947634	l k
-1.007656	l l
-2.093247	l m
-2.545845	l n
-1.611941	l o
-2.217586	l p
-3.329136	l q
-2.16351	l r
-0.8267092	l s
-1.442243	l t
-1.753454	l u
-2.032784	l v
-3.329136	l x
-1.912971	l y
-3.271144	l «
-3.196511	l »
-3.433872	l á
-2.873204	l å
-2.093247	l æ
-2.414567	l ø
-3.1545	m "
-2.978409	m (
-3.05759	m )
-2.14026	m ,
-2.871953	m -
-2.501287	m .
-3.1545	m /
-3.05759	m 1
-3.087553	m 2
-3.192289	m 3
-2.978409	m :
-3.029561	m ;
-2.954928	m </s>
-1.104636	m a
-1.760925	m b
-2.978409	m c
-1.74796	m d
-0.5420694	m e
-1.443396	m f
-1.959523	m g
-1.474013	m h
-0.9976482	m i
-3.192289	m j
-2.136771	m k
-2.024166	m l
-0.9492506	m m
-2.284291	m n
-1.430908	m o
-1.671388	m p
-1.827141	m r
-1.118737	m s
-1.596192	m t
-1.803929	m u
-2.470253	m v
-1.709935	m y
-3.192289	m z
-3.087553	m »
-1.823748	m å
-1.834008	m æ
-3.119738	m é
-3.192289	m ó
-2.771283	m ø
-3.286263	n "
-3.482557	n '
-2.809141	n (
-3.230745	n )
-3.549504	n +
-1.996228	n ,
-2.921115	n -
-2.252108	n .
-3.587292	n /
-2.615848	n 1
-3.151564	n 2
-2.888323	n 3
-3.482557	n 4
-3.587292	n 7
-3.587292	n 8
-3.482557	n 9
-3.248474	n :
-2.783587	n ;
-2.975473	n </s>
-3.549504	n >
-1.333778	n a
-2.083378	n b
-2.274577	n c
-0.7199321	n d
-0.8844705	n e
-1.590463	n f
-0.8732677	n g
-1.828656	n h
-0.9723952	n i
-3.072383	n j
-1.807827	n k
-2.198933	n l
-1.854168	n m
-1.600114	n n
-1.628685	n o
-2.131756	n p
-1.787326	n r
-1.10912	n s
-1.197321	n t
-2.116802	n u
-1.566856	n v
-2.390639	n y
-3.181527	n z
-3.248474	n «
-3.248474	n »
-2.628685	n å
-2.183081	n æ
-3.587292	n è
-3.514742	n é
-2.363867	n ø
-3.405315	o "
-3.367527	o '
-3.367527	o (
-3.191436	o )
-2.915229	o ,
-2.739138	o -
-3.216259	o .
-3.405315	o 1
-3.405315	o 2
-3.405315	o ;
-3.367527	o </s>
-3.031735	o a
-2.270617	o b
-2.057542	o c
-1.324492	o d
-1.078979	o e
-1.732378	o f
-0.9497783	o g
-3.031735	o h
-2.99955	o i
-3.167954	o j
-2.165675	o k
-1.302134	o l
-0.8103204	o m
-0.9868634	o n
-2.583385	o o
-1.276446	o p
-0.5572382	o r
-2.08122	o s
-2.262017	o t
-2.765467	o u
-1.426347	o v
-3.367527	o w
-2.98431	o x
-3.242588	o y
-3.367527	o z
-3.405315	o «
-3.270617	o å
-3.367527	o ø
-2.851647	p (
-2.851647	p )
-2.59201	p ,
-2.746912	p -
-2.813859	p .
-2.851647	p ;
-2.851647	p </s>
-0.7751063	p a
-2.230282	p b
-2.779097	p c
-2.336738	p d
-0.9311447	p e
-1.607483	p f
-2.060531	p g
-1.94365	p h
-1.554584	p i
-2.430642	p k
-1.063093	p l
-2.746912	p m
-2.269791	p n
-1.263631	p o
-1.315548	p p
-0.6813857	p r
-2.129612	p s
-1.948557	p t
-1.79613	p u
-2.614286	p v
-2.779097	p y
-1.012226	p å
-1.58341	p æ
-2.478067	p ø
-1.784682	q )
-1.746894	q ,
-1.784682	q .
-1.784682	q i
-1.649984	q u
-3.068424	r "
-3.57773	r '
-2.650281	r (
-3.214552	r )
-1.424737	r ,
-2.591303	r -
-1.717623	r .
-3.57773	r /
-3.545546	r 0
-2.37992	r 1
-2.87213	r 2
-3.329946	r 3
-3.545546	r 4
-3.461225	r 5
-3.57773	r 6
-3.612493	r 7
-3.650281	r 9
-2.446161	r :
-2.536338	r ;
-2.377806	r </s>
-3.545546	r _
-1.021057	r a
-1.622006	r b
-2.951311	r c
-1.254399	r d
-0.6849083	r e
-1.462248	r f
-1.927498	r g
-1.632868	r h
-1.119267	r i
-3.311462	r j
-1.591648	r k
-1.84164	r l
-1.661479	r m
-1.437367	r n
-1.102842	r o
-1.947381	r p
-2.018653	r r
-1.349448	r s
-1.137306	r t
-1.564569	r u
-1.799579	r v
-3.650281	r w
-2.594764	r y
-3.612493	r z
-3.244516	r «
-3.57773	r »
-2.084219	r å
-1.973172	r æ
-3.57773	r é
-3.650281	r ó
-2.36126	r ø
-3.327335	s "
-3.381693	s '
-3.235564	s (
-3.03927	s )
-2.179386	s ,
-2.516391	s -
-2.478603	s .
-3.516391	s /
-3.095386	s 1
-3.27903	s 2
-3.516391	s 3
-3.516391	s 5
-3.516391	s 6
-3.516391	s 9
-2.512461	s :
-2.895026	s ;
-3.12642	s </s>
-1.17361	s a
-1.987241	s b
-2.876543	s c
-1.857946	s d
-0.7723116	s e
-1.665689	s f
-2.575513	s g
-2.45398	s h
-1.167732	s i
-3.381693	s j
-1.017955	s k
-1.738898	s l
-1.708364	s m
-1.616272	s n
-1.249646	s o
-1.62531	s p
-2.199849	s r
-0.9948964	s s
-0.6890218	s t
-1.863179	s u
-1.978	s v
-1.931443	s y
-3.478603	s z
-3.478603	s «
-3.27903	s »
-2.026305	s å
-1.906506	s æ
-3.516391	s é
-2.373092	s ø
-2.987368	t "
-3.496674	t '
-2.804438	t (
-3.06655	t )
-3.569225	t *
-1.826714	t ,
-3.092104	t -
-2.262313	t .
-3.569225	t 0
-2.94786	t 1
-3.133496	t 2
-3.380169	t 3
-3.288398	t 4
-3.309587	t 5
-3.531436	t 6
-3.531436	t 7
-3.569225	t 8
-3.496674	t 9
-3.042416	t :
-2.69154	t ;
-2.753285	t </s>
-0.9617699	t a
-2.187372	t b
-3.212677	t c
-1.84272	t d
-0.6339926	t e
-1.589428	t f
-2.327316	t g
-2.212677	t h
-0.6508133	t i
-2.735556	t j
-1.617181	t k
-1.925772	t l
-1.971131	t m
-1.600318	t n
-1.364365	t o
-2.001023	t p
-1.281627	t r
-1.303978	t s
-1.192316	t t
-1.790416	t u
-2.09079	t v
-3.531436	t w
-2.226802	t y
-3.309587	t «
-3.179254	t »
-2.496674	t å
-2.44925	t æ
-3.569225	t è
-2.610618	t é
-2.343446	t ø
-2.866287	u (
-2.866287	u )
-2.585461	u ,
-2.866287	u -
-2.60665	u .
-2.828499	u /
-2.866287	u 2
-2.866287	u ;
-2.866287	u </s>
-1.692836	u a
-2.294896	u b
-1.755392	u c
-0.6839246	u d
-1.650001	u e
-1.790409	u f
-1.405253	u g
-2.731589	u h
-2.565257	u i
-1.124491	u k
-1.256402	u l
-1.391806	u m
-0.7170683	u n
-2.565257	u o
-1.511481	u p
-0.914685	u r
-1.731589	u s
-1.190009	u t
-2.761552	u u
-2.460522	u v
-2.761552	u x
-2.866287	u æ
-3.007787	v "
-2.873088	v (
-2.748149	v )
-2.140694	v ,
-2.845059	v -
-2.135365	v .
-2.903051	v 1
-2.458115	v 2
-2.505111	v 6
-2.076051	v 7
-2.1249	v 8
-1.856055	v 9
-2.436395	v :
-2.602021	v ;
-2.748149	v </s>
-0.9896158	v a
-2.5177	v b
-2.935236	v c
-2.706757	v d
-0.3592491	v e
-2.10966	v f
-1.973632	v g
-2.873088	v h
-0.7616014	v i
-2.935236	v j
-2.634206	v k
-2.285751	v l
-2.572058	v m
-1.223753	v n
-1.529351	v o
-2.480978	v p
-2.229635	v r
-2.007787	v s
-2.168366	v t
-2.023873	v u
-2.651239	v v
-3.007787	v y
-2.415711	v å
-1.545389	v æ
-1.789837	w )
-1.789837	w ,
-1.789837	w a
-1.789837	w e
-1.789837	w g
-1.752048	w h
-1.600781	w i
-1.752048	w l
-1.789837	w t
-1.789837	w y
-1.701445	x ,
-1.80618	x 1
-1.5923	x a
-1.80618	x b
-1.671481	x e
-1.356211	x i
-1.80618	x k
-1.80618	x o
-1.768391	x y
-2.345374	y -
-2.450109	y .
-2.450109	y ;
-2.076528	y a
-2.345374	y b
-2.412321	y c
-1.111291	y d
-1.69911	y e
-2.450109	y f
-1.380912	y g
-2.450109	y h
-2.450109	y i
-1.438423	y k
-1.169282	y l
-2.029104	y m
-0.6928511	y n
-2.149079	y o
-1.605011	y p
-0.9677553	y r
-0.8651614	y s
-1.133567	y t
-1.858033	y v
-2.450109	y z
-1.775125	z a
-1.553276	z e
-1.812913	z g
-1.708178	z i
-1.201094	z o
-1.740363	z y
-1.769272	« (
-1.801456	« )
-1.424038	« ,
-1.874007	« -
-1.396886	« .
-1.874007	« 8
-1.553672	« :
-1.769272	« ;
-1.095856	« </s>
-1.836219	« a
-1.874007	« b
-1.836219	« d
-1.739309	« e
-1.836219	« f
-1.874007	« h
-1.769272	« i
-1.769272	« m
-1.801456	« o
-1.874007	« s
-1.593181	« t
-1.874007	« u
-1.779465	± 1
-1.779465	± 2
-1.877685	» -
-1.618048	» 1
-1.688629	» 2
-1.688629	» 3
-1.877685	» 4
-1.877685	» 5
-1.805135	» 6
-1.877685	» 7
-1.350876	» a
-1.663806	» b
-1.877685	» c
-1.596859	» d
-1.714958	» e
-1.688629	» f
-1.77295	» g
-1.839897	» h
-1.618048	» i
-1.877685	» j
-1.688629	» k
-1.742987	» m
-1.839897	» n
-1.805135	» o
-1.714958	» p
-1.805135	» r
-1.538867	» s
-1.55735	» t
-1.714958	» u
-1.877685	» v
-1.877685	» z
-1.877685	» ø
-1.778809	ß -
-1.778809	á d
-1.778809	ã o
-2.217045	å ,
-2.430925	å .
-2.393136	å 0
-2.393136	å 1
-2.430925	å 2
-2.32619	å 3
-2.430925	å 4
-2.296226	å 5
-2.430925	å 6
-2.393136	å 8
-2.430925	å :
-2.393136	å </s>
-2.393136	å >
-1.585827	å a
-1.672977	å b
-2.393136	å c
-0.6743579	å d
-1.114383	å e
-1.548038	å f
-1.143938	å g
-1.904116	å h
-1.859534	å i
-2.430925	å j
-1.80022	å k
-1.195856	å l
-1.953804	å m
-1.485546	å n
-1.916015	å o
-2.02516	å p
-0.9196493	å r
-1.40786	å s
-1.666138	å t
-2.092106	å u
-1.490046	å v
-2.358374	å å
-2.430925	å ø
-2.549895	æ ,
-2.312534	æ b
-2.512106	æ c
-1.57845	æ d
-1.530589	æ f
-1.161535	æ g
-1.281657	æ i
-1.501382	æ k
-0.7587783	æ l
-2.034985	æ m
-0.8828664	æ n
-2.477344	æ o
-2.445159	æ p
-0.7797123	æ r
-1.41231	æ s
-1.128889	æ t
-1.262908	æ v
-1.778809	ç ã
-1.779465	è r
-1.779465	è v
-1.685182	é ,
-1.685182	é -
-1.743174	é .
-1.847909	é </s>
-1.775358	é a
-1.141114	é e
-1.567082	é f
-1.81012	é h
-1.847909	é l
-1.847909	é m
-1.567082	é n
-1.847909	é o
-1.685182	é r
-1.743174	é s
-1.567082	é t
-1.847909	é u
-1.780775	ó m
-1.742987	ó n
-1.780775	ó s
-2.4963	ø (
-2.4963	ø )
-2.458512	ø ,
-2.458512	ø -
-1.440783	ø b
-1.162945	ø d
-2.12272	ø e
-1.021819	ø f
-1.4963	ø g
-2.42375	ø i
-1.322849	ø j
-1.745301	ø k
-1.076795	ø l
-2.019179	ø m
-1.904225	ø n
-2.4963	ø o
-0.4481413	ø r
-1.640066	ø s
-1.578652	ø t
-2.361602	ø u
-1.546467	ø v

\end\
