
\data\
ngram 1=69
ngram 2=1876

\1-grams:
-3.008227	"	0.7798057
-3.890294	%	0.3479049
-3.984563	'	0.2138193
-2.479414	(	0.2914833
-2.339767	)	0.5387029
-4.599988	*	-0.008258582
-4.724926	+	-0.01174048
-2.101505	,	0.2493342
-2.759568	-	0.8981737
-2.199557	.	0.7597458
-2.601074	/	-0.2144433
-2.694866	0	-0.1463787
-2.319665	1	-0.1834656
-2.441248	2	-0.1754938
-2.673774	3	-0.1658692
-2.825015	4	0.3521226
-2.892417	5	0.9272128
-2.81913	6	0.1057544
-2.851799	7	-0.01531014
-2.836092	8	-0.03686469
-2.557363	9	-0.2403945
-3.113026	:	0.270956
-3.180858	;	0.05763223
-2.189421	</s>
-99	<s>	0.03020415
-4.657979	=	-0.01978266
-4.657979	>	-0.008971754
-1.314697	a	-0.4829447
-1.738304	b	-0.2639615
-1.645474	c	-0.4621275
-1.29121	d	0.1757586
-0.7975643	e	0.272932
-1.697305	f	-0.2782748
-1.417947	g	-0.1203062
-1.462258	h	-0.05218857
-1.13657	i	-0.4453349
-2.837966	j	-0.2349055
-1.921298	k	0.1151448
-1.508518	l	0.2395655
-1.616699	m	0.4625921
-0.9963965	n	-0.1967977
-1.637648	o	-0.0969665
-2.276606	p	0.2548064
-3.732225	q	-0.05705191
-1.140482	r	-0.003137925
-1.251585	s	0.1765649
-1.220682	t	-0.3652287
-1.43789	u	-0.3806557
-1.954995	v	-0.5710163
-2.002635	w	-0.339352
-3.551254	x	0.1235509
-3.375973	y	0.2138503
-1.880501	z	0.3101617
-4.690164	}	0.002274806
-4.224324	»	0.2119707
-2.588206	ß	0.4114653
-4.762715	á	0.01572715
-4.628016	â	-0.008859642
-4.762715	ã	0.003047841
-2.188789	ä	-0.5121748
-4.690164	å	0.03251085
-4.762715	ç	-0.007064808
-4.724926	è	0.02491249
-4.599988	é	0.1099867
-4.724926	ê	0.002227763
-4.657979	ó	0.06459126
-2.671528	ö	-0.2456706
-2.158489	ü	-0.6504683
-4.762715	β	-0.006316182

\2-grams:
-2.070877	" '
-1.422074	" (
-2.033088	" )
-1.635149	" ,
-1.998326	" -
-1.593756	" .
-2.033088	" /
-2.070877	" 1
-2.033088	" 2
-1.936179	" 3
-2.033088	" 6
-2.070877	" 8
-2.033088	" 9
-1.750542	" :
-1.936179	" ;
-1.09108	" </s>
-1.341418	" a
-1.568202	" b
-1.279761	" d
-1.379876	" e
-1.856997	" f
-1.396266	" g
-1.90815	" h
-1.649872	" i
-1.936179	" j
-1.936179	" k
-1.936179	" l
-1.881821	" m
-1.769847	" n
-1.732059	" o
-1.936179	" p
-1.936179	" r
-1.665112	" s
-1.732059	" t
-1.60712	" u
-1.697296	" v
-1.833516	" w
-1.881821	" z
-2.033088	" ä
-2.033088	" ü
-1.797037	% "
-1.834825	% .
-1.834825	% ;
-1.597464	% a
-1.478278	% b
-1.371068	% d
-1.762275	% e
-1.834825	% f
-1.797037	% g
-1.834825	% h
-1.73009	% i
-1.834825	% n
-1.834825	% o
-1.762275	% s
-1.797037	% u
-1.797037	% v
-1.834825	% w
-1.834825	% z
-1.787697	' (
-1.752934	' )
-1.825485	' .
-1.636429	' :
-1.787697	' ;
-1.72075	' a
-1.787697	' b
-1.662758	' d
-1.611605	' e
-1.825485	' f
-1.787697	' g
-1.72075	' h
-1.825485	' i
-1.825485	' k
-1.825485	' m
-1.787697	' o
-1.752934	' p
-1.825485	' t
-1.825485	' v
-1.752934	' z
-1.825485	' ö
-2.365176	( "
-2.330414	( '
-2.365176	( *
-2.402964	( 0
-0.7901806	( 1
-0.8499646	( 2
-1.048158	( 3
-1.314023	( 4
-1.410933	( 5
-1.569296	( 6
-1.736787	( 7
-1.763116	( 8
-1.763116	( 9
-2.165604	( a
-2.122138	( b
-2.064146	( c
-2.189085	( d
-0.7787761	( e
-2.189085	( f
-2.298229	( g
-2.298229	( h
-2.101934	( i
-2.365176	( j
-2.365176	( l
-2.268266	( m
-1.864573	( n
-2.189085	( o
-2.365176	( p
-2.330414	( r
-2.101934	( s
-1.952995	( t
-2.402964	( u
-2.213908	( v
-2.330414	( w
-2.189085	( z
-2.402964	( ü
-1.829971	) "
-2.408119	) '
-2.139273	) (
-0.9710481	) ,
-2.475065	) -
-2.192519	) .
-2.350127	) 1
-2.475065	) 2
-2.512854	) 3
-2.512854	) 4
-2.512854	) :
-2.211824	) ;
-1.855277	) </s>
-1.361122	) a
-1.576523	) b
-2.512854	) c
-0.6820905	) d
-1.361122	) e
-1.614727	) f
-1.673433	) g
-2.062885	) h
-1.457337	) i
-2.010179	) j
-2.174036	) k
-2.275493	) l
-1.838243	) m
-0.8711998	) n
-2.139273	) o
-2.475065	) p
-2.139273	) r
-1.595205	) s
-2.107089	) t
-1.450443	) u
-1.790819	) v
-1.696914	) w
-2.475065	) y
-1.715398	) z
-2.512854	) »
-2.512854	) â
-2.475065	) ä
-2.512854	) ö
-2.275493	) ü
-1.632204	* )
-1.792392	+ 2
-1.792392	+ 3
-2.501516	, "
-2.642845	, (
-2.61066	, -
-2.455758	, 0
-2.478034	, 1
-2.30963	, 2
-2.478034	, 3
-2.478034	, 4
-2.526339	, 5
-2.501516	, 6
-2.552668	, 7
-2.39506	, 8
-2.434569	, 9
-1.117302	, </s>
-1.404606	, a
-1.620068	, b
-2.30963	, c
-0.5411506	, d
-1.466754	, e
-1.663367	, f
-1.78366	, g
-2.30963	, h
-1.161292	, i
-2.279667	, j
-1.832509	, k
-2.225309	, l
-1.649578	, m
-1.853698	, n
-1.842974	, o
-2.30963	, p
-2.61066	, q
-2.325424	, r
-1.115314	, s
-2.358848	, t
-1.300422	, u
-1.711465	, v
-1.268237	, w
-1.523792	, z
-2.715395	, ä
-2.580697	, ö
-2.434569	, ü
-2.208539	- (
-2.208539	- )
-1.75857	- ,
-2.208539	- -
-2.135988	- /
-2.208539	- 0
-1.994659	- 1
-2.208539	- 2
-2.208539	- 4
-2.170751	- 5
-2.135988	- 7
-2.208539	- 8
-1.056807	- </s>
-1.417423	- a
-1.542362	- b
-1.626683	- c
-1.196853	- d
-1.501744	- e
-1.542362	- f
-1.693629	- g
-1.718453	- h
-1.568691	- i
-2.019483	- j
-1.68173	- k
-2.07384	- l
-1.77281	- m
-1.731418	- n
-1.45754	- o
-1.802774	- p
-1.626683	- r
-1.587174	- s
-1.888204	- t
-0.9898604	- u
-1.559736	- v
-1.670148	- w
-1.802774	- z
-2.208539	- ä
-1.994659	- ü
-1.581545	. "
-2.525322	. '
-2.139972	. (
-2.495359	. )
-2.525322	. ,
-2.416178	. .
-2.630058	. /
-2.46733	. 0
-1.25481	. 1
-1.435922	. 2
-1.747171	. 3
-2.194329	. 4
-2.209053	. 5
-2.416178	. 6
-2.180089	. 7
-2.139972	. 8
-2.329028	. 9
-0.4142521	. </s>
-1.519162	. a
-1.96388	. b
-2.495359	. c
-0.9947569	. d
-1.790637	. e
-1.802219	. f
-2.256477	. g
-2.080386	. h
-1.693727	. i
-1.385893	. j
-2.441002	. k
-2.209053	. l
-1.826352	. m
-1.820192	. n
-1.999353	. o
-2.46733	. p
-2.557507	. r
-1.693727	. s
-2.309723	. t
-2.103249	. u
-2.349231	. v
-2.309723	. w
-2.091667	. z
-2.630058	. ä
-2.592269	. ü
-2.276079	/ "
-2.313867	/ -
-2.313867	/ 0
-1.321836	/ 1
-1.294562	/ 2
-1.497927	/ 3
-1.241317	/ 4
-1.555919	/ 5
-1.212245	/ 6
-1.415741	/ 7
-1.313867	/ 8
-0.986044	/ 9
-2.313867	/ a
-2.209132	/ b
-2.276079	/ c
-2.033041	/ d
-0.6392565	/ e
-2.313867	/ g
-2.099988	/ h
-2.276079	/ i
-2.179169	/ j
-2.241317	/ k
-2.276079	/ l
-2.313867	/ m
-1.562868	/ o
-2.313867	/ p
-2.276079	/ s
-2.241317	/ t
-2.241317	/ u
-2.313867	/ w
-2.276079	/ ö
-2.249976	0 "
-1.610128	0 %
-1.948946	0 (
-1.800007	0 )
-1.700304	0 ,
-2.249976	0 -
-1.465294	0 .
-1.017211	0 /
-0.7208259	0 0
-1.399274	0 1
-1.318241	0 2
-1.551006	0 3
-1.814248	0 4
-1.929641	0 5
-1.860005	0 6
-1.747301	0 7
-1.844211	0 8
-1.814248	0 9
-1.610128	0 </s>
-1.520517	0 a
-2.145241	0 b
-2.115278	0 c
-1.558975	0 d
-1.929641	0 e
-2.115278	0 f
-2.087249	0 g
-2.212188	0 h
-2.087249	0 k
-2.036096	0 m
-2.249976	0 n
-2.212188	0 p
-2.06092	0 s
-1.929641	0 t
-2.036096	0 u
-1.893429	0 v
-1.948946	0 w
-1.860005	0 z
-1.948946	0 ü
-2.491478	1 "
-2.529267	1 %
-2.190449	1 (
-1.007179	1 )
-1.814785	1 ,
-2.456716	1 -
-1.188643	1 .
-1.385968	1 /
-1.327622	1 0
-1.36654	1 1
-1.430781	1 2
-1.453388	1 3
-1.46345	1 4
-1.443555	1 5
-1.588388	1 6
-1.54947	1 7
-1.63114	1 8
-0.8588524	1 9
-2.491478	1 :
-2.456716	1 ;
-1.56206	1 </s>
-1.588388	1 a
-1.521442	1 b
-1.626177	1 d
-1.846384	1 e
-2.228237	1 f
-1.76448	1 g
-2.529267	1 h
-2.26963	1 i
-2.424532	1 k
-2.491478	1 l
-2.208932	1 m
-2.24844	1 n
-2.24844	1 o
-2.491478	1 p
-2.315387	1 s
-2.394568	1 t
-1.751116	1 u
-2.079298	1 v
-2.108262	1 w
-2.026592	1 z
-2.529267	1 ä
-2.190449	1 ü
-2.359689	2 "
-2.359689	2 %
-2.194879	2 (
-0.8972916	2 )
-1.82042	2 ,
-1.576006	2 .
-1.1926	2 /
-0.9089668	2 0
-1.604401	2 1
-1.460796	2 2
-1.554555	2 3
-1.491362	2 4
-1.534114	2 5
-1.565148	2 6
-1.749357	2 7
-1.641124	2 8
-1.565148	2 9
-2.43224	2 :
-1.387273	2 </s>
-1.500505	2 a
-1.749357	2 b
-1.42831	2 d
-1.801535	2 e
-2.111905	2 f
-1.717758	2 g
-2.269513	2 h
-2.243184	2 i
-2.43224	2 j
-2.13121	2 k
-2.111905	2 m
-2.026475	2 n
-2.327505	2 o
-2.43224	2 p
-2.151414	2 s
-2.327505	2 t
-1.75763	2 u
-1.929565	2 v
-2.111905	2 w
-1.905431	2 z
-2.093422	2 ü
-2.263959	3 "
-2.191408	3 %
-2.101231	3 (
-0.8988112	3 )
-2.263959	3 *
-1.606381	3 ,
-2.263959	3 -
-1.506011	3 .
-1.132165	3 /
-1.396866	3 0
-1.381072	3 1
-1.581076	3 2
-1.725568	3 3
-1.81399	3 4
-1.749049	3 5
-1.43612	3 6
-1.581076	3 7
-1.725568	3 8
-1.652139	3 9
-2.263959	3 :
-1.341564	3 </s>
-1.381072	3 a
-1.703291	3 b
-1.375932	3 d
-1.773872	3 e
-1.962929	3 f
-1.82823	3 g
-1.983132	3 i
-2.22617	3 k
-2.263959	3 l
-2.159223	3 m
-2.159223	3 n
-2.191408	3 o
-2.263959	3 s
-1.661899	3 u
-2.004321	3 v
-2.050079	3 w
-2.026598	3 z
-2.263959	3 ä
-1.962929	3 ü
-2.096375	4 "
-2.131137	4 %
-2.034227	4 (
-1.031342	4 )
-2.168926	4 *
-1.705168	4 ,
-1.329505	4 .
-1.07678	4 /
-1.608258	4 0
-1.587069	4 1
-1.44689	4 2
-1.57685	4 3
-1.812379	4 4
-1.848591	4 5
-1.630535	4 6
-1.830107	4 7
-1.566866	4 8
-1.486043	4 9
-2.131137	4 ;
-1.371469	4 </s>
-1.397405	4 a
-1.778955	4 b
-1.520122	4 d
-1.867896	4 e
-2.034227	4 f
-1.867896	4 g
-2.168926	4 h
-2.096375	4 i
-2.168926	4 j
-2.168926	4 k
-2.034227	4 m
-1.931565	4 n
-2.168926	4 o
-2.168926	4 r
-1.955046	4 s
-2.168926	4 t
-1.691805	4 u
-1.931565	4 v
-2.006199	4 w
-1.955046	4 z
-1.931565	4 ü
-2.130626	5 "
-1.694898	5 %
-1.870989	5 (
-1.064809	5 )
-2.092838	5 *
-1.603817	5 ,
-2.130626	5 -
-1.296957	5 .
-1.189748	5 /
-1.569959	5 0
-1.680657	5 1
-1.580954	5 2
-1.680657	5 3
-1.592235	5 4
-1.8498	5 5
-1.615716	5 6
-1.740655	5 7
-1.653505	5 8
-1.829596	5 9
-1.456015	5 </s>
-1.416144	5 a
-1.916746	5 b
-2.130626	5 c
-1.509261	5 d
-1.893265	5 e
-1.967899	5 f
-1.829596	5 g
-2.092838	5 h
-2.058075	5 i
-2.058075	5 k
-2.092838	5 l
-1.995928	5 m
-2.058075	5 n
-2.092838	5 o
-2.130626	5 r
-2.092838	5 s
-1.8498	5 t
-1.592235	5 u
-1.995928	5 v
-1.94157	5 w
-1.8498	5 z
-1.829596	5 ü
-2.09984	6 %
-2.172391	6 '
-1.93503	6 (
-1.294705	6 )
-1.751385	6 ,
-2.134602	6 -
-1.414443	6 .
-0.9489655	6 /
-1.428453	6 0
-1.751385	6 1
-1.457908	6 2
-1.736662	6 3
-1.622719	6 4
-1.695269	6 5
-1.407603	6 6
-1.489507	6 7
-1.374934	6 8
-1.736662	6 9
-2.172391	6 ;
-1.473421	6 </s>
-1.48139	6 a
-2.009663	6 b
-1.541685	6 d
-1.852055	6 e
-2.037692	6 f
-1.871361	6 g
-2.172391	6 h
-1.93503	6 i
-2.037692	6 k
-2.134602	6 l
-1.983334	6 m
-2.09984	6 n
-2.009663	6 s
-2.09984	6 t
-1.852055	6 u
-2.009663	6 v
-1.891564	6 w
-1.891564	6 z
-1.78242	6 ü
-2.153399	7 %
-1.872572	7 (
-1.438917	7 )
-1.779818	7 ,
-2.153399	7 -
-1.409462	7 .
-1.07752	7 /
-1.454429	7 0
-1.592732	7 1
-1.504596	7 2
-1.522694	7 3
-1.650724	7 4
-1.409462	7 5
-1.454429	7 6
-1.438917	7 7
-1.362283	7 8
-1.592732	7 9
-2.153399	7 :
-2.153399	7 ;
-1.522694	7 </s>
-1.409462	7 a
-1.872572	7 b
-1.478788	7 d
-1.964343	7 e
-2.018701	7 f
-2.018701	7 g
-2.080848	7 h
-2.048664	7 i
-2.153399	7 k
-2.153399	7 l
-2.153399	7 m
-1.990672	7 n
-2.018701	7 s
-1.796852	7 u
-1.964343	7 v
-2.018701	7 w
-1.893762	7 z
-1.833064	7 ü
-1.902818	8 (
-1.425697	8 )
-1.9734	8 ,
-2.162456	8 -
-1.35875	8 .
-0.9461699	8 /
-1.624065	8 0
-1.432997	8 1
-1.67237	8 2
-1.647546	8 3
-1.685335	8 4
-1.45566	8 5
-1.432997	8 6
-1.306221	8 7
-1.504878	8 8
-1.334617	8 9
-2.089905	8 ;
-1.531751	8 </s>
-1.471455	8 a
-2.027757	8 b
-1.541091	8 d
-1.9734	8 e
-2.089905	8 f
-2.124667	8 g
-2.124667	8 h
-2.089905	8 i
-2.162456	8 j
-2.089905	8 m
-2.124667	8 n
-2.124667	8 o
-2.027757	8 s
-1.881629	8 u
-1.948576	8 v
-2.027757	8 w
-1.805908	8 z
-1.948576	8 ü
-2.345106	9 %
-2.240371	9 (
-1.705258	9 )
-2.024771	9 ,
-2.345106	9 -
-1.529166	9 .
-1.16119	9 /
-1.36531	9 0
-1.353075	9 1
-1.318313	9 2
-1.345106	9 3
-1.500008	9 4
-1.523176	9 5
-1.303714	9 6
-1.272556	9 7
-1.166391	9 8
-0.8136274	9 9
-1.784439	9 </s>
-1.654105	9 a
-2.15605	9 b
-1.806715	9 d
-2.085469	9 e
-2.131227	9 f
-2.044076	9 g
-2.307318	9 h
-2.345106	9 i
-2.15605	9 m
-2.240371	9 n
-2.345106	9 s
-1.971526	9 u
-2.272556	9 v
-2.240371	9 w
-2.107745	9 z
-2.06428	9 ü
-1.546318	: "
-2.02344	: '
-1.985651	: (
-1.950889	: -
-2.02344	: .
-1.918704	: 1
-0.5025393	: </s>
-1.722409	: a
-1.985651	: b
-2.02344	: c
-1.462772	: d
-1.786079	: e
-1.985651	: f
-1.888741	: g
-1.985651	: i
-1.985651	: j
-2.02344	: l
-1.950889	: m
-1.918704	: n
-1.860712	: s
-2.02344	: t
-1.950889	: u
-1.918704	: v
-1.985651	: w
-1.985651	: z
-2.02344	: ü
-1.806978	; "
-0.5446661	; </s>
-1.891298	; a
-1.861335	; b
-1.338457	; d
-1.833307	; e
-1.782154	; f
-1.958245	; g
-1.923483	; h
-1.782154	; i
-1.958245	; j
-1.958245	; k
-1.996034	; m
-1.996034	; o
-1.675699	; s
-1.891298	; w
-1.923483	; z
-1.711671	<s> "
-0.7047223	<s> (
-1.211807	<s> -
-1.894824	<s> 1
-2.036701	<s> 2
-2.203033	<s> 3
-2.217756	<s> 4
-2.357935	<s> 5
-2.449705	<s> 6
-2.379124	<s> 7
-2.534026	<s> 8
-2.476034	<s> 9
-0.8204156	<s> a
-1.432181	<s> b
-1.663121	<s> c
-0.8705944	<s> d
-1.684519	<s> e
-1.902003	<s> f
-1.357935	<s> g
-1.586733	<s> h
-1.439605	<s> i
-2.299943	<s> j
-2.265181	<s> k
-2.504063	<s> l
-2.318426	<s> m
-1.810922	<s> n
-2.476034	<s> p
-2.188792	<s> r
-1.981184	<s> s
-2.476034	<s> t
-2.046686	<s> u
-1.70243	<s> v
-2.046686	<s> w
-1.847645	<s> z
-2.318426	<s> »
-2.449705	<s> ä
-2.566211	<s> ü
-1.793663	= 0
-1.793663	= 3
-1.755875	= 5
-1.688928	> =
-3.384794	a "
-3.322646	a (
-2.160281	a )
-3.03634	a ,
-3.197708	a -
-3.197708	a .
-3.457345	a /
-3.457345	a 2
-3.419556	a 9
-3.457345	a ;
-3.322646	a </s>
-1.495277	a a
-1.172607	a b
-1.340074	a c
-2.215436	a d
-3.083764	a e
-1.383127	a f
-1.406017	a g
-1.260943	a h
-2.629506	a i
-2.109572	a k
-1.175279	a l
-1.524226	a m
-0.7815667	a n
-3.35261	a o
-2.106041	a p
-3.100798	a q
-1.008217	a r
-1.332604	a s
-0.9090115	a t
-0.9463129	a u
-2.896678	a v
-2.727886	a w
-3.176518	a x
-3.322646	a y
-2.766344	a z
-1.645648	a ß
-3.457345	a ä
-3.457345	a ç
-3.048724	b "
-3.048724	b (
-1.80456	b )
-2.642959	b ,
-2.976174	b -
-2.692177	b .
-2.728389	b 1
-3.048724	b 2
-1.557363	b a
-2.692177	b b
-2.090117	b d
-0.2208852	b e
-2.270573	b f
-2.056693	b g
-2.499052	b h
-1.323704	b i
-2.789087	b j
-2.357723	b k
-1.600158	b l
-2.976174	b m
-2.181632	b n
-1.976174	b o
-3.010936	b p
-1.460707	b r
-1.056693	b s
-2.064811	b t
-1.486973	b u
-2.399921	b v
-2.238858	b w
-3.048724	b y
-1.950238	b z
-2.709906	b ä
-2.767898	b ö
-2.466868	b ü
-3.064429	c (
-1.996529	c )
-3.099191	c ,
-2.780432	c -
-3.099191	c .
-3.064429	c 1
-3.13698	c 2
-3.13698	c 3
-3.13698	c 8
-3.13698	c 9
-3.13698	c ;
-2.701251	c a
-2.974252	c c
-3.099191	c d
-2.587308	c e
-3.13698	c f
-3.099191	c g
-0.05331439	c h
-2.701251	c i
-1.360807	c k
-3.064429	c l
-3.13698	c m
-3.002281	c n
-2.20989	c o
-2.747009	c p
-2.731215	c r
-3.032244	c s
-3.032244	c t
-2.544904	c u
-3.13698	c v
-3.099191	c y
-3.13698	c z
-3.13698	c é
-2.868527	d "
-3.480347	d '
-3.220709	d (
-2.59232	d )
-2.173434	d ,
-2.765865	d -
-2.32584	d .
-2.729348	d /
-3.442558	d 0
-2.965437	d 1
-2.814169	d 2
-2.977671	d 3
-3.123799	d 4
-3.19952	d 5
-3.291291	d 6
-3.106766	d 7
-3.123799	d 8
-3.090376	d 9
-3.123799	d :
-2.878287	d ;
-2.941956	d </s>
-1.287982	d a
-2.293853	d b
-3.044618	d c
-1.586232	d d
-0.3178638	d e
-2.385019	d f
-2.273766	d g
-2.397888	d h
-0.6560434	d i
-3.059341	d j
-2.702195	d k
-2.175386	d l
-2.446193	d m
-1.560318	d n
-2.161904	d o
-2.849642	d p
-3.407796	d q
-1.986445	d r
-1.455413	d s
-2.41115	d t
-1.34768	d u
-2.203676	d v
-2.312224	d w
-3.407796	d x
-2.397888	d z
-3.407796	d »
-3.090376	d ä
-3.480347	d é
-3.030378	d ö
-2.464834	d ü
-3.210059	e "
-3.730646	e '
-3.06001	e (
-3.164302	e )
-2.417223	e ,
-3.140168	e -
-2.996563	e .
-3.968007	e /
-3.833309	e 0
-3.261212	e 1
-3.253525	e 2
-3.687181	e 3
-3.930219	e 4
-3.70837	e 5
-3.477921	e 6
-3.045612	e 7
-3.111773	e 8
-2.821879	e 9
-3.0094	e :
-3.490886	e ;
-3.30183	e </s>
-1.816832	e a
-1.718253	e b
-2.001652	e c
-1.518178	e d
-1.900835	e e
-1.840314	e f
-1.625584	e g
-1.667175	e h
-1.008966	e i
-3.122909	e j
-2.101989	e k
-1.320535	e l
-1.443906	e m
-0.6081372	e n
-2.666977	e o
-2.466574	e p
-3.562242	e q
-0.6425475	e r
-1.08787	e s
-1.593926	e t
-1.764381	e u
-1.924466	e v
-1.877461	e w
-2.933853	e x
-2.0008	e z
-3.930219	e }
-3.895457	e »
-2.892129	e ß
-2.683064	e ä
-3.465332	e ö
-2.879066	e ü
-2.92486	f "
-3.049799	f '
-2.898532	f (
-2.456883	f )
-2.714007	f ,
-2.952889	f -
-2.850227	f .
-2.982852	f 1
-3.049799	f 2
-3.015037	f 3
-3.087588	f 4
-3.087588	f 5
-3.049799	f :
-3.049799	f ;
-3.015037	f </s>
-1.016711	f a
-2.365552	f b
-1.370069	f d
-0.8538996	f e
-1.124659	f f
-1.657689	f g
-2.714007	f h
-1.380018	f i
-2.73104	f j
-2.597502	f k
-1.516197	f l
-2.584913	f m
-2.225891	f n
-1.091953	f o
-2.873708	f p
-3.087588	f q
-1.623831	f r
-1.765369	f s
-0.8275164	f t
-1.362568	f u
-2.155853	f v
-2.549197	f w
-2.388618	f z
-1.752404	f ä
-2.265658	f ö
-0.8509132	f ü
-2.795897	g "
-3.284014	g '
-1.68112	g (
-1.71401	g )
-2.014142	g ,
-2.774708	g -
-2.389357	g .
-3.251829	g /
-3.318776	g 1
-3.167508	g 2
-3.318776	g 7
-3.284014	g 8
-2.785173	g 9
-2.494867	g :
-3.055535	g ;
-2.818174	g </s>
-1.401008	g a
-2.202058	g b
-3.251829	g c
-1.196833	g d
-0.3569992	g e
-2.128444	g f
-1.968205	g g
-2.744745	g h
-1.505863	g i
-3.000017	g j
-1.993124	g k
-1.2509	g l
-2.254943	g m
-1.484143	g n
-2.167508	g o
-2.935559	g p
-1.477312	g r
-1.272476	g s
-1.461947	g t
-1.331259	g u
-1.753519	g v
-2.468539	g w
-3.284014	g x
-3.318776	g y
-1.994837	g z
-3.356565	g »
-2.598617	g ä
-3.356565	g é
-3.284014	g ö
-2.290747	g ü
-3.032676	h "
-3.313503	h '
-3.178804	h (
-2.923532	h )
-2.468405	h ,
-2.923532	h -
-2.6647	h .
-3.313503	h /
-3.313503	h 0
-3.124447	h 1
-3.313503	h 2
-3.275714	h 3
-3.313503	h 8
-3.208768	h :
-3.150776	h ;
-3.012473	h </s>
-0.8638142	h a
-2.337862	h b
-3.099623	h c
-1.457819	h d
-0.6791173	h e
-2.016439	h f
-2.231044	h g
-2.752836	h h
-1.478101	h i
-3.150776	h j
-2.190543	h k
-1.424966	h l
-1.229089	h m
-1.481575	h n
-1.882139	h o
-2.763831	h p
-0.8730232	h r
-1.537992	h s
-0.9077376	h t
-1.437916	h u
-2.294198	h v
-2.087724	h w
-2.752836	h y
-2.27211	h z
-3.240952	h »
-1.742112	h ä
-1.705561	h ö
-2.457268	h ü
-3.559805	i "
-3.527621	i (
-2.74433	i )
-3.226591	i ,
-3.559805	i -
-3.418476	i .
-2.624531	i 1
-3.168599	i 2
-3.632356	i 9
-3.594568	i :
-3.559805	i ;
-3.469629	i </s>
-2.355685	i a
-2.377084	i b
-0.979846	i c
-1.84124	i d
-0.6323166	i e
-1.785569	i f
-1.346185	i g
-1.924012	i h
-2.2235	i i
-3.001651	i j
-1.395681	i k
-1.648033	i l
-1.539572	i m
-0.6887267	i n
-1.500562	i o
-3.001651	i p
-3.469629	i q
-1.724359	i r
-1.065651	i s
-1.007231	i t
-2.804517	i u
-2.315814	i v
-3.242385	i w
-3.559805	i x
-2.411298	i z
-3.14227	i ß
-3.594568	i ä
-3.632356	i é
-3.594568	i ó
-3.594568	i ö
-3.4433	i ü
-1.924007	j )
-2.12358	j .
-0.7587159	j a
-0.5485842	j e
-2.161368	j i
-2.088817	j o
-0.9986407	j u
-1.530663	j ä
-2.056633	j ü
-2.840158	k "
-2.743248	k (
-2.773212	k )
-2.640586	k ,
-2.743248	k .
-2.840158	k </s>
-1.057208	k a
-2.576917	k b
-2.877947	k c
-2.351138	k d
-0.4819062	k e
-2.773212	k f
-2.285871	k g
-2.456942	k h
-2.306556	k i
-2.59712	k k
-1.42241	k l
-2.351138	k m
-2.195064	k n
-0.7467367	k o
-2.840158	k p
-1.448048	k r
-1.584886	k s
-0.9728874	k t
-1.433618	k u
-2.504366	k v
-2.743248	k w
-2.805396	k y
-2.5214	k z
-2.021713	k ä
-1.419653	k ö
-1.946212	k ü
-2.967654	l "
-3.230896	l '
-3.009047	l (
-3.133986	l )
-2.401592	l ,
-2.708017	l -
-2.569714	l .
-3.230896	l /
-1.656865	l 1
-1.847679	l 2
-2.052398	l 3
-2.230896	l 4
-2.360687	l 5
-2.29724	l 6
-2.396263	l 7
-2.423586	l 8
-2.446754	l 9
-3.268684	l :
-3.196134	l ;
-3.031323	l </s>
-1.047626	l a
-1.806286	l b
-2.064564	l c
-1.712382	l d
-0.8822665	l e
-2.011224	l f
-1.5407	l g
-2.561889	l h
-0.6607422	l i
-2.818715	l j
-2.446754	l k
-0.9459014	l l
-2.284771	l m
-1.782447	l n
-1.883566	l o
-2.666624	l p
-3.105957	l q
-2.666624	l r
-1.291376	l s
-1.065305	l t
-1.290961	l u
-2.327806	l v
-2.585801	l w
-3.196134	l x
-2.708017	l y
-2.524747	l z
-3.268684	l á
-1.782447	l ä
-2.753774	l ö
-2.611107	l ü
-3.001788	m "
-3.164515	m '
-2.975459	m (
-2.975459	m )
-2.614843	m ,
-2.807968	m -
-3.126727	m .
-3.126727	m /
-3.164515	m 0
-1.896278	m 1
-2.007251	m 2
-2.354649	m 3
-3.029816	m 4
-2.904878	m 5
-2.863485	m 6
-2.904878	m 7
-2.950635	m 8
-2.863485	m 9
-3.164515	m ;
-3.029816	m </s>
-1.0654	m a
-1.68477	m b
-2.927154	m c
-1.789267	m d
-0.6130651	m e
-1.94109	m f
-2.108998	m g
-2.160585	m h
-0.7010293	m i
-2.863485	m j
-2.330847	m k
-2.261425	m l
-0.939676	m m
-2.379833	m n
-1.863485	m o
-2.032722	m p
-1.983191	m r
-1.619321	m s
-1.489904	m t
-1.428481	m u
-1.802787	m v
-2.219136	m w
-2.975459	m y
-1.967862	m z
-1.454629	m ä
-3.164515	m ó
-1.980598	m ö
-1.950635	m ü
-2.937157	n "
-3.511188	n '
-2.56918	n (
-3.087942	n )
-3.733037	n +
-1.506222	n ,
-2.509022	n -
-1.687388	n .
-3.581769	n /
-3.733037	n 0
-3.006038	n 1
-3.17875	n 2
-3.414278	n 3
-3.489999	n 4
-3.556945	n 5
-3.489999	n 6
-3.432007	n 7
-3.432007	n 8
-3.533464	n 9
-2.584331	n :
-2.513365	n ;
-2.740336	n </s>
-3.66609	n >
-1.154684	n a
-1.675497	n b
-2.887939	n c
-0.7692095	n d
-1.031829	n e
-1.627527	n f
-0.8272858	n g
-1.838167	n h
-1.25785	n i
-2.610821	n j
-1.754172	n k
-2.188969	n l
-1.760294	n m
-1.490206	n n
-1.917902	n o
-2.271888	n p
-3.469795	n q
-1.840478	n r
-1.260646	n s
-1.238418	n t
-1.414799	n u
-1.66578	n v
-1.853177	n w
-3.770825	n x
-3.733037	n y
-1.599498	n z
-3.770825	n »
-3.733037	n â
-2.763	n ä
-3.770825	n é
-3.04879	n ö
-2.357373	n ü
-3.770825	n β
-3.039726	o "
-3.106673	o (
-2.9071	o )
-3.106673	o ,
-2.486884	o -
-3.106673	o .
-3.144461	o 1
-3.144461	o 2
-3.144461	o </s>
-2.805642	o a
-1.756101	o b
-1.835606	o c
-1.079663	o d
-2.334595	o e
-1.524988	o f
-1.687543	o g
-1.909392	o h
-2.66734	o i
-2.981734	o j
-1.992729	o k
-1.047235	o l
-1.019424	o m
-0.6075584	o n
-2.340756	o o
-1.543389	o p
-0.624633	o r
-1.769213	o s
-1.803837	o t
-2.805642	o u
-2.46985	o v
-1.705847	o w
-2.562604	o x
-3.144461	o y
-2.261574	o z
-2.77088	o ß
-3.07191	o ö
-3.144461	o ü
-2.564881	p "
-2.564881	p (
-2.527093	p )
-2.351001	p ,
-2.460146	p -
-2.564881	p .
-2.564881	p /
-0.9579138	p a
-2.564881	p b
-2.492331	p c
-2.564881	p d
-1.02421	p e
-1.159116	p f
-2.460146	p g
-1.773765	p h
-1.224257	p i
-1.469553	p l
-2.492331	p m
-2.527093	p n
-1.466395	p o
-1.57689	p p
-0.6221968	p r
-2.284055	p s
-1.731213	p t
-1.427297	p u
-2.351001	p v
-2.564881	p w
-2.492331	p y
-2.564881	p z
-0.9717966	p ä
-2.527093	p ê
-2.527093	p ü
-1.817345	q )
-1.855134	q b
-0.8358284	q u
-3.067833	r "
-3.55595	r '
-3.11359	r (
-3.101691	r )
-2.345611	r ,
-2.831044	r -
-1.924818	r .
-3.32747	r /
-3.590712	r 0
-2.329449	r 1
-2.789079	r 2
-3.178531	r 3
-3.368863	r 4
-3.493802	r 5
-3.523765	r 6
-3.6285	r 7
-3.6285	r 8
-3.6285	r 9
-3.39114	r :
-3.39114	r ;
-2.870553	r </s>
-1.121381	r a
-1.502871	r b
-1.850349	r c
-0.9789885	r d
-0.8809474	r e
-1.544087	r f
-1.414379	r g
-1.836109	r h
-1.141362	r i
-2.549319	r j
-1.520366	r k
-1.60394	r l
-1.620287	r m
-1.643769	r n
-1.35687	r o
-2.077716	r p
-3.289682	r q
-1.688981	r r
-1.296062	r s
-1.067942	r t
-1.425121	r u
-1.569178	r v
-1.769526	r w
-3.347674	r y
-1.553285	r z
-3.6285	r »
-3.590712	r â
-2.106412	r ä
-3.590712	r å
-3.6285	r ó
-2.499631	r ö
-1.765177	r ü
-3.05545	s "
-3.481419	s '
-2.511382	s (
-3.113442	s )
-2.343116	s ,
-2.31018	s -
-2.543567	s .
-3.384509	s /
-3.281846	s 0
-2.359203	s 1
-2.685539	s 2
-2.907387	s 3
-3.198872	s 4
-3.042086	s 5
-3.098202	s 6
-3.198872	s 7
-3.414472	s 8
-3.180389	s 9
-3.414472	s :
-3.004297	s ;
-2.947816	s </s>
-1.19925	s a
-1.600605	s b
-0.897559	s c
-1.733877	s d
-0.8466057	s e
-1.900684	s f
-1.744359	s g
-2.293428	s h
-1.087259	s i
-2.46369	s j
-2.222143	s k
-2.381623	s l
-1.845433	s m
-2.206491	s n
-1.367475	s o
-1.679786	s p
-3.414472	s q
-1.891283	s r
-1.008662	s s
-0.7293703	s t
-1.667949	s u
-1.636838	s v
-2.293428	s w
-2.45339	s y
-2.03297	s z
-3.519207	s »
-2.130848	s ä
-3.129236	s ö
-2.539411	s ü
-2.999889	t "
-3.360504	t '
-2.900757	t (
-3.085803	t )
-1.646471	t ,
-2.758444	t -
-1.790236	t .
-3.386833	t /
-3.3122	t 1
-3.289923	t 2
-3.47701	t 3
-3.47701	t 4
-3.549561	t 5
-3.549561	t 8
-2.553527	t :
-2.704463	t ;
-3.01117	t </s>
-1.173482	t a
-2.172652	t b
-3.210742	t c
-1.451074	t d
-0.5893061	t e
-1.994356	t f
-1.401182	t g
-2.071125	t h
-0.9114345	t i
-2.909712	t j
-2.671875	t k
-1.375845	t l
-2.182713	t m
-2.091266	t n
-1.739695	t o
-2.347915	t p
-3.059474	t q
-1.267908	t r
-1.203563	t s
-1.53139	t t
-1.427792	t u
-2.075079	t v
-1.558334	t w
-3.511772	t x
-2.967704	t y
-1.216572	t z
-3.549561	t }
-1.730017	t ä
-3.549561	t å
-3.511772	t è
-3.549561	t é
-2.883383	t ö
-2.069815	t ü
-3.337169	u '
-3.232433	u ,
-3.29938	u -
-3.123289	u .
-3.099808	u /
-3.337169	u 1
-3.337169	u 3
-3.337169	u 5
-2.046123	u a
-2.046123	u b
-1.518223	u c
-2.150675	u d
-1.68308	u e
-1.082555	u f
-1.36911	u g
-2.030257	u h
-2.776501	u i
-3.29938	u j
-2.10672	u k
-1.732158	u l
-1.387335	u m
-0.3444546	u n
-2.947198	u o
-2.217193	u p
-1.024453	u r
-1.025993	u s
-1.59252	u t
-2.776501	u u
-2.424319	u v
-2.5035	u w
-3.29938	u x
-2.60041	u z
-1.885801	u ß
-2.980621	u ä
-3.29938	u ö
-2.765778	u ü
-2.809279	v "
-2.609707	v )
-2.774517	v ,
-2.774517	v -
-2.546038	v .
-2.774517	v </s>
-1.996366	v a
-2.774517	v b
-2.411339	v d
-0.320376	v e
-2.847068	v f
-2.847068	v g
-1.758126	v i
-2.712369	v k
-2.774517	v m
-2.712369	v n
-0.4003328	v o
-2.847068	v p
-2.68434	v s
-2.68434	v t
-2.712369	v u
-2.712369	v v
-2.809279	v w
-2.774517	v z
-2.658011	v ö
-2.847068	v ü
-2.731217	w )
-2.64104	w ,
-2.765979	w -
-1.811736	w .
-2.731217	w </s>
-1.164825	w a
-2.731217	w b
-2.669069	w d
-0.4102719	w e
-1.046509	w g
-0.6618902	w i
-2.765979	w j
-2.803767	w k
-2.803767	w l
-2.699032	w m
-2.803767	w n
-1.381267	w o
-2.382762	w r
-2.731217	w s
-2.803767	w t
-1.520878	w u
-2.803767	w w
-2.803767	w y
-2.765979	w z
-1.329286	w ä
-2.34001	w ö
-2.265377	w ü
-1.887515	x (
-1.849726	x ,
-1.849726	x -
-1.887515	x 1
-1.627878	x a
-1.887515	x b
-1.849726	x d
-1.497544	x e
-1.887515	x f
-1.887515	x h
-1.129567	x i
-1.814964	x k
-1.295439	x p
-1.247666	x t
-1.887515	x u
-1.887515	x v
-1.849726	x y
-1.858259	y -
-1.768083	y a
-1.826075	y c
-1.893022	y d
-1.574263	y g
-1.93081	y h
-1.893022	y i
-1.893022	y k
-1.591992	y l
-1.540839	y m
-1.858259	y n
-1.671173	y o
-1.338734	y p
-1.693449	y r
-0.8168668	y s
-1.858259	y t
-1.93081	y z
-2.915592	z "
-2.877803	z (
-2.726536	z ,
-2.701712	z -
-2.576773	z .
-1.46144	z 1
-1.595257	z 2
-2.027565	z 3
-2.208796	z 4
-2.509826	z 5
-2.559044	z 6
-2.915592	z 7
-2.877803	z 8
-2.877803	z 9
-2.877803	z ;
-2.915592	z </s>
-1.721456	z a
-2.178833	z b
-2.915592	z c
-2.111886	z d
-0.6757237	z e
-2.559044	z f
-2.465623	z g
-2.509826	z h
-1.224591	z i
-2.810856	z j
-2.208796	z k
-1.907766	z l
-2.323516	z m
-2.284887	z n
-1.736876	z o
-2.701712	z p
-2.678231	z r
-2.303772	z s
-1.18393	z t
-0.4344097	z u
-2.388783	z v
-1.303772	z w
-2.752864	z y
-2.509826	z z
-2.726536	z ä
-2.678231	z ö
-2.105726	z ü
-1.793028	} b
-1.793028	} k
-1.793028	} o
-1.73609	» (
-1.808641	» -
-1.645913	» a
-1.808641	» b
-1.808641	» c
-1.73609	» d
-1.703905	» e
-1.808641	» r
-1.770852	» s
-1.73609	» t
-1.770852	» v
-1.808641	» w
-2.188272	ß "
-2.322971	ß (
-2.002635	ß ,
-2.322971	ß -
-2.063333	ß .
-2.25042	ß 1
-2.322971	ß 6
-2.322971	ß 7
-2.322971	ß 8
-2.322971	ß 9
-2.322971	ß ;
-2.160243	ß </s>
-0.9378521	ß a
-1.741114	ß b
-0.8633041	ß d
-1.126317	ß e
-1.720911	ß f
-1.455878	ß g
-2.08561	ß h
-1.513105	ß i
-2.188272	ß j
-2.133914	ß k
-1.410121	ß l
-2.063333	ß m
-0.7834384	ß n
-2.285182	ß o
-2.25042	ß p
-2.133914	ß r
-1.593511	ß s
-1.63197	ß t
-1.820295	ß u
-1.94939	ß v
-2.063333	ß w
-1.859213	ß z
-2.322971	ß »
-2.218235	ß ü
-1.791754	á d
-1.659599	â -
-1.791754	ã o
-2.639305	ä (
-2.639305	ä b
-1.689472	ä c
-1.964695	ä d
-1.62	ä f
-1.274158	ä g
-1.113672	ä h
-1.096367	ä i
-2.601517	ä j
-2.639305	ä k
-1.262397	ä l
-1.841849	ä m
-0.6488858	ä n
-2.639305	ä p
-2.639305	ä q
-1.338275	ä r
-1.543977	ä s
-0.9120599	ä t
-1.507512	ä u
-2.504607	ä v
-2.53457	ä z
-1.013245	ä ß
-1.755239	å l
-1.793028	å r
-1.791754	ç ã
-1.754603	è r
-1.757143	é a
-1.794931	é n
-1.794931	é p
-1.794931	é r
-1.794931	é t
-1.754603	ê c
-1.793663	ó m
-1.755875	ó n
-1.793663	ó s
-1.514462	ö c
-2.160726	ö d
-1.054001	ö f
-1.09201	ö g
-1.443531	ö h
-1.829733	ö k
-1.42604	ö l
-2.227673	ö m
-0.8444558	ö n
-1.87549	ö p
-0.669364	ö r
-1.437622	ö s
-1.829733	ö t
-1.964431	ö ß
-0.7073229	ü b
-1.326677	ü c
-1.421331	ü f
-1.376475	ü g
-0.9809768	ü h
-2.451616	ü k
-2.138687	ü l
-2.592945	ü m
-1.159114	ü n
-2.627707	ü p
-0.5536835	ü r
-1.364466	ü s
-1.252043	ü t
-2.665496	ü u
-2.627707	ü ß
-1.791754	β -

\end\
