
\data\
ngram 1=102
ngram 2=2707

\1-grams:
-3.173515	"	0.377457
-3.799855	%	0.09119209
-4.758462	&	-0.004743581
-3.566859	'	0.2206592
-2.647873	(	-0.1011344
-2.452525	)	-0.09968924
-4.623764	*	0.01438492
-4.720674	+	-0.007072631
-2.026069	,	-0.08954922
-3.050892	-	0.2964635
-2.256035	.	-0.109942
-2.605896	/	-0.3112289
-2.693324	0	-0.1006424
-2.333136	1	-0.08608656
-2.447866	2	-0.2887041
-2.675351	3	-0.1575961
-2.828579	4	0.01017357
-2.89352	5	-0.03726559
-2.826266	6	0.01771358
-2.734649	7	-0.07284953
-2.839384	8	-0.0446729
-2.559306	9	-0.1148925
-2.944336	:	0.1214048
-4.685912	;	0.02113483
-2.185169	</s>
-99	<s>	-0.04471892
-4.653727	=	-0.01245343
-4.653727	>	-0.006028316
-4.623764	[	-0.0003812859
-4.623764	]	0.01084342
-4.197795	^	0.172233
-3.430639	a	-0.1494409
-4.118614	b	0.01350559
-3.606731	c	-0.09201138
-3.840814	d	-0.1310955
-3.35581	e	-0.08432633
-4.000515	f	-0.03016219
-4.118614	g	-0.04878386
-3.980311	h	-0.08267947
-3.0764	i	-0.09307937
-4.685912	j	-0.01390526
-4.384882	k	-0.0001377974
-3.817584	l	-0.1138393
-3.774549	m	0.008079951
-3.653727	n	-0.08838499
-3.539784	o	-0.0288869
-4.000515	p	-0.1056774
-4.685912	q	-0.005526813
-3.498825	r	-0.1950023
-3.612334	s	-0.09634843
-3.696051	t	-0.05760648
-3.720674	u	0.05302164
-3.618012	v	0.1167585
-4.569407	w	-0.01554369
-4.308494	x	0.01404691
-4.231654	y	-0.05735129
-4.498825	z	0.02384604
-4.758462	{	0.0004981975
-4.758462	}	-0.004742204
-3.67275	«	0.3631885
-4.720674	±	-0.005965344
-3.308494	·	0.1685178
-3.679281	»	0.1850369
-4.685912	å	-0.009770396
-4.758462	é	-0.004678164
-4.758462	ó	-0.004654749
-4.176606	ΐ	0.08662912
-1.765949	ά	0.3704192
-1.81967	έ	-0.5032799
-1.894815	ή	0.6598971
-1.671198	ί	-0.1617611
-1.064272	α	0.1531076
-2.246336	β	-0.08628626
-1.760798	γ	-0.2600727
-1.847741	δ	-0.5644446
-1.230282	ε	-0.0009366895
-2.528014	ζ	-0.172204
-1.41773	η	0.2069533
-1.920301	θ	-0.5431588
-1.203445	ι	0.2897945
-1.479605	κ	-0.4035882
-1.742341	λ	-0.6442138
-1.531605	μ	-0.733968
-1.224298	ν	-0.5957947
-2.489162	ξ	-0.1983293
-1.077427	ο	0.1108699
-1.37517	π	-0.9602104
-1.311657	ρ	-0.6056977
-1.469766	ς	-0.413563
-1.390768	σ	-0.8119505
-1.109252	τ	-0.8928996
-1.521948	υ	0.3068711
-2.011051	φ	-0.4181523
-2.051977	χ	-0.3062027
-3.054	ψ	0.01002374
-1.748008	ω	-0.2273729
-2.903329	ϊ	-0.1502169
-3.778666	ϋ	-0.01874809
-1.750211	ό	0.2806583
-2.037927	ύ	0.2453372
-2.11753	ώ	-0.2813614
-4.685912	’	0.05810528

\2-grams:
-2.007077	" (
-1.897932	" )
-1.481107	" ,
-1.897932	" -
-1.648055	" .
-1.922756	" 1
-1.922756	" 2
-1.922756	" 3
-2.074024	" 6
-2.111812	" 7
-2.074024	" 9
-1.690807	" :
-1.295872	" </s>
-2.111812	" [
-2.039262	" b
-2.074024	" d
-2.039262	" i
-2.039262	" m
-2.074024	" n
-2.074024	" t
-2.007077	" ·
-1.755265	" ά
-1.977114	" έ
-1.897932	" ή
-1.738232	" α
-1.949085	" β
-1.949085	" γ
-1.949085	" δ
-1.690807	" ε
-2.111812	" ζ
-1.949085	" η
-2.111812	" θ
-2.007077	" ι
-1.634691	" κ
-1.897932	" μ
-2.039262	" ν
-1.810782	" ο
-1.676084	" π
-1.661843	" σ
-1.721841	" τ
-2.039262	" υ
-2.074024	" χ
-2.111812	" ω
-2.007077	" ό
-1.927449	% )
-1.740363	% ,
-1.740363	% .
-2	% v
-1.962211	% ·
-1.962211	% »
-1.962211	% ή
-1.895265	% α
-1.895265	% γ
-1.719173	% κ
-2	% μ
-2	% π
-1.895265	% σ
-1.38818	% τ
-1.963359	& {
-1.954614	' )
-2.027164	' .
-1.892466	' :
-2.027164	' a
-1.989376	' ά
-1.746338	' έ
-1.290406	' α
-2.027164	' γ
-1.283227	' ε
-2.027164	' ι
-2.027164	' κ
-2.027164	' λ
-1.989376	' μ
-1.813284	' ο
-1.989376	' σ
-2.027164	' τ
-1.591436	' ό
-2.269692	( "
-2.342243	( %
-2.304455	( '
-2.342243	( )
-2.269692	( *
-2.179516	( -
-1.001619	( 1
-1.148107	( 2
-1.346209	( 3
-1.491541	( 4
-1.551127	( 5
-1.635448	( 6
-1.792571	( 7
-1.750167	( 8
-1.720878	( 9
-2.304455	( a
-2.269692	( b
-2.021908	( c
-1.985696	( e
-2.207545	( f
-2.342243	( h
-2.304455	( m
-2.342243	( o
-2.342243	( p
-2.207545	( r
-2.269692	( s
-2.342243	( t
-2.342243	( u
-2.269692	( z
-2.342243	( «
-2.304455	( έ
-2.269692	( ή
-1.985696	( α
-2.342243	( β
-2.342243	( γ
-2.207545	( δ
-0.7284974	( ε
-2.269692	( η
-2.342243	( θ
-2.304455	( ι
-1.740183	( κ
-2.342243	( λ
-2.207545	( μ
-2.153187	( ο
-2.041213	( π
-1.815434	( σ
-2.128363	( τ
-2.342243	( υ
-2.269692	( χ
-2.342243	( ό
-1.928746	) "
-2.362402	) '
-2.046132	) (
-0.8438877	) ,
-2.30441	) -
-1.549488	) .
-2.30441	) 1
-2.429348	) 2
-2.467137	) 4
-2.467137	) 5
-2.166107	) 7
-2.429348	) :
-1.827289	) </s>
-2.128319	) ^
-2.429348	) i
-2.467137	) n
-2.467137	) o
-2.467137	) p
-2.467137	) s
-2.467137	) t
-2.467137	) w
-2.429348	) y
-2.229776	) «
-2.00338	) ·
-2.394586	) »
-2.429348	) ά
-2.166107	) έ
-2.031409	) ή
-0.8201099	) α
-2.362402	) β
-1.88528	) γ
-1.977051	) δ
-1.549488	) ε
-2.362402	) ζ
-1.549488	) η
-2.166107	) θ
-1.41162	) κ
-2.278081	) λ
-1.875061	) μ
-1.80096	) ν
-1.610903	) ο
-1.657271	) π
-1.540047	) σ
-1.131953	) τ
-2.278081	) υ
-2.394586	) φ
-2.362402	) χ
-2.11059	) ω
-1.517304	) ό
-2.467137	) ύ
-1.892523	* )
-1.965073	* 2
-1.965073	* ε
-1.963788	+ 2
-1.963788	+ 3
-2.637239	, "
-2.586087	, (
-2.727416	, -
-2.51914	, 0
-2.562606	, 1
-2.378962	, 2
-2.540329	, 3
-2.562606	, 4
-2.562606	, 5
-2.562606	, 6
-2.562606	, 7
-2.461148	, 8
-2.51914	, 9
-1.085485	, </s>
-2.762178	, a
-2.727416	, c
-2.695231	, f
-2.799967	, h
-2.610911	, i
-2.799967	, m
-2.727416	, p
-2.799967	, r
-2.727416	, s
-2.586087	, v
-2.695231	, «
-2.443419	, ά
-2.169262	, έ
-1.922281	, ή
-1.394201	, α
-2.285057	, β
-1.462962	, γ
-1.70148	, δ
-1.154723	, ε
-2.665268	, ζ
-1.351401	, η
-1.984027	, θ
-2.028446	, ι
-1.063933	, κ
-2.021816	, λ
-1.406791	, μ
-1.734149	, ν
-2.799967	, ξ
-1.40839	, ο
-1.204872	, π
-2.695231	, ρ
-1.135496	, σ
-0.9043434	, τ
-2.028446	, υ
-2.540329	, φ
-2.151163	, χ
-2.14239	, ω
-1.371537	, ό
-2.637239	, ύ
-2.250295	, ώ
-2.15201	- "
-2.15201	- (
-2.15201	- 0
-1.962954	- 1
-2.07946	- 2
-2.15201	- 4
-2.15201	- 5
-2.047275	- 7
-2.15201	- 8
-2.15201	- 9
-1.032035	- </s>
-2.15201	- a
-2.114222	- b
-2.114222	- c
-1.989283	- d
-2.114222	- e
-2.15201	- h
-2.15201	- j
-2.114222	- m
-2.15201	- o
-2.114222	- p
-1.831675	- r
-2.114222	- s
-2.114222	- ά
-1.989283	- έ
-2.07946	- ή
-1.6371	- α
-2.15201	- β
-1.813192	- γ
-1.962954	- δ
-1.602338	- ε
-1.831675	- η
-2.047275	- θ
-2.15201	- ι
-1.77843	- κ
-1.831675	- μ
-1.85098	- ν
-2.15201	- ξ
-1.688253	- ο
-1.54019	- π
-1.570154	- σ
-1.23916	- τ
-2.114222	- υ
-2.114222	- φ
-2.15201	- χ
-2.15201	- ω
-1.521305	- ό
-1.739206	. "
-2.611627	. &
-2.573838	. '
-2.539076	. (
-2.539076	. )
-2.539076	. ,
-2.539076	. .
-2.476928	. 0
-1.306666	. 1
-1.422571	. 2
-1.723601	. 3
-2.238046	. 4
-2.221656	. 5
-2.506891	. 6
-2.134506	. 7
-2.108951	. 8
-2.3308	. 9
-0.4857021	. </s>
-2.573838	. ^
-2.539076	. c
-2.611627	. e
-2.539076	. l
-2.611627	. t
-2.573838	. «
-1.962823	. »
-2.539076	. ά
-2.25508	. έ
-1.833475	. α
-2.539076	. β
-1.853679	. γ
-2.397747	. δ
-1.703629	. ε
-2.573838	. ζ
-1.291292	. η
-2.397747	. θ
-2.539076	. ι
-1.760925	. κ
-2.476928	. λ
-1.920626	. μ
-2.539076	. ν
-1.283804	. ο
-1.795687	. π
-1.414973	. σ
-1.221656	. τ
-2.573838	. υ
-2.4489	. χ
-2.190621	. ω
-2.009567	. ό
-2.573838	. ύ
-2.1783	/ /
-2.367356	/ 0
-1.379365	/ 1
-1.35567	/ 2
-1.551416	/ 3
-1.291477	/ 4
-1.609408	/ 5
-1.272028	/ 6
-1.47425	/ 7
-1.371322	/ 8
-1.041393	/ 9
-2.367356	/ a
-2.329567	/ c
-1.864681	/ e
-2.367356	/ h
-2.329567	/ ή
-2.367356	/ δ
-0.7159017	/ ε
-2.367356	/ ι
-1.551416	/ κ
-2.262621	/ ο
-2.367356	/ τ
-2.367356	/ ώ
-2.316161	0 "
-1.617191	0 %
-2.056524	0 (
-1.852404	0 )
-1.494231	0 ,
-1.789352	0 .
-1.081092	0 /
-0.7835224	0 0
-1.47674	0 1
-1.37983	0 2
-1.617191	0 3
-1.880432	0 4
-1.995826	0 5
-1.92619	0 6
-1.789352	0 7
-1.895156	0 8
-1.880432	0 9
-1.676312	0 </s>
-2.153434	0 e
-2.316161	0 f
-2.316161	0 k
-2.278373	0 m
-2.316161	0 »
-2.316161	0 έ
-1.910396	0 ή
-2.035334	0 α
-2.316161	0 β
-2.035334	0 γ
-2.211426	0 δ
-2.015131	0 ε
-1.977342	0 η
-2.127105	0 ι
-2.0788	0 κ
-2.24361	0 μ
-2.278373	0 ν
-1.685456	0 π
-2.127105	0 σ
-1.572224	0 τ
-2.127105	0 χ
-2.480339	1 %
-2.179309	1 (
-1.387456	1 )
-1.406761	1 ,
-2.515101	1 -
-1.108561	1 .
-1.409591	1 /
-1.363833	1 0
-1.418191	1 1
-1.467177	1 2
-1.490478	1 3
-1.50086	1 4
-1.460743	1 5
-1.621154	1 6
-1.573093	1 7
-1.680468	1 8
-0.8988004	1 9
-2.390162	1 :
-1.577249	1 </s>
-2.552889	1 e
-2.552889	1 «
-2.390162	1 ·
-2.418191	1 έ
-2.251859	1 ή
-2.089132	1 α
-2.552889	1 β
-2.448154	1 γ
-1.971033	1 δ
-2.33901	1 ε
-1.515101	1 η
-2.552889	1 θ
-2.480339	1 ι
-1.761773	1 κ
-2.552889	1 λ
-2.232554	1 μ
-2.480339	1 ν
-2.390162	1 ο
-1.577249	1 π
-1.649799	1 σ
-1.630494	1 τ
-2.515101	1 υ
-2.552889	1 χ
-2.515101	1 ό
-2.30763	2 %
-2.21072	2 (
-1.313093	2 )
-1.384645	2 ,
-2.470357	2 -
-1.007959	2 .
-1.230716	2 /
-0.9518431	2 0
-1.660491	2 1
-1.507428	2 2
-1.592672	2 3
-1.538622	2 4
-1.582331	2 5
-1.614123	2 6
-1.779356	2 7
-1.719358	2 8
-1.60866	2 9
-2.397806	2 :
-1.421845	2 </s>
-2.470357	2 ]
-2.365622	2 i
-2.365622	2 ·
-2.432569	2 »
-2.397806	2 έ
-2.365622	2 ή
-2.470357	2 ί
-1.967682	2 α
-2.365622	2 β
-2.049352	2 γ
-2.335659	2 δ
-2.232996	2 ε
-2.30763	2 η
-2.432569	2 θ
-2.365622	2 ι
-1.779356	2 κ
-2.256477	2 μ
-1.567267	2 π
-1.80418	2 σ
-1.451052	2 τ
-2.470357	2 φ
-2.432569	2 ώ
-2.288547	3 "
-2.221601	3 %
-2.13728	3 (
-1.295847	3 )
-1.399246	3 ,
-2.253785	3 -
-1.093571	3 .
-1.194542	3 /
-1.459244	3 0
-1.453915	3 1
-1.651725	3 2
-1.776664	3 3
-1.862579	3 4
-1.799527	3 5
-1.510396	3 6
-1.643453	3 7
-1.799527	3 8
-1.724276	3 9
-2.253785	3 :
-1.408687	3 </s>
-2.326336	3 ]
-2.288547	3 ·
-2.13728	3 έ
-2.221601	3 ή
-2.025306	3 α
-2.288547	3 β
-2.066699	3 γ
-2.221601	3 δ
-2.191637	3 ε
-1.92057	3 η
-2.288547	3 θ
-2.326336	3 ι
-1.677532	3 κ
-2.163609	3 μ
-1.459244	3 π
-1.849215	3 σ
-1.428209	3 τ
-2.326336	3 φ
-2.172962	4 "
-2.207724	4 %
-2.082785	4 (
-1.318422	4 )
-1.417674	4 ,
-2.245513	4 -
-1.23	4 .
-1.159801	4 /
-1.674121	4 0
-1.663656	4 1
-1.538717	4 2
-1.643453	4 3
-1.925178	4 4
-1.906694	4 5
-1.695841	4 6
-1.871932	4 7
-1.624148	4 8
-1.570902	4 9
-2.140777	4 :
-1.441807	4 </s>
-2.245513	4 e
-2.245513	4 ·
-2.245513	4 ά
-2.245513	4 έ
-2.245513	4 ή
-2.056456	4 α
-2.207724	4 γ
-2.172962	4 δ
-2.245513	4 ε
-1.718704	4 η
-2.245513	4 θ
-2.245513	4 ι
-1.768391	4 κ
-2.172962	4 μ
-2.245513	4 ν
-1.516053	4 π
-1.855542	4 σ
-1.596709	4 τ
-2.245513	4 ψ
-2.207724	4 ω
-1.738204	5 %
-1.977964	5 (
-1.302475	5 )
-1.471388	5 ,
-2.215325	5 -
-1.375904	5 .
-1.274446	5 /
-1.633469	5 0
-1.765356	5 1
-1.665653	5 2
-1.765356	5 3
-1.676934	5 4
-1.955688	5 5
-1.71265	5 6
-1.80956	5 7
-1.738204	5 8
-1.914295	5 9
-2.215325	5 :
-1.557748	5 </s>
-2.215325	5 ]
-2.215325	5 ^
-2.177536	5 k
-2.215325	5 m
-2.11059	5 ·
-2.215325	5 »
-2.215325	5 έ
-2.142774	5 ή
-1.977964	5 α
-2.052598	5 γ
-2.052598	5 δ
-2.177536	5 ε
-2.177536	5 ζ
-1.557748	5 η
-2.177536	5 ι
-1.665653	5 κ
-2.215325	5 λ
-2.177536	5 μ
-1.464326	5 π
-1.955688	5 σ
-1.549148	5 τ
-2.177536	5 υ
-2.177536	5 χ
-2.174082	6 %
-2.009272	6 (
-1.488685	6 )
-1.401535	6 ,
-2.208844	6 -
-1.468482	6 .
-1.025574	6 /
-1.532151	6 0
-1.825628	6 1
-1.532151	6 2
-1.810904	6 3
-1.719824	6 4
-1.782876	6 5
-1.475112	6 6
-1.572022	6 7
-1.455517	6 8
-1.810904	6 9
-2.246633	6 :
-1.555632	6 </s>
-2.246633	6 ·
-2.246633	6 »
-2.246633	6 έ
-2.111934	6 α
-2.032753	6 γ
-2.111934	6 δ
-2.174082	6 ε
-1.625268	6 η
-2.246633	6 ι
-1.825628	6 κ
-2.174082	6 μ
-2.246633	6 ν
-1.589056	6 π
-2.111934	6 σ
-1.644573	6 τ
-2.208844	6 υ
-2.246633	6 ό
-2.255674	7 %
-2.033826	7 (
-1.662758	7 )
-1.549526	7 ,
-2.293463	7 -
-1.766654	7 .
-1.220912	7 /
-1.602462	7 0
-1.743791	7 1
-1.64466	7 2
-1.711606	7 3
-1.803377	7 4
-1.571428	7 5
-1.61058	7 6
-1.564004	7 7
-1.515312	7 8
-1.743791	7 9
-2.293463	7 :
-0.9334552	7 </s>
-2.255674	7 ·
-2.293463	7 »
-2.220912	7 έ
-2.188728	7 α
-2.255674	7 β
-1.992433	7 γ
-2.293463	7 δ
-2.220912	7 ε
-1.701387	7 η
-2.293463	7 θ
-1.903492	7 κ
-2.293463	7 λ
-2.293463	7 μ
-2.220912	7 ο
-1.586668	7 π
-2.130736	7 σ
-1.564004	7 τ
-2.293463	7 φ
-1.371068	7 ό
-2.240322	8 "
-2.002961	8 (
-1.549321	8 )
-1.668931	8 ,
-2.167772	8 -
-1.574145	8 .
-1.031295	8 /
-1.713513	8 0
-1.52584	8 1
-1.776565	8 2
-1.713513	8 3
-1.763201	8 4
-1.549321	8 5
-1.541352	8 6
-1.406654	8 7
-1.565712	8 8
-1.418392	8 9
-1.609617	8 </s>
-2.240322	8 ]
-2.202534	8 ^
-2.202534	8 ·
-2.240322	8 έ
-2.240322	8 ή
-2.105624	8 α
-2.077595	8 γ
-2.077595	8 δ
-1.679655	8 η
-2.240322	8 ι
-1.850351	8 κ
-2.202534	8 μ
-2.240322	8 ν
-1.574145	8 π
-2.167772	8 σ
-1.574145	8 τ
-2.240322	8 φ
-2.202534	8 ω
-2.240322	8 ό
-2.396358	9 %
-2.323807	9 (
-1.804282	9 )
-1.73018	9 ,
-2.358569	9 -
-1.765653	9 .
-1.215034	9 /
-1.416561	9 0
-1.392428	9 1
-1.369565	9 2
-1.396358	9 3
-1.556937	9 4
-1.562689	9 5
-1.377053	9 6
-1.344329	9 7
-1.239093	9 8
-0.8625627	9 9
-2.396358	9 :
-1.835691	9 </s>
-2.396358	9 ]
-2.358569	9 e
-2.358569	9 ·
-2.291623	9 α
-2.291623	9 β
-2.323807	9 γ
-2.358569	9 δ
-2.291623	9 ε
-2.396358	9 ζ
-1.835691	9 η
-2.396358	9 θ
-2.396358	9 ι
-1.975353	9 κ
-2.396358	9 ν
-2.291623	9 ο
-1.747555	9 π
-2.158997	9 σ
-1.835691	9 τ
-2.396358	9 φ
-1.772372	: "
-2.193377	: '
-2.120827	: -
-2.193377	: .
-2.058679	: 1
-2.193377	: 3
-0.5255004	: </s>
-2.155589	: «
-2.193377	: ά
-1.956017	: α
-2.058679	: ε
-1.956017	: η
-2.155589	: θ
-1.956017	: κ
-2.193377	: μ
-2.155589	: ν
-1.892348	: ο
-2.193377	: π
-2.120827	: σ
-1.239135	: τ
-2.155589	: υ
-2.193377	: χ
-1.666569	: ό
-1.926428	; </s>
-1.964217	; ι
-1.916709	<s> "
-1.234884	<s> (
-1.239278	<s> -
-1.3077	<s> 1
-1.316403	<s> 2
-1.515976	<s> 3
-1.784821	<s> 4
-1.960912	<s> 5
-2.190586	<s> 6
-2.261942	<s> 7
-2.430347	<s> 8
-2.430347	<s> 9
-2.562972	<s> [
-2.667708	<s> b
-2.629919	<s> d
-2.667708	<s> h
-2.018904	<s> i
-2.667708	<s> o
-2.667708	<s> s
-2.595157	<s> v
-1.984824	<s> «
-1.016253	<s> ά
-1.722329	<s> έ
-2.667708	<s> ή
-2.629919	<s> ί
-1.499585	<s> α
-1.595157	<s> β
-1.530123	<s> γ
-1.876591	<s> δ
-1.334352	<s> ε
-2.386881	<s> ζ
-1.441929	<s> η
-2.478651	<s> θ
-2.277736	<s> ι
-1.800615	<s> κ
-2.118036	<s> μ
-2.667708	<s> ν
-1.446649	<s> ο
-2.055888	<s> π
-2.075632	<s> ρ
-1.745312	<s> σ
-1.146807	<s> τ
-2.533009	<s> υ
-2.629919	<s> χ
-2.328889	<s> ω
-1.213556	<s> ό
-1.964645	= 0
-1.964645	= 3
-1.926857	= 5
-1.85991	> =
-1.965073	[ c
-1.965073	[ s
-1.892523	[ κ
-1.860338	] </s>
-1.965073	] π
-1.73828	^ (
-1.937852	^ 1
-1.975641	^ 8
-1.937852	^ α
-1.975641	^ γ
-1.90309	^ ε
-1.975641	^ ι
-1.812913	^ ν
-1.975641	^ σ
-1.870905	^ τ
-2.049922	a (
-1.977372	a )
-1.977372	a -
-2.012134	a .
-2.049922	a /
-2.049922	a 2
-2.012134	a 9
-1.887195	a a
-1.977372	a b
-1.535013	a c
-1.729587	a d
-1.915224	a e
-1.887195	a f
-1.915224	a g
-1.977372	a i
-1.586165	a l
-1.711104	a m
-1.478531	a n
-2.012134	a o
-1.945187	a p
-2.049922	a q
-1.628917	a r
-1.769096	a s
-1.614194	a t
-2.012134	a u
-1.977372	a v
-2.049922	a x
-1.977372	a y
-1.977372	a z
-2.049922	a δ
-2.012134	a κ
-2.049922	a ν
-2.049922	a π
-2.012134	a σ
-2.049922	a υ
-1.978969	b ,
-1.978969	b 1
-1.84427	b a
-1.719331	b e
-1.978969	b g
-1.94118	b h
-1.978969	b i
-1.978969	b j
-1.978969	b l
-1.978969	b o
-1.789912	b u
-1.906418	b y
-1.978969	b é
-1.978969	b α
-1.978969	b κ
-1.978969	b τ
-1.983777	c (
-1.983777	c )
-2.021565	c ,
-2.021565	c 2
-1.983777	c 3
-1.983777	c 7
-2.021565	c 9
-1.858838	c a
-1.983777	c c
-1.60056	c e
-1.761928	c h
-1.70123	c i
-2.021565	c k
-1.949014	c l
-2.021565	c m
-1.983777	c n
-1.6158	c o
-1.665018	c p
-1.949014	c s
-1.949014	c t
-1.460898	c u
-1.983777	c y
-2.021565	c «
-2.021565	c ή
-2.021565	c α
-1.983777	c γ
-2.021565	c κ
-2.021565	c σ
-1.833705	d "
-1.996432	d ,
-1.996432	d </s>
-1.833705	d a
-1.958644	d b
-1.996432	d c
-1.560704	d e
-1.891697	d g
-1.861733	d h
-1.736795	d i
-1.996432	d j
-1.996432	d k
-1.996432	d l
-1.996432	d m
-1.958644	d n
-1.807376	d o
-1.958644	d p
-1.891697	d r
-1.996432	d t
-1.958644	d u
-1.958644	d v
-1.996432	d w
-1.992587	e "
-2.065138	e (
-1.805501	e )
-1.992587	e ,
-2.02735	e -
-1.851258	e a
-1.526747	e c
-1.827777	e d
-1.992587	e e
-1.960403	e f
-1.992587	e g
-1.960403	e h
-1.93044	e i
-1.992587	e k
-1.851258	e l
-1.876082	e m
-1.575052	e n
-2.02735	e o
-1.744803	e r
-1.473062	e s
-1.659373	e t
-1.601381	e u
-2.02735	e v
-2.065138	e w
-1.960403	e x
-2.065138	e ·
-1.960403	e »
-2.02735	e α
-2.065138	e ε
-1.562463	e κ
-2.02735	e μ
-1.764108	e ο
-2.065138	e σ
-1.985141	f (
-1.985141	f )
-1.947352	f 1
-1.725503	f a
-1.796084	f e
-1.91259	f f
-1.985141	f g
-1.91259	f i
-1.91259	f l
-1.822413	f o
-1.880405	f r
-1.91259	f t
-1.850442	f u
-1.985141	f α
-1.91259	f κ
-1.978969	g "
-1.978969	g (
-1.94118	g ,
-1.978969	g /
-1.816241	g a
-1.978969	g b
-1.978969	g d
-1.84427	g e
-1.978969	g g
-1.978969	g i
-1.978969	g l
-1.978969	g m
-1.94118	g o
-1.741608	g r
-1.94118	g s
-1.978969	g u
-1.978969	g ι
-1.978969	g κ
-1.913814	h )
-1.986364	h ,
-1.913814	h -
-1.986364	h .
-1.986364	h /
-1.948576	h 1
-1.986364	h 3
-1.986364	h 8
-1.685335	h a
-1.851666	h e
-1.823637	h i
-1.986364	h l
-1.948576	h m
-1.823637	h o
-1.948576	h r
-1.948576	h s
-1.986364	h w
-1.881629	h y
-1.986364	h υ
-1.986364	h ό
-1.327075	i )
-1.640339	i ,
-2.143015	i -
-1.953959	i .
-2.143015	i :
-2.03828	i </s>
-1.82268	i a
-2.070464	i b
-1.841985	i c
-1.841985	i d
-1.883377	i e
-1.953959	i f
-2.105226	i g
-1.008316	i i
-2.03828	i l
-1.883377	i m
-1.616206	i n
-1.862188	i o
-2.070464	i p
-2.105226	i q
-1.929135	i r
-1.72201	i s
-1.841985	i t
-2.105226	i u
-1.494211	i v
-2.105226	i x
-2.143015	i z
-1.980288	i ·
-2.143015	i ó
-2.143015	i έ
-2.143015	i ή
-1.929135	i α
-2.143015	i β
-2.143015	i γ
-2.143015	i ε
-2.143015	i ι
-1.72201	i κ
-2.070464	i μ
-2.105226	i π
-1.980288	i σ
-1.593343	i τ
-1.964217	j a
-1.964217	j e
-1.964217	j o
-1.969755	k a
-1.969755	k c
-1.931966	k e
-1.931966	k g
-1.969755	k k
-1.969755	k m
-1.835056	k o
-1.969755	k s
-1.969755	k κ
-1.969755	k τ
-1.998418	l '
-1.863719	l ,
-1.998418	l -
-1.893682	l .
-1.998418	l 1
-1.925867	l 2
-1.998418	l 3
-1.624837	l a
-1.960629	l b
-1.960629	l c
-1.893682	l d
-1.835691	l e
-1.863719	l f
-1.998418	l g
-1.738781	l i
-1.998418	l l
-1.998418	l n
-1.738781	l o
-1.925867	l s
-1.893682	l t
-1.925867	l u
-1.960629	l κ
-1.897627	m (
-2.002362	m )
-1.813306	m ,
-1.964574	m -
-2.002362	m .
-2.002362	m /
-2.002362	m 2
-2.002362	m 7
-1.682027	m a
-2.002362	m b
-1.663544	m e
-1.663544	m i
-1.897627	m m
-1.765002	m o
-1.867664	m p
-1.897627	m s
-2.002362	m t
-2.002362	m u
-1.964574	m y
-2.002362	m »
-2.002362	m γ
-2.002362	m δ
-2.002362	m ε
-2.002362	m κ
-2.002362	m μ
-2.002362	m ο
-2.002362	m π
-1.964574	m σ
-2.015512	n "
-1.977724	n (
-1.977724	n )
-1.977724	n +
-1.910777	n ,
-1.977724	n -
-1.977724	n 9
-1.734686	n a
-1.977724	n b
-1.942961	n c
-1.594507	n d
-1.695177	n e
-1.801632	n g
-1.977724	n h
-1.538391	n i
-2.015512	n m
-1.942961	n o
-1.880814	n r
-1.826456	n s
-1.695177	n t
-2.015512	n u
-1.977724	n z
-2.015512	n α
-2.015512	n ι
-2.031225	o "
-2.031225	o (
-1.868497	o )
-1.926489	o ,
-1.71089	o -
-2.031225	o 2
-2.031225	o 7
-2.031225	o a
-1.993436	o b
-1.842169	o c
-1.958674	o d
-2.031225	o e
-1.896526	o f
-1.993436	o g
-1.993436	o h
-2.031225	o i
-1.868497	o k
-1.657644	o l
-1.771587	o m
-1.528549	o n
-1.993436	o o
-1.896526	o p
-1.750398	o r
-1.71089	o s
-1.958674	o t
-1.926489	o u
-1.868497	o v
-1.896526	o x
-2.031225	o y
-2.031225	o }
-2.031225	o »
-2.031225	o έ
-1.993436	o ή
-2.031225	o α
-2.031225	o δ
-2.031225	o ο
-1.958674	o π
-2.031225	o ρ
-2.031225	o σ
-2.031225	o τ
-1.985141	p (
-1.947352	p )
-1.947352	p -
-1.985141	p .
-1.850442	p a
-1.985141	p b
-1.985141	p c
-1.880405	p e
-1.880405	p h
-1.947352	p i
-1.985141	p l
-1.822413	p o
-1.947352	p p
-1.822413	p r
-1.985141	p s
-1.947352	p t
-1.985141	p u
-1.771261	p v
-1.91259	p y
-1.891666	q u
-2.037789	r (
-2.037789	r )
-2	r ,
-2.037789	r -
-2	r .
-2.037789	r 3
-2	r 6
-2.037789	r :
-1.416423	r a
-1.933053	r b
-1.933053	r c
-1.90309	r d
-1.547702	r e
-2.037789	r f
-2	r g
-1.933053	r h
-1.800428	r i
-2	r m
-1.965238	r n
-1.266268	r o
-2	r p
-1.848732	r r
-1.965238	r s
-2	r t
-1.823909	r u
-2.037789	r v
-2.037789	r w
-1.965238	r y
-2	r å
-2.037789	r π
-1.886115	s "
-1.948262	s (
-1.806933	s )
-1.858086	s ,
-1.983025	s -
-2.020813	s .
-2.020813	s 5
-2.020813	s 7
-2.020813	s 8
-1.983025	s </s>
-1.739987	s a
-1.806933	s c
-2.020813	s d
-1.783452	s e
-1.948262	s f
-1.983025	s g
-1.948262	s h
-1.886115	s i
-2.020813	s k
-2.020813	s l
-1.761176	s m
-1.806933	s o
-2.020813	s p
-1.983025	s r
-1.700478	s s
-1.585085	s t
-1.831757	s u
-2.020813	s ή
-1.983025	s α
-2.020813	s θ
-2.020813	s κ
-2.020813	s π
-1.948262	s σ
-2.010531	t (
-1.937981	t )
-2.010531	t ,
-2.010531	t -
-2.010531	t 1
-2.010531	t 2
-2.010531	t 3
-1.589526	t a
-2.010531	t b
-1.972743	t c
-2.010531	t d
-1.671713	t e
-2.010531	t f
-1.972743	t g
-1.77317	t h
-1.636951	t i
-1.937981	t o
-1.62056	t r
-1.937981	t s
-1.972743	t t
-1.821475	t u
-2.010531	t v
-2.010531	t w
-1.972743	t y
-2.010531	t ·
-2.010531	t »
-2.010531	t å
-2.010531	t α
-2.010531	t θ
-2.010531	t ο
-2.010531	t τ
-1.845098	u ,
-1.873127	u .
-1.970037	u a
-1.935275	u c
-2.007825	u d
-1.90309	u e
-2.007825	u f
-1.970037	u i
-1.770464	u l
-1.726999	u m
-1.873127	u n
-2.007825	u p
-1.396006	u r
-1.845098	u s
-1.935275	u t
-1.970037	u u
-1.818769	u α
-2.007825	u γ
-2.007825	u ε
-1.970037	u κ
-2.007825	u ο
-1.970037	u τ
-2.02006	v "
-1.782699	v )
-1.80618	v ,
-1.885361	v .
-2.02006	v 7
-1.947509	v </s>
-1.915324	v a
-1.982271	v e
-1.216354	v i
-1.947509	v o
-2.02006	v v
-2.02006	v ·
-2.02006	v ή
-1.982271	v α
-1.947509	v γ
-1.947509	v δ
-2.02006	v ε
-1.915324	v ι
-1.739233	v κ
-1.982271	v π
-1.915324	v σ
-1.699725	v τ
-1.92814	w a
-1.861193	w i
-1.965928	w y
-1.934077	x ,
-1.971866	x 1
-1.78281	x a
-1.971866	x e
-1.78281	x i
-1.971866	x y
-1.971866	x κ
-1.971866	x τ
-1.936597	y a
-1.974386	y c
-1.974386	y d
-1.974386	y h
-1.78533	y l
-1.936597	y m
-1.936597	y o
-1.936597	y p
-1.839687	y r
-1.974386	y s
-1.974386	y w
-1.974386	y z
-1.974386	y μ
-1.967207	z a
-1.967207	z g
-1.894657	z i
-1.894657	z o
-1.967207	z κ
-1.967207	z ο
-1.963359	{ θ
-1.963359	} ;
-2.01322	« -
-1.799341	« 1
-1.908485	« 2
-1.824164	« 3
-2.01322	« 4
-2.01322	« 5
-1.975432	« 6
-2.01322	« 7
-1.908485	« c
-2.01322	« m
-2.01322	« u
-2.01322	« v
-1.71219	« ά
-1.908485	« α
-2.01322	« β
-1.975432	« γ
-1.94067	« δ
-1.692885	« ε
-2.01322	« ζ
-1.975432	« η
-1.975432	« θ
-2.01322	« ι
-1.878522	« κ
-1.908485	« μ
-1.975432	« ν
-1.824164	« ο
-1.63964	« π
-1.975432	« σ
-1.824164	« τ
-2.01322	« φ
-1.94067	« χ
-1.908485	« ω
-1.963788	± 1
-1.963788	± 2
-0.7281052	· </s>
-2.075879	· α
-1.971143	· ε
-2.03809	· η
-2.075879	· θ
-1.94118	· κ
-2.075879	· μ
-2.075879	· ο
-2.003328	· π
-1.94118	· σ
-1.94118	· τ
-2.075879	· ω
-1.454513	· ό
-1.823398	» )
-1.591448	» ,
-1.462782	» .
-1.877755	» 7
-2.012454	» 8
-1.823398	» :
-1.522367	» </s>
-1.974665	» ·
-1.974665	» ή
-1.823398	» α
-2.012454	» γ
-2.012454	» δ
-1.939903	» κ
-2.012454	» μ
-1.939903	» ν
-1.974665	» ο
-1.939903	» π
-1.939903	» σ
-1.974665	» τ
-1.926428	å l
-1.964217	å r
-1.963359	é m
-1.963359	ó n
-1.813748	ΐ α
-1.762595	ΐ ν
-1.57071	ΐ ο
-2.95838	ά "
-2.817051	ά (
-2.926195	ά )
-2.227225	ά ,
-2.926195	ά -
-2.364753	ά .
-2.868203	ά 1
-3.030931	ά 2
-3.030931	ά 3
-3.030931	ά 5
-2.95838	ά 7
-2.750104	ά :
-2.926195	ά </s>
-3.030931	ά r
-3.030931	ά «
-3.030931	ά ±
-2.993142	ά ·
-2.993142	ά »
-2.993142	ά ά
-2.449074	ά έ
-2.528255	ά ή
-3.030931	ά ί
-2.0389	ά α
-2.085552	ά β
-1.140866	ά γ
-1.561778	ά δ
-2.272983	ά ε
-1.802811	ά ζ
-2.65735	ά η
-1.445983	ά θ
-2.65735	ά ι
-1.834277	ά κ
-1.062024	ά λ
-1.422989	ά μ
-1.267503	ά ν
-1.511222	ά ξ
-2.609926	ά ο
-1.574013	ά π
-0.7443518	ά ρ
-1.795862	ά ς
-1.137825	ά σ
-0.7847456	ά τ
-2.567173	ά υ
-1.545984	ά φ
-1.748041	ά χ
-2.841875	ά ψ
-2.95838	ά ω
-2.674383	ά ό
-3.030931	ά ύ
-3.030931	ά ώ
-2.982024	έ ,
-1.639602	έ α
-2.518267	έ β
-1.449386	έ γ
-1.912827	έ δ
-2.546296	έ ε
-2.744663	έ ζ
-2.909474	έ η
-2.210504	έ θ
-1.765738	έ κ
-0.9851944	έ λ
-1.8561	έ μ
-0.8255854	έ ν
-2.252565	έ ξ
-2.019096	έ ο
-0.9977017	έ π
-1.002228	έ ρ
-0.9182476	έ ς
-1.253302	έ σ
-1.188996	έ τ
-2.455215	έ φ
-1.091451	έ χ
-2.455215	έ ψ
-1.929995	έ ω
-2.982024	έ ό
-2.541003	ή "
-2.876795	ή '
-2.677223	ή (
-2.914583	ή )
-1.66151	ή ,
-2.677223	ή -
-2.001734	ή .
-2.104718	ή /
-2.809848	ή 1
-2.914583	ή 2
-2.779885	ή 3
-2.914583	ή 4
-2.876795	ή 5
-2.613554	ή 7
-2.914583	ή 9
-2.633757	ή :
-2.343192	ή </s>
-2.914583	ή a
-2.914583	ή f
-2.914583	ή p
-2.914583	ή r
-2.876795	ή t
-2.914583	ή «
-2.725527	ή ·
-2.654946	ή »
-2.293218	ή ά
-2.058349	ή έ
-2.239973	ή ή
-2.842033	ή ί
-1.484684	ή α
-2.312524	ή β
-1.816097	ή γ
-1.725527	ή δ
-1.419418	ή ε
-2.524612	ή ζ
-2.092653	ή η
-1.471676	ή θ
-2.613554	ή ι
-1.283878	ή κ
-1.914584	ή λ
-1.26934	ή μ
-1.665942	ή ν
-2.508818	ή ξ
-1.852172	ή ο
-1.348521	ή π
-1.551142	ή ρ
-0.6643854	ή ς
-0.9879605	ή σ
-0.9335479	ή τ
-2.293218	ή υ
-2.086745	ή φ
-2.364912	ή χ
-2.464615	ή ψ
-2.751856	ή ω
-2.387774	ή ό
-2.876795	ή ύ
-2.914583	ή ώ
-2.983716	ί (
-2.296485	ί ,
-2.881054	ί .
-3.118415	ί 1
-2.955688	ί 7
-3.118415	ί :
-3.080626	ί </s>
-3.118415	ί t
-3.080626	ί ·
-3.118415	ί »
-2.817385	ί ά
-2.71265	ί έ
-2.728444	ί ή
-0.6201045	ί α
-2.31471	ί β
-2.118415	ί γ
-1.481289	ί δ
-1.240207	ί ε
-1.250787	ί ζ
-1.556663	ί η
-1.926812	ί θ
-2.728444	ί ι
-1.931921	ί κ
-1.983716	ί λ
-1.585776	ί μ
-1.075947	ί ν
-2.215325	ί ξ
-0.9355337	ί ο
-1.512425	ί π
-1.796196	ί ρ
-1.958411	ί ς
-1.154198	ί σ
-1.221288	ί τ
-2.817385	ί υ
-2.955688	ί φ
-2.526339	ί χ
-2.69741	ί ψ
-1.348233	ί ω
-2.443805	ί ό
-3.118415	ί ώ
-3.266373	α "
-3.629551	α '
-2.972642	α (
-2.389386	α )
-2.041926	α ,
-3.238344	α -
-2.419212	α .
-3.597366	α /
-3.281096	α 1
-3.062253	α 2
-3.328521	α 3
-3.539374	α 4
-3.421275	α 5
-3.381766	α 6
-2.92395	α 7
-3.062253	α 8
-2.880171	α 9
-2.734894	α :
-3.080736	α </s>
-3.629551	α a
-3.702101	α c
-3.597366	α e
-3.702101	α f
-3.702101	α h
-2.880171	α i
-3.702101	α n
-3.629551	α r
-3.597366	α s
-3.175292	α v
-3.664313	α x
-3.567403	α «
-3.163711	α ·
-3.488222	α »
-3.296336	α ΐ
-2.664313	α ά
-2.419212	α έ
-2.533979	α ή
-1.803476	α ί
-1.6654	α α
-2.185987	α β
-1.467722	α γ
-1.831804	α δ
-1.741328	α ε
-2.435998	α ζ
-2.958164	α η
-1.705271	α θ
-0.845098	α ι
-1.400085	α κ
-1.61316	α λ
-1.498228	α μ
-1.093478	α ν
-2.126494	α ξ
-2.056858	α ο
-1.059637	α π
-1.010136	α ρ
-1.38977	α ς
-1.258057	α σ
-0.9111129	α τ
-1.686589	α υ
-1.431952	α φ
-2.118182	α χ
-3.345554	α ψ
-3.381766	α ω
-2.160295	α ϊ
-2.851399	α ό
-2.886162	α ύ
-3.345554	α ώ
-2.619188	β (
-1.361728	β )
-2.359551	β ,
-2.405308	β -
-2.514453	β .
-2.5814	β 1
-2.619188	β 7
-2.619188	β </s>
-0.7373369	β ά
-2.381827	β έ
-2.047797	β ή
-2.007368	β ί
-0.9387703	β α
-2.169219	β δ
-1.338362	β ε
-2.229217	β η
-1.435272	β ι
-2.405308	β κ
-0.8964048	β λ
-2.546638	β μ
-0.828072	β ο
-2.619188	β π
-1.276766	β ρ
-2.5814	β σ
-2.381827	β τ
-2.619188	β υ
-2.298853	β ω
-2.430132	β ό
-2.213423	β ώ
-2.997859	γ (
-1.88952	γ )
-2.798287	γ ,
-2.997859	γ .
-3.035648	γ 7
-3.035648	γ ·
-1.909723	γ ά
-1.930913	γ έ
-1.164287	γ ή
-1.103913	γ ί
-1.27222	γ α
-1.67392	γ γ
-2.963097	γ δ
-1.216104	γ ε
-1.702292	γ η
-0.7295156	γ ι
-1.298889	γ κ
-2.433588	γ λ
-1.608693	γ μ
-1.503009	γ ν
-2.997859	γ ξ
-1.151729	γ ο
-2.872921	γ π
-1.014459	γ ρ
-2.997859	γ σ
-2.846592	γ τ
-2.336678	γ υ
-1.58849	γ χ
-1.146601	γ ω
-1.903854	γ ό
-2.571891	γ ύ
-1.959769	γ ώ
-2.918904	δ (
-2.0896	δ )
-2.956692	δ .
-2.063586	δ ά
-2.043842	δ έ
-1.877511	δ ή
-1.377949	δ ί
-1.431059	δ α
-2.851957	δ γ
-0.8858151	δ ε
-0.9723695	δ η
-0.4811531	δ ι
-2.918904	δ κ
-1.127096	δ ο
-2.956692	δ π
-1.299984	δ ρ
-2.956692	δ τ
-1.461526	δ υ
-1.740406	δ ω
-1.937387	δ ό
-1.495658	δ ύ
-2.117271	δ ώ
-3.376999	ε (
-2.795789	ε )
-3.062605	ε ,
-3.467175	ε -
-3.200907	ε .
-3.501937	ε 0
-3.539726	ε 1
-3.376999	ε 2
-3.467175	ε 3
-3.501937	ε 4
-3.539726	ε 7
-3.539726	ε 9
-3.35067	ε :
-3.501937	ε </s>
-3.302365	ε e
-3.539726	ε f
-3.501937	ε l
-3.501937	ε ·
-3.539726	ε »
-3.325846	ε ΐ
-2.225093	ε ά
-2.810267	ε έ
-3.467175	ε ή
-1.017875	ε ί
-2.236727	ε α
-2.304657	ε β
-1.882149	ε γ
-1.865115	ε δ
-2.213763	ε ε
-2.899878	ε ζ
-2.979059	ε η
-2.081432	ε θ
-0.8636979	ε ι
-1.363109	ε κ
-1.503025	ε λ
-1.696323	ε μ
-1.121575	ε ν
-1.663088	ε ξ
-1.7113	ε ο
-1.096961	ε π
-1.133496	ε ρ
-1.254578	ε ς
-1.472216	ε σ
-0.9524233	ε τ
-1.380542	ε υ
-1.615917	ε φ
-2.174578	ε χ
-2.968335	ε ψ
-1.541308	ε ω
-3.376999	ε ϊ
-2.761575	ε ό
-1.99792	ε ύ
-2.551735	ε ώ
-1.995484	ζ )
-1.702007	ζ ά
-2.416489	ζ έ
-1.995484	ζ ή
-2.227433	ζ ί
-2.059942	ζ α
-0.6754093	ζ ε
-1.420455	ζ η
-1.926403	ζ ι
-0.6544248	ζ ο
-2.416489	ζ τ
-2.416489	ζ υ
-1.386	ζ ω
-1.393424	ζ ό
-2.281791	ζ ύ
-1.165626	ζ ώ
-2.95262	η "
-3.253649	η '
-3.077558	η (
-2.85571	η )
-1.909819	η ,
-3.019566	η -
-2.272673	η .
-3.077558	η 1
-3.057355	η 2
-3.358385	η 3
-3.358385	η 5
-3.358385	η 6
-2.85571	η 7
-3.253649	η 8
-2.968414	η 9
-2.289188	η :
-3.057355	η </s>
-3.253649	η >
-3.358385	η a
-3.358385	η e
-3.358385	η i
-3.320596	η m
-3.358385	η n
-3.358385	η r
-3.077558	η «
-2.984804	η ·
-3.169329	η »
-2.776528	η ά
-2.475498	η έ
-2.465279	η ή
-3.077558	η ί
-1.678792	η α
-2.548519	η β
-1.249328	η γ
-1.575652	η δ
-1.507683	η ε
-2.894628	η ζ
-2.4807	η η
-1.792323	η θ
-2.431295	η ι
-1.53944	η κ
-1.949528	η λ
-1.000104	η μ
-0.835822	η ν
-3.223686	η ξ
-1.922656	η ο
-1.5553	η π
-1.43223	η ρ
-0.7206223	η ς
-1.107743	η σ
-0.9358845	η τ
-2.524716	η υ
-2.151804	η φ
-2.105311	η χ
-2.600437	η ψ
-3.223686	η ω
-2.709581	η ό
-3.285834	η ύ
-3.358385	η ώ
-2.678113	θ '
-2.611167	θ )
-1.244966	θ .
-2.891993	θ o
-2.891993	θ r
-2.320602	θ ά
-1.24319	θ έ
-1.520086	θ ή
-1.803052	θ ί
-1.294897	θ α
-0.6153227	θ ε
-1.319544	θ η
-2.299918	θ ι
-2.757295	θ λ
-1.575451	θ μ
-1.670935	θ ν
-1.080906	θ ο
-2.891993	θ π
-0.6963453	θ ρ
-1.787258	θ υ
-2.389318	θ ω
-2.169958	θ ό
-2.009107	θ ύ
-1.69534	θ ώ
-3.160115	ι "
-3.352	ι '
-3.227062	ι (
-3.285053	ι )
-3.56588	ι *
-1.928754	ι ,
-3.431181	ι -
-2.787729	ι .
-3.528091	ι /
-3.461145	ι 0
-2.96382	ι 1
-2.874879	ι 2
-3.05097	ι 3
-3.130152	ι 4
-3.306243	ι 5
-3.352	ι 6
-3.088759	ι 7
-3.175909	ι 8
-3.144875	ι 9
-2.935175	ι :
-2.944515	ι </s>
-3.56588	ι b
-3.528091	ι f
-3.56588	ι h
-3.306243	ι i
-3.528091	ι n
-3.56588	ι r
-3.56588	ι s
-3.285053	ι v
-3.493329	ι x
-3.431181	ι «
-3.493329	ι ·
-3.461145	ι »
-2.003047	ι ά
-2.17111	ι έ
-2.212821	ι ή
-3.144875	ι ί
-0.8583098	ι α
-2.106213	ι β
-1.992375	ι γ
-1.609013	ι δ
-1.46301	ι ε
-2.581967	ι ζ
-1.798387	ι η
-1.730478	ι θ
-2.107586	ι ι
-0.8567643	ι κ
-1.960869	ι λ
-1.449212	ι μ
-1.249719	ι ν
-2.648231	ι ξ
-1.220952	ι ο
-1.715735	ι π
-1.968783	ι ρ
-1.217044	ι ς
-0.8568414	ι σ
-1.055335	ι τ
-2.434086	ι υ
-2.496683	ι φ
-1.783798	ι χ
-2.917077	ι ψ
-2.26092	ι ω
-1.95406	ι ό
-3.376824	ι ύ
-1.883817	ι ώ
-3.110094	κ "
-2.448449	κ (
-1.674025	κ )
-2.327706	κ ,
-3.136423	κ -
-2.697091	κ .
-3.136423	κ 7
-3.136423	κ :
-3.194415	κ </s>
-3.194415	κ ^
-3.018324	κ ·
-1.27646	κ ά
-1.578615	κ έ
-1.199721	κ ή
-2.261362	κ ί
-0.4672808	κ α
-3.29915	κ β
-3.039513	κ γ
-2.344908	κ δ
-1.206685	κ ε
-1.761904	κ η
-2.391153	κ θ
-1.982608	κ ι
-2.240173	κ κ
-1.960332	κ λ
-2.495445	κ μ
-2.707075	κ ν
-1.008307	κ ο
-2.353771	κ π
-1.172931	κ ρ
-3.110094	κ σ
-1.310349	κ τ
-2.268661	κ υ
-2.437453	κ φ
-3.085271	κ χ
-2.115234	κ ω
-1.374871	κ ό
-2.442916	κ ύ
-1.379597	κ ώ
-2.980038	λ )
-2.980038	λ ,
-1.542532	λ ά
-1.222409	λ έ
-1.576786	λ ή
-1.310793	λ ί
-1.015887	λ α
-2.947854	λ β
-2.947854	λ γ
-0.9087229	λ ε
-0.9478537	λ η
-2.696042	λ θ
-1.153465	λ ι
-2.588832	λ κ
-1.087088	λ λ
-2.308652	λ μ
-3.052589	λ ξ
-0.7977554	λ ο
-2.863533	λ π
-2.294641	λ τ
-1.860986	λ υ
-1.597052	λ ω
-1.414554	λ ό
-1.92372	λ ύ
-1.694308	λ ώ
-3.249665	μ '
-3.211877	μ )
-3.249665	μ ,
-3.249665	μ /
-3.177114	μ 1
-3.177114	μ 2
-3.249665	μ 3
-3.249665	μ ·
-1.694461	μ ά
-0.8274635	μ έ
-1.869454	μ ή
-1.720515	μ ί
-0.9500192	μ α
-1.278643	μ β
-0.6767936	μ ε
-1.384723	μ η
-1.423002	μ ι
-3.177114	μ κ
-1.812491	μ μ
-2.688998	μ ν
-0.9452922	μ ο
-1.334889	μ π
-2.8439	μ σ
-3.14493	μ τ
-2.859694	μ υ
-1.499367	μ φ
-2.141839	μ ω
-1.149608	μ ό
-2.990028	μ ύ
-1.958619	μ ώ
-3.171974	ν "
-3.507766	ν '
-2.515065	ν (
-3.331675	ν )
-3.545554	ν *
-1.709	ν ,
-2.924189	ν -
-2.111276	ν .
-3.545554	ν /
-3.545554	ν 0
-2.57411	ν 1
-3.068433	ν 2
-3.206736	ν 3
-3.308194	ν 4
-3.473004	ν 5
-3.382827	ν 6
-2.780767	ν 7
-3.285917	ν 8
-3.356498	ν 9
-2.914849	ν :
-2.831072	ν </s>
-3.507766	ν a
-3.545554	ν b
-3.507766	ν c
-3.382827	ν e
-3.545554	ν g
-3.545554	ν i
-3.507766	ν o
-3.507766	ν r
-3.507766	ν v
-3.545554	ν «
-2.887977	ν ·
-3.545554	ν »
-1.827279	ν ά
-1.859406	ν έ
-2.00036	ν ή
-1.898527	ν ί
-0.7620407	ν α
-2.711886	ν β
-2.153978	ν γ
-1.519133	ν δ
-1.046368	ν ε
-2.526249	ν ζ
-1.680612	ν η
-2.004884	ν θ
-1.303194	ν ι
-1.372633	ν κ
-2.079091	ν λ
-1.784858	ν μ
-1.957538	ν ν
-3.507766	ν ξ
-0.9277919	ν ο
-1.233608	ν π
-2.995883	ν ρ
-1.541624	ν σ
-0.8573775	ν τ
-2.02704	ν υ
-2.729615	ν φ
-2.450227	ν χ
-3.081797	ν ψ
-1.584781	ν ω
-1.624104	ν ό
-3.124549	ν ύ
-1.835668	ν ώ
-2.442195	ξ .
-1.691196	ξ ά
-1.657513	ξ έ
-1.454203	ξ ή
-1.524546	ξ ί
-0.982528	ξ α
-0.6653614	ξ ε
-0.9177395	ξ η
-1.268743	ξ ι
-1.411705	ξ ο
-2.442195	ξ τ
-2.161368	ξ υ
-1.992226	ξ ω
-2.068614	ξ ό
-1.359736	ξ ύ
-3.22543	ο "
-3.33264	ο (
-3.500132	ο )
-2.365093	ο ,
-3.554489	ο -
-2.776338	ο .
-3.388158	ο 0
-1.998992	ο 1
-2.253459	ο 2
-2.485068	ο 3
-2.640675	ο 4
-2.771539	ο 5
-2.743809	ο 6
-2.786098	ο 7
-2.891731	ο 8
-2.911036	ο 9
-2.584452	ο :
-3.584452	ο </s>
-3.651399	ο ^
-3.689188	ο a
-3.651399	ο b
-3.689188	ο c
-3.689188	ο d
-3.584452	ο e
-3.150797	ο i
-3.689188	ο m
-3.689188	ο n
-3.689188	ο p
-3.689188	ο r
-3.651399	ο s
-3.689188	ο t
-3.451827	ο v
-3.584452	ο x
-3.52646	ο «
-3.42955	ο ·
-3.584452	ο »
-3.52646	ο ΐ
-1.868449	ο ά
-2.370745	ο έ
-2.855519	ο ή
-1.596722	ο ί
-2.050245	ο α
-1.794067	ο β
-1.652849	ο γ
-1.551891	ο δ
-1.949543	ο ε
-2.967152	ο ζ
-2.717743	ο η
-2.023863	ο θ
-1.132118	ο ι
-1.486551	ο κ
-1.753314	ο λ
-1.457811	ο μ
-1.059685	ο ν
-2.917667	ο ξ
-2.171872	ο ο
-1.105268	ο π
-1.222185	ο ρ
-1.389542	ο ς
-1.463878	ο σ
-1.570412	ο τ
-0.671737	ο υ
-1.876882	ο φ
-2.025573	ο χ
-2.917667	ο ψ
-3.388158	ο ω
-2.122054	ο ϊ
-2.709391	ο ϋ
-2.662395	ο ό
-1.206834	ο ύ
-3.212066	ο ώ
-2.993562	π '
-3.326777	π )
-3.185448	π .
-3.361539	π 7
-3.399328	π »
-2.112341	π ά
-2.291501	π έ
-1.520597	π ή
-1.668398	π ί
-0.8656479	π α
-3.361539	π γ
-1.03282	π ε
-2.114384	π η
-1.081834	π ι
-3.399328	π κ
-1.520597	π λ
-3.025747	π ν
-0.5555853	π ο
-0.8395297	π ρ
-1.572664	π τ
-3.060509	π υ
-3.399328	π φ
-3.399328	π ψ
-1.904162	π ω
-1.069652	π ό
-3.399328	π ύ
-2.307181	π ώ
-3.388142	ρ '
-3.460693	ρ )
-3.460693	ρ ,
-1.079168	ρ ά
-1.50252	ρ έ
-1.973169	ρ ή
-1.188008	ρ ί
-1.008767	ρ α
-2.615595	ρ β
-1.492635	ρ γ
-3.246813	ρ δ
-1.377255	ρ ε
-1.514419	ρ η
-1.2658	ρ θ
-0.9870069	ρ ι
-2.337733	ρ κ
-3.460693	ρ λ
-1.526654	ρ μ
-2.945783	ρ ν
-2.786082	ρ ξ
-0.5986699	ρ ο
-3.271637	ρ π
-2.650827	ρ ρ
-3.104146	ρ σ
-1.737163	ρ τ
-2.105886	ρ υ
-2.405175	ρ φ
-1.73493	ρ χ
-1.497764	ρ ω
-1.530346	ρ ό
-2.391496	ρ ύ
-1.765689	ρ ώ
-2.415439	ς "
-3.270756	ς '
-1.898151	ς (
-2.770154	ς )
-1.192179	ς ,
-2.463447	ς -
-1.58801	ς .
-3.235994	ς /
-1.793635	ς 1
-1.823598	ς 2
-2.185585	ς 3
-2.58651	ς 4
-2.726688	ς 5
-2.60175	ς 6
-2.13775	ς 7
-2.58651	ς 8
-2.239348	ς 9
-2.059903	ς :
-3.270756	ς ;
-2.341337	ς </s>
-3.20381	ς ^
-3.173846	ς a
-3.270756	ς b
-3.094665	ς c
-3.235994	ς e
-3.308545	ς f
-3.270756	ς h
-2.831424	ς i
-3.308545	ς n
-3.308545	ς p
-3.20381	ς r
-3.308545	ς t
-2.934964	ς v
-2.770154	ς «
-2.367666	ς ·
-2.831424	ς »
-2.38615	ς ά
-2.13775	ς έ
-1.848878	ς ή
-2.872816	ς ί
-1.139619	ς α
-2.345616	ς β
-1.64322	ς γ
-1.433484	ς δ
-1.052615	ς ε
-2.38615	ς ζ
-2.441453	ς η
-2.320554	ς θ
-1.99969	ς ι
-1.068904	ς κ
-2.222833	ς λ
-1.400548	ς μ
-1.934964	ς ν
-3.235994	ς ξ
-1.350807	ς ο
-0.9902919	ς π
-2.564608	ς ρ
-1.253375	ς σ
-0.9371412	ς τ
-1.826191	ς υ
-2.312511	ς φ
-2.059903	ς χ
-3.094665	ς ψ
-2.793635	ς ω
-2.001633	ς ό
-3.071184	ς ύ
-3.007515	ς ώ
-3.010724	σ '
-3.103478	σ .
-2.647546	σ ά
-2.834633	σ έ
-2.097318	σ ή
-1.389867	σ ί
-1.516141	σ α
-2.857496	σ β
-2.593188	σ δ
-0.9487208	σ ε
-0.800179	σ η
-2.124667	σ θ
-1.491199	σ ι
-1.663769	σ κ
-3.249606	σ λ
-1.123366	σ μ
-1.520982	σ ο
-1.924638	σ π
-3.346516	σ ρ
-2.131231	σ σ
-0.6121829	σ τ
-1.093663	σ υ
-1.743552	σ φ
-1.497301	σ χ
-1.871814	σ ω
-1.967815	σ ό
-1.621558	σ ύ
-2.52807	σ ώ
-3.346516	σ ’
-2.807275	τ '
-3.018128	τ )
-3.620188	τ ,
-3.620188	τ .
-3.657977	τ 5
-1.505133	τ ά
-1.980038	τ έ
-1.587435	τ ή
-2.053947	τ ί
-0.7280471	τ α
-3.585426	τ β
-1.349898	τ ε
-3.657977	τ ζ
-0.6983283	τ η
-0.9874778	τ ι
-3.585426	τ κ
-3.027272	τ λ
-2.848111	τ μ
-3.620188	τ ν
-0.6825449	τ ο
-3.37715	τ π
-1.296249	τ ρ
-3.657977	τ ς
-3.319158	τ σ
-3.398339	τ τ
-2.37715	τ υ
-1.136007	τ ω
-1.761851	τ ό
-2.699369	τ ύ
-1.939702	τ ώ
-3.657977	τ ’
-3.186282	υ "
-3.258833	υ '
-2.487313	υ (
-3.124135	υ )
-1.806071	υ ,
-3.221045	υ -
-2.365727	υ .
-1.649918	υ 1
-2.098829	υ 2
-2.61003	υ 3
-2.920015	υ 4
-2.837828	υ 5
-2.837828	υ 6
-2.823105	υ 7
-3.021472	υ 8
-3.069777	υ 9
-3.069777	υ :
-2.823105	υ </s>
-3.258833	υ ^
-3.258833	υ b
-3.154098	υ c
-3.069777	υ e
-3.258833	υ f
-3.258833	υ h
-3.186282	υ m
-3.258833	υ p
-3.221045	υ r
-3.258833	υ s
-3.258833	υ v
-3.258833	υ «
-2.902286	υ ·
-1.821659	υ ά
-1.984255	υ έ
-2.210321	υ ή
-3.021472	υ ί
-1.320222	υ α
-2.425164	υ β
-1.610917	υ γ
-1.814504	υ δ
-1.524251	υ ε
-2.902286	υ ζ
-2.57595	υ η
-1.567029	υ θ
-2.487313	υ ι
-1.35525	υ κ
-1.3775	υ λ
-1.223585	υ μ
-0.8881014	υ ν
-2.287389	υ ξ
-1.920015	υ ο
-0.953091	υ π
-1.457617	υ ρ
-1.069011	υ ς
-1.038012	υ σ
-1.129964	υ τ
-2.397136	υ υ
-2.375947	υ φ
-2.047373	υ χ
-2.637468	υ ψ
-3.124135	υ ω
-2.402599	υ ό
-3.096106	υ ύ
-2.885252	υ ώ
-2.456305	φ '
-1.432641	φ ά
-1.109171	φ έ
-1.655588	φ ή
-1.733671	φ ί
-0.7450044	φ α
-1.334417	φ ε
-1.812853	φ η
-1.636761	φ θ
-1.517786	φ ι
-2.146675	φ λ
-2.812853	φ μ
-0.6286776	φ ο
-2.623796	φ π
-1.812853	φ ρ
-2.708117	φ τ
-1.636761	φ υ
-1.046034	φ ω
-1.525866	φ ό
-1.753875	φ ύ
-1.985014	φ ώ
-2.356883	χ )
-2.673153	χ ,
-2.643189	χ .
-2.239497	χ ά
-1.316854	χ έ
-1.319594	χ ή
-1.855493	χ ί
-1.507527	χ α
-2.740099	χ γ
-0.6431894	χ ε
-1.889862	χ η
-1.889862	χ θ
-1.474888	χ ι
-2.705337	χ κ
-2.540527	χ λ
-1.732921	χ ν
-0.792339	χ ο
-0.9686344	χ ρ
-2.564008	χ τ
-1.806443	χ υ
-1.470976	χ ω
-1.823645	χ ό
-1.41788	χ ύ
-1.38153	χ ώ
-2.150896	ψ ά
-2.150896	ψ έ
-1.520191	ψ ή
-1.870069	ψ ί
-1.937016	ψ α
-1.228501	ψ ε
-0.6182573	ψ η
-2.113107	ψ ι
-1.635986	ψ ο
-1.849866	ψ υ
-2.113107	ψ ύ
-2.81002	ω ,
-2.97483	ω .
-3.047381	ω :
-2.97483	ω ά
-2.833501	ω έ
-2.708563	ω ή
-2.364498	ω α
-2.435561	ω β
-1.344481	ω γ
-2.115646	ω δ
-2.465524	ω ε
-2.912683	ω ζ
-2.912683	ω η
-2.047381	ω θ
-2.364498	ω ι
-2.325346	ω κ
-2.317922	ω λ
-1.65741	ω μ
-0.2987702	ω ν
-2.912683	ω ξ
-2.237515	ω ο
-1.315719	ω π
-1.462433	ω ρ
-1.00277	ω ς
-1.075937	ω σ
-1.38807	ω τ
-2.912683	ω υ
-3.009593	ω φ
-2.641616	ω χ
-2.97483	ω ϊ
-2.97483	ω ό
-3.047381	ω ώ
-2.210975	ϊ δ
-0.6601908	ϊ κ
-2.021919	ϊ ν
-2.210975	ϊ ο
-2.210975	ϊ σ
-0.653577	ϊ ό
-1.812913	ϋ γ
-1.964181	ϋ δ
-1.065639	ϋ π
-2.00197	ϋ φ
-2.91066	ό "
-1.922398	ό (
-3.00757	ό )
-2.132509	ό ,
-2.940623	ό -
-2.568237	ό .
-2.940623	ό 0
-2.882631	ό 1
-2.91066	ό 2
-3.045359	ό 3
-3.045359	ό 4
-3.00757	ό 5
-3.00757	ό 6
-2.882631	ό 7
-2.882631	ό :
-3.00757	ό </s>
-2.972808	ό r
-3.00757	ό «
-3.045359	ό ±
-2.972808	ό ·
-3.00757	ό »
-2.764532	ό ά
-2.301421	ό έ
-2.59539	ό ή
-2.555272	ό ί
-1.940623	ό α
-2.323323	ό β
-1.41189	ό γ
-1.41189	ό δ
-1.772884	ό ε
-1.742359	ό ζ
-2.764532	ό η
-2.379181	ό θ
-3.00757	ό ι
-1.710174	ό κ
-1.420233	ό λ
-1.27854	ό μ
-0.975825	ό ν
-3.00757	ό ξ
-2.287411	ό ο
-1.324823	ό π
-1.408233	ό ρ
-1.292263	ό ς
-1.214595	ό σ
-0.5310524	ό τ
-2.581601	ό υ
-1.6923	ό φ
-1.916489	ό χ
-1.807998	ό ψ
-2.972808	ό ω
-2.463502	ό ό
-3.045359	ό ύ
-2.789837	ύ "
-1.496776	ύ (
-2.717286	ύ )
-1.759348	ύ ,
-2.655138	ύ -
-1.979971	ύ .
-2.789837	ύ 0
-2.789837	ύ 2
-2.575957	ύ 7
-2.752048	ύ :
-2.685102	ύ </s>
-2.789837	ύ c
-2.752048	ύ e
-2.717286	ύ r
-2.5302	ύ ·
-2.789837	ύ »
-2.416256	ύ ά
-2.50901	ύ έ
-2.451018	ύ ή
-1.967907	ύ α
-2.5302	ύ β
-2.263028	ύ γ
-1.992381	ύ δ
-1.458318	ύ ε
-2.451018	ύ ζ
-2.339868	ύ η
-1.759348	ύ θ
-2.575957	ύ ι
-1.621715	ύ κ
-1.409626	ύ λ
-0.9936413	ύ μ
-0.6451213	ύ ν
-2.354108	ύ ξ
-1.407984	ύ ο
-1.412928	ύ π
-2.075355	ύ ρ
-1.342679	ύ ς
-0.9538584	ύ σ
-1.196752	ύ τ
-2.469502	ύ υ
-2.50901	ύ φ
-2.031889	ύ χ
-2.20798	ύ ψ
-2.43329	ύ ω
-2.752048	ύ ό
-2.752048	ύ ύ
-2.752048	ύ ώ
-2.685144	ώ "
-2.722933	ώ (
-2.722933	ώ ,
-1.840046	ώ α
-2.650382	ώ γ
-1.951412	ώ δ
-2.650382	ώ η
-2.141076	ώ θ
-2.722933	ώ ι
-2.588234	ώ κ
-2.023963	ώ λ
-1.416021	ώ μ
-0.2947981	ώ ν
-2.722933	ώ ξ
-2.130857	ώ ο
-1.810083	ώ π
-1.346024	ώ ρ
-1.323416	ώ ς
-1.046655	ώ σ
-1.425869	ώ τ
-2.722933	ώ χ
-1.829827	ώ ω
-1.926428	’ α
-1.964217	’ ε

\end\
