
\data\
ngram 1=65
ngram 2=1692

\1-grams:
-3.216923	"	0.8287261
-3.76783	%	0.07785098
-3.161405	'	0.7051796
-2.324607	(	0.2943607
-2.324607	)	0.5042679
-4.649522	*	-0.006808806
-4.684284	+	-0.01243955
-2.101842	,	0.248875
-2.889564	-	0.6767663
-2.289395	.	0.4337879
-2.567566	/	-0.3512969
-2.653887	0	0.3411425
-2.288958	1	0.5197038
-2.406484	2	0.2429021
-2.64125	3	0.4384932
-2.789415	4	-0.1020955
-2.85767	5	0.9623099
-2.793584	6	0.09517822
-2.818983	7	0.1118104
-2.803471	8	-0.04762129
-2.524667	9	-0.4113798
-3.026273	:	0.1267872
-2.786199	;	-0.05007735
-2.148779	</s>
-99	<s>	0.08955451
-4.617337	=	-0.0209901
-4.617337	>	-0.009534835
-3.814075	`	0.1750022
-1.13033	a	-0.3206739
-1.882423	b	-0.06216181
-1.389047	c	-0.2139531
-1.464634	d	1.183949
-0.9296365	e	0.6703957
-1.619764	f	-0.01530671
-1.817554	g	0.1740432
-1.384959	h	-0.2633994
-1.104158	i	-0.8282717
-2.952561	j	-0.1301126
-2.553147	k	0.5323045
-1.458889	l	-0.1538334
-1.571288	m	-0.2012601
-1.165715	n	0.01681637
-1.136192	o	0.09569686
-1.645664	p	-0.6198339
-2.808741	q	-0.3611231
-1.19178	r	-0.002486195
-1.255205	s	0.6474706
-1.045812	t	-0.2795455
-1.609407	u	-0.5814869
-2.028666	v	-0.6297113
-2.039763	w	0.06537484
-2.643221	x	0.2294367
-1.930701	y	0.3664922
-3.207163	z	-0.03129155
-4.684284	°	0.03328195
-4.684284	´	0.003619317
-4.684284	à	-0.007634076
-4.722073	á	0.007642836
-4.722073	ã	0.02544104
-4.649522	å	0.02948672
-4.722073	ç	-0.007509244
-4.684284	è	0.02066952
-4.533017	é	0.1463999
-4.684284	ê	0.009908809
-4.649522	ó	0.04804669

\2-grams:
-1.761663	" (
-1.787992	" )
-1.544953	" ,
-1.91293	" -
-1.669892	" .
-1.787992	" 1
-1.845984	" 2
-1.787992	" 3
-1.950719	" 9
-1.878168	" :
-1.50075	" ;
-1.348659	" </s>
-1.51499	" a
-1.669892	" b
-1.713358	" c
-1.736839	" d
-1.736839	" e
-1.845984	" f
-1.736839	" h
-1.473598	" i
-1.845984	" l
-1.460633	" m
-1.761663	" n
-1.6119	" o
-1.6119	" p
-1.950719	" q
-1.878168	" r
-1.390051	" s
-1.50075	" t
-1.81602	" u
-1.878168	" v
-1.787992	" w
-1.540508	% ,
-1.607455	% .
-1.716599	% ;
-1.821335	% </s>
-1.783546	% `
-1.821335	% a
-1.686636	% b
-1.783546	% f
-1.686636	% i
-1.783546	% l
-1.163758	% o
-1.821335	% p
-1.716599	% r
-1.821335	% u
-1.821335	% v
-1.821335	% w
-1.711807	' (
-1.933656	' )
-1.782388	' ,
-1.971444	' -
-1.670415	' .
-1.734084	' 1
-1.808717	' 2
-1.782388	' 3
-1.971444	' 4
-1.933656	' 5
-1.933656	' 6
-1.971444	' 7
-1.757565	' ;
-1.565679	' </s>
-1.389588	' a
-1.757565	' b
-1.581473	' c
-1.971444	' d
-1.866709	' e
-1.836746	' f
-1.933656	' g
-1.933656	' h
-1.632626	' i
-1.971444	' k
-1.933656	' l
-1.535716	' m
-1.734084	' n
-1.670415	' o
-1.711807	' p
-1.651109	' r
-0.9022475	' s
-1.521476	' t
-1.898894	' v
-1.782388	' w
-1.971444	' z
-1.971444	' é
-2.44935	( "
-2.44935	( '
-2.414588	( *
-2.487138	( 0
-0.908395	( 1
-0.9746481	( 2
-1.270852	( 3
-1.428161	( 4
-1.555403	( 5
-1.689682	( 6
-1.865773	( 7
-1.885078	( 8
-1.84729	( 9
-1.178283	( a
-1.22318	( b
-1.305815	( c
-1.620046	( d
-0.8313017	( e
-1.812528	( f
-2.097167	( g
-1.984463	( h
-1.511498	( i
-2.273258	( j
-2.35244	( k
-2.44935	( l
-2.249778	( m
-2.186108	( n
-2.273258	( o
-2.227501	( p
-2.487138	( q
-2.414588	( r
-1.972229	( s
-1.926471	( t
-2.44935	( u
-2.206312	( v
-2.382403	( w
-2.44935	( y
-2.414588	( z
-1.926471	) "
-1.960329	) '
-1.376243	) (
-0.8840925	) ,
-2.487138	) -
-1.445746	) .
-2.35244	) 1
-2.44935	) 2
-2.487138	) 4
-2.186108	) :
-1.64204	) ;
-1.829561	) </s>
-2.44935	) `
-1.111891	) a
-2.066133	) b
-1.715618	) c
-1.885078	) d
-1.926471	) e
-1.905282	) f
-2.382403	) g
-1.997052	) h
-1.417941	) i
-2.487138	) j
-2.44935	) k
-2.227501	) l
-1.937467	) m
-0.8657732	) n
-1.123697	) o
-1.829561	) p
-2.023381	) r
-1.584048	) s
-1.006087	) t
-2.273258	) u
-2.414588	) v
-1.503225	) w
-2.44935	) y
-1.694268	* )
-1.766142	+ 2
-1.766142	+ 3
-2.395285	, "
-2.438751	, '
-2.10472	, (
-2.416474	, 0
-2.28614	, 1
-2.19899	, 2
-2.438751	, 3
-2.487055	, 4
-2.487055	, 5
-2.462232	, 6
-2.513384	, 7
-2.319564	, 8
-2.355776	, 9
-0.963921	, </s>
-2.676111	, `
-0.8583658	, a
-1.59693	, b
-1.547242	, c
-1.918164	, d
-1.631144	, e
-1.583965	, f
-2.19899	, g
-1.749021	, h
-0.9851103	, i
-2.603561	, j
-2.603561	, k
-2.027308	, l
-1.603561	, m
-1.98511	, n
-1.31267	, o
-1.445662	, p
-2.571376	, q
-1.773021	, r
-1.367256	, s
-0.8619849	, t
-1.961629	, u
-2.319564	, v
-1.299203	, w
-2.603561	, x
-2.676111	, y
-2.603561	, z
-1.963158	- "
-2.097857	- '
-1.963158	- 1
-2.025306	- 2
-2.097857	- 4
-2.060068	- 5
-2.025306	- 7
-2.097857	- 8
-2.097857	- 9
-1.270018	- a
-1.431679	- b
-1.319705	- c
-1.559466	- d
-1.548185	- e
-1.620735	- f
-1.759038	- g
-1.741309	- h
-1.375821	- i
-2.097857	- j
-2.025306	- k
-1.935129	- l
-1.537189	- m
-2.025306	- n
-1.495797	- o
-1.383374	- p
-2.097857	- q
-1.398887	- r
-1.313174	- s
-1.042339	- t
-1.796826	- u
-1.9088	- v
-1.647887	- w
-1.759038	- y
-2.060068	- à
-1.744474	. "
-1.955327	. '
-2.038873	. (
-2.478206	. )
-2.443444	. ,
-2.478206	. .
-2.443444	. 0
-1.841384	. 1
-2.302114	. 2
-2.353267	. 3
-2.381296	. 4
-2.443444	. 5
-2.478206	. 6
-2.478206	. 7
-2.326938	. 8
-2.515994	. 9
-0.3957195	. </s>
-2.052237	. `
-1.369866	. a
-2.126023	. b
-1.977603	. c
-2.177176	. d
-1.867191	. e
-1.841384	. f
-2.478206	. g
-2.080266	. h
-1.306967	. i
-2.515994	. j
-2.443444	. l
-1.598346	. m
-2.159447	. n
-2.195659	. o
-1.955327	. p
-2.515994	. q
-2.256357	. r
-1.989185	. s
-0.7992322	. t
-2.353267	. u
-2.478206	. v
-1.575116	. w
-2.30103	/ 0
-1.304996	/ 1
-1.281725	/ 2
-1.48509	/ 3
-1.228479	/ 4
-1.543082	/ 5
-1.212089	/ 6
-1.378635	/ 7
-1.321233	/ 8
-0.9788107	/ 9
-2.30103	/ a
-2.228479	/ c
-2.30103	/ d
-0.6247522	/ e
-2.196295	/ h
-2.263242	/ i
-2.30103	/ j
-1.450328	/ o
-2.166332	/ s
-1.534434	0 %
-2.24123	0 '
-1.534434	0 (
-1.777472	0 )
-1.669838	0 ,
-2.24123	0 -
-1.751143	0 .
-1.013109	0 /
-0.7120792	0 0
-1.384995	0 1
-1.318834	0 2
-1.542259	0 3
-1.820224	0 4
-1.920894	0 5
-1.851258	0 6
-1.72632	0 7
-1.820224	0 8
-1.805501	0 9
-2.24123	0 :
-2.168679	0 ;
-1.583652	0 </s>
-1.738554	0 a
-2.24123	0 b
-2.052173	0 c
-1.820224	0 d
-2.003869	0 e
-2.168679	0 f
-2.106531	0 h
-2.078502	0 i
-1.902411	0 j
-2.078502	0 k
-2.003869	0 l
-1.920894	0 m
-2.203441	0 n
-1.558346	0 o
-2.003869	0 p
-2.24123	0 r
-1.902411	0 s
-1.805501	0 t
-2.078502	0 w
-2.203441	0 y
-2.478566	1 %
-1.447158	1 (
-1.045864	1 )
-1.665653	1 ,
-1.087926	1 .
-1.367416	1 /
-1.307328	1 0
-1.359091	1 1
-1.399385	1 2
-1.457377	1 3
-1.450538	1 4
-1.421027	1 5
-1.580024	1 6
-1.536558	1 7
-1.623249	1 8
-0.8622661	1 9
-2.381656	1 :
-2.327299	1 ;
-1.544911	1 </s>
-1.700415	1 a
-2.478566	1 b
-2.353628	1 c
-2.026269	1 d
-2.478566	1 e
-2.381656	1 f
-2.516355	1 g
-2.478566	1 h
-2.09535	1 i
-1.676934	1 j
-2.478566	1 k
-2.381656	1 l
-1.977964	1 m
-2.327299	1 n
-1.589265	1 o
-2.41162	1 p
-2.516355	1 r
-1.934498	1 s
-2.080626	1 t
-2.41162	1 u
-2.516355	1 v
-2.41162	1 w
-2.287055	2 %
-1.458825	2 (
-0.9265877	2 )
-1.624297	2 ,
-1.022237	2 .
-1.184393	2 /
-0.8984801	2 0
-1.605814	2 1
-1.458825	2 2
-1.538867	2 3
-1.485422	2 4
-1.544068	2 5
-1.571051	2 6
-1.730752	2 7
-1.637071	2 8
-1.565519	2 9
-2.259026	2 ;
-1.380361	2 </s>
-2.421753	2 `
-1.722783	2 a
-2.349203	2 c
-2.184392	2 d
-2.349203	2 e
-2.317018	2 f
-2.287055	2 h
-2.101418	2 i
-2.162116	2 j
-2.287055	2 l
-2.048173	2 m
-2.383965	2 n
-1.544068	2 o
-2.349203	2 p
-2.421753	2 r
-1.944632	2 s
-2.162116	2 t
-2.421753	2 u
-2.421753	2 v
-2.287055	2 w
-2.249754	3 "
-2.145019	3 %
-1.388057	3 (
-1.001112	3 )
-1.566871	3 ,
-2.249754	3 -
-1.019305	3 .
-1.115056	3 /
-1.39352	3 0
-1.382662	3 1
-1.566871	3 2
-1.711363	3 3
-1.799785	3 4
-1.747079	3 5
-1.439888	3 6
-1.583577	3 7
-1.722945	3 8
-1.647694	3 9
-2.211966	3 :
-2.177203	3 ;
-1.332105	3 </s>
-1.628389	3 a
-2.211966	3 b
-2.177203	3 c
-2.115056	3 d
-2.177203	3 e
-2.145019	3 f
-2.211966	3 h
-1.929419	3 i
-2.035874	3 j
-2.177203	3 l
-1.968928	3 m
-2.249754	3 n
-1.465072	3 o
-2.145019	3 p
-2.177203	3 r
-1.990117	3 s
-1.843989	3 t
-2.249754	3 u
-2.145019	3 w
-2.117271	4 %
-1.390273	4 (
-1.047233	4 )
-1.497483	4 ,
-1.15113	4 .
-1.066119	4 /
-1.583669	4 0
-1.562984	4 1
-1.433025	4 2
-1.562984	4 3
-1.798513	4 4
-1.816241	4 5
-1.616669	4 6
-1.816241	4 7
-1.562984	4 8
-1.480449	4 9
-2.15506	4 :
-2.050324	4 ;
-1.357603	4 </s>
-1.594393	4 a
-2.020361	4 d
-2.050324	4 f
-2.050324	4 h
-1.992333	4 i
-1.895423	4 j
-2.117271	4 l
-1.966004	4 m
-2.117271	4 n
-1.533695	4 o
-2.15506	4 p
-2.050324	4 r
-1.992333	4 s
-2.082509	4 t
-2.15506	4 v
-2.082509	4 w
-1.638338	5 %
-1.311754	5 (
-1.088666	5 )
-1.58865	5 ,
-1.299519	5 .
-1.17008	5 /
-1.554792	5 0
-1.66549	5 1
-1.565787	5 2
-1.679731	5 3
-1.577068	5 4
-1.834633	5 5
-1.612784	5 6
-1.741879	5 7
-1.638338	5 8
-1.834633	5 9
-2.042908	5 :
-1.952732	5 ;
-1.457882	5 </s>
-2.115459	5 `
-1.577068	5 a
-2.077671	5 b
-2.042908	5 c
-1.855822	5 d
-2.077671	5 e
-2.042908	5 f
-2.077671	5 g
-2.010724	5 h
-1.952732	5 i
-1.758912	5 j
-2.042908	5 k
-2.077671	5 l
-1.901579	5 m
-1.980761	5 n
-1.466656	5 o
-2.042908	5 p
-2.077671	5 r
-1.952732	5 s
-1.795124	5 t
-2.042908	5 u
-1.980761	5 w
-2.115459	5 y
-2.152566	6 "
-2.047831	6 %
-1.415808	6 (
-1.313145	6 )
-1.56049	6 ,
-2.152566	6 -
-1.387779	6 .
-0.9362804	6 /
-1.430531	6 0
-1.731561	6 1
-1.430531	6 2
-1.716838	6 3
-1.625757	6 4
-1.702597	6 5
-1.401567	6 6
-1.494989	6 7
-1.35511	6 8
-1.716838	6 9
-2.047831	6 :
-2.017868	6 ;
-1.461565	6 </s>
-1.716838	6 a
-2.152566	6 b
-2.047831	6 c
-1.87174	6 d
-2.080016	6 e
-1.915205	6 f
-2.152566	6 h
-2.017868	6 i
-1.813748	6 j
-2.080016	6 l
-1.989839	6 m
-2.152566	6 n
-1.550506	6 o
-2.114778	6 p
-1.915205	6 s
-1.892929	6 t
-2.080016	6 w
-2.099796	7 %
-1.315654	7 (
-1.471407	7 )
-1.634909	7 ,
-2.137584	7 -
-1.555728	7 .
-1.061706	7 /
-1.430789	7 0
-1.566193	7 1
-1.471407	7 2
-1.506879	7 3
-1.647498	7 4
-1.408125	7 5
-1.446583	7 6
-1.430789	7 7
-1.352902	7 8
-1.576917	7 9
-2.137584	7 :
-2.002886	7 ;
-1.506879	7 </s>
-1.622674	7 a
-2.137584	7 b
-2.099796	7 c
-1.900223	7 d
-2.065034	7 e
-2.065034	7 f
-2.065034	7 h
-2.002886	7 i
-1.900223	7 j
-2.099796	7 l
-1.877947	7 m
-2.065034	7 n
-1.430789	7 o
-2.137584	7 p
-1.923704	7 s
-1.974857	7 t
-1.417232	8 (
-1.432209	8 )
-1.773111	8 ,
-2.108903	8 -
-1.525326	8 .
-0.9352313	8 /
-1.608301	8 0
-1.417232	8 1
-1.682934	8 2
-1.631782	8 3
-1.682934	8 4
-1.463809	8 5
-1.439896	8 6
-1.336826	8 7
-1.480514	8 8
-1.318853	8 9
-2.041956	8 ;
-1.515987	8 </s>
-1.608301	8 a
-2.108903	8 c
-1.887054	8 d
-2.108903	8 f
-2.108903	8 h
-1.983964	8 i
-1.826357	8 j
-2.146692	8 l
-1.957635	8 m
-2.146692	8 n
-1.409933	8 o
-2.146692	8 r
-1.983964	8 s
-1.909331	8 t
-2.108903	8 w
-2.332071	9 "
-2.332071	9 %
-1.649188	9 (
-1.710706	9 )
-2.031041	9 ,
-1.750214	9 .
-1.148154	9 /
-1.352274	9 0
-1.34004	9 1
-1.309006	9 2
-1.332071	9 3
-1.481369	9 4
-1.504232	9 5
-1.320385	9 6
-1.276554	9 7
-1.172067	9 8
-0.8017549	9 9
-2.332071	9 :
-2.169344	9 ;
-1.750214	9 </s>
-1.841985	9 a
-2.197372	9 b
-2.294282	9 c
-2.169344	9 d
-2.25952	9 f
-2.332071	9 g
-2.294282	9 h
-2.294282	9 i
-2.051244	9 j
-2.09471	9 l
-2.072434	9 m
-1.64107	9 o
-2.25952	9 p
-2.197372	9 s
-2.072434	9 t
-2.25952	9 w
-1.639044	: "
-1.991226	: '
-1.708679	: (
-1.894316	: -
-2.029015	: .
-1.924279	: 1
-0.4001615	: </s>
-1.748188	: a
-2.029015	: c
-2.029015	: e
-1.991226	: h
-1.956464	: i
-1.956464	: l
-2.029015	: n
-1.956464	: o
-1.924279	: s
-1.866287	: t
-2.029015	: w
-2.119201	; "
-2.119201	; '
-2.156989	; 8
-0.3545267	; </s>
-2.052254	; `
-1.693232	; a
-2.022291	; c
-2.156989	; e
-2.119201	; f
-2.084439	; h
-1.783409	; i
-2.119201	; m
-1.897352	; o
-2.156989	; p
-2.052254	; s
-1.767018	; t
-2.156989	; v
-0.9730728	; w
-2.023298	<s> "
-1.819178	<s> '
-0.7761436	<s> (
-1.209643	<s> -
-1.278571	<s> 1
-1.285576	<s> 2
-1.480611	<s> 3
-1.752231	<s> 4
-1.952235	<s> 5
-2.157997	<s> 6
-2.245147	<s> 7
-2.397757	<s> 8
-2.421238	<s> 9
-0.8883423	<s> a
-2.446062	<s> b
-1.667911	<s> c
-2.132443	<s> d
-2.171361	<s> e
-2.074451	<s> f
-2.597329	<s> g
-1.114218	<s> h
-1.825252	<s> i
-2.421238	<s> l
-2.033058	<s> m
-2.354291	<s> n
-1.928323	<s> o
-2.145032	<s> p
-2.004413	<s> r
-1.952235	<s> s
-1.105968	<s> t
-2.562567	<s> u
-2.635118	<s> v
-1.086561	<s> w
-1.767493	= 0
-1.767493	= 3
-1.729705	= 5
-1.662758	> =
-1.652609	` )
-1.62628	` ,
-1.652609	` .
-1.458789	` ;
-1.441756	` </s>
-1.815336	` a
-1.815336	` e
-1.652609	` i
-1.577975	` m
-1.710601	` o
-1.815336	` r
-1.62628	` s
-3.493329	a "
-3.493329	a '
-3.317237	a (
-2.302997	a )
-2.868605	a ,
-3.005988	a -
-3.259245	a .
-3.598064	a /
-3.598064	a 1
-3.598064	a 2
-3.598064	a 3
-3.560275	a 9
-3.598064	a :
-3.463365	a ;
-3.493329	a </s>
-3.016207	a a
-1.702943	a b
-1.305003	a c
-1.551321	a d
-3.048392	a e
-2.013116	a f
-1.626619	a g
-3.037397	a h
-1.544986	a i
-2.907063	a j
-1.963678	a k
-0.942489	a l
-1.629581	a m
-0.7451406	a n
-3.059673	a o
-1.440525	a p
-2.940487	a q
-0.8490307	a r
-1.122657	a s
-0.7504352	a t
-1.849171	a u
-1.794979	a v
-2.13977	a w
-2.747362	a x
-1.718812	a y
-3.192299	a z
-3.598064	a ç
-2.874218	b (
-1.627809	b )
-2.553883	b ,
-2.874218	b -
-2.73952	b .
-2.801667	b 1
-2.874218	b ;
-2.874218	b </s>
-1.515937	b a
-2.614581	b b
-2.801667	b c
-2.660338	b d
-0.396308	b e
-2.874218	b f
-2.83643	b g
-2.769483	b h
-1.454713	b i
-1.660338	b j
-0.8964946	b l
-1.862532	b m
-2.874218	b n
-1.43994	b o
-2.017984	b p
-1.72809	b r
-1.474702	b s
-2.070513	b t
-1.616758	b u
-0.8274748	b y
-3.239693	c "
-3.209729	c '
-2.303035	c (
-1.600491	c )
-2.399049	c ,
-2.713723	c .
-3.181701	c 1
-3.344428	c 2
-3.344428	c 3
-3.344428	c 8
-3.344428	c 9
-3.084791	c :
-2.880671	c ;
-3.181701	c </s>
-3.344428	c `
-1.093122	c a
-2.867307	c b
-1.480565	c c
-2.894459	c d
-0.8434933	c e
-2.841753	c f
-3.306639	c g
-1.104787	c h
-1.105015	c i
-1.941776	c k
-1.053989	c l
-2.938663	c m
-2.817619	c n
-0.6199287	c o
-2.466743	c p
-2.669817	c q
-1.864683	c r
-2.332742	c s
-0.914529	c t
-1.505007	c u
-3.271877	c v
-3.239693	c w
-2.140308	c y
-3.344428	c é
-2.897394	d "
-3.033614	d '
-2.398554	d (
-2.39329	d )
-1.804512	d ,
-2.689118	d -
-1.998501	d .
-2.420273	d /
-3.108248	d 0
-2.579974	d 1
-2.631127	d 2
-2.7683	d 3
-2.95064	d 4
-2.990149	d 5
-3.081919	d 6
-2.969945	d 7
-2.86521	d 8
-2.84997	d 9
-2.668915	d :
-2.362978	d ;
-2.631127	d </s>
-3.233186	d `
-1.086542	d a
-1.321142	d b
-1.741825	d c
-1.534217	d d
-0.7598212	d e
-1.563405	d f
-2.236821	d g
-2.308046	d h
-0.7629966	d i
-2.699584	d j
-2.897394	d k
-2.229582	d l
-1.756065	d m
-2.303768	d n
-1.12796	d o
-1.760918	d p
-2.990149	d q
-1.652452	d r
-1.392244	d s
-1.042155	d t
-1.176282	d u
-2.222463	d v
-2.020112	d w
-3.198424	d x
-2.431554	d y
-3.233186	d z
-3.270975	d ´
-3.270975	d é
-3.214573	e "
-3.105428	e '
-2.998973	e (
-2.837822	e )
-2.176956	e ,
-2.898303	e -
-2.352101	e .
-3.691694	e /
-3.633702	e 0
-2.074394	e 1
-2.276721	e 2
-2.538969	e 3
-2.762275	e 4
-2.888432	e 5
-2.727232	e 6
-2.617714	e 7
-2.710717	e 8
-2.503368	e 9
-2.929337	e :
-2.833501	e ;
-3.293754	e </s>
-3.406458	e `
-1.165355	e a
-2.099835	e b
-1.02833	e c
-1.052065	e d
-1.402137	e e
-1.564358	e f
-1.533116	e g
-2.345062	e h
-1.635879	e i
-2.888432	e j
-3.031642	e k
-1.613807	e l
-1.301769	e m
-1.108576	e n
-1.56159	e o
-1.517676	e p
-2.064767	e q
-0.8818938	e r
-0.9565514	e s
-1.311483	e t
-1.976287	e u
-1.973905	e v
-1.870742	e w
-1.807627	e x
-2.381456	e y
-3.582549	e z
-3.016795	f "
-3.083741	f '
-2.90765	f (
-2.472727	f )
-1.978231	f ,
-2.801195	f -
-2.414735	f .
-2.1176	f 1
-2.048979	f 2
-2.782712	f 3
-2.932474	f 4
-2.747949	f 5
-2.801195	f 6
-2.90765	f 7
-2.932474	f 8
-2.958803	f 9
-2.764983	f :
-2.8205	f ;
-1.129097	f a
-2.238643	f b
-1.731559	f c
-1.739677	f d
-1.098465	f e
-1.289602	f f
-2.399495	f g
-2.463953	f h
-0.9166704	f i
-2.932474	f j
-3.12153	f k
-1.940206	f l
-2.029384	f m
-2.238643	f n
-0.7006745	f o
-1.677201	f p
-2.764983	f q
-1.2111	f r
-1.656418	f s
-0.7514713	f t
-1.613919	f u
-2.317825	f v
-2.1176	f w
-2.069501	f y
-3.12153	f z
-2.799754	g "
-2.633423	g '
-2.861902	g (
-2.498724	g )
-1.942421	g ,
-2.457331	g -
-2.407644	g .
-2.934453	g /
-2.771725	g 1
-2.861902	g 2
-2.934453	g 3
-2.934453	g 4
-2.934453	g 8
-2.130747	g :
-2.498724	g ;
-2.829717	g </s>
-2.934453	g `
-0.8852345	g a
-2.176505	g b
-1.637389	g c
-1.826626	g d
-1.013476	g e
-1.984619	g f
-2.083751	g g
-1.487295	g h
-1.122147	g i
-1.83283	g l
-1.993574	g m
-1.664091	g n
-1.197694	g o
-1.817483	g p
-2.861902	g q
-0.8510151	g r
-1.440551	g s
-1.072755	g t
-0.9476808	g u
-2.235482	g v
-1.989074	g w
-2.016804	g y
-2.934453	g é
-3.348411	h "
-3.348411	h '
-2.991864	h (
-2.97483	h )
-2.550955	h ,
-2.95844	h -
-2.821602	h .
-3.348411	h /
-2.234468	h 1
-2.6738	h 2
-3.028076	h 3
-3.11105	h 4
-3.27586	h 5
-3.310622	h 6
-3.348411	h 7
-3.310622	h 8
-3.134531	h :
-3.088774	h ;
-3.348411	h `
-0.7844987	h a
-2.991864	h b
-2.237515	h c
-2.307018	h d
-0.2758604	h e
-2.766554	h f
-3.067585	h g
-2.514743	h h
-0.9815638	h i
-3.348411	h j
-3.348411	h k
-2.717706	h l
-2.026192	h m
-2.289433	h n
-1.182708	h o
-2.389804	h p
-3.047381	h q
-2.039556	h r
-1.976504	h s
-1.4473	h t
-2.611653	h u
-3.009593	h v
-2.465524	h w
-2.526481	h y
-3.623869	i "
-3.586081	i '
-3.386508	i (
-2.715872	i )
-2.767635	i ,
-3.519134	i -
-3.074197	i .
-3.623869	i :
-3.364232	i ;
-3.461142	i </s>
-1.598191	i a
-2.115034	i b
-0.970569	i c
-1.562485	i d
-1.416064	i e
-1.67849	i f
-1.897364	i g
-3.551319	i h
-2.230693	i i
-3.623869	i j
-3.218104	i k
-1.602304	i l
-1.590446	i m
-0.6177924	i n
-0.8627619	i o
-2.183819	i p
-3.052478	i q
-1.394583	i r
-0.9942744	i s
-0.9385347	i t
-3.031794	i u
-1.423965	i v
-3.461142	i w
-2.644073	i x
-2.202864	i z
-3.623869	i é
-3.623869	i ó
-2.02701	j (
-1.827437	j )
-1.273682	j a
-0.8051609	j e
-2.064798	j h
-1.744463	j n
-0.9823393	j o
-0.7065172	j u
-2.27358	k '
-2.238818	k (
-2.17667	k )
-2.030542	k ,
-2.148641	k -
-2.17667	k .
-2.206633	k :
-2.311368	k ;
-2.311368	k </s>
-2.27358	k `
-1.428482	k a
-2.206633	k b
-2.030542	k c
-1.937788	k d
-0.4702367	k e
-1.921397	k f
-2.074008	k g
-2.148641	k h
-0.8395436	k i
-2.311368	k k
-2.097489	k l
-1.921397	k m
-1.796459	k n
-1.489438	k o
-1.739977	k p
-2.17667	k r
-1.053908	k s
-1.921397	k t
-2.27358	k u
-2.122312	k w
-2.311368	k y
-3.087489	l "
-3.203995	l '
-2.95621	l (
-3.238757	l )
-2.203995	l ,
-3.039184	l -
-2.738154	l .
-2.919998	l 1
-3.039184	l 2
-3.141847	l 3
-3.276545	l 4
-3.238757	l 6
-2.95621	l :
-2.826576	l ;
-2.937727	l </s>
-3.276545	l `
-0.7696715	l a
-1.467905	l b
-1.753272	l c
-1.388008	l d
-0.7162039	l e
-1.913104	l f
-2.726873	l g
-2.305101	l h
-0.9453942	l i
-2.46668	l j
-2.56975	l k
-0.9041355	l l
-2.069965	l m
-2.133247	l n
-1.21311	l o
-1.762844	l p
-2.799424	l q
-1.849591	l r
-1.483517	l s
-1.46424	l t
-1.678452	l u
-2.373455	l v
-2.56975	l w
-1.348056	l y
-3.276545	l á
-3.033317	m "
-3.168015	m '
-2.954135	m (
-3.033317	m )
-2.618343	m ,
-2.887188	m -
-2.690894	m .
-3.130227	m /
-3.168015	m 0
-2.565955	m 1
-3.033317	m 2
-3.168015	m 3
-3.095464	m :
-2.978959	m ;
-3.168015	m `
-0.824696	m a
-1.122337	m b
-2.54665	m c
-2.778044	m d
-0.5888553	m e
-2.53731	m f
-3.130227	m g
-3.06328	m h
-0.9304256	m i
-3.168015	m j
-2.778044	m l
-0.9572832	m m
-2.596624	m n
-1.285128	m o
-1.099155	m p
-2.453533	m r
-1.774839	m s
-1.662865	m t
-1.20854	m u
-2.778044	m v
-2.54665	m w
-2.908378	m y
-3.168015	m ó
-3.206664	n "
-3.060536	n '
-1.908248	n (
-3.17324	n )
-3.525423	n +
-2.009108	n ,
-2.819274	n -
-2.228027	n .
-3.525423	n 0
-2.670105	n 1
-2.923363	n 2
-3.073125	n 3
-3.374155	n 4
-3.428513	n 5
-3.490661	n 6
-3.400484	n 7
-3.400484	n 8
-2.932506	n 9
-2.608969	n :
-2.591767	n ;
-3.036402	n </s>
-3.458476	n >
-3.458476	n `
-1.048905	n a
-2.290737	n b
-1.117041	n c
-0.9195792	n d
-1.280527	n e
-1.740093	n f
-1.009439	n g
-2.567178	n h
-1.123448	n i
-3.224393	n j
-2.905634	n k
-2.282385	n l
-2.157446	n m
-1.840428	n n
-1.123879	n o
-1.78506	n p
-2.729543	n q
-2.047097	n r
-1.116194	n s
-0.7691037	n t
-1.996078	n u
-2.134782	n v
-2.196364	n w
-3.525423	n x
-2.003631	n y
-3.113242	n z
-3.525423	n °
-3.563211	n é
-3.42956	o "
-3.554499	o '
-3.354927	o (
-3.378408	o )
-3.23574	o ,
-2.92611	o -
-3.42956	o .
-3.519737	o 0
-2.326185	o 1
-2.426855	o 2
-2.709401	o 3
-3.253469	o 4
-3.23574	o 5
-3.291258	o 6
-3.142319	o 7
-3.202317	o 8
-3.271953	o 9
-3.253469	o :
-3.42956	o ;
-3.592288	o </s>
-1.91187	o a
-1.890955	o b
-1.634115	o c
-1.483846	o d
-2.212077	o e
-0.8285877	o f
-2.107341	o g
-2.554499	o h
-1.819433	o i
-3.089612	o j
-2.885493	o k
-1.615396	o l
-1.110064	o m
-0.6438304	o n
-2.002237	o o
-1.418572	o p
-3.519737	o q
-0.8202997	o r
-1.621687	o s
-1.22646	o t
-1.336358	o u
-1.57792	o v
-1.61958	o w
-2.730591	o x
-2.592288	o y
-3.403232	o z
-3.058995	p "
-3.096784	p '
-3.058995	p (
-3.024233	p )
-2.691018	p ,
-2.907727	p -
-2.661055	p .
-3.096784	p 1
-2.907727	p ;
-3.096784	p </s>
-0.9378732	p a
-2.757965	p b
-2.815957	p c
-2.706813	p d
-0.8079656	p e
-2.740236	p f
-3.058995	p g
-1.535032	p h
-1.536116	p i
-0.9783085	p l
-2.165049	p m
-1.003999	p o
-1.141227	p p
-0.608746	p r
-2.116987	p s
-1.327272	p t
-1.423009	p u
-2.882904	p v
-2.837146	p w
-2.837146	p y
-3.058995	p ê
-2.143583	q )
-2.038847	q s
-0.2326672	q u
-3.18102	r "
-3.198749	r '
-2.9769	r (
-3.402869	r )
-2.169027	r ,
-3.022657	r -
-2.649541	r .
-3.499779	r /
-3.465017	r 0
-2.414607	r 1
-2.906862	r 2
-3.163987	r 3
-3.499779	r 4
-3.432832	r 5
-3.432832	r 6
-3.432832	r 8
-3.537567	r 9
-3.163987	r :
-2.87999	r ;
-2.838597	r </s>
-3.537567	r `
-1.027144	r a
-2.364116	r b
-1.741372	r c
-1.39569	r d
-0.5696365	r e
-2.248546	r f
-2.100394	r g
-2.596689	r h
-1.064811	r i
-3.432832	r j
-1.882604	r k
-2.215348	r l
-1.518262	r m
-1.848986	r n
-0.9331448	r o
-1.938478	r p
-3.116562	r q
-1.593534	r r
-1.25201	r s
-0.952004	r t
-1.825377	r u
-2.032417	r v
-2.26299	r w
-1.582448	r y
-3.432832	r z
-3.499779	r å
-3.537567	r ó
-2.75324	s "
-2.608182	s '
-2.309842	s (
-2.75324	s )
-1.512776	s ,
-3.136456	s -
-1.86539	s .
-3.340576	s /
-3.402724	s 0
-2.760793	s 1
-2.85391	s 2
-3.085304	s 3
-3.194448	s 4
-3.118727	s 5
-3.194448	s 6
-3.05427	s 7
-3.101694	s 8
-3.174245	s 9
-2.406078	s :
-2.15494	s ;
-2.548185	s </s>
-3.340576	s `
-1.108428	s a
-2.162559	s b
-1.691891	s c
-1.75474	s d
-1.047582	s e
-1.678448	s f
-2.608182	s g
-1.119423	s h
-0.9914931	s i
-3.237914	s j
-2.346406	s k
-1.900717	s l
-1.794857	s m
-2.029529	s n
-1.156453	s o
-1.45221	s p
-3.174245	s q
-1.592388	s r
-1.102698	s s
-0.7964255	s t
-1.163136	s u
-3.085304	s v
-1.845495	s w
-3.475275	s x
-2.340576	s y
-3.475275	s ´
-3.444111	t "
-3.444111	t '
-2.825237	t (
-3.467592	t )
-2.342653	t ,
-3.050766	t -
-2.69348	t .
-3.681472	t 0
-3.14308	t 1
-3.361136	t 2
-3.576736	t 3
-3.546773	t 4
-3.492415	t 5
-3.643683	t 6
-3.681472	t 7
-3.681472	t 8
-3.608921	t 9
-3.154662	t :
-2.896789	t ;
-3.444111	t </s>
-3.608921	t `
-1.101896	t a
-2.22732	t b
-2.152321	t c
-2.516038	t d
-0.9708157	t e
-2.342653	t f
-3.006861	t g
-0.5320564	t h
-0.6861954	t i
-3.643683	t j
-3.643683	t k
-2.22732	t l
-2.170196	t m
-2.745141	t n
-0.9954856	t o
-2.355508	t p
-3.307891	t q
-1.475136	t r
-1.369525	t s
-1.55762	t t
-1.829102	t u
-3.015294	t v
-2.197819	t w
-1.577979	t y
-3.681472	t z
-3.681472	t å
-3.643683	t è
-3.681472	t é
-3.131444	u )
-3.058893	u .
-3.093655	u 0
-3.093655	u 1
-3.131444	u 2
-3.093655	u 3
-3.131444	u 4
-3.131444	u 7
-1.310109	u a
-1.327118	u b
-1.092932	u c
-1.63881	u d
-1.495229	u e
-1.919983	u f
-1.903323	u g
-1.490691	u i
-0.8077229	u l
-1.416962	u m
-0.8323922	u n
-2.48264	u o
-1.475607	u p
-0.8112974	u r
-1.193288	u s
-1.092571	u t
-3.058893	u u
-3.131444	u v
-3.093655	u x
-2.830414	u y
-2.74108	v "
-2.460253	v )
-2.420745	v ,
-2.552024	v .
-2.74108	v ;
-2.668529	v </s>
-1.046076	v a
-2.668529	v c
-2.703291	v d
-0.2944863	v e
-2.74108	v f
-0.5684239	v i
-2.74108	v m
-1.639458	v o
-2.74108	v p
-2.606381	v s
-2.5272	v t
-2.578353	v y
-2.731149	w (
-2.731149	w )
-2.254028	w ,
-2.658598	w -
-2.693361	w .
-2.731149	w :
-2.658598	w ;
-1.230963	w a
-2.596451	w b
-2.450322	w c
-2.568422	w d
-1.168316	w e
-2.341178	w f
-2.731149	w g
-0.5275229	w h
-0.5526953	w i
-2.374602	w l
-2.325384	w m
-1.106961	w n
-1.271482	w o
-2.410814	w p
-2.170482	w r
-1.568422	w s
-1.848262	w t
-2.517269	w u
-2.430119	w w
-2.693361	w y
-2.248419	x (
-2.011058	x ,
-2.248419	x -
-2.175869	x .
-2.113721	x 1
-2.248419	x 3
-2.248419	x 9
-2.248419	x ;
-1.403321	x a
-2.059363	x b
-1.059363	x c
-2.248419	x d
-1.008778	x e
-2.175869	x f
-1.928084	x h
-0.7383618	x i
-2.059363	x m
-2.248419	x n
-2.248419	x o
-0.8633006	x p
-2.248419	x r
-2.248419	x s
-0.9823158	x t
-1.590842	x v
-2.210631	x w
-2.175869	x x
-2.175869	x y
-2.640774	y "
-2.115348	y '
-2.31492	y (
-2.792041	y )
-1.290298	y ,
-2.247973	y -
-1.703905	y .
-2.725095	y /
-1.70687	y 1
-2.208465	y 2
-2.424065	y 3
-2.725095	y 5
-2.792041	y 8
-2.439859	y :
-1.979128	y ;
-2.509495	y </s>
-2.640774	y `
-1.042563	y a
-1.483833	y b
-1.446341	y c
-1.638226	y d
-1.231736	y e
-1.597065	y f
-2.258439	y g
-2.100371	y h
-1.178376	y i
-2.757279	y j
-2.667103	y k
-1.750649	y l
-1.348778	y m
-1.82983	y n
-1.102584	y o
-1.398466	y p
-2.61595	y q
-1.449619	y r
-1.167072	y s
-0.893042	y t
-2.199125	y u
-2.208465	y v
-1.563727	y w
-2.82983	y y
-2.82983	y z
-0.7942381	z a
-0.7997355	z e
-1.954242	z g
-1.694605	z i
-1.296665	z o
-1.881692	z y
-1.766142	° i
-1.766142	° m
-1.728354	´ m
-1.728354	à -
-1.765465	á d
-1.765465	ã o
-1.72903	å l
-1.766818	å r
-1.765465	ç ã
-1.728354	è r
-1.731723	é a
-1.769512	é c
-1.769512	é n
-1.769512	é p
-1.769512	é r
-1.769512	é t
-1.728354	ê c
-1.766818	ó m
-1.766818	ó n
-1.766818	ó s

\end\
