
\data\
ngram 1=72
ngram 2=1743

\1-grams:
-4.76884	!	-0.006757443
-3.330226	"	0.6284157
-3.814598	%	0.1677582
-4.253931	'	0.2120152
-2.669411	(	0.4062722
-2.441017	)	0.4212306
-4.488014	*	-0.00790892
-4.731052	+	-0.01124448
-2.039897	,	0.1086637
-3.242032	-	0.6772819
-2.346489	.	-0.1371478
-2.622149	/	-0.2904655
-2.704042	0	-0.2269228
-2.350389	1	0.002953309
-2.462123	2	0.1391057
-2.692631	3	-0.208457
-2.83803	4	-0.1510198
-2.915917	5	0.08270887
-2.842685	6	-0.02848821
-2.872715	7	0.1541944
-2.857441	8	-0.2898224
-2.576983	9	-0.2419804
-3.037911	:	0.1839777
-2.859868	;	0.04093865
-2.195547	</s>
-99	<s>	0.1557764
-4.664105	=	-0.01891643
-4.664105	>	-0.00859076
-4.634142	[	0.06755932
-4.634142	]	0.01379467
-0.9820117	a	-0.3576425
-2.029844	b	-0.1057838
-1.280995	c	-0.7066022
-1.230907	d	-0.5621749
-0.9042971	e	0.2597317
-2.128992	f	-0.5238429
-2.040265	g	-0.405784
-2.544002	h	-0.2735386
-1.151335	i	-0.6654474
-2.581576	j	-0.3434859
-4.128992	k	0.3543453
-1.271697	l	-0.08443847
-1.585726	m	-0.278766
-1.194767	n	0.01117727
-1.101991	o	-0.4977881
-1.587517	p	-0.8097911
-2.240391	q	-0.7112193
-1.213757	r	-0.3678568
-1.1565	s	-0.03688735
-1.31953	t	-1.057034
-1.512188	u	-0.3995942
-2.087435	v	-0.568426
-4.448505	w	0.08663572
-2.658863	x	-0.1775592
-2.26691	y	0.5404856
-2.595654	z	0.2264331
-3.54072	«	0.4985471
-3.280034	°	-0.2157058
-4.731052	±	-0.01018053
-4.111263	º	-0.03878061
-3.545415	»	0.1342311
-2.332823	á	0.2604422
-4.634142	â	-0.008959186
-4.69629	å	0.03863089
-4.731052	è	0.02001184
-2.770423	é	0.5063902
-4.731052	ê	0.01597494
-2.282603	í	0.220384
-3.189057	ñ	-0.02276016
-2.078	ó	-0.5151423
-2.997988	ú	0.02938845
-4.664105	ü	0.04556663

\2-grams:
-1.810477	! *
-1.959475	" (
-1.796748	" )
-1.53847	" ,
-1.921687	" -
-1.208476	" .
-1.796748	" 1
-1.85474	" 2
-1.886924	" 3
-1.959475	" 6
-1.921687	" 9
-1.367399	" :
-1.796748	" ;
-1.886924	" </s>
-1.523746	" a
-1.770419	" b
-1.620656	" c
-1.796748	" d
-1.509506	" e
-1.921687	" h
-1.678648	" i
-1.63914	" l
-1.85474	" m
-1.699838	" n
-1.745595	" o
-1.602928	" p
-1.959475	" r
-1.658445	" s
-1.85474	" t
-1.921687	" v
-1.959475	" w
-1.886924	" y
-1.504607	% ,
-1.623793	% .
-1.788603	% ;
-1.861154	% </s>
-1.788603	% c
-1.230449	% d
-1.647274	% e
-1.861154	% f
-1.861154	% i
-1.823366	% o
-1.788603	% p
-1.823366	% s
-1.861154	% v
-1.861154	% y
-1.823366	% »
-1.72075	' )
-1.825485	' .
-1.662758	' :
-1.787697	' a
-1.787697	' c
-1.825485	' d
-1.72075	' e
-1.825485	' l
-1.825485	' p
-1.787697	' s
-1.825485	' v
-1.825485	' é
-2.277297	( '
-2.239508	( *
-2.277297	( 0
-0.9439409	( 1
-1.090803	( 2
-1.2975	( 3
-1.415599	( 4
-1.473591	( 5
-1.570501	( 6
-1.705905	( 7
-1.69544	( 8
-1.665477	( 9
-2.017659	( a
-2.204746	( b
-0.6540473	( c
-1.813539	( d
-1.78721	( e
-1.99647	( f
-2.277297	( g
-2.017659	( i
-2.277297	( l
-2.172561	( m
-2.039936	( n
-2.017659	( o
-1.938478	( p
-2.204746	( r
-2.017659	( s
-1.813539	( t
-2.239508	( u
-2.277297	( v
-2.204746	( z
-2.277297	( «
-2.277297	( é
-1.810776	) "
-2.306782	) '
-2.0679	) (
-2.441481	) )
-0.9042343	) ,
-1.60206	) .
-2.278754	) 1
-2.403692	) 2
-2.441481	) 4
-2.36893	) :
-1.742511	) ;
-1.783904	) </s>
-1.60206	) a
-2.441481	) b
-1.365602	) c
-1.062918	) d
-1.043541	) e
-2.20412	) f
-2.441481	) g
-2.20412	) h
-2.102662	) i
-2.441481	) j
-1.117386	) l
-2.0679	) m
-0.8248622	) n
-2.005752	) o
-1.683533	) p
-2.084934	) q
-2.181844	) r
-1.523832	) s
-2.05151	) t
-2.05151	) u
-2.441481	) v
-2.441481	) w
-1.514391	) y
-2.102662	) «
-2.336746	) »
-1.778754	* )
-1.778754	* *
-1.778754	* 2
-1.816543	* 3
-1.778754	* 4
-1.816543	* </s>
-1.816543	* o
-1.811087	+ 2
-1.811087	+ 3
-2.614963	, "
-2.642992	, (
-2.518053	, 0
-2.614963	, 1
-2.341962	, 2
-2.540329	, 3
-2.518053	, 4
-2.540329	, 5
-2.563811	, 6
-2.614963	, 7
-2.457355	, 8
-2.496864	, 9
-1.083484	, </s>
-1.15727	, a
-2.165871	, b
-1.162985	, c
-1.056404	, d
-0.8100573	, e
-2.287604	, f
-2.588634	, g
-2.195834	, h
-1.766005	, i
-2.540329	, j
-2.739902	, k
-1.029502	, l
-1.762178	, m
-1.905269	, n
-1.722173	, o
-1.122727	, p
-1.725661	, q
-1.576045	, r
-1.160118	, s
-1.729178	, t
-1.938269	, u
-2.195834	, v
-2.77769	, x
-1.488669	, y
-2.739902	, z
-2.588634	, «
-2.387719	, é
-2.77769	, ó
-1.987991	- "
-1.987991	- '
-1.987991	- 0
-1.853292	- 1
-1.91544	- 2
-1.987991	- 4
-1.987991	- 5
-1.883256	- 7
-1.987991	- 8
-1.485316	- a
-1.686961	- b
-1.461182	- c
-1.427324	- d
-1.154323	- e
-1.883256	- f
-1.950203	- h
-1.798935	- i
-1.196875	- l
-1.825264	- m
-1.774111	- n
-1.75063	- o
-1.485316	- p
-1.686961	- q
-1.825264	- r
-1.473081	- s
-1.825264	- t
-1.686961	- u
-1.987991	- y
-1.987991	- z
-1.858417	. "
-2.411259	. (
-2.443444	. )
-2.443444	. ,
-2.478206	. .
-2.411259	. 0
-2.025908	. 1
-2.326938	. 2
-2.411259	. 3
-2.381296	. 4
-2.478206	. 5
-2.515994	. 7
-2.353267	. 8
-2.515994	. ;
-0.3606582	. </s>
-1.612904	. a
-1.593599	. c
-1.833111	. d
-1.068836	. e
-2.515994	. f
-2.515994	. g
-2.443444	. h
-2.126023	. i
-0.9414368	. l
-2.515994	. m
-1.894629	. n
-1.700054	. p
-2.256357	. q
-2.478206	. r
-1.523963	. s
-2.142414	. t
-2.080266	. u
-2.515994	. v
-2.478206	. «
-1.751207	. »
-2.515994	. é
-2.515994	. ú
-2.309243	/ 0
-1.333602	/ 1
-1.28245	/ 2
-1.493303	/ 3
-1.233364	/ 4
-1.551295	/ 5
-1.223531	/ 6
-1.401246	/ 7
-1.321252	/ 8
-0.9832797	/ 9
-2.271454	/ a
-0.6321339	/ c
-2.309243	/ d
-2.271454	/ e
-2.309243	/ h
-2.271454	/ i
-2.309243	/ j
-1.618242	/ o
-2.174544	/ u
-1.555644	0 %
-1.973787	0 (
-1.693947	0 )
-1.382193	0 ,
-1.704942	0 .
-1.017253	0 /
-0.7150817	0 0
-1.415193	0 1
-1.327524	0 2
-1.547819	0 3
-1.818885	0 4
-1.934279	0 5
-1.881033	0 6
-1.751939	0 7
-1.818885	0 8
-1.818885	0 9
-2.254614	0 :
-2.216825	0 ;
-1.614765	0 </s>
-2.040734	0 a
-2.254614	0 b
-2.254614	0 c
-1.283169	0 d
-1.973787	0 e
-2.254614	0 f
-2.216825	0 h
-2.065558	0 k
-2.254614	0 l
-2.091887	0 m
-2.216825	0 n
-2.065558	0 p
-2.017253	0 q
-2.017253	0 s
-1.994977	0 t
-2.254614	0 w
-2.040734	0 y
-2.216825	0 »
-2.512854	1 "
-2.475065	1 %
-2.174036	1 (
-1.273213	1 )
-1.420708	1 ,
-1.126112	1 .
-1.369555	1 /
-1.318718	1 0
-1.378156	1 1
-1.443657	1 2
-1.457337	1 3
-1.453876	1 4
-1.460825	1 5
-1.571976	1 6
-1.533057	1 7
-1.629968	1 8
-0.8739113	1 9
-2.323798	1 :
-2.232028	1 ;
-1.549925	1 </s>
-2.323798	1 a
-2.440304	1 b
-2.440304	1 c
-0.9500207	1 d
-2.232028	1 e
-2.408119	1 h
-2.475065	1 i
-2.475065	1 k
-2.350127	1 l
-2.512854	1 m
-2.475065	1 n
-2.275493	1 o
-2.192519	1 p
-2.323798	1 q
-2.512854	1 r
-1.941463	1 s
-2.475065	1 t
-1.768917	1 y
-2.512854	1 «
-2.512854	1 »
-2.290628	2 %
-2.211447	2 (
-1.201902	2 )
-1.349448	2 ,
-1.043473	2 .
-1.187966	2 /
-0.9092122	2 0
-1.640645	2 1
-1.462398	2 2
-1.5373	2 3
-1.512477	2 4
-1.552906	2 5
-1.585906	2 6
-1.734326	2 7
-1.674328	2 8
-1.574625	2 9
-2.352776	2 :
-2.211447	2 ;
-1.383934	2 </s>
-2.425327	2 ]
-2.187966	2 a
-2.320591	2 b
-2.320591	2 c
-1.001337	2 d
-2.262599	2 e
-2.425327	2 f
-2.352776	2 h
-2.425327	2 i
-2.387538	2 l
-2.425327	2 m
-2.290628	2 n
-2.290628	2 o
-2.1445	2 p
-2.320591	2 q
-2.387538	2 r
-1.975358	2 s
-2.425327	2 t
-1.84347	2 y
-2.352776	2 »
-2.157284	3 %
-2.099292	3 (
-1.169873	3 )
-1.373993	3 ,
-2.262019	3 -
-1.052992	3 .
-1.127321	3 /
-1.44608	3 0
-1.394927	3 1
-1.579136	3 2
-1.723629	3 3
-1.81205	3 4
-1.73521	3 5
-1.458314	3 6
-1.595842	3 7
-1.73521	3 8
-1.669944	3 9
-2.224231	3 :
-1.941684	3 ;
-1.339624	3 </s>
-2.262019	3 ]
-2.072963	3 a
-2.127321	3 b
-2.072963	3 c
-1.062863	3 d
-2.024658	3 e
-2.262019	3 l
-2.157284	3 o
-2.002382	3 p
-2.189469	3 q
-2.224231	3 r
-1.784898	3 s
-1.659959	3 y
-2.262019	3 »
-2.135133	4 %
-2.172921	4 '
-1.983865	4 (
-1.161235	4 )
-1.345082	4 ,
-1.227542	4 .
-1.080775	4 /
-1.60153	4 0
-1.591065	4 1
-1.450886	4 2
-1.580845	4 3
-1.816374	4 4
-1.834103	4 5
-1.63453	4 6
-1.834103	4 7
-1.580845	4 8
-1.498311	4 9
-2.172921	4 :
-1.959041	4 ;
-1.375465	4 </s>
-2.172921	4 a
-2.135133	4 b
-2.172921	4 c
-1.09374	4 d
-2.010194	4 e
-2.100371	4 h
-2.172921	4 m
-2.135133	4 n
-2.135133	4 o
-2.010194	4 p
-2.068186	4 q
-1.983865	4 s
-1.709164	4 y
-2.172921	4 »
-1.639955	5 %
-1.849215	5 (
-1.162834	5 )
-1.314101	5 ,
-2.130041	5 -
-1.379042	5 .
-1.189163	5 /
-1.548185	5 0
-1.680072	5 1
-1.615131	5 2
-1.694313	5 3
-1.603232	5 4
-1.870404	5 5
-1.627366	5 6
-1.756461	5 7
-1.65292	5 8
-1.870404	5 9
-2.092253	5 :
-1.849215	5 ;
-1.472464	5 </s>
-2.130041	5 ]
-2.130041	5 a
-2.092253	5 b
-2.057491	5 c
-1.130041	5 d
-2.025306	5 e
-2.092253	5 g
-2.057491	5 k
-2.130041	5 l
-2.092253	5 m
-2.092253	5 o
-1.940985	5 p
-1.995343	5 q
-2.092253	5 r
-1.809706	5 s
-2.025306	5 t
-2.130041	5 u
-1.569374	5 y
-2.065526	6 %
-1.932901	6 (
-1.348332	6 )
-1.297841	6 ,
-2.132473	6 -
-1.440802	6 .
-0.9468366	6 /
-1.440802	6 0
-1.749256	6 1
-1.448226	6 2
-1.734533	6 3
-1.643453	6 4
-1.734533	6 5
-1.412314	6 6
-1.530413	6 7
-1.39211	6 8
-1.749256	6 9
-2.132473	6 :
-1.981205	6 ;
-1.479261	6 </s>
-2.097711	6 a
-2.065526	6 b
-2.132473	6 c
-1.272135	6 d
-2.065526	6 e
-2.170262	6 h
-2.170262	6 l
-2.170262	6 m
-2.097711	6 n
-1.981205	6 p
-2.035563	6 q
-2.132473	6 r
-1.849927	6 s
-2.170262	6 t
-1.749256	6 y
-2.115611	7 %
-1.916038	7 (
-1.454429	7 )
-1.355943	7 ,
-2.153399	7 -
-1.582008	7 .
-1.080848	7 /
-1.454429	7 0
-1.603727	7 1
-1.487222	7 2
-1.551339	7 3
-1.663313	7 4
-1.454429	7 5
-1.462398	7 6
-1.454429	7 7
-1.375248	7 8
-1.592732	7 9
-2.153399	7 :
-1.964343	7 ;
-1.522694	7 </s>
-2.048664	7 a
-2.115611	7 b
-2.048664	7 c
-1.203566	7 d
-1.990672	7 e
-2.153399	7 l
-2.153399	7 m
-2.153399	7 n
-2.080848	7 o
-1.990672	7 p
-2.048664	7 r
-1.990672	7 s
-2.153399	7 t
-1.663313	7 y
-1.902275	8 (
-1.425154	8 )
-1.487302	8 ,
-2.089362	8 -
-1.531207	8 .
-0.9553316	8 /
-1.647002	8 0
-1.455117	8 1
-1.698155	8 2
-1.647002	8 3
-1.698155	8 4
-1.479029	8 5
-1.462942	8 6
-1.328244	8 7
-1.504335	8 8
-1.334073	8 9
-2.027214	8 ;
-1.531207	8 </s>
-2.161912	8 ]
-2.057177	8 a
-2.161912	8 b
-1.182116	8 d
-2.124124	8 h
-2.161912	8 m
-2.089362	8 o
-2.057177	8 p
-2.089362	8 q
-2.161912	8 r
-1.999185	8 s
-1.788332	8 y
-2.340805	9 %
-2.268254	9 (
-1.692001	9 )
-1.524865	9 ,
-2.340805	9 -
-1.802414	9 .
-1.159481	9 /
-1.361008	9 0
-1.348773	9 1
-1.314011	9 2
-1.340805	9 3
-1.495706	9 4
-1.512965	9 5
-1.329119	9 6
-1.325292	9 7
-1.194677	9 8
-0.8116543	9 9
-2.340805	9 :
-2.178077	9 ;
-1.780137	9 </s>
-2.340805	9 ]
-2.268254	9 a
-2.236069	9 b
-1.442678	9 d
-2.236069	9 e
-2.303016	9 n
-2.303016	9 o
-2.303016	9 p
-2.303016	9 q
-2.303016	9 r
-2.236069	9 s
-2.340805	9 t
-2.340805	9 u
-1.863683	9 y
-2.340805	9 »
-1.648865	: "
-2.06987	: (
-1.965135	: -
-2.06987	: .
-2.032081	: 1
-2.06987	: 3
-0.4428766	: </s>
-1.76884	: a
-1.907143	: c
-2.032081	: d
-1.76884	: e
-2.06987	: h
-2.06987	: i
-1.579784	: l
-2.06987	: m
-2.032081	: n
-1.965135	: p
-2.032081	: s
-1.76884	: t
-1.731051	: u
-1.997319	: «
-2.06987	: »
-2.06987	: á
-2.122762	; "
-0.3837172	; </s>
-1.997823	; a
-2.122762	; b
-1.900913	; c
-2.055815	; d
-1.754785	; e
-1.92319	; l
-2.16055	; m
-2.088	; n
-2.055815	; o
-2.025852	; p
-1.000546	; q
-1.971494	; s
-1.879724	; y
-2.088	; »
-2.641474	<s> !
-2.091802	<s> "
-1.21011	<s> (
-1.215999	<s> -
-1.281466	<s> 1
-1.29017	<s> 2
-1.48421	<s> 3
-1.758587	<s> 4
-1.934679	<s> 5
-2.164353	<s> 6
-2.235709	<s> 7
-2.404113	<s> 8
-2.404113	<s> 9
-2.536739	<s> [
-0.8593926	<s> a
-1.582496	<s> b
-0.9735968	<s> c
-1.48421	<s> d
-1.254732	<s> e
-2.070083	<s> f
-2.340444	<s> g
-1.614681	<s> h
-1.863323	<s> i
-2.536739	<s> j
-2.568923	<s> k
-1.266226	<s> l
-2.404113	<s> m
-2.205745	<s> n
-2.452418	<s> o
-1.904716	<s> p
-2.191505	<s> q
-1.966863	<s> r
-1.753448	<s> s
-2.404113	<s> t
-2.603686	<s> u
-1.272934	<s> v
-2.641474	<s> y
-1.802053	<s> «
-2.568923	<s> á
-2.603686	<s> ó
-1.812306	= 0
-1.812306	= 3
-1.774517	= 5
-1.70757	> =
-1.812913	[ c
-1.740363	[ n
-1.812913	[ s
-1.708178	] </s>
-1.812913	] d
-3.264512	a "
-3.628593	a '
-3.084525	a (
-2.448898	a )
-2.060391	a ,
-3.531683	a -
-2.396551	a .
-3.791321	a /
-3.791321	a 0
-3.040322	a 1
-3.108437	a 2
-3.510494	a 3
-3.656622	a 4
-3.602264	a 5
-3.276411	a 6
-2.859585	a 7
-2.940619	a 8
-2.636814	a 9
-2.96939	a :
-2.811524	a ;
-3.25293	a </s>
-3.791321	a [
-1.652301	a a
-1.674954	a b
-1.012709	a c
-0.8149289	a d
-1.621326	a e
-2.097114	a f
-2.097114	a g
-2.828392	a h
-2.145184	a i
-2.269232	a j
-3.791321	a k
-1.013894	a l
-1.439314	a m
-1.112058	a n
-2.238321	a o
-1.3219	a p
-2.200256	a q
-0.8510305	a r
-0.8748187	a s
-1.512983	a t
-1.859585	a u
-2.346992	a v
-3.753532	a x
-1.96114	a y
-2.337169	a z
-3.628593	a «
-3.452502	a »
-3.108437	a é
-2.625887	a í
-2.26217	a ñ
-3.791321	a ó
-2.832713	a ú
-2.786687	b (
-1.533613	b )
-2.651988	b ,
-2.786687	b -
-2.786687	b .
-2.714136	b 1
-2.786687	b </s>
-1.03012	b a
-2.380922	b c
-2.296601	b d
-1.033592	b e
-2.748898	b g
-2.748898	b h
-0.9683411	b i
-1.621254	b j
-0.7208696	b l
-2.786687	b n
-1.39511	b o
-2.413106	b p
-0.5945758	b r
-1.724276	b s
-2.002005	b t
-1.481727	b u
-2.572807	b v
-2.62396	b y
-2.572807	b á
-2.714136	b é
-2.681952	b í
-2.549326	b ó
-2.62396	b ú
-3.307685	c (
-2.347802	c )
-3.307685	c ,
-3.362042	c .
-3.282861	c 0
-3.362042	c 1
-3.392006	c 2
-3.496741	c 3
-3.458952	c 7
-3.496741	c 9
-3.496741	c :
-3.42419	c ;
-0.8838609	c a
-1.747849	c c
-3.215914	c d
-1.057265	c e
-1.65504	c h
-0.5759065	c i
-3.496741	c k
-1.870681	c l
-3.496741	c m
-2.542499	c n
-0.6297023	c o
-3.046772	c p
-3.458952	c q
-1.971107	c r
-3.496741	c s
-1.119832	c t
-0.9715784	c u
-2.80574	c v
-3.362042	c y
-3.496741	c «
-2.947069	c á
-3.282861	c é
-2.43433	c í
-2.62432	c ó
-3.331989	d "
-3.331989	d (
-2.700771	d )
-2.574425	d ,
-2.823834	d .
-3.055783	d ;
-3.331989	d </s>
-0.8753703	d a
-3.508081	d b
-2.120394	d c
-1.959896	d d
-0.331724	d e
-3.124864	d f
-3.331989	d g
-2.934049	d h
-0.9119419	d i
-2.700771	d j
-3.545869	d k
-3.508081	d l
-2.351733	d m
-3.043194	d n
-0.7575079	d o
-2.657843	d p
-2.668184	d q
-1.876299	d r
-3.082112	d s
-3.265043	d t
-1.532649	d u
-3.308508	d v
-3.545869	d w
-2.729929	d y
-3.545869	d »
-3.473319	d á
-3.155898	d é
-2.388605	d í
-3.244839	d ó
-3.608665	e "
-3.868302	e '
-2.931972	e (
-2.190364	e )
-2.069589	e ,
-3.763567	e -
-2.694851	e .
-3.830514	e /
-3.705575	e 0
-2.283355	e 1
-2.581316	e 2
-3.447297	e 3
-3.654423	e 4
-3.529484	e 5
-3.547967	e 6
-3.630941	e 7
-3.705575	e 8
-3.705575	e 9
-2.664182	e :
-3.028882	e ;
-3.567272	e </s>
-1.537889	e a
-2.025466	e b
-1.170281	e c
-1.309921	e d
-1.501625	e e
-1.881938	e f
-1.560223	e g
-2.333354	e h
-2.098791	e i
-2.044591	e j
-3.795752	e k
-0.8096349	e l
-1.479136	e m
-0.7864643	e n
-2.174096	e o
-1.718244	e p
-2.161507	e q
-1.018827	e r
-0.7824283	e s
-1.604344	e t
-1.885209	e u
-1.943553	e v
-3.868302	e w
-1.822269	e x
-2.642523	e y
-2.697507	e z
-3.679246	e «
-3.830514	e ±
-3.462537	e »
-3.679246	e á
-3.131544	e é
-3.511755	e í
-3.228454	e ñ
-3.705575	e ó
-3.31863	e ú
-2.69897	f (
-2.059121	f )
-2.69897	f ,
-2.69897	f .
-2.661181	f 1
-1.325389	f a
-2.661181	f d
-0.8083966	f e
-2.69897	f f
-2.69897	f g
-0.4150523	f i
-1.927449	f l
-0.7309118	f o
-1.422299	f r
-2.509914	f t
-1.407924	f u
-2.661181	f y
-2.418144	f á
-2.325389	f é
-2.08715	f í
-2.661181	f ó
-2.777361	g "
-2.777361	g (
-2.327392	g )
-2.70481	g ,
-2.777361	g /
-0.7221912	g a
-2.777361	g b
-2.614634	g d
-1.089589	g e
-2.777361	g g
-1.088779	g i
-0.7703118	g l
-2.777361	g m
-1.721844	g n
-1.089589	g o
-2.739572	g p
-1.079973	g r
-2.588305	g s
-0.7841251	g u
-2.777361	g y
-2.563481	g á
-2.195504	g é
-2.119784	g í
-1.793448	g ú
-2.672626	g ü
-2.364466	h (
-1.990885	h )
-2.291915	h -
-2.364466	h .
-2.364466	h /
-2.326677	h 1
-2.364466	h 3
-2.364466	h 8
-0.4054243	h a
-1.337673	h e
-1.497373	h i
-2.326677	h m
-0.7488025	h o
-2.364466	h p
-2.326677	h r
-2.326677	h s
-1.326677	h u
-2.364466	h w
-2.104828	h á
-1.513764	h í
-2.364466	h ó
-3.624123	i "
-3.519387	i (
-2.731017	i )
-3.624123	i *
-2.873124	i ,
-3.134036	i .
-3.435066	i :
-3.234152	i ;
-3.435066	i </s>
-1.267749	i a
-2.015208	i b
-0.9253106	i c
-1.036718	i d
-1.116512	i e
-1.7022	i f
-1.572094	i g
-3.551572	i h
-2.237381	i i
-2.513227	i j
-1.829191	i l
-1.394837	i m
-1.066288	i n
-1.066615	i o
-2.027026	i p
-2.568605	i q
-1.396236	i r
-1.111511	i s
-1.32527	i t
-3.323093	i u
-1.347661	i v
-3.586334	i w
-3.147002	i x
-3.042266	i y
-1.68415	i z
-3.586334	i »
-3.489424	i á
-2.697032	i é
-3.461395	i ñ
-0.9747878	i ó
-3.624123	i ú
-2.100189	j )
-2.33755	j 1
-2.33755	j 3
-0.967323	j a
-0.7247661	j e
-2.174823	j i
-0.6546668	j o
-0.7096258	j u
-1.727774	k )
-1.832509	k a
-1.832509	k c
-1.79472	k e
-1.669782	k g
-1.49369	k i
-1.832509	k k
-1.832509	k m
-1.832509	k n
-1.69781	k o
-1.832509	k s
-1.832509	k t
-3.371154	l "
-3.468064	l '
-2.848275	l (
-3.401117	l )
-3.505853	l *
-2.420141	l ,
-2.649618	l .
-3.401117	l 0
-2.436656	l 1
-3.003177	l 2
-2.783817	l 3
-3.371154	l 4
-3.185518	l 5
-3.468064	l 6
-3.468064	l 7
-3.371154	l 8
-3.433302	l 9
-3.505853	l :
-2.884488	l ;
-3.343125	l </s>
-3.468064	l >
-0.4130364	l a
-2.622966	l b
-1.427001	l c
-1.647972	l d
-1.035362	l e
-2.294392	l f
-2.482787	l g
-3.084847	l h
-1.108071	l i
-3.468064	l j
-1.912768	l l
-1.717942	l m
-2.351346	l n
-0.7441298	l o
-1.494551	l p
-2.055884	l q
-1.774924	l r
-1.999471	l s
-1.595422	l t
-1.754854	l u
-2.368268	l v
-2.597855	l y
-3.149305	l z
-3.401117	l «
-3.291973	l »
-2.597855	l á
-3.246215	l é
-2.362554	l í
-2.655151	l ó
-3.149305	l ú
-3.09614	m (
-3.038148	m )
-2.941238	m ,
-3.200875	m -
-3.128325	m .
-3.200875	m /
-3.128325	m 1
-3.09614	m 2
-3.200875	m 3
-3.163087	m ;
-3.128325	m </s>
-0.871385	m a
-1.058429	m b
-3.163087	m c
-2.986995	m d
-0.6233836	m e
-3.200875	m h
-0.639991	m i
-3.200875	m l
-3.163087	m m
-2.619019	m n
-1.07142	m o
-1.009272	m p
-3.09614	m q
-3.066177	m r
-2.963514	m s
-3.200875	m t
-1.308781	m u
-3.200875	m v
-2.88054	m y
-1.69204	m á
-2.237947	m é
-2.27848	m í
-2.844328	m ó
-2.229431	m ú
-3.261045	n "
-2.614173	n (
-3.280351	n )
-3.476645	n *
-3.543592	n +
-1.931692	n ,
-3.446682	n -
-2.290335	n .
-3.581381	n 0
-3.117623	n 1
-3.242562	n 2
-3.476645	n 3
-3.446682	n 4
-3.50883	n 5
-3.543592	n 6
-3.50883	n 7
-3.418653	n 8
-2.932577	n 9
-2.837444	n :
-2.658986	n ;
-2.932577	n </s>
-3.543592	n >
-1.001805	n a
-2.950675	n b
-1.141618	n c
-0.9905186	n d
-0.8682721	n e
-1.64505	n f
-2.035062	n g
-2.859345	n h
-1.200841	n i
-2.874585	n j
-3.50883	n k
-1.370406	n l
-2.081194	n m
-2.407929	n n
-1.280351	n o
-1.660878	n p
-2.233607	n q
-2.160375	n r
-1.194477	n s
-0.7033291	n t
-1.937928	n u
-1.811198	n v
-3.543592	n x
-2.231838	n y
-2.803229	n z
-3.418653	n «
-2.092574	n °
-2.923803	n º
-3.392324	n »
-2.90677	n á
-3.2078	n é
-3.224833	n í
-2.525863	n ó
-2.532868	n ú
-2.99815	o "
-3.568026	o '
-1.989878	o (
-3.182675	o )
-1.71242	o ,
-3.458881	o -
-2.168847	o .
-3.60021	o /
-3.634972	o 0
-1.79403	o 1
-1.971429	o 2
-2.242862	o 3
-2.461301	o 4
-2.657249	o 5
-2.603564	o 6
-2.745671	o 7
-2.805669	o 8
-2.83334	o 9
-2.701316	o :
-2.521029	o ;
-2.856821	o </s>
-1.689668	o a
-1.747543	o b
-1.505712	o c
-1.021924	o d
-1.470868	o e
-2.166379	o f
-2.138966	o g
-2.478625	o h
-1.993168	o i
-3.13437	o j
-3.538062	o k
-1.528045	o l
-1.12521	o m
-0.8503551	o n
-2.051396	o o
-1.409017	o p
-1.878463	o q
-0.9475178	o r
-0.6584314	o s
-1.748952	o t
-2.449336	o u
-2.328547	o v
-3.634972	o w
-2.862895	o x
-2.062876	o y
-3.209004	o z
-3.19564	o «
-3.29918	o »
-3.458881	o é
-3.672761	o ó
-3.371731	o ú
-3.199157	p (
-3.094421	p )
-3.126606	p -
-3.064458	p .
-3.199157	p </s>
-0.7378491	p a
-1.980478	p c
-0.8713334	p e
-3.126606	p h
-1.727332	p i
-1.079181	p l
-3.199157	p n
-0.7081771	p o
-3.199157	p p
-0.6142089	p r
-3.094421	p s
-1.547702	p t
-1.281985	p u
-2.985277	p v
-3.161368	p »
-2.348455	p á
-2.91833	p é
-3.161368	p ê
-2.441209	p í
-2.961796	p ó
-2.262826	p ú
-2.60344	q )
-2.60344	q c
-2.60344	q e
-2.60344	q p
-0.07557549	q u
-2.60344	q y
-3.428016	r "
-3.303077	r (
-3.373658	r )
-2.125541	r ,
-3.490164	r -
-2.922866	r .
-3.562715	r /
-3.524926	r 1
-3.562715	r 2
-3.562715	r 3
-3.524926	r 6
-3.024324	r :
-3.189134	r ;
-3.524926	r </s>
-0.8407541	r a
-2.617336	r b
-1.553341	r c
-1.661603	r d
-0.634086	r e
-2.729046	r f
-1.940406	r g
-3.098957	r h
-1.028804	r i
-2.630979	r j
-3.490164	r k
-1.600216	r l
-1.372128	r m
-2.257754	r n
-0.9247702	r o
-2.213172	r p
-2.43679	r q
-1.760252	r r
-1.670114	r s
-1.010267	r t
-1.802018	r u
-2.052657	r v
-3.562715	r w
-2.778032	r y
-2.729046	r z
-3.261684	r «
-3.457979	r »
-1.251539	r á
-3.524926	r å
-2.419416	r é
-1.925589	r í
-2.848232	r ó
-3.399987	r ú
-2.952859	s "
-3.514301	s '
-2.493112	s (
-3.155279	s )
-1.621015	s ,
-3.298701	s -
-1.935335	s .
-3.619036	s 0
-2.82158	s 1
-2.979188	s 2
-3.183308	s 3
-3.298701	s 4
-3.298701	s 5
-3.298701	s 6
-3.318006	s 7
-3.183308	s 8
-3.280218	s 9
-2.669203	s :
-2.253889	s ;
-2.711039	s </s>
-1.133573	s a
-2.393257	s b
-1.33307	s c
-1.050835	s d
-0.7619781	s e
-2.045532	s f
-2.242128	s g
-2.560059	s h
-1.000893	s i
-3.12895	s j
-3.546486	s k
-1.909921	s l
-1.41963	s m
-1.873678	s n
-1.325573	s o
-1.123997	s p
-1.844851	s q
-1.807949	s r
-1.77225	s s
-0.8974506	s t
-1.357449	s u
-2.327991	s v
-3.619036	s w
-3.619036	s x
-1.78769	s y
-3.183308	s z
-3.229065	s «
-3.155279	s »
-3.183308	s á
-3.484338	s â
-3.318006	s é
-2.453603	s í
-2.706187	s ó
-3.262489	s ú
-3.459022	t (
-3.296295	t )
-3.421234	t ,
-3.386472	t -
-3.386472	t .
-3.459022	t 1
-3.459022	t 2
-3.459022	t 3
-3.459022	t 5
-3.459022	t ;
-3.459022	t </s>
-0.6388805	t a
-3.354287	t b
-3.269966	t c
-3.324324	t d
-0.6885049	t e
-3.459022	t f
-3.421234	t g
-3.269966	t h
-0.7948933	t i
-3.421234	t l
-3.138687	t m
-0.7526148	t o
-1.044961	t r
-3.354287	t s
-3.421234	t t
-1.383807	t u
-3.421234	t v
-3.459022	t w
-3.386472	t y
-3.421234	t »
-2.518144	t á
-3.459022	t å
-3.421234	t è
-1.863927	t é
-1.251951	t í
-2.828317	t ó
-2.920631	t ú
-3.233905	u ,
-3.233905	u .
-1.203846	u a
-1.891483	u b
-1.232099	u c
-1.578287	u d
-0.6466621	u e
-2.438025	u f
-2.23754	u g
-3.271694	u h
-1.24453	u i
-2.572724	u j
-0.8823666	u l
-1.538569	u m
-0.8325047	u n
-2.142825	u o
-1.62024	u p
-2.415459	u q
-1.194491	u r
-1.347885	u s
-1.353092	u t
-2.951359	u u
-2.711026	u v
-2.990867	u x
-1.805231	u y
-2.711026	u z
-3.166958	u á
-2.426596	u é
-2.850688	u í
-3.271694	u ú
-2.735454	v "
-2.498093	v )
-2.546397	v ,
-2.498093	v .
-2.662903	v ;
-2.697665	v </s>
-0.5127373	v a
-2.630718	v c
-2.285485	v d
-0.8004965	v e
-0.5853954	v i
-2.044453	v m
-0.8892291	v o
-2.662903	v p
-2.697665	v s
-2.415118	v u
-2.546397	v y
-2.454627	v á
-2.164062	v é
-2.123634	v í
-1.817746	w )
-1.817746	w ,
-1.817746	w a
-1.817746	w h
-1.628689	w i
-1.817746	w o
-1.817746	w y
-2.24654	x ,
-2.284328	x .
-2.284328	x 1
-1.381238	x a
-1.1382	x c
-2.24654	x d
-1.781653	x e
-2.284328	x h
-0.8329605	x i
-0.7853914	x o
-0.800676	x p
-2.24654	x q
-1.035686	x t
-2.211777	x á
-2.581236	y "
-2.392179	y (
-1.310875	y ,
-2.581236	y -
-1.851776	y /
-2.543447	y 0
-2.042845	y 1
-1.882266	y 2
-2.09115	y 3
-2.2609	y 4
-2.300409	y 5
-2.367356	y 6
-2.207655	y 7
-2.207655	y 8
-2.16023	y 9
-2.581236	y :
-2.145507	y </s>
-0.8323433	y a
-2.242417	y b
-1.418508	y c
-1.028236	y d
-0.9579865	y e
-1.923658	y f
-2.207655	y g
-2.031564	y h
-2.16023	y i
-2.392179	y j
-1.059147	y l
-1.77137	y m
-2.031564	y n
-1.321598	y o
-1.397319	y p
-1.654145	y q
-1.959871	y r
-1.348471	y s
-1.823288	y t
-1.467292	y u
-2.145507	y v
-2.543447	y x
-2.543447	y y
-2.508685	y z
-2.508685	y «
-2.581236	y á
-2.543447	y é
-2.581236	y ó
-2.289849	z (
-2.327637	z )
-2.16491	z ,
-2.192939	z .
-2.327637	z ;
-2.289849	z </s>
-0.3225351	z a
-2.289849	z b
-1.41964	z c
-1.789247	z d
-2.068	z e
-2.327637	z f
-2.138581	z g
-2.138581	z i
-2.289849	z l
-2.222902	z m
-0.9096377	z o
-2.16491	z p
-2.255087	z q
-2.289849	z r
-2.255087	z s
-2.289849	z t
-2.16491	z u
-2.327637	z v
-2.068	z y
-2.327637	z á
-2.068	z ó
-1.613155	z ú
-1.906041	« -
-1.66868	« 1
-1.716985	« 2
-1.66868	« 3
-1.906041	« 4
-1.906041	« 5
-1.83349	« 6
-1.906041	« 7
-1.356369	« a
-1.868253	« b
-1.485036	« c
-1.549494	« d
-1.442284	« e
-1.868253	« g
-1.771343	« i
-1.906041	« j
-1.743314	« l
-1.801306	« m
-1.801306	« n
-1.692161	« p
-1.868253	« r
-1.743314	« s
-1.646404	« t
-1.868253	« u
-1.801306	« v
-1.906041	« y
-1.868253	« z
-0.8927639	° 1
-0.9302557	° 2
-1.245764	° 3
-1.840524	° 4
-1.715586	° 5
-1.975223	° 6
-1.654888	° 7
-1.737862	° 8
-1.786167	° 9
-1.811087	± 1
-1.811087	± 2
-1.49485	º 1
-1.644612	º 2
-1.761118	º 3
-1.833669	º 4
-1.79588	º 5
-1.833669	º 6
-1.69897	º 7
-1.833669	º 8
-1.79588	º 9
-1.79588	º c
-1.79588	º l
-1.832509	» (
-1.770361	» )
-1.378251	» ,
-1.077221	» .
-1.90506	» 2
-1.90506	» 8
-1.584724	» :
-1.624233	» ;
-1.566241	» </s>
-1.867271	» a
-1.800324	» d
-1.800324	» e
-1.832509	» l
-1.832509	» o
-1.832509	» p
-1.867271	» q
-1.69118	» s
-1.742332	» y
-1.755523	á ,
-2.454493	á .
-2.337987	á :
-1.238023	á a
-2.170496	á b
-1.322924	á c
-1.519218	á d
-1.227992	á e
-1.924984	á f
-2.267406	á g
-2.489255	á h
-1.783107	á i
-2.489255	á j
-1.269583	á l
-1.478531	á m
-0.5754413	á n
-2.024368	á o
-1.380916	á p
-2.246217	á q
-1.503978	á r
-0.9685534	á s
-1.776045	á t
-1.769096	á u
-2.422308	á v
-1.687623	á x
-2.527044	á y
-2.454493	á «
-2.489255	á ñ
-2.527044	á ú
-1.678215	â -
-1.773908	å l
-1.811697	å r
-1.773299	è r
-2.175125	é "
-2.212914	é '
-1.911884	é ,
-2.023857	é .
-2.212914	é :
-2.212914	é ;
-2.175125	é </s>
-1.932087	é a
-1.143717	é c
-1.150503	é d
-1.448126	é e
-1.999034	é f
-1.309824	é g
-2.175125	é i
-1.686105	é l
-2.023857	é m
-1.036822	é n
-2.175125	é o
-1.582209	é p
-2.078215	é q
-1.212914	é r
-0.9099141	é s
-1.229	é t
-1.839333	é u
-1.953276	é v
-2.078215	é »
-1.773299	ê c
-2.530413	í ,
-2.568202	í -
-2.568202	í .
-0.8621826	í a
-2.354322	í b
-0.3352056	í c
-1.746271	í d
-2.530413	í e
-1.495651	í f
-2.354322	í g
-2.568202	í i
-2.354322	í l
-1.530413	í m
-1.548897	í n
-1.650553	í o
-2.405474	í p
-2.330841	í q
-2.495651	í r
-1.240378	í s
-1.333133	í t
-2.568202	í u
-2.568202	í y
-2.405474	í z
-2.568202	í ó
-0.7696882	ñ a
-1.844322	ñ e
-2.007049	ñ i
-0.8179929	ñ o
-1.872351	ñ á
-1.242262	ñ í
-1.969261	ñ ó
-2.743795	ó ,
-2.529915	ó a
-2.743795	ó b
-1.81206	ó d
-2.42346	ó e
-1.927855	ó g
-1.739864	ó l
-1.759881	ó m
-0.0923405	ó n
-2.554739	ó p
-2.671244	ó q
-2.216986	ó r
-2.194123	ó s
-2.609096	ó t
-2.639059	ó u
-2.706006	ó v
-2.241119	ó x
-1.925892	ú a
-1.14324	ú b
-1.374137	ú c
-1.63865	ú e
-1.019422	ú l
-1.138786	ú m
-0.6986482	ú n
-2.088619	ú p
-2.016069	ú s
-1.899563	ú t
-1.739755	ü e
-1.812306	ü í

\end\
