
\data\
ngram 1=75
ngram 2=1842

\1-grams:
-3.27143	"	0.6893848
-3.809121	%	0.2170549
-1.992069	'	-0.7274403
-2.639579	(	0.3775206
-2.41797	)	0.4015427
-4.686404	*	-0.006003899
-4.721166	+	-0.01058493
-2.028907	,	0.073612
-2.990115	-	0.7422454
-2.335113	.	-0.1586007
-2.605001	/	-0.3649987
-2.695178	0	-0.0003078205
-2.331557	1	0.0225578
-2.444321	2	0.3580536
-2.674866	3	0.0174083
-2.823081	4	-0.1256432
-2.894551	5	0.282779
-2.81627	6	0.04474891
-2.847555	7	-0.06179608
-2.830931	8	-0.09998186
-2.552619	9	0.1783374
-3.043711	:	0.1145034
-2.851934	;	0.06554447
-2.185661	</s>
-99	<s>	0.1290962
-4.624256	[	0.0490167
-4.624256	]	0.02224673
-1.167586	a	-0.7413354
-2.164361	b	-0.1659412
-1.425049	c	-0.4437314
-1.401696	d	-0.4629084
-0.8860358	e	-0.3522014
-2.034158	f	-0.1085187
-2.015801	g	-0.2026452
-2.363708	h	-0.07720054
-1.144144	i	-0.6267163
-2.813128	j	-0.2439042
-3.706926	k	0.2211854
-1.313747	l	-0.3069115
-1.531418	m	-0.3948021
-1.162557	n	-0.2385765
-1.284235	o	-0.6585887
-1.526143	p	-0.5397231
-2.120919	q	-0.7119116
-1.193268	r	-0.6901636
-1.123233	s	0.2696984
-1.128961	t	-0.4548321
-1.33629	u	-0.07865845
-1.939351	v	-0.6788726
-4.43862	w	0.03483161
-2.312643	x	0.2983193
-2.862829	y	0.346613
-3.638979	z	0.3540069
-3.519314	«	0.5123809
-3.240441	°	-0.201423
-4.721166	±	-0.009471235
-4.084344	º	-0.04495668
-3.517046	»	0.1986126
-4.758955	ß	-0.006050827
-2.317188	à	0.2350994
-4.758955	á	0.01107764
-4.209282	â	0.0632018
-4.758955	ã	0.01668324
-4.686404	å	0.03824315
-3.881269	ç	0.01388046
-2.463887	è	-0.3902886
-1.532542	é	-0.2748601
-2.830466	ê	-0.2843537
-4.654219	ë	0.004470973
-4.029495	î	0.06109175
-4.478128	ï	0.08068924
-4.654219	ó	0.06243619
-3.314626	ô	-0.08298482
-3.648059	ù	0.2851779
-4.084344	û	0.05234702

\2-grams:
-1.987179	" (
-1.727541	" )
-1.472269	" ,
-1.94939	" -
-1.497092	" .
-1.824451	" 1
-1.882443	" 2
-1.85248	" 3
-1.987179	" 6
-1.94939	" 9
-1.415787	" :
-1.773299	" ;
-1.385119	" </s>
-1.510057	" a
-1.749818	" b
-1.581413	" c
-1.706352	" d
-1.55145	" e
-1.987179	" f
-1.914628	" g
-1.987179	" h
-1.706352	" i
-1.581413	" l
-1.94939	" m
-1.824451	" n
-1.773299	" o
-1.749818	" p
-1.914628	" r
-1.706352	" s
-1.686149	" t
-1.987179	" u
-1.824451	" v
-1.987179	" w
-1.575608	% ,
-1.687581	% .
-1.838849	% ;
-1.804087	% a
-1.227834	% d
-1.71391	% e
-1.876638	% i
-1.804087	% l
-1.876638	% m
-1.876638	% o
-1.639277	% p
-1.876638	% r
-1.876638	% v
-1.838849	% »
-2.813581	' )
-2.813581	' ,
-2.813581	' .
-2.650854	' :
-0.3936252	' a
-2.74103	' c
-2.813581	' d
-0.909013	' e
-2.813581	' g
-2.009876	' h
-0.9470252	' i
-2.813581	' l
-1.214492	' o
-2.775792	' p
-0.9546065	' u
-2.813581	' v
-2.493246	' y
-2.813581	' «
-2.182876	' à
-1.140644	' é
-2.42361	' ê
-2.296665	( "
-2.296665	( '
-2.224114	( *
-2.296665	( 0
-0.9488918	( 1
-1.092545	( 2
-1.292735	( 3
-1.434968	( 4
-1.486799	( 5
-1.597695	( 6
-1.725274	( 7
-1.704589	( 8
-1.6753	( 9
-2.037028	( a
-2.19193	( b
-0.6514216	( c
-2.059304	( d
-1.906694	( e
-2.037028	( f
-2.258877	( h
-2.107609	( i
-2.296665	( l
-2.161967	( m
-2.19193	( n
-2.015839	( o
-1.832908	( p
-2.161967	( r
-1.714809	( s
-1.806579	( t
-2.19193	( u
-2.258877	( x
-2.224114	( y
-2.224114	( z
-2.296665	( «
-2.258877	( é
-1.825108	) "
-2.321115	) '
-2.065842	) (
-0.8105699	) ,
-2.455813	) -
-1.562708	) .
-2.293086	) 1
-2.418025	) 2
-2.383263	) 3
-2.455813	) 4
-2.418025	) :
-1.704814	) ;
-1.825108	) </s>
-1.547816	) a
-1.50598	) c
-1.344918	) d
-1.396836	) e
-2.455813	) f
-2.455813	) h
-1.658357	) i
-1.917423	) j
-0.9140074	) l
-2.266757	) m
-0.8344483	) n
-1.906142	) o
-1.664697	) p
-2.116995	) q
-2.135478	) r
-1.741331	) s
-2.034808	) t
-1.863738	) u
-2.321115	) v
-2.455813	) w
-2.418025	) y
-2.034808	) «
-2.351078	) »
-1.519483	) à
-2.005845	) é
-2.383263	) ê
-1.757046	* )
-1.829011	+ 2
-1.829011	+ 3
-2.708094	, "
-2.617917	, (
-2.675909	, 0
-2.617917	, 1
-2.374879	, 2
-2.543284	, 3
-2.521007	, 4
-2.566765	, 5
-2.566765	, 6
-2.617917	, 7
-2.46031	, 8
-2.479614	, 9
-1.057861	, </s>
-1.243398	, a
-2.424097	, b
-1.325108	, c
-0.8967252	, d
-1.085641	, e
-2.242254	, f
-2.566765	, g
-2.645946	, h
-1.53648	, i
-2.521007	, j
-2.780645	, k
-0.8330326	, l
-1.631706	, m
-1.753851	, n
-1.788613	, o
-1.004472	, p
-1.788613	, q
-1.867795	, r
-1.325108	, s
-1.848909	, t
-1.858249	, u
-2.089643	, v
-2.708094	, x
-2.123067	, y
-2.780645	, z
-2.675909	, «
-2.780645	, »
-1.53648	, à
-2.159279	, é
-2.479614	, ê
-2.097226	- "
-2.097226	- 0
-1.883346	- 1
-2.024675	- 2
-2.097226	- 4
-2.059437	- 5
-1.99249	- 7
-2.097226	- 8
-2.097226	- 9
-2.097226	- </s>
-1.367766	- a
-1.859865	- b
-1.00508	- c
-1.165491	- d
-1.707255	- e
-2.024675	- f
-1.99249	- g
-2.024675	- h
-1.837588	- i
-2.024675	- j
-1.134297	- l
-1.582316	- m
-1.962527	- n
-1.776891	- o
-1.448422	- p
-1.67622	- q
-1.883346	- r
-1.515369	- s
-1.837588	- t
-1.633469	- u
-1.816399	- v
-1.69146	- à
-1.837588	- é
-2.097226	- ê
-1.837898	. "
-2.482993	. '
-2.005871	. (
-2.416046	. )
-2.448231	. ,
-2.416046	. .
-2.448231	. 0
-1.637895	. 1
-2.261144	. 2
-2.306901	. 3
-2.28342	. 4
-2.416046	. 5
-2.358054	. 6
-2.482993	. 7
-2.306901	. 8
-2.482993	. 9
-0.3924994	. </s>
-2.520781	. ]
-1.698851	. a
-2.482993	. b
-1.575402	. c
-1.723325	. d
-1.74263	. e
-2.520781	. f
-1.68136	. i
-2.482993	. j
-0.7341588	. l
-2.482993	. n
-2.520781	. o
-1.871978	. p
-1.717076	. s
-1.960114	. t
-1.98239	. u
-2.520781	. «
-1.755994	. »
-2.13081	. à
-2.520781	. é
-1.296892	/ 1
-1.296892	/ 2
-1.504017	/ 3
-1.231016	/ 4
-1.583199	/ 5
-1.212131	/ 6
-1.426852	/ 7
-1.357029	/ 8
-0.9939941	/ 9
-2.319957	/ a
-0.6395394	/ c
-2.319957	/ d
-2.319957	/ e
-2.319957	/ h
-2.282169	/ i
-2.319957	/ j
-1.492118	/ o
-2.260505	0 "
-1.546023	0 %
-2.000868	0 (
-1.699838	0 )
-1.421084	0 ,
-1.85474	0 .
-1.020864	0 /
-0.7325238	0 0
-1.404271	0 1
-1.333415	0 2
-1.561535	0 3
-1.8395	0 4
-1.94017	0 5
-1.870534	0 6
-1.75783	0 7
-1.824776	0 8
-1.8395	0 9
-2.222717	0 ;
-1.620656	0 </s>
-1.959475	0 a
-2.260505	0 b
-2.097778	0 c
-1.482354	0 d
-1.886924	0 e
-2.15577	0 f
-2.222717	0 h
-1.903958	0 j
-2.071449	0 k
-2.260505	0 l
-1.979678	0 m
-2.15577	0 n
-2.187954	0 o
-1.824776	0 p
-2.097778	0 q
-2.125807	0 r
-2.071449	0 s
-2.000868	0 t
-2.260505	0 w
-2.260505	0 »
-2.222717	0 à
-2.000868	0 é
-2.48584	1 "
-2.48584	1 %
-2.167081	1 (
-1.270555	1 )
-1.339712	1 ,
-1.102623	1 .
-1.3775	1 /
-1.326975	1 0
-1.358195	1 1
-1.425142	1 2
-1.454431	1 3
-1.457811	1 4
-1.46465	1 5
-1.58275	1 6
-1.539715	1 7
-1.630522	1 8
-0.8473504	1 9
-2.360901	1 :
-2.18481	1 ;
-2.008718	1 </s>
-2.263991	1 a
-2.38893	1 b
-2.334572	1 c
-1.527594	1 d
-1.168822	1 e
-2.38893	1 f
-2.523628	1 i
-2.263991	1 j
-2.48584	1 k
-2.38893	1 l
-2.203293	1 m
-2.334572	1 n
-2.150048	1 o
-1.625502	1 p
-2.48584	1 q
-2.451077	1 r
-2.117863	1 s
-2.451077	1 t
-2.48584	1 v
-2.334572	1 à
-2.451077	1 é
-2.30103	2 %
-2.221849	2 (
-1.189319	2 )
-1.17177	2 ,
-1.019239	2 .
-1.19382	2 /
-0.9196141	2 0
-1.644612	2 1
-1.464284	2 2
-1.547702	2 3
-1.51808	2 4
-1.537602	2 5
-1.585027	2 6
-1.736759	2 7
-1.638272	2 8
-1.579494	2 9
-2.39794	2 :
-2.176091	2 ;
-1.390761	2 </s>
-2.435729	2 ]
-2.198368	2 a
-2.30103	2 b
-2.435729	2 c
-1.447737	2 d
-1.657577	2 e
-2.330993	2 f
-2.435729	2 h
-2.363178	2 i
-2.198368	2 j
-2.435729	2 l
-2.246672	2 m
-2.273001	2 n
-2.273001	2 o
-1.613798	2 p
-2.39794	2 q
-2.221849	2 r
-2	2 s
-2.39794	2 t
-2.435729	2 u
-2.39794	2 »
-2.273001	2 à
-2.39794	2 é
-2.168792	3 %
-2.084471	3 (
-1.156558	3 )
-1.162632	3 ,
-2.273527	3 -
-1.081924	3 .
-1.141734	3 /
-1.428429	3 0
-1.395842	3 1
-1.590644	3 2
-1.735137	3 3
-1.823558	3 4
-1.746718	3 5
-1.463662	3 6
-1.590644	3 7
-1.735137	3 8
-1.671467	3 9
-2.138829	3 ;
-1.351132	3 </s>
-2.084471	3 a
-2.168792	3 b
-2.235739	3 c
-1.385501	3 d
-1.551492	3 e
-2.235739	3 f
-2.273527	3 i
-2.01389	3 j
-2.235739	3 l
-2.138829	3 m
-2.273527	3 n
-2.200977	3 o
-1.582526	3 p
-2.138829	3 r
-1.91698	3 s
-2.273527	3 v
-2.273527	3 »
-2.084471	3 à
-2.235739	3 é
-2.145869	4 %
-2.020931	4 (
-1.164353	4 )
-1.128141	4 ,
-1.238279	4 .
-1.094717	4 /
-1.612267	4 0
-1.601801	4 1
-1.446899	4 2
-1.591582	4 3
-1.827111	4 4
-1.827111	4 5
-1.633986	4 6
-1.844839	4 7
-1.601801	4 8
-1.500775	4 9
-2.020931	4 ;
-1.386202	4 </s>
-2.048959	4 a
-2.111107	4 b
-2.078923	4 c
-1.552953	4 d
-1.622991	4 e
-2.078923	4 f
-2.183658	4 g
-2.111107	4 h
-1.924021	4 j
-2.183658	4 l
-2.078923	4 m
-2.111107	4 n
-2.020931	4 o
-1.747929	4 p
-2.183658	4 q
-2.145869	4 s
-2.111107	4 »
-2.183658	4 à
-2.145869	4 é
-1.667594	5 %
-1.885078	5 (
-1.152685	5 )
-1.203837	5 ,
-2.144716	5 -
-1.360034	5 .
-1.190473	5 /
-1.584048	5 0
-1.694747	5 1
-1.64204	5 2
-1.694747	5 3
-1.64204	5 4
-1.863889	5 5
-1.629806	5 6
-1.754745	5 7
-1.64204	5 8
-1.843686	5 9
-2.072165	5 :
-1.981988	5 ;
-1.487138	5 </s>
-2.144716	5 ]
-2.106927	5 a
-2.072165	5 b
-2.106927	5 c
-1.514011	5 d
-1.562859	5 e
-2.072165	5 f
-2.106927	5 g
-1.788168	5 j
-2.072165	5 k
-2.144716	5 l
-1.863889	5 m
-1.981988	5 n
-2.010017	5 o
-1.629806	5 p
-2.072165	5 q
-2.144716	5 r
-1.930836	5 s
-2.072165	5 t
-2.144716	5 u
-2.144716	5 v
-2.144716	5 »
-2.106927	5 é
-2.11497	6 %
-1.95016	6 (
-1.371581	6 )
-1.242142	6 ,
-2.149732	6 -
-1.465485	6 .
-0.9664623	6 /
-1.465485	6 0
-1.766515	6 1
-1.465485	6 2
-1.751792	6 3
-1.637849	6 4
-1.7104	6 5
-1.409369	6 6
-1.49652	6 7
-1.383815	6 8
-1.737552	6 9
-2.11497	6 :
-2.052822	6 ;
-1.49652	6 </s>
-2.149732	6 a
-2.052822	6 b
-2.082785	6 c
-1.585461	6 d
-1.7104	6 e
-1.927883	6 f
-2.187521	6 i
-1.830973	6 j
-2.082785	6 m
-2.11497	6 n
-1.626853	6 p
-2.149732	6 q
-2.11497	6 r
-1.95016	6 s
-2.187521	6 t
-2.149732	6 à
-2.149732	6 é
-2.132206	7 %
-1.910358	7 (
-1.463199	7 )
-1.330574	7 ,
-2.169995	7 -
-1.631604	7 .
-1.094116	7 /
-1.471025	7 0
-1.598604	7 1
-1.512418	7 2
-1.53929	7 3
-1.66732	7 4
-1.418996	7 5
-1.471025	7 6
-1.463199	7 7
-1.378879	7 8
-1.609328	7 9
-2.169995	7 :
-2.035296	7 ;
-1.53929	7 </s>
-1.980939	7 a
-2.132206	7 b
-2.132206	7 c
-1.412047	7 d
-1.679909	7 e
-2.007267	7 f
-1.932634	7 j
-1.932634	7 m
-2.097444	7 n
-1.577919	7 p
-2.035296	7 r
-2.065259	7 s
-2.169995	7 t
-2.169995	7 à
-2.132206	7 é
-1.919601	8 (
-1.435301	8 )
-1.53939	8 ,
-2.106688	8 -
-1.597382	8 .
-0.9605596	8 /
-1.640847	8 0
-1.449779	8 1
-1.689152	8 2
-1.664329	8 3
-1.702117	8 4
-1.488237	8 5
-1.457203	8 6
-1.323004	8 7
-1.521661	8 8
-1.34557	8 9
-2.04454	8 ;
-1.548533	8 </s>
-2.179238	8 ]
-2.016511	8 a
-2.14145	8 b
-2.106688	8 c
-1.401087	8 d
-1.758233	8 e
-2.14145	8 f
-2.14145	8 h
-1.858903	8 j
-1.919601	8 m
-2.14145	8 n
-2.106688	8 o
-1.629566	8 p
-2.106688	8 r
-2.074503	8 s
-2.179238	8 à
-2.14145	8 é
-2.251638	9 (
-1.70757	9 )
-1.657404	9 ,
-2.356374	9 -
-1.754314	9 .
-1.16988	9 /
-1.364342	9 0
-1.364342	9 1
-1.32958	9 2
-1.356374	9 3
-1.505672	9 4
-1.528535	9 5
-1.322219	9 6
-1.280495	9 7
-1.162238	9 8
-0.8260574	9 9
-2.356374	9 :
-2.193646	9 ;
-1.795706	9 </s>
-2.356374	9 ]
-2.251638	9 a
-2.283823	9 b
-2.356374	9 c
-1.716525	9 d
-1.892616	9 e
-2.193646	9 f
-2.356374	9 g
-2.318585	9 h
-2.356374	9 i
-2.096736	9 j
-2.356374	9 l
-2.167317	9 m
-2.318585	9 n
-2.119013	9 o
-1.795706	9 p
-2.221675	9 r
-2.318585	9 s
-2.356374	9 t
-2.356374	9 à
-2.283823	9 é
-1.667119	: "
-2.000334	: -
-2.072885	: .
-1.968149	: 1
-2.072885	: 3
-0.4581791	: </s>
-1.734066	: a
-2.072885	: c
-2.035096	: d
-2.000334	: e
-2.072885	: g
-2.072885	: h
-1.557975	: l
-2.072885	: n
-2.035096	: p
-1.883828	: s
-1.734066	: t
-1.716337	: u
-2.000334	: «
-2.072885	: é
-2.129797	; "
-2.167586	; (
-0.388777	; </s>
-2.167586	; a
-2.167586	; b
-1.886759	; c
-1.953706	; d
-1.847251	; e
-2.032887	; i
-1.794005	; l
-2.095035	; o
-2.095035	; p
-1.007581	; q
-2.167586	; s
-2.032887	; t
-2.167586	; u
-1.97853	; »
-2.072779	<s> "
-1.212806	<s> (
-1.22617	<s> -
-1.287623	<s> 1
-1.287623	<s> 2
-1.486906	<s> 3
-1.761283	<s> 4
-1.937375	<s> 5
-2.167049	<s> 6
-2.238405	<s> 7
-2.406809	<s> 8
-2.406809	<s> 9
-2.539435	<s> [
-0.8081912	<s> a
-1.578353	<s> b
-1.004321	<s> c
-1.498042	<s> d
-1.866019	<s> e
-2.105779	<s> f
-2.34314	<s> g
-2.384533	<s> h
-1.810501	<s> i
-2.481443	<s> j
-2.571619	<s> k
-0.9883333	<s> l
-2.105779	<s> m
-2.455114	<s> n
-2.167049	<s> o
-2.062313	<s> p
-2.64417	<s> q
-1.937375	<s> r
-1.846714	<s> s
-2.167049	<s> t
-2.481443	<s> u
-1.273943	<s> v
-1.816331	<s> «
-2.323835	<s> à
-2.455114	<s> é
-1.830764	[ .
-1.758213	[ n
-1.830764	[ s
-1.726028	] </s>
-1.830764	] s
-3.493956	a "
-3.493956	a (
-2.291779	a )
-2.807575	a ,
-3.435964	a -
-3.339054	a .
-3.598691	a /
-3.560903	a 2
-3.560903	a 9
-3.560903	a ;
-2.512979	a a
-1.641389	a b
-1.230996	a c
-1.478117	a d
-2.915808	a e
-2.096016	a f
-1.424182	a g
-3.493956	a h
-1.166451	a i
-2.583179	a j
-1.274409	a l
-1.684396	a m
-0.7858992	a n
-3.20872	a o
-1.146626	a p
-2.125536	a q
-0.8823082	a r
-1.447238	a s
-0.8577545	a t
-1.043047	a u
-1.687776	a v
-2.736994	a x
-2.330454	a y
-3.162962	a z
-3.52614	a «
-3.52614	a »
-3.493956	a à
-3.049019	a ç
-2.512979	a é
-3.435964	a ê
-3.560903	a ë
-2.958843	a î
-3.52614	a ï
-2.662328	b (
-1.415919	b )
-2.361299	b ,
-2.662328	b -
-2.52763	b .
-2.589778	b 1
-2.662328	b ;
-2.662328	b </s>
-1.172242	b a
-2.2266	b c
-2.305781	b d
-1.730593	b e
-2.62454	b h
-1.094127	b i
-1.563842	b j
-0.6491081	b l
-2.662328	b n
-1.361298	b o
-0.5938053	b r
-1.363277	b s
-1.92557	b t
-1.404868	b u
-2.62454	b v
-1.81723	b é
-2.662328	b ê
-3.133184	c '
-3.158008	c (
-2.206613	c )
-2.820255	c ,
-3.158008	c .
-2.973483	c 0
-3.133184	c 1
-3.212365	c 2
-3.347064	c 8
-3.309275	c :
-3.212365	c ;
-3.309275	c </s>
-1.099537	c a
-1.927559	c c
-2.808673	c d
-0.6980832	c e
-3.347064	c f
-1.255877	c h
-1.146164	c i
-2.448937	c k
-1.071229	c l
-3.347064	c m
-3.133184	c n
-0.5533369	c o
-2.797392	c p
-2.537198	c q
-1.822609	c r
-2.735244	c s
-0.9863671	c t
-1.561087	c u
-2.640268	c v
-3.087426	c y
-3.347064	c «
-3.309275	c à
-3.347064	c â
-2.562382	c è
-1.680886	c é
-3.133184	c ê
-3.242328	c ô
-3.23504	d "
-1.083977	d '
-3.33195	d (
-2.502646	d )
-2.854829	d ,
-3.369739	d -
-3.03092	d .
-3.33195	d :
-3.155859	d ;
-3.33195	d </s>
-1.188675	d a
-3.369739	d c
-2.492053	d d
-0.3681622	d e
-3.369739	d f
-2.879652	d g
-2.820067	d h
-0.9478357	d i
-2.662943	d j
-3.369739	d k
-2.670768	d l
-2.249763	d m
-3.155859	d n
-1.461254	d o
-2.767678	d p
-3.33195	d q
-1.782742	d r
-2.229288	d s
-3.155859	d t
-0.9082946	d u
-3.33195	d v
-3.369739	d w
-3.369739	d »
-3.068709	d à
-2.591587	d è
-1.087055	d é
-3.369739	d ê
-3.088912	d û
-3.140005	e "
-3.714036	e '
-2.641694	e (
-2.172301	e )
-1.805886	e ,
-3.004342	e -
-2.206349	e .
-3.804213	e /
-3.687707	e 0
-1.947345	e 1
-2.133539	e 2
-2.421227	e 3
-2.690269	e 4
-2.817786	e 5
-2.714036	e 6
-2.677607	e 7
-2.750839	e 8
-2.571803	e 9
-2.84997	e :
-2.52899	e ;
-3.162281	e </s>
-1.798241	e a
-2.525459	e b
-1.290483	e c
-1.276286	e d
-1.578705	e e
-2.003284	e f
-2.438149	e g
-2.935885	e h
-1.86431	e i
-2.838975	e j
-3.804213	e k
-1.157131	e l
-1.236463	e m
-0.8551608	e n
-2.250703	e o
-1.43514	e p
-2.177005	e q
-1.176296	e r
-0.6360101	e s
-1.242378	e t
-1.413821	e u
-2.121582	e v
-3.876764	e w
-1.802546	e x
-3.804213	e y
-3.399642	e z
-3.455758	e «
-3.838975	e ±
-3.210586	e »
-2.137119	e à
-3.338373	e ç
-2.602186	e é
-3.595937	e ê
-2.703424	f "
-2.775974	f (
-2.145269	f )
-2.354969	f ,
-2.538613	f .
-2.738186	f 1
-2.671239	f ;
-1.086585	f a
-2.495148	f c
-2.061492	f d
-1.206707	f e
-1.003786	f f
-2.775974	f g
-2.775974	f h
-0.5193878	f i
-2.024975	f l
-2.613247	f n
-0.6863903	f o
-2.455639	f p
-2.671239	f q
-1.566947	f r
-1.446299	f s
-2.641276	f t
-2.127171	f u
-2.738186	f v
-2.249165	f à
-2.402394	f è
-1.405747	f é
-2.775974	f ê
-2.775974	f û
-2.792328	g "
-2.792328	g (
-2.371323	g )
-2.719777	g ,
-2.792328	g .
-2.792328	g /
-2.792328	g :
-2.792328	g </s>
-0.9311739	g a
-2.792328	g b
-2.657629	g d
-0.831987	g e
-2.792328	g f
-2.603272	g g
-2.792328	g h
-1.04414	g i
-0.7787248	g l
-2.161623	g m
-1.355154	g n
-1.635064	g o
-2.719777	g p
-0.7085649	g r
-2.629601	g s
-2.161623	g t
-1.294645	g u
-2.754539	g y
-2.077846	g è
-1.355154	g é
-2.49806	h (
-2.108089	h )
-2.49806	h ,
-2.425509	h -
-2.460271	h .
-2.49806	h /
-2.460271	h 1
-2.49806	h 3
-2.49806	h 8
-0.7107926	h a
-2.49806	h d
-0.5060287	h e
-1.321969	h i
-2.309004	h l
-2.425509	h m
-1.552681	h n
-1.260699	h o
-2.062331	h r
-2.363361	h s
-2.425509	h t
-1.670221	h u
-2.49806	h w
-1.636363	h y
-1.916203	h è
-1.010536	h é
-2.393324	h ô
-3.621752	i "
-3.487053	i (
-2.718662	i )
-2.417632	i ,
-2.776654	i -
-2.991047	i .
-3.282933	i 1
-3.517017	i 2
-3.459025	i :
-3.265205	i ;
-3.432696	i </s>
-1.846903	i a
-2.117838	i b
-1.085653	i c
-1.575363	i d
-1.206323	i e
-1.53962	i f
-1.791572	i g
-3.583963	i h
-2.209826	i i
-3.621752	i j
-1.306736	i l
-1.560368	i m
-1.00743	i n
-0.8373942	i o
-2.054619	i p
-1.516087	i q
-1.190388	i r
-0.9217567	i s
-0.938705	i t
-3.186023	i u
-1.361681	i v
-3.583963	i w
-2.147271	i x
-3.432696	i y
-3.265205	i z
-3.517017	i »
-3.215987	i à
-1.913408	i è
-1.912636	i é
-3.621752	i ê
-3.583963	i ó
-1.951951	j )
-2.151523	j .
-1.367381	j a
-0.9147339	j e
-0.7161565	j o
-0.6744018	j u
-1.71219	j à
-1.78533	k )
-1.399979	k a
-1.890065	k c
-1.890065	k d
-1.727338	k e
-1.755367	k g
-1.551247	k i
-1.890065	k k
-1.890065	k m
-1.589035	k o
-1.890065	k p
-1.241262	k s
-1.852277	k y
-1.817515	k é
-3.350691	l "
-0.9608923	l '
-2.690639	l (
-3.382876	l )
-2.287304	l ,
-3.320728	l -
-2.928617	l .
-3.049661	l 1
-3.218066	l 2
-3.382876	l 3
-3.455426	l 4
-3.417638	l 6
-3.382876	l :
-3.098879	l ;
-3.116608	l </s>
-3.455426	l [
-0.7000366	l a
-3.26637	l b
-2.200154	l c
-1.884035	l d
-0.412493	l e
-3.049661	l f
-3.098879	l g
-3.382876	l h
-0.9978196	l i
-3.417638	l j
-1.333061	l l
-3.26637	l m
-2.797849	l n
-1.468655	l o
-2.704427	l p
-2.863351	l q
-2.96534	l r
-1.893675	l s
-2.013945	l t
-1.685915	l u
-2.797849	l v
-2.479786	l y
-3.320728	l »
-2.863351	l à
-3.455426	l á
-2.683906	l è
-1.767654	l é
-3.455426	l ê
-3.116608	l ô
-3.139542	m (
-2.98464	m )
-2.808548	m ,
-3.206489	m -
-3.109579	m .
-3.244277	m /
-3.139542	m 1
-3.139542	m 2
-3.206489	m 3
-3.244277	m 9
-3.244277	m :
-3.171726	m ;
-3.171726	m </s>
-0.9974206	m a
-1.182551	m b
-3.055221	m c
-2.493278	m d
-0.4782024	m e
-3.244277	m f
-3.244277	m g
-0.9307934	m i
-3.08155	m l
-0.9456225	m m
-2.88773	m n
-1.231823	m o
-1.124601	m p
-3.244277	m q
-3.171726	m r
-3.030397	m s
-3.244277	m t
-1.336768	m u
-3.030397	m y
-3.244277	m »
-3.109579	m à
-3.139542	m â
-2.694605	m è
-1.385303	m é
-2.221212	m ê
-3.244277	m ó
-3.11355	n "
-2.392176	n '
-2.562244	n (
-3.264818	n )
-3.565848	n +
-2.047334	n ,
-3.139879	n -
-2.348364	n .
-2.747402	n 1
-3.167908	n 2
-3.603636	n 3
-3.498901	n 4
-3.603636	n 6
-3.531086	n 7
-3.440909	n 8
-2.972931	n 9
-2.982271	n :
-2.80618	n ;
-2.991817	n </s>
-1.20475	n a
-3.02178	n b
-1.227059	n c
-1.083689	n d
-1.033093	n e
-1.652476	n f
-1.992783	n g
-3.001576	n h
-1.341833	n i
-3.053964	n j
-3.531086	n k
-2.221783	n l
-2.273961	n m
-1.440096	n n
-1.493353	n o
-1.921573	n p
-2.375516	n q
-2.123891	n r
-0.8783188	n s
-0.5506278	n t
-2.041885	n u
-1.787697	n v
-3.565848	n x
-3.440909	n y
-3.042969	n z
-3.366276	n «
-2.085122	n °
-2.929026	n º
-3.343999	n »
-2.72075	n à
-3.389756	n ç
-3.565848	n è
-1.538498	n é
-3.484274	o "
-3.484274	o (
-3.379539	o )
-3.411723	o ,
-3.145455	o -
-3.484274	o 0
-2.793273	o 1
-2.882214	o 2
-3.048545	o 3
-3.379539	o 4
-3.484274	o 5
-3.484274	o 7
-3.379539	o 8
-3.484274	o 9
-3.446485	o ;
-3.349575	o a
-1.909717	o b
-1.591673	o c
-1.386102	o d
-2.35248	o e
-2.169641	o f
-1.982841	o g
-3.246913	o h
-1.225724	o i
-2.793273	o j
-3.349575	o k
-1.730482	o l
-0.9977791	o m
-0.4302532	o n
-2.415077	o o
-1.509469	o p
-3.034305	o q
-0.975316	o r
-1.580691	o s
-1.69572	o t
-0.9167129	o u
-2.226814	o v
-2.754815	o x
-2.256154	o y
-3.446485	o z
-3.484274	o »
-3.446485	o é
-3.321547	o î
-3.321547	o ï
-2.373378	o ù
-3.007153	o û
-3.176803	p (
-3.144619	p )
-3.176803	p -
-2.699682	p .
-3.249354	p </s>
-0.7459348	p a
-3.249354	p b
-2.498355	p c
-2.627989	p d
-1.092915	p e
-3.249354	p f
-1.36389	p h
-1.934721	p i
-1.142144	p l
-3.249354	p m
-3.249354	p n
-0.7751378	p o
-1.269971	p p
-0.6114097	p r
-2.600551	p s
-1.487973	p t
-1.81218	p u
-3.035474	p v
-3.176803	p y
-3.211565	p »
-3.249354	p â
-2.609505	p è
-1.29555	p é
-2.387657	p ê
-2.892807	p ô
-2.699759	q )
-2.418932	q a
-2.699759	q d
-2.699759	q e
-2.56506	q j
-2.699759	q l
-2.699759	q m
-2.699759	q p
-0.06381845	q u
-2.699759	q à
-3.272422	r "
-3.183481	r (
-3.410725	r )
-2.318179	r ,
-3.500901	r -
-2.706359	r .
-3.535663	r 0
-2.717217	r 1
-3.253117	r 2
-3.500901	r 3
-3.535663	r 6
-3.070776	r :
-3.083366	r ;
-2.728354	r </s>
-0.9311672	r a
-2.711755	r b
-1.639413	r c
-1.54703	r d
-0.6321663	r e
-2.614845	r f
-2.003121	r g
-3.234633	r h
-1.152147	r i
-2.655803	r j
-3.500901	r k
-1.226566	r l
-1.466242	r m
-1.701561	r n
-1.127706	r o
-2.155452	r p
-2.343003	r q
-1.906424	r r
-1.377301	r s
-1.079424	r t
-1.894685	r u
-2.024895	r v
-3.573452	r w
-3.253117	r y
-3.500901	r z
-3.384396	r «
-3.438753	r »
-2.459508	r à
-3.500901	r â
-3.535663	r å
-3.359572	r ç
-1.569522	r è
-1.0812	r é
-2.173935	r ê
-3.573452	r ó
-2.196543	r ô
-3.535663	r û
-2.912879	s "
-2.357395	s '
-2.543852	s (
-2.920303	s )
-1.622279	s ,
-2.775246	s -
-1.952142	s .
-3.642339	s /
-3.60455	s 0
-2.70146	s 1
-2.851222	s 2
-3.19237	s 3
-3.285791	s 4
-3.252367	s 5
-3.341309	s 6
-3.30352	s 7
-3.221333	s 8
-3.341309	s 9
-2.675131	s :
-2.282331	s ;
-2.729489	s </s>
-1.142901	s a
-2.455845	s b
-1.384224	s c
-1.017026	s d
-0.9243656	s e
-1.974461	s f
-2.553397	s g
-2.976161	s h
-1.108543	s i
-3.221333	s j
-3.569788	s k
-1.468623	s l
-1.462578	s m
-1.996202	s n
-1.241722	s o
-1.161417	s p
-1.745212	s q
-1.752782	s r
-1.151742	s s
-1.143527	s t
-1.295097	s u
-2.023815	s v
-3.60455	s w
-3.642339	s x
-2.540716	s y
-3.236573	s z
-3.127429	s «
-3.20661	s »
-3.642339	s ß
-1.705551	s à
-3.428459	s â
-3.252367	s è
-1.424615	s é
-3.103948	s ê
-3.537603	s î
-3.50764	s û
-3.355871	t "
-2.017225	t (
-3.335668	t )
-1.913914	t ,
-3.17294	t -
-2.484966	t .
-2.803029	t /
-3.636698	t 0
-2.665253	t 1
-2.803029	t 2
-3.065306	t 3
-3.200969	t 4
-3.28015	t 5
-3.37706	t 6
-3.200969	t 7
-3.263117	t 8
-3.200969	t 9
-2.383624	t :
-2.832992	t ;
-3.034638	t </s>
-0.9558678	t a
-2.780463	t b
-1.88851	t c
-1.334091	t d
-0.9002286	t e
-2.327842	t f
-2.987894	t g
-2.501999	t h
-0.6162986	t i
-3.134022	t j
-1.505779	t l
-1.994143	t m
-2.124207	t n
-1.50374	t o
-1.766933	t p
-1.894902	t q
-1.073648	t r
-1.222484	t s
-1.770142	t t
-1.57772	t u
-2.714302	t v
-3.636698	t w
-3.564147	t x
-2.820758	t y
-3.531962	t z
-3.447641	t «
-3.636698	t »
-1.906503	t à
-3.335668	t â
-3.636698	t å
-2.535075	t è
-1.109889	t é
-2.140271	t ê
-3.447641	t ô
-3.244365	u "
-1.779332	u '
-3.395632	u (
-2.718939	u ,
-3.152594	u -
-3.36087	u .
-3.433421	u 0
-2.307496	u 1
-2.347708	u 2
-2.851564	u 3
-3.244365	u 4
-3.19606	u 5
-3.152594	u 6
-3.244365	u 7
-3.219541	u 8
-3.244365	u 9
-3.395632	u ;
-2.983452	u </s>
-1.627241	u a
-1.810171	u b
-1.423275	u c
-1.54234	u d
-0.872862	u e
-2.212362	u f
-2.295836	u g
-3.04345	u h
-1.164545	u i
-2.50633	u j
-3.433421	u k
-1.406628	u l
-1.615075	u m
-0.9978369	u n
-2.821601	u o
-1.391311	u p
-2.668633	u q
-0.7122098	u r
-1.350962	u s
-1.01678	u t
-2.696662	u u
-1.646153	u v
-1.350635	u x
-3.395632	u y
-3.113086	u z
-3.270693	u «
-2.50633	u à
-3.219541	u è
-1.927039	u é
-2.918511	u ê
-3.395632	u ë
-3.395632	u ï
-2.861208	v "
-2.623847	v )
-2.504661	v ,
-2.698481	v .
-2.82342	v ;
-2.788658	v </s>
-0.9478763	v a
-2.788658	v c
-2.471237	v d
-0.4396045	v e
-0.6936226	v i
-2.82342	v l
-2.154413	v m
-1.242685	v o
-2.82342	v p
-1.402914	v r
-1.067545	v u
-2.540873	v è
-1.401542	v é
-2.72651	v ê
-1.835402	w )
-1.835402	w ,
-1.762852	w a
-1.646346	w i
-1.835402	w y
-2.501059	x "
-2.279211	x (
-2.501059	x )
-1.908143	x ,
-2.075091	x -
-2.103119	x .
-2.538848	x 1
-2.501059	x :
-2.301487	x ;
-1.067023	x a
-2.324968	x b
-1.299207	x c
-1.207329	x d
-0.7774668	x e
-1.699427	x f
-2.349792	x g
-2.404149	x h
-1.034933	x i
-2.279211	x j
-2.538848	x k
-2.258021	x l
-1.787849	x m
-1.956991	x n
-1.787849	x o
-0.929933	x p
-1.946772	x q
-1.794911	x r
-1.760697	x s
-1.249827	x t
-2.404149	x u
-1.946772	x v
-2.237818	x y
-2.538848	x z
-2.434113	x »
-2.258021	x à
-1.310728	x é
-2.501059	x ê
-2.538848	x î
-2.08909	y (
-0.9453543	y a
-1.396853	y c
-1.771669	y d
-1.099229	y e
-2.08909	y f
-1.902003	y g
-2.16164	y h
-2.16164	y i
-1.697883	y l
-1.740635	y m
-1.998913	y n
-1.771669	y o
-1.364184	y p
-2.16164	y q
-1.86061	y r
-0.7317412	y s
-1.771669	y t
-2.16164	y w
-2.16164	y z
-1.540275	y é
-2.123852	y ê
-1.900615	z "
-1.900615	z (
-1.900615	z )
-1.862827	z ,
-1.900615	z </s>
-1.900615	z a
-1.900615	z b
-1.900615	z c
-1.828065	z d
-1.329224	z e
-1.900615	z g
-1.79588	z i
-1.686736	z l
-1.862827	z n
-1.109499	z o
-1.900615	z p
-1.900615	z q
-1.900615	z r
-1.828065	z u
-1.828065	z y
-1.663254	z è
-1.900615	z é
-1.922867	« -
-1.685506	« 1
-1.733811	« 2
-1.708987	« 3
-1.922867	« 4
-1.922867	« 5
-1.885078	« 6
-1.922867	« 7
-1.407957	« a
-1.885078	« b
-1.487138	« c
-1.602532	« d
-1.733811	« e
-1.885078	« f
-1.818132	« g
-1.788168	« i
-1.885078	« j
-1.549286	« l
-1.788168	« m
-1.850316	« n
-1.602532	« p
-1.885078	« q
-1.922867	« r
-1.708987	« s
-1.66323	« t
-1.885078	« u
-1.76014	« v
-1.922867	« y
-1.922867	« z
-1.885078	« à
-0.8863318	° 1
-0.948715	° 2
-1.267768	° 3
-1.862529	° 4
-1.716401	° 5
-1.997227	° 6
-1.676892	° 7
-1.716401	° 8
-1.808171	° 9
-1.716401	° l
-1.829011	± 1
-1.829011	± 2
-1.614453	º 1
-1.717116	º 2
-1.814026	º 3
-1.814026	º 4
-1.779263	º 5
-1.851814	º 6
-1.717116	º 7
-1.851814	º 8
-1.814026	º 9
-1.662758	º c
-1.717116	º l
-1.923338	» (
-1.734282	» )
-1.351947	» ,
-1.473369	» .
-1.923338	» 8
-1.622308	» :
-1.850788	» ;
-1.107398	» </s>
-1.850788	» a
-1.818603	» d
-1.549758	» e
-1.923338	» f
-1.88555	» l
-1.818603	» o
-1.88555	» p
-1.923338	» r
-1.685977	» s
-1.923338	» u
-1.923338	» é
-1.828426	ß -
-2.372452	à -
-2.462628	à 0
-2.08521	à 1
-2.372452	à 2
-2.372452	à 3
-2.346123	à 4
-2.297818	à 5
-2.462628	à 6
-2.497391	à 7
-2.497391	à 8
-2.400481	à 9
-2.497391	à :
-1.852296	à a
-2.045093	à b
-1.134092	à c
-1.403385	à d
-2.09945	à e
-2.058058	à f
-2.129414	à g
-2.321299	à h
-2.346123	à i
-2.275542	à j
-0.3094	à l
-1.820697	à m
-2.372452	à n
-2.430444	à o
-1.421236	à p
-2.254352	à q
-1.886376	à r
-1.80572	à s
-1.627182	à t
-1.39188	à u
-2.178632	à v
-2.497391	à «
-2.161598	à é
-2.145208	à ê
-1.828426	á d
-1.709835	â -
-1.844534	â b
-1.470953	â c
-1.771983	â g
-1.806745	â l
-1.844534	â n
-1.844534	â t
-1.828426	ã o
-1.791808	å l
-1.829596	å r
-1.447693	ç a
-1.319026	ç o
-1.378612	ç u
-1.868698	ç ã
-1.642854	è c
-1.71421	è d
-0.4842175	è g
-1.894196	è l
-1.116045	è m
-1.663057	è n
-2.286307	è q
-0.7438963	è r
-1.078583	è s
-1.82893	è t
-1.746395	è v
-2.922861	é "
-3.170645	é '
-2.728286	é (
-3.108497	é )
-1.962369	é ,
-3.108497	é -
-2.123221	é .
-2.716387	é :
-2.43333	é ;
-2.922861	é </s>
-1.682529	é a
-2.376104	é b
-1.057216	é c
-1.228065	é d
-0.8424225	é e
-1.779439	é f
-1.341589	é g
-2.506437	é h
-2.05414	é i
-2.259283	é j
-1.531772	é l
-1.481815	é m
-1.730706	é n
-2.335199	é o
-1.488709	é p
-1.996787	é q
-1.029316	é r
-0.8112476	é s
-0.9268443	é t
-2.521161	é u
-1.392494	é v
-3.029316	é «
-3.029316	é »
-2.216403	é à
-2.085932	é é
-3.243196	é ê
-1.317802	ê c
-2.1795	ê l
-1.145345	ê m
-0.3440973	ê t
-1.83018	ë (
-1.83018	ë .
-1.792392	ë l
-1.692957	î c
-1.720986	î l
-1.499137	î n
-1.378563	î t
-1.699549	ï n
-1.834247	ï q
-1.761697	ï s
-1.796459	ï t
-1.83018	ó m
-1.792392	ó n
-1.83018	ó s
-0.5987192	ô l
-1.71433	ô m
-1.973967	ô p
-1.371907	ô t
-1.826573	ù ,
-1.899124	ù :
-1.861335	ù a
-1.560305	ù c
-1.710068	ù d
-1.618297	ù e
-1.542576	ù i
-1.127603	ù l
-1.899124	ù p
-1.598094	ù s
-1.899124	ù t
-1.639486	ù u
-1.814026	û l
-1.614453	û m
-1.717116	û r
-1.361728	û t
-1.814026	û ê

\end\
