
\data\
ngram 1=90
ngram 2=2089

\1-grams:
-4.70882	!	-0.01020972
-2.942283	"	0.4159428
-3.810278	%	-0.02261291
-2.483295	(	-0.107298
-2.348827	)	0.1624947
-4.164752	*	-0.01100889
-4.70882	+	-0.008338457
-2.051048	,	0.005145149
-2.614233	-	0.2592243
-2.085226	.	-0.1224384
-2.505379	/	-0.334934
-2.683514	0	-0.1182154
-2.326803	1	-0.4593396
-2.440476	2	-0.4614815
-2.671726	3	-0.2542032
-2.818585	4	-0.1879897
-2.890374	5	-0.06440451
-2.829437	6	-0.1802675
-2.856544	7	-0.2581089
-2.840078	8	-0.2559503
-2.564765	9	-0.3485839
-3.006964	:	0.1262769
-2.808908	;	-0.04204924
-2.173315	</s>
-99	<s>	0.1097517
-3.145537	[	-0.216559
-3.145537	]	0.3660137
-1.096443	a	0.3676437
-1.721117	b	-0.4349661
-2.119709	c	-0.2911836
-1.840029	d	0.02872695
-0.9665076	e	-0.9370947
-2.143071	f	-0.4003496
-1.508722	g	0.3403379
-1.931514	h	-0.5103104
-1.421765	i	-0.3012126
-2.029317	j	0.08881858
-1.257943	k	-0.3083862
-1.167314	l	-0.02740604
-1.59039	m	0.457329
-1.31415	n	0.1275667
-1.477011	o	-0.7571809
-2.159306	p	0.1246698
-4.557552	q	-0.009272492
-1.477967	r	0.5570176
-1.263307	s	-0.3508909
-1.118211	t	0.6370004
-2.32876	u	0.1407334
-1.740454	v	-0.02547358
-4.465782	w	0.02832396
-3.589344	x	0.1554004
-1.715899	y	0.05698735
-1.349934	z	-0.3983122
-4.746609	ß	-0.004338019
-1.44477	á	-0.7236069
-4.746609	ã	0.009332033
-4.70882	ä	0.000667467
-4.641873	å	0.08515653
-4.746609	ç	-0.005387248
-4.70882	è	0.008811944
-1.411388	é	-0.8613372
-4.70882	ê	-0.002572936
-2.183883	í	-0.5587475
-1.965441	ó	0.08053546
-1.984408	ö	-0.6820276
-2.82186	ú	0.4770874
-2.328911	ü	-0.4171093
-2.026976	ő	0.06625868
-2.927663	ű	0.5748309
-4.746609	ά	-0.005385833
-4.746609	α	-0.00538654
-4.746609	γ	-0.005387248
-4.674058	δ	-0.01632612
-4.70882	ε	-0.008887533
-4.746609	η	-0.005385833
-4.70882	ι	-0.0108272
-4.70882	λ	-0.01082933
-4.70882	μ	-0.01082933
-4.70882	ν	-0.01082862
-4.641873	ο	-0.0218825
-4.674058	ρ	-0.01632683
-4.70882	ς	0.02541724
-4.674058	σ	-0.01632753
-4.746609	ω	-0.00538654
-4.70882	ό	-0.01082862
-3.493535	–	0.5932922
-4.674058	—	0.07822574
-4.70882	’	0.0441127
-4.746609	…	-0.002471349
-4.641873	≥	-0.01444862

\2-grams:
-1.908972	! "
-1.908972	! –
-1.536174	" (
-1.736534	" )
-1.654864	" ,
-2.119751	" -
-1.920178	" .
-1.876713	" 1
-1.920178	" 2
-1.968483	" 3
-2.157539	" 4
-2.084989	" 5
-1.943659	" 6
-2.157539	" 7
-2.084989	" 9
-1.360083	" :
-1.607867	" ;
-1.225804	" </s>
-1.360083	" a
-1.667453	" b
-1.837204	" c
-2.02284	" d
-1.642629	" e
-1.856509	" f
-2.084989	" g
-1.751774	" h
-1.800992	" i
-1.943659	" j
-1.586148	" k
-1.897902	" l
-1.667453	" m
-1.920178	" n
-1.968483	" o
-1.943659	" p
-1.968483	" r
-1.555479	" s
-1.721811	" t
-2.119751	" u
-1.783959	" v
-2.157539	" w
-1.920178	" á
-1.837204	" é
-1.994812	" ö
-2.157539	" ú
-2.157539	" ο
-2.119751	" –
-2.157539	" —
-1.909823	% "
-1.947612	% )
-1.733732	% ,
-1.113943	% -
-1.875061	% .
-1.947612	% ;
-1.947612	% b
-1.947612	% i
-1.909823	% v
-1.947612	% z
-2.31582	( "
-2.420556	( %
-2.420556	( 0
-0.6503735	( 1
-0.7247558	( 2
-1.037067	( 3
-1.282972	( 4
-1.449111	( 5
-1.61685	( 6
-1.838699	( 7
-1.882165	( 8
-1.859889	( 9
-1.745945	( a
-2.081737	( b
-1.99955	( c
-2.420556	( d
-1.838699	( e
-2.160918	( f
-2.382767	( h
-2.31582	( i
-2.420556	( j
-2.285857	( k
-2.2315	( m
-2.183195	( n
-2.285857	( o
-2.285857	( p
-2.160918	( s
-2.2315	( t
-2.31582	( v
-2.420556	( w
-2.348005	( z
-2.31582	( á
-2.420556	( é
-2.420556	( ο
-1.740243	) "
-2.480606	) (
-1.696464	) ,
-2.329338	) -
-2.329338	) .
-2.198059	) 1
-2.383696	) 2
-2.518394	) 4
-2.518394	) 6
-2.518394	) 9
-2.281033	) ;
-1.714689	) </s>
-2.518394	) [
-0.5279747	) a
-0.7115979	) b
-2.413659	) c
-2.445844	) d
-1.510569	) e
-2.281033	) f
-2.480606	) g
-1.860817	) h
-2.281033	) i
-2.413659	) j
-1.991585	) k
-2.128423	) l
-1.510569	) m
-2.198059	) n
-2.161847	) o
-1.24592	) p
-2.355667	) r
-2.015719	) s
-2.003484	) t
-2.518394	) u
-1.897029	) v
-2.518394	) w
-2.480606	) y
-2.258757	) á
-1.559787	) é
-2.518394	) í
-2.445844	) ö
-2.304514	) –
-1.502333	* *
-1.850788	* 1
-1.88555	* 2
-1.923338	* 8
-1.850788	* ]
-1.88555	* h
-1.923338	* i
-1.923338	* é
-1.908972	+ 2
-1.908972	+ 3
-2.479664	, "
-2.459461	, (
-2.655756	, -
-2.500854	, 0
-1.551464	, 1
-2.08588	, 2
-2.625793	, 3
-2.597764	, 4
-2.459461	, 5
-2.500854	, 6
-2.546611	, 7
-2.459461	, 8
-2.479664	, 9
-1.048301	, </s>
-0.5755416	, a
-1.789047	, b
-2.148671	, c
-2.139126	, d
-1.691294	, e
-1.733698	, f
-2.440156	, g
-0.9009706	, h
-1.359404	, i
-2.339486	, j
-1.611552	, k
-2.245581	, l
-1.571435	, m
-2.053696	, n
-2.500854	, o
-2.245581	, p
-2.031032	, r
-1.867385	, s
-1.730002	, t
-2.52313	, u
-1.186986	, v
-2.760491	, x
-2.655756	, z
-2.52313	, á
-1.287336	, é
-2.571435	, í
-2.500854	, ö
-2.310522	, ú
-2.68794	, ü
-2.760491	, –
-2.119842	- "
-2.199023	- (
-2.228987	- ,
-2.144666	- 1
-2.295933	- 2
-2.333722	- 4
-2.333722	- 5
-2.333722	- 6
-2.228987	- 7
-2.333722	- 8
-2.333722	- 9
-2.261171	- :
-0.9437509	- a
-1.731662	- b
-2.119842	- c
-2.119842	- d
-1.149805	- e
-1.831047	- f
-2.052895	- g
-1.642721	- h
-0.9949034	- i
-1.401987	- j
-1.461301	- k
-2.119842	- l
-1.642721	- m
-1.78405	- n
-1.78405	- o
-2.074085	- p
-1.751865	- r
-1.642721	- s
-1.440616	- t
-2.295933	- u
-1.596963	- v
-1.650839	- á
-1.213747	- é
-2.261171	- ö
-2.333722	- ú
-2.261171	- ü
-2.333722	- ő
-1.719537	. "
-2.731222	. (
-1.869525	. )
-2.731222	. *
-1.886124	. ,
-2.731222	. -
-2.731222	. .
-2.626487	. 0
-2.281253	. 1
-2.410887	. 2
-2.568495	. 3
-2.568495	. 4
-2.658672	. 5
-2.731222	. 7
-2.517343	. 8
-0.6124468	. </s>
-2.731222	. [
-2.693434	. ]
-1.081534	. a
-2.471585	. b
-0.571218	. c
-1.833096	. d
-1.658672	. e
-1.838117	. f
-2.693434	. g
-2.392404	. h
-2.568495	. i
-1.547306	. j
-2.109857	. k
-2.596524	. l
-1.271556	. m
-2.100517	. n
-1.973274	. o
-1.959702	. p
-2.181551	. r
-1.980223	. s
-2.325457	. t
-2.658672	. u
-2.471585	. v
-2.357642	. á
-1.614253	. é
-2.693434	. í
-2.693434	. ö
-2.626487	. ú
-2.731222	. ü
-2.731222	. –
-2.4053	/ -
-2.4053	/ 0
-1.421387	/ 1
-1.385995	/ 2
-1.58936	/ 3
-1.342889	/ 4
-1.647352	/ 5
-1.336103	/ 6
-1.482905	/ 7
-1.433855	/ 8
-1.108236	/ 9
-2.4053	/ a
-2.367511	/ c
-0.4814908	/ e
-2.4053	/ g
-2.4053	/ h
-2.332749	/ i
-2.4053	/ l
-2.19142	/ t
-1.756496	/ v
-2.4053	/ ó
-1.600448	0 %
-2.253661	0 (
-1.971114	0 )
-1.934902	0 ,
-1.709593	0 -
-1.079989	0 .
-0.9436762	0 /
-0.7622993	0 0
-1.446352	0 1
-1.355119	0 2
-1.584654	0 3
-1.885684	0 4
-1.99042	0 5
-1.917869	0 6
-1.788774	0 7
-1.885684	0 8
-1.870444	0 9
-2.29145	0 [
-2.128722	0 ]
-2.07757	0 a
-2.29145	0 b
-2.156751	0 c
-2.218899	0 d
-2.07757	0 e
-2.29145	0 f
-2.253661	0 h
-2.010623	0 k
-1.99042	0 m
-2.031812	0 n
-2.29145	0 r
-2.186714	0 s
-2.186714	0 t
-2.29145	0 w
-2.253661	0 á
-2.186714	0 é
-2.497391	1 %
-2.462628	1 (
-0.8346326	1 )
-2.214844	1 ,
-1.415204	1 -
-0.9659115	1 .
-1.30011	1 /
-1.341043	1 0
-1.394728	1 1
-1.436693	1 2
-1.49739	1 3
-1.48315	1 4
-1.446238	1 5
-1.608089	1 6
-1.567971	1 7
-1.652292	1 8
-0.9026297	1 9
-2.535179	1 ;
-1.57225	1 ]
-2.430444	1 a
-2.535179	1 c
-2.497391	1 e
-2.372452	1 k
-2.535179	1 n
-2.497391	1 p
-2.462628	1 s
-2.535179	1 t
-2.497391	1 v
-2.462628	1 é
-2.535179	1 –
-2.450809	2 "
-2.346073	2 %
-2.450809	2 (
-0.7803942	2 )
-2.41302	2 ,
-1.948133	2 -
-0.9287204	2 .
-1.103035	2 /
-0.9322948	2 0
-1.647103	2 1
-1.500975	2 2
-1.567922	2 3
-1.500975	2 4
-1.578388	2 5
-1.62297	2 6
-1.784631	2 7
-1.692861	2 8
-1.61714	2 9
-1.492201	2 ]
-2.31611	2 a
-2.450809	2 b
-2.450809	2 c
-2.191171	2 h
-2.236929	2 k
-2.450809	2 m
-2.346073	2 n
-2.450809	2 p
-2.450809	2 r
-2.450809	2 t
-2.378258	2 é
-2.41302	2 ó
-2.450809	2 –
-2.298456	3 "
-2.225905	3 %
-0.8989397	3 )
-2.298456	3 ,
-1.80837	3 -
-0.8109321	3 .
-1.089429	3 /
-1.447754	3 0
-1.436759	3 1
-1.615573	3 2
-1.748784	3 3
-1.848487	3 4
-1.795781	3 5
-1.48859	3 6
-1.632279	3 7
-1.771647	3 8
-1.70638	3 9
-1.453358	3 ]
-2.225905	3 a
-2.260668	3 b
-2.298456	3 c
-2.298456	3 e
-2.298456	3 h
-2.298456	3 k
-2.298456	3 m
-2.298456	3 r
-2.260668	3 t
-2.193721	3 é
-2.193721	3 –
-2.178977	4 %
-1.056761	4 )
-2.178977	4 ,
-1.726679	4 -
-0.851618	4 .
-1.065034	4 /
-1.645374	4 0
-1.62469	4 1
-1.502283	4 2
-1.62469	4 3
-1.89643	4 4
-1.89643	4 5
-1.678375	4 6
-1.877947	4 7
-1.634909	4 8
-1.550588	4 9
-1.458818	4 ]
-2.178977	4 a
-2.216765	4 b
-2.216765	4 e
-2.144215	4 h
-2.216765	4 k
-2.216765	4 m
-2.178977	4 n
-2.216765	4 s
-2.11203	4 ó
-1.717566	5 %
-1.169638	5 )
-2.181324	5 ,
-1.523746	5 -
-0.8744116	5 .
-1.112127	5 /
-1.609933	5 0
-1.731355	5 1
-1.631652	5 2
-1.745595	5 3
-1.654515	5 4
-1.921687	5 5
-1.666414	5 6
-1.807743	5 7
-1.717566	5 8
-1.921687	5 9
-2.181324	5 </s>
-1.53252	5 ]
-2.143535	5 a
-2.181324	5 c
-2.108773	5 d
-2.108773	5 e
-2.143535	5 g
-2.181324	5 h
-2.108773	5 k
-2.108773	5 m
-2.076588	5 n
-2.076588	5 t
-2.143535	5 á
-2.143535	5 é
-2.106482	6 %
-2.211218	6 (
-1.395278	6 )
-2.211218	6 ,
-1.696308	6 -
-0.9043055	6 .
-0.9121662	6 /
-1.496735	6 0
-1.805452	6 1
-1.496735	6 2
-1.790212	6 3
-1.696308	6 4
-1.805452	6 5
-1.467281	6 6
-1.571369	6 7
-1.439697	6 8
-1.790212	6 9
-1.661546	6 ]
-2.138667	6 a
-2.211218	6 c
-2.138667	6 e
-2.173429	6 h
-2.211218	6 k
-2.211218	6 m
-2.106482	6 n
-2.211218	6 t
-2.159868	7 %
-2.159868	7 (
-1.595596	7 )
-2.159868	7 ,
-1.659266	7 -
-0.9147666	7 .
-0.9984999	7 /
-1.506655	7 0
-1.659266	7 1
-1.557808	7 2
-1.605581	7 3
-1.720535	7 4
-1.506655	7 5
-1.523046	7 6
-1.483174	7 7
-1.412974	7 8
-1.647985	7 9
-1.807685	7 ]
-2.159868	7 a
-2.197656	7 b
-2.197656	7 k
-2.197656	7 m
-2.197656	7 n
-2.197656	7 s
-2.197656	7 u
-2.197656	7 –
-1.575139	8 )
-2.205844	8 ,
-1.645177	8 -
-0.9662032	8 .
-0.90878	8 /
-1.679035	8 0
-1.491362	8 1
-1.742087	8 2
-1.679035	8 3
-1.755875	8 4
-1.531233	8 5
-1.499048	8 6
-1.395978	8 7
-1.565995	8 8
-1.383914	8 9
-1.815873	8 ]
-2.133293	8 a
-2.205844	8 e
-2.205844	8 h
-2.205844	8 k
-2.168055	8 ó
-2.205844	8 –
-2.365488	9 %
-1.875402	9 )
-2.292937	9 ,
-1.804821	9 -
-1.137368	9 .
-1.112414	9 /
-1.389847	9 0
-1.377497	9 1
-1.385691	9 2
-1.381575	9 3
-1.52039	9 4
-1.543558	9 5
-1.373457	9 6
-1.373457	9 7
-1.21936	9 8
-0.8433996	9 9
-2.045153	9 ]
-2.365488	9 a
-2.260753	9 b
-2.292937	9 e
-2.365488	9 g
-2.327699	9 h
-2.365488	9 i
-2.292937	9 k
-2.365488	9 m
-2.365488	9 p
-2.365488	9 é
-2.365488	9 ö
-2.365488	9 –
-1.548185	: "
-2.130041	: ,
-1.967314	: -
-1.995343	: 1
-0.5124691	: </s>
-1.379042	: a
-1.967314	: b
-1.967314	: e
-2.025306	: f
-2.130041	: g
-2.130041	: k
-1.967314	: m
-2.092253	: n
-1.849215	: o
-2.130041	: p
-2.092253	: s
-2.025306	: t
-2.130041	: u
-2.057491	: v
-2.130041	: á
-2.130041	: é
-2.130041	: –
-2.130041	: …
-2.032714	; "
-2.22177	; )
-2.22177	; *
-2.22177	; 8
-2.22177	; :
-0.4306535	; </s>
-1.61971	; a
-2.22177	; b
-1.882951	; e
-2.183981	; f
-2.22177	; h
-2.087071	; i
-2.22177	; k
-1.037853	; m
-2.183981	; o
-2.22177	; s
-2.183981	; t
-2.22177	; u
-1.848189	; v
-1.731683	; é
-1.669412	<s> "
-0.6931868	<s> (
-2.657403	<s> ,
-1.234903	<s> -
-2.619615	<s> .
-1.389166	<s> 1
-1.47091	<s> 2
-1.703161	<s> 3
-1.806702	<s> 4
-2.017555	<s> 5
-1.991226	<s> 6
-2.036038	<s> 7
-2.167317	<s> 8
-2.180282	<s> 9
-0.8506072	<s> a
-1.581525	<s> b
-1.66137	<s> c
-1.966403	<s> d
-1.243951	<s> e
-2.045584	<s> f
-2.356374	<s> g
-1.935368	<s> h
-1.853698	<s> i
-2.468347	<s> j
-2.300856	<s> k
-2.619615	<s> l
-1.157217	<s> m
-2.494676	<s> n
-2.619615	<s> o
-2.584853	<s> p
-2.584853	<s> r
-2.420043	<s> s
-1.280495	<s> t
-2.657403	<s> u
-2.420043	<s> v
-2.619615	<s> x
-2.552668	<s> z
-2.494676	<s> á
-2.657403	<s> é
-2.657403	<s> ö
-2.619615	<s> –
-2.006301	[ *
-0.9679564	[ 1
-1.120245	[ 2
-1.239431	[ 3
-1.356817	[ 4
-1.507461	[ 5
-1.576177	[ 6
-1.740034	[ 7
-1.798025	[ 8
-1.889796	[ 9
-2.078852	[ v
-2.078852	[ x
-1.094939	] ,
-1.916125	] .
-1.889796	] 1
-2.006301	] 2
-1.944154	] 3
-2.006301	] 4
-2.041064	] 5
-2.078852	] 6
-2.078852	] 7
-2.041064	] 8
-2.078852	] 9
-1.889796	] ;
-2.041064	] </s>
-1.705271	] a
-1.916125	] b
-1.798025	] e
-2.041064	] f
-1.841491	] h
-1.705271	] i
-2.041064	] j
-1.944154	] k
-1.974117	] l
-1.048363	] m
-2.078852	] n
-2.078852	] o
-1.889796	] r
-1.889796	] s
-1.916125	] t
-1.916125	] v
-1.974117	] á
-1.185746	] é
-2.006301	] ö
-2.006301	] –
-2.785451	a "
-2.694944	a (
-2.343239	a )
-2.015318	a ,
-2.906873	a -
-2.345157	a .
-3.657872	a /
-3.356843	a 0
-2.461219	a 1
-2.285965	a 2
-2.523174	a 3
-3.009069	a 4
-3.657872	a 5
-2.841933	a 6
-2.568931	a 7
-2.673959	a 8
-2.461219	a 9
-3.337537	a :
-2.830034	a ;
-3.194115	a </s>
-3.167786	a [
-1.877752	a a
-1.477851	a b
-2.029948	a c
-1.5403	a d
-2.212127	a e
-2.095039	a f
-1.232546	a g
-1.895808	a h
-1.662636	a i
-1.783338	a j
-1.096229	a k
-0.9634269	a l
-1.201231	a m
-1.070162	a n
-3.167786	a o
-1.519713	a p
-1.463484	a r
-1.455731	a s
-0.8047276	a t
-2.983262	a u
-1.6997	a v
-3.657872	a w
-3.180751	a x
-3.553137	a y
-0.9540343	a z
-3.657872	a ß
-3.018024	a á
-3.657872	a ç
-2.418232	a é
-3.207904	a í
-3.620084	a ó
-3.356843	a ö
-3.443993	a ú
-3.523174	a ü
-3.620084	a ő
-3.398235	a –
-3.553137	a ≥
-1.808436	b )
-2.566992	b ,
-2.894351	b -
-2.465002	b .
-2.984527	b 0
-2.475221	b 1
-2.718259	b 2
-2.922379	b 3
-3.019289	b 4
-2.952343	b 5
-3.057078	b 6
-2.984527	b 7
-3.057078	b 8
-2.984527	b 9
-3.019289	b :
-2.984527	b ;
-0.8439226	b a
-1.108132	b b
-3.019289	b c
-0.4233342	b e
-2.797441	b f
-3.057078	b g
-2.621349	b h
-0.88125	b i
-2.718259	b j
-2.358108	b k
-2.382467	b l
-2.327619	b m
-2.636073	b n
-1.665501	b o
-2.797441	b p
-2.217657	b r
-2.073165	b s
-2.320319	b t
-2.374195	b u
-2.149081	b v
-1.245381	b á
-2.235148	b é
-2.012111	b í
-1.585253	b ó
-2.313141	b ö
-2.894351	b ú
-2.797441	b ü
-1.925284	b ő
-2.797441	b ű
-2.597303	c (
-1.561588	c )
-2.702039	c ,
-2.512982	c -
-2.238281	c .
-2.702039	c 1
-2.66425	c 3
-2.702039	c 9
-2.224917	c a
-2.66425	c b
-2.464678	c c
-2.702039	c d
-1.594212	c e
-2.629488	c f
-1.803912	c h
-0.3801956	c i
-1.803912	c k
-2.512982	c m
-2.66425	c n
-1.995243	c o
-2.281033	c p
-2.152367	c r
-0.6396276	c s
-2.464678	c t
-1.808933	c u
-2.629488	c z
-2.152367	c á
-1.313679	c é
-1.671549	c í
-2.702039	c ü
-2.784929	d "
-2.947656	d (
-2.05963	d )
-2.733777	d ,
-2.646626	d -
-2.710295	d .
-2.947656	d /
-2.909868	d ;
-2.947656	d </s>
-1.203008	d a
-2.710295	d b
-2.947656	d c
-2.557685	d d
-0.5944224	d e
-2.688019	d f
-2.784929	d g
-2.015921	d h
-1.317876	d i
-1.721877	d j
-2.541891	d k
-2.688019	d l
-2.039659	d m
-1.871778	d n
-1.025734	d o
-2.812958	d p
-2.273046	d r
-1.522182	d s
-1.774205	d t
-2.218197	d u
-2.020566	d v
-2.947656	d w
-2.733777	d z
-1.467911	d á
-0.6828386	d é
-2.096955	d í
-1.585929	d ó
-2.05963	d ö
-2.947656	d ú
-2.909868	d ü
-1.351559	d ő
-2.947656	d ű
-2.947656	d –
-3.295742	e "
-2.645377	e (
-3.063793	e )
-2.102126	e ,
-3.335859	e -
-2.716631	e .
-3.526191	e 1
-3.713277	e 2
-3.713277	e 3
-3.748039	e 4
-3.785828	e 5
-3.785828	e 6
-3.748039	e 7
-3.350099	e :
-2.887701	e ;
-3.137025	e </s>
-2.703369	e [
-1.995351	e a
-2.443405	e b
-2.319365	e c
-1.744435	e d
-2.517591	e e
-2.355929	e f
-1.074174	e g
-1.876369	e h
-2.017661	e i
-2.146885	e j
-0.9572852	e k
-0.6681349	e l
-1.458376	e m
-0.8977506	e n
-3.335859	e o
-2.530555	e p
-3.785828	e q
-1.241084	e r
-1.308838	e s
-0.8895523	e t
-2.180817	e u
-1.880768	e v
-3.785828	e w
-2.897802	e x
-1.208232	e z
-2.868179	e á
-2.360353	e é
-3.259019	e í
-3.350099	e ö
-3.651129	e ú
-3.596772	e ü
-3.526191	e –
-2.682473	f (
-2.042625	f )
-2.682473	f .
-2.644685	f 1
-1.678543	f a
-2.644685	f d
-0.3687977	f e
-2.609923	f f
-2.682473	f g
-2.682473	f h
-1.235315	f i
-2.644685	f j
-2.609923	f k
-2.343655	f l
-0.6245307	f o
-1.820776	f r
-2.644685	f t
-1.897791	f u
-2.132801	f á
-1.706833	f é
-1.860543	f ö
-1.789368	f ü
-2.111082	f ő
-2.343655	f ű
-3.257526	g !
-2.821797	g "
-2.793769	g (
-2.617677	g )
-2.152791	g ,
-2.608722	g -
-2.486005	g .
-3.257526	g /
-2.900979	g 1
-3.094799	g 2
-3.219737	g 3
-3.219737	g 5
-3.257526	g 6
-3.184975	g 9
-3.043646	g :
-2.918707	g ;
-3.06847	g </s>
-0.9912086	g a
-1.651536	g b
-2.937191	g c
-2.883945	g d
-0.9985405	g e
-1.50793	g f
-1.92417	g g
-1.598215	g h
-1.345642	g i
-2.043646	g j
-1.321652	g k
-1.733071	g l
-2.205497	g m
-1.922342	g n
-1.292025	g o
-2.83652	g p
-1.766164	g r
-1.735438	g s
-1.916901	g t
-2.114227	g u
-1.878963	g v
-0.6458991	g y
-2.149699	g z
-1.008661	g á
-1.419823	g é
-2.423857	g í
-2.162198	g ó
-2.696859	g ö
-2.686135	g ú
-2.14663	g ü
-2.479375	g ő
-2.460069	g ű
-3.043646	g –
-2.865266	h (
-2.491685	h )
-2.651386	h -
-2.76053	h .
-2.865266	h /
-2.827477	h 1
-2.865266	h 2
-2.865266	h 3
-2.865266	h 8
-0.3769713	h a
-0.8263926	h e
-2.827477	h f
-2.166296	h h
-1.333787	h i
-2.730567	h l
-2.827477	h m
-2.253446	h n
-0.6920792	h o
-2.76053	h r
-2.827477	h s
-2.865266	h t
-2.128507	h u
-2.865266	h v
-2.865266	h y
-1.678771	h á
-2.865266	h ä
-2.009031	h é
-2.182382	h í
-1.924387	h ó
-2.792715	h ö
-2.100478	h ú
-2.827477	h ü
-2.792715	h ő
-2.584439	h ű
-3.206286	i "
-3.151928	i (
-3.002166	i )
-1.806036	i ,
-2.951014	i -
-1.572818	i .
-3.340985	i /
-2.701136	i 1
-2.710279	i 2
-3.002166	i 3
-3.268434	i 4
-3.206286	i 5
-3.206286	i 6
-3.039955	i 7
-2.951014	i 8
-2.738925	i 9
-2.519054	i :
-2.337054	i ;
-3.178257	i </s>
-3.303196	i [
-3.340985	i ]
-1.355436	i a
-1.721512	i b
-2.258526	i c
-1.725321	i d
-1.606403	i e
-1.802594	i f
-1.57892	i g
-1.892419	i h
-1.61448	i i
-1.90237	i j
-0.8314155	i k
-1.359125	i l
-1.839552	i m
-0.89879	i n
-2.094576	i o
-2.030195	i p
-3.303196	i q
-1.217727	i r
-1.165157	i s
-1.359537	i t
-1.935219	i u
-1.30139	i v
-3.268434	i x
-1.121352	i z
-1.838309	i á
-1.832149	i é
-1.73207	i ó
-2.826075	i ö
-3.002166	i ú
-2.447879	i ü
-3.303196	i ő
-3.206286	i –
-2.674533	j "
-2.779269	j (
-2.519631	j )
-2.674533	j ,
-2.373503	j -
-2.74148	j .
-2.674533	j 3
-2.779269	j :
-2.779269	j ;
-0.9052613	j a
-2.25246	j b
-2.674533	j c
-2.021321	j d
-0.7165156	j e
-2.458933	j f
-2.779269	j g
-2.74148	j h
-2.74148	j i
-2.616541	j j
-2.498442	j k
-1.829435	j l
-2.458933	j m
-2.674533	j n
-1.173278	j o
-2.64457	j p
-2.302147	j r
-2.458933	j s
-1.175239	j t
-1.93417	j u
-2.779269	j v
-2.358263	j z
-0.5950934	j á
-1.323732	j é
-2.706718	j í
-1.482205	j ó
-2.088267	j ö
-1.656308	j ú
-2.616541	j ü
-2.373503	j ű
-2.842222	k "
-1.944595	k (
-2.928408	k )
-1.654701	k ,
-2.755862	k -
-2.038765	k .
-3.462011	k /
-3.462011	k 0
-2.596709	k 1
-3.009713	k 2
-3.262439	k 3
-3.109828	k 4
-3.262439	k 5
-3.365101	k 6
-3.395064	k 7
-3.337072	k 8
-3.160981	k 9
-2.728279	k :
-2.326348	k ;
-1.765946	k </s>
-2.869094	k [
-0.9638153	k a
-1.483907	k b
-2.423921	k c
-3.064071	k d
-0.7319019	k e
-2.002116	k f
-2.785317	k g
-1.898728	k h
-1.228592	k i
-2.484287	k j
-1.098712	k k
-1.753732	k l
-1.574112	k m
-1.711888	k n
-1.166077	k o
-2.708683	k p
-1.497437	k r
-1.678465	k s
-1.582151	k t
-2.315883	k u
-1.910764	k v
-3.395064	k z
-1.908735	k á
-1.223965	k é
-2.244527	k í
-2.503766	k ó
-1.094966	k ö
-2.961409	k ú
-1.792229	k ü
-3.143252	k ő
-2.878434	k ű
-3.064071	k –
-3.425626	l "
-3.006497	l (
-3.399297	l )
-1.858894	l ,
-3.016962	l -
-2.174901	l .
-3.588353	l /
-3.425626	l 1
-3.425626	l 2
-3.483618	l 3
-3.550565	l 6
-3.588353	l 9
-2.670705	l :
-2.634111	l ;
-2.721261	l </s>
-2.596322	l [
-0.8571308	l a
-2.33749	l b
-2.766423	l c
-2.199994	l d
-0.8205904	l e
-1.957648	l f
-2.142607	l g
-1.978468	l h
-1.702889	l i
-1.722335	l j
-1.337268	l k
-0.949864	l l
-1.401602	l m
-1.997289	l n
-1.966045	l o
-3.098267	l p
-3.483618	l q
-2.409638	l r
-1.670704	l s
-1.301162	l t
-2.873871	l u
-1.535624	l v
-1.111759	l y
-2.851595	l z
-1.516471	l á
-1.320968	l é
-1.780941	l í
-1.61313	l ó
-1.774833	l ö
-3.124596	l ú
-2.108608	l ü
-1.433017	l ő
-3.550565	l ű
-3.214772	l –
-3.550565	l ’
-3.017086	m "
-3.045114	m (
-2.990757	m )
-2.641422	m ,
-2.653004	m -
-3.045114	m .
-3.142024	m /
-3.179813	m 0
-2.898986	m 1
-2.942452	m 2
-3.179813	m 3
-3.107262	m 5
-3.179813	m 6
-3.179813	m 8
-3.142024	m :
-3.017086	m ;
-3.142024	m </s>
-1.011155	m a
-1.501874	m b
-2.898986	m c
-2.920176	m d
-0.5239761	m e
-2.346144	m f
-3.142024	m g
-2.145658	m h
-0.9620897	m i
-2.531009	m j
-1.973232	m k
-1.528359	m l
-1.975693	m m
-2.286707	m n
-1.19919	m o
-2.110616	m p
-2.357883	m r
-2.248078	m s
-1.956388	m t
-1.761813	m u
-2.351974	m v
-3.107262	m y
-1.811272	m z
-1.223819	m á
-1.01492	m é
-2.056853	m í
-1.56034	m ó
-2.677137	m ö
-2.630141	m ú
-3.179813	m ü
-3.107262	m ő
-1.721518	m ű
-3.179813	m –
-2.884441	n "
-3.071528	n (
-3.10629	n )
-3.40732	n +
-1.798082	n ,
-2.572687	n -
-2.196467	n .
-3.445109	n /
-3.207748	n 1
-3.256052	n 2
-3.40732	n 3
-3.372558	n 4
-3.40732	n 9
-2.61144	n :
-2.546982	n ;
-3.282381	n </s>
-2.955022	n [
-0.9035294	n a
-1.872659	n b
-2.076568	n c
-1.159347	n d
-0.9251614	n e
-1.752502	n f
-1.624967	n g
-2.207748	n h
-1.231953	n i
-2.418315	n j
-1.557082	n k
-1.892109	n l
-1.664988	n m
-1.361671	n n
-1.951207	n o
-2.906718	n p
-2.343487	n r
-1.818115	n s
-0.9100448	n t
-2.36923	n u
-1.937498	n v
-0.8835736	n y
-2.012285	n z
-1.518018	n á
-1.847015	n é
-2.660427	n í
-2.723073	n ó
-1.877975	n ö
-2.762225	n ú
-2.647652	n ü
-1.704029	n ő
-3.207748	n ű
-2.930199	n –
-3.153185	o "
-3.098827	o )
-3.287883	o ,
-2.852154	o -
-3.183148	o .
-3.287883	o 2
-3.215333	o a
-2.257394	o b
-2.00913	o c
-1.875957	o d
-3.125156	o e
-3.074003	o f
-1.029768	o g
-2.866878	o h
-3.153185	o i
-2.496767	o j
-0.8264392	o k
-1.067537	o l
-1.557688	o m
-0.9196808	o n
-2.685823	o o
-2.138944	o p
-1.109691	o r
-1.095012	o s
-0.8995236	o t
-3.215333	o u
-1.988832	o v
-3.250095	o w
-2.685823	o x
-3.287883	o y
-0.8313791	o z
-3.287883	o ú
-2.785208	o ü
-2.668979	p "
-2.668979	p (
-2.63119	p )
-2.388152	p ,
-2.409341	p -
-2.142169	p .
-2.668979	p 1
-2.668979	p 2
-1.91798	p :
-2.479922	p ;
-0.9069142	p a
-2.178892	p b
-1.415905	p c
-1.212061	p e
-2.564243	p f
-2.668979	p g
-1.7281	p h
-1.371915	p i
-1.214827	p j
-2.388152	p k
-1.75133	p l
-2.479922	p m
-2.279007	p n
-0.7195886	p o
-1.775873	p p
-1.477375	p r
-2.130588	p s
-1.7236	p t
-1.701771	p u
-1.676947	p v
-2.142169	p z
-1.884296	p á
-1.267892	p é
-2.63119	p ê
-1.117085	p í
-2.431618	p ó
-2.668979	p ú
-2.455099	p ü
-2.564243	p ő
-2.63119	p –
-1.9114	q )
-1.748672	q u
-3.152268	r "
-3.182231	r (
-3.249178	r )
-2.694891	r ,
-2.726299	r -
-3.00614	r .
-3.286967	r /
-2.217769	r 1
-2.515446	r 2
-2.760158	r 3
-3.152268	r 4
-3.09791	r 5
-3.049606	r 6
-3.152268	r 7
-3.182231	r 8
-3.214416	r 9
-3.214416	r :
-3.09791	r ;
-3.214416	r </s>
-1.074053	r a
-2.39894	r b
-2.48951	r c
-1.716636	r d
-0.7010958	r e
-2.557507	r f
-1.933908	r g
-2.164006	r h
-1.3641	r i
-2.029506	r j
-2.286967	r k
-1.844059	r l
-1.177603	r m
-2.204508	r n
-1.205488	r o
-2.784291	r p
-1.89539	r r
-1.619089	r s
-0.9685237	r t
-1.940969	r u
-1.614029	r v
-3.286967	r w
-3.249178	r y
-1.591167	r z
-1.120725	r á
-3.249178	r å
-1.446404	r é
-2.319759	r í
-1.346088	r ó
-2.217769	r ö
-2.851238	r ú
-1.871993	r ü
-1.584849	r ő
-2.508815	r ű
-3.249178	r –
-2.845769	s "
-2.757813	s (
-3.004486	s )
-2.219994	s ,
-2.616887	s -
-2.795602	s .
-2.845769	s /
-2.368647	s 1
-2.464083	s 2
-2.828394	s 3
-3.213745	s 4
-3.138025	s 5
-3.280692	s 6
-3.155753	s 7
-2.9449	s 8
-3.004486	s 9
-3.257211	s :
-3.030815	s ;
-2.795602	s </s>
-3.456784	s [
-1.176509	s a
-1.841359	s b
-2.374597	s c
-2.854723	s d
-1.043065	s e
-2.134564	s f
-2.076572	s g
-1.876048	s h
-1.385208	s i
-2.514775	s j
-1.616887	s k
-2.018769	s l
-1.839608	s m
-2.007048	s n
-1.409833	s o
-2.34284	s p
-1.832673	s r
-1.203122	s s
-1.549193	s t
-2.302969	s u
-2.084178	s v
-3.389837	s x
-0.6282846	s z
-1.026762	s á
-0.9925175	s é
-1.518931	s í
-2.991897	s ó
-2.415391	s ö
-2.422021	s ú
-2.174237	s ü
-2.146799	s ő
-3.104601	s ű
-3.138025	s –
-3.494572	s —
-3.636497	t !
-2.987694	t "
-3.146411	t (
-3.230732	t )
-3.636497	t *
-1.682255	t ,
-2.58098	t -
-2.064048	t .
-3.531762	t /
-3.447441	t 0
-2.67789	t 1
-2.820557	t 2
-3.065106	t 3
-3.297678	t 4
-3.186528	t 5
-3.399136	t 6
-3.316162	t 7
-3.335467	t 8
-3.35567	t 9
-2.541169	t :
-2.297678	t ;
-3.262916	t </s>
-2.758812	t [
-0.8843787	t a
-1.859004	t b
-2.577519	t c
-3.065106	t d
-0.8204366	t e
-2.151551	t f
-2.87171	t g
-1.891848	t h
-1.41449	t i
-1.748982	t j
-1.399365	t k
-2.028555	t l
-1.842834	t m
-1.893272	t n
-1.264758	t o
-2.797076	t p
-1.859004	t r
-1.502958	t s
-0.9629735	t t
-2.196447	t u
-1.685778	t v
-3.636497	t w
-3.636497	t x
-3.35567	t y
-3.636497	t z
-1.06723	t á
-3.598708	t å
-3.598708	t è
-1.062045	t é
-2.471064	t í
-1.571699	t ó
-1.862977	t ö
-2.577519	t ú
-2.399136	t ü
-1.646481	t ő
-2.557316	t ű
-3.044421	t –
-2.177132	u -
-2.398981	u .
-2.53368	u ;
-2.461129	u a
-2.370952	u b
-2.213345	u c
-1.62083	u d
-2.370952	u e
-2.252853	u f
-1.553883	u g
-1.742563	u h
-2.495891	u i
-2.370952	u j
-1.180621	u k
-0.8199601	u l
-1.166832	u m
-1.205856	u n
-2.53368	u o
-2.143708	u p
-0.9020514	u r
-1.052628	u s
-0.9964331	u t
-2.495891	u u
-1.859069	u v
-2.495891	u x
-2.495891	u z
-1.616031	u á
-2.53368	u é
-2.93439	v "
-3.039126	v (
-2.93439	v )
-2.850069	v *
-2.649154	v ,
-2.801765	v -
-2.205457	v .
-2.33233	v 1
-2.700307	v 2
-2.665545	v 3
-2.758299	v 4
-3.001337	v 5
-2.779488	v 6
-2.904427	v 7
-2.904427	v 8
-2.876398	v 9
-3.001337	v :
-2.356242	v [
-3.039126	v ]
-0.6803257	v a
-1.950184	v b
-2.966575	v c
-3.001337	v d
-0.5343459	v e
-2.758299	v f
-3.039126	v g
-2.500735	v h
-1.201996	v i
-2.562004	v j
-2.524216	v k
-2.876398	v l
-2.372948	v m
-2.067681	v n
-1.251858	v o
-2.825246	v p
-2.055212	v r
-2.489454	v s
-2.549039	v t
-2.93439	v u
-2.008636	v v
-3.039126	v z
-1.026288	v á
-0.936879	v é
-2.172033	v í
-2.700307	v ó
-2.966575	v ö
-2.904427	v ú
-2.093746	v ü
-1.890187	v ő
-1.913332	w )
-1.913332	w -
-1.913332	w .
-1.778633	w i
-1.913332	w t
-1.913332	w v
-1.913332	w ä
-1.760925	x .
-1.974805	x 1
-1.760925	x a
-1.870069	x b
-1.870069	x e
-1.974805	x h
-1.196653	x i
-1.974805	x l
-1.216857	x p
-1.737444	x t
-1.974805	x v
-1.974805	x é
-1.974805	x ö
-2.781106	y "
-2.989381	y (
-2.989381	y )
-2.216834	y ,
-2.459872	y -
-3.061932	y .
-3.061932	y 0
-2.872876	y 1
-3.024143	y 2
-3.024143	y 3
-3.024143	y 4
-3.024143	y 5
-3.061932	y 6
-3.061932	y 8
-3.061932	y 9
-2.688351	y :
-3.024143	y ;
-2.370931	y </s>
-0.8157469	y a
-1.620451	y b
-2.379049	y c
-2.989381	y d
-0.5661355	y e
-2.130197	y f
-2.501265	y g
-1.936007	y h
-1.069499	y i
-2.264476	y j
-1.787354	y k
-2.027778	y l
-1.739713	y m
-1.743489	y n
-1.140482	y o
-2.51226	y p
-2.031443	y r
-1.462843	y s
-1.449148	y t
-2.222511	y u
-1.766865	y v
-1.721308	y z
-1.627653	y á
-1.423897	y é
-1.957197	y í
-2.205698	y ó
-2.598175	y ö
-1.785261	y ú
-1.97622	y ü
-2.848052	y ő
-2.459872	y ű
-2.927233	y –
-3.061932	y —
-2.895484	z "
-2.305658	z (
-3.372605	z )
-2.451787	z ,
-3.129567	z -
-2.703598	z .
-2.125451	z 1
-3.410394	z 3
-2.711424	z 5
-3.337843	z :
-2.974665	z ;
-3.372605	z </s>
-1.029032	z a
-2.659395	z b
-3.053846	z c
-1.399092	z d
-0.7172266	z e
-3.071575	z f
-2.315066	z g
-1.753686	z h
-1.363296	z i
-3.196514	z j
-1.714594	z k
-1.956242	z l
-2.264266	z m
-1.607309	z n
-1.053846	z o
-2.632242	z p
-2.818318	z r
-1.736619	z s
-1.214494	z t
-2.369001	z u
-2.073389	z v
-3.410394	z x
-1.85961	z z
-1.073934	z á
-1.193868	z é
-1.874295	z í
-1.351416	z ó
-1.396791	z ö
-2.744216	z ú
-1.642901	z ü
-1.48237	z ő
-2.974665	z ű
-3.410394	z –
-1.908485	ß -
-2.855083	á ,
-3.156114	á .
-3.281052	á :
-2.560893	á a
-1.389887	á b
-1.525177	á c
-3.104961	á d
-2.94526	á e
-2.855083	á f
-1.023974	á g
-2.161577	á h
-2.635958	á i
-1.840406	á j
-1.564354	á k
-0.6854643	á l
-1.547989	á m
-0.9715996	á n
-3.318841	á o
-2.816165	á p
-0.8556268	á r
-0.7316403	á s
-1.259519	á t
-2.803931	á u
-2.02982	á v
-3.318841	á x
-2.015841	á z
-2.47942	á é
-3.059204	á í
-1.908485	ã o
-1.908972	ä d
-1.908972	ä h
-1.909945	å e
-1.872156	å l
-1.909945	å r
-1.908485	ç ã
-1.871184	è r
-3.350988	é "
-3.113627	é ,
-3.18826	é .
-3.350988	é :
-3.313199	é ;
-3.030653	é a
-1.328672	é b
-3.313199	é c
-2.169664	é d
-3.313199	é e
-0.9877176	é g
-2.483895	é h
-2.779597	é i
-2.836078	é j
-1.056521	é k
-1.261083	é l
-2.758912	é m
-1.000563	é n
-1.650441	é p
-0.9991562	é r
-0.4873404	é s
-1.209395	é t
-1.552902	é v
-1.639564	é z
-2.915259	é é
-3.246252	é ü
-1.871184	ê c
-2.514016	í c
-2.514016	í d
-2.099043	í g
-2.088048	í j
-2.543979	í l
-1.61456	í m
-1.851258	í n
-1.904778	í p
-1.066858	í r
-2.099043	í s
-0.2129862	í t
-1.335999	í v
-1.776294	í z
-2.597811	ó "
-2.646115	ó (
-2.730436	ó )
-1.468324	ó ,
-2.296781	ó -
-2.4452	ó .
-2.797383	ó /
-2.371414	ó 1
-2.534142	ó 2
-2.700473	ó 3
-2.797383	ó 4
-2.835171	ó 5
-2.762621	ó 6
-2.597811	ó 7
-2.762621	ó 8
-2.534142	ó 9
-2.762621	ó :
-2.597811	ó ;
-2.835171	ó </s>
-1.518629	ó a
-1.359368	ó b
-2.385202	ó c
-1.122216	ó d
-1.623711	ó e
-1.912776	ó f
-1.790204	ó g
-1.759293	ó h
-1.66172	ó i
-1.74623	ó j
-1.067678	ó k
-0.773445	ó l
-1.614113	ó m
-1.597811	ó n
-2.371414	ó o
-1.26378	ó p
-1.511076	ó r
-1.029609	ó s
-1.330022	ó t
-2.700473	ó u
-1.569068	ó v
-2.044055	ó z
-2.013241	ó á
-1.968079	ó é
-2.835171	ó í
-2.575534	ó ö
-2.700473	ó ú
-2.2855	ó ü
-2.762621	ó –
-1.597407	ö b
-1.739285	ö d
-2.002526	ö g
-1.431724	ö k
-1.30963	ö l
-2.206646	ö m
-1.068168	ö n
-1.117133	ö r
-0.6990899	ö s
-1.17233	ö t
-0.9418282	ö v
-0.6890103	ö z
-2.215085	ú "
-2.001205	ú ,
-1.894749	ú a
-1.934258	ú b
-2.080386	ú c
-2.080386	ú d
-2.001205	ú e
-2.080386	ú f
-1.265251	ú g
-1.955447	ú h
-2.142534	ú i
-0.8219083	ú j
-1.794079	ú k
-0.9987986	ú l
-2.110349	ú m
-1.393154	ú n
-2.177296	ú o
-1.405219	ú r
-1.269705	ú s
-1.417628	ú t
-2.026028	ú v
-1.894749	ú z
-2.215085	ú á
-2.142534	ú é
-2.110349	ú ö
-2.177296	ú ü
-2.533564	ü -
-0.8085439	ü g
-0.9075038	ü k
-0.4135888	ü l
-2.159983	ü m
-1.53753	ü n
-1.995173	ü r
-1.995173	ü s
-1.592686	ü t
-2.461013	ü v
-1.404695	ü z
-2.521661	ő "
-2.618571	ő (
-2.74351	ő )
-1.930596	ő ,
-2.521661	ő -
-2.44248	ő .
-2.6466	ő 1
-2.44248	ő 2
-2.74351	ő 3
-2.781298	ő 4
-2.781298	ő 9
-2.708748	ő :
-2.592242	ő ;
-1.621294	ő a
-1.464756	ő b
-2.254489	ő c
-1.325761	ő d
-1.14145	ő e
-1.589695	ő f
-1.777368	ő g
-1.68597	ő h
-1.482247	ő i
-1.858903	ő j
-1.140546	ő k
-0.9185166	ő l
-1.621294	ő m
-1.718887	ő n
-2.037361	ő o
-1.777368	ő p
-1.210968	ő r
-1.054053	ő s
-1.308143	ő t
-2.618571	ő u
-1.63517	ő v
-1.550849	ő z
-1.732786	ő á
-1.996616	ő é
-1.424751	ő í
-2.209907	ő ö
-2.708748	ő ú
-2.331329	ő ü
-2.781298	ő –
-2.091532	ű "
-1.883256	ű ,
-2.126294	ű -
-2.164082	ű 1
-2.164082	ű ;
-1.883256	ű a
-1.863052	ű b
-1.975026	ű c
-2.164082	ű d
-1.506505	ű e
-1.904445	ű f
-2.059347	ű g
-1.790502	ű h
-1.926721	ű i
-1.673996	ű j
-1.038158	ű k
-1.790502	ű l
-1.774111	ű m
-1.420145	ű n
-2.126294	ű o
-2.126294	ű p
-1.625691	ű r
-1.236992	ű s
-1.406134	ű t
-2.059347	ű u
-1.156257	ű v
-1.465112	ű z
-2.091532	ű á
-1.863052	ű é
-2.001355	ű ö
-2.164082	ű ú
-2.164082	ű ü
-1.908485	ά δ
-1.908485	α ν
-1.908485	γ α
-1.909459	δ η
-1.909459	δ ο
-1.909459	δ ρ
-1.908972	ε )
-1.908972	ε λ
-1.908485	η ρ
-1.908972	ι δ
-1.908972	ι σ
-1.908972	λ ά
-1.908972	λ λ
-1.908972	μ ω
-1.908972	μ ό
-1.908972	ν ε
-1.908972	ν ι
-1.909945	ο δ
-1.909945	ο ρ
-1.909945	ο ς
-1.909945	ο σ
-1.909459	ρ γ
-1.909459	ρ ο
-1.909459	ρ ό
-1.908972	ς a
-1.908972	ς σ
-1.909459	σ ε
-1.909459	σ ι
-1.909459	σ μ
-1.908485	ω ν
-1.908972	ό μ
-1.908972	ό ς
-1.990823	– "
-1.856124	– (
-1.801767	– ,
-1.828096	– 1
-1.953034	– 2
-1.990823	– 9
-1.073174	– a
-1.828096	– b
-1.953034	– c
-1.828096	– d
-1.753462	– e
-1.918272	– f
-1.918272	– g
-1.776943	– h
-1.856124	– i
-1.886088	– j
-1.709996	– k
-1.990823	– l
-1.731186	– m
-1.953034	– n
-1.953034	– o
-1.990823	– p
-1.990823	– r
-1.990823	– s
-1.990823	– t
-1.990823	– u
-1.918272	– v
-1.990823	– á
-1.990823	– é
-1.953034	– ö
-1.909459	— a
-1.909459	— c
-1.909459	— e
-1.908972	’ a
-1.908972	’ é
-1.908485	… </s>
-1.909945	≥ 0
-1.909945	≥ 3
-1.872156	≥ 5

\end\
