
\data\
ngram 1=75
ngram 2=1647

\1-grams:
-3.330534	"	0.9951133
-3.807655	%	0.3932712
-2.223578	'	-0.4242534
-2.658059	(	0.06900964
-2.431153	)	0.5323002
-4.594761	*	0.04112057
-4.7197	+	-0.01062994
-2.009653	,	0.07034273
-3.216818	-	0.9354945
-2.276437	.	0.4359645
-2.602153	/	-0.2562563
-2.697134	0	0.04715306
-2.335287	1	0.3386748
-2.451942	2	0.5482581
-2.683271	3	0.2316505
-2.828534	4	0.2047512
-2.901804	5	0.7344642
-2.830398	6	0.1740734
-2.863878	7	-0.04742961
-2.844157	8	-0.01835753
-2.562092	9	0.15843
-3.036203	:	0.141473
-2.798881	;	0.3250018
-2.184195	</s>
-99	<s>	0.1236712
-4.652753	=	-0.01799107
-4.652753	>	-0.008240414
-4.684938	[	0.02030435
-4.684938	]	-0.004814841
-4.684938	_	0.02187115
-1.036135	a	-0.05255802
-2.137069	b	-0.4483338
-1.403136	c	-0.6190551
-1.403852	d	-0.4897581
-0.946865	e	-0.1738941
-2.014978	f	-0.4573536
-1.7896	g	-0.6162842
-2.273707	h	-0.3853799
-0.936106	i	-0.0766285
-4.437153	j	0.08638462
-4.155428	k	0.3019421
-1.182101	l	-0.4699602
-1.569353	m	-0.5282108
-1.204997	n	-0.4336949
-1.0581	o	-0.009262461
-1.587173	p	-0.6701058
-2.569968	q	-0.3840522
-1.222678	r	-0.4705528
-1.365992	s	-0.4630178
-1.147836	t	-0.8886839
-1.623979	u	-0.2607071
-1.931119	v	-0.6865583
-4.456459	w	0.1106844
-4.145669	x	0.2326918
-4.307519	y	0.1699047
-1.89514	z	-0.8470504
-3.520128	«	0.9423094
-4.074605	°	0.1732816
-4.7197	±	-0.009516066
-4.757489	º	0.0006124178
-3.520128	»	0.4920039
-2.572797	à	0.6001142
-4.757489	á	0.01098883
-4.62279	â	-0.008569718
-4.757489	ã	0.0332614
-4.684938	å	0.04465141
-4.757489	ç	-0.006487757
-2.864383	è	0.6474981
-3.433393	é	0.8137522
-4.7197	ê	0.01043259
-4.066487	ì	0.3114825
-3.435269	ò	0.7508906
-4.652753	ó	0.04135726
-3.500028	ù	0.8738245
-4.757489	β	-0.006231655

\2-grams:
-1.931119	" (
-1.779851	" )
-1.478821	" ,
-1.931119	" -
-1.595327	" .
-1.779851	" 1
-1.864172	" 2
-1.896357	" 3
-1.968907	" 5
-1.968907	" 6
-1.931119	" 9
-1.630089	" :
-1.518938	" ;
-1.430516	" </s>
-1.50515	" a
-1.779851	" b
-1.667877	" c
-1.80618	" d
-1.731546	" e
-1.931119	" f
-1.968907	" g
-1.533179	" i
-1.70927	" l
-1.896357	" m
-1.755027	" n
-1.731546	" o
-1.779851	" p
-1.896357	" q
-1.834209	" r
-1.688081	" s
-1.834209	" t
-1.896357	" u
-1.834209	" v
-1.968907	" w
-1.896357	" è
-1.876638	% )
-1.537819	% ,
-1.687581	% .
-1.771902	% ;
-1.804087	% a
-1.876638	% c
-1.21046	% d
-1.804087	% e
-1.876638	% i
-1.876638	% l
-1.838849	% n
-1.876638	% o
-1.741939	% p
-1.876638	% s
-1.876638	% v
-1.838849	% »
-2.61095	' "
-2.61095	' '
-2.5384	' )
-2.37359	' 1
-2.351313	' 8
-2.476252	' :
-0.299004	' a
-2.5384	' c
-2.61095	' d
-1.065756	' e
-2.61095	' h
-0.8881669	' i
-2.61095	' l
-1.129899	' o
-2.573162	' p
-2.573162	' s
-1.346992	' u
-2.61095	' v
-2.573162	' «
-2.61095	' é
-2.283507	( "
-2.210956	( '
-2.178771	( *
-0.9501511	( 1
-1.097013	( 2
-1.307866	( 3
-1.438409	( 4
-1.48605	( 5
-1.576711	( 6
-1.712116	( 7
-1.681447	( 8
-1.671687	( 9
-1.963172	( a
-2.12078	( b
-0.6509575	( c
-2.00268	( d
-2.069627	( e
-2.02387	( f
-2.245718	( g
-2.283507	( h
-1.819749	( i
-2.178771	( m
-2.02387	( o
-1.877741	( p
-2.283507	( q
-2.245718	( r
-1.982477	( s
-1.806386	( t
-2.210956	( u
-2.283507	( v
-2.210956	( z
-2.283507	( «
-1.917803	) "
-2.372062	) '
-2.054641	) (
-0.7792874	) ,
-1.572191	) .
-2.309914	) 1
-2.406824	) 2
-2.444613	) 4
-1.640907	) ;
-1.813907	) </s>
-1.346126	) a
-2.444613	) b
-1.486005	) c
-1.526964	) d
-1.49037	) e
-2.163786	) f
-2.054641	) g
-2.207252	) h
-1.218833	) i
-1.165859	) l
-2.184975	) m
-0.8011598	) n
-1.883945	) o
-1.628673	) p
-2.054641	) q
-2.038847	) r
-1.647156	) s
-1.967491	) t
-1.967491	) u
-2.230733	) v
-2.444613	) w
-2.406824	) y
-2.038847	) «
-2.281885	) »
-1.722577	) è
-1.726611	* )
-1.831346	* o
-1.831346	* s
-1.829011	+ 2
-1.829011	+ 3
-2.691776	, "
-2.723961	, (
-2.758723	, -
-2.796511	, .
-2.536874	, 0
-2.661813	, 1
-2.40654	, 2
-2.515685	, 3
-2.55915	, 4
-2.607455	, 5
-2.582631	, 6
-2.607455	, 7
-2.457693	, 8
-2.515685	, 9
-1.108739	, </s>
-2.796511	, _
-1.270878	, a
-2.515685	, b
-1.211564	, c
-1.015736	, d
-1.454089	, e
-2.10551	, f
-1.829304	, g
-2.476176	, h
-1.000947	, i
-2.796511	, k
-1.062658	, l
-1.594866	, m
-1.455887	, n
-1.658927	, o
-0.8802966	, p
-1.883661	, q
-1.550102	, r
-1.213622	, s
-1.80448	, t
-1.888514	, u
-2.156663	, v
-2.758723	, x
-2.633784	, «
-1.816715	, è
-2.004712	- "
-2.004712	- 0
-1.815656	- 1
-1.899977	- 2
-2.004712	- 4
-1.966924	- 5
-1.932161	- 7
-2.004712	- 8
-2.004712	- </s>
-1.364864	- a
-1.841985	- b
-1.422855	- c
-1.355909	- d
-1.767351	- e
-1.870013	- f
-1.790832	- g
-1.932161	- h
-1.239925	- i
-1.355909	- l
-1.870013	- m
-1.767351	- n
-1.745075	- o
-1.502037	- p
-1.870013	- q
-1.841985	- r
-1.422855	- s
-1.767351	- t
-1.745075	- u
-1.932161	- v
-2.004712	- z
-2.004712	- «
-1.966924	- è
-1.88425	. "
-2.529345	. '
-2.462398	. )
-2.494583	. ,
-2.462398	. .
-2.462398	. 0
-1.30103	. 1
-1.391042	. 2
-1.710899	. 3
-2.210586	. 4
-2.193553	. 5
-2.494583	. 6
-2.131405	. 7
-2.103376	. 8
-2.307496	. 9
-0.445663	. </s>
-1.649485	. a
-1.945768	. c
-2.017462	. d
-1.782451	. e
-2.146128	. f
-1.501316	. g
-2.567133	. h
-1.143143	. i
-1.143143	. l
-2.161368	. m
-1.900956	. n
-2.006466	. o
-1.816134	. p
-1.860338	. q
-2.567133	. r
-1.769677	. s
-1.795613	. t
-2.161368	. u
-2.161368	. v
-2.567133	. «
-1.845098	. »
-2.131405	. è
-2.320901	/ 0
-1.297836	/ 1
-1.297836	/ 2
-1.504961	/ 3
-1.24172	/ 4
-1.562953	/ 5
-1.23196	/ 6
-1.427796	/ 7
-1.353694	/ 8
-0.996806	/ 9
-2.283113	/ a
-0.6413082	/ c
-2.216166	/ e
-2.320901	/ f
-2.320901	/ g
-2.283113	/ h
-2.283113	/ i
-2.283113	/ k
-1.498971	/ o
-2.216166	/ r
-2.320901	/ u
-1.551537	0 %
-2.020972	0 (
-1.719942	0 )
-1.312953	0 ,
-1.852567	0 .
-1.018692	0 /
-0.7326988	0 0
-1.413234	0 1
-1.335937	0 2
-1.559362	0 3
-1.822604	0 4
-1.957302	0 5
-1.868361	0 6
-1.755657	0 7
-1.837327	0 8
-1.822604	0 9
-2.220544	0 ;
-1.618484	0 </s>
-1.852567	0 a
-2.258332	0 b
-2.069276	0 c
-1.500385	0 d
-1.852567	0 e
-2.220544	0 f
-1.822604	0 g
-2.258332	0 h
-2.153597	0 k
-2.220544	0 l
-1.977506	0 m
-2.153597	0 n
-2.220544	0 o
-2.095605	0 p
-2.095605	0 q
-2.123634	0 r
-2.153597	0 s
-2.153597	0 t
-2.258332	0 u
-2.258332	0 w
-2.258332	0 »
-2.044453	0 è
-2.481681	1 %
-2.129499	1 (
-1.289021	1 )
-2.481681	1 *
-1.046315	1 ,
-2.51947	1 -
-1.134351	1 .
-1.379019	1 /
-1.325334	1 0
-1.387676	1 1
-1.440289	1 2
-1.460492	1 3
-1.467441	1 4
-1.450273	1 5
-1.587735	1 6
-1.543829	1 7
-1.636583	1 8
-0.8715538	1 9
-2.238643	1 :
-2.145889	1 ;
-1.556541	1 </s>
-2.180651	1 a
-2.481681	1 b
-2.356743	1 c
-1.560863	1 d
-1.747949	1 e
-2.330414	1 g
-2.414735	1 i
-2.481681	1 k
-2.414735	1 l
-2.259833	1 m
-2.259833	1 n
-1.728354	1 o
-2.21844	1 p
-2.51947	1 q
-2.446919	1 r
-2.129499	1 s
-2.446919	1 t
-2.51947	1 u
-2.481681	1 v
-1.836587	1 °
-2.51947	1 º
-2.129499	1 è
-2.294172	2 %
-2.19151	2 (
-1.205446	2 )
-1.045382	2 ,
-1.009366	2 .
-1.18923	2 /
-0.9127563	2 0
-1.631414	2 1
-1.470263	2 2
-1.567173	2 3
-1.506476	2 4
-1.545984	2 5
-1.583773	2 6
-1.75426	2 7
-1.684934	2 8
-1.578169	2 9
-2.35632	2 :
-2.127841	2 ;
-1.383904	2 </s>
-2.428871	2 ]
-2.214991	2 a
-2.324135	2 b
-2.294172	2 c
-1.520873	2 d
-1.807506	2 e
-2.324135	2 f
-2.294172	2 g
-2.35632	2 i
-2.266144	2 l
-2.324135	2 m
-2.214991	2 n
-2.169234	2 o
-2.294172	2 p
-2.169234	2 r
-2.0389	2 s
-2.428871	2 t
-2.428871	2 u
-2.428871	2 v
-2.428871	2 »
-2.007865	2 è
-2.162436	3 %
-2.029811	3 (
-1.162436	3 )
-1.073036	3 ,
-2.267172	3 -
-1.080678	3 .
-1.135378	3 /
-1.445242	3 0
-1.400079	3 1
-1.600994	3 2
-1.728781	3 3
-1.817203	3 4
-1.752262	3 5
-1.451232	3 6
-1.609594	3 7
-1.740363	3 8
-1.665112	3 9
-2.229383	3 :
-2.053292	3 ;
-1.349523	3 </s>
-1.986345	3 a
-2.162436	3 b
-2.132473	3 c
-1.422074	3 d
-1.645807	3 e
-2.229383	3 f
-2.194621	3 g
-2.267172	3 h
-2.132473	3 i
-2.053292	3 l
-2.194621	3 m
-2.194621	3 n
-2.194621	3 o
-2.078115	3 p
-2.267172	3 q
-2.194621	3 r
-2.007535	3 s
-2.267172	3 u
-2.267172	3 v
-2.267172	3 »
-1.966142	3 è
-2.179761	4 "
-2.141972	4 %
-2.017033	4 (
-1.171935	4 )
-1.097302	4 ,
-1.266911	4 .
-1.084433	4 /
-1.608369	4 0
-1.608369	4 1
-1.465279	4 2
-1.587685	4 3
-1.823213	4 4
-1.859426	4 5
-1.630089	4 6
-1.840942	4 7
-1.587685	4 8
-1.50515	4 9
-2.179761	4 :
-1.990704	4 ;
-1.382304	4 </s>
-1.990704	4 a
-2.10721	4 b
-2.045062	4 c
-1.549055	4 d
-1.689674	4 e
-2.141972	4 f
-1.990704	4 g
-2.179761	4 i
-1.990704	4 l
-2.141972	4 m
-2.017033	4 n
-1.9424	4 o
-2.179761	4 p
-2.141972	4 r
-2.075025	4 s
-2.141972	4 »
-1.9424	4 è
-1.663044	5 %
-1.859339	5 (
-1.168721	5 )
-1.128479	5 ,
-2.140165	5 -
-1.382217	5 .
-1.199287	5 /
-1.579498	5 0
-1.704437	5 1
-1.625255	5 2
-1.704437	5 3
-1.601774	5 4
-1.880528	5 5
-1.63749	5 6
-1.766584	5 7
-1.663044	5 8
-1.880528	5 9
-2.140165	5 :
-1.951109	5 ;
-1.482588	5 </s>
-2.03543	5 a
-2.102376	5 b
-1.880528	5 c
-1.50946	5 d
-1.601774	5 e
-2.067614	5 f
-1.859339	5 g
-2.067614	5 i
-2.067614	5 k
-1.81983	5 l
-1.926285	5 m
-1.977438	5 n
-2.005466	5 o
-2.140165	5 p
-2.140165	5 q
-2.102376	5 r
-2.005466	5 s
-2.03543	5 t
-2.140165	5 u
-1.977438	5 è
-2.07398	6 %
-2.178715	6 '
-1.919078	6 (
-1.37501	6 )
-1.151922	6 ,
-2.140927	6 -
-1.495832	6 .
-0.9552903	6 /
-1.464233	6 0
-1.75771	6 1
-1.45668	6 2
-1.742987	6 3
-1.651906	6 4
-1.742987	6 5
-1.420768	6 6
-1.521138	6 7
-1.394033	6 8
-1.742987	6 9
-2.178715	6 :
-1.989659	6 ;
-1.487714	6 </s>
-2.140927	6 a
-2.07398	6 b
-2.07398	6 c
-1.596859	6 d
-1.805135	6 e
-1.964836	6 f
-1.85838	6 g
-2.106165	6 i
-2.178715	6 l
-2.106165	6 m
-2.044017	6 n
-2.106165	6 p
-2.140927	6 r
-1.919078	6 s
-2.178715	6 t
-1.941355	6 è
-2.122489	7 %
-1.922917	7 (
-1.469276	7 )
-1.206035	7 ,
-2.160278	7 -
-1.710308	7 .
-1.084399	7 /
-1.453482	7 0
-1.621887	7 1
-1.511474	7 2
-1.558218	7 3
-1.670191	7 4
-1.469276	7 5
-1.485667	7 6
-1.453482	7 7
-1.375595	7 8
-1.59961	7 9
-1.971221	7 ;
-1.529572	7 </s>
-2.122489	7 a
-2.122489	7 b
-2.055542	7 c
-1.41634	7 d
-1.710308	7 e
-2.087727	7 f
-1.99755	7 g
-2.087727	7 h
-2.025579	7 l
-1.946398	7 m
-2.055542	7 n
-2.025579	7 p
-2.087727	7 r
-2.025579	7 s
-2.160278	7 t
-2.160278	7 »
-1.99755	7 è
-1.911424	8 (
-1.434303	8 )
-1.33164	8 ,
-2.133273	8 -
-1.59967	8 .
-0.9596009	8 /
-1.63267	8 0
-1.441602	8 1
-1.707304	8 2
-1.656151	8 3
-1.707304	8 4
-1.488178	8 5
-1.472091	8 6
-1.355121	8 7
-1.522258	8 8
-1.337393	8 9
-2.036363	8 ;
-1.540356	8 </s>
-2.171061	8 ]
-2.036363	8 a
-2.171061	8 b
-1.957181	8 c
-1.441602	8 d
-1.797481	8 e
-2.133273	8 f
-1.890235	8 g
-2.098511	8 l
-1.982005	8 m
-2.133273	8 n
-2.036363	8 o
-2.171061	8 p
-2.133273	8 r
-2.133273	8 s
-2.036363	8 è
-2.276108	9 (
-1.717954	9 )
-1.421569	9 ,
-2.348659	9 -
-1.884902	9 .
-1.162165	9 /
-1.364746	9 0
-1.356628	9 1
-1.325593	9 2
-1.352625	9 3
-1.503561	9 4
-1.51499	9 5
-1.333147	9 6
-1.325593	9 7
-1.180537	9 8
-0.8171799	9 9
-2.348659	9 :
-2.21396	9 ;
-1.777268	9 </s>
-2.348659	9 ]
-2.185931	9 a
-2.243923	9 b
-1.746599	9 d
-1.871538	9 e
-2.31087	9 f
-2.159603	9 g
-2.31087	9 h
-2.31087	9 i
-2.185931	9 l
-2.185931	9 m
-2.31087	9 n
-2.134779	9 o
-2.348659	9 p
-2.31087	9 r
-2.243923	9 s
-2.31087	9 t
-2.348659	9 »
-2.276108	9 è
-1.654542	: "
-2.037758	: -
-2.075547	: .
-1.970812	: 1
-0.4466938	: </s>
-1.719	: a
-2.075547	: c
-2.075547	: e
-2.002996	: g
-1.838186	: i
-1.685576	: l
-2.075547	: n
-1.970812	: p
-1.970812	: q
-1.91282	: s
-2.002996	: t
-1.79472	: u
-2.075547	: z
-1.861667	: «
-2.075547	: »
-2.158865	; "
-2.196653	; 2
-0.3635643	; </s>
-2.158865	; a
-2.196653	; b
-1.03122	; c
-2.061955	; d
-1.790888	; e
-2.158865	; g
-1.719532	; i
-2.124103	; l
-2.196653	; m
-2.196653	; n
-1.857835	; o
-2.196653	; p
-2.061955	; q
-2.033926	; s
-1.959293	; t
-2.196653	; u
-2.196653	; v
-2.091918	; »
-2.094498	<s> "
-1.209891	<s> (
-1.22018	<s> -
-1.285889	<s> 1
-1.289363	<s> 2
-1.486906	<s> 3
-1.761283	<s> 4
-1.937375	<s> 5
-2.180413	<s> 6
-2.238405	<s> 7
-2.384533	<s> 8
-2.406809	<s> 9
-2.571619	<s> [
-2.606381	<s> _
-0.8607861	<s> a
-1.581759	<s> b
-1.006135	<s> c
-1.515301	<s> d
-1.953169	<s> e
-1.961287	<s> f
-1.660257	<s> g
-1.624865	<s> h
-1.25581	<s> i
-2.539435	<s> j
-2.571619	<s> k
-1.393306	<s> l
-2.406809	<s> m
-2.223165	<s> n
-2.287623	<s> o
-2.013465	<s> p
-2.052094	<s> q
-1.872649	<s> r
-1.872649	<s> s
-2.117361	<s> t
-2.43029	<s> u
-1.27563	<s> v
-1.804749	<s> «
-2.539435	<s> è
-1.83018	= 0
-1.83018	= 3
-1.792392	= 5
-1.725445	> =
-1.757046	[ n
-1.757046	] </s>
-1.757046	_ l
-3.199985	a "
-3.622059	a '
-2.929338	a (
-2.419882	a )
-1.928709	a ,
-3.537738	a -
-2.325707	a .
-3.726794	a /
-3.689005	a 0
-2.975795	a 1
-3.027824	a 2
-3.305789	a 3
-3.512914	a 4
-3.489433	a 5
-3.188403	a 6
-2.795059	a 7
-2.870559	a 8
-2.558671	a 9
-2.876092	a :
-2.634648	a ;
-3.211884	a </s>
-1.814427	a a
-1.817822	a b
-1.358422	a c
-1.218938	a d
-1.899542	a e
-1.727584	a f
-1.464774	a g
-3.291065	a h
-1.643031	a i
-3.689005	a j
-0.8207529	a l
-1.334577	a m
-1.068869	a n
-2.384371	a o
-1.349885	a p
-2.336823	a q
-0.9020174	a r
-1.365409	a s
-0.8356113	a t
-1.798771	a u
-1.878885	a v
-3.726794	a w
-3.726794	a x
-3.622059	a y
-1.277105	a z
-3.445967	a «
-3.387975	a »
-3.726794	a å
-3.726794	a ç
-2.923089	a è
-2.684519	b (
-1.44261	b )
-2.403692	b ,
-2.684519	b -
-2.521792	b .
-2.611968	b 1
-2.684519	b ;
-1.123852	b a
-0.9746325	b b
-2.294548	b c
-2.447158	b d
-1.33146	b e
-2.64673	b h
-0.6349486	b i
-2.684519	b j
-1.179369	b l
-1.385468	b o
-0.6406211	b r
-2.424882	b s
-1.46584	b u
-2.684519	b y
-3.366915	c '
-3.177859	c (
-2.223616	c )
-3.129554	c ,
-2.889794	c .
-3.153035	c 0
-3.294364	c 1
-3.294364	c 2
-3.366915	c 3
-3.366915	c 9
-3.26218	c ;
-0.8417525	c a
-1.56321	c c
-3.26218	c d
-0.9656713	c e
-0.9480115	c h
-1.000747	c i
-3.294364	c k
-2.003474	c l
-3.366915	c m
-2.417082	c n
-0.4106157	c o
-2.916946	c p
-2.277974	c q
-1.914153	c r
-3.204188	c s
-3.153035	c t
-1.277331	c u
-2.817243	c v
-3.366915	c «
-3.366915	c é
-3.231521	d "
-2.0347	d '
-3.261484	d (
-2.515517	d )
-3.293669	d ,
-3.366219	d -
-3.366219	d .
-3.366219	d 1
-3.366219	d 8
-3.366219	d </s>
-0.9724047	d a
-3.366219	d c
-2.249249	d d
-0.4345764	d e
-3.366219	d f
-3.203492	d g
-3.128858	d h
-0.4632772	d i
-3.366219	d j
-3.366219	d k
-3.366219	d l
-3.328431	d m
-3.293669	d n
-1.014388	d o
-3.328431	d p
-2.458222	d r
-3.231521	d s
-3.366219	d t
-1.449048	d u
-3.366219	d v
-3.366219	d w
-3.261484	d è
-3.328431	d é
-3.177163	d ì
-3.265386	e "
-3.815058	e '
-2.453331	e (
-2.112158	e )
-1.696583	e ,
-3.555421	e -
-2.099055	e .
-2.98139	e /
-3.742508	e 0
-2.591633	e 1
-2.860816	e 2
-3.276667	e 3
-3.425087	e 4
-3.514028	e 5
-3.494723	e 6
-3.351301	e 7
-3.288249	e 8
-3.030376	e 9
-2.489095	e :
-2.496615	e ;
-2.839418	e </s>
-3.710323	e >
-1.402827	e a
-2.425087	e b
-1.334921	e c
-1.042737	e d
-1.578155	e e
-1.952277	e f
-1.330241	e g
-2.916932	e h
-1.388695	e i
-3.77727	e j
-3.77727	e k
-0.8976005	e l
-1.476421	e m
-0.8945081	e n
-1.980811	e o
-1.620418	e p
-2.300148	e q
-0.939997	e r
-1.016533	e s
-1.277468	e t
-1.896933	e u
-1.7506	e v
-3.815058	e w
-3.458511	e x
-2.186205	e z
-3.409293	e «
-3.77727	e ±
-3.148881	e »
-3.68036	e â
-2.472636	e è
-3.815058	e β
-2.791754	f (
-2.161049	f )
-2.753966	f ,
-2.791754	f .
-2.753966	f 1
-1.151002	f a
-2.791754	f d
-1.000638	f e
-1.005778	f f
-2.791754	f g
-0.5059926	f i
-2.100753	f l
-0.5935974	f o
-1.529951	f r
-2.791754	f s
-2.629027	f t
-1.662885	f u
-2.753966	f è
-2.997863	g "
-2.997863	g (
-2.547894	g )
-2.808806	g ,
-2.997863	g /
-0.9190106	g a
-2.997863	g b
-2.835135	g d
-1.141628	g e
-1.278833	g g
-1.905717	g h
-0.8740111	g i
-0.7264436	g l
-2.997863	g m
-1.336825	g n
-0.867529	g o
-2.960074	g p
-0.9489974	g r
-2.925312	g s
-1.193537	g u
-2.997863	g »
-2.997863	g é
-2.496823	h '
-2.569374	h (
-2.195793	h )
-2.569374	h ,
-2.496823	h -
-2.569374	h .
-2.569374	h /
-2.531585	h 1
-2.569374	h 3
-2.569374	h 8
-1.129324	h a
-2.569374	h d
-0.2515004	h e
-2.569374	h h
-0.8930961	h i
-2.531585	h m
-2.569374	h n
-2.434675	h o
-2.531585	h r
-2.569374	h s
-2.569374	h u
-2.569374	h w
-2.569374	h »
-1.29062	h é
-2.230555	h ù
-3.233634	i "
-3.787921	i '
-2.862781	i (
-2.884831	i )
-1.952759	i ,
-3.636653	i -
-2.295393	i .
-3.720974	i 0
-3.054189	i 1
-3.185861	i 2
-3.435738	i 3
-3.544883	i 4
-3.505374	i 5
-3.544883	i 6
-3.566072	i 7
-3.61183	i 8
-3.662982	i 9
-2.908061	i :
-2.497886	i ;
-3.034593	i </s>
-1.125635	i a
-2.107434	i b
-0.9461443	i c
-1.229112	i d
-1.461414	i e
-1.691011	i f
-1.681277	i g
-3.335623	i h
-1.698016	i i
-3.787921	i j
-3.753159	i k
-1.290876	i l
-1.310679	i m
-1.058081	i n
-0.9248458	i o
-1.49217	i p
-2.381381	i q
-1.510311	i r
-1.043563	i s
-1.14488	i t
-1.845499	i u
-1.406806	i v
-3.825709	i w
-3.720974	i x
-1.660816	i z
-3.419944	i «
-3.452129	i »
-3.348588	i à
-2.854265	i è
-3.486891	i ò
-3.787921	i ó
-2.67677	i ù
-1.621522	j )
-1.797614	j .
-1.835402	j d
-1.835402	j e
-1.835402	j o
-1.742613	k )
-1.847348	k a
-1.847348	k c
-1.71265	k e
-1.609987	k g
-1.80956	k i
-1.847348	k k
-1.80956	k m
-1.847348	k n
-1.684621	k o
-1.847348	k s
-1.847348	k y
-3.510432	l "
-1.106256	l '
-3.510432	l )
-3.545194	l ,
-3.420255	l -
-3.448284	l .
-2.268349	l 1
-2.434043	l 2
-2.749314	l 3
-3.345621	l 4
-3.080307	l 5
-3.281952	l 6
-3.323345	l 7
-3.323345	l 9
-3.582982	l :
-0.7531524	l a
-2.876187	l b
-1.526771	l c
-2.399066	l d
-0.8660687	l e
-2.298039	l f
-2.391379	l g
-0.8369853	l i
-0.726528	l l
-1.908372	l m
-2.545194	l n
-1.111424	l o
-1.532357	l p
-2.651247	l q
-1.770677	l r
-2.001126	l s
-1.449443	l t
-1.844778	l u
-2.26644	l v
-3.582982	l z
-3.393926	l «
-3.478247	l à
-3.582982	l á
-3.071735	m (
-3.071735	m )
-2.969072	m ,
-3.206433	m -
-2.756464	m .
-3.168645	m /
-3.133883	m 1
-3.101698	m 2
-3.206433	m 3
-3.168645	m ;
-3.206433	m </s>
-0.9085734	m a
-1.124955	m b
-3.168645	m c
-3.071735	m d
-0.4803733	m e
-0.8146965	m i
-3.206433	m l
-1.142657	m m
-3.133883	m n
-1.149875	m o
-1.088259	m p
-3.206433	m r
-3.043706	m s
-3.168645	m t
-1.292138	m u
-3.071735	m y
-3.206433	m »
-3.168645	m è
-3.206433	m é
-3.206433	m ó
-3.560493	n "
-2.337068	n '
-3.487943	n (
-3.300856	n )
-3.522705	n +
-3.397766	n ,
-3.487943	n -
-1.924279	n .
-3.487943	n 1
-3.522705	n 2
-3.522705	n 4
-3.522705	n 9
-3.560493	n ;
-1.123176	n a
-2.738563	n b
-1.439023	n c
-1.264627	n d
-0.7410693	n e
-1.660375	n f
-1.920645	n g
-3.096736	n h
-0.9492531	n i
-3.522705	n k
-2.434569	n l
-2.193646	n m
-1.925193	n n
-0.9370563	n o
-1.869493	n p
-2.337068	n q
-2.462007	n r
-1.350735	n s
-0.6724673	n t
-1.859161	n u
-1.97452	n v
-1.507066	n z
-3.487943	n «
-2.91169	n è
-3.186913	n é
-3.522705	n ù
-3.022226	o "
-3.705109	o '
-2.010105	o (
-3.202434	o )
-1.71956	o ,
-3.269381	o -
-2.110014	o .
-3.424283	o /
-3.516053	o 0
-1.74999	o 1
-1.986079	o 2
-2.296253	o 3
-2.498529	o 4
-2.685804	o 5
-2.635912	o 6
-2.773374	o 7
-2.848875	o 8
-2.865688	o 9
-2.603487	o :
-2.476989	o ;
-2.843412	o </s>
-1.583341	o a
-2.225364	o b
-1.37212	o c
-1.035454	o d
-1.709873	o e
-2.201195	o f
-1.719969	o g
-3.25514	o h
-1.56096	o i
-3.705109	o j
-3.57041	o k
-1.022636	o l
-1.180182	o m
-0.6422538	o n
-2.07256	o o
-1.447213	o p
-2.773374	o q
-0.966689	o r
-1.221457	o s
-1.466151	o t
-2.204923	o u
-1.843955	o v
-3.667321	o w
-3.445472	o x
-3.705109	o y
-2.792259	o z
-3.348562	o «
-3.133718	o »
-2.588139	o è
-3.189363	p (
-3.026635	p )
-3.151574	p ,
-3.151574	p -
-3.189363	p .
-0.8658293	p a
-3.189363	p b
-3.054664	p c
-3.189363	p d
-0.6939445	p e
-3.116812	p h
-1.356854	p i
-1.342576	p l
-3.189363	p m
-0.8235345	p o
-1.132458	p p
-0.5723624	p r
-3.054664	p s
-3.084627	p t
-1.409242	p u
-3.000306	p v
-3.189363	p y
-3.054664	p z
-3.151574	p ê
-2.305351	q )
-2.34314	q a
-2.34314	q e
-2.34314	q n
-2.34314	q p
-0.1571602	q u
-3.380415	r "
-3.543142	r (
-3.505353	r )
-3.305781	r ,
-3.543142	r -
-3.438407	r .
-3.505353	r 1
-3.543142	r 3
-3.505353	r 6
-3.262316	r :
-3.543142	r ;
-3.543142	r </s>
-0.8116266	r a
-2.67605	r b
-1.678739	r c
-1.941082	r d
-0.5650446	r e
-2.681445	r f
-1.971751	r g
-3.438407	r h
-0.7165961	r i
-3.543142	r k
-1.830952	r l
-1.383958	r m
-1.887305	r n
-0.9732364	r o
-2.602263	r p
-2.650036	r q
-1.898793	r r
-1.875265	r s
-1.07012	r t
-1.978153	r u
-2.024628	r v
-3.543142	r w
-3.505353	r y
-2.209786	r z
-3.438407	r «
-2.806384	r à
-3.543142	r å
-3.505353	r ò
-3.543142	r ó
-3.365254	s "
-3.213986	s '
-3.330492	s (
-3.082707	s )
-2.982037	s ,
-3.330492	s -
-3.189163	s .
-3.403043	s 5
-3.365254	s :
-3.403043	s ;
-3.240315	s </s>
-1.281871	s a
-2.638255	s b
-1.325179	s c
-2.939285	s d
-0.8381613	s e
-2.201397	s f
-3.330492	s g
-3.298307	s h
-0.7157568	s i
-3.403043	s k
-2.36165	s l
-2.0865	s m
-3.213986	s n
-1.004471	s o
-1.319605	s p
-3.330492	s q
-3.268344	s r
-0.895064	s s
-0.7550375	s t
-1.211947	s u
-2.462164	s v
-3.403043	s è
-3.403043	s é
-2.772337	s ì
-3.616676	t "
-3.067004	t '
-3.578887	t )
-3.511941	t ,
-3.616676	t .
-3.616676	t 1
-3.616676	t 2
-3.616676	t 3
-3.616676	t 5
-0.7841671	t a
-3.511941	t b
-3.481977	t c
-3.42762	t d
-0.791545	t e
-3.616676	t f
-3.578887	t g
-3.42762	t h
-0.622799	t i
-3.578887	t l
-3.296341	t m
-3.379315	t n
-0.7518953	t o
-1.22961	t r
-3.152919	t s
-0.951095	t t
-1.460788	t u
-3.578887	t v
-3.616676	t w
-3.544125	t y
-3.544125	t »
-1.452323	t à
-3.616676	t å
-3.578887	t è
-3.078285	t ù
-3.116414	u ,
-3.154202	u -
-3.019504	u .
-3.081652	u /
-0.9692532	u a
-1.789055	u b
-1.873376	u c
-1.947622	u d
-1.276517	u e
-1.933144	u f
-1.933144	u g
-0.9638709	u i
-1.311934	u l
-1.598998	u m
-0.6721089	u n
-1.550173	u o
-1.576502	u p
-3.154202	u q
-0.9305415	u r
-1.656519	u s
-0.9598144	u t
-2.815384	u u
-2.991475	u v
-3.081652	u x
-1.607884	u z
-3.154202	u »
-1.863157	u ò
-2.86736	v "
-2.704633	v '
-2.629999	v )
-2.477389	v ,
-2.364685	v .
-2.829572	v ;
-2.79481	v </s>
-0.6600443	v a
-2.79481	v c
-2.528542	v d
-0.5911075	v e
-0.5747016	v i
-2.340551	v m
-0.9027151	v o
-2.86736	v p
-2.116361	v r
-2.317688	v u
-1.605557	v v
-2.829572	v è
-1.834825	w )
-1.834825	w ,
-1.834825	w -
-1.834825	w a
-1.672098	w i
-1.834825	w o
-1.834825	w y
-1.743174	x ,
-1.847909	x 1
-1.634029	x a
-1.847909	x c
-1.81012	x d
-1.743174	x e
-1.567082	x i
-1.81012	x t
-1.81012	x u
-1.802203	y "
-1.839992	y (
-1.705293	y a
-1.802203	y l
-1.839992	y m
-1.802203	y o
-1.802203	y p
-1.767441	y r
-1.839992	y s
-1.839992	y u
-1.839992	y z
-0.8256676	z a
-1.518365	z e
-2.900218	z g
-0.2194707	z i
-1.597219	z o
-2.178183	z u
-0.9698712	z z
-1.922395	« -
-1.685034	« 1
-1.733339	« 2
-1.685034	« 3
-1.922395	« 4
-1.922395	« 5
-1.884607	« 6
-1.922395	« 7
-1.384004	« a
-1.849844	« b
-1.532424	« c
-1.641569	« d
-1.849844	« e
-1.922395	« f
-1.787697	« g
-1.565848	« i
-1.759668	« l
-1.81766	« m
-1.81766	« n
-1.922395	« o
-1.621365	« p
-1.849844	« q
-1.81766	« r
-1.583577	« s
-1.641569	« t
-1.884607	« u
-1.81766	« v
-1.922395	« z
-1.814581	° a
-1.852369	° d
-1.852369	° f
-1.32556	° g
-1.747634	° l
-1.814581	° m
-1.814581	° n
-1.779818	° o
-1.852369	° s
-1.829011	± 1
-1.829011	± 2
-1.828426	º g
-1.884607	» (
-1.733339	» )
-1.486667	» ,
-1.445274	» .
-1.922395	» 8
-1.685034	» :
-1.30103	» ;
-1.340539	» </s>
-1.884607	» a
-1.884607	» c
-1.787697	» d
-1.733339	» e
-1.922395	» f
-1.849844	» i
-1.849844	» l
-1.922395	» n
-1.849844	» o
-1.922395	» p
-1.922395	» q
-1.922395	» r
-1.60206	» s
-1.922395	» u
-1.922395	» v
-1.787697	» è
-2.303376	à "
-2.081527	à (
-1.404834	à ,
-2.341165	à -
-1.619129	à .
-2.303376	à 1
-2.341165	à 2
-2.341165	à :
-1.729345	à ;
-2.127285	à </s>
-1.507496	à a
-2.268614	à b
-1.017069	à c
-0.6542035	à d
-0.8911957	à e
-2.040135	à f
-2.103804	à g
-2.268614	à h
-1.634369	à i
-2.040135	à l
-1.905436	à m
-1.576377	à n
-1.749089	à o
-1.507496	à p
-2.341165	à q
-1.891196	à r
-1.666554	à s
-1.935399	à t
-2.152108	à u
-1.984617	à v
-2.341165	à »
-2.178437	à è
-1.828426	á d
-1.696065	â -
-1.828426	ã o
-1.791808	å l
-1.829596	å r
-1.828426	ç ã
-2.122216	è ,
-1.197076	è a
-2.025306	è b
-1.320584	è c
-1.557944	è d
-1.710035	è e
-1.710035	è f
-1.970948	è g
-1.314906	è i
-1.821186	è l
-1.548185	è m
-1.409005	è n
-1.242356	è o
-1.409005	è p
-1.786424	è q
-1.529299	è r
-0.8669434	è s
-1.770033	è t
-1.754239	è u
-1.946125	è v
-1.807084	é ,
-1.807084	é :
-1.941782	é </s>
-1.585235	é a
-1.837047	é c
-1.464661	é d
-1.837047	é e
-1.837047	é g
-1.320417	é i
-1.190783	é l
-1.869232	é m
-1.704422	é n
-1.903994	é o
-1.704422	é p
-1.752726	é q
-1.903994	é r
-1.506054	é s
-1.621447	é t
-1.779055	é u
-1.941782	é v
-1.941782	é è
-1.791223	ê c
-1.852923	ì ;
-1.748188	ì a
-1.532588	ì c
-1.815135	ì d
-1.780373	ì e
-1.815135	ì g
-1.815135	ì i
-1.780373	ì l
-1.815135	ì m
-1.748188	ì p
-1.780373	ì r
-1.780373	ì u
-1.815135	ì »
-1.70397	ò ,
-1.464209	ò a
-1.86878	ò b
-1.477573	ò c
-1.660504	ò d
-1.058444	ò e
-1.56775	ò f
-1.941331	ò g
-1.640301	ò i
-1.941331	ò l
-1.941331	ò m
-1.941331	ò n
-1.86878	ò o
-1.505602	ò p
-1.727451	ò r
-1.640301	ò s
-1.941331	ò t
-1.903542	ò v
-1.941331	ò è
-1.83018	ó m
-1.792392	ó n
-1.83018	ó s
-1.888834	ù ,
-1.587804	ù a
-1.791924	ù b
-1.712743	ù c
-1.189865	ù d
-1.606288	ù e
-1.763896	ù f
-1.926623	ù g
-1.645796	ù i
-1.625593	ù l
-1.926623	ù m
-1.888834	ù n
-1.854072	ù o
-1.587804	ù p
-1.490894	ù r
-1.625593	ù s
-1.712743	ù t
-1.854072	ù u
-1.821888	ù v
-1.828426	β -

\end\
