
\data\
ngram 1=93
ngram 2=2059

\1-grams:
-2.890388	"	1.114561
-3.726078	%	0.3009561
-4.684685	'	0.04257102
-2.700772	(	0.2969213
-2.45192	)	0.6997717
-4.470806	*	0.004875854
-4.646897	+	-0.007583442
-1.832427	,	0.6173483
-3.045743	-	0.6849052
-1.878814	.	0.3258611
-2.53715	/	-0.240351
-2.61448	0	0.09107941
-2.25847	1	-0.3931262
-2.375249	2	-0.2934889
-2.610468	3	-0.3188665
-2.752489	4	-0.2097069
-2.822988	5	-0.1269096
-2.76656	6	-0.1871454
-2.783574	7	-0.2403305
-2.76991	8	-0.1426157
-2.488534	9	-0.4495309
-3.094634	:	0.1280989
-2.778155	;	0.2731872
-2.111392	</s>
-99	<s>	0.2412416
-3.083614	[	-0.1944362
-3.083614	]	0.1763156
-0.9821296	a	0.5122051
-1.827627	b	-0.4309086
-1.970813	c	0.3237491
-1.552571	d	-0.01937877
-1.239095	e	-0.4184415
-2.561725	f	-0.09119445
-1.916518	g	-0.1464091
-3.353166	h	0.2069176
-1.085825	i	0.6282984
-1.708127	j	-0.1928501
-1.380901	k	-0.1373019
-1.640181	l	-0.3334236
-1.435532	m	0.4050207
-1.357624	n	-0.08030352
-1.415321	o	-0.2138182
-1.465959	p	-0.1496416
-4.403859	q	0.02096375
-1.308142	r	0.2739031
-1.177308	s	0.6106437
-1.201228	t	0.03611917
-1.257701	u	0.8055649
-1.669478	v	-0.129494
-4.470806	w	0.03342342
-4.248957	x	0.1365489
-4.447325	y	0.1003663
-1.79881	z	0.1655749
-4.684685	ã	0.0118012
-4.646897	ä	0.002051301
-4.612135	å	0.02153356
-4.684685	ç	-0.005209262
-4.684685	è	0.01668706
-4.549987	é	0.09380912
-4.646897	ê	-0.001019669
-4.684685	ó	0.01427438
-4.684685	ü	0.01668706
-1.416022	ā	-0.03760181
-3.856846	č	0.1153141
-1.843326	ē	-0.1385835
-3.054905	ģ	0.02031214
-1.641073	ī	-0.1654564
-2.917192	ķ	0.04806545
-2.6019	ļ	0.6250519
-2.3221	ņ	-0.3199252
-1.92888	š	0.2379517
-2.568924	ū	0.1865032
-2.854505	ž	0.1615506
-4.684685	ά	-0.005207629
-4.684685	α	-0.005208445
-4.684685	γ	-0.005209262
-4.612135	δ	-0.01578068
-4.646897	ε	-0.00894173
-4.684685	η	-0.005207629
-4.646897	ι	-0.01046719
-4.646897	λ	-0.01046964
-4.646897	μ	-0.01046964
-4.646897	ν	-0.01046882
-4.57995	ο	-0.02114768
-4.612135	ρ	-0.0157815
-4.646897	ς	0.03731269
-4.612135	σ	-0.01578232
-4.684685	ω	-0.005208445
-4.646897	ό	-0.01046882
-3.955226	–	0.2432251
-4.027108	—	0.3447704
-4.684685	’	-0.005205997
-4.684685	…	-0.001844758

\2-grams:
-2.12358	" (
-1.755603	" )
-2.161368	" *
-1.579511	" ,
-1.357663	" .
-1.658693	" 1
-1.755603	" 2
-1.822549	" 3
-2.12358	" 4
-2.056633	" 5
-1.972312	" 6
-2.12358	" 7
-2.12358	" 9
-2.12358	" :
-1.740363	" ;
-1.283683	" </s>
-1.611696	" a
-1.841033	" b
-1.924007	" c
-1.711399	" d
-1.924007	" e
-1.972312	" f
-1.998641	" g
-2.161368	" h
-1.333529	" i
-1.972312	" j
-1.822549	" k
-1.947488	" l
-1.822549	" m
-1.478485	" n
-2.088817	" o
-1.549548	" p
-1.998641	" r
-1.697611	" s
-1.671282	" t
-1.755603	" u
-1.658693	" v
-2.161368	" w
-2.088817	" z
-2.161368	" ā
-2.161368	" ē
-2.161368	" ģ
-2.161368	" ī
-2.161368	" ļ
-2.056633	" š
-2.088817	" —
-1.92514	% "
-1.962929	% )
-1.572958	% ,
-1.725568	% .
-1.890378	% ;
-1.858193	% a
-1.890378	% b
-1.962929	% i
-1.890378	% l
-1.92514	% m
-1.472842	% n
-1.890378	% o
-1.890378	% p
-1.82823	% s
-1.858193	% t
-1.962929	% u
-1.858193	% v
-1.962929	% z
-1.922867	' a
-2.118375	( "
-2.253073	( %
-2.253073	( *
-1.863102	( -
-2.253073	( 0
-1.034395	( 1
-1.30324	( 2
-1.750398	( 3
-1.789316	( 4
-1.726264	( 5
-1.803105	( 6
-1.879493	( 7
-1.832068	( 8
-1.714683	( 9
-1.972247	( a
-2.039194	( b
-1.914255	( c
-1.817345	( d
-0.6451313	( e
-2.118375	( f
-2.118375	( g
-2.215285	( h
-1.972247	( i
-2.215285	( j
-1.993436	( k
-2.215285	( l
-2.090346	( m
-2.118375	( n
-2.215285	( o
-1.817345	( p
-2.215285	( r
-1.932738	( s
-1.972247	( t
-2.215285	( u
-2.118375	( v
-2.148338	( z
-1.993436	( š
-2.253073	( ο
-1.62606	) "
-2.404212	) (
-2.404212	) )
-1.284236	) ,
-2.404212	) -
-2.065393	) .
-2.047664	) 1
-2.299476	) 2
-2.366423	) 3
-2.366423	) 4
-2.404212	) 5
-2.404212	) 9
-2.404212	) :
-2.047664	) ;
-1.764363	) </s>
-2.215155	) [
-1.059998	) a
-2.123385	) b
-2.166851	) c
-1.62606	) d
-1.843544	) e
-2.269513	) f
-2.083876	) g
-2.404212	) h
-1.632691	) i
-1.660274	) j
-1.521325	) k
-1.674752	) l
-2.144574	) m
-0.7847387	) n
-2.331661	) o
-1.180786	) p
-1.843544	) r
-1.697416	) s
-1.424415	) t
-1.606755	) u
-1.62606	) v
-2.404212	) w
-2.366423	) y
-2.215155	) z
-2.366423	) ā
-2.404212	) č
-2.166851	) ī
-2.404212	) ļ
-2.215155	) ņ
-1.764363	) š
-1.926155	* )
-1.926155	* 3
-1.926155	* 8
-1.888367	* ]
-1.926155	* m
-1.888367	* o
-1.923338	+ 2
-1.923338	+ 3
-2.579684	, "
-2.862231	, (
-2.900019	, ,
-2.862231	, -
-2.900019	, .
-2.619193	, 0
-2.307944	, 1
-2.318163	, 2
-2.619193	, 3
-2.640382	, 4
-2.640382	, 5
-2.68614	, 6
-2.710963	, 7
-2.479014	, 8
-2.561201	, 9
-1.154661	, </s>
-1.417666	, a
-1.86953	, b
-2.090154	, c
-1.795284	, d
-2.269314	, e
-2.479014	, f
-2.193224	, g
-2.737292	, h
-1.340439	, i
-1.343717	, j
-0.4608302	, k
-1.275831	, l
-2.209018	, m
-1.528112	, n
-2.640382	, o
-1.376746	, p
-2.193224	, r
-1.708416	, s
-1.533172	, t
-1.235548	, u
-1.443102	, v
-2.862231	, x
-2.710963	, z
-2.900019	, ā
-2.827469	, ē
-2.827469	, ģ
-2.494254	, ī
-2.765321	, ķ
-2.900019	, ļ
-2.142071	, ņ
-2.108903	, š
-2.900019	, ū
-2.900019	, ž
-1.912253	- "
-1.109278	- -
-1.996574	- 1
-2.063521	- 2
-2.063521	- 3
-2.10131	- 4
-2.028759	- 5
-1.938582	- 7
-2.10131	- 8
-2.10131	- 9
-2.063521	- </s>
-1.37185	- a
-1.938582	- b
-1.912253	- c
-1.711339	- d
-1.966611	- e
-2.028759	- f
-1.938582	- g
-1.562919	- i
-1.744762	- j
-1.443732	- k
-1.966611	- l
-1.820483	- m
-1.841672	- n
-2.063521	- o
-1.49925	- p
-1.598634	- r
-1.680304	- s
-1.624188	- t
-1.88743	- u
-1.637552	- v
-2.10131	- z
-2.028759	- ā
-2.10131	- ī
-2.10131	- ū
-2.10131	- ο
-1.854771	. "
-2.858701	. (
-2.695974	. )
-2.858701	. *
-2.048836	. ,
-2.820913	. -
-2.820913	. .
-2.519883	. /
-2.753966	. 0
-1.563634	. 1
-1.679986	. 2
-1.955611	. 3
-2.502154	. 4
-2.46873	. 5
-2.557671	. 6
-2.408732	. 7
-2.343791	. 8
-2.577875	. 9
-2.820913	. ;
-0.7030892	. </s>
-2.753966	. [
-1.605628	. a
-2.356026	. b
-2.557671	. c
-1.411543	. d
-2.599064	. e
-2.331892	. f
-1.246881	. g
-2.820913	. h
-2.042761	. i
-1.475212	. j
-1.677377	. k
-1.926966	. l
-1.965595	. m
-1.98628	. n
-2.237336	. o
-0.5200636	. p
-2.067585	. r
-1.955611	. s
-1.817309	. t
-1.667098	. u
-2.129242	. v
-2.858701	. w
-2.644821	. z
-2.858701	. ā
-2.724003	. ī
-2.724003	. ņ
-1.847016	. š
-2.858701	. ž
-2.724003	. –
-2.858701	. —
-1.360668	/ 1
-1.329354	/ 2
-1.538793	/ 3
-1.282842	/ 4
-1.590711	/ 5
-1.279462	/ 6
-1.40778	/ 7
-1.373018	/ 8
-1.045659	/ 9
-2.348659	/ a
-2.31087	/ c
-0.6757218	/ e
-2.31087	/ h
-2.31087	/ i
-2.348659	/ k
-2.348659	/ n
-2.276108	/ p
-2.348659	/ t
-1.486961	/ v
-1.594826	0 %
-2.166923	0 (
-2.000592	0 )
-2.301622	0 *
-1.740955	0 ,
-0.9682661	0 .
-1.080563	0 /
-0.7666731	0 0
-1.418735	0 1
-1.360743	0 2
-1.594826	0 3
-1.880617	0 4
-1.981287	0 5
-1.880617	0 6
-1.774813	0 7
-1.880617	0 8
-1.880617	0 9
-2.301622	0 ;
-2.229071	0 </s>
-2.020795	0 [
-2.064261	0 ]
-2.263833	0 a
-2.301622	0 b
-1.880617	0 d
-2.196887	0 e
-2.301622	0 f
-2.138895	0 g
-2.263833	0 h
-2.229071	0 i
-2.138895	0 k
-2.301622	0 l
-2.196887	0 m
-1.981287	0 p
-2.263833	0 r
-2.263833	0 s
-2.166923	0 t
-2.229071	0 u
-2.301622	0 v
-2.301622	0 ā
-2.505715	1 %
-2.380776	1 (
-1.814044	1 )
-2.040828	1 ,
-0.570796	1 .
-1.397376	1 /
-1.336923	1 0
-1.386239	1 1
-1.445017	1 2
-1.502111	1 3
-1.481093	1 4
-1.448176	1 5
-1.607173	1 6
-1.567863	1 7
-1.640414	1 8
-0.8911694	1 9
-2.543504	1 :
-2.505715	1 ;
-2.438768	1 </s>
-2.380776	1 [
-1.576296	1 ]
-2.470953	1 a
-2.543504	1 b
-2.543504	1 d
-2.543504	1 g
-2.470953	1 i
-2.408805	1 k
-2.505715	1 l
-2.329624	1 p
-2.543504	1 s
-2.543504	1 t
-2.408805	1 u
-2.543504	1 v
-2.457331	2 "
-2.322633	2 %
-2.352596	2 (
-1.67918	2 )
-2.036326	2 ,
-0.5672661	2 .
-1.231552	2 /
-0.9305223	2 0
-1.61791	2 1
-1.498724	2 2
-1.590239	2 3
-1.503089	2 4
-1.579646	2 5
-1.61791	2 6
-1.758361	2 7
-1.699383	2 8
-1.595634	2 9
-2.419543	2 :
-2.384781	2 </s>
-2.21997	2 [
-1.503089	2 ]
-2.384781	2 a
-2.457331	2 b
-2.352596	2 d
-2.419543	2 g
-2.457331	2 i
-2.457331	2 j
-2.322633	2 k
-2.268275	2 m
-2.118513	2 p
-2.419543	2 s
-2.419543	2 t
-2.457331	2 u
-2.266192	3 "
-2.199246	3 %
-2.23143	3 (
-1.692161	3 )
-2.002951	3 ,
-0.5701275	3 .
-1.178056	3 /
-1.442284	3 0
-1.421094	3 1
-1.61298	3 2
-1.743314	3 3
-1.840224	3 4
-1.801306	3 5
-1.500276	3 6
-1.637804	3 7
-1.789071	3 8
-1.722124	3 9
-2.266192	3 </s>
-2.06662	3 [
-1.447747	3 ]
-2.303981	3 e
-2.303981	3 i
-2.303981	3 k
-2.303981	3 l
-2.141254	3 p
-2.303981	3 u
-2.303981	3 v
-2.188225	4 %
-2.226014	4 (
-1.654623	4 )
-1.905679	4 ,
-0.6653464	4 .
-1.150135	4 /
-1.654623	4 0
-1.586165	4 1
-1.511532	4 2
-1.623954	4 3
-1.905679	4 4
-1.905679	4 5
-1.687623	4 6
-1.869466	4 7
-1.614194	4 8
-1.551403	4 9
-2.226014	4 ;
-2.036958	4 [
-1.489255	4 ]
-2.226014	4 b
-2.226014	4 d
-2.188225	4 g
-2.226014	4 i
-2.153463	4 m
-2.226014	4 n
-2.153463	4 p
-2.091315	4 s
-2.188225	4 u
-1.714482	5 %
-1.500602	5 )
-2.002547	5 ,
-0.7251402	5 .
-1.264513	5 /
-1.589543	5 0
-1.741634	5 1
-1.589543	5 2
-1.741634	5 3
-1.641932	5 4
-1.890573	5 5
-1.701517	5 6
-1.835056	5 7
-1.727846	5 8
-1.890573	5 9
-2.191603	5 :
-2.191603	5 ;
-2.191603	5 </s>
-1.852785	5 [
-1.5428	5 ]
-2.191603	5 a
-1.890573	5 d
-2.086868	5 g
-2.119053	5 k
-2.191603	5 l
-2.119053	5 m
-2.153815	5 n
-1.977724	5 p
-2.153815	5 t
-2.056905	5 u
-2.218917	6 "
-2.114182	6 %
-2.218917	6 (
-1.728831	6 )
-2.05619	6 ,
-2.218917	6 -
-0.7860937	6 .
-1.024781	6 /
-1.512122	6 0
-1.797912	6 1
-1.467918	6 2
-1.75516	6 3
-1.716242	6 4
-1.813152	6 5
-1.47498	6 6
-1.55274	6 7
-1.440766	6 8
-1.783189	6 9
-2.181129	6 ;
-1.981556	6 [
-1.647526	6 ]
-2.146367	6 d
-2.218917	6 g
-2.181129	6 i
-2.181129	6 m
-2.218917	6 n
-1.981556	6 p
-2.218917	6 r
-2.181129	6 s
-2.218917	6 u
-2.1727	7 %
-2.047761	7 (
-1.77476	7 )
-1.973128	7 ,
-2.210489	7 -
-0.8369081	7 .
-1.121548	7 /
-1.527606	7 0
-1.660817	7 1
-1.544311	7 2
-1.598669	7 3
-1.720402	7 4
-1.496007	7 5
-1.552911	7 6
-1.466552	7 7
-1.400623	7 8
-1.649822	7 9
-2.210489	7 ;
-1.87167	7 [
-1.820518	7 ]
-2.210489	7 b
-2.210489	7 g
-2.105753	7 i
-2.210489	7 j
-2.210489	7 l
-2.210489	7 m
-2.210489	7 n
-2.021433	7 p
-2.1727	7 t
-2.210489	7 —
-2.179456	8 (
-1.690436	8 )
-2.217245	8 *
-2.054517	8 ,
-0.8694712	8 .
-1.015599	8 /
-1.690436	8 0
-1.466246	8 1
-1.753487	8 2
-1.702335	8 3
-1.753487	8 4
-1.526244	8 5
-1.518275	8 6
-1.426128	8 7
-1.534361	8 8
-1.395314	8 9
-2.217245	8 </s>
-1.936418	8 [
-1.860697	8 ]
-2.144694	8 a
-2.003365	8 i
-2.217245	8 m
-2.179456	8 n
-1.936418	8 p
-2.179456	8 s
-2.179456	8 u
-2.379882	9 "
-2.379882	9 %
-2.379882	9 (
-1.944154	9 )
-2.120245	9 ,
-1.039258	9 .
-1.206431	9 /
-1.400085	9 0
-1.372057	9 1
-1.372057	9 2
-1.375952	9 3
-1.523648	9 4
-1.552043	9 5
-1.395969	9 6
-1.342094	9 7
-1.22815	9 8
-0.8369436	9 9
-2.342093	9 ;
-2.342093	9 </s>
-2.190826	9 [
-2.041064	9 ]
-2.379882	9 d
-2.379882	9 g
-2.342093	9 i
-2.379882	9 j
-2.142521	9 p
-2.342093	9 u
-1.679298	: "
-1.950365	: -
-1.980328	: 1
-2.085063	: ;
-0.5762278	: </s>
-1.784033	: a
-2.012513	: d
-2.085063	: e
-2.047275	: i
-1.980328	: j
-2.047275	: k
-2.085063	: l
-2.085063	: n
-2.085063	: p
-2.085063	: s
-2.047275	: t
-1.825426	: v
-2.085063	: x
-2.047275	: ū
-2.085063	: —
-2.085063	: …
-2.024099	; "
-2.213156	; .
-2.213156	; 5
-0.4409671	; </s>
-2.213156	; a
-2.213156	; b
-2.140605	; d
-2.213156	; e
-2.213156	; i
-2.050428	; j
-2.024099	; k
-2.213156	; l
-2.213156	; m
-2.10842	; n
-2.140605	; p
-2.213156	; r
-2.175367	; s
-1.01151	; t
-1.874337	; u
-1.975794	; v
-2.213156	; z
-2.050428	; š
-1.663969	<s> "
-1.125054	<s> (
-2.660002	<s> ,
-1.236012	<s> -
-1.102605	<s> 1
-1.127364	<s> 2
-1.345369	<s> 3
-1.574291	<s> 4
-1.777116	<s> 5
-1.87532	<s> 6
-1.961033	<s> 7
-2.099335	<s> 8
-2.145093	<s> 9
-1.379176	<s> a
-1.594185	<s> b
-1.684362	<s> c
-1.561516	<s> d
-1.680206	<s> e
-2.088611	<s> f
-2.133193	<s> g
-2.422642	<s> h
-1.420362	<s> i
-1.814905	<s> j
-1.756913	<s> k
-2.029297	<s> l
-2.339667	<s> m
-2.133193	<s> n
-2.555267	<s> o
-1.752005	<s> p
-2.099335	<s> r
-2.169916	<s> s
-1.137914	<s> t
-2.446123	<s> u
-2.196245	<s> v
-2.622214	<s> x
-2.622214	<s> z
-2.587452	<s> ā
-2.622214	<s> ī
-1.296562	<s> ņ
-1.497275	<s> š
-2.587452	<s> —
-2.050831	[ *
-0.9777236	[ 1
-1.108823	[ 2
-1.232385	[ 3
-1.389649	[ 4
-1.527952	[ 5
-1.585944	[ 6
-1.768284	[ 7
-1.851258	[ 8
-1.899563	[ 9
-2.050831	[ m
-0.6797628	] ,
-1.527952	] .
-1.828982	] 1
-1.953921	] 2
-2.050831	] 3
-2.088619	] 4
-2.088619	] 5
-2.088619	] 6
-2.050831	] 7
-2.088619	] 8
-2.088619	] 9
-1.652891	] ;
-2.088619	] </s>
-2.016069	] a
-2.088619	] b
-2.088619	] d
-1.715039	] i
-2.088619	] j
-2.088619	] k
-1.807793	] n
-1.874739	] o
-1.667614	] p
-2.050831	] s
-2.088619	] t
-1.715039	] u
-2.050831	] v
-2.918508	a "
-2.773293	a (
-2.383661	a )
-1.962142	a ,
-3.370806	a -
-2.577831	a .
-3.709625	a /
-3.671836	a 0
-2.086375	a 1
-2.203243	a 2
-2.595681	a 3
-2.944837	a 4
-3.043447	a 5
-3.138233	a 6
-3.232503	a 7
-3.206949	a 8
-3.052047	a 9
-3.052047	a :
-2.905919	a ;
-2.912168	a </s>
-3.637074	a [
-2.035014	a a
-1.93677	a b
-2.303859	a c
-1.338053	a d
-2.881785	a e
-2.73818	a f
-2.321265	a g
-3.389289	a h
-1.046009	a i
-1.58518	a j
-1.478016	a k
-1.237933	a l
-1.498893	a m
-1.028219	a n
-2.875956	a o
-1.420603	a p
-3.574926	a q
-0.9543042	a r
-0.7076156	a s
-1.11483	a t
-1.386842	a u
-1.701412	a v
-3.709625	a x
-3.671836	a y
-2.074324	a z
-3.709625	a ç
-3.520568	a ā
-3.671836	a č
-3.671836	a ē
-2.951677	a ģ
-3.171234	a ī
-3.671836	a ķ
-2.161068	a ļ
-1.877116	a ņ
-1.958626	a š
-3.709625	a ū
-2.150044	a ž
-3.604889	a –
-1.666961	b )
-2.831771	b ,
-2.904322	b -
-2.831771	b 1
-0.5950791	b a
-2.904322	b b
-2.666961	b d
-1.387006	b e
-2.904322	b g
-2.866534	b h
-0.9536032	b i
-2.440565	b j
-1.881257	b k
-1.601322	b l
-2.153323	b n
-1.845344	b o
-2.498557	b p
-1.428519	b r
-2.498557	b s
-0.9885865	b u
-0.9929222	b v
-0.9977911	b ā
-2.547775	b ē
-1.492396	b ī
-1.404135	b ū
-2.673548	c (
-1.646489	c )
-2.342554	c ,
-2.778283	c -
-2.589226	c .
-2.404702	c 1
-2.673548	c 2
-2.740494	c 3
-2.778283	c 6
-2.778283	c 9
-2.740494	c :
-2.778283	c ;
-1.351328	c a
-2.301162	c b
-2.643584	c c
-2.251474	c d
-0.8479359	c e
-2.564403	c g
-2.497456	c h
-0.5005695	c i
-2.673548	c j
-2.041524	c k
-2.497456	c l
-2.518646	c m
-2.275608	c n
-2.056247	c o
-1.790292	c p
-2.589226	c r
-2.087282	c s
-1.82404	c t
-1.782249	c u
-2.071487	c v
-2.615556	c z
-2.778283	c é
-2.228611	c ā
-1.439464	c ē
-0.708413	c ī
-2.156918	c š
-2.540922	c ū
-2.778283	c —
-3.023143	d "
-2.290749	d )
-2.667755	d ,
-3.120053	d .
-3.157841	d 1
-3.157841	d :
-3.157841	d </s>
-0.6423287	d a
-3.053106	d b
-3.085291	d c
-2.527136	d d
-1.126984	d e
-3.157841	d f
-2.968785	d g
-3.053106	d h
-0.9299545	d i
-2.943961	d j
-2.68072	d k
-2.856811	d l
-2.194913	d m
-2.58645	d n
-1.208451	d o
-2.451046	d p
-1.288076	d r
-2.157841	d s
-2.509038	d t
-1.111452	d u
-2.631032	d v
-3.120053	d w
-0.7935461	d z
-3.157841	d é
-1.406842	d ā
-1.494226	d ē
-1.239716	d ī
-3.120053	d ņ
-2.968785	d š
-1.909199	d ū
-2.722113	d ž
-3.119462	e "
-3.38573	e (
-2.743798	e )
-2.431488	e ,
-3.38573	e -
-3.052515	e .
-3.295553	e 1
-3.458281	e 3
-3.353545	e :
-3.198643	e ;
-3.353545	e </s>
-2.183703	e a
-2.249253	e b
-1.301016	e c
-1.279827	e d
-1.642944	e e
-2.341311	e f
-1.247063	e g
-2.402763	e h
-1.080048	e i
-1.891147	e j
-0.9313542	e k
-1.430375	e l
-0.9520217	e m
-1.004684	e n
-2.866205	e o
-1.696216	e p
-1.368055	e r
-0.9543662	e s
-1.371597	e t
-2.535886	e u
-1.564166	e v
-3.458281	e w
-3.323582	e x
-2.190043	e z
-3.244401	e ā
-2.943371	e č
-2.295553	e ģ
-3.157251	e ī
-3.0847	e ķ
-2.21864	e ļ
-1.855235	e ņ
-1.681447	e š
-3.458281	e ū
-2.190043	e ž
-3.458281	e –
-2.333356	f (
-1.667178	f )
-2.295567	f 1
-1.357715	f a
-2.295567	f c
-1.165233	f e
-2.198657	f g
-0.5699277	f i
-1.976808	f l
-0.7525343	f o
-2.333356	f p
-1.806547	f r
-1.897627	f t
-1.634386	f u
-2.333356	f v
-2.333356	f ü
-2.295567	f ā
-2.22862	f ē
-2.787697	g "
-2.825485	g (
-2.389756	g )
-2.752934	g ,
-2.752934	g .
-2.825485	g /
-0.6250824	g a
-2.825485	g b
-2.787697	g d
-2.451905	g e
-2.636429	g f
-2.787697	g g
-1.303397	g i
-2.752934	g k
-1.438743	g l
-2.752934	g m
-2.486667	g n
-1.269183	g o
-2.662758	g p
-1.042101	g r
-1.726999	g s
-1.524455	g t
-0.6022961	g u
-2.142602	g v
-2.825485	g é
-1.20036	g ā
-2.310575	g ē
-2.335399	g ļ
-1.997646	g š
-1.579076	g ū
-2.017792	h (
-1.661245	h )
-1.945241	h -
-1.980003	h .
-2.017792	h /
-1.980003	h 1
-2.017792	h 3
-2.017792	h 8
-1.627821	h a
-1.716762	h e
-1.596787	h i
-1.803912	h l
-1.980003	h m
-1.109795	h n
-1.736965	h o
-1.945241	h p
-1.883093	h r
-1.980003	h s
-2.017792	h y
-2.017792	h ä
-1.425716	h ā
-1.828736	h ē
-2.959012	i "
-3.172087	i (
-2.680725	i )
-1.756001	i ,
-3.607816	i -
-2.302855	i .
-3.607816	i /
-3.570027	i 0
-3.01574	i 1
-3.117729	i 2
-3.20205	i 3
-3.418759	i 4
-3.50308	i 5
-3.393936	i 6
-3.268997	i 7
-3.473117	i 8
-3.326989	i 9
-2.836295	i :
-2.528634	i ;
-2.699818	i </s>
-3.234235	i [
-1.879093	i a
-2.337454	i b
-1.77939	i c
-1.697871	i d
-0.5390227	i e
-2.19589	i f
-2.31677	i g
-3.473117	i h
-1.711189	i i
-1.25792	i j
-1.179386	i k
-1.584376	i l
-1.868891	i m
-1.081007	i n
-2.222697	i o
-1.568221	i p
-3.570027	i q
-1.098858	i r
-1.104272	i s
-1.427794	i t
-2.044982	i u
-1.866736	i v
-3.535265	i x
-1.282785	i z
-3.607816	i ó
-2.145417	i ā
-3.570027	i č
-3.348178	i ē
-3.306786	i ģ
-3.251268	i ī
-3.172087	i ķ
-3.172087	i ļ
-1.900245	i ņ
-2.179386	i š
-3.535265	i ū
-3.251268	i ž
-3.370455	i –
-3.570027	i —
-2.775553	j )
-2.775553	j ,
-2.878215	j .
-2.940363	j 1
-3.012914	j 2
-2.975125	j 3
-3.012914	j 4
-3.012914	j 5
-3.012914	j :
-2.975125	j ;
-0.4891674	j a
-2.975125	j b
-2.656367	j d
-1.803887	j e
-1.363225	j i
-2.975125	j j
-2.711884	j k
-2.940363	j l
-2.908179	j m
-2.674095	j n
-1.105405	j o
-2.290879	j p
-2.878215	j r
-1.730024	j s
-2.775553	j t
-0.6069934	j u
-2.535793	j v
-3.012914	j x
-0.782465	j ā
-2.498004	j ē
-2.775553	j ī
-2.692579	j š
-1.855649	j ū
-3.061641	k "
-2.782887	k (
-1.705615	k )
-3.321278	k *
-2.433252	k ,
-3.061641	k .
-2.719218	k 1
-2.871309	k 2
-3.020248	k 3
-3.083917	k 4
-3.020248	k 5
-3.158551	k 6
-3.216543	k 7
-3.216543	k 8
-3.061641	k 9
-3.18658	k :
-3.061641	k ;
-3.132222	k </s>
-2.333287	k [
-0.6865262	k a
-3.107399	k b
-2.066006	k c
-3.061641	k d
-3.107399	k e
-3.321278	k f
-2.591819	k g
-1.668066	k i
-3.321278	k j
-2.577341	k k
-1.723184	k l
-2.317348	k m
-2.470576	k n
-0.8160049	k o
-2.195354	k p
-1.77834	k r
-1.328845	k s
-0.8177351	k t
-0.8128098	k u
-2.10022	k v
-3.216543	k z
-1.076439	k ā
-3.321278	k ģ
-3.28349	k ī
-1.776084	k ļ
-3.248728	k ņ
-1.592556	k š
-3.040452	k ū
-3.321278	k –
-3.321278	k —
-3.075779	l '
-3.037991	l )
-2.913052	l ,
-3.037991	l -
-2.941081	l .
-3.003228	l 1
-3.003228	l 2
-2.971044	l 3
-3.075779	l 4
-3.075779	l 6
-0.7150825	l a
-2.861899	l b
-2.598658	l c
-1.359017	l d
-1.697216	l e
-2.941081	l f
-2.445074	l g
-0.8460275	l i
-2.736961	l j
-2.203358	l k
-2.418202	l l
-2.702199	l m
-1.958809	l n
-1.451591	l o
-2.006582	l p
-2.971044	l q
-0.8481261	l s
-1.886723	l t
-1.34485	l u
-2.117172	l v
-3.003228	l z
-1.384778	l ā
-1.386389	l ē
-0.7827181	l ī
-2.640051	l š
-1.99332	l ū
-3.037991	l ž
-3.075779	l ’
-2.988113	m "
-2.75403	m (
-2.847934	m )
-1.27211	m ,
-3.196389	m -
-1.830325	m .
-3.164204	m /
-3.268939	m 0
-2.948604	m 1
-3.009302	m 2
-3.164204	m 3
-3.268939	m 4
-3.231151	m 8
-3.268939	m 9
-2.687083	m :
-2.206528	m ;
-2.81897	m </s>
-2.602762	m [
-0.8797734	m a
-1.954306	m b
-2.878968	m c
-2.098145	m d
-1.150464	m e
-2.75403	m f
-2.687083	m g
-3.231151	m h
-0.781801	m i
-2.077336	m j
-2.082445	m k
-2.401847	m l
-2.085023	m m
-1.707188	m n
-1.417681	m o
-1.410512	m p
-2.504152	m r
-1.438759	m s
-1.890376	m t
-0.7671335	m u
-1.828889	m v
-3.231151	m y
-2.948604	m z
-1.236614	m ā
-1.261114	m ē
-2.095488	m ī
-3.231151	m ķ
-3.196389	m ļ
-3.231151	m ņ
-2.223972	m š
-3.268939	m ū
-3.196389	m ž
-3.079883	m –
-3.196389	m —
-3.084022	n "
-3.238924	n (
-3.154603	n )
-3.305871	n +
-2.629177	n ,
-3.271109	n -
-2.504238	n /
-3.271109	n 0
-2.636864	n 1
-2.599722	n 2
-2.761803	n 3
-2.866538	n 4
-3.023324	n 5
-3.129779	n 6
-2.987112	n 7
-2.907931	n 8
-2.907931	n 9
-3.305871	n :
-2.793987	n </s>
-3.343659	n [
-0.8789529	n a
-2.629177	n b
-1.836049	n c
-1.80756	n d
-1.305147	n e
-1.801853	n f
-2.277842	n g
-3.180932	n h
-1.058716	n i
-2.134632	n j
-1.21803	n k
-2.435662	n l
-2.498561	n m
-2.223684	n n
-0.7848416	n o
-1.861305	n p
-1.651855	n r
-1.605455	n s
-0.8758494	n t
-1.301191	n u
-1.89933	n v
-3.238924	n x
-2.660776	n z
-3.343659	n é
-1.107672	n ā
-3.062833	n č
-1.558977	n ē
-3.343659	n ģ
-1.808711	n ī
-3.343659	n ļ
-3.208961	n ņ
-2.149523	n š
-3.343659	n ū
-3.343659	n ž
-3.271109	n –
-3.343659	n —
-3.153571	o "
-3.28827	o (
-3.050909	o )
-2.25778	o ,
-2.867264	o -
-2.811148	o .
-3.28827	o 0
-2.566234	o 1
-2.8383	o 2
-3.250481	o 3
-3.215719	o 4
-3.153571	o 5
-3.250481	o 6
-2.852541	o :
-3.153571	o ;
-1.923122	o a
-1.843941	o b
-1.756791	o c
-1.150685	o d
-2.55881	o e
-2.055504	o f
-1.924829	o g
-3.215719	o h
-1.813788	o i
-1.35469	o j
-1.555145	o k
-1.468128	o l
-1.010348	o m
-1.264083	o n
-2.142142	o o
-1.0665	o p
-1.093881	o r
-1.038515	o s
-0.810228	o t
-2.37542	o u
-1.70538	o v
-1.572266	o z
-2.967934	o ā
-3.07439	o č
-2.497153	o ģ
-2.009516	o ī
-3.050909	o ķ
-3.28827	o ļ
-2.931722	o ņ
-1.237995	o š
-3.125542	o ū
-3.250481	o ž
-3.239913	p (
-3.202125	p )
-3.239913	p ,
-3.239913	p -
-2.938884	p .
-3.239913	p 1
-3.239913	p :
-0.4687938	p a
-2.959087	p b
-3.050857	p c
-2.299035	p d
-1.458485	p e
-3.239913	p f
-2.582336	p g
-3.202125	p h
-0.7205628	p i
-2.455231	p j
-2.573736	p k
-1.982453	p l
-2.228228	p m
-2.668522	p n
-1.573736	p o
-2.725004	p p
-0.9492719	p r
-1.681423	p s
-2.105215	p t
-1.120538	p u
-2.235983	p v
-2.883366	p z
-3.202125	p ê
-1.212749	p ā
-1.382033	p ē
-3.167363	p ģ
-2.216848	p ī
-3.239913	p ļ
-2.980276	p ņ
-2.762792	p š
-3.135178	p ū
-1.927557	q )
-1.927557	q ,
-1.927557	q .
-1.76483	q u
-1.889768	q ī
-2.927627	r "
-3.318834	r (
-3.391384	r )
-2.888709	r ,
-3.353596	r -
-1.752441	r .
-3.256686	r 0
-2.372079	r 1
-2.619864	r 2
-2.819993	r 3
-3.154023	r 4
-3.110558	r 5
-2.970379	r 6
-2.955656	r 7
-3.202328	r 8
-3.286649	r 9
-2.901298	r :
-3.391384	r </s>
-0.9543548	r a
-1.533504	r b
-2.346417	r c
-1.574842	r d
-0.9128178	r e
-2.779564	r f
-1.734676	r g
-3.131747	r h
-1.084862	r i
-2.26546	r j
-1.65826	r k
-2.067289	r l
-1.514222	r m
-1.905147	r n
-0.9283061	r o
-1.464294	r p
-2.086424	r r
-1.493757	r s
-1.261636	r t
-1.40502	r u
-1.659722	r v
-3.391384	r w
-3.391384	r y
-2.518963	r z
-3.353596	r å
-1.163731	r ā
-3.353596	r č
-1.742581	r ē
-3.034837	r ģ
-1.337608	r ī
-2.170326	r ķ
-3.318834	r ļ
-2.700383	r ņ
-1.843945	r š
-2.669349	r ū
-3.017804	r ž
-3.391384	r —
-2.499101	s "
-2.254447	s (
-2.33449	s )
-1.30188	s ,
-3.355679	s -
-1.933459	s .
-3.383708	s /
-3.480618	s 0
-2.149866	s 1
-2.6253	s 2
-2.906586	s 3
-2.947015	s 4
-3.144826	s 5
-2.852229	s 6
-2.811611	s 7
-2.887701	s 8
-2.526375	s 9
-2.733724	s :
-2.30212	s ;
-1.787477	s </s>
-3.144826	s [
-3.480618	s ]
-0.9232107	s a
-2.375108	s b
-2.392482	s c
-1.542348	s d
-1.689981	s e
-2.542766	s f
-2.029599	s g
-3.217376	s h
-1.11952	s i
-2.243829	s j
-1.137045	s k
-1.684159	s l
-1.623788	s m
-1.330629	s n
-1.878558	s o
-1.061213	s p
-1.833072	s r
-1.587596	s s
-0.7991503	s t
-1.434643	s u
-1.448536	s v
-2.573027	s z
-1.664929	s ā
-3.518406	s č
-2.196187	s ē
-3.445856	s ģ
-1.675004	s ī
-3.413671	s ķ
-3.198071	s ļ
-3.355679	s ņ
-2.380822	s š
-2.404463	s ū
-3.355679	s –
-3.304526	s —
-3.422552	t "
-3.495103	t )
-2.415921	t ,
-3.005016	t .
-3.457314	t 0
-2.934435	t 1
-3.105132	t 2
-3.174767	t 3
-3.306046	t 4
-3.332375	t 5
-3.457314	t 6
-3.422552	t 7
-3.495103	t 8
-3.457314	t 9
-3.281223	t :
-3.257742	t ;
-3.457314	t </s>
-3.495103	t [
-0.9095393	t a
-1.783679	t b
-2.638868	t c
-2.464613	t d
-1.1269	t e
-3.031345	t f
-2.751165	t g
-3.332375	t h
-0.8271405	t i
-2.804101	t j
-2.062279	t k
-2.200036	t l
-2.673172	t m
-1.951035	t n
-1.160101	t o
-2.031345	t p
-1.339215	t r
-1.257285	t s
-1.488054	t t
-1.027293	t u
-1.735092	t v
-3.495103	t w
-3.495103	t x
-3.495103	t y
-2.214276	t z
-3.495103	t å
-3.495103	t è
-0.8613588	t ā
-1.773067	t ē
-3.457314	t ģ
-1.13544	t ī
-2.457314	t ļ
-3.281223	t ņ
-2.381159	t š
-2.231144	t ū
-2.848146	u "
-2.101403	u (
-2.990253	u )
-1.297491	u ,
-3.440222	u -
-1.724219	u .
-3.367671	u /
-3.277495	u 0
-2.925312	u 1
-2.913413	u 2
-3.402433	u 3
-3.440222	u 4
-3.440222	u 5
-3.180585	u 6
-2.976465	u 7
-2.828402	u 8
-2.65554	u 9
-2.448191	u :
-2.212102	u ;
-3.034456	u </s>
-2.35451	u [
-1.57313	u a
-2.023733	u b
-2.266771	u c
-1.480314	u d
-2.490389	u e
-2.757339	u f
-1.846131	u g
-3.335487	u h
-1.6536	u i
-1.937546	u j
-1.368675	u k
-1.314888	u l
-0.756193	u m
-0.8390511	u n
-2.28849	u o
-1.398829	u p
-1.254242	u r
-1.049287	u s
-1.607133	u t
-1.610042	u u
-1.666701	u v
-1.239073	u z
-2.464581	u ā
-3.367671	u č
-3.402433	u ē
-2.364343	u ģ
-2.800373	u ī
-3.251166	u ķ
-3.050251	u ļ
-3.034456	u ņ
-2.004493	u š
-3.277495	u ū
-2.937546	u ž
-3.251166	u –
-3.305523	u —
-2.788946	v )
-2.728248	v ,
-3.010794	v .
-3.048583	v 4
-3.010794	v 8
-3.048583	v :
-0.442104	v a
-2.976032	v b
-3.010794	v c
-2.257467	v d
-0.9532552	v e
-3.048583	v f
-2.788946	v g
-0.7328035	v i
-2.170898	v j
-2.192349	v k
-2.533673	v l
-2.834703	v m
-1.638189	v n
-1.655407	v o
-2.072942	v p
-2.859527	v r
-2.126188	v s
-2.747553	v t
-1.40513	v u
-2.533673	v v
-2.976032	v z
-1.418803	v ā
-1.019568	v ē
-1.802174	v ī
-1.926155	w )
-1.926155	w g
-1.82142	w i
-1.926155	w p
-1.926155	w ä
-1.931735	x 1
-1.931735	x :
-1.931735	x a
-1.931735	x e
-1.694374	x i
-1.769008	x p
-1.931735	x u
-1.926623	y [
-1.888834	y a
-1.888834	y l
-1.926623	y m
-1.888834	y p
-1.926623	y s
-2.795556	z "
-2.573707	z )
-2.380582	z ,
-2.892466	z 0
-2.07402	z 1
-2.272677	z 2
-2.540283	z 3
-2.741198	z 4
-2.509249	z 5
-2.825519	z 6
-2.892466	z 7
-2.892466	z 8
-2.767527	z 9
-2.692893	z :
-2.930254	z ;
-1.365265	z a
-2.239253	z b
-1.795556	z c
-1.404621	z d
-1.390722	z e
-2.629224	z f
-1.984875	z g
-2.825519	z h
-1.002231	z i
-2.466497	z j
-1.49308	z k
-1.699805	z l
-1.322312	z m
-1.59507	z n
-1.810279	z o
-1.49889	z p
-1.575448	z r
-1.120389	z s
-1.623342	z t
-1.565107	z u
-1.33919	z v
-2.556674	z z
-1.609919	z ā
-2.892466	z č
-1.222684	z ē
-2.892466	z ģ
-0.8716211	z ī
-2.930254	z ķ
-1.402273	z ņ
-1.963047	z š
-2.892466	z ū
-1.922867	ã o
-1.923338	ä d
-1.923338	ä h
-1.88602	å l
-1.923809	å r
-1.922867	ç ã
-1.922867	è r
-1.924749	é a
-1.924749	é c
-1.924749	é n
-1.924749	é p
-1.924749	é r
-1.88555	ê c
-1.922867	ó n
-1.922867	ü r
-2.675778	ā "
-2.573116	ā (
-3.182863	ā )
-1.546518	ā ,
-1.971056	ā .
-3.287598	ā 0
-2.477732	ā 1
-2.823841	ā 2
-3.1529	ā 3
-3.124871	ā 4
-3.24981	ā 5
-3.182863	ā 6
-2.837629	ā 7
-2.94878	ā 8
-2.85187	ā 9
-2.588628	ā :
-2.34672	ā ;
-2.967263	ā </s>
-3.006772	ā [
-1.313212	ā a
-2.208417	ā b
-1.388474	ā c
-0.9871608	ā d
-2.059478	ā e
-2.580803	ā f
-2.114147	ā g
-1.612153	ā i
-1.241209	ā j
-1.04978	ā k
-1.469252	ā l
-1.090945	ā m
-1.564815	ā n
-2.967263	ā o
-1.337322	ā p
-1.062759	ā r
-1.069397	ā s
-1.159904	ā t
-1.603079	ā u
-1.491402	ā v
-2.509447	ā z
-3.24981	ā ā
-3.287598	ā č
-3.287598	ā ģ
-2.931051	ā ī
-3.287598	ā ķ
-2.749207	ā ļ
-3.027961	ā ņ
-1.594992	ā š
-3.287598	ā ū
-2.543661	ā ž
-3.1529	ā –
-3.124871	ā —
-1.879052	č a
-1.631267	č e
-1.913814	č i
-1.252632	č u
-1.951602	č ī
-2.890269	ē (
-1.94489	ē ,
-2.426511	ē .
-2.85248	ē 1
-2.890269	ē 2
-2.890269	ē 3
-2.85248	ē 5
-2.85248	ē :
-2.533721	ē ;
-2.785533	ē </s>
-2.785533	ē [
-2.298193	ē a
-2.676389	ē b
-1.372953	ē c
-1.764344	ē d
-2.55145	ē e
-2.890269	ē f
-2.278449	ē g
-2.569933	ē i
-0.9014664	ē j
-1.470763	ē k
-1.701212	ē l
-0.8805087	ē m
-1.74697	ē n
-2.785533	ē o
-2.278449	ē p
-0.7327294	ē r
-1.691112	ē s
-0.6829525	ē t
-2.298193	ē u
-2.298193	ē v
-2.75557	ē z
-2.387593	ē ģ
-2.890269	ē ī
-2.13927	ē ķ
-1.863475	ē ļ
-1.395103	ē š
-2.890269	ē ž
-2.890269	ē –
-2.85248	ē —
-1.648203	ģ a
-1.200045	ģ e
-0.7018137	ģ i
-2.098171	ģ n
-1.634414	ģ o
-1.391376	ģ u
-1.634414	ģ ē
-1.935444	ģ ī
-3.074949	ī )
-2.218715	ī ,
-2.224247	ī .
-3.074949	ī 7
-3.037161	ī :
-2.773919	ī ;
-3.002399	ī </s>
-3.002399	ī [
-2.611192	ī a
-0.5098532	ī b
-2.125116	ī c
-1.308131	ī d
-3.037161	ī e
-2.970214	ī f
-0.9437391	ī g
-2.472889	ī i
-1.19	ī j
-1.74343	ī k
-2.56004	ī l
-1.460244	ī m
-1.923217	ī n
-2.970214	ī o
-1.507816	ī p
-1.84917	ī r
-1.309484	ī s
-1.091856	ī t
-2.669184	ī u
-0.9396721	ī v
-2.192063	ī z
-3.074949	ī ā
-2.940251	ī č
-3.074949	ī ē
-3.074949	ī ķ
-2.940251	ī ļ
-3.074949	ī ņ
-1.868369	ī š
-2.912222	ī ž
-3.074949	ī —
-1.623249	ķ a
-1.793511	ķ e
-2.150058	ķ g
-0.5797277	ķ i
-2.150058	ķ k
-2.01536	ķ o
-2.150058	ķ s
-1.435576	ķ u
-1.793511	ķ ā
-1.251932	ķ ē
-1.443263	ķ ī
-1.873321	ļ ,
-2.174351	ļ .
-2.309049	ļ 1
-2.146322	ļ ;
-0.5608612	ļ a
-2.146322	ļ b
-2.309049	ļ c
-2.071688	ļ d
-2.049412	ļ e
-2.309049	ļ g
-1.282256	ļ i
-2.119993	ļ j
-2.028223	ļ k
-2.27126	ļ l
-2.204314	ļ m
-2.119993	ļ n
-1.618048	ļ o
-2.174351	ļ p
-2.119993	ļ r
-2.049412	ļ s
-2.27126	ļ t
-0.906397	ļ u
-1.935469	ļ v
-1.381959	ļ ā
-2.028223	ļ ē
-2.27126	ļ ģ
-2.309049	ļ ī
-1.669201	ļ ļ
-2.236499	ļ ņ
-2.174351	ļ š
-1.831928	ļ ū
-1.458008	ņ a
-2.495796	ņ d
-0.6615493	ņ e
-1.731009	ņ i
-0.9760879	ņ o
-2.495796	ņ p
-2.423246	ņ r
-1.400469	ņ u
-0.7554339	ņ ā
-0.8203515	ņ ē
-1.968987	ņ š
-2.495796	ņ ž
-2.679973	š ,
-2.742121	š .
-2.814671	š 1
-2.814671	š :
-2.814671	š ;
-0.4531151	š a
-2.709936	š b
-2.814671	š c
-2.513641	š d
-2.350914	š e
-2.776883	š g
-0.9650844	š i
-2.651944	š j
-2.600791	š k
-1.864838	š l
-2.311996	š m
-2.222595	š n
-1.168535	š o
-1.540094	š p
-2.378943	š r
-2.043151	š s
-2.651944	š t
-1.341516	š u
-2.458124	š v
-2.709936	š z
-1.042483	š ā
-1.776883	š ē
-1.102481	š ī
-1.310757	š ķ
-2.533845	š ļ
-2.651944	š ņ
-2.814671	š š
-2.776883	š ū
-1.990117	ū ,
-2.194237	ū .
-2.291147	ū 1
-2.256385	ū ;
-2.291147	ū </s>
-2.256385	ū [
-2.328935	ū a
-2.291147	ū b
-1.779263	ū c
-1.531479	ū d
-2.328935	ū e
-1.73686	ū g
-2.291147	ū i
-1.45125	ū k
-1.340944	ū l
-2.328935	ū m
-1.507005	ū n
-1.865178	ū p
-0.8080351	ū r
-1.689087	ū s
-0.5950817	ū t
-2.2242	ū u
-1.955355	ū v
-2.256385	ū z
-2.166208	ū š
-2.166208	ū ž
-1.426144	ž a
-2.177143	ž b
-1.756137	ž e
-1.419195	ž i
-2.042444	ž k
-2.177143	ž l
-0.6586289	ž o
-2.177143	ž r
-2.014416	ž s
-1.917506	ž t
-1.091431	ž u
-1.756137	ž v
-1.332045	ž ā
-2.014416	ž ģ
-1.787172	ž ī
-1.922867	ά δ
-1.922867	α ν
-1.922867	γ α
-1.923809	δ η
-1.923809	δ ο
-1.923809	δ ρ
-1.923338	ε )
-1.923338	ε λ
-1.922867	η ρ
-1.923338	ι δ
-1.923338	ι σ
-1.923338	λ ά
-1.923338	λ λ
-1.923338	μ ω
-1.923338	μ ό
-1.923338	ν ε
-1.923338	ν ι
-1.924279	ο δ
-1.924279	ο ρ
-1.924279	ο ς
-1.924279	ο σ
-1.923809	ρ γ
-1.923809	ρ ο
-1.923809	ρ ό
-1.923338	ς a
-1.923338	ς σ
-1.923809	σ ε
-1.923809	σ ι
-1.923809	σ μ
-1.922867	ω ν
-1.923338	ό μ
-1.923338	ό ς
-1.907143	– "
-1.782204	– 1
-1.782204	– a
-1.907143	– d
-1.944931	– f
-1.944931	– h
-1.907143	– i
-1.907143	– j
-1.944931	– k
-1.944931	– l
-1.840196	– n
-1.664104	– p
-1.907143	– s
-1.87238	– t
-1.907143	– v
-1.944931	– z
-1.907143	– ņ
-1.868328	— "
-1.90309	— 1
-1.940879	— 4
-1.778151	— a
-1.868328	— b
-1.940879	— d
-1.940879	— e
-1.868328	— i
-1.90309	— j
-1.90309	— k
-1.940879	— l
-1.868328	— n
-1.940879	— o
-1.868328	— p
-1.90309	— s
-1.868328	— t
-1.868328	— v
-1.922867	’ é
-1.922867	… </s>

\end\
