
\data\
ngram 1=92
ngram 2=2225

\1-grams:
-3.008431	"	0.6293022
-3.807081	%	0.1386151
-2.254657	'	0.2447926
-2.447246	(	0.2062281
-2.446488	)	0.5823234
-4.693138	*	-0.005930885
-4.727901	+	-0.008213921
-2.149261	,	0.2384287
-1.459381	-	-0.094355
-2.336524	.	0.2291434
-2.617872	/	-0.2170308
-2.699193	0	0.1593628
-2.346484	1	-0.1126458
-2.458972	2	-0.1567772
-2.695819	3	-0.03661705
-2.835806	4	0.06038676
-2.911107	5	0.1022748
-2.848518	6	-0.1470957
-2.876132	7	-0.1279941
-2.864082	8	0.05413621
-2.587759	9	-0.1674487
-3.069094	:	0.1026886
-2.835342	;	-0.05103557
-2.192395	</s>
-99	<s>	0.1743798
-3.165607	[	-0.1392399
-3.164617	]	0.05951822
-1.002676	a	0.06285574
-1.815191	b	0.09159344
-3.255631	c	0.4055445
-1.573959	d	-0.1353575
-1.278075	e	-0.3157062
-1.822329	f	-0.1629986
-1.780426	g	-0.3060696
-2.165409	h	-0.01637661
-0.9262908	i	0.4518191
-1.490755	j	-0.5605449
-1.530735	k	-0.3915261
-1.196357	l	-0.1632729
-1.447967	m	0.07865703
-1.304231	n	-0.04622903
-1.401599	o	-0.3171632
-1.723471	p	-0.348323
-2.352389	q	0.2139729
-1.314223	r	0.1095276
-1.499072	s	-0.1865759
-1.093835	t	-0.1037613
-1.420904	u	0.6563147
-2.223543	v	0.00573381
-1.960435	w	-0.03212413
-2.318108	x	0.4096852
-4.144324	y	0.4013542
-1.812456	z	-0.3020456
-2.776077	à	0.6048798
-4.765689	ã	0.01230113
-4.727901	ä	0.004195021
-4.693138	å	0.04057036
-4.765689	ç	-0.005268418
-4.630991	è	0.02337868
-4.576632	é	0.1204335
-4.727901	ê	-0.005511187
-4.765689	ó	0.01683269
-4.765689	ü	0.01631712
-2.2549	ċ	-0.1852724
-2.181666	ġ	-0.007207884
-1.760118	ħ	-0.3309094
-2.169992	ż	0.1030815
-4.765689	ά	-0.005267064
-4.765689	έ	-0.005267741
-4.727901	α	-0.008590984
-4.765689	γ	-0.005267741
-4.693138	δ	-0.01596305
-4.727901	ε	-0.0070357
-4.765689	η	-0.005267064
-4.727901	ι	-0.01058723
-4.727901	λ	-0.01058926
-4.727901	μ	-0.01058858
-4.727901	ν	-0.01058926
-4.693138	ο	-0.01596237
-4.693138	ρ	-0.01596305
-4.727901	ς	-0.0105879
-4.693138	σ	-0.01596373
-4.765689	ω	-0.005267741
-4.693138	ό	-0.01596305
-4.630991	–	0.07336658
-4.484862	—	0.07651248
-4.301931	‘	0.1348098
-2.223316	’	0.1891564
-4.693138	“	0.0703373
-4.693138	”	0.007187728
-4.765689	…	-0.002478257
-4.660954	≥	-0.01418154

\2-grams:
-1.769434	" (
-2.008316	" )
-1.582348	" ,
-1.604624	" .
-1.804196	" 1
-1.862188	" 2
-1.862188	" 3
-2.143015	" 4
-2.143015	" 5
-2.143015	" 6
-2.143015	" 9
-2.070464	" :
-1.52165	" ;
-1.230165	" </s>
-1.652929	" a
-1.862188	" b
-2.008316	" c
-1.82268	" d
-2.008316	" e
-1.616206	" f
-1.550939	" g
-2.008316	" h
-1.371494	" i
-1.883377	" j
-1.693046	" k
-1.52165	" l
-1.737249	" m
-2.03828	" n
-1.953959	" o
-1.804196	" p
-2.070464	" q
-2.070464	" r
-1.753044	" s
-1.444045	" t
-1.862188	" u
-2.070464	" v
-2.143015	" w
-2.143015	" x
-2.143015	" ċ
-2.143015	" ġ
-2.105226	" ħ
-2.143015	" ż
-2.03828	" —
-1.920819	% "
-1.958607	% )
-1.677781	% ,
-1.769551	% .
-1.853872	% ;
-1.920819	% </s>
-1.823909	% b
-1.853872	% f
-1.886057	% g
-1.920819	% i
-1.823909	% j
-1.920819	% m
-1.958607	% r
-1.920819	% s
-1.327902	% t
-1.958607	% u
-1.958607	% v
-2.53617	' "
-2.570932	' (
-2.53617	' )
-2.269902	' ,
-2.53617	' .
-2.53617	' 1
-2.419664	' 2
-2.570932	' 3
-2.570932	' 4
-2.570932	' 5
-2.53617	' 6
-2.608721	' 7
-2.474022	' :
-2.503985	' ;
-2.53617	' </s>
-1.394841	' a
-2.026864	' b
-2.503985	' c
-0.9978668	' d
-1.886685	' e
-1.886685	' f
-1.763622	' g
-2.327894	' h
-1.338359	' i
-1.567328	' j
-1.092606	' k
-0.7535869	' l
-1.288385	' m
-2.144963	' n
-1.780881	' o
-1.327894	' p
-2.252173	' q
-1.542903	' r
-1.357857	' s
-1.399693	' t
-2.202955	' u
-1.968872	' v
-2.187715	' w
-2.059049	' x
-2.570932	' z
-1.987355	' ċ
-1.968872	' ġ
-1.987355	' ħ
-2.00666	' ż
-2.503985	' ≥
-2.357663	( "
-2.462398	( %
-2.462398	( 0
-1.045909	( 1
-1.095551	( 2
-1.466364	( 3
-1.595306	( 4
-1.725639	( 5
-1.850578	( 6
-2.012429	( 7
-1.985277	( 8
-1.912726	( 9
-2.273342	( [
-1.163347	( a
-1.200595	( b
-1.912726	( c
-1.579511	( d
-1.732939	( e
-1.747916	( f
-2.041393	( g
-2.105851	( h
-1.474407	( i
-2.12358	( j
-0.8633093	( k
-2.181571	( l
-2.056633	( m
-2.202761	( n
-2.357663	( o
-2.202761	( p
-2.424609	( q
-2.389847	( r
-2.105851	( s
-1.924007	( t
-2.424609	( u
-2.181571	( v
-2.424609	( w
-2.389847	( z
-1.379939	( ċ
-2.462398	( ħ
-2.462398	( ο
-2.462398	( ‘
-1.698155	) "
-1.374001	) (
-2.425154	) )
-1.253915	) ,
-2.462942	) -
-1.564816	) .
-2.249062	) 1
-2.425154	) 2
-2.462942	) 4
-2.142607	) :
-1.832237	) ;
-1.796765	) </s>
-2.249062	) [
-2.057177	) a
-1.491498	) b
-2.462942	) c
-1.902275	) d
-2.390392	) e
-1.601245	) f
-1.522064	) g
-1.972856	) h
-1.102934	) i
-1.531207	) j
-1.796765	) k
-1.432453	) l
-1.719005	) m
-0.8688512	) n
-2.462942	) o
-2.106395	) p
-2.358207	) q
-2.358207	) r
-1.684791	) s
-1.068172	) t
-1.436149	) u
-2.462942	) v
-2.390392	) w
-2.462942	) x
-2.425154	) y
-2.425154	) ċ
-2.358207	) ġ
-2.300215	) ħ
-2.425154	) ż
-2.425154	) ‘
-2.462942	) ’
-1.846527	* ]
-1.918602	+ 2
-1.918602	+ 3
-2.217723	, "
-2.156454	, (
-2.694844	, -
-2.435207	, 0
-2.356026	, 1
-2.231087	, 2
-2.457484	, 3
-2.505788	, 4
-2.480965	, 5
-2.505788	, 6
-2.532117	, 7
-2.321264	, 8
-2.393814	, 9
-0.9865008	, </s>
-2.083025	, a
-1.345302	, b
-2.532117	, c
-1.679332	, d
-2.192169	, e
-1.260566	, f
-1.357839	, g
-1.943845	, h
-0.9396628	, i
-1.246279	, j
-1.365169	, k
-1.047817	, l
-1.327997	, m
-2.414018	, n
-2.560146	, o
-1.687019	, p
-2.356026	, q
-2.003843	, r
-1.352422	, s
-1.53484	, t
-1.229732	, u
-2.414018	, v
-2.020234	, w
-2.457484	, x
-2.289079	, ċ
-2.505788	, ġ
-2.259116	, ħ
-2.505788	, ż
-2.694844	, ‘
-2.773843	- "
-3.285726	- '
-3.063877	- (
-3.323515	- ,
-3.323515	- -
-2.00318	- 1
-2.191721	- 2
-2.519809	- 3
-3.188816	- 4
-3.00318	- 5
-3.063877	- 6
-3.00318	- 7
-3.063877	- 8
-3.086154	- 9
-0.8890909	- a
-1.73245	- b
-2.741658	- c
-1.148214	- d
-1.669426	- e
-1.765024	- f
-1.728419	- g
-3.218779	- h
-0.9585375	- i
-2.572515	- j
-0.8645336	- k
-1.628511	- l
-1.542086	- m
-1.889236	- n
-1.612091	- o
-1.037753	- p
-2.171783	- q
-1.155929	- r
-1.312983	- s
-1.316077	- t
-1.946606	- u
-2.038571	- v
-2.773843	- w
-2.200554	- x
-2.949934	- z
-3.323515	- à
-2.319584	- ċ
-2.15272	- ġ
-1.756381	- ħ
-2.036528	- ż
-3.323515	- ό
-3.323515	- –
-3.323515	- ’
-1.540701	. "
-2.409933	. '
-2.205813	. (
-2.506843	. )
-2.355576	. ,
-2.355576	. .
-2.439896	. 0
-2.054545	. 1
-2.263805	. 2
-2.472081	. 3
-2.409933	. 4
-2.472081	. 5
-2.381904	. 8
-2.544632	. 9
-2.409933	. ;
-0.4261565	. </s>
-2.544632	. [
-2.205813	. a
-1.800695	. b
-1.612897	. d
-2.506843	. e
-1.552601	. f
-1.656605	. g
-2.017823	. h
-1.006241	. i
-1.878454	. j
-1.837836	. k
-1.123626	. l
-1.540701	. m
-2.544632	. n
-2.439896	. o
-2.284994	. p
-2.330752	. q
-2.409933	. r
-1.815172	. s
-2.188084	. t
-2.409933	. u
-2.307271	. w
-2.544632	. x
-2.439896	. ċ
-2.506843	. ġ
-2.355576	. ħ
-2.544632	. ż
-2.544632	. ε
-2.347064	/ (
-2.347064	/ /
-2.347064	/ 0
-1.35103	/ 1
-1.331552	/ 2
-1.537198	/ 3
-1.277867	/ 4
-1.589116	/ 5
-1.264605	/ 6
-1.419973	/ 7
-1.375619	/ 8
-1.056018	/ 9
-2.309275	/ a
-2.347064	/ c
-2.046034	/ e
-2.309275	/ h
-2.309275	/ i
-1.490829	/ j
-0.685165	/ k
-2.347064	/ q
-2.347064	/ r
-2.242328	/ s
-2.309275	/ t
-2.347064	/ ċ
-2.347064	/ ħ
-2.297462	0 "
-1.590667	0 %
-1.705386	0 (
-1.923881	0 )
-1.74779	0 ,
-1.794787	0 .
-1.071683	0 /
-0.7567914	0 0
-1.452364	0 1
-1.375067	0 2
-1.590667	0 3
-1.891697	0 4
-1.996432	0 5
-1.923881	0 6
-1.794787	0 7
-1.876457	0 8
-1.861733	0 9
-2.297462	0 :
-2.192727	0 ;
-1.639885	0 </s>
-1.996432	0 [
-2.060101	0 ]
-2.134735	0 a
-2.192727	0 b
-1.861733	0 d
-2.134735	0 e
-2.259674	0 f
-2.108406	0 g
-2.224911	0 h
-2.108406	0 i
-1.977127	0 j
-2.060101	0 k
-1.958644	0 l
-2.083582	0 m
-2.297462	0 o
-2.297462	0 p
-2.297462	0 q
-2.192727	0 r
-2.108406	0 s
-1.414575	0 t
-2.108406	0 u
-2.297462	0 w
-2.162764	0 ċ
-2.192727	0 ġ
-2.499229	1 %
-1.499229	1 (
-1.218575	1 )
-1.703349	1 ,
-2.537017	1 -
-1.114517	1 .
-1.396566	1 /
-1.32799	1 0
-1.405224	1 1
-1.438531	1 2
-1.495625	1 3
-1.478039	1 4
-1.448076	1 5
-1.619369	1 6
-1.574089	1 7
-1.654131	1 8
-0.913768	1 9
-2.37429	1 :
-2.347961	1 ;
-1.557221	1 </s>
-2.299656	1 [
-1.574089	1 ]
-2.432282	1 a
-2.537017	1 b
-2.235987	1 d
-2.37429	1 f
-1.97635	1 g
-2.37429	1 h
-2.323138	1 i
-1.998626	1 j
-2.37429	1 k
-2.07326	1 l
-2.347961	1 m
-2.537017	1 n
-2.537017	1 p
-2.537017	1 r
-2.323138	1 s
-1.297377	1 t
-1.897169	1 u
-2.537017	1 v
-2.537017	1 ċ
-2.464467	1 ġ
-2.319314	2 %
-2.454013	2 '
-1.531618	2 (
-1.097466	2 )
-1.644147	2 ,
-2.240133	2 -
-1.059243	2 .
-1.223564	2 /
-0.935499	2 0
-1.644147	2 1
-1.49977	2 2
-1.581592	2 3
-1.504179	2 4
-1.597778	2 5
-1.614592	2 6
-1.779402	2 7
-1.717254	2 8
-1.608915	2 9
-2.291286	2 ;
-1.41262	2 </s>
-2.264957	2 [
-1.495406	2 ]
-2.319314	2 a
-2.381462	2 b
-2.152983	2 d
-2.216652	2 f
-2.097466	2 g
-2.349277	2 h
-2.349277	2 i
-2.064042	2 j
-2.416224	2 k
-2.048248	2 l
-2.291286	2 m
-2.454013	2 r
-2.349277	2 s
-1.531618	2 t
-1.915622	2 u
-2.454013	2 ġ
-2.194712	3 %
-1.489582	3 (
-1.261659	3 )
-1.624837	3 ,
-1.078389	3 .
-1.167654	3 /
-1.465779	3 0
-1.443213	3 1
-1.608447	3 2
-1.761057	3 3
-1.849479	3 4
-1.809362	3 5
-1.495743	3 6
-1.624837	3 7
-1.772639	3 8
-1.707372	3 9
-2.261659	3 :
-2.226897	3 ;
-1.372358	3 </s>
-2.062087	3 [
-1.465779	3 ]
-2.226897	3 a
-2.194712	3 b
-1.998418	3 d
-2.164749	3 f
-1.998418	3 g
-2.164749	3 h
-2.226897	3 i
-2.018621	3 j
-2.299448	3 k
-1.979113	3 l
-2.261659	3 m
-2.299448	3 p
-2.261659	3 q
-2.299448	3 r
-2.085568	3 s
-1.448746	3 t
-1.809362	3 u
-2.299448	3 ġ
-2.261659	3 ’
-2.22248	4 "
-2.184691	4 %
-1.493021	4 (
-1.29539	4 )
-1.573677	4 ,
-2.22248	4 -
-1.226446	4 .
-1.140021	4 /
-1.661813	4 0
-1.640623	4 1
-1.507998	4 2
-1.62042	4 3
-1.865933	4 4
-1.883661	4 5
-1.695671	4 6
-1.902145	4 7
-1.62042	4 8
-1.556303	4 9
-2.22248	4 :
-2.087781	4 ;
-1.425024	4 </s>
-2.033424	4 [
-1.485721	4 ]
-2.184691	4 a
-2.22248	4 b
-1.962843	4 d
-2.0086	4 f
-2.087781	4 g
-2.184691	4 h
-2.22248	4 i
-2.087781	4 j
-2.22248	4 k
-2.087781	4 l
-2.117745	4 m
-2.22248	4 n
-2.184691	4 q
-2.087781	4 s
-1.493021	4 t
-1.865933	4 u
-2.22248	4 v
-2.149929	4 x
-2.185722	5 "
-1.708601	5 %
-1.463687	5 (
-1.352054	5 )
-1.695636	5 ,
-1.904896	5 -
-1.375857	5 .
-1.249391	5 /
-1.625055	5 0
-1.749994	5 1
-1.63605	5 2
-1.749994	5 3
-1.658913	5 4
-1.926085	5 5
-1.683047	5 6
-1.829175	5 7
-1.708601	5 8
-1.926085	5 9
-2.113172	5 :
-1.996666	5 ;
-1.519545	5 </s>
-1.865387	5 [
-1.536919	5 ]
-2.147934	5 a
-2.147934	5 b
-1.904896	5 d
-2.185722	5 e
-2.051024	5 f
-2.080987	5 g
-2.080987	5 h
-2.185722	5 i
-2.051024	5 j
-2.051024	5 k
-2.022995	5 l
-1.996666	5 m
-2.080987	5 s
-1.31863	5 t
-1.779957	5 u
-2.185722	5 ċ
-2.216046	6 "
-2.11131	6 %
-1.558469	6 (
-1.567243	6 )
-1.634189	6 ,
-2.216046	6 -
-1.472109	6 .
-1.011926	6 /
-1.494011	6 0
-1.795041	6 1
-1.494011	6 2
-1.780317	6 3
-1.701136	6 4
-1.780317	6 5
-1.465047	6 6
-1.576197	6 7
-1.458098	6 8
-1.795041	6 9
-2.11131	6 :
-2.178257	6 ;
-1.525045	6 </s>
-1.956409	6 [
-1.655379	6 ]
-2.143495	6 a
-2.216046	6 b
-1.810281	6 d
-2.143495	6 f
-2.143495	6 g
-2.143495	6 h
-1.956409	6 j
-2.216046	6 k
-1.956409	6 l
-2.081347	6 m
-2.178257	6 q
-2.143495	6 s
-1.451259	6 t
-1.859499	6 u
-2.216046	6 x
-2.164601	7 %
-1.487907	7 (
-1.725268	7 )
-1.725268	7 ,
-2.202389	7 -
-1.630998	7 .
-1.133192	7 /
-1.519506	7 0
-1.663998	7 1
-1.562541	7 2
-1.610313	7 3
-1.712303	7 4
-1.503419	7 5
-1.527779	7 6
-1.503419	7 7
-1.417707	7 8
-1.652717	7 9
-2.202389	7 :
-2.067691	7 ;
-1.571684	7 </s>
-1.863571	7 [
-1.781384	7 ]
-2.164601	7 a
-2.129838	7 b
-1.882054	7 d
-2.129838	7 f
-2.067691	7 g
-2.097654	7 h
-2.039662	7 j
-2.202389	7 k
-1.988509	7 l
-2.202389	7 m
-2.067691	7 s
-1.37455	7 t
-1.75242	7 u
-2.202389	7 —
-1.57759	8 (
-1.647627	8 )
-1.88796	8 ,
-2.135744	8 -
-1.596475	8 .
-1.009138	8 /
-1.693385	8 0
-1.493813	8 1
-1.744537	8 2
-1.705619	8 3
-1.758326	8 4
-1.525412	8 5
-1.509325	8 6
-1.392355	8 7
-1.58693	8 8
-1.380456	8 9
-2.103559	8 ;
-1.57759	8 </s>
-1.88796	8 [
-1.834714	8 ]
-2.103559	8 a
-2.208295	8 b
-1.851747	8 d
-2.103559	8 f
-2.135744	8 g
-2.103559	8 h
-2.208295	8 i
-2.208295	8 j
-1.970934	8 l
-2.170506	8 m
-2.170506	8 r
-2.135744	8 s
-1.410838	8 t
-1.851747	8 u
-2.208295	8 ġ
-2.366338	9 %
-1.72649	9 (
-1.876252	9 )
-1.992757	9 ,
-1.784481	9 .
-1.192887	9 /
-1.390697	9 0
-1.386541	9 1
-1.370304	9 2
-1.390697	9 3
-1.526917	9 4
-1.550398	9 5
-1.382425	9 6
-1.370304	9 7
-1.240413	9 8
-0.8526363	9 9
-2.366338	9 :
-2.203611	9 ;
-1.784481	9 </s>
-2.231639	9 [
-2.027519	9 ]
-2.366338	9 a
-2.203611	9 b
-2.085511	9 d
-2.293787	9 f
-2.293787	9 g
-2.293787	9 h
-2.328549	9 i
-2.261603	9 j
-2.293787	9 k
-2.106701	9 l
-2.177282	9 m
-2.366338	9 q
-2.366338	9 r
-1.562633	9 t
-1.960573	9 u
-1.71331	: "
-1.798741	: (
-1.956349	: -
-2.01434	: 1
-2.119076	: :
-0.4920826	: </s>
-2.119076	: a
-2.119076	: e
-2.119076	: g
-1.984377	: i
-2.081287	: j
-1.93002	: k
-1.984377	: l
-2.081287	: p
-1.905196	: s
-2.119076	: t
-2.081287	: w
-2.119076	: ċ
-2.119076	: ż
-2.119076	: —
-2.119076	: …
-2.008837	; "
-2.222717	; '
-2.222717	; (
-2.184928	; )
-2.222717	; 1
-2.222717	; 8
-2.184928	; ;
-0.4341625	; </s>
-1.065452	; b
-2.059989	; d
-2.184928	; e
-1.921687	; f
-2.117981	; g
-2.184928	; h
-1.985355	; i
-1.902381	; j
-2.150166	; k
-2.03366	; l
-2.059989	; m
-2.088018	; p
-2.117981	; t
-1.73263	; u
-1.704895	<s> "
-0.8051081	<s> (
-2.621349	<s> ,
-1.236638	<s> -
-1.300857	<s> 1
-1.309596	<s> 2
-1.504631	<s> 3
-1.776251	<s> 4
-1.960168	<s> 5
-2.169052	<s> 6
-2.253373	<s> 7
-2.421777	<s> 8
-2.445258	<s> 9
-1.040614	<s> a
-1.166505	<s> b
-2.659138	<s> c
-1.496411	<s> d
-2.421777	<s> e
-1.952343	<s> f
-2.087747	<s> g
-2.524439	<s> h
-1.219088	<s> i
-2.120747	<s> j
-2.037773	<s> k
-1.169052	<s> l
-1.874456	<s> m
-2.586587	<s> n
-2.496411	<s> o
-2.338803	<s> p
-2.524439	<s> q
-2.524439	<s> r
-2.098471	<s> s
-1.819717	<s> t
-2.621349	<s> u
-2.659138	<s> v
-1.278927	<s> w
-2.621349	<s> ġ
-2.554403	<s> ħ
-2.621349	<s> —
-2.012513	[ *
-0.986577	[ 1
-1.109423	[ 2
-1.251395	[ 3
-1.378268	[ 4
-1.503207	[ 5
-1.582388	[ 6
-1.746245	[ 7
-1.804237	[ 8
-1.871184	[ 9
-2.085063	[ i
-2.085063	[ r
-2.085388	] (
-1.896332	] )
-0.7051767	] ,
-1.493312	] .
-1.513997	] ;
-2.047599	] </s>
-2.085388	] ]
-2.047599	] b
-1.950689	] d
-2.012837	] f
-1.922661	] g
-1.896332	] h
-1.922661	] i
-1.896332	] j
-2.085388	] k
-2.012837	] l
-2.085388	] m
-1.896332	] s
-1.695417	] t
-1.535716	] u
-1.922661	] ġ
-2.941263	a "
-1.361788	a '
-3.070132	a (
-2.45256	a )
-1.946577	a ,
-3.333373	a -
-2.239952	a .
-3.696551	a /
-3.197711	a 1
-3.078101	a 2
-3.468072	a 3
-3.664366	a 4
-3.664366	a 5
-3.319133	a 6
-2.953162	a 7
-3.039643	a 8
-2.734948	a 9
-2.912868	a :
-2.622974	a ;
-3.187245	a </s>
-3.333373	a [
-3.769102	a ]
-2.564982	a a
-1.524937	a b
-3.138397	a c
-1.583122	a d
-2.580046	a e
-1.656985	a f
-1.51186	a g
-2.443139	a h
-2.460247	a i
-1.540748	a j
-1.819269	a k
-0.8606169	a l
-1.346452	a m
-1.044305	a n
-2.959236	a o
-1.689921	a p
-2.018103	a q
-0.9410869	a r
-1.474636	a s
-0.8598378	a t
-2.20304	a u
-2.832771	a v
-1.522245	a w
-2.426679	a x
-3.731313	a y
-1.444445	a z
-3.769102	a ç
-2.478056	a ċ
-2.231855	a ġ
-1.807465	a ħ
-2.03162	a ż
-3.769102	a –
-3.555222	a ‘
-1.32138	a ’
-3.769102	a “
-3.769102	a ”
-2.950811	b "
-1.507548	b '
-2.950811	b (
-1.746691	b )
-2.427932	b ,
-2.825872	b -
-2.728962	b .
-2.916049	b 1
-2.9886	b :
-2.916049	b ;
-2.9886	b </s>
-2.916049	b [
-1.114592	b a
-0.8810812	b b
-1.802105	b d
-1.349657	b e
-2.386539	b f
-2.266564	b g
-2.687569	b h
-0.5514257	b i
-1.961806	b j
-2.883864	b k
-1.119368	b l
-2.47369	b m
-2.47369	b n
-1.744435	b o
-2.184894	b p
-2.461791	b q
-0.9670343	b r
-2.668264	b s
-2.305716	b t
-1.625158	b u
-2.9886	b v
-2.615019	b w
-2.799543	b x
-2.567594	b ċ
-2.950811	b ġ
-1.589083	b ħ
-2.450209	b ż
-1.563125	b ’
-2.057597	c "
-2.057597	c (
-1.607628	c )
-1.985046	c ,
-2.019808	c .
-2.057597	c 2
-2.057597	c 3
-2.019808	c 7
-2.057597	c 9
-2.019808	c ;
-2.057597	c [
-1.580476	c a
-2.057597	c b
-1.868541	c c
-2.019808	c d
-1.272915	c e
-1.985046	c f
-1.985046	c g
-1.530788	c h
-1.229758	c i
-1.868541	c j
-1.952862	c k
-1.89487	c l
-2.019808	c n
-1.59384	c o
-1.636592	c p
-1.621868	c r
-2.019808	c s
-1.756567	c t
-1.567511	c u
-1.952862	c y
-2.057597	c é
-3.079302	d "
-3.176212	d '
-3.000121	d (
-2.336315	d )
-2.380332	d ,
-1.034501	d -
-2.653333	d .
-3.214	d 2
-3.214	d 9
-2.954363	d :
-2.912971	d ;
-3.109265	d </s>
-2.954363	d [
-0.8321472	d a
-2.736879	d b
-3.214	d c
-1.53939	d d
-1.200397	d e
-2.291605	d f
-2.547823	d g
-1.104637	d h
-0.6422916	d i
-1.769672	d j
-2.429318	d k
-1.838753	d l
-1.950042	d m
-2.736879	d n
-1.276756	d o
-2.045878	d p
-3.051273	d q
-1.663216	d r
-2.368902	d s
-1.862696	d t
-0.9787016	d u
-3.079302	d v
-1.426089	d w
-3.024944	d x
-3.214	d é
-2.97664	d ċ
-3.214	d ġ
-2.125059	d ħ
-3.176212	d ż
-3.214	d ’
-3.218198	e "
-3.142477	e (
-1.826087	e )
-2.567289	e ,
-3.394289	e -
-2.832847	e .
-3.499024	e 0
-3.499024	e 3
-3.197994	e :
-3.049055	e ;
-3.309968	e </s>
-2.536096	e [
-2.245951	e a
-2.245951	e b
-2.800054	e c
-1.552751	e d
-1.723513	e e
-1.872964	e f
-1.215107	e g
-2.426474	e h
-2.938357	e i
-1.474464	e j
-1.670013	e k
-1.484275	e l
-1.129977	e m
-0.8337846	e n
-2.949353	e o
-2.403697	e p
-2.475959	e q
-0.9718634	e r
-1.234851	e s
-0.7963589	e t
-2.50299	e u
-2.056117	e v
-1.240039	e w
-1.667096	e x
-1.877659	e z
-1.690384	e ċ
-1.730857	e ġ
-1.634621	e ħ
-1.920281	e ż
-3.499024	e —
-3.499024	e ’
-1.488164	f '
-2.909515	f (
-2.3607	f )
-2.681036	f ,
-2.944277	f -
-2.819338	f .
-2.944277	f 1
-2.982065	f :
-2.982065	f ;
-2.944277	f </s>
-1.387975	f a
-2.847367	f b
-2.421398	f d
-1.06633	f e
-1.193511	f f
-2.643247	f g
-2.744705	f h
-0.4704252	f i
-2.342217	f j
-2.625518	f k
-0.9816709	f l
-2.299182	f m
-2.608485	f n
-1.213226	f o
-2.592094	f p
-2.504944	f q
-1.819338	f r
-2.010621	f s
-1.883579	f t
-1.025199	f u
-2.793009	f w
-2.744705	f x
-2.944277	f è
-2.982065	f ü
-2.324488	f ġ
-1.47079	f ’
-2.947999	g "
-2.982761	g (
-2.543428	g )
-2.760912	g ,
-2.947999	g .
-3.02055	g /
-3.02055	g 1
-2.982761	g ;
-2.947999	g </s>
-1.32237	g a
-2.982761	g b
-3.02055	g c
-3.02055	g d
-2.389844	g e
-2.57058	g f
-2.438693	g g
-2.41849	g h
-2.153457	g i
-2.915814	g j
-3.02055	g k
-2.142864	g l
-2.885851	g m
-2.947999	g n
-0.9403824	g o
-2.982761	g p
-1.164865	g r
-2.885851	g s
-2.739723	g t
-1.530463	g u
-2.857822	g v
-1.533026	g w
-2.947999	g à
-3.02055	g é
-3.02055	g ġ
-0.2182736	g ħ
-2.885851	g ż
-2.681406	h "
-2.643617	h (
-2.342587	h )
-2.518678	h ,
-2.546707	h -
-2.421768	h .
-2.643617	h /
-2.608855	h 1
-2.681406	h 3
-2.681406	h 8
-2.681406	h :
-2.608855	h ;
-0.6655127	h a
-2.546707	h b
-2.492349	h d
-1.146457	h e
-2.518678	h f
-2.608855	h g
-2.342587	h h
-1.234248	h i
-2.27564	h j
-2.27564	h l
-1.814313	h m
-2.681406	h n
-0.5441092	h o
-2.643617	h p
-2.06004	h r
-2.518678	h s
-2.2604	h t
-0.8100451	h u
-2.608855	h w
-2.681406	h x
-2.492349	h y
-2.681406	h ä
-2.643617	h ħ
-3.086563	i "
-3.681784	i '
-2.724536	i (
-2.860598	i )
-1.851676	i ,
-3.505692	i -
-2.201058	i .
-3.806722	i /
-3.806722	i 0
-3.022581	i 1
-3.130029	i 2
-3.47093	i 3
-3.563684	i 4
-3.563684	i 5
-3.563684	i 6
-3.408782	i 7
-3.423506	i 8
-3.161628	i 9
-2.85248	i :
-2.549444	i ;
-2.988277	i </s>
-2.922116	i [
-2.258538	i a
-1.82182	i b
-3.27312	i c
-1.429842	i d
-1.126841	i e
-1.430146	i f
-1.564305	i g
-2.048947	i h
-2.104867	i i
-1.215009	i j
-1.105155	i k
-0.9375397	i l
-1.255374	i m
-1.149348	i n
-2.584874	i o
-1.832441	i p
-2.565758	i q
-1.433657	i r
-1.087737	i s
-0.972779	i t
-1.964217	i u
-1.663968	i v
-2.775314	i w
-2.147123	i x
-1.794941	i z
-3.844511	i à
-3.844511	i è
-3.844511	i é
-3.844511	i ó
-1.920702	i ċ
-1.656222	i ġ
-2.76533	i ħ
-1.603735	i ż
-3.844511	i –
-3.844511	i ‘
-3.77196	i ’
-3.844511	i ”
-3.220852	j (
-3.056042	j )
-2.483537	j ,
-2.563943	j .
-2.289472	j :
-3.293403	j ;
-3.158704	j </s>
-3.255614	j [
-0.8333253	j a
-2.361668	j b
-2.270337	j d
-1.010307	j e
-2.973068	j f
-2.191781	j g
-3.056042	j h
-0.5290907	j i
-1.655367	j j
-1.51723	j k
-2.887637	j l
-2.936855	j m
-1.555921	j n
-0.6185416	j o
-3.188667	j p
-2.973068	j q
-1.969307	j r
-2.42631	j s
-2.42631	j t
-1.306224	j u
-3.220852	j v
-2.743731	j w
-3.220852	j x
-3.012576	j ġ
-2.644599	j ħ
-2.711546	j ż
-3.255163	k (
-3.120464	k )
-2.540681	k ,
-3.255163	k -
-3.182612	k .
-3.255163	k 2
-3.255163	k 8
-3.182612	k :
-3.066107	k ;
-3.255163	k </s>
-3.255163	k [
-0.8731458	k a
-2.716772	k b
-2.716772	k d
-1.145186	k e
-3.120464	k f
-2.865192	k g
-2.898616	k h
-1.344247	k i
-1.874952	k j
-1.162378	k k
-1.518404	k l
-2.483642	k m
-2.267172	k n
-0.5036038	k o
-2.974336	k p
-1.840189	k r
-2.342313	k s
-1.822339	k t
-0.6865345	k u
-3.255163	k v
-1.588135	k w
-3.017802	k x
-3.255163	k y
-3.092436	k ċ
-3.150428	k ħ
-3.222259	l "
-2.586775	l (
-3.364926	l )
-2.563294	l ,
-0.4300911	l -
-2.930002	l .
-3.128837	l 1
-3.319169	l 2
-3.506255	l 3
-3.541017	l 5
-3.474071	l 6
-3.115049	l 7
-3.08872	l 8
-2.904195	l 9
-3.239987	l :
-3.239987	l ;
-3.239987	l </s>
-3.319169	l [
-1.208411	l a
-2.317003	l b
-3.541017	l c
-2.131648	l d
-1.811313	l e
-2.241801	l f
-2.607361	l g
-2.043857	l h
-0.6213292	l i
-2.108315	l j
-2.215365	l k
-0.9251549	l l
-2.021408	l m
-3.063896	l n
-2.087444	l o
-2.435507	l p
-2.745137	l q
-2.695919	l r
-2.059097	l s
-1.770779	l t
-1.198924	l u
-2.762866	l v
-2.722571	l w
-2.750967	l x
-3.578806	l y
-3.474071	l z
-2.98673	l ċ
-3.205225	l ġ
-2.887805	l ħ
-3.205225	l ż
-3.506255	l ’
-2.913485	m "
-2.651607	m '
-3.097129	m (
-3.171763	m )
-2.289523	m ,
-3.145434	m -
-2.483788	m .
-3.33449	m /
-3.12061	m 0
-3.199792	m 1
-3.171763	m 2
-3.03346	m :
-2.65988	m ;
-3.199792	m </s>
-3.171763	m [
-0.8238235	m a
-1.280714	m b
-2.549808	m d
-0.709927	m e
-2.196906	m f
-2.289523	m g
-1.946131	m h
-0.6418036	m i
-1.602828	m j
-2.354694	m k
-2.161039	m l
-1.080976	m m
-2.326665	m n
-1.608727	m o
-1.282111	m p
-2.56297	m q
-2.185551	m r
-1.797244	m s
-1.971049	m t
-1.287747	m u
-3.296702	m v
-2.412095	m w
-2.350577	m x
-3.229755	m y
-3.33449	m z
-3.296702	m ċ
-3.014155	m ġ
-2.296702	m ħ
-3.296702	m ż
-3.33449	m ‘
-2.506651	m ’
-3.33449	m “
-3.33449	m ”
-3.338868	n "
-3.401016	n '
-3.236206	n (
-3.19274	n )
-3.435778	n +
-2.443077	n ,
-2.025001	n -
-2.669861	n .
-3.338868	n 0
-2.923895	n 1
-3.117019	n 2
-3.368831	n 3
-3.338868	n 4
-3.338868	n 5
-3.435778	n 6
-3.401016	n 7
-3.435778	n 9
-2.798956	n :
-3.009809	n ;
-3.338868	n </s>
-3.368831	n [
-1.153043	n a
-2.257281	n b
-2.958657	n c
-0.9576927	n d
-1.564594	n e
-1.700712	n f
-1.798122	n g
-2.269447	n h
-0.5691462	n i
-1.734642	n j
-1.757563	n k
-1.938618	n l
-2.117019	n m
-1.306787	n n
-1.849378	n o
-2.458054	n p
-2.240801	n q
-1.799792	n r
-1.384626	n s
-0.8147749	n t
-1.539068	n u
-2.180506	n v
-2.639898	n w
-2.428599	n x
-3.473567	n y
-1.472778	n z
-3.473567	n é
-1.899009	n ċ
-2.407749	n ġ
-2.497926	n ħ
-2.502122	n ż
-3.473567	n —
-3.244492	o "
-3.190134	o )
-3.341402	o ,
-2.713013	o -
-3.37919	o .
-3.341402	o 1
-3.306639	o 2
-3.37919	o 3
-3.306639	o [
-3.37919	o ]
-3.141829	o a
-2.192696	o b
-3.040372	o c
-1.26222	o d
-3.022643	o e
-2.334223	o f
-1.831751	o g
-3.216463	o h
-3.141829	o i
-2.642431	o j
-1.942016	o k
-0.7657327	o l
-0.9368529	o m
-0.5500033	o n
-2.614403	o o
-1.396097	o p
-2.688189	o q
-0.9836255	o r
-1.51967	o s
-1.270133	o t
-3.119553	o u
-1.685783	o v
-3.306639	o w
-2.545521	o x
-3.37919	o y
-2.337797	o z
-1.79527	o ċ
-2.064557	o ġ
-1.943462	o ħ
-2.040372	o ż
-3.03553	p "
-3.073318	p (
-2.910591	p )
-2.63759	p ,
-3.03553	p -
-2.772288	p .
-3.000768	p /
-3.073318	p 1
-3.000768	p 4
-2.93862	p ;
-2.968583	p </s>
-0.9019909	p a
-2.910591	p b
-2.968583	p c
-0.8154217	p e
-2.968583	p f
-2.623349	p g
-2.910591	p h
-1.404594	p i
-1.581957	p j
-2.968583	p k
-1.239071	p l
-2.93862	p m
-3.03553	p n
-0.9450366	p o
-0.8943414	p p
-3.03553	p q
-0.6168143	p r
-2.683347	p s
-1.905196	p t
-1.53038	p u
-2.835958	p v
-3.000768	p w
-3.073318	p x
-3.000768	p y
-3.073318	p z
-3.03553	p ê
-3.03553	p ċ
-3.073318	p ‘
-2.459972	q '
-2.532523	q )
-1.741407	q ,
-2.005714	q .
-2.532523	q 1
-2.494734	q 5
-2.532523	q 7
-2.459972	q :
-2.193704	q ;
-2.494734	q </s>
-2.532523	q [
-0.7135774	q a
-1.316237	q b
-1.940447	q d
-1.600788	q e
-1.841522	q f
-1.741407	q g
-2.111517	q h
-0.9130499	q i
-1.920703	q j
-2.017613	q k
-1.392072	q l
-2.068765	q m
-2.295162	q n
-1.940447	q o
-1.911158	q p
-1.351199	q q
-1.892674	q r
-1.257945	q s
-1.20656	q t
-1.257945	q u
-2.397824	q v
-2.158942	q w
-2.272886	q x
-2.427787	q ċ
-2.494734	q ġ
-2.494734	q ħ
-3.226491	r "
-3.426064	r '
-3.226491	r (
-3.426064	r )
-2.401441	r ,
-1.303575	r -
-2.666396	r .
-3.463852	r /
-3.391302	r 0
-2.636013	r 1
-3.090272	r 2
-3.426064	r 3
-3.463852	r 5
-3.359117	r 6
-3.329154	r :
-2.741817	r ;
-3.226491	r </s>
-3.183026	r [
-0.7918385	r a
-2.20858	r b
-3.204215	r c
-1.761735	r d
-0.9090879	r e
-2.346883	r f
-2.081999	r g
-2.852032	r h
-0.7755134	r i
-1.443416	r j
-2.154997	r k
-1.985417	r l
-1.423538	r m
-1.889295	r n
-1.037489	r o
-2.254825	r p
-2.653987	r q
-1.663885	r r
-1.940579	r s
-0.9764568	r t
-1.246608	r u
-2.004186	r v
-2.925461	r w
-2.91418	r x
-3.391302	r y
-2.233403	r z
-3.426064	r å
-2.149219	r ċ
-2.536762	r ġ
-3.058087	r ħ
-2.973766	r ż
-3.463852	r ’
-2.928887	s "
-3.285434	s '
-3.180699	s (
-2.849706	s )
-2.541497	s ,
-1.254945	s -
-2.703578	s .
-2.965099	s 1
-3.150736	s 2
-3.285434	s 3
-3.285434	s 4
-3.150736	s 5
-3.285434	s 7
-3.285434	s 8
-3.180699	s 9
-3.150736	s :
-3.025797	s ;
-3.048074	s </s>
-3.247646	s [
-1.163368	s a
-2.293403	s b
-2.808313	s c
-2.673615	s d
-1.15833	s e
-2.043526	s f
-2.269922	s g
-2.372585	s h
-0.9213101	s i
-1.443734	s j
-1.323367	s k
-2.139307	s l
-1.916894	s m
-2.513914	s n
-1.621819	s o
-1.211217	s p
-3.096378	s q
-2.578639	s r
-0.8798243	s s
-0.6426104	s t
-1.247284	s u
-2.563399	s v
-2.636631	s w
-3.071555	s x
-3.285434	s y
-3.180699	s ċ
-3.096378	s ġ
-2.636631	s ħ
-3.180699	s ż
-3.285434	s —
-3.215596	t "
-3.516626	t '
-2.229385	t (
-3.359018	t )
-2.194407	t ,
-1.641203	t -
-2.444284	t .
-3.516626	t /
-3.419716	t 1
-3.544655	t 2
-3.544655	t 3
-3.574618	t 4
-3.606803	t 5
-3.679353	t 6
-2.845685	t :
-2.707909	t ;
-3.164444	t </s>
-3.243625	t [
-0.4662707	t a
-2.198302	t b
-3.516626	t c
-2.398527	t d
-1.326996	t e
-1.988353	t f
-1.887599	t g
-2.712146	t h
-0.6375304	t i
-2.10061	t j
-1.90252	t k
-1.82422	t l
-1.831445	t m
-2.463068	t n
-1.685717	t o
-2.550484	t p
-2.378324	t q
-1.489277	t r
-2.218319	t s
-0.9657866	t t
-1.529575	t u
-3.097497	t v
-2.249454	t w
-2.863414	t x
-3.606803	t y
-3.606803	t z
-1.700385	t à
-3.679353	t å
-3.641565	t è
-3.679353	t é
-3.544655	t ċ
-3.097497	t ġ
-2.541769	t ħ
-3.490297	t ż
-3.641565	t –
-3.641565	t ‘
-3.465474	t ’
-2.91059	u "
-3.32277	u '
-2.488138	u (
-3.123198	u )
-1.77767	u ,
-3.32277	u -
-2.195126	u .
-2.493467	u /
-3.197832	u 0
-1.396342	u 1
-1.644556	u 2
-1.933604	u 3
-2.228765	u 4
-2.352734	u 5
-2.294742	u 6
-2.345047	u 7
-2.406317	u 8
-2.41518	u 9
-2.845649	u :
-2.661589	u ;
-2.702982	u </s>
-3.123198	u [
-2.02174	u a
-1.574582	u b
-2.60956	u c
-1.610963	u d
-2.268413	u e
-1.598495	u f
-1.759487	u g
-2.669558	u h
-1.990332	u i
-1.350413	u j
-1.845649	u k
-1.011017	u l
-1.015453	u m
-0.8366944	u n
-2.768483	u o
-1.587039	u p
-1.505977	u q
-1.042116	u r
-1.503775	u s
-1.215278	u t
-2.146679	u u
-2.661589	u v
-1.968982	u w
-1.823313	u x
-1.968982	u z
-2.509857	u ċ
-2.109696	u ġ
-2.661589	u ħ
-1.707346	u ż
-3.288008	u ‘
-3.288008	u ’
-3.360559	u “
-2.529008	v "
-2.352917	v )
-2.212739	v ,
-2.332714	v .
-2.471016	v ;
-2.471016	v </s>
-0.5277694	v a
-2.561193	v b
-1.28244	v d
-0.7791618	v e
-2.313409	v f
-2.260163	v g
-2.595955	v h
-0.711821	v i
-2.021924	v j
-2.561193	v k
-2.313409	v l
-2.419864	v m
-2.561193	v n
-1.535257	v o
-2.633744	v p
-2.595955	v r
-2.561193	v s
-2.073076	v t
-1.842628	v u
-1.554563	v v
-2.633744	v x
-2.595955	v ċ
-2.595955	v ġ
-2.561193	v ż
-2.643727	w "
-2.66855	w (
-2.857607	w )
-2.106608	w ,
-2.484026	w .
-2.819818	w 2
-2.722908	w 3
-2.819818	w 4
-2.785056	w 5
-2.785056	w 8
-2.857607	w 9
-2.643727	w :
-2.694879	w ;
-2.236241	w </s>
-2.407638	w [
-0.536894	w a
-1.95948	w b
-2.857607	w c
-1.827117	w d
-1.342697	w e
-1.734646	w f
-1.881966	w g
-2.354931	w h
-0.9535307	w i
-1.995909	w j
-1.379171	w k
-1.343905	w l
-1.589369	w m
-1.352457	w n
-2.041667	w o
-1.881966	w p
-2.556576	w q
-1.262511	w r
-1.935211	w s
-1.145416	w t
-1.916728	w u
-2.752871	w v
-1.671113	w w
-2.307935	w x
-2.857607	w y
-2.752871	w z
-2.857607	w ä
-2.752871	w ċ
-2.150811	w ġ
-2.556576	w ħ
-2.226902	w ż
-2.521029	x "
-2.068731	x '
-2.558818	x )
-2.068731	x ,
-1.415519	x -
-2.369761	x .
-2.558818	x 0
-2.558818	x 4
-2.454082	x :
-2.454082	x ;
-2.558818	x </s>
-2.424119	x [
-1.244184	x a
-2.153052	x b
-2.068731	x d
-1.730979	x e
-1.910014	x f
-2.068731	x g
-1.859848	x h
-0.7009371	x i
-0.9607238	x j
-1.875934	x k
-1.928113	x l
-1.719397	x m
-2.454082	x n
-1.521029	x o
-2.29918	x p
-2.521029	x q
-1.852022	x r
-1.918969	x s
-1.227298	x t
-1.466671	x u
-2.521029	x v
-2.454082	x w
-0.9374525	x x
-2.521029	x y
-2.521029	x ċ
-2.257788	x ġ
-2.486267	x ħ
-1.966742	x ’
-1.934498	y -
-1.861948	y a
-1.861948	y c
-1.829763	y d
-1.934498	y f
-1.934498	y h
-1.934498	y i
-1.697138	y l
-1.89671	y m
-1.934498	y n
-1.934498	y o
-1.861948	y p
-1.861948	y r
-1.934498	y s
-1.934498	y t
-1.934498	y z
-2.731468	z ,
-2.652287	z -
-2.953317	z .
-1.05295	z a
-2.991105	z b
-2.501019	z e
-2.690075	z f
-2.777225	z g
-2.991105	z h
-1.3764	z i
-0.4361207	z j
-2.856407	z k
-2.731468	z l
-2.991105	z m
-2.991105	z n
-2.212954	z o
-2.991105	z p
-2.828378	z r
-2.753744	z s
-1.839373	z t
-2.276623	z u
-2.953317	z w
-0.409973	z z
-2.953317	z ċ
-2.991105	z ġ
-2.181404	à "
-2.181404	à (
-2.216166	à )
-1.322219	à ,
-2.253954	à -
-1.579344	à .
-2.253954	à :
-1.739045	à ;
-2.016593	à </s>
-2.091227	à [
-1.994317	à a
-1.994317	à b
-1.994317	à d
-1.234649	à e
-1.727145	à f
-1.426115	à g
-2.119256	à h
-1.739045	à i
-1.672098	à j
-1.188137	à k
-1.539472	à l
-1.336306	à m
-1.952924	à n
-2.149219	à o
-1.848189	à p
-2.091227	à q
-1.739045	à r
-1.790197	à s
-0.9690113	à t
-1.489167	à u
-2.216166	à v
-2.216166	à w
-2.181404	à ġ
-2.253954	à ħ
-1.918126	ã o
-1.918602	ä d
-1.918602	ä h
-1.881289	å l
-1.919078	å r
-1.918126	ç ã
-1.920028	è 1
-1.88224	è m
-1.88224	è r
-1.883188	é a
-1.920977	é c
-1.920977	é n
-1.920977	é p
-1.920977	é r
-1.920977	é t
-1.880814	ê c
-1.918126	ó n
-1.918126	ü r
-2.608526	ċ "
-2.288191	ċ (
-1.522814	ċ )
-2.269707	ċ ,
-1.604596	ċ -
-2.473827	ċ .
-2.608526	ċ /
-2.535975	ċ :
-2.473827	ċ ;
-2.608526	ċ [
-1.917525	ċ a
-2.269707	ċ b
-0.5880894	ċ e
-2.288191	ċ f
-2.503791	ċ g
-0.5109848	ċ i
-1.031871	ċ j
-2.608526	ċ k
-2.371165	ċ l
-2.535975	ċ m
-2.570737	ċ p
-2.608526	ċ r
-2.535975	ċ s
-2.081717	ċ t
-2.081717	ċ u
-2.608526	ċ x
-1.288191	ċ ċ
-2.503791	ċ ħ
-2.667962	ġ (
-2.11829	ġ ,
-2.478906	ġ .
-2.563227	ġ ;
-2.667962	ġ </s>
-1.251473	ġ a
-1.968992	ġ b
-1.961167	ġ d
-0.8144851	ġ e
-2.347627	ġ f
-2.217993	ġ g
-2.595412	ġ h
-0.581926	ġ i
-1.641169	ġ j
-2.366932	ġ k
-1.790277	ġ l
-2.190841	ġ m
-2.533263	ġ n
-1.679971	ġ o
-2.311415	ġ p
-2.408325	ġ r
-2.177876	ġ s
-2.010385	ġ t
-0.8189338	ġ u
-2.630173	ġ v
-2.505235	ġ w
-2.630173	ġ x
-2.217993	ġ à
-1.043774	ġ ġ
-2.667962	ġ ż
-3.001517	ħ "
-3.039306	ħ '
-3.039306	ħ )
-2.562185	ħ ,
-2.758479	ħ .
-2.934571	ħ 1
-3.039306	ħ :
-2.904607	ħ ;
-0.2818409	ħ a
-2.618301	ħ b
-1.59356	ħ d
-1.766831	ħ e
-2.2356	ħ f
-2.801945	ħ g
-1.416998	ħ h
-1.738276	ħ i
-2.512497	ħ j
-2.825426	ħ k
-1.775347	ħ l
-1.797397	ħ m
-2.801945	ħ n
-1.524396	ħ o
-2.966755	ħ p
-2.373128	ħ q
-1.454358	ħ r
-1.980328	ħ s
-1.149241	ħ t
-1.166885	ħ u
-2.758479	ħ w
-2.758479	ħ x
-3.001517	ħ ġ
-1.367208	ħ ħ
-2.467915	ħ ż
-3.001517	ħ ‘
-2.200486	ż ,
-1.39062	ż -
-2.32106	ż .
-2.677607	ż 1
-2.677607	ż 5
-2.542908	ż :
-2.542908	ż ;
-2.572872	ż [
-1.068692	ż a
-2.271842	ż b
-1.741276	ż d
-1.067722	ż e
-2.287636	ż f
-1.582279	ż g
-2.51488	ż h
-0.7999216	ż i
-1.013136	ż j
-2.542908	ż k
-1.625578	ż l
-1.368752	ż m
-1.736728	ż n
-1.407246	ż o
-2.639818	ż p
-2.677607	ż q
-2.338789	ż r
-2.440246	ż s
-1.424533	ż t
-0.9503615	ż u
-1.759958	ż v
-2.440246	ż w
-2.41797	ż x
-2.677607	ż ċ
-1.61179	ż ż
-1.918126	ά δ
-1.918126	έ λ
-1.918602	α .
-1.918602	α ν
-1.918126	γ α
-1.919078	δ η
-1.919078	δ ο
-1.919078	δ ρ
-1.918602	ε )
-1.918602	ε .
-1.918126	η ρ
-1.918602	ι δ
-1.918602	ι σ
-1.918602	λ ά
-1.918602	λ λ
-1.918602	μ ω
-1.918602	μ ό
-1.918602	ν έ
-1.918602	ν ι
-1.919078	ο δ
-1.919078	ο ς
-1.919078	ο σ
-1.919078	ρ γ
-1.919078	ρ ο
-1.919078	ρ ό
-1.918602	ς α
-1.918602	ς σ
-1.919078	σ ε
-1.919078	σ ι
-1.919078	σ μ
-1.918126	ω ν
-1.919078	ό μ
-1.919078	ό ρ
-1.919078	ό ς
-1.920028	– a
-1.920028	– f
-1.88224	– l
-1.920028	– p
-1.922867	— "
-1.922867	— 1
-1.922867	— b
-1.922867	— c
-1.922867	— d
-1.922867	— g
-1.922867	— i
-1.885078	— l
-1.885078	— ż
-1.928023	‘ 3
-1.928023	‘ d
-1.890235	‘ f
-1.823288	‘ i
-1.928023	‘ k
-1.738967	‘ l
-1.928023	‘ m
-1.928023	‘ p
-1.928023	‘ q
-1.855473	‘ r
-2.37429	’ "
-2.499229	’ (
-2.529192	’ )
-2.396566	’ ,
-2.633927	’ .
-2.396566	’ 1
-2.596139	’ 2
-2.561377	’ 3
-2.561377	’ 4
-2.499229	’ 5
-2.633927	’ 8
-2.4712	’ :
-2.596139	’ ;
-1.35935	’ a
-1.927132	’ b
-0.9931749	’ d
-1.794506	’ e
-1.96775	’ f
-1.629997	’ g
-2.183958	’ h
-1.420048	’ i
-1.526101	’ j
-1.198199	’ k
-0.6944081	’ l
-1.289714	’ m
-2.031867	’ n
-1.794506	’ o
-1.372124	’ p
-2.07326	’ q
-1.670999	’ r
-1.442324	’ s
-1.410502	’ t
-2.107118	’ u
-1.994079	’ v
-2.183958	’ w
-2.084255	’ x
-2.17017	’ z
-2.633927	’ é
-2.062536	’ ċ
-1.904468	’ ġ
-2.052071	’ ħ
-1.86914	’ ż
-1.919078	“ i
-1.919078	“ j
-1.919078	“ k
-1.919078	” .
-1.919078	” f
-1.919078	” j
-1.918126	… </s>
-1.919554	≥ 0
-1.919554	≥ 3
-1.881765	≥ 5

\end\
