
\data\
ngram 1=70
ngram 2=1736

\1-grams:
-4.763233	!	-0.006099285
-3.017165	"	1.361195
-3.826902	%	0.2302414
-3.614294	'	0.1680702
-2.655714	(	0.6550815
-2.460037	)	0.794653
-4.690682	*	-0.006715974
-4.725444	+	-0.01160076
-2.07855	,	0.3086589
-2.698775	-	0.7567471
-2.261054	.	0.8520251
-2.607345	/	-0.2842904
-2.698094	0	0.1005839
-2.341928	1	-0.176212
-2.453796	2	0.08496545
-2.685369	3	0.004502874
-2.833349	4	0.1742723
-2.906449	5	0.655412
-2.83661	6	0.1258639
-2.871138	7	0.1795222
-2.851833	8	0.1450302
-2.567585	9	-0.2604864
-3.035248	:	0.3504159
-2.810748	;	-0.140829
-2.189939	</s>
-99	<s>	0.2943417
-4.658497	=	-0.01950415
-4.658497	>	-0.008841024
-4.763233	_	0.008392094
-1.180818	a	-0.5740981
-1.843727	b	-0.2873313
-1.823804	c	-0.5355135
-1.207358	d	-0.041267
-0.7434103	e	-0.2226758
-2.078306	f	0.6263745
-1.433336	g	0.2757699
-1.745251	h	-0.3013336
-1.157037	i	-0.4677105
-1.97346	j	0.1645153
-1.736217	k	0.2784961
-1.474536	l	0.3558957
-1.689914	m	-0.0402144
-1.007801	n	0.273742
-1.262709	o	-0.4891038
-1.850142	p	0.3168478
-3.822354	q	-0.06705924
-1.223769	r	-0.1472135
-1.482716	s	-0.0335606
-1.213349	t	0.4514984
-1.875462	u	-0.02081517
-1.459016	v	-1.182588
-1.9952	w	-0.3805789
-3.488655	x	0.1080707
-3.363716	y	0.2101598
-2.070626	z	-0.7623212
-4.151413	»	0.2576461
-4.763233	á	0.02084458
-4.600505	â	-0.009230477
-4.763233	ã	0.01742093
-4.690682	å	0.02786246
-4.763233	ç	-0.006961644
-4.690682	è	0.02844719
-3.214676	é	0.6539676
-4.628534	ê	0.01850708
-3.205835	ë	0.1797017
-4.763233	í	0.07950668
-4.224842	ï	0.06113631
-3.671086	ó	-0.002313871
-4.04875	ö	0.0150814
-4.763233	β	-0.006099285

\2-grams:
-1.798085	! -
-1.997655	" (
-1.96547	" )
-1.488349	" ,
-1.997655	" -
-1.27909	" .
-1.696625	" 1
-1.832845	" 2
-1.749871	" 3
-2.070206	" 4
-2.070206	" 5
-1.96547	" 6
-2.070206	" 7
-2.032417	" 9
-1.412629	" :
-1.157356	" ;
-2.032417	" </s>
-1.448841	" a
-1.555296	" b
-1.88115	" c
-1.47813	" d
-1.696625	" e
-1.96547	" f
-1.509539	" g
-1.832845	" h
-1.421402	" i
-2.070206	" j
-1.935507	" k
-1.997655	" l
-1.769176	" m
-1.832845	" n
-1.593085	" o
-1.935507	" p
-2.032417	" r
-1.810569	" s
-1.749871	" t
-1.997655	" u
-1.47813	" v
-1.810569	" w
-1.935507	" z
-1.81012	% "
-1.634029	% ,
-1.81012	% -
-1.658853	% .
-1.847909	% 1
-1.743174	% ;
-1.775358	% b
-1.743174	% e
-1.847909	% f
-1.847909	% g
-1.81012	% i
-1.81012	% l
-1.81012	% m
-1.81012	% o
-1.847909	% r
-1.775358	% t
-1.847909	% u
-1.208061	% v
-1.847909	% w
-1.880294	' '
-1.775558	' )
-1.880294	' ,
-1.745595	' :
-1.842505	' a
-1.842505	' c
-1.880294	' d
-1.880294	' f
-1.880294	' g
-1.880294	' h
-1.880294	' i
-1.842505	' n
-1.842505	' o
-1.880294	' p
-0.8178828	' s
-1.880294	' t
-1.880294	' v
-1.880294	' é
-2.205995	( "
-2.205995	( '
-2.205995	( *
-2.278546	( -
-2.278546	( 0
-0.9451901	( 1
-1.089489	( 2
-1.302905	( 3
-1.433448	( 4
-1.481089	( 5
-1.579576	( 6
-1.717878	( 7
-1.696689	( 8
-1.666726	( 9
-2.064666	( a
-1.939727	( b
-1.842817	( c
-2.064666	( d
-0.6609736	( e
-2.089489	( f
-2.240757	( g
-1.939727	( h
-1.939727	( i
-2.205995	( j
-2.205995	( k
-2.278546	( l
-2.089489	( m
-2.041185	( n
-1.997719	( o
-1.904965	( p
-2.205995	( r
-2.041185	( s
-2.089489	( t
-2.205995	( u
-1.78846	( v
-2.205995	( w
-2.089489	( z
-1.71286	) "
-2.347105	) '
-2.029684	) (
-2.419655	) )
-0.7294593	) ,
-2.419655	) -
-1.690196	) .
-2.230599	) 1
-2.381867	) 2
-2.419655	) 4
-2.419655	) :
-1.858988	) ;
-1.762078	) </s>
-1.736772	) a
-1.568954	) b
-2.31492	) c
-1.101213	) d
-1.392862	) e
-2.347105	) f
-1.969686	) g
-1.506806	) h
-1.452448	) i
-2.419655	) j
-2.284957	) k
-2.256928	) l
-1.983927	) m
-0.8030367	) n
-1.371143	) o
-2.31492	) p
-1.99865	) r
-2.138829	) s
-1.78895	) t
-2.347105	) u
-1.448211	) v
-1.603716	) w
-2.381867	) y
-2.080837	) z
-2.381867	) »
-1.72679	* )
-1.798713	+ 2
-1.798713	+ 3
-2.435873	, "
-2.664353	, (
-2.664353	, -
-2.477266	, 0
-2.499542	, 1
-2.331138	, 2
-2.499542	, 3
-2.523023	, 4
-2.547847	, 5
-2.523023	, 6
-2.574176	, 7
-2.416568	, 8
-2.456077	, 9
-1.041103	, </s>
-1.407228	, a
-1.420361	, b
-2.0881	, c
-1.084569	, d
-1.192835	, e
-2.398085	, f
-1.632168	, g
-1.550409	, h
-1.302625	, i
-2.499542	, j
-1.769696	, k
-1.030108	, l
-1.229293	, m
-1.761263	, n
-1.15816	, o
-1.897482	, p
-2.134843	, r
-1.838777	, s
-1.558188	, t
-2.097055	, u
-1.136822	, v
-1.273146	, w
-2.664353	, x
-1.677925	, z
-2.699115	, é
-1.96915	- ,
-2.212188	- 0
-2.012615	- 1
-2.177425	- 2
-2.249976	- 4
-2.212188	- 5
-2.177425	- 7
-2.249976	- 8
-2.249976	- 9
-1.628611	- a
-1.800007	- b
-1.592399	- c
-1.257945	- d
-1.167517	- e
-2.115278	- f
-1.786219	- g
-1.700304	- h
-1.567093	- i
-2.249976	- j
-2.012615	- k
-2.06092	- l
-1.6579	- m
-1.860005	- n
-1.416308	- o
-1.772855	- p
-1.723167	- r
-0.5541762	- s
-1.860005	- t
-2.115278	- u
-1.506039	- v
-1.860005	- w
-2.087249	- z
-2.212188	- »
-1.579368	. "
-2.541579	. '
-2.506817	. )
-2.579368	. ,
-2.444669	. -
-2.474633	. .
-2.474633	. 0
-1.313264	. 1
-1.403277	. 2
-1.717671	. 3
-2.222821	. 4
-2.222821	. 5
-2.444669	. 6
-2.115611	. 7
-2.115611	. 8
-2.298541	. 9
-2.579368	. :
-0.4440905	. </s>
-1.638489	. a
-1.807847	. b
-2.474633	. c
-0.8796089	. d
-1.73427	. e
-2.474633	. f
-2.240549	. g
-1.534401	. h
-1.375248	. i
-2.579368	. j
-2.579368	. k
-2.319731	. l
-2.205787	. m
-2.240549	. n
-1.73427	. o
-2.474633	. p
-2.541579	. q
-2.416641	. r
-2.506817	. s
-2.064458	. t
-2.365488	. u
-1.701682	. v
-1.92179	. w
-1.872572	. z
-1.292449	/ 1
-1.281265	/ 2
-1.495814	/ 3
-1.232573	/ 4
-1.553806	/ 5
-1.226042	/ 6
-1.418648	/ 7
-1.344546	/ 8
-0.9857906	/ 9
-2.239203	/ c
-2.311754	/ d
-0.6363088	/ e
-2.311754	/ f
-2.311754	/ g
-2.273965	/ h
-2.273965	/ i
-2.273965	/ j
-1.455519	/ o
-2.311754	/ p
-2.311754	/ r
-2.311754	/ u
-2.311754	/ v
-2.311754	/ w
-2.239203	/ z
-2.25042	0 "
-1.528385	0 %
-2.013059	0 (
-1.786663	0 )
-1.459304	0 ,
-1.893873	0 .
-1.013059	0 /
-0.7201039	0 0
-1.399718	0 1
-1.328025	0 2
-1.55145	0 3
-1.814691	0 4
-1.930085	0 5
-1.860449	0 6
-1.747745	0 7
-1.829415	0 8
-1.814691	0 9
-2.25042	0 ;
-1.610572	0 </s>
-1.990783	0 a
-1.876839	0 b
-1.747745	0 d
-1.911601	0 e
-2.212631	0 f
-2.061364	0 h
-2.061364	0 i
-1.930085	0 j
-2.087693	0 k
-2.25042	0 l
-1.911601	0 m
-2.212631	0 n
-2.03654	0 o
-2.25042	0 p
-2.087693	0 q
-2.115721	0 s
-1.844655	0 t
-2.25042	0 u
-1.543625	0 v
-1.860449	0 w
-2.115721	0 z
-2.474944	1 %
-2.156186	1 (
-1.361001	1 )
-1.064167	1 ,
-2.298853	1 -
-1.113217	1 .
-1.369434	1 /
-1.321129	1 0
-1.386808	1 1
-1.443536	1 2
-1.453755	1 3
-1.457216	1 4
-1.433552	1 5
-1.576402	1 6
-1.532936	1 7
-1.640312	1 8
-0.8657058	1 9
-2.440182	1 :
-2.407998	1 ;
-1.549804	1 </s>
-2.275372	1 a
-1.696793	1 b
-1.920657	1 d
-1.805938	1 e
-2.512733	1 f
-2.139152	1 g
-2.323677	1 h
-2.253096	1 i
-1.684894	1 j
-2.378034	1 k
-2.022647	1 m
-2.350006	1 n
-2.035612	1 o
-2.512733	1 p
-2.350006	1 s
-2.106967	1 t
-1.673312	1 v
-2.156186	1 w
-2.440182	1 z
-2.351886	2 "
-2.319701	2 %
-2.14361	2 (
-1.269929	2 )
-1.007947	2 ,
-2.289737	2 -
-1.026496	2 .
-1.187075	2 /
-0.903536	2 0
-1.63332	2 1
-1.461507	2 2
-1.54155	2 3
-1.497346	2 4
-1.546751	2 5
-1.562739	2 6
-1.749825	2 7
-1.673437	2 8
-1.573734	2 9
-2.386647	2 ;
-1.386648	2 </s>
-2.319701	2 a
-1.749825	2 b
-2.067889	2 d
-1.863769	2 e
-2.386647	2 f
-2.14361	2 g
-2.210556	2 h
-2.164799	2 i
-2.187075	2 j
-2.424436	2 k
-2.424436	2 l
-2.210556	2 m
-2.261709	2 n
-2.14361	2 o
-2.424436	2 p
-2.261709	2 s
-2.003431	2 t
-2.351886	2 u
-1.61457	2 v
-2.104101	2 w
-2.386647	2 z
-2.220979	3 "
-2.186217	3 %
-2.09604	3 (
-1.235703	3 )
-1.072274	3 ,
-2.154032	3 -
-1.059611	3 .
-1.121184	3 /
-1.402533	3 0
-1.391675	3 1
-1.584157	3 2
-1.731959	3 3
-1.808799	3 4
-1.743858	3 5
-1.442828	3 6
-1.59259	3 7
-1.731959	3 8
-1.656708	3 9
-2.124069	3 ;
-1.345918	3 </s>
-2.09604	3 a
-1.795011	3 b
-2.09604	3 d
-1.698101	3 e
-2.220979	3 f
-2.154032	3 g
-2.124069	3 h
-2.021407	3 i
-1.977941	3 j
-2.220979	3 k
-2.09604	3 m
-2.220979	3 n
-2.069712	3 o
-2.220979	3 p
-1.853003	3 t
-2.258768	3 u
-1.425099	3 v
-1.853003	3 w
-2.094498	4 "
-2.12926	4 %
-2.004321	4 (
-1.244654	4 )
-1.111531	4 ,
-1.20412	4 .
-1.071721	4 /
-1.595657	4 0
-1.585192	4 1
-1.452567	4 2
-1.574973	4 3
-1.810501	4 4
-1.846714	4 5
-1.617377	4 6
-1.82823	4 7
-1.574973	4 8
-1.492438	4 9
-2.12926	4 ;
-1.369592	4 </s>
-1.953169	4 a
-1.761283	4 b
-2.004321	4 d
-1.810501	4 e
-2.12926	4 f
-2.167049	4 g
-1.977992	4 h
-1.866019	4 i
-1.929688	4 j
-2.094498	4 k
-2.004321	4 m
-2.12926	4 n
-1.977992	4 o
-2.12926	4 s
-1.977992	4 t
-2.03235	4 u
-1.595657	4 v
-1.953169	4 w
-2.167049	4 z
-2.12622	5 "
-1.676251	5 %
-1.866583	5 (
-1.203825	5 )
-1.21337	5 ,
-2.12622	5 -
-1.328764	5 .
-1.189889	5 /
-1.565553	5 0
-1.676251	5 1
-1.576548	5 2
-1.690491	5 3
-1.587829	5 4
-1.866583	5 5
-1.623545	5 6
-1.752639	5 7
-1.636134	5 8
-1.866583	5 9
-2.088431	5 :
-2.088431	5 ;
-1.460042	5 </s>
-1.991521	5 a
-1.805885	5 b
-1.787401	5 d
-1.599411	5 e
-2.053669	5 f
-1.963493	5 g
-1.888859	5 h
-1.937164	5 i
-1.752639	5 j
-2.021485	5 k
-2.088431	5 l
-1.845393	5 m
-1.963493	5 n
-1.991521	5 o
-2.12622	5 q
-2.12622	5 r
-2.021485	5 s
-1.963493	5 t
-2.12622	5 u
-1.554829	5 v
-1.82519	5 w
-2.092613	6 %
-2.165163	6 '
-1.927802	6 (
-1.407215	6 )
-1.292742	6 ,
-2.127375	6 -
-1.543798	6 .
-0.9488775	6 /
-1.450681	6 0
-1.744158	6 1
-1.443128	6 2
-1.729435	6 3
-1.638354	6 4
-1.729435	6 5
-1.407215	6 6
-1.525315	6 7
-1.380481	6 8
-1.729435	6 9
-2.165163	6 :
-2.092613	6 ;
-1.474162	6 </s>
-2.030465	6 a
-1.650254	6 b
-1.844828	6 d
-1.791583	6 e
-1.976107	6 f
-2.060428	6 g
-1.927802	6 h
-1.976107	6 i
-1.808616	6 j
-2.060428	6 k
-1.976107	6 m
-2.030465	6 n
-2.127375	6 o
-2.127375	6 s
-1.927802	6 t
-1.593772	6 v
-1.884337	6 w
-2.127375	6 z
-2.107775	7 %
-1.908203	7 (
-1.524199	7 )
-1.323633	7 ,
-2.145564	7 -
-1.695595	7 .
-1.076367	7 /
-1.446594	7 0
-1.607173	7 1
-1.49676	7 2
-1.543504	7 3
-1.655477	7 4
-1.438768	7 5
-1.46268	7 6
-1.446594	7 7
-1.374043	7 8
-1.595892	7 9
-2.145564	7 :
-2.107775	7 ;
-1.514858	7 </s>
-1.982836	7 a
-1.755593	7 b
-2.145564	7 c
-1.771983	7 d
-1.806745	7 e
-2.107775	7 f
-2.107775	7 g
-1.956507	7 h
-1.982836	7 i
-1.908203	7 j
-1.825228	7 m
-2.010865	7 n
-2.073013	7 o
-2.107775	7 p
-2.145564	7 s
-2.010865	7 t
-1.423528	7 v
-1.931684	7 w
-2.040828	7 z
-1.896802	8 (
-1.465438	8 )
-1.481828	8 ,
-2.11865	8 -
-1.618048	8 .
-0.9377603	8 /
-1.618048	8 0
-1.434404	8 1
-1.692682	8 2
-1.641529	8 3
-1.692682	8 4
-1.481828	8 5
-1.457469	8 6
-1.3286	8 7
-1.507636	8 8
-1.3286	8 9
-2.051704	8 ;
-1.525734	8 </s>
-2.083888	8 a
-1.81762	8 b
-1.875612	8 d
-1.81762	8 e
-2.11865	8 f
-2.11865	8 g
-2.051704	8 h
-1.942559	8 i
-1.836104	8 j
-1.967383	8 m
-2.156439	8 n
-2.051704	8 o
-2.11865	8 s
-1.967383	8 t
-2.11865	8 u
-1.434404	8 v
-1.993712	8 w
-2.267352	9 (
-1.747827	9 )
-1.603144	9 ,
-2.302114	9 -
-1.801512	9 .
-1.153409	9 /
-1.351912	9 0
-1.347872	9 1
-1.309414	9 2
-1.339903	9 3
-1.489201	9 4
-1.523963	9 5
-1.335973	9 6
-1.328217	9 7
-1.166452	9 8
-0.8049543	9 9
-2.339903	9 :
-2.339903	9 ;
-1.779236	9 </s>
-2.235168	9 a
-1.862782	9 b
-2.080266	9 d
-1.934138	9 e
-2.302114	9 f
-2.235168	9 g
-2.150847	9 h
-2.150847	9 i
-2.102542	9 j
-2.019568	9 m
-2.102542	9 o
-2.339903	9 s
-2.126023	9 t
-1.758046	9 v
-2.235168	9 w
-1.584605	: "
-1.989176	: -
-2.061727	: .
-1.956991	: 1
-0.4460634	: </s>
-1.688146	: a
-2.061727	: b
-2.061727	: c
-1.597969	: d
-1.559051	: e
-2.061727	: f
-2.061727	: g
-1.847847	: h
-2.061727	: i
-2.061727	: l
-2.023938	: n
-1.956991	: o
-1.927028	: p
-1.898999	: s
-2.023938	: t
-1.989176	: v
-1.989176	: w
-2.061727	: z
-1.966403	; "
-2.180282	; 3
-2.180282	; 8
-0.3506862	; </s>
-2.142494	; b
-2.180282	; c
-0.9688219	; d
-1.899456	; e
-2.045584	; h
-1.841464	; i
-2.180282	; m
-1.806702	; o
-2.180282	; t
-2.142494	; v
-2.075547	; w
-1.991226	; z
-1.717272	<s> "
-1.202494	<s> (
-1.215677	<s> -
-1.27794	<s> 1
-1.28312	<s> 2
-1.482403	<s> 3
-1.756781	<s> 4
-1.932872	<s> 5
-2.162546	<s> 6
-2.233902	<s> 7
-2.402307	<s> 8
-2.402307	<s> 9
-2.639668	<s> _
-0.8608588	<s> a
-1.402307	<s> b
-1.643634	<s> c
-1.031725	<s> d
-1.965057	<s> e
-2.101277	<s> f
-1.249696	<s> g
-1.466216	<s> h
-1.519692	<s> i
-2.534932	<s> j
-2.504969	<s> k
-2.534932	<s> l
-2.38003	<s> m
-2.358841	<s> n
-1.122352	<s> o
-2.504969	<s> p
-2.089996	<s> r
-2.319332	<s> s
-2.018302	<s> t
-2.47694	<s> u
-1.534932	<s> v
-2.068276	<s> w
-2.425788	<s> z
-2.319332	<s> »
-1.799967	= 0
-1.799967	= 3
-1.762178	= 5
-1.695231	> =
-1.798085	_ v
-3.05099	a "
-3.007524	a '
-3.454682	a (
-2.294314	a )
-2.71696	a ,
-3.375501	a -
-3.308554	a .
-3.308554	a 1
-3.51683	a 2
-3.454682	a 3
-3.551592	a 9
-3.484646	a :
-3.51683	a ;
-3.589381	a </s>
-0.7900403	a a
-2.469406	a b
-1.726058	a c
-1.580007	a d
-2.81786	a e
-1.882586	a f
-1.484645	a g
-3.125623	a h
-2.131086	a i
-1.724439	a k
-1.17123	a l
-1.771635	a m
-0.5148969	a n
-2.997305	a o
-1.647599	a p
-3.2158	a q
-0.968488	a r
-1.467612	a s
-0.9243972	a t
-1.903232	a u
-2.265285	a v
-3.329744	a w
-2.867346	a x
-3.454682	a y
-3.308554	a z
-3.589381	a ç
-3.551592	a é
-3.454682	a ë
-3.51683	a ï
-2.950675	b "
-2.950675	b (
-1.704265	b )
-2.630339	b ,
-2.878124	b -
-2.950675	b .
-2.845939	b 1
-1.368818	b a
-1.761618	b b
-2.815976	b c
-2.787947	b d
-0.3015168	b e
-2.815976	b g
-2.845939	b h
-0.7336695	b i
-2.787947	b j
-2.912886	b k
-1.532675	b l
-2.950675	b n
-1.356583	b o
-1.103888	b r
-2.447999	b s
-2.473553	b t
-1.942849	b u
-2.669848	b v
-2.912886	b z
-2.969246	c '
-2.806519	c (
-1.834548	c )
-2.755367	c ,
-2.668216	c -
-2.755367	c .
-2.931458	c ;
-1.50958	c a
-2.135578	c b
-2.668216	c c
-1.20855	c e
-2.931458	c g
-0.3306664	c h
-1.315157	c i
-2.969246	c k
-2.032916	c l
-2.969246	c m
-2.931458	c n
-0.7067953	c o
-2.548241	c p
-2.931458	c q
-2.17179	c r
-2.864511	c s
-1.106465	c t
-1.883534	c u
-2.864511	c v
-2.755367	c y
-2.969246	c »
-2.864511	c é
-3.127548	d "
-2.833817	d (
-2.650426	d )
-2.079624	d ,
-1.87308	d -
-2.183065	d .
-2.162189	d 1
-2.282449	d 2
-2.690855	d 3
-2.856481	d 4
-3.099519	d 5
-3.189695	d 6
-3.563276	d 7
-3.525487	d 8
-3.525487	d 9
-2.319111	d :
-2.497459	d ;
-3.099519	d </s>
-1.258511	d a
-2.06811	d b
-3.282449	d c
-1.878757	d d
-0.250253	d e
-3.525487	d f
-2.314634	d g
-2.286605	d h
-1.005878	d i
-3.525487	d j
-2.575285	d k
-3.400549	d l
-2.178158	d m
-2.819339	d n
-1.327289	d o
-2.617897	d p
-1.752189	d r
-1.701579	d s
-1.574069	d t
-1.581416	d u
-1.587218	d v
-2.428577	d w
-2.384561	d z
-3.458541	d é
-3.563276	d í
-4.022379	e !
-3.391675	e "
-3.50747	e '
-3.038466	e (
-3.200449	e )
-2.55457	e ,
-3.212514	e -
-2.970351	e .
-3.984591	e /
-3.859652	e 0
-3.472708	e 1
-3.558622	e 2
-3.741553	e 3
-3.917644	e 4
-3.683561	e 5
-4.022379	e 7
-3.917644	e 8
-3.917644	e 9
-3.450989	e :
-3.401015	e ;
-3.483989	e </s>
-3.917644	e >
-1.885371	e a
-1.612447	e b
-1.688658	e c
-1.411333	e d
-1.174863	e e
-1.976346	e f
-1.348521	e g
-2.020803	e h
-1.487201	e i
-3.034389	e j
-1.808017	e k
-1.066342	e l
-1.555647	e m
-0.6289161	e n
-1.909653	e o
-1.700725	e p
-3.440523	e q
-0.8700356	e r
-1.424884	e s
-1.177507	e t
-1.984591	e u
-1.30866	e v
-1.920133	e w
-3.02238	e x
-1.761658	e z
-3.984591	e »
-3.741553	e é
-3.182959	e ë
-3.519704	e ï
-2.43609	f "
-2.523241	f (
-2.097272	f )
-1.9656	f ,
-2.273363	f -
-2.548064	f .
-2.73712	f 0
-2.380573	f 1
-2.66457	f 2
-2.73712	f 3
-2.73712	f 4
-2.699332	f 5
-2.73712	f 8
-2.699332	f :
-2.73712	f ;
-2.234445	f </s>
-1.466759	f a
-1.769913	f b
-2.210311	f c
-1.102735	f d
-0.861533	f e
-0.956345	f f
-1.444059	f g
-1.749129	f h
-0.9616092	f i
-2.380573	f j
-2.022638	f k
-1.864699	f l
-1.838994	f m
-2.176453	f n
-1.181916	f o
-2.088317	f p
-2.66457	f q
-1.814725	f r
-1.791741	f s
-0.9421889	f t
-2.015085	f u
-1.518442	f v
-1.626225	f w
-2.548064	f y
-1.993183	f z
-2.73712	f â
-2.730459	g "
-3.304491	g '
-1.666834	g (
-1.697036	g )
-1.927306	g ,
-3.061452	g -
-2.207581	g .
-3.342279	g /
-3.269728	g 1
-3.153223	g 2
-3.342279	g 3
-3.304491	g 4
-3.342279	g 5
-3.304491	g 7
-3.269728	g 8
-2.770888	g 9
-2.952308	g :
-2.584331	g ;
-2.878522	g </s>
-1.50515	g a
-2.09587	g b
-3.003461	g c
-1.310687	g d
-0.3119002	g e
-3.104918	g f
-1.838365	g g
-1.858627	g h
-1.297312	g i
-3.342279	g j
-2.538574	g k
-2.138159	g l
-2.087007	g m
-2.176846	g n
-1.537954	g o
-2.750203	g p
-1.555657	g r
-1.471982	g s
-1.570758	g t
-2.204695	g u
-1.050628	g v
-1.977132	g w
-3.304491	g x
-3.304491	g y
-2.104918	g z
-3.207581	g »
-3.304491	g é
-3.043005	h (
-2.669424	h )
-2.938269	h ,
-2.880278	h -
-3.043005	h /
-3.005216	h 1
-3.043005	h 3
-3.043005	h 8
-0.8832736	h a
-2.653034	h b
-2.853949	h d
-0.3690628	h e
-2.829125	h g
-2.783368	h h
-1.441933	h i
-3.005216	h k
-2.783368	h l
-2.72267	h m
-2.067364	h n
-1.064451	h o
-2.938269	h p
-1.473737	h r
-2.880278	h s
-0.7125911	h t
-1.679564	h u
-2.853949	h v
-2.938269	h w
-2.579247	h y
-2.880278	h z
-3.508058	i "
-3.575005	i '
-3.540243	i (
-2.740372	i )
-2.709703	i ,
-3.311764	i .
-2.41614	i 1
-3.000974	i 2
-3.353156	i ;
-3.450066	i </s>
-2.211706	i a
-2.676463	i b
-1.363262	i c
-1.177499	i d
-0.8308424	i e
-1.950036	i f
-1.337587	i g
-3.612793	i h
-2.210141	i i
-0.8585147	i j
-1.272349	i k
-2.100303	i l
-2.277609	i m
-0.5604844	i n
-2.012712	i o
-2.608863	i p
-3.398914	i q
-2.165635	i r
-1.184217	i s
-1.158503	i t
-3.063122	i u
-2.126556	i v
-3.110118	i w
-3.508058	i x
-2.773373	i z
-3.612793	i é
-2.154499	i ë
-3.575005	i ó
-2.793499	j "
-2.793499	j (
-2.530258	j )
-2.571651	j ,
-2.758737	j -
-2.696589	j .
-2.831288	j :
-1.364825	j a
-2.046606	j b
-2.758737	j c
-1.088777	j d
-1.503465	j e
-1.732802	j f
-1.819602	j g
-1.885909	j h
-2.109253	j i
-2.831288	j j
-0.6826292	j k
-1.282731	j l
-2.249431	j m
-0.6394306	j n
-1.908893	j o
-2.156677	j p
-1.943262	j r
-1.464441	j s
-2.249431	j t
-1.591647	j u
-1.388381	j v
-2.270621	j w
-1.1339	j z
-2.831288	j é
-2.946803	k "
-3.051538	k '
-2.837659	k (
-2.946803	k )
-2.273387	k ,
-2.946803	k -
-2.750508	k .
-2.888811	k 1
-2.91684	k 2
-2.946803	k 3
-3.051538	k 4
-3.051538	k 5
-3.051538	k 6
-2.888811	k :
-2.91684	k ;
-2.862482	k </s>
-1.314057	k a
-2.124448	k b
-2.645773	k c
-2.071742	k d
-0.4078166	k e
-2.978988	k f
-1.82109	k g
-1.962597	k h
-1.078411	k i
-2.71272	k j
-1.178588	k k
-1.849893	k l
-2.266856	k m
-2.124448	k n
-1.045267	k o
-2.402735	k p
-1.716354	k r
-1.720019	k s
-1.068445	k t
-1.545156	k u
-1.733096	k v
-1.837659	k w
-3.051538	k y
-2.01375	k z
-3.01375	k é
-2.945744	l "
-3.139564	l '
-3.088412	l (
-3.088412	l )
-2.326651	l ,
-3.001261	l -
-2.671586	l .
-3.302292	l /
-1.634414	l 1
-1.843997	l 2
-2.055882	l 3
-2.279226	l 4
-2.384643	l 5
-2.298361	l 6
-2.384643	l 7
-2.468623	l 8
-2.486352	l 9
-3.139564	l :
-3.088412	l ;
-3.113235	l </s>
-1.062196	l a
-2.343684	l b
-2.42987	l c
-1.0225	l d
-0.7200215	l e
-2.188348	l f
-1.453263	l g
-1.991502	l h
-0.5820571	l i
-3.042654	l j
-1.747087	l k
-1.286779	l l
-2.271802	l m
-2.142287	l n
-1.612902	l o
-2.587809	l p
-3.197556	l q
-3.021465	l r
-1.476806	l s
-1.737303	l t
-1.679983	l u
-1.775483	l v
-2.322495	l w
-2.710216	l y
-2.775482	l z
-3.302292	l á
-3.302292	l â
-2.960724	m "
-3.095423	m '
-2.858062	m (
-2.906367	m )
-2.474058	m ,
-2.775088	m -
-2.794393	m .
-3.095423	m /
-2.881543	m 1
-2.858062	m 2
-2.990688	m 3
-3.022872	m :
-3.022872	m ;
-3.057634	m </s>
-0.8935295	m a
-1.775088	m b
-2.932696	m c
-1.53912	m d
-0.5006288	m e
-3.022872	m f
-2.524032	m g
-2.091493	m h
-0.7441187	m i
-2.689658	m k
-2.932696	m l
-1.07049	m m
-2.631666	m n
-1.129068	m o
-2.009711	m p
-2.455575	m r
-1.394091	m s
-1.978453	m t
-1.677423	m u
-1.760239	m v
-2.373388	m w
-2.932696	m y
-2.605337	m z
-3.057634	m é
-3.095423	m ó
-2.938191	n "
-3.597394	n '
-2.58667	n (
-3.120272	n )
-3.722332	n +
-1.719806	n ,
-2.969005	n -
-1.87363	n .
-2.893028	n /
-3.459091	n 0
-2.415907	n 1
-2.403574	n 2
-2.903886	n 3
-3.120272	n 4
-3.102543	n 5
-3.002173	n 6
-2.68757	n 7
-2.740816	n 8
-2.513712	n 9
-2.690924	n :
-2.212682	n ;
-2.737056	n </s>
-1.238745	n a
-1.608946	n b
-2.037337	n c
-0.6923401	n d
-1.188836	n e
-2.346669	n f
-0.8566855	n g
-1.527125	n h
-1.217861	n i
-2.932282	n j
-1.848721	n k
-2.044877	n l
-1.765284	n m
-1.652602	n n
-1.392088	n o
-2.134995	n p
-3.546241	n q
-1.77785	n r
-1.341518	n s
-1.260934	n t
-2.151206	n u
-1.20163	n v
-1.679298	n w
-3.655385	n x
-3.760121	n y
-1.85408	n z
-3.625422	n »
-3.655385	n â
-3.760121	n è
-3.168045	n é
-3.760121	n β
-3.346194	o "
-2.764984	o '
-3.508921	o (
-3.319865	o )
-3.374223	o ,
-2.809951	o -
-3.508921	o 2
-3.508921	o ;
-3.508921	o </s>
-2.675253	o a
-2.463954	o b
-1.910828	o c
-1.469687	o d
-0.9050882	o e
-1.351657	o f
-1.718444	o g
-3.073193	o h
-2.860118	o i
-3.228095	o j
-1.955921	o k
-1.385664	o l
-1.099757	o m
-1.037096	o n
-0.906664	o o
-1.103156	o p
-0.6626967	o r
-2.148913	o s
-1.571221	o t
-1.748225	o u
-1.382997	o v
-3.018835	o w
-2.927065	o x
-3.508921	o y
-3.170103	o z
-3.249284	o ë
-2.794439	o ö
-2.730827	p "
-2.68507	p (
-2.906918	p )
-1.872156	p ,
-2.624372	p -
-2.467586	p .
-2.332887	p 1
-2.66388	p 2
-2.454621	p 3
-2.906918	p 4
-2.78198	p :
-2.68507	p ;
-2.810008	p </s>
-0.7691424	p a
-1.914218	p b
-2.48095	p c
-1.270932	p d
-0.7510765	p e
-2.839972	p f
-1.454621	p g
-1.506093	p h
-1.567798	p i
-2.237912	p j
-2.395035	p k
-1.232517	p l
-2.323342	p m
-2.278529	p n
-1.674346	p o
-1.320519	p p
-0.8137887	p r
-1.728421	p s
-1.755651	p t
-1.531255	p u
-1.478244	p v
-2.245737	p w
-2.872156	p y
-2.134841	p z
-2.906918	p ê
-1.743734	q '
-1.848469	q )
-1.810681	q .
-0.9404717	q u
-3.044472	r "
-3.126143	r (
-3.384421	r )
-2.427173	r ,
-3.070027	r -
-1.869209	r .
-3.474597	r /
-3.547148	r 0
-2.412449	r 1
-2.925783	r 2
-3.226813	r 3
-3.547148	r 5
-3.509359	r 6
-2.696446	r :
-3.126143	r ;
-3.266321	r </s>
-1.203829	r a
-1.665297	r b
-2.384421	r c
-0.8003722	r d
-0.8041373	r e
-2.713479	r f
-1.62712	r g
-1.733021	r h
-1.006705	r i
-2.935328	r j
-1.402432	r k
-1.755394	r l
-1.507554	r m
-1.901904	r n
-1.02175	r o
-2.019167	r p
-3.474597	r q
-2.055786	r r
-1.410716	r s
-1.179792	r t
-1.745931	r u
-1.455321	r v
-1.605366	r w
-3.309787	r y
-1.768997	r z
-3.412449	r »
-3.509359	r å
-3.412449	r é
-3.547148	r ó
-2.955547	s "
-2.791691	s (
-2.767557	s )
-1.995315	s ,
-2.628189	s -
-2.231955	s .
-3.256577	s /
-3.221815	s 0
-3.189631	s 2
-3.294366	s 5
-3.256577	s 7
-3.294366	s 8
-2.904395	s :
-2.611483	s ;
-2.80428	s </s>
-1.597771	s a
-1.705331	s b
-0.9890146	s c
-1.570836	s d
-1.082178	s e
-2.603365	s f
-1.78309	s g
-2.286541	s h
-1.14683	s i
-2.993336	s j
-2.215185	s k
-1.565643	s l
-1.623951	s m
-2.189631	s n
-1.483279	s o
-1.556162	s p
-2.208654	s r
-1.137652	s s
-0.4955899	s t
-1.912513	s u
-1.317474	s v
-2.090246	s w
-2.228549	s y
-2.40634	s z
-3.189631	s é
-3.030578	t "
-3.557387	t '
-2.7926	t (
-2.965311	t )
-1.943641	t ,
-2.75993	t -
-2.151622	t .
-3.39466	t /
-3.557387	t 0
-2.64939	t 1
-3.054712	t 2
-3.080266	t 3
-3.218568	t 4
-3.39466	t 5
-3.39466	t 6
-3.519598	t 7
-3.484836	t 8
-3.368331	t 9
-2.766271	t :
-2.416936	t ;
-3.121658	t </s>
-1.125001	t a
-1.736052	t b
-2.244671	t c
-1.351052	t d
-0.5976086	t e
-2.753681	t f
-1.457016	t g
-1.717966	t h
-0.8306597	t i
-3.067301	t j
-2.252427	t k
-1.671923	t l
-2.024748	t m
-2.015581	t n
-1.059829	t o
-2.127488	t p
-3.557387	t q
-1.244863	t r
-1.514561	t s
-1.628898	t t
-1.626577	t u
-1.330202	t v
-1.727207	t w
-2.882776	t y
-2.099092	t z
-3.557387	t å
-3.519598	t è
-2.21139	t é
-2.848663	u (
-2.921213	u )
-2.600878	u ,
-2.758486	u .
-2.921213	u 2
-2.883425	u ;
-1.616253	u a
-1.72456	u b
-1.297964	u c
-1.328129	u d
-1.722057	u e
-2.921213	u f
-2.087545	u g
-2.848663	u h
-0.6514882	u i
-1.316202	u k
-1.39794	u l
-1.355151	u m
-0.892938	u n
-2.431127	u o
-2.564666	u p
-0.892938	u r
-1.561206	u s
-1.20979	u t
-1.569909	u u
-2.222243	u v
-1.494259	u w
-2.883425	u x
-2.485485	u z
-2.848663	u ê
-3.279553	v "
-3.317341	v (
-3.079981	v )
-2.911576	v ,
-3.279553	v -
-3.279553	v .
-3.317341	v ;
-3.244791	v </s>
-0.4054578	v a
-3.079981	v b
-3.279553	v c
-3.244791	v d
-0.4958875	v e
-1.47168	v i
-2.244791	v l
-3.317341	v m
-0.6987229	v o
-1.995122	v r
-3.317341	v s
-2.272374	v u
-3.154614	v v
-3.279553	v w
-3.317341	v z
-3.317341	v é
-2.507476	v ó
-2.739024	w "
-2.739024	w (
-2.739024	w )
-2.622519	w ,
-2.70684	w -
-2.811575	w ;
-0.7464368	w a
-2.240184	w b
-2.811575	w c
-2.472756	w d
-0.5549884	w e
-2.648848	w g
-2.648848	w h
-0.8967993	w i
-2.739024	w j
-2.574214	w k
-2.574214	w m
-2.676877	w n
-0.524792	w o
-2.199755	w p
-2.530748	w s
-2.597695	w t
-2.676877	w u
-2.622519	w v
-2.739024	w w
-2.811575	w y
-2.648848	w z
-1.771832	x ,
-1.906531	x -
-1.906531	x 1
-1.470802	x a
-1.906531	x b
-1.771832	x c
-1.646894	x e
-1.906531	x g
-0.9611519	x i
-1.223648	x p
-1.470802	x t
-1.906531	x v
-1.868742	x y
-1.939065	y -
-1.750009	y a
-1.725185	y c
-1.83433	y d
-1.939065	y f
-1.725185	y g
-1.939065	y h
-1.939065	y i
-1.61873	y l
-1.5333	y m
-1.866515	y n
-1.679428	y o
-1.281488	y p
-1.679428	y r
-0.8220954	y s
-1.804367	y t
-1.939065	y w
-1.939065	y z
-2.743937	z )
-2.706149	z .
-1.124464	z a
-0.54553	z e
-2.743937	z g
-0.4310293	z i
-0.8315701	z o
-1.922007	z u
-2.241262	z w
-2.671386	z y
-1.818945	» -
-1.781157	» 2
-1.818945	» 6
-1.581584	» a
-1.818945	» b
-1.781157	» c
-1.746395	» e
-1.818945	» g
-1.781157	» h
-1.781157	» o
-1.818945	» r
-1.746395	» s
-1.684247	» t
-1.781157	» v
-1.798085	á d
-1.638489	â -
-1.798085	ã o
-1.761552	å l
-1.799341	å r
-1.798085	ç ã
-1.761552	è r
-1.799341	è v
-1.852886	é "
-1.949796	é '
-1.551856	é (
-1.597614	é ,
-1.987585	é -
-1.773705	é .
-1.915034	é </s>
-1.88285	é a
-1.686555	é b
-1.987585	é c
-1.727948	é d
-1.686555	é e
-1.987585	é g
-1.915034	é h
-1.798529	é i
-1.949796	é k
-1.949796	é m
-1.1099	é n
-1.88285	é o
-1.915034	é p
-1.987585	é r
-1.551856	é s
-1.915034	é t
-1.949796	é u
-1.084495	é v
-1.686555	é w
-1.915034	é z
-1.125888	é é
-1.762804	ê c
-1.728041	ê t
-1.990823	ë "
-1.801767	ë ,
-1.953034	ë :
-1.990823	ë </s>
-1.828096	ë e
-1.731186	ë f
-1.918272	ë g
-1.670488	ë i
-1.990823	ë j
-0.7247196	ë l
-0.9149444	ë n
-1.990823	ë o
-1.670488	ë r
-1.856124	ë t
-1.990823	ë u
-1.828096	ë v
-1.953034	ë x
-1.990823	ë z
-1.798085	í e
-1.652004	ï d
-1.776943	ï m
-1.494397	ï n
-1.625676	ï s
-1.870297	ó m
-1.832509	ó n
-1.060432	ó r
-1.870297	ó s
-1.060432	ó ó
-1.788286	ö p
-1.20471	ö r
-1.588714	ö t
-1.798085	β -

\end\
