
\data\
ngram 1=90
ngram 2=2260

\1-grams:
-2.940382	"	0.520174
-3.779231	%	0.4924553
-2.807492	(	0.3414468
-2.513942	)	0.5299152
-4.665288	*	-0.006047366
-4.70005	+	-0.008298056
-2.012744	,	-0.1451849
-3.161183	-	0.7230867
-2.066329	.	-0.03689802
-2.590584	/	-0.2315375
-2.673381	0	0.2505012
-2.319839	1	0.01886483
-2.432878	2	0.1306815
-2.665956	3	0.1334991
-2.810748	4	0.2845221
-2.884915	5	0.4107833
-2.82019	6	0.3376026
-2.847265	7	0.05730236
-2.834749	8	0.07840516
-2.552116	9	0.08969644
-2.99319	:	0.1428792
-2.811683	;	0.3864936
-2.164545	</s>
-99	<s>	-0.03831885
-3.130871	[	-0.2155001
-3.130871	]	0.1116361
-1.120562	a	-0.9339884
-2.013265	b	0.5476062
-1.414212	c	-0.311544
-1.464164	d	0.03946706
-1.133151	e	-0.4910643
-2.612505	f	0.09382016
-1.855055	g	-0.06090007
-1.952638	h	0.5816835
-1.142162	i	-0.7226697
-1.650283	j	-0.2249175
-1.512976	k	-0.005902538
-1.769356	l	-0.3933068
-1.700557	m	0.2693974
-1.212487	n	-0.392883
-1.122147	o	-0.9147721
-1.51267	p	-0.4897933
-4.548782	q	-0.0001772649
-1.326418	r	0.1772427
-1.419339	s	-0.1642826
-1.408866	t	0.05081641
-1.574433	u	-0.4948407
-3.5889	v	0.3833432
-1.297703	w	-0.146322
-4.274081	x	0.1237285
-1.443212	y	-0.2894462
-1.263132	z	-0.1701463
-4.70005	ä	0.009376214
-4.633103	å	0.0475346
-4.737839	ç	-0.005387089
-4.70005	è	0.01509825
-4.548782	é	0.1165449
-4.70005	ê	0.01118166
-2.053891	ó	-0.6499181
-4.737839	ü	0.0155854
-4.737839	ă	0.0286904
-1.885747	ą	-0.1637874
-2.543703	ć	0.3378425
-2.145864	ę	0.05242937
-1.990074	ł	0.1191713
-2.576743	ń	0.2520438
-2.231457	ś	-0.5274213
-3.434839	ź	0.1597776
-2.231211	ż	0.2878829
-4.737839	ά	-0.005385645
-4.737839	α	-0.005386367
-4.737839	γ	-0.005387089
-4.665288	δ	-0.01632557
-4.70005	ε	-0.009504898
-4.737839	η	-0.005385645
-4.70005	ι	-0.01082683
-4.70005	λ	-0.010829
-4.70005	μ	-0.010829
-4.70005	ν	-0.01082827
-4.633103	ο	-0.02188176
-4.665288	ρ	-0.01632629
-4.70005	ς	0.02337964
-4.665288	σ	-0.01632701
-4.737839	ω	-0.005386367
-4.70005	ό	-0.01082827
-4.126019	–	0.1405075
-4.381291	—	0.1411354
-4.70005	’	0.02338277
-4.737839	…	-0.002411503
-4.633103	≤	-0.01440771

\2-grams:
-2.154507	" "
-2.116718	" (
-1.853477	" )
-1.59384	" ,
-1.533142	" .
-1.780926	" 1
-1.87368	" 2
-1.834172	" 3
-2.154507	" 4
-2.116718	" 5
-2.081956	" 6
-2.154507	" 7
-2.116718	" 9
-1.99178	" :
-1.24651	" ;
-1.396559	" </s>
-1.523802	" a
-1.815688	" b
-1.99178	" c
-1.764536	" d
-1.99178	" e
-2.116718	" f
-2.116718	" g
-2.116718	" h
-1.79796	" i
-1.99178	" j
-1.718778	" k
-1.815688	" l
-1.965451	" m
-1.651832	" n
-1.276822	" o
-1.533142	" p
-1.87368	" r
-1.733502	" s
-1.853477	" t
-1.917146	" u
-2.154507	" v
-1.562431	" w
-1.523802	" z
-2.116718	" ś
-2.116718	" ż
-2.049772	" —
-1.912045	% "
-1.949833	% )
-1.629498	% ,
-1.735954	% .
-1.949833	% :
-1.815135	% ;
-1.949833	% </s>
-1.949833	% a
-1.949833	% b
-1.949833	% c
-1.949833	% e
-1.949833	% g
-1.845098	% i
-1.815135	% j
-1.845098	% k
-1.912045	% l
-1.877283	% m
-1.877283	% n
-1.815135	% o
-1.787106	% p
-1.912045	% r
-1.787106	% s
-1.949833	% u
-1.735954	% w
-1.815135	% z
-2.113227	( "
-2.217962	( %
-2.004082	( -
-2.217962	( 0
-1.221928	( 1
-1.446442	( 2
-1.703052	( 3
-1.754205	( 4
-1.703052	( 5
-1.754205	( 6
-1.844382	( 7
-1.827991	( 8
-1.740841	( 9
-2.113227	( a
-1.980601	( b
-1.782234	( c
-2.113227	( d
-0.8773379	( e
-2.055235	( f
-2.217962	( h
-2.028906	( i
-2.145411	( j
-2.028906	( k
-2.113227	( l
-2.113227	( m
-1.879144	( n
-2.113227	( o
-1.844382	( p
-2.028906	( r
-1.980601	( s
-1.740841	( t
-2.113227	( u
-2.180174	( v
-0.9208984	( w
-1.844382	( z
-2.180174	( ł
-2.217962	( ś
-2.217962	( ο
-1.571565	) "
-2.320945	) (
-2.393495	) )
-1.331084	) ,
-2.28876	) -
-1.822104	) .
-2.179615	) 1
-2.320945	) 2
-2.393495	) 4
-2.355707	) :
-1.822104	) ;
-1.822104	) </s>
-2.179615	) [
-1.781676	) a
-1.943526	) b
-2.036948	) c
-1.38181	) d
-2.258797	) e
-2.179615	) f
-2.179615	) g
-2.393495	) h
-1.559827	) i
-1.943526	) j
-1.679013	) k
-2.092465	) l
-2.054677	) m
-0.7298802	) n
-1.495369	) o
-1.261702	) p
-1.727318	) r
-1.571565	) s
-1.89082	) t
-1.77213	) u
-1.106508	) w
-2.355707	) y
-1.548397	) z
-2.393495	) ł
-1.957767	) ś
-2.393495	) ż
-2.393495	) –
-2.393495	) —
-1.836908	* ]
-1.908972	+ 2
-1.908972	+ 3
-2.429494	, "
-2.786041	, (
-2.748253	, -
-2.505215	, 0
-2.572161	, 1
-2.39607	, 2
-2.572161	, 3
-2.572161	, 4
-2.572161	, 5
-2.572161	, 6
-2.526404	, 7
-2.485011	, 8
-2.380276	, 9
-1.084709	, </s>
-1.394465	, a
-1.863646	, b
-1.526404	, c
-1.594438	, d
-2.236369	, e
-2.322284	, f
-1.810401	, g
-2.623314	, h
-1.684419	, i
-1.415814	, j
-1.017874	, k
-1.836208	, l
-1.710163	, m
-1.397682	, n
-1.139905	, o
-1.122426	, p
-2.035042	, r
-1.61259	, s
-1.935339	, t
-1.759248	, u
-2.596985	, v
-0.9287087	, w
-2.786041	, x
-1.187947	, z
-2.465706	, ł
-2.322284	, ś
-1.445417	, ż
-1.881821	- "
-2.070877	- 0
-1.833516	- 1
-2.033088	- 2
-2.070877	- 3
-1.998326	- 4
-1.998326	- 5
-1.998326	- 6
-1.998326	- 7
-2.070877	- 9
-1.833516	- a
-1.81124	- b
-2.033088	- c
-1.649872	- d
-1.856997	- e
-1.966142	- f
-1.966142	- g
-1.966142	- h
-1.680906	- i
-1.81124	- j
-1.568202	- k
-1.998326	- l
-1.790051	- m
-1.680906	- n
-1.665112	- o
-1.440172	- p
-1.48902	- r
-1.364082	- s
-1.81124	- t
-1.856997	- u
-1.364082	- w
-2.070877	- y
-1.60712	- z
-2.033088	- ó
-1.998326	- ś
-1.998326	- ż
-2.070877	- ο
-1.798981	. "
-2.73986	. (
-2.502499	. )
-2.003101	. ,
-2.667309	. .
-2.635124	. 0
-0.9643487	. 1
-1.161116	. 2
-1.467385	. 3
-1.674043	. 4
-1.81277	. 5
-1.798981	. 6
-1.929994	. 7
-1.92392	. 8
-2.003101	. 9
-2.73986	. :
-2.52598	. ;
-0.5979828	. </s>
-2.635124	. [
-1.674043	. a
-1.82701	. b
-2.003101	. c
-1.641374	. d
-2.318855	. e
-2.480223	. f
-2.276103	. g
-2.702071	. h
-2.082283	. i
-1.803529	. j
-1.654148	. k
-2.383313	. l
-2.091057	. m
-1.798981	. n
-1.889158	. o
-1.346684	. p
-2.73986	. q
-2.201469	. r
-1.995923	. s
-2.22495	. t
-1.968339	. u
-1.229803	. w
-2.635124	. x
-1.822211	. z
-2.635124	. ł
-2.349889	. ś
-2.73986	. ź
-2.73986	. ż
-1.351109	/ 1
-1.305351	/ 2
-1.539435	/ 3
-1.277323	/ 4
-1.592141	/ 5
-1.267261	/ 6
-1.406809	/ 7
-1.384533	/ 8
-1.03235	/ 9
-2.34314	/ a
-2.270589	/ b
-2.305351	/ c
-2.34314	/ d
-0.8024693	/ e
-2.305351	/ h
-2.305351	/ i
-1.578353	/ l
-2.238405	/ n
-2.34314	/ p
-2.34314	/ u
-1.202689	/ w
-2.292256	0 "
-1.593286	0 %
-2.187521	0 (
-1.918675	0 )
-1.70018	0 ,
-2.292256	0 -
-1.902285	0 .
-1.059491	0 /
-0.7607772	0 0
-1.447158	0 1
-1.355925	0 2
-1.593286	0 3
-1.886491	0 4
-1.991226	0 5
-1.918675	0 6
-1.789581	0 7
-1.871251	0 8
-1.871251	0 9
-2.254467	0 ;
-1.690196	0 </s>
-1.991226	0 [
-2.054895	0 ]
-2.078376	0 a
-2.254467	0 b
-1.886491	0 c
-1.935709	0 d
-2.054895	0 e
-2.292256	0 f
-2.054895	0 g
-2.219705	0 h
-2.187521	0 i
-2.054895	0 k
-2.129529	0 l
-2.01143	0 m
-2.157557	0 n
-2.129529	0 o
-1.953438	0 p
-1.585461	0 r
-2.157557	0 s
-2.078376	0 t
-1.670891	0 u
-1.886491	0 w
-2.032619	0 z
-2.292256	0 –
-2.533795	1 "
-2.496006	1 %
-2.296434	1 (
-1.661374	1 )
-1.549882	1 ,
-2.399096	1 -
-1.135855	1 .
-1.393344	1 /
-1.322335	1 0
-1.402002	1 1
-1.441649	1 2
-1.488828	1 3
-1.474817	1 4
-1.454614	1 5
-1.597464	1 6
-1.566588	1 7
-1.640689	1 8
-0.9068019	1 9
-2.344739	1 :
-2.21346	1 ;
-1.583962	1 </s>
-2.319915	1 [
-1.562351	1 ]
-2.232765	1 a
-2.42906	1 c
-2.006986	1 d
-2.533795	1 e
-2.043709	1 g
-1.842794	1 i
-2.42906	1 j
-2.371068	1 k
-1.499641	1 l
-2.043709	1 m
-2.296434	1 n
-2.070038	1 o
-2.006986	1 p
-1.694374	1 r
-1.717855	1 s
-2.018885	1 t
-1.635669	1 u
-2.177248	1 w
-2.177248	1 z
-2.496006	1 –
-2.449969	2 "
-2.31527	2 %
-2.377418	2 (
-1.561943	2 )
-1.482762	2 ,
-2.345234	2 -
-1.031969	2 .
-1.205804	2 /
-0.9314551	2 0
-1.678448	2 1
-1.491362	2 2
-1.582877	2 3
-1.50909	2 4
-1.582877	2 5
-1.6163	2 6
-1.783792	2 7
-1.69897	2 8
-1.599267	2 9
-2.41218	2 :
-2.169142	2 ;
-1.423176	2 </s>
-2.236089	2 [
-1.48704	2 ]
-2.111151	2 a
-2.41218	2 b
-2.31527	2 c
-1.935059	2 d
-2.449969	2 e
-2.31527	2 g
-1.878578	2 i
-2.41218	2 j
-2.41218	2 k
-1.758968	2 l
-2.148939	2 m
-2.190332	2 n
-2.028964	2 o
-1.972848	2 p
-1.62213	2 r
-2.111151	2 s
-1.986212	2 t
-1.604871	2 u
-2.093422	2 w
-2.028964	2 z
-2.449969	2 –
-2.296665	3 "
-2.19193	3 %
-1.552728	3 )
-1.567206	3 ,
-2.224114	3 -
-1.105062	3 .
-1.159081	3 /
-1.462997	3 0
-1.440431	3 1
-1.605664	3 2
-1.758274	3 3
-1.846696	3 4
-1.79399	3 5
-1.499209	3 6
-1.639088	3 7
-1.79399	3 8
-1.694605	3 9
-2.258877	3 :
-2.133938	3 ;
-1.408639	3 </s>
-2.059304	3 [
-1.445963	3 ]
-2.161967	3 a
-2.258877	3 b
-2.296665	3 c
-1.781755	3 d
-2.296665	3 e
-2.19193	3 g
-1.725274	3 i
-1.714809	3 l
-2.082785	3 m
-2.133938	3 n
-1.923084	3 o
-2.082785	3 p
-1.468826	3 r
-2.107609	3 s
-2.015839	3 t
-1.486799	3 u
-2.082785	3 w
-1.995635	3 z
-2.161967	3 –
-2.143735	4 "
-2.178497	4 %
-2.178497	4 (
-1.533403	4 )
-1.525285	4 ,
-2.178497	4 -
-1.284551	4 .
-1.143735	4 /
-1.644895	4 0
-1.634429	4 1
-1.501804	4 2
-1.62421	4 3
-1.895951	4 4
-1.877467	4 5
-1.677895	4 6
-1.877467	4 7
-1.62421	4 8
-1.533403	4 9
-2.111551	4 ;
-1.418829	4 </s>
-2.02723	4 [
-1.465287	4 ]
-2.111551	4 a
-2.111551	4 c
-1.877467	4 d
-2.216286	4 e
-2.002406	4 g
-1.842705	4 i
-2.02723	4 k
-1.766317	4 l
-2.081587	4 m
-2.081587	4 n
-1.978925	4 o
-2.02723	4 p
-1.634429	4 r
-2.081587	4 s
-2.178497	4 t
-1.517316	4 u
-1.877467	4 w
-1.935459	4 z
-2.179761	5 "
-1.702639	5 %
-1.443002	5 )
-1.664851	5 ,
-1.435823	5 .
-1.248025	5 /
-1.597904	5 0
-1.716003	5 1
-1.664851	5 2
-1.758755	5 3
-1.64137	5 4
-1.898934	5 5
-1.689674	5 6
-1.823213	5 7
-1.716003	5 8
-1.920123	5 9
-2.179761	5 :
-2.045062	5 ;
-1.513583	5 </s>
-1.840942	5 [
-1.513583	5 ]
-2.075025	5 a
-2.179761	5 b
-2.045062	5 c
-1.9424	5 d
-2.141972	5 e
-2.045062	5 g
-1.729792	5 i
-2.179761	5 j
-2.045062	5 k
-1.664851	5 l
-1.965881	5 m
-2.179761	5 n
-1.965881	5 o
-2.045062	5 p
-1.530957	5 r
-1.965881	5 s
-1.990704	5 t
-1.50515	5 u
-1.840942	5 w
-1.80618	5 z
-2.179761	5 –
-2.21146	6 "
-2.106725	6 %
-2.21146	6 (
-1.684651	6 )
-1.553883	6 ,
-2.21146	6 -
-1.53685	6 .
-0.9975805	6 /
-1.496978	6 0
-1.805695	6 1
-1.496978	6 2
-1.805695	6 3
-1.708785	6 4
-1.805695	6 5
-1.474702	6 6
-1.553883	6 7
-1.43994	6 8
-1.790455	6 9
-2.106725	6 ;
-1.520459	6 </s>
-1.974099	6 [
-1.629604	6 ]
-2.13891	6 a
-1.974099	6 c
-1.805695	6 d
-2.21146	6 e
-2.022404	6 g
-1.951823	6 i
-2.21146	6 j
-2.21146	6 k
-1.974099	6 l
-2.048733	6 m
-2.076762	6 n
-2.106725	6 o
-2.076762	6 p
-1.528577	6 r
-2.106725	6 s
-2.13891	6 t
-1.553883	6 u
-2.022404	6 w
-1.997581	6 z
-2.13891	6 –
-2.21146	6 —
-2.197907	7 "
-2.160118	7 %
-2.160118	7 (
-1.682997	7 )
-1.762178	7 ,
-2.197907	7 -
-1.807936	7 .
-1.122028	7 /
-1.515024	7 0
-1.659516	7 1
-1.558058	7 2
-1.586087	7 3
-1.707821	7 4
-1.515024	7 5
-1.531729	7 6
-1.468447	7 7
-1.40045	7 8
-1.626516	7 9
-2.093171	7 ;
-1.567202	7 </s>
-1.859088	7 [
-1.792141	7 ]
-2.160118	7 a
-2.197907	7 b
-2.03518	7 c
-1.91708	7 d
-1.960546	7 g
-1.91708	7 i
-2.160118	7 k
-1.91708	7 l
-1.984027	7 m
-2.197907	7 n
-2.008851	7 o
-2.03518	7 p
-1.515024	7 r
-2.03518	7 t
-1.506906	7 u
-1.960546	7 w
-1.896877	7 z
-2.197907	7 –
-2.197907	7 —
-2.20412	8 %
-2.20412	8 (
-1.622263	8 )
-1.814149	8 ,
-1.60206	8 .
-1.002475	8 /
-1.68921	8 0
-1.489638	8 1
-1.726999	8 2
-1.68921	8 3
-1.768391	8 4
-1.537943	8 5
-1.513119	8 6
-1.419438	8 7
-1.555317	8 8
-1.38219	8 9
-2.069421	8 ;
-1.582755	8 </s>
-1.923293	8 [
-1.865301	8 ]
-2.041393	8 a
-1.99024	8 c
-2.041393	8 d
-1.923293	8 g
-1.944483	8 i
-2.041393	8 l
-1.99024	8 m
-2.166332	8 n
-2.069421	8 o
-2.131569	8 p
-1.5923	8 r
-2.131569	8 s
-2.069421	8 t
-1.564271	8 u
-1.944483	8 w
-1.944483	8 z
-2.166332	8 –
-2.368033	9 %
-1.877947	9 )
-1.918064	9 ,
-1.904276	9 .
-1.181539	9 /
-1.396589	9 0
-1.380042	9 1
-1.364103	9 2
-1.368033	9 3
-1.522935	9 4
-1.540194	9 5
-1.371999	9 6
-1.380042	9 7
-1.23624	9 8
-0.8459448	9 9
-2.368033	9 :
-2.295483	9 ;
-1.829642	9 </s>
-2.178977	9 [
-2.029215	9 ]
-2.368033	9 a
-2.263298	9 b
-2.178977	9 c
-2.205306	9 d
-2.295483	9 e
-2.205306	9 g
-2.330245	9 h
-1.962268	9 i
-2.295483	9 k
-2.130672	9 l
-2.154153	9 m
-2.295483	9 n
-2.330245	9 o
-2.067003	9 p
-1.653551	9 r
-2.330245	9 s
-1.756213	9 u
-2.233335	9 w
-2.108396	9 z
-2.368033	9 ż
-1.696356	: "
-2.094296	: (
-1.969358	: -
-2.02735	: 1
-2.094296	: 7
-2.132085	: 9
-0.4823962	: </s>
-1.793266	: a
-2.132085	: c
-1.997386	: d
-2.132085	: e
-2.059534	: g
-2.132085	: h
-2.059534	: j
-2.02735	: k
-2.132085	: l
-2.094296	: m
-2.094296	: n
-1.943029	: p
-2.132085	: q
-1.918205	: r
-1.969358	: s
-2.059534	: t
-2.132085	: u
-1.793266	: w
-2.02735	: z
-2.094296	: ś
-2.132085	: —
-2.132085	: …
-2.11107	; "
-2.215806	; )
-2.215806	; ,
-2.143255	; .
-2.215806	; 8
-2.215806	; ;
-0.4402946	; </s>
-1.978445	; a
-2.178017	; b
-2.215806	; c
-1.914776	; d
-2.143255	; e
-1.934979	; i
-2.001926	; j
-1.81004	; k
-1.895471	; l
-1.978445	; m
-1.752048	; n
-1.594441	; o
-1.780077	; p
-2.001926	; r
-2.178017	; s
-1.934979	; t
-2.178017	; u
-1.464807	; w
-1.7948	; z
-2.178017	; ś
-2.215806	; ż
-1.669412	<s> "
-1.208838	<s> (
-2.657403	<s> ,
-1.233413	<s> -
-1.297396	<s> 1
-1.302597	<s> 2
-1.502897	<s> 3
-1.779718	<s> 4
-1.942921	<s> 5
-2.180282	<s> 6
-2.251638	<s> 7
-2.397766	<s> 8
-2.420043	<s> 9
-0.8463163	<s> a
-1.558917	<s> b
-1.657404	<s> c
-1.558917	<s> d
-2.096736	<s> e
-2.096736	<s> f
-2.267432	<s> g
-2.397766	<s> h
-1.847538	<s> i
-1.806702	<s> j
-1.665372	<s> k
-2.552668	<s> l
-2.397766	<s> m
-1.489281	<s> n
-1.942921	<s> o
-1.272285	<s> p
-1.754314	<s> r
-2.0086	<s> s
-2.221675	<s> t
-1.243951	<s> u
-2.584853	<s> v
-1.408762	<s> w
-1.500139	<s> z
-2.167317	<s> ś
-2.552668	<s> ż
-2.584853	<s> —
-2.008272	[ *
-0.9729968	[ 1
-1.09691	[ 2
-1.230121	[ 3
-1.366341	[ 4
-1.488747	[ 5
-1.554014	[ 6
-1.742005	[ 7
-1.843462	[ 8
-1.891767	[ 9
-2.080823	] (
-0.6583229	] ,
-1.440975	] .
-1.554014	] ;
-1.918096	] d
-1.821186	] i
-2.080823	] k
-2.080823	] l
-2.008272	] m
-1.891767	] n
-1.690852	] o
-1.946125	] p
-2.008272	] r
-1.918096	] s
-1.866943	] u
-1.779793	] w
-1.843462	] z
-2.934583	a "
-2.421464	a (
-2.305248	a )
-1.890275	a ,
-3.520848	a -
-2.365946	a .
-3.587795	a /
-3.587795	a 0
-2.025502	a 1
-2.342694	a 2
-3.004219	a 3
-3.462856	a 4
-3.305248	a 5
-3.365946	a 6
-3.286765	a 7
-3.365946	a 8
-3.252003	a 9
-3.219818	a :
-2.666976	a ;
-3.110674	a </s>
-3.344757	a [
-2.637593	a a
-2.048928	a b
-1.138317	a c
-1.119941	a d
-2.649943	a e
-2.553033	a f
-1.982131	a g
-2.959406	a h
-1.965408	a i
-1.265576	a j
-1.279943	a k
-1.419249	a l
-1.497008	a m
-0.819774	a n
-1.968006	a o
-1.450283	a p
-1.063615	a r
-1.384128	a s
-1.338597	a t
-2.044762	a u
-3.252003	a v
-1.202487	a w
-3.520848	a x
-1.394903	a z
-3.625584	a ç
-1.888102	a ć
-1.514688	a ł
-1.591065	a ń
-2.077027	a ś
-2.774882	a ź
-1.824367	a ż
-3.625584	a –
-2.525951	b "
-2.7478	b (
-1.55052	b )
-1.95192	b ,
-2.785589	b -
-2.622861	b .
-2.65089	b 1
-2.7478	b 2
-2.7478	b 3
-2.7478	b 4
-2.713038	b 5
-2.785589	b 8
-2.785589	b :
-2.713038	b ;
-2.193513	b </s>
-1.307153	b a
-2.395617	b b
-1.934887	b c
-2.154883	b d
-1.10107	b e
-2.465254	b f
-2.270679	b g
-2.596532	b h
-1.005468	b i
-1.612137	b j
-1.648004	b k
-1.367589	b l
-2.44677	b m
-1.601672	b n
-1.10765	b o
-1.586432	b p
-1.2206	b r
-1.324554	b s
-2.154883	b t
-1.583943	b u
-1.64229	b w
-0.9001246	b y
-1.70313	b z
-2.04883	b ó
-2.128011	b ą
-1.357159	b ę
-2.44677	b ł
-2.282913	b ś
-2.713038	b ż
-3.339813	c "
-3.177085	c (
-2.202228	c )
-2.904084	c ,
-3.125933	c .
-3.339813	c 1
-3.339813	c 3
-3.339813	c 9
-3.205114	c :
-3.267262	c ;
-1.672784	c a
-3.205114	c b
-3.205114	c c
-2.673635	c d
-1.044345	c e
-3.302024	c f
-3.302024	c g
-0.5765889	c h
-0.9493593	c i
-1.07115	c j
-2.581865	c k
-3.205114	c l
-2.966232	c m
-2.086739	c n
-1.656111	c o
-2.467391	c p
-2.568292	c r
-3.038783	c s
-2.078009	c t
-2.158489	c u
-2.494715	c w
-1.114738	c y
-0.6171787	c z
-3.339813	c é
-2.617777	c ó
-2.254101	c ą
-2.918807	c ę
-3.205114	c ł
-3.077913	d "
-3.254004	d (
-2.414107	d )
-2.952974	d ,
-3.157094	d .
-3.291793	d /
-3.291793	d 0
-3.157094	d 1
-3.219242	d 2
-3.291793	d 3
-3.254004	d :
-3.254004	d ;
-3.291793	d </s>
-1.05079	d a
-2.651944	d b
-2.142853	d c
-2.077913	d d
-1.353182	d e
-3.291793	d f
-3.054432	d g
-3.129065	d h
-2.33755	d i
-2.264999	d j
-1.424164	d k
-1.56013	d l
-1.908304	d m
-0.8657251	d n
-0.7911071	d o
-1.766159	d p
-1.774477	d r
-1.520941	d s
-2.469862	d t
-1.19017	d u
-3.291793	d v
-1.945795	d w
-1.10943	d y
-0.7486278	d z
-3.291793	d é
-2.137285	d ó
-2.212611	d ą
-2.731125	d ę
-2.025689	d ł
-3.291793	d ś
-2.764983	d ź
-2.731125	d ż
-2.80337	e "
-2.81578	e (
-2.223265	e )
-1.7979	e ,
-3.613236	e -
-2.276231	e .
-3.613236	e /
-3.207471	e 1
-3.353599	e 2
-3.399356	e 3
-3.540686	e 5
-3.613236	e 6
-3.450509	e 7
-3.42418	e 8
-3.312206	e 9
-2.256689	e :
-2.73035	e ;
-2.982531	e </s>
-3.086427	e [
-2.421633	e a
-2.009207	e b
-1.447264	e c
-1.234508	e d
-2.991871	e e
-2.320175	e f
-1.091148	e g
-3.12315	e h
-2.007246	e i
-1.052243	e j
-1.290078	e k
-1.506335	e l
-1.36638	e m
-0.9079169	e n
-1.81202	e o
-1.321787	e p
-1.254436	e r
-1.186282	e s
-1.579812	e t
-1.804596	e u
-3.450509	e v
-1.184365	e w
-3.540686	e x
-3.613236	e y
-1.19584	e z
-3.613236	e ó
-2.906441	e ć
-2.256689	e ł
-2.119335	e ń
-1.679657	e ś
-3.33241	e ź
-1.865048	e ż
-3.540686	e –
-2.329305	f (
-1.689457	f )
-2.329305	f ,
-2.329305	f .
-2.291517	f 1
-1.345392	f a
-2.329305	f b
-2.329305	f d
-1.221479	f e
-2.329305	f f
-2.329305	f g
-0.6423443	f i
-1.955725	f l
-2.291517	f m
-1.972758	f n
-0.75265	f o
-2.329305	f p
-1.990487	f r
-1.972758	f t
-1.140249	f u
-2.291517	f w
-1.839219	f y
-2.329305	f z
-2.329305	f ó
-2.329305	f ü
-2.291517	f ę
-2.737005	g "
-2.926062	g (
-1.528122	g )
-2.027935	g ,
-2.365394	g .
-2.926062	g /
-2.888273	g 1
-2.926062	g 8
-2.926062	g 9
-2.763334	g :
-2.569514	g ;
-2.791363	g </s>
-2.069827	g [
-1.011286	g a
-2.763334	g b
-2.821326	g c
-1.697941	g d
-1.755267	g e
-2.888273	g f
-2.926062	g g
-2.888273	g h
-1.406353	g i
-2.888273	g j
-2.712182	g k
-1.278146	g l
-2.737005	g m
-2.022972	g n
-0.400899	g o
-2.476093	g p
-1.216175	g r
-2.666424	g s
-2.688701	g t
-1.532885	g u
-1.967454	g w
-2.058969	g z
-2.926062	g é
-1.249784	g ó
-1.520296	g ą
-2.268484	g ę
-1.600098	g ł
-2.888273	g ś
-2.926062	g ż
-2.649678	h "
-2.361613	h (
-2.417729	h )
-1.223071	h ,
-2.733999	h -
-1.535735	h .
-2.838735	h /
-2.557908	h 1
-2.733999	h 2
-2.838735	h 3
-2.838735	h 4
-2.838735	h 8
-2.838735	h 9
-2.518399	h :
-1.999314	h ;
-2.289063	h </s>
-2.139765	h [
-1.422245	h a
-2.041278	h b
-1.687003	h c
-1.392989	h d
-1.875806	h e
-2.374977	h f
-2.336059	h g
-2.465154	h h
-1.360299	h i
-1.940608	h j
-1.608286	h k
-1.838735	h l
-1.66794	h m
-1.358989	h n
-0.9512196	h o
-1.0174	h p
-1.483928	h r
-1.384583	h s
-1.811942	h t
-1.660019	h u
-2.766184	h v
-0.9652555	h w
-2.139765	h y
-1.272672	h z
-2.838735	h ä
-2.704036	h ó
-2.838735	h ą
-2.601374	h ę
-2.537705	h ł
-1.955848	h ś
-2.838735	h ź
-2.557908	h ż
-2.800946	h –
-2.964554	i "
-2.686754	i (
-2.677313	i )
-1.843022	i ,
-2.272883	i .
-2.832882	i /
-3.531852	i 0
-2.882367	i 1
-2.813287	i 2
-2.983038	i 3
-3.198637	i 4
-3.303373	i 5
-3.441675	i 6
-3.247855	i 7
-3.140646	i 8
-3.043736	i 9
-3.012327	i :
-2.600472	i ;
-2.938225	i </s>
-3.012327	i [
-0.8508894	i a
-2.407749	i b
-1.312953	i c
-1.729342	i d
-0.5545155	i e
-2.612372	i f
-2.716377	i g
-2.973698	i h
-1.675449	i i
-2.204886	i j
-1.482634	i k
-1.990657	i l
-1.840295	i m
-1.125312	i n
-1.296129	i o
-1.668072	i p
-3.566614	i q
-2.085889	i r
-1.382633	i s
-1.62008	i t
-1.593102	i u
-2.905433	i v
-1.488944	i w
-3.469704	i x
-1.696894	i z
-3.604403	i é
-3.101727	i ó
-1.769578	i ą
-2.201751	i ć
-1.462526	i ę
-2.592717	i ł
-3.441675	i ń
-2.668072	i ś
-3.604403	i ź
-2.203316	i ż
-3.499667	i –
-3.604403	i —
-2.651308	j "
-2.855428	j (
-2.855428	j )
-1.983272	j ,
-2.364067	j .
-2.741485	j 1
-2.926009	j 2
-3.01033	j 3
-3.115066	j 4
-3.01033	j 5
-3.115066	j 6
-3.115066	j 7
-3.115066	j 8
-3.077277	j 9
-2.980367	j :
-2.565394	j ;
-2.834239	j </s>
-2.7093	j [
-1.074032	j a
-2.637944	j b
-2.665097	j c
-1.569871	j d
-0.6823878	j e
-2.741485	j f
-2.758518	j g
-2.952338	j h
-0.956429	j i
-2.385606	j j
-2.152137	j k
-2.400584	j l
-1.486212	j m
-1.40441	j n
-1.556575	j o
-1.79097	j p
-2.3052	j r
-1.007856	j s
-2.466262	j t
-1.931149	j u
-1.748218	j w
-2.160823	j z
-2.588257	j ó
-0.7769715	j ą
-1.351638	j ę
-3.115066	j ł
-2.258831	j ś
-3.115066	j ż
-3.115066	j –
-3.031206	k "
-3.245086	k (
-3.082359	k )
-2.494087	k ,
-2.924751	k .
-3.245086	k 1
-3.245086	k 2
-3.245086	k :
-3.140351	k ;
-3.245086	k </s>
-3.172536	k [
-1.006128	k a
-2.824081	k b
-1.694302	k c
-2.643026	k d
-3.05603	k e
-3.140351	k f
-3.007725	k g
-3.207298	k h
-0.8103722	k i
-2.924751	k j
-2.405665	k k
-1.915411	k l
-2.742411	k m
-2.45397	k n
-0.6442123	k o
-2.341996	k p
-1.128116	k r
-1.737476	k s
-0.8432159	k t
-0.9902526	k u
-3.207298	k v
-1.883358	k w
-3.207298	k y
-2.538291	k z
-1.493387	k ó
-2.076964	k ą
-2.633266	k ę
-1.712448	k ł
-2.985449	k ś
-1.948022	k ż
-2.931771	l "
-3.004321	l (
-2.966533	l )
-2.899586	l ,
-3.004321	l -
-2.841594	l .
-3.004321	l 1
-3.004321	l 2
-2.966533	l 3
-2.966533	l :
-3.004321	l ;
-0.9374874	l a
-2.267563	l b
-2.568593	l c
-2.454649	l d
-0.9683462	l e
-2.869623	l f
-2.841594	l g
-0.7576885	l i
-1.71126	l k
-2.966533	l l
-2.931771	l m
-0.7748024	l n
-0.948804	l o
-2.744684	l p
-2.931771	l q
-3.004321	l r
-2.194456	l s
-2.054488	l t
-0.8343265	l u
-2.176482	l w
-2.931771	l z
-2.050079	l ó
-2.200616	l ą
-1.44257	l ę
-3.004321	l ż
-2.966533	l ’
-2.577965	m "
-2.222953	m (
-2.905324	m )
-1.770987	m ,
-3.068051	m -
-2.276935	m .
-3.030262	m /
-3.030262	m 0
-2.456231	m 1
-2.878995	m 2
-2.878995	m 3
-2.83069	m :
-2.283369	m ;
-3.068051	m </s>
-2.933352	m [
-0.9498764	m a
-2.401873	m b
-1.9955	m c
-2.044986	m d
-1.28014	m e
-2.729232	m f
-2.647046	m g
-2.747716	m h
-0.4870223	m i
-2.401873	m j
-2.033897	m k
-2.160053	m l
-2.211817	m m
-1.52966	m n
-0.8805301	m o
-1.481055	m p
-1.963315	m r
-1.921923	m s
-2.155201	m t
-1.148973	m u
-2.905324	m v
-1.668535	m w
-1.86147	m y
-1.781064	m z
-1.942126	m ó
-2.52966	m ą
-2.878995	m ę
-2.905324	m ł
-2.729232	m ś
-3.068051	m ź
-2.486194	m ż
-3.068051	m –
-3.068051	m —
-3.497805	n "
-3.430858	n (
-3.298232	n )
-3.497805	n +
-2.933533	n ,
-3.535593	n -
-3.071836	n .
-3.346537	n 0
-3.430858	n 1
-3.430858	n 2
-3.497805	n 4
-3.497805	n 9
-3.400895	n ;
-3.535593	n </s>
-3.430858	n [
-0.902033	n a
-3.196775	n b
-1.914228	n c
-1.985921	n d
-0.9616673	n e
-2.063768	n f
-2.415618	n g
-3.430858	n h
-0.4076643	n i
-3.400895	n j
-1.364798	n k
-3.085624	n l
-3.071836	n m
-1.697317	n n
-1.154724	n o
-2.923774	n p
-1.89035	n r
-1.749617	n s
-1.524292	n t
-2.222878	n u
-2.35427	n w
-1.034783	n y
-2.663172	n z
-3.535593	n é
-2.744477	n ó
-1.921848	n ą
-2.572664	n ę
-3.497805	n ś
-3.179046	n ż
-3.17406	o "
-3.303694	o (
-3.322999	o )
-2.206029	o ,
-2.79619	o -
-2.674196	o .
-3.624029	o /
-3.624029	o 0
-3.09722	o 1
-3.461302	o 2
-3.364392	o 3
-3.58624	o 5
-3.624029	o 6
-3.624029	o 9
-3.09722	o :
-2.966451	o ;
-3.322999	o </s>
-2.87303	o [
-2.39825	o a
-1.561276	o b
-1.464845	o c
-0.9261657	o d
-3.121353	o e
-2.504054	o f
-1.726902	o g
-3.031953	o h
-2.121353	o i
-2.086782	o j
-1.441147	o k
-1.594276	o l
-1.370294	o m
-0.9480007	o n
-2.003609	o o
-1.368756	o p
-1.061195	o r
-1.171824	o s
-1.409426	o t
-2.283404	o u
-3.461302	o v
-0.7660388	o w
-3.519294	o x
-1.300121	o z
-3.624029	o ć
-2.283404	o ł
-2.802099	o ń
-1.471185	o ś
-2.966451	o ź
-1.760165	o ż
-3.624029	o –
-3.245378	p (
-3.110679	p )
-3.140643	p ,
-3.245378	p -
-2.964551	p .
-3.110679	p 1
-3.207589	p 3
-3.207589	p ;
-3.140643	p [
-1.003469	p a
-3.245378	p b
-2.389144	p c
-2.964551	p d
-1.306313	p e
-3.245378	p f
-3.172827	p h
-1.157403	p i
-2.460696	p k
-2.309047	p l
-3.056322	p m
-2.134482	p n
-0.5717708	p o
-2.839613	p p
-0.4614745	p r
-2.249344	p s
-2.809649	p t
-1.484681	p u
-3.031498	p v
-2.964551	p w
-2.429438	p y
-3.140643	p z
-3.207589	p ê
-1.324401	p ó
-3.245378	p ą
-2.985741	p ę
-1.876838	p ł
-3.245378	p –
-1.9114	q )
-1.748672	q u
-3.28999	r "
-3.3869	r (
-3.187328	r )
-2.960931	r ,
-1.854358	r .
-3.424689	r 0
-2.208403	r 1
-2.28139	r 2
-2.557596	r 3
-3.143862	r 4
-3.104353	r 5
-3.28999	r 6
-3.003683	r 7
-3.051108	r 8
-3.165051	r 9
-3.3869	r :
-3.3869	r ;
-3.319953	r </s>
-0.859485	r a
-2.67369	r b
-1.938451	r c
-2.028331	r d
-0.9613387	r e
-3.352138	r f
-1.8597	r g
-3.352138	r h
-1.925752	r i
-3.319953	r j
-2.659901	r k
-2.474855	r l
-1.670897	r m
-2.228035	r n
-0.7332053	r o
-2.793983	r p
-3.187328	r r
-1.960931	r s
-1.148436	r t
-1.45876	r u
-1.987515	r w
-1.305313	r y
-0.6446988	r z
-3.3869	r å
-1.752591	r ó
-2.259255	r ą
-3.3869	r ć
-2.497598	r ę
-3.319953	r ł
-3.3869	r ś
-3.319953	r ż
-3.424689	r –
-3.297085	s "
-3.262323	s (
-2.978327	s )
-2.796483	s ,
-3.297085	s -
-2.436747	s .
-3.297085	s 1
-3.334874	s 2
-3.334874	s 5
-3.297085	s 6
-3.297085	s ;
-3.120994	s </s>
-1.572127	s a
-3.200175	s b
-2.15355	s c
-2.884905	s d
-1.842241	s e
-2.871117	s f
-3.120994	s g
-3.262323	s h
-1.084454	s i
-1.570766	s j
-1.058621	s k
-3.054047	s l
-2.677297	s m
-2.436747	s n
-1.298172	s o
-1.031482	s p
-2.913869	s r
-2.763483	s s
-0.4685329	s t
-1.547607	s u
-2.14327	s w
-1.583175	s y
-0.902342	s z
-1.826038	s ó
-1.787435	s ą
-3.297085	s ę
-2.158783	s ł
-3.297085	s ś
-3.334874	s –
-3.240228	t "
-3.344964	t (
-3.240228	t )
-2.566812	t ,
-3.240228	t -
-1.108518	t .
-3.344964	t /
-2.954993	t 1
-3.210265	t 2
-3.155907	t 3
-3.210265	t 4
-3.240228	t 5
-3.344964	t 6
-3.344964	t 7
-3.085326	t :
-3.210265	t ;
-3.240228	t </s>
-3.307175	t [
-0.8056593	t a
-2.842288	t b
-2.714258	t c
-2.222003	t d
-1.005061	t e
-3.043934	t f
-2.988416	t g
-2.954993	t h
-2.166248	t i
-2.714258	t j
-1.632008	t k
-2.560282	t l
-2.622928	t m
-1.709663	t n
-1.029375	t o
-2.198836	t p
-1.137403	t r
-2.307175	t s
-2.462077	t t
-1.315211	t u
-3.272413	t v
-1.070386	t w
-0.8224008	t y
-2.344964	t z
-3.307175	t å
-3.307175	t è
-3.344964	t é
-1.209976	t ó
-2.216094	t ą
-1.562882	t ę
-2.830054	t ł
-2.971383	t ś
-3.240228	t ż
-2.736654	u "
-2.625955	u (
-3.023895	u )
-1.722865	u ,
-3.186622	u -
-2.057754	u .
-3.186622	u /
-2.765617	u 1
-2.972743	u 2
-2.949262	u 3
-3.023895	u 4
-3.186622	u 8
-3.186622	u 9
-2.520445	u :
-2.435623	u ;
-2.905796	u </s>
-2.905796	u [
-1.975162	u a
-1.039087	u b
-1.523007	u c
-1.284521	u d
-2.127645	u e
-2.335921	u f
-1.641428	u g
-2.847804	u h
-1.785535	u i
-1.123528	u j
-1.289495	u k
-1.623789	u l
-1.377982	u m
-1.267544	u n
-1.855103	u o
-1.335364	u p
-1.157977	u r
-0.8714157	u s
-1.687686	u t
-1.899636	u u
-2.648232	u v
-1.302703	u w
-3.186622	u x
-1.483722	u z
-1.362911	u ł
-3.186622	u ń
-2.63695	u ś
-3.186622	u ź
-1.914148	u ż
-3.186622	u –
-3.081887	u ≤
-1.973548	v "
-1.692721	v )
-1.838849	v ,
-1.759668	v .
-1.973548	v ;
-1.935759	v </s>
-1.617	v a
-1.935759	v c
-1.736187	v d
-1.900997	v e
-1.163682	v i
-1.973548	v k
-1.973548	v l
-1.973548	v m
-1.900997	v o
-1.784491	v p
-1.81082	v r
-1.973548	v s
-1.935759	v t
-1.900997	v w
-1.935759	v z
-3.317868	w "
-3.317868	w (
-3.263511	w )
-2.039115	w ,
-3.452567	w -
-2.49396	w .
-3.347832	w /
-3.414778	w 1
-3.414778	w 2
-3.452567	w 6
-3.380016	w 8
-3.19293	w :
-2.70863	w ;
-3.151537	w </s>
-3.09602	w [
-0.7313561	w a
-2.580146	w b
-1.50674	w c
-1.932858	w d
-1.154508	w e
-2.812718	w f
-1.685074	w g
-3.09602	w h
-0.8627189	w i
-2.502734	w j
-1.975446	w k
-2.320773	w l
-2.38675	w m
-1.365237	w n
-1.145071	w o
-1.492659	w p
-1.85647	w r
-1.029917	w s
-1.940077	w t
-1.949892	w u
-3.414778	w v
-1.995649	w w
-0.9217854	w y
-1.524544	w z
-3.452567	w ä
-2.201704	w ó
-2.145655	w ą
-2.357239	w ę
-1.68778	w ł
-2.730532	w ś
-2.350945	w ż
-3.452567	w —
-1.846051	x ,
-1.918602	x .
-1.918602	x 1
-1.918602	x a
-1.918602	x d
-1.918602	x e
-1.617572	x i
-1.918602	x k
-1.918602	x p
-2.612938	y "
-2.285115	y (
-3.098028	y )
-1.776959	y ,
-2.171457	y .
-3.311908	y /
-3.311908	y 0
-3.149181	y 1
-3.031081	y 2
-3.311908	y 3
-3.274119	y 4
-3.311908	y 5
-2.876179	y 6
-2.455673	y 7
-2.567971	y 8
-2.242711	y 9
-2.495968	y :
-2.514452	y ;
-2.906142	y </s>
-2.955361	y [
-2.389513	y a
-1.806758	y b
-0.6692635	y c
-1.654331	y d
-2.429021	y e
-1.985945	y f
-2.380173	y g
-2.973089	y h
-2.004996	y i
-1.424905	y j
-1.195542	y k
-2.035237	y l
-0.9702036	y m
-1.37925	y n
-1.775809	y o
-1.308369	y p
-1.351135	y r
-1.270515	y s
-1.560909	y t
-2.054447	y u
-0.997849	y w
-3.311908	y y
-1.406357	y z
-1.7363	y ć
-1.940001	y ł
-2.700088	y ś
-2.194938	y ż
-3.311908	y –
-3.311908	y —
-3.248838	z "
-2.820021	z ,
-3.165864	z .
-3.44841	z 0
-3.272319	z 1
-3.297142	z 2
-3.486199	z 3
-3.44841	z 6
-3.44841	z 7
-3.297142	z 9
-3.381463	z :
-3.44841	z ;
-2.971289	z </s>
-3.44841	z [
-0.8369522	z a
-1.993565	z b
-1.654852	z c
-1.658947	z d
-0.6612448	z e
-3.185169	z f
-1.490563	z g
-3.080433	z h
-1.29055	z i
-1.983523	z j
-1.872453	z k
-2.695082	z l
-1.759694	z m
-1.176375	z n
-1.315137	z o
-1.315137	z p
-2.375303	z r
-2.394052	z s
-2.160235	z t
-1.768679	z u
-3.486199	z v
-1.425844	z w
-1.039323	z y
-2.160235	z z
-2.708047	z ó
-1.240237	z ą
-1.968883	z ę
-1.530205	z ł
-3.14738	z ś
-3.3515	z ż
-1.908972	ä d
-1.908972	ä h
-1.909945	å e
-1.872156	å l
-1.909945	å r
-1.908485	ç ă
-1.871184	è r
-1.873611	é a
-1.9114	é c
-1.9114	é n
-1.9114	é p
-1.9114	é r
-1.9114	é t
-1.871184	ê c
-1.53183	ó b
-1.940643	ó c
-2.051538	ó d
-2.286751	ó g
-2.148448	ó j
-2.587781	ó k
-0.7690605	ó l
-2.750508	ó n
-0.7608968	ó r
-2.645773	ó s
-2.344743	ó t
-0.4199102	ó w
-1.894274	ó z
-1.319145	ó ł
-1.959392	ó ź
-1.872823	ó ż
-1.908485	ü r
-1.908485	ă o
-2.735649	ą "
-2.860588	ą (
-2.898376	ą )
-1.514887	ą ,
-2.076446	ą .
-2.793641	ą 1
-2.825825	ą 2
-2.898376	ą 3
-2.898376	ą 4
-2.898376	ą 5
-2.898376	ą 6
-2.763678	ą 7
-2.638739	ą 8
-2.524796	ą 9
-2.395701	ą :
-2.524796	ą ;
-2.860588	ą </s>
-2.793641	ą [
-2.541829	ą a
-1.755077	ą b
-0.4736429	ą c
-0.8221661	ą d
-2.578041	ą e
-2.70932	ą f
-1.769507	ą g
-2.793641	ą h
-2.058955	ą i
-2.240799	ą j
-1.732943	ą k
-2.161618	ą l
-2.240799	ą m
-1.879071	ą n
-1.566857	ą o
-1.345376	ą p
-2.088511	ą r
-1.595376	ą s
-1.49886	ą t
-1.846347	ą u
-1.291409	ą w
-1.160894	ą z
-2.01035	ą ć
-2.825825	ą ł
-2.578041	ą ś
-2.316519	ą ż
-2.30103	ć "
-1.402136	ć ,
-1.937852	ć .
-2.335792	ć 0
-2.210853	ć 1
-2.30103	ć 3
-2.373581	ć 6
-2.373581	ć 8
-2.159701	ć :
-2.159701	ć ;
-2.335792	ć </s>
-2.072551	ć a
-1.923612	ć b
-1.846772	ć c
-1.339426	ć d
-2.13622	ć e
-2.053246	ć f
-2.238882	ć g
-2.268845	ć h
-1.629644	ć i
-1.622582	ć j
-1.582464	ć k
-1.858671	ć l
-1.781505	ć m
-1.451185	ć n
-1.25062	ć o
-1.08456	ć p
-1.724777	ć r
-1.216316	ć s
-1.644121	ć t
-1.39794	ć u
-1.072551	ć w
-1.205458	ć z
-2.335792	ć ł
-1.909823	ć ś
-2.335792	ć ź
-2.30103	ć ż
-2.483797	ę "
-2.538155	ę (
-1.635065	ę ,
-1.921854	ę .
-2.635065	ę 1
-2.635065	ę 2
-2.672853	ę 5
-2.672853	ę 6
-2.672853	ę 7
-2.635065	ę 8
-2.413216	ę 9
-1.928916	ę :
-2.334035	ę ;
-2.672853	ę </s>
-2.672853	ę [
-2.134462	ę a
-1.396183	ę b
-1.14958	ę c
-0.6627075	ę d
-1.839185	ę e
-2.392027	ę f
-1.774727	ę g
-2.458973	ę h
-1.98997	ę i
-2.267088	ę j
-1.561958	ę k
-2.251848	ę l
-2.134462	ę m
-1.574367	ę n
-1.72302	ę o
-0.9020012	ę p
-1.811156	ę r
-1.668923	ę s
-1.140215	ę t
-2.112186	ę u
-1.426444	ę w
-1.491529	ę z
-2.237125	ę ć
-2.392027	ę ł
-1.68894	ę ś
-2.015276	ę ż
-2.80581	ł "
-2.80581	ł (
-2.568449	ł ,
-2.80581	ł .
-1.60169	ł 1
-1.654078	ł 2
-1.917783	ł 3
-2.047862	ł 4
-2.213734	ł 5
-2.148232	ł 6
-2.245142	ł 7
-2.342052	ł 8
-2.370081	ł 9
-2.80581	ł ;
-0.6286669	ł a
-2.546172	ł b
-2.234418	ł c
-2.342052	ł d
-1.575361	ł e
-2.768021	ł f
-2.768021	ł g
-2.279001	ł i
-2.80581	ł j
-1.659682	ł k
-2.80581	ł l
-2.59193	ł m
-1.510743	ł n
-0.6126851	ł o
-1.972141	ł p
-2.568449	ł r
-2.303134	ł s
-2.315723	ł t
-1.262871	ł u
-2.701074	ł v
-2.2909	ł w
-1.235479	ł y
-2.485475	ł z
-1.821897	ł ó
-1.123747	ł ą
-2.616753	ł ę
-2.733259	ł ż
-2.279456	ń "
-2.314219	ń (
-1.573856	ń ,
-1.978426	ń .
-2.352007	ń 1
-2.352007	ń 2
-2.352007	ń :
-2.217309	ń ;
-2.314219	ń [
-2.114646	ń a
-2.314219	ń b
-1.458901	ń c
-1.802335	ń d
-2.18928	ń e
-2.138127	ń f
-2.138127	ń g
-1.962036	ń i
-2.247272	ń j
-1.946242	ń k
-2.217309	ń l
-2.217309	ń m
-1.802335	ń n
-1.802335	ń o
-1.615248	ń p
-2.247272	ń r
-0.3484682	ń s
-2.217309	ń t
-1.978426	ń u
-1.58722	ń w
-1.861921	ń z
-2.530495	ś b
-0.4438617	ś c
-2.603046	ś i
-0.7359536	ś l
-2.389166	ś m
-1.623249	ś n
-2.565257	ś p
-0.8795156	ś r
-1.419129	ś w
-2.565257	ś z
-1.150284	ś ć
-2.000395	ź .
-2.000395	ź b
-1.37903	ź d
-2.000395	ź i
-1.962606	ź j
-2.000395	ź m
-0.8656961	ź n
-2.000395	ź o
-1.786515	ź p
-1.763034	ź r
-2.000395	ź t
-1.811338	ź w
-1.962606	ź z
-2.000395	ź ć
-2.565454	ż "
-2.603243	ż )
-2.414186	ż ,
-2.530692	ż 0
-2.264424	ż 1
-2.414186	ż 2
-2.603243	ż 3
-2.603243	ż 4
-2.468544	ż 5
-2.530692	ż 6
-2.565454	ż 7
-2.565454	ż :
-2.603243	ż [
-1.569089	ż a
-2.282908	ż b
-2.498507	ż c
-1.173344	ż d
-0.54049	ż e
-2.603243	ż g
-2.603243	ż h
-2.264424	ż i
-2.246696	ż j
-2.197478	ż k
-1.424527	ż l
-2.440516	ż m
-1.122191	ż n
-1.296331	ż o
-1.963394	ż p
-2.365882	ż r
-1.591557	ż s
-2.139486	ż t
-2.031852	ż u
-1.981878	ż w
-0.819859	ż y
-2.011167	ż z
-2.565454	ż ó
-1.530692	ż ą
-2.603243	ż ś
-1.908485	ά δ
-1.908485	α ν
-1.908485	γ α
-1.909459	δ η
-1.909459	δ ο
-1.909459	δ ρ
-1.908972	ε )
-1.908972	ε λ
-1.908485	η ρ
-1.908972	ι δ
-1.908972	ι σ
-1.908972	λ ά
-1.908972	λ λ
-1.908972	μ ω
-1.908972	μ ό
-1.908972	ν ε
-1.908972	ν ι
-1.909945	ο δ
-1.909945	ο ρ
-1.909945	ο ς
-1.909945	ο σ
-1.909459	ρ γ
-1.909459	ρ ο
-1.909459	ρ ό
-1.908972	ς a
-1.908972	ς σ
-1.909459	σ ε
-1.909459	σ ι
-1.909459	σ μ
-1.908485	ω ν
-1.908972	ό μ
-1.908972	ό ς
-1.790051	– 1
-1.886961	– 2
-1.924749	– 3
-1.886961	– 4
-1.924749	– 5
-1.924749	– 8
-1.852198	– 9
-1.852198	– c
-1.820014	– d
-1.924749	– e
-1.924749	– g
-1.924749	– h
-1.924749	– i
-1.924749	– l
-1.886961	– p
-1.886961	– s
-1.924749	– v
-1.924749	– w
-1.886961	– z
-1.915256	— "
-1.877467	— 1
-1.877467	— a
-1.915256	— b
-1.915256	— e
-1.877467	— k
-1.877467	— l
-1.915256	— o
-1.915256	— p
-1.877467	— w
-1.908972	’ a
-1.908972	’ é
-1.908485	… </s>
-1.909945	≤ 0
-1.909945	≤ 3
-1.872156	≤ 5

\end\
