
\data\
ngram 1=76
ngram 2=1810

\1-grams:
-3.322116	"	0.8347493
-3.791863	%	0.2029661
-4.708317	&	0.02020324
-4.25602	'	0.06539648
-2.637357	(	0.1436972
-2.43861	)	0.2374035
-4.673555	*	-0.005978487
-4.708317	+	-0.01036711
-1.939988	,	-0.1913031
-2.594096	-	0.400539
-2.171549	.	0.04925725
-2.596327	/	-0.3589955
-2.681648	0	-0.02819979
-2.321521	1	-0.2135557
-2.436089	2	-0.2390839
-2.669565	3	-0.1596177
-2.814833	4	-0.06074702
-2.88604	5	-0.01661367
-2.819016	6	-0.1813757
-2.84798	7	-0.2147477
-2.832774	8	-0.1783381
-2.550458	9	-0.3756117
-3.034682	:	0.2179255
-2.832774	;	0.06408943
-2.172812	</s>
-99	<s>	-0.01794875
-4.641371	=	-0.01763423
-4.641371	>	-0.008129709
-4.641371	[	0.04477999
-4.641371	]	-0.005212547
-0.9864244	a	-0.7471747
-2.108071	b	0.04844521
-1.42018	c	-0.609421
-1.216909	d	-1.015728
-0.933533	e	-0.7959949
-2.076874	f	-0.5109393
-1.919325	g	-0.495757
-2.533192	h	-0.1078525
-1.19649	i	-0.6061636
-2.705791	j	-0.2626688
-4.243431	k	0.3235889
-1.688613	l	-0.2650945
-1.426943	m	-0.3569624
-1.313924	n	-0.4772846
-0.9780333	o	-0.8629304
-1.590191	p	-0.563374
-2.170184	q	-0.6854465
-1.204334	r	-0.3810662
-1.107091	s	-0.6486997
-1.299456	t	-0.7670224
-1.519108	u	-0.2794422
-1.946515	v	-0.6437515
-4.445076	w	0.05036827
-2.547199	x	-0.1453871
-4.282349	y	0.1800983
-2.571861	z	-0.03615914
-3.515657	«	0.6834097
-4.063223	°	-0.03447191
-4.708317	±	0.02851627
-2.766723	º	-0.03249898
-3.520327	»	0.207548
-2.728693	à	0.4213905
-2.451039	á	0.2989777
-3.212311	â	-0.1500886
-1.982882	ã	-0.8401417
-4.673555	å	0.02413577
-2.016941	ç	-0.8675539
-4.708317	è	0.02102834
-2.533192	é	0.4175209
-3.015911	ê	0.1346062
-2.462188	í	-0.2923786
-2.880087	ó	0.5236771
-4.641371	ô	0.05176408
-2.554503	õ	-0.4661223
-3.063223	ú	-0.04745426
-4.746106	β	-0.005300977

\2-grams:
-1.837588	" (
-1.867552	" )
-1.332438	" ,
-1.934498	" -
-1.2075	" .
-1.80956	" 1
-1.867552	" 2
-1.899736	" 3
-1.972287	" 6
-1.934498	" 9
-1.783231	" :
-1.80956	" ;
-1.867552	" </s>
-1.469612	" a
-1.899736	" b
-1.71265	" c
-1.80956	" d
-1.598706	" e
-1.972287	" f
-1.934498	" g
-1.972287	" h
-1.69146	" i
-1.934498	" l
-1.867552	" m
-1.758407	" n
-1.633469	" o
-1.633469	" p
-1.934498	" q
-1.899736	" r
-1.837588	" s
-1.758407	" t
-1.867552	" u
-1.899736	" v
-1.972287	" w
-1.899736	" é
-1.543551	% ,
-1.668489	% .
-1.747671	% ;
-1.809819	% a
-1.233566	% d
-1.777634	% e
-1.882369	% f
-1.882369	% m
-1.809819	% n
-1.809819	% o
-1.777634	% p
-1.844581	% v
-1.844581	% »
-1.797037	& d
-1.774798	' )
-1.80956	' ,
-1.847348	' .
-1.71265	' :
-1.80956	' a
-1.71265	' c
-1.847348	' g
-1.847348	' i
-1.847348	' l
-1.80956	' p
-1.847348	' é
-2.291651	( "
-2.219101	( '
-2.219101	( *
-0.960132	( 1
-1.105157	( 2
-1.311855	( 3
-1.429954	( 4
-1.487946	( 5
-1.592681	( 6
-1.730984	( 7
-1.709795	( 8
-1.679832	( 9
-1.870646	( a
-2.128924	( b
-0.6545256	( c
-2.077771	( d
-1.918071	( e
-1.971316	( f
-2.291651	( g
-2.291651	( h
-1.935104	( i
-2.253863	( l
-2.128924	( m
-2.010825	( o
-1.935104	( p
-2.219101	( q
-2.253863	( r
-1.730984	( s
-1.827894	( t
-2.219101	( u
-2.219101	( z
-2.291651	( é
-2.010797	) "
-2.359251	) '
-2.058222	) (
-0.7481004	) ,
-2.394014	) -
-1.640686	) .
-2.194441	) 1
-2.394014	) 2
-2.431802	) 4
-2.327067	) :
-1.757192	) ;
-1.791954	) </s>
-1.134738	) a
-2.297104	) b
-1.452006	) c
-1.333316	) d
-1.33018	) e
-2.130772	) f
-2.327067	) h
-1.996074	) i
-2.327067	) j
-2.269075	) l
-2.075255	) m
-0.7681869	) n
-1.269075	) o
-1.673854	) p
-1.941716	) q
-2.058222	) r
-1.757192	) s
-1.929127	) t
-1.941716	) u
-2.359251	) v
-2.431802	) w
-2.394014	) y
-2.172165	) «
-2.359251	) »
-2.172165	) à
-2.431802	) á
-2.431802	) â
-1.996074	) é
-1.762852	* )
-1.834825	+ 2
-1.834825	+ 3
-2.744796	, "
-2.77698	, (
-2.744796	, 0
-2.529196	, 1
-2.37241	, 2
-2.589894	, 3
-2.589894	, 4
-2.635651	, 5
-2.635651	, 6
-2.660475	, 7
-2.548501	, 8
-2.529196	, 9
-1.120072	, </s>
-0.9046	, a
-1.826466	, b
-1.294327	, c
-0.9687175	, d
-1.103463	, e
-2.218826	, f
-2.568704	, g
-2.589894	, h
-1.711947	, i
-2.529196	, j
-2.849531	, k
-2.45956	, l
-2.015862	, m
-1.075346	, n
-1.092964	, o
-1.169938	, p
-1.409481	, q
-1.531088	, r
-1.262535	, s
-1.660475	, t
-1.890924	, u
-2.346856	, v
-2.77698	, z
-2.686804	, «
-2.849531	, »
-2.064849	, à
-1.815377	, é
-2.849531	, ó
-2.77698	, ú
-2.320524	- "
-2.320524	- '
-2.282735	- ,
-2.320524	- -
-2.320524	- 0
-2.106644	- 1
-2.247973	- 2
-2.320524	- 4
-2.282735	- 5
-2.247973	- 7
-2.320524	- 8
-2.320524	- 9
-1.562576	- a
-2.131468	- b
-1.817849	- c
-1.637641	- d
-1.699159	- e
-1.870555	- f
-2.320524	- g
-2.282735	- h
-2.083163	- i
-2.282735	- j
-1.549003	- l
-0.4214001	- m
-1.856767	- n
-1.621554	- o
-1.738667	- p
-1.738667	- q
-1.817849	- r
-1.058721	- s
-1.981705	- t
-2.019494	- u
-2.106644	- à
-1.899519	- á
-2.083163	- ã
-2.320524	- é
-1.955135	. "
-2.608348	. '
-2.541401	. (
-2.511438	. )
-2.085469	. ,
-2.573586	. .
-2.573586	. 0
-1.861454	. 1
-2.131227	. 2
-2.345106	. 3
-2.36531	. 4
-2.541401	. 5
-2.646136	. 7
-2.45708	. 8
-2.608348	. ;
-0.5181485	. </s>
-1.142222	. a
-2.646136	. b
-1.909378	. c
-1.902199	. d
-1.638311	. e
-2.541401	. f
-2.646136	. h
-2.511438	. i
-2.608348	. l
-2.646136	. m
-1.608348	. n
-0.5264606	. o
-1.888188	. p
-2.143461	. q
-2.45708	. r
-1.670496	. s
-2.169015	. t
-2.240371	. u
-2.608348	. v
-2.272556	. °
-1.830196	. »
-2.608348	. à
-2.05406	. é
-1.295946	/ 1
-1.295946	/ 2
-1.509146	/ 3
-1.249814	/ 4
-1.561064	/ 5
-1.23007	/ 6
-1.420885	/ 7
-1.351804	/ 8
-0.9949161	/ 9
-2.319011	/ a
-0.6452367	/ c
-2.319011	/ d
-2.319011	/ h
-2.281223	/ i
-2.319011	/ j
-1.47959	/ o
-2.319011	/ p
-1.541063	0 %
-1.982271	0 (
-1.799341	0 )
-1.498311	0 ,
-1.512099	0 .
-1.028029	0 /
-0.7339476	0 0
-1.412396	0 1
-1.345449	0 2
-1.564128	0 3
-1.827369	0 4
-1.942763	0 5
-1.873127	0 6
-1.760422	0 7
-1.842093	0 8
-1.827369	0 9
-2.225309	0 ;
-2.100371	0 </s>
-2.190547	0 a
-2.190547	0 c
-1.336008	0 d
-1.962068	0 e
-2.263098	0 f
-2.225309	0 h
-2.190547	0 k
-2.158362	0 m
-1.623249	0 o
-2.225309	0 p
-2.049218	0 q
-2.225309	0 r
-2.225309	0 s
-2.049218	0 t
-2.263098	0 u
-1.564128	0 º
-2.128399	0 é
-2.484774	1 %
-2.183744	1 (
-1.365298	1 )
-1.308683	1 ,
-0.9841719	1 .
-1.376435	1 /
-1.320917	1 0
-1.387864	1 1
-1.430417	1 2
-1.463585	1 3
-1.467045	1 4
-1.430417	1 5
-1.590828	1 6
-1.546922	1 7
-1.639676	1 8
-0.8684738	1 9
-2.359835	1 :
-2.308683	1 ;
-2.359835	1 </s>
-2.285202	1 a
-2.522563	1 c
-1.124623	1 d
-1.793103	1 e
-2.450012	1 f
-2.522563	1 i
-2.484774	1 j
-2.484774	1 k
-2.359835	1 n
-1.694724	1 o
-2.359835	1 p
-2.387864	1 q
-2.522563	1 r
-2.285202	1 s
-2.522563	1 t
-2.484774	1 «
-1.559634	1 º
-2.522563	1 à
-2.484774	1 é
-2.298999	2 %
-2.219817	2 (
-1.273693	2 )
-1.422011	2 ,
-0.8941648	2 .
-1.198628	2 /
-0.9139884	2 0
-1.649015	2 1
-1.470768	2 2
-1.545671	2 3
-1.501962	2 4
-1.550811	2 5
-1.572	2 6
-1.742696	2 7
-1.68976	2 8
-1.588599	2 9
-2.395909	2 :
-2.395909	2 ;
-2.219817	2 </s>
-2.433697	2 ]
-2.298999	2 a
-1.102178	2 d
-1.956576	2 e
-2.395909	2 f
-2.395909	2 h
-2.361146	2 i
-2.244641	2 m
-2.244641	2 n
-1.675749	2 o
-2.244641	2 p
-2.196336	2 q
-2.395909	2 r
-2.361146	2 s
-2.433697	2 °
-1.501962	2 º
-2.433697	2 »
-2.433697	2 à
-2.298999	2 é
-2.166049	3 %
-2.108057	3 (
-1.240295	3 )
-1.460919	3 ,
-2.270785	3 -
-0.8650193	3 .
-1.138991	3 /
-1.425687	3 0
-1.420083	3 1
-1.587901	3 2
-1.732394	3 3
-1.820816	3 4
-1.755875	3 5
-1.454845	3 6
-1.604607	3 7
-1.768109	3 8
-1.678709	3 9
-2.270785	3 :
-2.166049	3 ;
-2.011147	3 </s>
-2.198234	3 a
-2.270785	3 c
-1.262959	3 d
-1.880814	3 e
-2.232996	3 n
-1.512837	3 o
-2.081728	3 p
-2.081728	3 q
-2.166049	3 r
-2.108057	3 s
-2.270785	3 °
-1.367695	3 º
-2.270785	3 »
-2.232996	3 é
-2.145869	4 %
-1.994602	4 (
-1.247327	4 )
-1.492657	4 ,
-0.9697782	4 .
-1.091512	4 /
-1.612267	4 0
-1.601801	4 1
-1.461623	4 2
-1.591582	4 3
-1.827111	4 4
-1.863323	4 5
-1.668748	4 6
-1.844839	4 7
-1.591582	4 8
-1.509047	4 9
-2.183658	4 :
-2.078923	4 ;
-2.145869	4 </s>
-2.183658	4 a
-1.261263	4 d
-1.882628	4 e
-2.078923	4 h
-2.183658	4 i
-2.111107	4 m
-2.111107	4 n
-1.534855	4 o
-2.145869	4 p
-2.078923	4 q
-2.183658	4 s
-1.476863	4 º
-2.183658	4 »
-2.145869	4 é
-1.681524	5 %
-1.885644	5 (
-1.213546	5 )
-1.487704	5 ,
-2.145281	5 -
-1.096769	5 .
-1.20895	5 /
-1.584614	5 0
-1.695312	5 1
-1.595609	5 2
-1.709553	5 3
-1.618472	5 4
-1.864455	5 5
-1.642606	5 6
-1.771701	5 7
-1.66816	5 8
-1.864455	5 9
-2.145281	5 ;
-2.145281	5 </s>
-2.145281	5 ]
-2.107493	5 a
-2.040546	5 c
-1.237284	5 d
-1.739516	5 e
-2.107493	5 g
-2.107493	5 k
-2.072731	5 m
-2.145281	5 n
-1.523916	5 o
-1.982554	5 q
-2.072731	5 r
-2.107493	5 t
-2.145281	5 u
-2.072731	5 °
-1.401344	5 º
-2.072731	5 é
-2.076588	6 %
-1.943963	6 (
-1.423376	6 )
-1.515146	6 ,
-2.143535	6 -
-1.201527	6 .
-0.9650379	6 /
-1.459288	6 0
-1.760319	6 1
-1.459288	6 2
-1.745595	6 3
-1.654515	6 4
-1.745595	6 5
-1.423376	6 6
-1.53252	6 7
-1.390208	6 8
-1.745595	6 9
-2.181324	6 :
-2.076588	6 ;
-1.371458	6 d
-1.967444	6 e
-2.181324	6 f
-2.143535	6 m
-2.181324	6 n
-1.490323	6 o
-2.143535	6 p
-2.018596	6 q
-2.108773	6 r
-2.143535	6 s
-2.181324	6 °
-1.409803	6 º
-2.143535	6 é
-2.127645	7 %
-1.951553	7 (
-1.534728	7 )
-1.544068	7 ,
-2.165433	7 -
-1.267307	7 .
-1.089555	7 /
-1.458638	7 0
-1.615761	7 1
-1.499256	7 2
-1.553613	7 3
-1.675347	7 4
-1.458638	7 5
-1.474432	7 6
-1.466463	7 7
-1.387282	7 8
-1.604766	7 9
-2.127645	7 ;
-1.367977	7 d
-1.976377	7 e
-2.060698	7 f
-2.165433	7 m
-1.48255	7 o
-2.092883	7 p
-2.092883	7 q
-2.060698	7 r
-2.165433	7 t
-1.407485	7 º
-2.127645	7 é
-1.914079	8 (
-1.490833	8 )
-1.68363	8 ,
-2.135927	8 -
-1.296031	8 .
-0.9671353	8 /
-1.635325	8 0
-1.444257	8 1
-1.709959	8 2
-1.658806	8 3
-1.723747	8 4
-1.490833	8 5
-1.482715	8 6
-1.345877	8 7
-1.516139	8 8
-1.345877	8 9
-2.101165	8 ;
-2.135927	8 </s>
-2.173716	8 ]
-2.135927	8 a
-1.376259	8 d
-1.959836	8 e
-2.135927	8 h
-2.173716	8 n
-1.490833	8 o
-1.98466	8 q
-2.135927	8 r
-1.507538	8 º
-2.27805	9 (
-1.768744	9 )
-1.758525	9 ,
-2.3506	9 -
-1.559484	9 .
-1.166684	9 /
-1.37496	9 0
-1.358569	9 1
-1.327535	9 2
-1.3506	9 3
-1.499898	9 4
-1.534661	9 5
-1.335088	9 6
-1.305633	9 7
-1.177149	9 8
-0.8214501	9 9
-2.3506	9 :
-2.245865	9 ;
-2.245865	9 </s>
-2.3506	9 ]
-2.3506	9 b
-1.599601	9 d
-2.161544	9 e
-2.3506	9 f
-2.3506	9 n
-1.684423	9 o
-2.27805	9 p
-2.3506	9 q
-2.27805	9 r
-2.3506	9 s
-1.621141	9 º
-2.3506	9 é
-1.668785	: "
-1.939852	: -
-2.07455	: .
-2.002	: 1
-2.07455	: 3
-0.4438453	: </s>
-1.684579	: a
-2.07455	: c
-2.036762	: d
-2.036762	: e
-2.07455	: g
-2.07455	: h
-2.07455	: l
-2.036762	: m
-2.07455	: n
-1.814913	: o
-2.07455	: p
-1.860671	: q
-1.885494	: s
-2.002	: t
-1.885494	: u
-2.036762	: «
-2.07455	: »
-2.07455	: á
-2.173716	; (
-0.3968827	; </s>
-1.914079	; a
-2.010989	; c
-2.135927	; d
-1.591859	; e
-2.173716	; g
-1.872686	; n
-1.752711	; o
-2.101165	; p
-1.019209	; q
-2.173716	; s
-2.06898	; t
-2.173716	; u
-2.06898	; »
-2.106674	<s> "
-1.215166	<s> (
-1.221075	<s> -
-1.292006	<s> 1
-1.288517	<s> 2
-1.4878	<s> 3
-1.762178	<s> 4
-1.938269	<s> 5
-2.167943	<s> 6
-2.2393	<s> 7
-2.407704	<s> 8
-2.407704	<s> 9
-2.540329	<s> [
-0.7298089	<s> a
-1.582654	<s> b
-1.015285	<s> c
-1.513271	<s> d
-1.811396	<s> e
-2.118256	<s> f
-2.344035	<s> g
-2.385427	<s> h
-1.847608	<s> i
-2.540329	<s> j
-2.572514	<s> k
-2.510366	<s> l
-2.510366	<s> m
-2.033245	<s> n
-1.189528	<s> o
-1.996261	<s> p
-1.938269	<s> q
-1.908306	<s> r
-1.746938	<s> s
-1.255094	<s> t
-2.572514	<s> u
-2.540329	<s> v
-1.78883	<s> «
-2.572514	<s> â
-2.364238	<s> é
-2.607276	<s> ó
-1.835979	= 0
-1.835979	= 3
-1.79819	= 5
-1.731243	> =
-1.763428	[ n
-1.835979	[ s
-1.731243	] </s>
-3.287612	a "
-3.630034	a '
-2.999946	a (
-2.429549	a )
-1.944591	a ,
-2.967277	a -
-2.348244	a .
-3.726944	a /
-3.692182	a 0
-2.986582	a 1
-2.980051	a 2
-3.329005	a 3
-3.630034	a 4
-3.483907	a 5
-3.249823	a 6
-2.832998	a 7
-2.903036	a 8
-2.607469	a 9
-2.892312	a :
-2.745428	a ;
-3.249823	a </s>
-1.485979	a a
-1.82025	a b
-1.298135	a c
-0.808259	a d
-1.673546	a e
-2.119489	a f
-1.946987	a g
-3.226342	a h
-1.622856	a i
-2.819354	a j
-3.764733	a k
-1.28893	a l
-1.298	a m
-1.131448	a n
-1.566326	a o
-1.352043	a p
-2.150028	a q
-0.976629	a r
-0.8264408	a s
-1.401121	a t
-1.797951	a u
-2.04495	a v
-3.152913	a x
-3.630034	a y
-2.279786	a z
-3.659998	a «
-3.463703	a »
-2.563088	a à
-3.391152	a á
-1.286823	a ç
-2.942803	a é
-2.5993	a í
-2.560613	a ú
-2.700547	b (
-1.454137	b )
-2.41972	b ,
-2.700547	b -
-2.595811	b .
-2.627996	b 1
-2.700547	b </s>
-1.005543	b a
-2.173737	b c
-2.310575	b d
-0.9495474	b e
-2.486667	b f
-2.662758	b g
-2.662758	b h
-1.020953	b i
-1.627996	b j
-1.370871	b l
-2.069841	b m
-2.627996	b n
-1.365362	b o
-2.051743	b p
-2.700547	b q
-0.5234036	b r
-1.245009	b s
-1.963788	b t
-1.514052	b u
-2.662758	b v
-2.129155	b é
-2.627996	b ó
-2.662758	b ú
-3.176778	c (
-2.193377	c )
-3.058679	c ,
-3.204807	c .
-2.965925	c 0
-3.204807	c 1
-3.266955	c 2
-3.339506	c 3
-3.339506	c 9
-3.301717	c ;
-0.8072146	c a
-2.548389	c c
-3.019171	c d
-0.901611	c e
-2.31644	c h
-0.8652894	c i
-3.339506	c k
-1.71814	c l
-3.301717	c m
-2.394127	c n
-0.4551738	c o
-2.849419	c p
-3.301717	c q
-1.845604	c r
-3.339506	c s
-1.125626	c t
-1.476724	c u
-2.640536	c v
-3.339506	c «
-2.032593	c á
-3.019171	c â
-3.176778	c ã
-1.703291	c ç
-3.301717	c é
-2.982958	c ê
-2.135386	c í
-2.426656	c ó
-3.375023	d "
-3.499962	d (
-2.665329	d )
-3.499962	d ,
-3.53775	d </s>
-0.6313174	d a
-3.403052	d d
-0.481747	d e
-3.433015	d g
-3.433015	d h
-1.021395	d i
-2.753068	d j
-3.53775	d k
-3.53775	d l
-2.433015	d m
-3.499962	d n
-0.550938	d o
-3.4652	d p
-2.916385	d q
-2.681516	d r
-3.403052	d s
-3.53775	d t
-1.547331	d u
-3.4652	d v
-3.53775	d w
-3.499962	d »
-3.181203	d á
-3.4652	d â
-3.181203	d ã
-3.4652	d é
-2.86314	d ê
-3.278113	d í
-3.53775	d õ
-3.348694	d ú
-3.496713	e "
-2.809223	e (
-2.129276	e )
-1.817443	e ,
-3.045528	e -
-2.665316	e .
-2.966346	e /
-3.654321	e 0
-2.13911	e 1
-2.43193	e 2
-3.08029	e 3
-3.339927	e 4
-3.256381	e 5
-3.353291	e 6
-3.302138	e 7
-3.339927	e 8
-3.314373	e 9
-2.944627	e :
-2.949956	e ;
-3.142438	e </s>
-1.37571	e a
-2.47823	e b
-1.159124	e c
-1.295672	e d
-1.549877	e e
-1.657317	e f
-1.439312	e g
-3.102566	e h
-1.434867	e i
-2.107933	e j
-3.77926	e k
-1.366659	e l
-1.104628	e m
-0.933232	e n
-1.775297	e o
-1.617892	e p
-1.99393	e q
-0.9742122	e r
-0.7792235	e s
-1.712003	e t
-1.666431	e u
-1.662541	e v
-3.817048	e w
-1.748862	e x
-2.612928	e z
-3.557411	e «
-3.77926	e ±
-3.427077	e »
-2.600762	e à
-3.603168	e á
-3.654321	e â
-2.87617	e ç
-2.765019	e é
-2.960814	e í
-3.579687	e ó
-3.339927	e ú
-2.727689	f (
-2.096984	f )
-2.727689	f ,
-2.727689	f .
-2.689901	f 1
-1.176905	f a
-2.655138	f c
-2.727689	f d
-0.6877345	f e
-2.689901	f f
-2.727689	f g
-0.5260437	f i
-1.956168	f l
-0.6514791	f o
-1.573182	f r
-2.538633	f t
-1.459452	f u
-2.592991	f á
-2.371142	f é
-2.727689	f ê
-2.145833	f í
-2.689901	f ó
-2.727689	f ú
-2.86827	g "
-2.86827	g (
-2.447265	g )
-2.830482	g ,
-2.86827	g /
-0.9696448	g a
-2.86827	g b
-2.733572	g d
-1.073339	g e
-2.86827	g g
-1.090119	g i
-1.970144	g l
-2.86827	g m
-1.856585	g n
-0.5744057	g o
-2.79572	g p
-1.075242	g r
-2.830482	g s
-0.6286296	g u
-2.86827	g »
-2.56724	g á
-2.705543	g â
-2.511723	g ã
-1.785811	g é
-2.001178	g ê
-2.608633	g í
-2.830482	g ó
-2.86827	g õ
-2.362756	h (
-1.989176	h )
-2.362756	h ,
-2.290206	h -
-2.362756	h .
-2.362756	h /
-2.324968	h 1
-2.362756	h 3
-2.362756	h 8
-0.670952	h a
-2.362756	h d
-0.9387664	h e
-2.362756	h h
-1.277044	h i
-2.324968	h m
-0.5314104	h o
-2.362756	h p
-2.362756	h q
-2.324968	h r
-2.290206	h s
-1.679873	h u
-2.362756	h w
-1.989176	h á
-2.125396	h ã
-2.200029	h õ
-3.557781	i "
-3.519992	i &
-3.453045	i (
-2.669754	i )
-2.696083	i ,
-3.48523	i -
-3.094023	i .
-3.519992	i :
-3.201233	i ;
-3.368724	i </s>
-1.069871	i a
-2.123502	i b
-1.097566	i c
-0.9302285	i d
-1.821022	i e
-1.762216	i f
-1.195709	i g
-3.519992	i h
-2.171038	i i
-3.453045	i j
-1.786929	i l
-1.271814	i m
-1.013262	i n
-1.259523	i o
-2.201233	i p
-2.799833	i q
-1.235561	i r
-0.9245876	i s
-1.166845	i t
-2.95572	i u
-1.267139	i v
-3.519992	i w
-2.266735	i x
-1.646865	i z
-3.557781	i à
-2.707079	i á
-3.557781	i â
-2.707079	i ã
-1.613747	i ç
-3.32042	i é
-2.88317	i ê
-3.298143	i ó
-2.835745	i õ
-2.010612	j )
-2.210185	j .
-0.7141781	j a
-0.891426	j e
-1.210185	j o
-0.6342275	j u
-1.721164	j á
-2.247973	j ú
-1.743174	k )
-1.847909	k a
-1.847909	k c
-1.81012	k e
-1.685182	k g
-1.775358	k i
-1.847909	k k
-1.847909	k m
-1.743174	k o
-1.847909	k s
-1.847909	k t
-3.044572	l "
-3.044572	l '
-2.451656	l (
-3.00981	l )
-1.888225	l ,
-2.977626	l -
-2.297679	l .
-3.082361	l 2
-3.082361	l 4
-3.082361	l 6
-2.822724	l :
-2.470541	l ;
-2.868481	l </s>
-3.044572	l >
-0.6262711	l a
-2.893305	l b
-1.953492	l c
-1.507804	l d
-1.047842	l e
-2.579686	l f
-2.451656	l g
-1.172416	l h
-0.7402974	l i
-2.977626	l l
-1.79334	l m
-2.40775	l n
-0.9081161	l o
-2.226127	l p
-1.845	l q
-2.618604	l r
-2.098448	l s
-1.291884	l t
-1.532689	l u
-2.006482	l v
-3.082361	l «
-2.868481	l »
-2.661356	l à
-2.532689	l á
-2.60524	l â
-3.082361	l ç
-2.215269	l é
-2.893305	l ê
-1.538293	l í
-2.345603	l ó
-3.082361	l ú
-3.332952	m "
-2.942981	m (
-3.073315	m )
-2.263755	m ,
-2.911947	m -
-2.882983	m .
-3.332952	m /
-3.332952	m 0
-2.693104	m 1
-3.031922	m 2
-2.959372	m 3
-3.332952	m 4
-3.332952	m 5
-3.332952	m 7
-3.073315	m :
-2.959372	m ;
-3.119072	m </s>
-0.7997351	m a
-1.197675	m b
-1.346995	m c
-1.684149	m d
-0.5503494	m e
-2.329022	m f
-2.702247	m g
-3.260402	m h
-1.000147	m i
-3.228217	m j
-2.61847	m l
-2.095591	m m
-2.204083	m n
-1.084756	m o
-1.128339	m p
-1.972944	m q
-1.995947	m r
-1.824117	m s
-2.151628	m t
-1.391622	m u
-2.01641	m v
-3.198254	m y
-3.260402	m z
-3.332952	m «
-3.295164	m »
-2.761561	m à
-2.325127	m á
-3.012617	m ã
-2.104832	m é
-2.711587	m ê
-2.302463	m í
-3.052126	m ó
-2.911947	m ú
-3.44285	n "
-3.3703	n (
-3.308152	n )
-3.405062	n +
-3.3703	n ,
-1.849766	n .
-3.44285	n 0
-3.3703	n 1
-3.44285	n 2
-3.44285	n 3
-3.405062	n 4
-3.405062	n 9
-1.045859	n a
-3.44285	n b
-1.235289	n c
-1.149387	n d
-1.276608	n e
-1.647286	n f
-2.051274	n g
-1.736055	n h
-1.141426	n i
-2.83103	n j
-3.086303	n l
-3.338115	n m
-3.44285	n n
-0.9338922	n o
-3.44285	n p
-2.74388	n q
-3.308152	n r
-1.123082	n s
-0.5385774	n t
-2.004236	n u
-1.924336	n v
-3.44285	n y
-3.021845	n z
-2.992881	n °
-1.825278	n º
-2.302399	n á
-3.405062	n â
-1.741518	n ã
-1.834908	n ç
-3.14182	n é
-3.44285	n ê
-2.305266	n í
-2.450819	n ó
-2.397883	n ú
-2.988346	o "
-3.668293	o '
-2.028379	o (
-3.191171	o )
-1.557463	o ,
-2.249755	o -
-1.963775	o .
-3.773028	o 0
-1.909705	o 1
-2.095919	o 2
-2.391175	o 3
-2.624089	o 4
-2.746235	o 5
-2.71405	o 6
-2.789115	o 7
-2.860178	o 8
-2.749963	o 9
-2.418221	o :
-2.419969	o ;
-2.177933	o </s>
-3.73524	o >
-1.360186	o a
-1.932466	o b
-1.391011	o c
-0.9634684	o d
-1.445019	o e
-2.048752	o f
-2.186032	o g
-3.058546	o h
-1.845938	o i
-2.659085	o j
-3.668293	o k
-1.746606	o l
-1.122986	o m
-1.024206	o n
-1.886025	o o
-1.283581	o p
-1.846405	o q
-1.010691	o r
-0.7293086	o s
-1.75866	o t
-1.566202	o u
-1.988995	o v
-2.969323	o x
-3.773028	o y
-3.246219	o z
-3.133179	o «
-3.3373	o »
-2.4113	o à
-3.492202	o á
-2.850633	o â
-3.43421	o ç
-2.680882	o é
-3.583972	o ó
-3.223356	o ú
-3.175854	p (
-3.071119	p )
-3.138066	p -
-3.041156	p .
-3.175854	p </s>
-0.8044506	p a
-2.740126	p c
-3.175854	p d
-0.7077757	p e
-3.103304	p h
-1.87879	p i
-1.300793	p l
-3.175854	p m
-3.175854	p n
-0.724766	p o
-3.103304	p p
-0.5394576	p r
-3.013127	p s
-1.649045	p t
-1.927212	p u
-2.938493	p v
-3.138066	p »
-3.138066	p á
-2.002403	p ç
-2.593998	p é
-3.041156	p ê
-2.404334	p í
-2.127342	p ó
-3.071119	p ô
-2.895028	p õ
-2.221612	p ú
-2.609505	q )
-2.647294	q c
-2.647294	q e
-2.647294	q n
-2.647294	q s
-0.0720012	q u
-3.336204	r "
-3.550084	r '
-3.249054	r (
-3.445349	r )
-2.209459	r ,
-2.55405	r -
-2.734144	r .
-3.550084	r /
-3.477533	r 0
-3.361027	r 1
-3.550084	r 2
-3.477533	r 3
-3.550084	r 5
-3.512295	r 6
-3.129078	r :
-3.086326	r ;
-3.415385	r </s>
-0.7759651	r a
-2.820624	r b
-1.578639	r c
-1.577376	r d
-0.6074895	r e
-2.350927	r f
-2.016289	r g
-3.290447	r h
-0.9334651	r i
-3.477533	r j
-2.519594	r l
-1.356201	r m
-1.885613	r n
-0.8644234	r o
-2.144318	r p
-2.321964	r q
-1.883056	r r
-2.158507	r s
-1.15041	r t
-1.775899	r u
-2.027995	r v
-3.550084	r w
-3.387357	r y
-3.512295	r z
-3.211265	r «
-3.361027	r »
-2.778563	r à
-1.76153	r á
-3.059998	r â
-2.037593	r ã
-3.512295	r å
-2.415385	r ç
-2.578639	r é
-2.35343	r ê
-2.169873	r í
-2.578639	r ó
-3.445349	r õ
-3.445349	r ú
-2.938877	s "
-3.607884	s '
-2.54405	s (
-2.901735	s )
-1.570125	s ,
-1.903161	s -
-1.965254	s .
-2.880885	s 1
-2.979495	s 2
-3.181915	s 3
-3.306854	s 4
-3.306854	s 5
-3.325337	s 6
-3.344642	s 7
-3.195703	s 8
-3.306854	s 9
-2.661759	s :
-2.267109	s ;
-2.762786	s </s>
-1.155331	s a
-2.622607	s b
-1.378501	s c
-1.068181	s d
-0.769717	s e
-1.986361	s f
-2.522712	s g
-2.962789	s h
-1.309941	s i
-3.096	s j
-3.540937	s k
-2.134397	s l
-1.651635	s m
-1.490613	s n
-1.35726	s o
-1.145985	s p
-1.938102	s q
-1.626367	s r
-1.125129	s s
-0.9385669	s t
-1.535695	s u
-2.306854	s v
-3.645672	s w
-3.645672	s x
-3.272092	s z
-3.272092	s «
-3.209944	s »
-2.18056	s à
-2.150506	s á
-3.573122	s â
-1.547816	s ã
-3.024307	s é
-3.386035	s ê
-2.464349	s í
-2.576475	s ó
-2.742582	s õ
-3.272092	s ú
-3.645672	s β
-3.456973	t (
-3.294246	t )
-3.352238	t ,
-3.456973	t -
-3.384422	t .
-3.456973	t 1
-3.456973	t 2
-3.456973	t 3
-3.456973	t 5
-3.456973	t :
-3.456973	t ;
-3.456973	t </s>
-0.7289883	t a
-3.352238	t b
-3.384422	t c
-3.294246	t d
-0.646435	t e
-3.456973	t f
-3.419184	t g
-3.243093	t h
-0.705344	t i
-3.419184	t l
-3.100426	t m
-3.419184	t n
-0.7424908	t o
-1.090126	t r
-3.322274	t s
-3.419184	t t
-1.385761	t u
-3.419184	t v
-3.456973	t w
-3.456973	t y
-1.876152	t á
-2.203899	t â
-2.118155	t ã
-3.456973	t å
-3.456973	t ç
-3.419184	t è
-1.749403	t é
-2.468982	t ê
-2.019799	t í
-2.182395	t ó
-3.083392	t õ
-3.081257	u "
-2.753898	u (
-2.552984	u ,
-3.171434	u -
-3.206196	u .
-3.243984	u 0
-3.206196	u 1
-3.171434	u 2
-3.081257	u 3
-3.206196	u 4
-3.243984	u 5
-3.243984	u 9
-3.243984	u ;
-2.729075	u </s>
-0.9559793	u a
-1.565218	u b
-2.285377	u c
-1.628321	u d
-0.7861027	u e
-2.545015	u f
-2.507226	u g
-3.243984	u h
-1.237324	u i
-2.1064	u j
-1.027219	u l
-0.947918	u m
-1.118356	u n
-1.857242	u o
-1.583809	u p
-2.613279	u q
-1.179867	u r
-1.477166	u s
-1.044828	u t
-2.529502	u u
-2.729075	u v
-2.479197	u x
-2.161526	u z
-3.206196	u «
-2.794016	u à
-3.109286	u á
-3.243984	u â
-1.747558	u ç
-2.717175	u é
-2.613279	u ê
-1.896211	u í
-2.606268	v )
-2.583992	v ,
-2.654573	v .
-2.843629	v :
-2.680902	v ;
-2.771078	v </s>
-0.5775257	v a
-2.80584	v c
-2.437864	v d
-0.5314902	v e
-0.6960933	v i
-2.144659	v m
-0.9946008	v o
-2.771078	v p
-2.222264	v r
-2.562803	v u
-2.072109	v á
-2.562803	v â
-2.738894	v ã
-1.950523	v é
-2.085681	v ê
-2.70893	v í
-1.840562	w )
-1.840562	w ,
-1.802774	w a
-1.651506	w i
-1.840562	w y
-2.248148	x ,
-2.280333	x -
-2.352884	x 1
-0.9502317	x a
-1.226959	x c
-2.315095	x d
-1.07413	x e
-0.8602504	x i
-0.8237336	x o
-0.9502317	x p
-2.352884	x r
-1.341198	x t
-2.352884	x á
-2.315095	x ã
-1.646088	x í
-1.711526	y a
-1.808436	y l
-1.808436	y m
-1.808436	y o
-1.846225	y p
-1.657168	y r
-1.846225	y s
-1.846225	y w
-1.846225	y z
-2.297943	z (
-2.335731	z )
-2.098371	z ,
-2.230996	z .
-2.297943	z ;
-2.297943	z </s>
-0.4228815	z a
-2.335731	z b
-2.263181	z c
-1.885762	z d
-0.9604836	z e
-2.297943	z g
-1.27332	z i
-2.201033	z m
-2.335731	z n
-0.9506128	z o
-2.146675	z p
-2.263181	z q
-1.79734	z r
-2.335731	z u
-2.335731	z v
-2.297943	z à
-2.335731	z á
-2.263181	z ã
-2.297943	z é
-2.335731	z ê
-2.335731	z ó
-1.979184	z õ
-1.925687	« -
-1.711807	« 1
-1.736631	« 2
-1.688326	« 3
-1.925687	« 4
-1.925687	« 5
-1.853136	« 6
-1.925687	« 7
-1.925687	« </s>
-1.354296	« a
-1.925687	« b
-1.519922	« c
-1.624657	« d
-1.66605	« e
-1.925687	« f
-1.925687	« g
-1.925687	« h
-1.820952	« i
-1.853136	« j
-1.76296	« m
-1.605352	« n
-1.820952	« o
-1.624657	« p
-1.853136	« q
-1.853136	« r
-1.711807	« s
-1.711807	« t
-1.853136	« u
-1.887898	« v
-1.925687	« z
-1.820092	° ,
-1.422152	° .
-1.78533	° 1
-1.85788	° 2
-1.753145	° 3
-1.85788	° 4
-1.820092	° 5
-1.78533	° 7
-1.85788	° 8
-1.820092	° </s>
-1.820092	° c
-1.820092	° d
-1.834825	± d
-1.834825	± u
-1.15224	º ,
-1.872399	º .
-1.009572	º 1
-1.088257	º 2
-1.383379	º 3
-1.696308	º 4
-1.997338	º 5
-2.04849	º 6
-2.022161	º 7
-1.973857	º 8
-2.173429	º 9
-2.138667	º :
-1.973857	º ;
-0.8985019	º </s>
-1.837637	º a
-2.022161	º b
-2.173429	º c
-1.177063	º d
-1.45327	º e
-2.211218	º f
-2.106482	º l
-2.076519	º n
-2.138667	º o
-1.872399	º p
-2.138667	º q
-2.211218	º r
-1.684409	º s
-2.211218	º w
-2.106482	º »
-2.211218	º à
-2.022161	º é
-1.852198	» (
-1.820014	» )
-1.303384	» ,
-1.233748	» .
-1.886961	» :
-1.422074	» ;
-1.503744	» </s>
-1.886961	» a
-1.762022	» d
-1.762022	» e
-1.924749	» n
-1.687388	» o
-1.852198	» p
-1.924749	» q
-1.852198	» s
-1.924749	» u
-1.665112	» é
-1.168101	à a
-2.044863	à b
-1.001153	à c
-1.417979	à d
-1.40608	à e
-1.877371	à f
-2.071191	à g
-2.09922	à h
-1.631859	à i
-1.828153	à l
-1.8951	à m
-1.812913	à n
-1.860338	à o
-1.203429	à p
-1.843948	à q
-1.542918	à r
-0.693248	à s
-2.044863	à t
-1.8951	à u
-1.8951	à v
-2.233919	à «
-2.19613	à á
-1.756323	á ,
-1.972531	á -
-2.384712	á .
-2.4225	á 5
-1.34995	á a
-2.34995	á b
-1.472667	á c
-1.861833	á d
-1.731499	á e
-1.851109	á f
-1.455293	á g
-1.872828	á i
-2.4225	á j
-1.41857	á l
-2.287802	á m
-2.032529	á n
-1.65098	á o
-1.791795	á p
-2.04892	á q
-0.5194103	á r
-1.612635	á s
-1.463893	á t
-1.74789	á u
-1.007527	á v
-1.594661	á x
-1.945379	á à
-1.871573	â -
-0.9832062	â m
-0.6244183	â n
-2.389899	ã e
-0.04904475	ã o
-2.810904	ã s
-1.797614	å l
-1.835402	å r
-1.259614	ç a
-1.441695	ç o
-0.2485705	ç ã
-0.637215	ç õ
-2.066031	ç ú
-1.797037	è r
-2.324968	é "
-2.362756	é '
-2.362756	é )
-1.87267	é ,
-2.125396	é -
-2.103119	é .
-2.103119	é 1
-2.290206	é 2
-1.941751	é 3
-2.362756	é :
-2.362756	é ;
-2.324968	é </s>
-1.186665	é a
-2.324968	é b
-1.00795	é c
-1.139331	é d
-1.552891	é e
-1.956991	é f
-1.989176	é g
-1.770681	é i
-2.362756	é j
-2.103119	é l
-1.29356	é m
-1.086086	é n
-1.791365	é o
-1.679873	é p
-2.228058	é q
-0.8976442	é r
-1.245787	é s
-1.387116	é t
-1.989176	é u
-1.87267	é v
-2.362756	é x
-2.258021	é »
-2.042421	é à
-2.362756	é é
-1.868906	ê ,
-1.920058	ê -
-1.893729	ê a
-2.044997	ê c
-1.893729	ê e
-2.082785	ê l
-1.647057	ê m
-0.501964	ê n
-2.082785	ê o
-1.801959	ê q
-2.044997	ê r
-1.174788	ê s
-1.632816	ê u
-1.893729	ê x
-2.414213	í -
-2.200334	í b
-0.9279762	í c
-1.011561	í d
-1.369246	í f
-2.225157	í g
-1.663214	í l
-1.937092	í m
-0.8804182	í n
-1.455606	í o
-1.610508	í p
-1.864542	í q
-2.075395	í r
-1.09958	í s
-1.123168	í t
-2.414213	í u
-1.008448	í v
-1.642693	í z
-2.11059	ó ,
-2.148378	ó a
-2.148378	ó b
-1.959322	ó c
-1.245288	ó d
-2.148378	ó e
-1.433896	ó g
-2.043643	ó i
-1.598706	ó l
-1.181171	ó m
-1.774798	ó n
-1.985651	ó o
-1.129073	ó p
-2.148378	ó q
-0.7953193	ó r
-1.092861	ó s
-1.742613	ó t
-2.11059	ó u
-1.959322	ó v
-1.645703	ó x
-2.075828	ó é
-1.763428	ô r
-1.835979	ô s
-0.15617	õ e
-1.103804	ú b
-1.347929	ú c
-1.195319	ú d
-2.062411	ú g
-0.9965938	ú l
-1.103804	ú m
-1.252545	ú n
-2.062411	ú p
-2.062411	ú r
-1.82505	ú s
-1.535602	ú t
-2.024622	ú v
-2.024622	ú z
-1.834247	β -

\end\
