
\data\
ngram 1=79
ngram 2=1756

\1-grams:
-2.947358	"	0.8490288
-3.786143	%	0.1874437
-4.383838	'	0.02800333
-2.355104	(	0.1861884
-2.33431	)	0.2839558
-3.906717	*	0.2362803
-4.702597	+	-0.009845395
-2.052532	,	0.1321159
-2.914311	-	0.6233291
-2.10226	.	0.07987025
-2.594822	/	-0.3247072
-2.674229	0	-0.1175356
-2.318333	1	-0.06946552
-2.434253	2	-0.05599819
-2.663514	3	-0.08182607
-2.809113	4	0.1042853
-2.884151	5	0.2283981
-2.818463	6	-0.06935099
-2.85236	7	-0.07839817
-2.831901	8	-0.1620684
-2.550564	9	0.06660381
-3.028962	:	0.2670935
-2.811431	;	0.1440342
-4.702597	<	7.856748e-06
-2.167092	</s>
-99	<s>	-0.03121296
-4.702597	>	0.02208604
-4.702597	[	0.01469291
-4.702597	]	-0.005957981
-3.867965	_	-0.05619317
-1.054107	a	-0.6987453
-2.05497	b	0.2408036
-1.309534	c	-0.3133453
-1.512733	d	-0.2459946
-0.909692	e	-0.8397365
-1.996591	f	-0.4166444
-2.106458	g	0.2150612
-2.799055	h	-0.05514995
-0.9938293	i	-0.7882851
-2.92808	j	0.1554654
-4.082808	k	0.193468
-1.304078	l	0.2608314
-1.590132	m	-0.2243499
-1.217681	n	0.09743708
-1.354828	o	-0.5478584
-1.550819	p	-0.3151646
-4.577658	q	0.01502778
-1.117465	r	0.1149579
-1.490365	s	-0.3524621
-1.162299	t	-0.2740565
-1.280746	u	0.02198861
-1.972219	v	0.049655
-4.420051	w	0.05496297
-2.637827	x	-0.04421713
-4.350415	y	0.1449724
-2.025599	z	-0.4985591
-4.667835	­	0.0269428
-4.740386	à	-0.005630964
-4.740386	á	0.007385565
-2.543732	â	-0.2972141
-4.740386	ã	0.01346109
-4.702597	ä	0.00186496
-4.667835	å	0.04551655
-4.740386	ç	-0.006152412
-4.740386	è	0.02830957
-4.63565	é	0.1261014
-1.972151	î	-0.8106444
-4.667835	ó	0.03612987
-4.740386	ü	0.02830957
-1.657274	ă	-0.1322186
-2.204287	ş	-0.3722787
-1.931255	ţ	-0.7156384
-4.740386	ε	-0.001760931
-4.250299	―	0.3588047
-4.577658	‚	0.0966948
-4.740386	−	0.006231848
-4.63565	≥	-0.01681893
-4.605687	─	0.136096
-4.702597		-0.006105465

\2-grams:
-1.463296	" (
-1.782054	" )
-1.518813	" ,
-2.083084	" -
-1.539016	" .
-1.931817	" 1
-2.016138	" 2
-1.931817	" 3
-2.120873	" 5
-2.048322	" 6
-2.120873	" 8
-2.083084	" 9
-1.730902	" :
-1.560206	" ;
-1.198478	" </s>
-1.293034	" a
-1.861236	" b
-1.398838	" c
-1.715108	" d
-2.016138	" e
-2.016138	" f
-2.016138	" g
-2.083084	" h
-1.861236	" i
-2.120873	" j
-1.958146	" l
-1.782054	" m
-1.782054	" n
-1.986174	" o
-1.582482	" p
-1.685144	" r
-1.253781	" s
-1.800538	" t
-2.016138	" u
-1.840046	" v
-2.120873	" z
-1.549482	" î
-1.840046	" ş
-2.083084	" ţ
-2.120873	" ―
-1.859838	% "
-1.660266	% ,
-1.708571	% .
-1.825076	% ;
-1.897627	% </s>
-1.897627	% a
-1.897627	% c
-1.24005	% d
-1.897627	% e
-1.859838	% m
-1.859838	% o
-1.596597	% p
-1.897627	% s
-1.897627	% t
-1.897627	% v
-1.859838	% î
-1.825076	% ş
-1.821186	' '
-1.754239	' ,
-1.858974	' .
-1.858974	' 1
-1.858974	' ;
-1.821186	' a
-1.858974	' d
-1.786424	' s
-2.422741	( "
-2.390557	( *
-2.360593	( -
-2.495292	( 0
-0.8429577	( 1
-0.9791775	( 2
-1.257931	( 3
-1.468499	( 4
-1.612405	( 5
-1.730505	( 6
-1.968483	( 7
-1.956901	( 8
-1.913435	( 9
-1.237832	( a
-1.291172	( b
-0.7785301	( c
-1.587295	( d
-1.78081	( e
-1.804291	( f
-2.138745	( g
-2.156473	( h
-1.602186	( i
-2.306236	( j
-2.360593	( k
-2.332565	( l
-2.332565	( m
-2.214465	( n
-2.214465	( o
-2.174957	( p
-2.495292	( q
-2.360593	( r
-2.214465	( s
-2.089527	( t
-2.457503	( u
-2.281412	( v
-2.495292	( w
-2.422741	( z
-2.281412	( î
-2.495292	( ţ
-2.495292	( ε
-1.804723	) "
-2.251881	) (
-2.47373	) *
-1.062953	) ,
-2.251881	) -
-1.477365	) .
-2.297639	) 1
-2.47373	) 2
-2.47373	) 3
-2.438968	) 4
-2.137938	) :
-1.812549	) ;
-2.511519	) <
-1.87167	) </s>
-2.511519	) ]
-1.340724	) a
-2.511519	) b
-1.371068	) c
-1.104205	) d
-1.804723	) e
-1.961847	) f
-2.47373	) g
-2.406783	) h
-2.07579	) i
-2.511519	) j
-1.309873	) l
-1.87167	) m
-0.8835946	) n
-1.880814	) o
-1.260655	) p
-1.836908	) r
-1.181844	) s
-1.828636	) t
-2.008843	) u
-2.210489	) v
-2.511519	) w
-2.47373	) y
-1.314865	) î
-1.397575	) ş
-2.47373	) ţ
-1.780729	* )
-1.449735	* *
-1.780729	* ,
-1.722737	* .
-1.885464	* ;
-1.885464	* </s>
-1.885464	* b
-1.885464	* c
-1.812913	* d
-1.885464	* e
-1.885464	* f
-1.885464	* g
-1.847675	* i
-1.722737	* j
-1.750765	* o
-1.885464	* p
-1.885464	* r
-1.885464	* s
-1.847675	* u
-1.812913	* ş
-1.851814	+ 2
-1.851814	+ 3
-2.356168	, "
-2.21933	, (
-2.746139	, -
-2.746139	, .
-2.486501	, 0
-2.465312	, 1
-2.340373	, 2
-2.532259	, 3
-2.557082	, 4
-2.486501	, 5
-2.557082	, 6
-2.583411	, 7
-2.425803	, 8
-2.40732	, 9
-1.052732	, </s>
-1.075724	, a
-2.356168	, b
-0.9888807	, c
-1.104484	, d
-1.513373	, e
-1.726833	, f
-2.372558	, g
-2.372558	, h
-1.508778	, i
-2.641403	, j
-1.70835	, l
-1.522714	, m
-1.80526	, n
-1.787531	, o
-1.00938	, p
-1.819048	, r
-1.173689	, s
-1.676942	, t
-2.002202	, u
-2.097335	, v
-2.673588	, x
-2.746139	, z
-0.9242085	, î
-1.906718	, ş
-2.325133	, ţ
-2.641403	, ‚
-2.031985	- "
-1.89936	- (
-2.136721	- *
-2.031985	- -
-2.136721	- 0
-1.816385	- 1
-2.031985	- 2
-2.136721	- 4
-2.098932	- 5
-2.136721	- 6
-2.06417	- 7
-2.136721	- 8
-2.06417	- 9
-1.022777	- a
-2.031985	- b
-1.371933	- c
-1.587049	- d
-1.816385	- e
-1.855894	- f
-2.06417	- g
-2.031985	- h
-1.587049	- i
-1.565329	- l
-1.835691	- m
-1.780173	- n
-1.186887	- o
-1.59833	- p
-1.659599	- r
-1.470543	- s
-1.947664	- t
-1.117415	- u
-1.922841	- v
-2.136721	- z
-2.136721	- à
-1.730955	- î
-1.700992	- ş
-2.098932	- ţ
-1.699048	. "
-2.702979	. '
-0.8624163	. (
-2.540251	. )
-2.66519	. *
-2.66519	. ,
-2.702979	. -
-2.66519	. .
-2.513922	. 0
-1.024212	. 1
-1.227175	. 2
-1.474858	. 3
-1.804852	. 4
-1.846744	. 5
-1.918296	. 6
-1.830557	. 7
-1.825293	. 8
-1.893113	. 9
-2.702979	. :
-0.5827038	. </s>
-2.598243	. _
-1.524263	. a
-2.443341	. b
-1.595152	. c
-1.766648	. d
-2.100919	. e
-2.121122	. f
-2.630428	. g
-2.702979	. h
-2.281973	. i
-2.702979	. j
-1.980943	. l
-2.188069	. m
-2.313007	. n
-2.281973	. o
-1.771243	. p
-2.164588	. r
-1.540251	. s
-2.110903	. t
-2.25301	. u
-2.540251	. v
-2.66519	. x
-1.617266	. î
-2.66519	. ş
-2.321843	/ /
-1.306331	/ 1
-1.310157	/ 2
-1.511977	/ 3
-1.249292	/ 4
-1.570844	/ 5
-1.236131	/ 6
-1.418753	/ 7
-1.363236	/ 8
-1.024779	/ 9
-2.321843	/ a
-0.6463981	/ c
-2.321843	/ d
-2.321843	/ e
-2.284055	/ h
-2.284055	/ i
-2.321843	/ j
-1.471141	/ s
-2.270573	0 "
-1.563778	0 %
-2.135875	0 (
-1.834844	0 )
-2.232785	0 *
-1.541114	0 ,
-2.270573	0 -
-1.834844	0 .
-1.051894	0 /
-0.7425917	0 0
-1.392888	0 1
-1.311966	0 2
-1.548538	0 3
-1.834844	0 4
-1.914026	0 5
-1.864808	0 6
-1.743764	0 7
-1.849568	0 8
-1.834844	0 9
-2.198022	0 ;
-1.604396	0 </s>
-1.595962	0 a
-2.232785	0 b
-2.081517	0 c
-1.382547	0 d
-2.033212	0 e
-2.270573	0 f
-2.232785	0 h
-1.931754	0 i
-2.165838	0 k
-2.081517	0 m
-2.165838	0 n
-2.232785	0 o
-1.793452	0 p
-1.950238	0 s
-2.165838	0 t
-2.270573	0 w
-2.198022	0 z
-2.081517	0 ş
-2.486312	1 %
-2.310221	1 (
-0.9171336	1 )
-1.404126	1 ,
-1.289032	1 .
-1.380802	1 /
-1.319981	1 0
-1.38365	1 1
-1.419366	1 2
-1.475589	1 3
-1.472072	1 4
-1.45155	1 5
-1.592366	1 6
-1.565494	1 7
-1.646416	1 8
-0.8833485	1 9
-2.389402	1 :
-2.335045	1 ;
-1.53611	1 </s>
-1.544304	1 a
-2.419366	1 c
-1.662404	1 d
-2.486312	1 e
-2.524101	1 f
-1.673399	1 i
-2.486312	1 k
-2.060344	1 l
-2.103096	1 m
-2.361374	1 n
-2.167554	1 o
-2.060344	1 p
-2.524101	1 r
-2.009191	1 s
-2.45155	1 t
-2.486312	1 î
-2.021425	1 ş
-2.435149	2 "
-2.300451	2 %
-2.330414	2 (
-0.9071679	2 )
-1.346208	2 ,
-2.397361	2 -
-1.169046	2 .
-1.20008	2 /
-0.9166352	2 0
-1.670362	2 1
-1.476542	2 2
-1.537023	2 3
-1.503414	2 4
-1.568057	2 5
-1.60731	2 6
-1.777572	2 7
-1.68415	2 8
-1.573452	2 9
-2.435149	2 :
-2.197788	2 ;
-1.38312	2 </s>
-1.508059	2 a
-2.300451	2 c
-1.625283	2 d
-2.435149	2 e
-2.397361	2 f
-2.175512	2 i
-1.999421	2 l
-2.397361	2 m
-2.362598	2 n
-2.397361	2 o
-1.932474	2 p
-1.958028	2 s
-2.435149	2 t
-2.435149	2 u
-2.330414	2 î
-1.945063	2 ş
-2.204746	3 "
-2.172561	3 %
-2.277297	3 (
-1.011193	3 )
-1.305852	3 ,
-2.08824	3 -
-1.221779	3 .
-1.148428	3 /
-1.410204	3 0
-1.410204	3 1
-1.578327	3 2
-1.716629	3 3
-1.78721	3 4
-1.774621	3 5
-1.455366	3 6
-1.619719	3 7
-1.750488	3 8
-1.685221	3 9
-2.239508	3 :
-2.063417	3 ;
-1.340966	3 </s>
-1.374207	3 a
-2.239508	3 b
-2.172561	3 c
-1.547837	3 d
-2.277297	3 e
-2.239508	3 f
-2.039936	3 i
-2.114569	3 l
-2.172561	3 m
-2.277297	3 n
-1.774621	3 p
-1.976267	3 s
-2.239508	3 t
-2.142598	3 î
-1.774621	3 ş
-2.191349	4 "
-2.153561	4 %
-2.118799	4 (
-1.118799	4 )
-1.340647	4 ,
-1.283352	4 .
-1.099203	4 /
-1.619958	4 0
-1.589289	4 1
-1.44035	4 2
-1.57953	4 3
-1.817769	4 4
-1.890319	4 5
-1.652959	4 6
-1.871014	4 7
-1.589289	4 8
-1.516739	4 9
-1.931712	4 ;
-1.393893	4 </s>
-1.469314	4 a
-2.118799	4 c
-1.551501	4 d
-2.191349	4 e
-2.118799	4 f
-1.910523	4 i
-2.086614	4 l
-2.153561	4 m
-2.056651	4 n
-2.153561	4 o
-1.817769	4 p
-2.191349	4 r
-1.931712	4 s
-2.191349	4 z
-2.191349	4 î
-1.801378	4 ş
-2.191349	4 
-2.151732	5 "
-1.674611	5 %
-2.079181	5 (
-1.201899	5 )
-1.414973	5 ,
-2.113943	5 -
-1.407795	5 .
-1.210853	5 /
-1.613341	5 0
-1.674611	5 1
-1.569875	5 2
-1.716003	5 3
-1.60206	5 4
-1.892095	5 5
-1.624923	5 6
-1.778151	5 7
-1.674611	5 8
-1.850702	5 9
-2.151732	5 :
-1.937852	5 ;
-1.494155	5 </s>
-2.151732	5 ]
-1.407795	5 a
-2.151732	5 b
-1.870905	5 c
-1.569875	5 d
-2.079181	5 e
-2.113943	5 f
-2.113943	5 g
-1.795185	5 i
-2.079181	5 k
-2.113943	5 l
-1.937852	5 m
-2.017033	5 n
-2.113943	5 o
-1.761761	5 p
-1.761761	5 s
-2.046997	5 t
-2.151732	5 u
-2.046997	5 z
-1.636822	5 ş
-2.186237	6 "
-2.051538	6 %
-2.186237	6 (
-1.395121	6 )
-1.42145	6 ,
-2.081502	6 -
-1.537434	6 .
-0.9747766	6 /
-1.487267	6 0
-1.750508	6 1
-1.449478	6 2
-1.72248	6 3
-1.636565	6 4
-1.765232	6 5
-1.414716	6 6
-1.520059	6 7
-1.401555	6 8
-1.780472	6 9
-2.186237	6 :
-2.02351	6 ;
-1.479442	6 </s>
-1.520059	6 a
-2.051538	6 c
-1.584177	6 d
-2.051538	6 e
-1.997181	6 f
-1.865902	6 i
-2.081502	6 m
-2.113686	6 n
-1.765232	6 p
-1.750508	6 s
-2.186237	6 t
-1.796266	6 ş
-2.130334	7 %
-2.063387	7 (
-1.596731	7 )
-2.168122	7 *
-1.493512	7 ,
-2.130334	7 -
-1.665447	7 .
-1.105711	7 /
-1.493512	7 0
-1.61845	7 1
-1.501945	7 2
-1.566062	7 3
-1.641313	7 4
-1.461327	7 5
-1.493512	7 6
-1.424185	7 7
-1.38344	7 8
-1.596731	7 9
-2.168122	7 :
-2.033424	7 ;
-1.537417	7 </s>
-1.45364	7 a
-2.130334	7 c
-1.438663	7 d
-2.130334	7 e
-2.168122	7 f
-1.930761	7 i
-2.005395	7 l
-1.954242	7 m
-2.130334	7 n
-1.747117	7 p
-1.954242	7 s
-1.732394	7 ş
-2.01625	8 (
-1.548272	8 )
-1.59712	8 ,
-2.141188	8 -
-1.61831	8 .
-0.974857	8 /
-1.652168	8 0
-1.449518	8 1
-1.664067	8 2
-1.652168	8 3
-1.71522	8 4
-1.504366	8 5
-1.472182	8 6
-1.369111	8 7
-1.530174	8 8
-1.339556	8 9
-1.989921	8 ;
-1.548272	8 </s>
-1.539128	8 a
-2.106426	8 c
-1.5128	8 d
-2.141188	8 f
-1.858642	8 i
-2.178977	8 l
-2.01625	8 m
-2.141188	8 n
-2.141188	8 o
-1.729008	8 p
-1.941616	8 s
-2.106426	8 î
-1.789006	8 ş
-2.178977	8 
-2.279281	9 (
-1.849156	9 )
-1.836922	9 ,
-2.351831	9 -
-1.721126	9 .
-1.17838	9 /
-1.351831	9 0
-1.367918	9 1
-1.336319	9 2
-1.36384	9 3
-1.495597	9 4
-1.523992	9 5
-1.3598	9 6
-1.347901	9 7
-1.202892	9 8
-0.8226812	9 9
-2.351831	9 :
-2.162775	9 ;
-1.740012	9 </s>
-1.685654	9 a
-2.279281	9 b
-2.279281	9 c
-1.791164	9 d
-2.217133	9 e
-2.314043	9 f
-2.351831	9 g
-2.314043	9 h
-2.031496	9 i
-2.314043	9 l
-2.162775	9 m
-2.314043	9 n
-2.137952	9 o
-1.888074	9 p
-2.189104	9 s
-2.351831	9 t
-2.351831	9 u
-2.351831	9 î
-1.946066	9 ş
-1.678648	: "
-2.084414	: '
-1.745595	: (
-1.949715	: -
-2.084414	: .
-2.011863	: 1
-0.4555606	: </s>
-1.949715	: a
-2.084414	: b
-2.011863	: c
-2.046625	: d
-2.011863	: e
-2.084414	: g
-2.084414	: h
-2.046625	: l
-2.084414	: m
-2.046625	: n
-1.783384	: o
-1.949715	: p
-2.084414	: r
-1.895357	: s
-2.011863	: t
-1.949715	: u
-2.084414	: ţ
-2.084414	: ―
-2.001021	; "
-2.190077	; (
-2.190077	; *
-2.190077	; 3
-0.3851325	; </s>
-2.02735	; a
-2.190077	; b
-2.055378	; c
-2.02735	; d
-2.055378	; e
-2.190077	; i
-2.117526	; n
-2.117526	; p
-2.117526	; r
-2.001021	; s
-2.117526	; t
-2.190077	; u
-0.9786165	; î
-1.952716	; ş
-1.851814	< <
-1.851814	< p
-1.659747	<s> "
-0.7091278	<s> (
-2.21201	<s> *
-1.312554	<s> -
-1.453603	<s> 1
-1.419618	<s> 2
-1.672098	<s> 3
-1.869587	<s> 4
-2.055663	<s> 5
-2.257767	<s> 6
-2.291191	<s> 7
-2.458682	<s> 8
-2.410378	<s> 9
-2.647738	<s> [
-0.7073126	<s> a
-2.145063	<s> b
-1.448582	<s> c
-1.396875	<s> d
-2.197769	<s> e
-2.170617	<s> f
-2.366912	<s> g
-2.485011	<s> h
-2.120929	<s> i
-2.257767	<s> l
-2.183981	<s> m
-2.458682	<s> n
-2.21201	<s> o
-1.40583	<s> p
-1.918279	<s> r
-1.702359	<s> s
-2.183981	<s> t
-2.51304	<s> u
-2.575188	<s> v
-2.575188	<s> ­
-1.088158	<s> î
-2.60995	<s> ş
-2.183981	<s> ―
-2.647738	<s> −
-2.51304	<s> ─
-1.851814	> >
-1.851814	> r
-1.851814	[ p
-1.851814	[ s
-1.851814	] .
-1.851814	] </s>
-1.889047	_ (
-1.851258	_ *
-1.889047	_ </s>
-1.038345	_ _
-3.100419	a "
-3.154104	a (
-2.374052	a )
-2.239733	a ,
-3.061789	a -
-2.716854	a .
-3.692494	a /
-3.692494	a 0
-2.704503	a 1
-3.001493	a 2
-3.009611	a 3
-3.587759	a 4
-3.455133	a 5
-3.271489	a 6
-2.895038	a 7
-2.985699	a 8
-2.640465	a 9
-3.080675	a :
-3.110638	a ;
-3.286729	a </s>
-1.580987	a a
-1.73913	a b
-1.112919	a c
-1.318413	a d
-2.110638	a e
-1.890032	a f
-2.094401	a g
-2.853074	a h
-1.740451	a i
-2.14171	a j
-3.654706	a k
-1.009038	a l
-1.486896	a m
-1.15171	a n
-2.313931	a o
-1.337688	a p
-3.587759	a q
-0.7442148	a r
-1.470014	a s
-0.823156	a t
-1.340487	a u
-1.775801	a v
-3.692494	a w
-2.72105	a x
-3.587759	a y
-1.687392	a z
-3.692494	a ç
-2.14171	a î
-2.183659	a ş
-1.564213	a ţ
-2.744008	b (
-1.495366	b )
-2.323003	b ,
-2.70622	b -
-2.581281	b .
-2.639273	b 1
-2.744008	b 6
-2.744008	b 7
-2.744008	b :
-2.744008	b ;
-2.744008	b </s>
-1.134123	b a
-2.141948	b c
-2.354037	b d
-1.527722	b e
-2.217199	b f
-2.744008	b g
-2.70622	b h
-0.6738025	b i
-2.671458	b j
-1.198814	b l
-2.744008	b m
-2.744008	b n
-1.513559	b o
-2.442978	b p
-0.6850305	b r
-1.372101	b s
-2.70622	b t
-0.8350362	b u
-2.60931	b v
-2.387461	b â
-2.639273	b î
-1.871587	b ă
-2.484371	b ş
-1.89891	b ţ
-3.279253	c "
-3.161154	c (
-2.304396	c )
-2.698044	c ,
-2.992012	c .
-3.279253	c 0
-3.404192	c 1
-3.337245	c 2
-3.404192	c 3
-3.404192	c 7
-3.337245	c :
-3.161154	c ;
-3.441981	c </s>
-0.8144286	c a
-3.404192	c b
-2.340358	c c
-2.775803	c d
-0.7890314	c e
-3.307282	c f
-3.337245	c g
-1.814987	c h
-1.065736	c i
-3.441981	c k
-1.868476	c l
-2.881313	c m
-3.103162	c n
-0.6527205	c o
-2.684033	c p
-1.795844	c r
-2.830161	c s
-1.117885	c t
-1.035905	c u
-2.37957	c v
-3.441981	c y
-1.559094	c â
-3.085433	c î
-1.170984	c ă
-2.690982	c ş
-1.681284	c ţ
-3.007927	d "
-3.2075	d (
-2.378196	d )
-2.663432	d ,
-3.140553	d -
-3.031409	d .
-3.245288	d /
-3.245288	d 8
-3.11059	d :
-3.082561	d ;
-3.245288	d </s>
-1.156669	d a
-3.11059	d b
-1.992215	d c
-2.362402	d d
-0.3589514	d e
-2.795319	d f
-2.964462	d g
-3.2075	d h
-0.6557449	d i
-2.964462	d j
-3.245288	d k
-2.80956	d l
-1.954242	d m
-2.60544	d n
-1.34072	d o
-2.357262	d p
-1.72558	d r
-2.253257	d s
-2.824283	d t
-1.030204	d u
-2.964462	d v
-3.2075	d w
-3.172738	d z
-3.140553	d â
-1.789751	d î
-1.880141	d ă
-2.964462	d ş
-2.765963	e "
-3.83516	e '
-2.808367	e (
-2.154742	e )
-3.730425	e *
-1.720913	e ,
-3.113125	e -
-2.09408	e .
-3.797371	e /
-3.672433	e 0
-2.268027	e 1
-2.769343	e 2
-3.105701	e 3
-3.332485	e 4
-3.274493	e 5
-3.478613	e 6
-3.575523	e 7
-3.597799	e 8
-3.597799	e 9
-2.765963	e :
-2.403796	e ;
-2.898829	e </s>
-0.9692488	e a
-1.949696	e b
-1.012576	e c
-1.246023	e d
-1.714885	e e
-1.83516	e f
-1.554954	e g
-2.600091	e h
-1.452815	e i
-2.839126	e j
-3.700461	e k
-1.1444	e l
-1.383373	e m
-1.007028	e n
-2.028363	e o
-1.304495	e p
-1.09566	e r
-1.116583	e s
-1.553094	e t
-1.898372	e u
-1.78559	e v
-3.83516	e w
-1.804671	e x
-1.678171	e z
-1.598714	e î
-1.780338	e ş
-2.392253	e ţ
-3.797371	e ≥
-2.795438	f "
-2.795438	f '
-2.795438	f (
-2.164732	f )
-2.421857	f ,
-2.690702	f .
-2.757649	f 1
-2.795438	f :
-1.21983	f a
-2.757649	f c
-2.514611	f d
-0.889887	f e
-2.795438	f g
-0.434397	f i
-1.783752	f l
-0.6532757	f o
-1.854559	f r
-2.5358	f s
-2.606381	f t
-1.372937	f u
-2.213581	f â
-2.795438	f î
-2.795438	f ü
-1.569659	f ă
-2.690702	f ş
-2.699365	g "
-2.699365	g (
-2.263636	g )
-2.510309	g ,
-2.626814	g .
-2.699365	g /
-2.661576	g :
-2.699365	g ;
-2.699365	g </s>
-0.8317364	g a
-2.699365	g b
-2.564666	g c
-2.398335	g d
-0.9407279	g e
-2.418538	g f
-2.699365	g g
-1.683852	g h
-0.9728597	g i
-1.315876	g l
-2.594629	g m
-2.485485	g n
-1.35874	g o
-2.462004	g p
-0.9379836	g r
-2.594629	g s
-2.661576	g t
-0.6497942	g u
-2.661576	g v
-2.594629	g â
-2.699365	g é
-2.699365	g î
-1.4552	g ă
-2.626814	g ş
-1.806933	h )
-2.196904	h ,
-2.092169	h -
-2.124354	h .
-2.196904	h /
-2.159116	h 1
-2.196904	h 3
-2.196904	h 8
-1.647232	h a
-2.196904	h d
-0.797388	h e
-0.6494653	h i
-1.242662	h n
-1.293814	h o
-1.658513	h r
-2.159116	h s
-2.196904	h w
-2.159116	h â
-2.196904	h ä
-2.196904	h î
-1.497934	h ă
-3.029936	i "
-2.326497	i (
-2.829576	i )
-3.679421	i *
-1.918882	i ,
-3.213581	i -
-2.320608	i .
-2.918303	i /
-3.647236	i 0
-2.755938	i 1
-2.90127	i 2
-3.249296	i 3
-3.431636	i 4
-3.450942	i 5
-3.362	i 6
-3.103168	i 7
-3.060971	i 8
-2.839122	i 9
-3.103168	i :
-2.638028	i ;
-2.869085	i </s>
-3.751971	i [
-1.219797	i a
-2.093527	i b
-1.019066	i c
-1.508708	i d
-1.155975	i e
-1.685138	i f
-1.92296	i g
-3.450942	i h
-1.214725	i i
-2.811093	i j
-3.751971	i k
-1.059205	i l
-1.426941	i m
-0.8829533	i n
-1.64353	i o
-1.670166	i p
-3.751971	i q
-1.499339	i r
-1.278551	i s
-1.053081	i t
-1.582244	i u
-1.372748	i v
-3.714183	i w
-2.967289	i x
-1.60981	i z
-3.751971	i é
-2.086647	i î
-3.751971	i ó
-2.134399	i ş
-1.864968	i ţ
-1.89268	j )
-1.967314	j ,
-1.995343	j .
-1.085074	j a
-2.130041	j b
-2.092253	j c
-1.967314	j d
-1.326336	j e
-2.130041	j h
-1.773494	j i
-1.472464	j l
-2.092253	j m
-2.130041	j n
-1.236935	j o
-2.057491	j p
-0.6115273	j u
-2.130041	j â
-2.092253	j î
-1.916161	j ă
-2.130041	j ş
-1.737723	k )
-1.872421	k a
-1.872421	k c
-1.767686	k e
-1.683365	k g
-1.591595	k i
-1.834633	k k
-1.834633	k m
-1.737723	k o
-1.872421	k s
-1.872421	k y
-2.957213	l "
-3.40951	l '
-2.014475	l (
-3.40951	l )
-2.148247	l ,
-3.166472	l -
-2.682512	l .
-3.447299	l /
-2.142339	l 1
-2.196436	l 2
-2.40951	l 3
-2.631359	l 4
-2.816594	l 5
-2.71784	l 6
-2.825934	l 7
-2.944624	l 8
-3.01157	l 9
-2.970178	l :
-2.932389	l ;
-3.233419	l </s>
-0.8444501	l a
-2.637433	l b
-1.590515	l c
-1.599951	l d
-0.6664582	l e
-2.534449	l f
-2.781121	l g
-3.258243	l h
-0.8060052	l i
-3.447299	l j
-2.447299	l l
-2.123204	l m
-2.447299	l n
-0.9203726	l o
-1.775201	l p
-1.99733	l r
-1.972818	l s
-1.449278	l t
-0.9141974	l u
-2.435613	l v
-3.3126	l z
-3.447299	l á
-3.090752	l â
-2.087291	l î
-1.764416	l ă
-2.447299	l ş
-2.983542	l ţ
-3.133459	m "
-3.066512	m (
-2.957368	m )
-2.735519	m ,
-2.890421	m -
-2.91161	m .
-3.133459	m /
-3.133459	m 0
-2.982191	m 1
-2.982191	m 2
-3.133459	m 3
-3.098697	m 5
-3.171248	m 6
-3.171248	m 7
-3.133459	m 9
-3.098697	m ;
-3.171248	m </s>
-0.8885638	m a
-1.061884	m b
-2.694126	m c
-2.278142	m d
-0.5339399	m e
-3.098697	m f
-0.7690644	m i
-2.91161	m l
-2.957368	m m
-2.10543	m n
-1.304155	m o
-1.212206	m p
-2.890421	m r
-2.579172	m s
-2.957368	m t
-1.11782	m u
-3.036549	m y
-2.441788	m â
-2.890421	m î
-3.171248	m ó
-1.250745	m ă
-2.079101	m ş
-3.066512	m ţ
-3.171248	m ‚
-3.141763	n "
-3.531734	n '
-3.158154	n (
-3.342678	n )
-3.493946	n +
-2.747052	n ,
-3.426999	n -
-1.79353	n .
-3.531734	n 0
-2.469323	n 1
-2.408774	n 2
-3.141763	n 3
-3.294374	n 4
-3.211399	n 5
-3.250908	n 6
-3.369007	n 7
-3.342678	n 8
-3.272097	n 9
-3.317854	n :
-3.369007	n ;
-3.531734	n </s>
-1.050161	n a
-2.874157	n b
-1.123649	n c
-1.13792	n d
-1.082046	n e
-1.480757	n f
-1.920881	n g
-3.081765	n h
-1.053824	n i
-2.686636	n j
-3.493946	n k
-2.168293	n l
-2.110729	n m
-2.551938	n n
-1.660374	n o
-1.94067	n p
-1.6572	n r
-1.183961	n s
-0.6679249	n t
-1.285101	n u
-1.749001	n v
-3.531734	n y
-2.158154	n z
-2.874157	n â
-3.531734	n é
-2.728029	n î
-1.773786	n ă
-2.623737	n ş
-1.312579	n ţ
-3.531734	n ‚
-3.235165	o "
-3.263194	o )
-3.397893	o *
-3.208836	o ,
-2.848221	o -
-3.397893	o .
-3.397893	o 1
-3.397893	o 2
-3.397893	o 3
-3.397893	o 5
-3.293157	o ;
-1.224177	o a
-1.707697	o b
-1.350795	o c
-1.2583	o d
-2.68341	o e
-1.952147	o f
-1.85836	o g
-3.208836	o h
-2.014404	o i
-3.360104	o j
-3.263194	o k
-1.167212	o l
-0.9971192	o m
-0.8265014	o n
-2.318711	o o
-1.302565	o p
-0.5320352	o r
-1.653955	o s
-1.464774	o t
-2.098841	o u
-2.064537	o v
-2.691097	o x
-3.397893	o y
-1.810896	o z
-3.138255	o î
-2.816036	o ş
-2.588027	o ţ
-3.170995	p "
-3.208783	p '
-3.208783	p (
-3.074085	p )
-2.693873	p ,
-3.170995	p -
-2.907753	p .
-3.136233	p 4
-3.170995	p ;
-1.276586	p a
-3.208783	p b
-2.123071	p c
-2.596963	p d
-0.6473566	p e
-3.170995	p f
-3.170995	p h
-1.52672	p i
-1.172082	p l
-3.170995	p m
-3.170995	p n
-0.9891511	p o
-2.888448	p p
-0.4941487	p r
-2.670392	p s
-1.433272	p t
-1.118237	p u
-2.994903	p v
-2.110297	p â
-3.074085	p î
-1.64165	p ă
-3.046056	p ş
-2.331098	p ţ
-1.85403	q )
-1.85403	q ,
-1.85403	q s
-1.85403	q u
-1.85403	q î
-1.85403	q ş
-3.329074	r "
-3.224339	r (
-3.441048	r )
-3.592316	r *
-2.225893	r ,
-2.418644	r -
-1.904341	r .
-3.557554	r /
-3.630104	r 0
-3.291286	r 1
-3.495406	r 2
-3.525369	r 3
-3.592316	r 4
-3.630104	r 5
-3.467377	r 6
-3.495406	r 8
-3.630104	r 9
-3.525369	r :
-2.727014	r ;
-3.240133	r </s>
-1.098045	r a
-2.851953	r b
-1.787835	r c
-1.67411	r d
-0.4768437	r e
-2.483976	r f
-2.127429	r g
-3.441048	r h
-0.7645695	r i
-3.416224	r j
-3.525369	r k
-2.311661	r l
-1.28948	r m
-2.092858	r n
-1.197135	r o
-2.057655	r p
-2.581592	r r
-1.889024	r s
-1.225426	r t
-1.159079	r u
-2.232164	r v
-3.630104	r w
-2.642113	r z
-2.707709	r â
-3.592316	r å
-2.433451	r î
-3.630104	r ó
-1.668467	r ă
-2.296748	r ş
-2.19149	r ţ
-3.162052	s "
-3.194237	s (
-2.965757	s )
-2.421689	s ,
-2.469331	s -
-2.861022	s .
-3.266788	s 5
-3.10406	s :
-3.077731	s ;
-3.228999	s </s>
-1.02105	s a
-2.751878	s b
-1.388057	s c
-2.482105	s d
-0.857777	s e
-2.101354	s f
-3.162052	s g
-3.162052	s h
-0.9884496	s i
-3.228999	s k
-2.072652	s l
-1.994313	s m
-2.965757	s n
-1.500645	s o
-1.128341	s p
-3.00715	s r
-2.684931	s s
-0.5807202	s t
-0.9834862	s u
-3.162052	s â
-2.626939	s î
-1.14175	s ă
-3.077731	s ş
-3.077731	s ţ
-3.095959	t "
-3.586045	t '
-3.26571	t (
-3.348684	t )
-2.031941	t ,
-3.451346	t -
-1.539302	t .
-3.481309	t 1
-3.451346	t 2
-3.513494	t 3
-3.548256	t 4
-3.548256	t 5
-3.586045	t 7
-2.445594	t :
-2.794929	t ;
-3.451346	t </s>
-0.8287179	t a
-3.348684	t b
-1.987951	t c
-1.940801	t d
-0.5977697	t e
-2.214138	t f
-3.26571	t g
-3.348684	t h
-0.9241462	t i
-3.586045	t j
-2.404721	t l
-2.222604	t m
-2.713624	t n
-1.192869	t o
-2.162055	t p
-0.9201229	t r
-2.01254	t s
-2.631802	t t
-1.058884	t u
-3.059236	t v
-3.586045	t w
-3.586045	t y
-3.513494	t z
-2.530528	t â
-3.586045	t å
-3.586045	t è
-3.586045	t é
-2.104993	t î
-1.116089	t ă
-2.570533	t ş
-3.481309	t ţ
-2.979977	u "
-3.149728	u (
-3.397512	u )
-2.362236	u ,
-3.131244	u -
-2.748028	u .
-3.049057	u 1
-3.432274	u 2
-3.397512	u 3
-3.470063	u 4
-3.397512	u 5
-3.470063	u 6
-3.432274	u 8
-3.131244	u :
-3.169033	u ;
-2.909395	u </s>
-1.302477	u a
-1.717665	u b
-1.277445	u c
-1.788822	u d
-2.027156	u e
-2.174996	u f
-2.338269	u g
-3.169033	u h
-0.9995722	u i
-3.064297	u j
-3.470063	u k
-0.6146538	u l
-1.401203	u m
-0.8813329	u n
-2.256183	u o
-1.360392	u p
-0.9751497	u r
-1.372206	u s
-1.226574	u t
-2.179017	u u
-2.613828	u v
-3.169033	u x
-2.110055	u z
-3.335364	u â
-2.237298	u î
-2.293972	u ă
-2.390882	u ş
-1.985116	u ţ
-2.654417	v "
-2.817144	v (
-2.536318	v )
-2.256477	v ,
-2.340023	v .
-2.817144	v 4
-2.817144	v 9
-2.779356	v :
-2.654417	v ;
-2.744594	v </s>
-0.8069988	v a
-2.353387	v c
-2.427173	v d
-0.5542622	v e
-2.779356	v f
-2.603265	v g
-2.817144	v h
-0.6612566	v i
-2.516114	v l
-2.059197	v m
-2.682446	v n
-1.526099	v o
-2.215085	v p
-2.110349	v r
-2.411379	v s
-2.628088	v t
-2.080386	v u
-2.817144	v v
-1.279898	v â
-2.427173	v î
-0.9570789	v ă
-2.443564	v ş
-1.85788	w )
-1.85788	w ,
-1.820092	w a
-1.85788	w g
-1.695153	w i
-1.85788	w y
-1.85788	w ä
-2.221113	x ,
-2.221113	x 0
-2.293664	x 1
-0.7739551	x a
-1.326456	x c
-2.293664	x d
-1.021189	x e
-1.002618	x i
-2.293664	x l
-2.221113	x o
-0.8299065	x p
-1.023303	x t
-2.293664	x u
-2.255875	x â
-1.937117	x ă
-2.293664	x ş
-1.860066	y (
-1.697338	y a
-1.860066	y c
-1.860066	y d
-1.822277	y l
-1.822277	y m
-1.860066	y o
-1.860066	y p
-1.860066	y t
-1.860066	y w
-2.76978	z "
-2.76978	z )
-2.25487	z ,
-2.635082	z .
-2.76978	z :
-2.76978	z ;
-2.76978	z </s>
-0.8270957	z a
-2.580724	z b
-2.635082	z c
-2.198389	z d
-0.6792334	z e
-2.731992	z f
-2.76978	z g
-0.7527466	z i
-2.731992	z m
-2.665045	z n
-1.604347	z o
-2.76978	z p
-2.697229	z s
-0.8325357	z u
-1.919078	z v
-2.319811	z â
-2.635082	z î
-0.8168555	z ă
-2.635082	z ş
-1.852369	­ 9
-1.852369	­ p
-1.852369	­ t
-1.851258	à -
-1.851258	á d
-2.221849	â i
-2.318759	â l
-2.119186	â m
-0.4619292	â n
-1.294136	â r
-0.5310622	â t
-2.283997	â u
-2.251812	â ş
-2.356547	â ţ
-1.851258	ã o
-1.851814	ä d
-1.851814	ä h
-1.814581	å l
-1.852369	å r
-1.851258	ç ã
-1.851258	è r
-1.852923	é a
-1.852923	é n
-1.852923	é r
-1.852923	é t
-2.817205	î a
-2.411439	î i
-2.235348	î l
-1.78305	î m
-0.06501648	î n
-2.779416	î s
-1.944783	î ş
-1.852369	ó m
-1.852369	ó n
-1.852369	ó s
-1.851258	ü r
-2.536127	ă "
-3.002783	ă '
-2.536127	ă (
-2.604843	ă )
-1.44476	ă ,
-2.67179	ă -
-1.719159	ă .
-3.034968	ă 0
-2.67179	ă 1
-3.06973	ă 2
-2.870157	ă 3
-3.06973	ă 4
-3.107518	ă 5
-3.107518	ă 6
-3.06973	ă 7
-3.06973	ă 8
-3.107518	ă 9
-2.095833	ă :
-2.107518	ă ;
-2.67179	ă </s>
-3.107518	ă >
-1.191783	ă a
-2.701753	ă b
-1.230356	ă c
-1.251834	ă d
-1.756214	ă e
-1.609835	ă f
-2.46767	ă g
-3.002783	ă h
-1.800606	ă i
-2.944791	ă j
-1.512423	ă l
-1.847881	ă m
-1.634363	ă n
-1.783423	ă o
-1.261294	ă p
-0.9295885	ă r
-1.046477	ă s
-1.107518	ă t
-1.689518	ă u
-2.393036	ă v
-1.461382	ă z
-1.327397	ă î
-1.643761	ă ş
-1.08184	ă ţ
-3.06973	ă ≥
-2.616619	ş (
-2.544068	ş ,
-2.616619	ş .
-1.69897	ş a
-2.57883	ş c
-1.544068	ş e
-0.1731424	ş i
-2.402739	ş n
-2.113943	ş o
-2.616619	ş s
-0.9961987	ş t
-2.16665	ş u
-2.2778	ş ă
-2.853919	ţ ,
-2.816131	ţ -
-2.781369	ţ .
-2.853919	ţ :
-1.360018	ţ a
-1.078408	ţ e
-0.153137	ţ i
-2.853919	ţ n
-2.853919	ţ p
-2.853919	ţ t
-1.812527	ţ u
-2.816131	ţ â
-2.853919	ţ î
-1.224139	ţ ă
-2.781369	ţ ş
-1.851258	ε f
-1.863863	― 1
-1.791313	― a
-1.791313	― c
-1.791313	― d
-1.826075	― e
-1.863863	― i
-1.863863	― m
-1.826075	― n
-1.826075	― o
-1.863863	― p
-1.791313	― s
-1.826075	― u
-1.85403	‚ d
-1.85403	‚ g
-1.85403	‚ i
-1.85403	‚ m
-1.85403	‚ s
-1.85403	‚ t
-1.851258	− p
-1.852923	≥ 0
-1.852923	≥ 3
-1.815135	≥ 5
-1.853477	─ a
-1.815688	─ i
-1.853477	─ t
-1.853477	─ u
-1.814026	 7

\end\
