
\data\
ngram 1=98
ngram 2=2476

\1-grams:
-2.89328	"	0.5266923
-3.739643	%	0.2712601
-2.678175	(	0.236595
-2.44802	)	0.353414
-4.616925	*	-0.005495233
-4.651688	+	-0.007072102
-1.980283	,	-0.087162
-3.183094	-	0.5731899
-2.10535	.	0.03425968
-2.54476	/	-0.2927937
-2.62332	0	0.1293083
-2.267872	1	0.1051526
-2.379459	2	0.04814253
-2.61726	3	-0.08753956
-2.760522	4	0.2540911
-2.831048	5	0.06376559
-2.766609	6	0.06568897
-2.79992	7	-0.02136577
-2.781967	8	0.009602418
-2.504785	9	0.06079825
-2.992088	:	0.1390044
-2.761453	;	0.1456716
-2.116182	</s>
-99	<s>	-0.01139591
-3.098411	[	-0.1929458
-3.098411	]	0.143801
-1.122075	a	-0.7763548
-1.846243	b	0.08776534
-1.668249	c	-0.2289884
-1.471585	d	-0.0227173
-1.129232	e	-0.6586414
-2.616925	f	-0.03913884
-2.632918	g	0.02436958
-1.648658	h	0.1566548
-1.291489	i	-0.4295008
-1.862518	j	-0.1128139
-1.464872	k	0.01697574
-1.539166	l	0.03352477
-1.57016	m	0.5047519
-1.165127	n	-0.2574967
-1.045799	o	-0.8762945
-1.472974	p	-0.4247644
-4.408649	q	0.0537217
-1.356084	r	-0.04513778
-1.369462	s	-0.185352
-1.350875	t	-0.1349599
-1.567439	u	-0.2335453
-1.383343	v	0.2555972
-4.369141	w	0.05871473
-3.233939	x	0.2281155
-1.85813	y	-0.100298
-1.746837	z	0.05966276
-1.700431	á	-0.3395154
-4.689476	ã	0.0360065
-3.111775	ä	0.2612092
-4.584741	å	0.05372421
-4.689476	ç	-0.004939119
-4.651688	è	0.01416843
-1.941852	é	-0.007905563
-4.651688	ê	0.004029045
-1.985403	í	-0.06963536
-2.868141	ó	-0.1274773
-2.712168	ô	-0.12809
-2.026375	ú	-0.04542908
-4.689476	ü	0.01461546
-1.908504	ý	-0.1593683
-4.689476	ć	0.02580908
-1.872994	č	-0.4186717
-2.838774	ď	0.1466824
-3.400455	ĺ	-0.07748558
-2.432452	ľ	-0.009880703
-2.812838	ň	0.09664866
-3.960017	ŕ	-0.007154197
-2.227214	š	-0.2788315
-2.274351	ť	0.1759352
-2.111567	ž	0.1786612
-4.689476	ά	-0.004937505
-4.689476	α	-0.004938312
-4.689476	γ	-0.004939119
-4.616925	δ	-0.01495432
-4.651688	ε	-0.008382198
-4.689476	η	-0.004937505
-4.651688	ι	-0.009921676
-4.651688	λ	-0.009924097
-4.651688	μ	-0.009924097
-4.651688	ν	-0.00992329
-4.584741	ο	-0.02003484
-4.616925	ρ	-0.01495512
-4.651688	ς	0.02415995
-4.616925	σ	-0.01495593
-4.689476	ω	-0.004938312
-4.651688	ό	-0.00992329
-4.408649	–	0.1593849
-4.429839	—	0.08211628
-4.689476	“	-0.0003793935
-4.689476	„	-0.0008416009
-4.689476	…	-0.001611666
-4.584741	≥	-0.01269945

\2-grams:
-2.175565	" "
-2.103014	" (
-1.754559	" )
-1.554199	" ,
-1.698443	" .
-1.819017	" 1
-1.874534	" 2
-1.874534	" 3
-2.175565	" 4
-2.137776	" 5
-2.103014	" 6
-2.175565	" 7
-2.137776	" 9
-2.012837	" :
-1.476595	" ;
-1.287538	" </s>
-1.573505	" a
-1.785593	" b
-2.070829	" c
-1.754559	" d
-2.040866	" e
-2.070829	" f
-2.040866	" h
-1.986508	" i
-1.986508	" j
-1.894738	" k
-2.175565	" l
-1.874534	" m
-1.526761	" n
-1.855229	" o
-1.535716	" p
-1.785593	" r
-1.698443	" s
-1.836746	" t
-2.070829	" u
-1.476595	" v
-2.175565	" w
-1.417617	" z
-2.012837	" ú
-1.614897	" č
-1.986508	" š
-2.103014	" ž
-2.103014	" —
-1.945304	% "
-1.983093	% )
-1.626546	% ,
-1.983093	% -
-1.794037	% .
-1.983093	% :
-1.910542	% ;
-1.945304	% </s>
-1.878358	% a
-1.983093	% b
-1.983093	% c
-1.983093	% d
-1.848394	% h
-1.983093	% i
-1.878358	% j
-1.983093	% m
-1.848394	% n
-1.910542	% o
-1.878358	% p
-1.820366	% s
-1.945304	% u
-1.745732	% v
-1.794037	% z
-1.983093	% č
-1.983093	% ž
-2.143847	( "
-2.278546	( %
-2.278546	( 0
-1.092052	( 1
-1.192834	( 2
-1.534609	( 3
-1.647841	( 4
-1.666726	( 5
-1.801425	( 6
-1.87278	( 7
-1.814788	( 8
-1.763636	( 9
-2.17381	( [
-2.018909	( a
-2.041185	( b
-1.828577	( c
-2.205995	( d
-0.6784644	( e
-2.115819	( f
-2.240757	( h
-2.018909	( i
-2.278546	( j
-2.205995	( k
-2.205995	( m
-2.143847	( n
-1.977516	( o
-1.814788	( p
-2.115819	( r
-2.089489	( s
-1.814788	( t
-2.240757	( u
-1.939727	( v
-2.240757	( w
-2.115819	( z
-2.278546	( ô
-2.278546	( ú
-2.240757	( č
-1.958211	( ď
-2.278546	( ž
-2.278546	( ο
-1.68094	) "
-2.136872	) (
-2.417698	) )
-1.303755	) ,
-1.695663	) .
-2.07888	) 1
-2.312963	) 2
-2.417698	) 3
-2.417698	) 4
-2.283	) :
-1.786993	) ;
-1.768895	) </s>
-2.203818	) [
-1.265966	) a
-1.868026	) b
-2.116668	) c
-1.768895	) d
-2.228642	) e
-2.312963	) f
-2.37991	) g
-2.180337	) h
-1.996693	) i
-2.044117	) j
-1.472319	) k
-2.37991	) l
-1.743087	) m
-1.425667	) n
-1.633016	) o
-1.316076	) p
-2.027727	) r
-1.283	) s
-1.902788	) t
-2.061151	) u
-1.300728	) v
-2.417698	) w
-2.37991	) y
-1.589859	) z
-2.180337	) ú
-0.8049142	) č
-2.417698	) ľ
-2.254971	) š
-2.37991	) ž
-1.874169	* ]
-1.946274	+ 2
-1.946274	+ 3
-2.457223	, "
-2.672823	, (
-2.777559	, )
-2.777559	, ,
-2.705008	, -
-2.457223	, 0
-2.496732	, 1
-2.313801	, 2
-2.540198	, 3
-2.588502	, 4
-2.563679	, 5
-2.614831	, 6
-2.563679	, 7
-2.43874	, 8
-2.496732	, 9
-1.033621	, </s>
-2.777559	, [
-0.8744686	, a
-1.85991	, b
-2.13771	, c
-1.973853	, d
-2.300437	, e
-2.34183	, f
-2.777559	, g
-2.371793	, h
-1.797762	, i
-1.967693	, j
-0.7056766	, k
-2.371793	, l
-1.517921	, m
-1.239168	, n
-1.688618	, o
-1.208291	, p
-1.992877	, r
-1.464843	, s
-1.926857	, t
-1.864709	, u
-1.379619	, v
-2.705008	, x
-1.606764	, z
-2.34183	, ú
-1.899873	, č
-2.563679	, ď
-2.777559	, ľ
-2.517921	, š
-1.358053	, ž
-1.887816	- "
-2.076872	- 0
-2.004321	- 1
-2.004321	- 2
-2.076872	- 4
-2.039083	- 5
-2.004321	- 7
-2.076872	- 8
-2.076872	- 9
-1.641143	- a
-1.817235	- b
-1.942173	- c
-1.738053	- d
-1.887816	- e
-2.004321	- f
-2.076872	- g
-2.039083	- h
-1.839511	- i
-1.862992	- j
-1.655867	- k
-2.004321	- l
-1.655867	- m
-1.641143	- n
-1.626903	- o
-1.377902	- p
-1.655867	- r
-1.756537	- s
-1.756537	- t
-1.887816	- u
-1.5272	- v
-1.756537	- z
-2.039083	- é
-2.076872	- ú
-1.862992	- č
-1.839511	- ž
-2.076872	- ο
-1.635316	. "
-2.673105	. %
-2.510377	. (
-2.600554	. )
-2.635316	. ,
-2.568369	. .
-2.600554	. 0
-1.231624	. 1
-1.289616	. 2
-1.610694	. 3
-1.966309	. 4
-2.091248	. 5
-2.209347	. 6
-2.223136	. 7
-2.134714	. 8
-2.209347	. 9
-0.5800015	. </s>
-2.635316	. [
-1.491781	. a
-1.755456	. b
-2.183018	. c
-1.518598	. d
-2.2521	. e
-2.091248	. f
-2.600554	. g
-2.283134	. h
-2.299524	. i
-1.409146	. j
-1.568369	. k
-2.435744	. l
-1.714497	. m
-1.718862	. n
-1.689192	. o
-1.415644	. p
-2.673105	. q
-2.283134	. r
-1.81687	. s
-1.685114	. t
-2.299524	. u
-1.494389	. v
-1.929168	. z
-2.673105	. ô
-2.299524	. ú
-1.464077	. č
-2.635316	. š
-2.538406	. ž
-2.355678	/ 0
-1.355678	/ 1
-1.332613	/ 2
-1.551973	/ 3
-1.293267	/ 4
-1.59773	/ 5
-1.269966	/ 6
-1.438029	/ 7
-1.380037	/ 8
-1.058614	/ 9
-1.545812	/ a
-2.355678	/ c
-2.355678	/ d
-0.6844208	/ e
-2.317889	/ h
-2.355678	/ i
-2.355678	/ p
-2.220979	/ s
-2.283127	/ š
-2.309049	0 "
-1.626166	0 %
-2.049412	0 (
-1.935469	0 )
-1.565112	0 ,
-2.309049	0 -
-1.469628	0 .
-1.080929	0 /
-0.7798989	0 0
-1.463951	0 1
-1.368171	0 2
-1.610079	0 3
-1.903284	0 4
-2.008019	0 5
-1.935469	0 6
-1.806374	0 7
-1.888044	0 8
-1.873321	0 9
-2.236499	0 ;
-1.687684	0 </s>
-2.008019	0 [
-2.119993	0 ]
-1.970231	0 a
-2.309049	0 b
-2.174351	0 c
-2.008019	0 d
-2.028223	0 e
-2.309049	0 f
-2.236499	0 h
-2.309049	0 j
-2.071688	0 k
-2.174351	0 m
-2.119993	0 n
-1.634439	0 o
-2.071688	0 p
-2.204314	0 r
-1.873321	0 s
-2.119993	0 t
-2.204314	0 u
-2.309049	0 v
-2.309049	0 w
-1.903284	0 z
-2.309049	0 á
-2.27126	0 č
-2.309049	0 —
-2.507856	1 %
-1.953569	1 (
-1.549611	1 )
-1.549611	1 ,
-0.9485478	1 .
-1.405194	1 /
-1.336617	1 0
-1.405194	1 1
-1.447158	1 2
-1.497132	1 3
-1.490127	1 4
-1.466463	1 5
-1.609313	1 6
-1.582716	1 7
-1.657618	1 8
-0.9103435	1 9
-2.331765	1 :
-2.189097	1 ;
-1.582716	1 </s>
-2.286007	1 [
-1.587037	1 ]
-1.642554	1 a
-2.382917	1 b
-2.507856	1 c
-2.356588	1 d
-2.507856	1 e
-2.545645	1 h
-2.545645	1 i
-2.545645	1 j
-2.440909	1 k
-2.473094	1 l
-2.382917	1 m
-2.055558	1 n
-1.706223	1 o
-1.748188	1 p
-2.507856	1 r
-1.774124	1 s
-2.264818	1 t
-2.440909	1 u
-2.172064	1 v
-2.109916	1 z
-2.410946	1 č
-2.473094	1 š
-2.39202	2 "
-2.329872	2 %
-1.949661	2 (
-1.38539	2 )
-1.546922	2 ,
-2.464571	2 -
-1.009034	2 .
-1.236451	2 /
-0.9412975	2 0
-1.667114	2 1
-1.505964	2 2
-1.597479	2 3
-1.510328	2 4
-1.597479	2 5
-1.608336	2 6
-1.78996	2 7
-1.720634	2 8
-1.602874	2 9
-2.464571	2 :
-2.301844	2 ;
-1.419604	2 </s>
-2.22721	2 [
-1.519192	2 ]
-1.699784	2 a
-2.183744	2 b
-2.464571	2 c
-2.275515	2 d
-2.39202	2 e
-2.464571	2 f
-2.39202	2 h
-2.426782	2 i
-2.426782	2 k
-2.058805	2 m
-1.98745	2 n
-1.630902	2 o
-1.824722	2 p
-2.39202	2 r
-1.742535	2 s
-2.22721	2 t
-2.275515	2 u
-2.22721	2 v
-1.92618	2 z
-2.464571	2 č
-2.464571	2 š
-2.312524	3 "
-2.207788	3 %
-1.862555	3 (
-1.515067	3 )
-1.473103	3 ,
-1.023502	3 .
-1.183655	3 /
-1.473103	3 0
-1.445431	3 1
-1.621522	3 2
-1.774133	3 3
-1.862555	3 4
-1.822437	3 5
-1.508818	3 6
-1.646346	3 7
-1.797614	3 8
-1.710464	3 9
-2.274735	3 :
-2.123467	3 ;
-1.409434	3 </s>
-2.075163	3 [
-1.467425	3 ]
-1.613554	3 a
-2.239973	3 b
-2.312524	3 d
-2.274735	3 e
-2.312524	3 m
-1.891518	3 n
-1.561525	3 o
-1.955976	3 p
-1.605728	3 s
-2.098644	3 t
-2.149796	3 u
-2.207788	3 v
-1.973705	3 z
-2.274735	3 č
-2.131252	4 "
-2.198199	4 %
-1.897169	4 (
-1.513952	4 )
-1.521505	4 ,
-1.137501	4 .
-1.153528	4 /
-1.67532	4 0
-1.643911	4 1
-1.521505	4 2
-1.643911	4 3
-1.87944	4 4
-1.897169	4 5
-1.697596	4 6
-1.897169	4 7
-1.654131	4 8
-1.56981	4 9
-2.163437	4 :
-2.131252	4 ;
-1.438531	4 </s>
-2.022107	4 [
-1.499229	4 ]
-1.77223	4 a
-2.198199	4 b
-2.163437	4 d
-2.235987	4 e
-2.07326	4 h
-2.235987	4 i
-2.235987	4 j
-2.235987	4 k
-2.131252	4 m
-1.998626	4 n
-1.587184	4 o
-1.87944	4 p
-2.235987	4 r
-1.758866	4 s
-2.101289	4 t
-2.198199	4 u
-2.101289	4 v
-2.101289	4 z
-2.198199	4 č
-2.202637	5 "
-1.73888	5 %
-1.796872	5 (
-1.480602	5 )
-1.581272	5 ,
-2.202637	5 -
-1.202637	5 .
-1.261758	5 /
-1.64197	5 0
-1.752668	5 1
-1.652965	5 2
-1.766908	5 3
-1.664246	5 4
-1.943	5 5
-1.687727	5 6
-1.829056	5 7
-1.725516	5 8
-1.943	5 9
-2.202637	5 :
-2.097902	5 ;
-1.536459	5 </s>
-1.92181	5 [
-1.553833	5 ]
-1.600577	5 a
-2.202637	5 c
-2.067938	5 d
-2.164848	5 e
-2.164848	5 g
-2.202637	5 j
-1.988757	5 k
-2.097902	5 m
-1.92181	5 n
-1.528026	5 o
-1.92181	5 p
-1.84609	5 s
-2.097902	5 t
-2.097902	5 u
-2.097902	5 v
-1.84609	5 z
-2.128261	6 %
-1.931966	6 (
-1.718086	6 )
-1.593148	6 ,
-2.232996	6 -
-1.296665	6 .
-1.01671	6 /
-1.510961	6 0
-1.811991	6 1
-1.510961	6 2
-1.797268	6 3
-1.718086	6 4
-1.769239	6 5
-1.489059	6 6
-1.584193	6 7
-1.461475	6 8
-1.811991	6 9
-2.070269	6 ;
-1.541995	6 </s>
-2.019116	6 [
-1.661605	6 ]
-1.827231	6 a
-2.232996	6 b
-2.128261	6 d
-2.232996	6 e
-2.195208	6 j
-2.04394	6 m
-2.128261	6 n
-1.518514	6 o
-2.128261	6 p
-2.04394	6 r
-1.783027	6 s
-2.160445	6 t
-2.128261	6 u
-2.098298	6 v
-2.070269	6 z
-2.128261	6 č
-2.179217	7 %
-1.860458	7 (
-1.781277	7 )
-1.827034	7 ,
-2.217005	7 -
-1.425889	7 .
-1.144454	7 /
-1.526004	7 0
-1.667333	7 1
-1.577157	7 2
-1.614945	7 3
-1.726919	7 4
-1.51021	7 5
-1.534122	7 6
-1.518035	7 7
-1.425889	7 8
-1.667333	7 9
-2.082307	7 ;
-1.5863	7 </s>
-1.915975	7 [
-1.843424	7 ]
-1.753248	7 a
-2.144454	7 b
-2.217005	7 c
-2.144454	7 k
-2.054278	7 m
-1.957368	7 n
-1.550828	7 o
-2.003125	7 p
-2.11227	7 r
-1.81124	7 s
-2.217005	7 t
-2.027949	7 u
-2.054278	7 v
-1.81124	7 z
-2.217005	7 š
-2.217005	7 —
-1.819779	8 (
-1.664877	8 )
-1.804539	8 ,
-2.187756	8 -
-1.353123	8 .
-1.026388	8 /
-1.698735	8 0
-1.503509	8 1
-1.748423	8 2
-1.722869	8 3
-1.761787	8 4
-1.542661	8 5
-1.526574	8 6
-1.415679	8 7
-1.576741	8 8
-1.397705	8 9
-2.090846	8 ;
-1.585696	8 </s>
-2.011664	8 [
-1.851964	8 ]
-1.819779	8 a
-2.225544	8 d
-2.187756	8 h
-2.225544	8 k
-2.187756	8 m
-2.036488	8 n
-1.576741	8 o
-2.225544	8 p
-2.225544	8 r
-1.851964	8 s
-2.187756	8 t
-2.225544	8 u
-2.090846	8 v
-1.886726	8 z
-2.380704	9 %
-2.217977	9 (
-1.916947	9 )
-1.809313	9 ,
-1.547036	9 .
-1.204613	9 /
-1.400908	9 0
-1.392713	9 1
-1.369019	9 2
-1.392713	9 3
-1.552865	9 4
-1.558774	9 5
-1.392713	9 6
-1.384671	9 7
-1.237406	9 8
-0.8562493	9 9
-2.342916	9 :
-2.246006	9 ;
-1.798848	9 </s>
-2.166825	9 [
-2.060369	9 ]
-2.007124	9 a
-2.275969	9 b
-2.380704	9 d
-2.275969	9 e
-2.380704	9 g
-2.342916	9 h
-2.380704	9 i
-2.380704	9 k
-2.342916	9 m
-2.121067	9 n
-1.689703	9 o
-2.217977	9 p
-2.380704	9 r
-2.079674	9 s
-2.380704	9 t
-2.342916	9 u
-2.380704	9 v
-2.166825	9 z
-1.731243	: "
-1.974281	: -
-2.032273	: 1
-0.5063035	: </s>
-1.763428	: a
-2.137009	: d
-2.137009	: e
-2.09922	: j
-2.032273	: k
-2.032273	: l
-2.137009	: m
-2.064458	: o
-2.09922	: p
-2.137009	: r
-2.137009	: s
-2.064458	: t
-2.032273	: v
-2.137009	: z
-2.09922	: č
-2.137009	: š
-2.137009	: ž
-2.137009	: —
-2.137009	: …
-2.046472	; "
-2.19774	; .
-2.235528	; 8
-2.235528	; ;
-0.4387019	; </s>
-1.785559	; a
-2.235528	; b
-2.235528	; d
-2.19774	; e
-2.235528	; h
-2.235528	; i
-2.130793	; j
-1.075524	; k
-2.10083	; m
-2.046472	; n
-2.235528	; o
-2.046472	; p
-2.19774	; s
-1.998168	; t
-1.915193	; v
-2.072801	; z
-2.235528	; ú
-2.235528	; š
-1.672269	<s> "
-1.211538	<s> (
-2.626511	<s> ,
-1.260088	<s> -
-1.307753	<s> 1
-1.312996	<s> 2
-1.512568	<s> 3
-1.781413	<s> 4
-1.981417	<s> 5
-2.187179	<s> 6
-2.274329	<s> 7
-2.426939	<s> 8
-2.45042	<s> 9
-1.465143	<s> a
-1.553404	<s> b
-1.676309	<s> c
-1.84836	<s> d
-2.05248	<s> e
-2.114628	<s> f
-2.383473	<s> g
-2.383473	<s> h
-1.873184	<s> i
-2.529601	<s> j
-1.048637	<s> k
-2.501573	<s> l
-2.36327	<s> m
-1.813598	<s> n
-1.927541	<s> o
-1.433851	<s> p
-1.892779	<s> r
-1.219971	<s> s
-1.521001	<s> t
-2.307753	<s> u
-1.791879	<s> v
-1.6643	<s> z
-2.404663	<s> ú
-0.9392799	<s> č
-2.591749	<s> ď
-2.559565	<s> š
-2.559565	<s> ž
-2.591749	<s> —
-2.028759	[ *
-1.032112	[ 1
-1.125669	[ 2
-1.267641	[ 3
-1.394514	[ 4
-1.519453	[ 5
-1.5864	[ 6
-1.762491	[ 7
-1.80028	[ 8
-1.88743	[ 9
-2.10131	] (
-1.996574	] )
-0.7277289	] ,
-1.529918	] .
-1.637552	] ;
-2.028759	] </s>
-1.529918	] a
-1.996574	] b
-2.10131	] d
-2.10131	] j
-2.028759	] k
-2.028759	] m
-1.912253	] n
-1.966611	] o
-2.028759	] p
-2.10131	] r
-1.695544	] s
-1.863949	] u
-1.863949	] v
-1.863949	] z
-2.028759	] ú
-2.10131	] š
-2.826545	a "
-2.388488	a (
-2.262911	a )
-1.794811	a ,
-3.340183	a -
-2.278493	a .
-2.755614	a /
-3.442845	a 0
-2.079861	a 1
-2.454584	a 2
-3.050735	a 3
-3.203963	a 4
-3.276514	a 5
-3.317907	a 6
-3.127575	a 7
-3.127575	a 8
-2.956179	a 9
-2.911366	a :
-2.54339	a ;
-2.610337	a </s>
-3.113787	a [
-1.883338	a a
-1.668572	a b
-1.612043	a c
-0.9409649	a d
-2.388488	a e
-2.669547	a f
-2.650454	a g
-1.715304	a h
-2.131798	a i
-1.329125	a j
-1.268301	a k
-1.232081	a l
-1.377889	a m
-0.8873479	a n
-1.813436	a o
-1.331583	a p
-3.472809	a q
-1.375651	a r
-1.340869	a s
-1.130527	a t
-1.901266	a u
-1.233509	a v
-2.732446	a x
-3.577544	a y
-1.551494	a z
-3.577544	a ç
-2.228002	a ú
-1.780088	a č
-3.027872	a ď
-2.344779	a ľ
-3.296717	a ň
-2.623302	a š
-1.660851	a ť
-1.885739	a ž
-2.821916	b (
-1.661702	b )
-2.211584	b ,
-2.894467	b -
-2.574132	b .
-2.821916	b 1
-2.759768	b ;
-2.856678	b </s>
-2.856678	b [
-1.419986	b a
-2.856678	b b
-1.490256	b c
-1.940225	b d
-1.016782	b e
-2.856678	b h
-1.328405	b i
-1.871402	b j
-1.541408	b k
-1.687886	b l
-1.967377	b m
-1.23863	b n
-0.6245298	b o
-2.555649	b p
-1.466038	b r
-1.595416	b s
-2.705411	b t
-1.222369	b u
-2.43071	b v
-0.8695339	b y
-2.458739	b z
-2.049369	b á
-2.821916	b é
-2.504496	b í
-2.038233	b ú
-2.593437	b ý
-2.789732	b č
-2.894467	b š
-3.018111	c "
-2.866843	c (
-1.924106	c )
-2.463824	c ,
-2.775073	c .
-3.055899	c 0
-2.866843	c 1
-3.055899	c 3
-3.055899	c 4
-3.055899	c 5
-3.055899	c 6
-3.018111	c 9
-3.018111	c :
-2.818538	c ;
-3.055899	c </s>
-1.520951	c a
-2.553224	c b
-2.983349	c c
-2.796262	c d
-0.9897429	c e
-0.3686948	c h
-0.7245641	c i
-3.018111	c j
-1.395724	c k
-2.775073	c l
-2.796262	c m
-1.993488	c n
-1.257814	c o
-2.115021	c p
-2.717081	c r
-2.717081	c s
-2.157773	c t
-1.656383	c u
-2.592142	c v
-2.866843	c y
-2.84202	c z
-2.682319	c é
-2.040387	c í
-2.699352	c ú
-2.921201	c č
-3.018111	c ň
-2.921201	c ť
-2.919919	d "
-3.077527	d (
-2.367833	d )
-2.819249	d ,
-2.939224	d .
-3.240254	d 0
-2.609549	d 1
-3.240254	d 2
-3.135519	d 3
-3.202466	d 4
-3.240254	d 5
-3.202466	d 6
-3.240254	d 7
-3.240254	d 8
-3.202466	d :
-3.026374	d ;
-3.135519	d </s>
-1.266706	d a
-2.209765	d b
-2.277325	d c
-2.332257	d d
-0.7331346	d e
-3.240254	d f
-3.105556	d g
-2.790285	d h
-1.403125	d i
-2.866673	d j
-1.777856	d k
-1.575783	d l
-1.791688	d m
-1.013771	d n
-0.7992021	d o
-1.499174	d p
-1.450417	d r
-1.347654	d s
-2.690582	d t
-1.355819	d u
-1.993845	d v
-3.240254	d w
-1.468066	d y
-1.351717	d z
-1.50133	d á
-2.332257	d é
-2.154542	d í
-3.240254	d ó
-2.048651	d ô
-2.005185	d ú
-2.264614	d ý
-2.327404	d č
-3.167703	d ď
-2.939224	d ĺ
-1.737579	d ľ
-2.424314	d ň
-3.051198	d š
-2.988697	e "
-2.450578	e (
-2.785872	e )
-1.841094	e ,
-3.570554	e -
-2.246458	e .
-3.570554	e 0
-3.032163	e 1
-3.106796	e 2
-3.269524	e 3
-3.435855	e 4
-3.356674	e 5
-3.214006	e 6
-2.88767	e 7
-3.020882	e 8
-2.629675	e 9
-2.450578	e :
-2.708856	e ;
-2.904376	e </s>
-2.999162	e [
-1.881164	e a
-1.340569	e b
-1.798365	e c
-1.086254	e d
-2.57452	e e
-2.324145	e f
-2.164788	e g
-1.38923	e h
-2.203706	e i
-1.28133	e j
-1.469557	e k
-1.636055	e l
-1.705073	e m
-0.6407168	e n
-1.811917	e o
-1.437015	e p
-1.231012	e r
-1.19714	e s
-1.334337	e t
-1.724892	e u
-1.513303	e v
-3.570554	e w
-2.3739	e x
-1.563504	e z
-3.498003	e á
-3.465818	e í
-2.625175	e ú
-1.851524	e č
-1.800371	e ď
-1.665986	e ľ
-2.450578	e ň
-2.498003	e š
-3.009886	e ť
-2.172614	e ž
-3.532765	e –
-2.312716	f (
-1.663912	f )
-2.274927	f ,
-2.20798	f .
-2.274927	f 1
-2.312716	f </s>
-1.490786	f a
-1.354108	f e
-2.312716	f g
-0.6542707	f i
-1.89171	f l
-2.20798	f n
-0.6783301	f o
-1.973897	f r
-2.312716	f s
-2.240165	f t
-1.638105	f u
-1.774325	f y
-2.240165	f á
-2.274927	f é
-2.031889	f í
-2.312716	f ó
-2.312716	f ü
-2.240165	f ľ
-2.303589	g "
-2.303589	g (
-1.882583	g )
-2.303589	g ,
-2.231038	g .
-2.303589	g /
-1.008522	g a
-2.303589	g b
-2.303589	g d
-1.36271	g e
-2.303589	g f
-2.2658	g g
-2.303589	g h
-1.035351	g i
-1.47575	g l
-2.2658	g m
-2.002559	g n
-1.487649	g o
-1.327948	g r
-2.231038	g s
-1.38594	g u
-2.2658	g y
-2.303589	g z
-0.8781138	g á
-1.721732	g é
-1.353755	g ó
-3.074018	h "
-3.074018	h %
-2.93932	h (
-2.583932	h )
-1.857732	h ,
-2.969283	h -
-2.223316	h .
-2.700438	h 1
-2.684047	h 2
-2.884962	h 3
-3.001467	h 4
-3.03623	h 5
-2.969283	h 6
-2.911291	h 7
-2.884962	h 8
-3.074018	h 9
-2.911291	h :
-2.559108	h ;
-2.969283	h </s>
-2.653013	h [
-1.421684	h a
-2.416441	h b
-2.295867	h c
-1.991559	h d
-1.67766	h e
-2.425215	h f
-3.074018	h g
-2.43417	h h
-2.170928	h i
-2.425215	h j
-1.742499	h k
-1.525461	h l
-1.799441	h m
-1.416441	h n
-0.5111848	h o
-1.264765	h p
-1.362594	h r
-1.104687	h s
-1.443313	h t
-1.396909	h u
-1.335093	h v
-3.074018	h x
-1.710577	h y
-1.749923	h z
-1.799441	h á
-3.074018	h ä
-2.547209	h é
-2.793191	h ô
-2.258078	h ú
-2.481942	h ý
-1.991559	h č
-1.757476	h ľ
-2.481942	h ŕ
-1.812215	h š
-2.969283	h ť
-2.717471	h ž
-2.935767	i "
-3.132061	i (
-2.500038	i )
-1.96573	i ,
-3.375099	i -
-2.211243	i .
-2.962919	i 1
-3.022917	i 2
-3.308153	i 3
-3.412888	i 4
-3.340337	i 5
-3.340337	i 6
-3.199008	i 7
-3.153251	i 8
-3.132061	i 9
-3.007123	i :
-2.514761	i ;
-2.991883	i </s>
-3.092553	i [
-0.7082695	i a
-2.180123	i b
-1.216486	i c
-1.599975	i d
-0.7509033	i e
-2.024529	i f
-3.092553	i g
-2.690853	i h
-1.6647	i i
-1.767644	i j
-1.567226	i k
-1.8908	i l
-1.721887	i m
-1.04706	i n
-1.817793	i o
-1.709988	i p
-3.375099	i q
-2.343691	i r
-1.113837	i s
-1.364023	i t
-1.698406	i u
-1.558858	i v
-3.375099	i w
-3.340337	i x
-1.661889	i z
-2.140414	i á
-3.340337	i é
-2.109888	i í
-2.922802	i ó
-3.375099	i ô
-2.874497	i ú
-3.412888	i ć
-2.102098	i č
-3.375099	i ď
-3.375099	i ľ
-2.500038	i š
-1.628855	i ť
-2.738277	i ž
-3.412888	i „
-3.308153	i ≥
-2.842245	j "
-2.842245	j (
-2.620396	j )
-2.559699	j ,
-2.666154	j .
-2.880034	j 0
-2.842245	j 1
-2.807483	j 2
-2.880034	j 4
-2.775298	j 5
-2.807483	j 9
-2.880034	j :
-2.807483	j ;
-2.880034	j </s>
-2.775298	j [
-1.111194	j a
-2.249328	j b
-2.034936	j c
-1.908589	j d
-0.5790036	j e
-2.459028	j f
-2.842245	j g
-2.189033	j h
-1.661355	j i
-2.506453	j j
-1.784706	j k
-2.058104	j l
-1.262462	j m
-1.39251	j n
-1.466581	j o
-1.586973	j p
-2.115246	j r
-1.668573	j s
-1.483676	j t
-2.143275	j u
-1.720029	j v
-1.872208	j z
-1.952943	j í
-2.880034	j ó
-0.731936	j ú
-1.908589	j č
-2.880034	j ľ
-2.666154	j ň
-1.967184	j š
-2.745335	j ž
-2.965806	k "
-3.246633	k (
-3.083905	k )
-2.208844	k ,
-2.664776	k .
-1.873052	k 1
-1.99577	k 2
-2.266836	k 3
-2.395931	k 4
-2.56375	k 5
-2.475112	k 6
-2.615928	k 7
-2.664776	k 8
-2.634813	k 9
-2.782876	k :
-2.926298	k ;
-3.141897	k </s>
-3.208844	k [
-1.09268	k a
-2.580455	k b
-1.974158	k c
-2.145011	k d
-1.202735	k e
-3.083905	k f
-3.032753	k g
-3.057577	k h
-1.945603	k i
-2.374212	k j
-2.810904	k k
-1.422329	k l
-2.324238	k m
-1.871385	k n
-0.6920886	k o
-2.157692	k p
-1.571188	k r
-2.100505	k s
-0.9229121	k t
-1.029149	k u
-1.86807	k v
-1.133297	k y
-2.424703	k z
-1.799475	k á
-1.381152	k é
-2.401535	k ó
-2.412964	k ô
-2.020854	k ú
-1.354032	k ý
-2.333783	k č
-3.111934	k ď
-3.246633	k ľ
-2.873052	k ŕ
-3.083905	k š
-3.246633	k ť
-3.083905	k ž
-3.13854	l "
-3.071593	l (
-3.13854	l )
-2.41838	l ,
-3.04163	l -
-2.649519	l .
-3.176328	l 1
-3.176328	l 2
-3.13854	l 3
-3.176328	l 4
-3.13854	l 7
-3.176328	l :
-2.987272	l ;
-3.13854	l </s>
-3.04163	l [
-0.7679339	l a
-2.740599	l b
-3.071593	l c
-2.439569	l d
-0.6802795	l e
-3.013601	l f
-3.071593	l g
-2.564508	l h
-1.060566	l i
-2.962448	l j
-2.145839	l k
-3.103777	l l
-2.855993	l m
-1.268819	l n
-0.7985914	l o
-2.469533	l p
-3.071593	l q
-2.895501	l r
-2.348489	l s
-2.360388	l t
-1.263478	l u
-2.385212	l v
-3.176328	l x
-1.787969	l y
-2.615661	l z
-0.8786671	l á
-2.536479	l é
-2.168503	l í
-2.712571	l ó
-3.176328	l ô
-2.342659	l ú
-2.263478	l ý
-2.916691	l č
-3.176328	l ď
-2.938967	l ň
-2.320094	l š
-2.83751	l ž
-2.670077	m "
-2.389251	m (
-2.958142	m )
-1.852131	m ,
-3.147198	m -
-1.858177	m .
-3.074648	m /
-3.147198	m 0
-2.396199	m 1
-2.644523	m 2
-2.846168	m 3
-2.933319	m 4
-3.074648	m 5
-2.933319	m 6
-2.846168	m 7
-2.866372	m 8
-3.042463	m 9
-2.773618	m :
-2.516493	m ;
-3.074648	m </s>
-2.958142	m [
-1.182125	m a
-1.810193	m b
-2.048712	m c
-2.171558	m d
-0.7825621	m e
-2.773618	m f
-3.10941	m g
-2.597526	m h
-0.7564238	m i
-2.382411	m j
-1.950545	m k
-1.730709	m l
-2.343493	m m
-1.337333	m n
-1.126762	m o
-1.547117	m p
-2.10941	m r
-1.605392	m s
-1.707148	m t
-1.16823	m u
-1.628684	m v
-1.817523	m y
-1.955595	m z
-1.453791	m á
-1.78547	m ä
-3.042463	m é
-2.307777	m í
-3.10941	m ó
-1.545138	m ô
-2.081381	m ú
-2.958142	m ý
-2.18427	m č
-3.147198	m ď
-2.045576	m š
-3.10941	m ť
-2.565342	m ž
-3.145565	n "
-3.321656	n (
-3.275898	n )
-3.497747	n +
-2.8135	n ,
-3.497747	n -
-3.114531	n .
-3.535536	n /
-3.321656	n 0
-3.400837	n 1
-3.400837	n 2
-3.535536	n 3
-3.497747	n 4
-3.497747	n 9
-3.462985	n :
-3.234506	n ;
-3.400837	n </s>
-3.321656	n [
-0.8497126	n a
-3.400837	n b
-2.175528	n c
-2.367414	n d
-1.029154	n e
-2.049299	n f
-2.473125	n g
-3.298175	n h
-0.8335755	n i
-3.400837	n j
-1.482807	n k
-3.298175	n l
-2.696115	n m
-1.813501	n n
-0.9140762	n o
-2.974869	n p
-3.114531	n r
-1.393944	n s
-1.635417	n t
-1.565358	n u
-2.370103	n v
-1.652649	n y
-2.576928	n z
-1.333147	n á
-1.026822	n é
-1.3802	n í
-3.275898	n ó
-3.400837	n ô
-1.844535	n ú
-1.151557	n ý
-2.191322	n č
-2.437049	n š
-3.400837	n ž
-3.003399	o "
-3.489475	o (
-3.295655	o )
-2.431144	o ,
-3.162116	o -
-3.392565	o .
-3.614414	o 0
-2.684995	o 1
-3.175081	o 2
-2.915444	o 3
-3.414841	o 4
-3.489475	o 5
-3.371376	o 6
-3.414841	o 7
-3.652202	o 8
-3.614414	o 9
-2.660171	o :
-3.414841	o ;
-3.012354	o </s>
-3.547467	o [
-2.252686	o a
-1.310139	o b
-1.714958	o c
-0.9915093	o d
-2.749112	o e
-2.614414	o f
-2.410294	o g
-1.586385	o h
-2.339487	o i
-1.922008	o j
-1.353548	o k
-1.335851	o l
-1.129877	o m
-1.418284	o n
-1.961201	o o
-1.366032	o p
-1.100531	o r
-1.079648	o s
-1.461616	o t
-1.604397	o u
-0.8190553	o v
-3.614414	o w
-2.824363	o x
-3.652202	o y
-1.352754	o z
-2.573021	o ú
-1.464938	o č
-3.278622	o ď
-2.225248	o ľ
-2.915444	o ň
-2.193908	o š
-1.697521	o ž
-3.201147	p "
-3.238935	p (
-2.748849	p )
-2.900117	p ,
-3.238935	p -
-2.761814	p .
-3.166384	p ;
-3.201147	p </s>
-1.230722	p a
-3.201147	p b
-2.179957	p c
-3.076208	p d
-1.36125	p e
-2.958109	p h
-1.560997	p i
-3.201147	p j
-2.422995	p k
-1.193257	p l
-2.81793	p m
-2.289102	p n
-0.4941446	p o
-2.803207	p p
-0.4642192	p r
-1.735021	p s
-2.60823	p t
-2.0448	p u
-2.83317	p v
-2.377238	p y
-3.238935	p z
-2.636875	p á
-2.667544	p ä
-3.201147	p ê
-1.945874	p í
-3.238935	p ó
-1.847359	p ô
-2.882388	p ú
-3.238935	p č
-2.013156	p ĺ
-3.076208	p ň
-2.539965	p š
-1.950276	q )
-1.950276	q ,
-1.950276	q .
-1.950276	q o
-1.787549	q u
-1.950276	q v
-3.0303	r "
-3.215937	r (
-3.187908	r )
-2.812245	r ,
-3.312847	r -
-3.049606	r .
-3.187908	r 1
-3.350636	r 2
-3.278085	r 3
-3.312847	r 6
-3.2459	r :
-3.312847	r ;
-3.2459	r </s>
-3.350636	r [
-0.8882376	r a
-2.812245	r b
-2.414305	r c
-2.221766	r d
-0.7413323	r e
-3.215937	r f
-1.717167	r g
-1.832122	r h
-0.9437859	r i
-3.2459	r j
-2.522797	r k
-2.483543	r l
-1.639212	r m
-1.371253	r n
-0.8424121	r o
-2.47295	r p
-3.069809	r r
-1.783502	r s
-2.488938	r t
-1.529301	r u
-2.02096	r v
-3.350636	r w
-2.090998	r y
-2.659635	r z
-1.235782	r á
-3.312847	r å
-1.456017	r é
-1.250265	r í
-1.861829	r ó
-2.684458	r ô
-2.499934	r ú
-1.676025	r ý
-1.87089	r č
-3.2459	r ľ
-3.049606	r ň
-3.0303	r š
-3.049606	r ť
-2.258489	r ž
-3.350636	r –
-3.175059	s "
-3.175059	s (
-1.721167	s )
-2.353873	s ,
-3.337786	s -
-1.819272	s .
-3.233051	s 1
-3.299997	s 2
-3.337786	s 3
-3.337786	s 5
-3.233051	s :
-2.83511	s ;
-3.056959	s </s>
-2.362145	s [
-1.00443	s a
-2.964205	s b
-1.951044	s c
-2.810977	s d
-1.524266	s e
-2.964205	s f
-3.299997	s g
-2.91678	s h
-1.268926	s i
-3.017451	s j
-0.9420625	s k
-1.359232	s l
-1.385742	s m
-2.044725	s n
-1.247239	s o
-1.004064	s p
-2.810977	s r
-2.4601	s s
-0.6351987	s t
-1.964205	s u
-1.837599	s v
-1.991789	s y
-2.439659	s z
-3.056959	s á
-3.265235	s é
-1.979505	s í
-3.233051	s ó
-2.735726	s ô
-1.377878	s ú
-3.299997	s ý
-2.366341	s č
-3.265235	s ď
-3.299997	s ň
-3.337786	s š
-1.558321	s ť
-3.265235	s –
-3.250908	t "
-3.317854	t (
-3.283092	t )
-2.477958	t ,
-3.283092	t -
-2.999096	t .
-3.317854	t 1
-3.355643	t 2
-3.355643	t 3
-3.355643	t 5
-3.283092	t :
-3.166587	t ;
-3.317854	t </s>
-3.355643	t [
-1.035308	t a
-2.734278	t b
-3.166587	t c
-2.982062	t d
-1.057584	t e
-3.317854	t f
-3.317854	t g
-3.096006	t h
-1.022838	t i
-3.250908	t j
-1.616718	t k
-2.263497	t l
-2.363612	t m
-1.267668	t n
-0.6315907	t o
-2.664642	t p
-1.01773	t r
-2.510545	t s
-2.794976	t t
-1.374195	t u
-1.415217	t v
-3.355643	t w
-1.581458	t y
-2.965672	t z
-1.236567	t á
-3.317854	t å
-3.317854	t è
-1.778988	t é
-1.659048	t í
-2.296665	t ó
-3.283092	t ô
-1.861742	t ú
-1.537897	t ý
-3.283092	t č
-3.355643	t ď
-2.965672	t ĺ
-3.355643	t ľ
-2.018638	t ň
-3.141763	t š
-3.317854	t ž
-2.659665	u "
-2.483573	u (
-3.015052	u )
-1.469333	u ,
-1.793203	u .
-3.111962	u /
-1.633636	u 1
-1.981628	u 2
-2.169954	u 3
-2.450781	u 4
-2.500947	u 5
-2.47514	u 6
-2.500947	u 7
-2.557675	u 8
-2.509902	u 9
-2.442955	u :
-2.149751	u ;
-2.728745	u </s>
-2.37823	u [
-1.551657	u a
-1.827531	u b
-2.108358	u c
-1.427716	u d
-2.420291	u e
-2.647075	u f
-2.728745	u g
-1.945631	u h
-2.352294	u i
-1.121106	u j
-1.426967	u k
-1.868924	u l
-1.5597	u m
-1.711137	u n
-1.734777	u o
-1.025602	u p
-1.223595	u r
-1.042233	u s
-1.192448	u t
-2.035807	u u
-1.028878	u v
-3.111962	u x
-1.719852	u z
-2.029775	u á
-2.57836	u í
-2.492173	u ú
-1.995244	u č
-2.67263	u ď
-2.500947	u ľ
-1.427716	u š
-2.57836	u ť
-1.511716	u ž
-3.149751	u –
-3.149751	u “
-3.004134	v "
-3.064832	v (
-2.967922	v )
-1.773685	v ,
-2.265492	v .
-3.251919	v /
-2.918704	v 1
-3.087109	v 2
-3.251919	v 3
-3.251919	v 4
-3.32447	v 5
-3.32447	v 6
-3.286681	v 7
-3.286681	v 8
-3.251919	v 9
-3.219734	v :
-2.566522	v ;
-2.821794	v </s>
-3.02344	v [
-0.794736	v a
-2.490801	v b
-2.344673	v c
-2.245288	v d
-0.9084345	v e
-3.135413	v f
-3.251919	v g
-2.353025	v h
-1.159306	v i
-2.722409	v j
-1.661712	v k
-2.108184	v l
-2.462772	v m
-1.282718	v n
-0.9929502	v o
-1.490222	v p
-1.70122	v r
-1.486766	v s
-1.959322	v t
-1.641586	v u
-2.186885	v v
-1.21388	v y
-1.606194	v z
-1.606194	v á
-2.219734	v ä
-1.835662	v é
-2.201509	v í
-2.753078	v ó
-2.918704	v ô
-2.539788	v ú
-1.139005	v ý
-1.651532	v č
-3.219734	v ď
-2.742613	v ň
-1.789521	v š
-3.32447	v ť
-2.847348	v ž
-3.32447	v –
-1.951161	w )
-1.951161	w ,
-1.951161	w -
-1.951161	w a
-1.951161	w h
-1.788434	w i
-1.951161	w t
-1.951161	w ä
-2.063777	x (
-2.063777	x )
-1.929078	x ,
-2.063777	x 1
-1.826416	x a
-1.762747	x e
-0.8983436	x i
-1.959041	x k
-1.929078	x n
-1.690196	x o
-1.573691	x p
-2.063777	x s
-1.279095	x t
-1.929078	x u
-2.063777	x v
-2.025988	x y
-1.826416	x í
-2.393833	y "
-1.828402	y (
-2.846131	y )
-1.241365	y ,
-1.788592	y .
-2.883919	y /
-2.883919	y 0
-2.334248	y 1
-2.43395	y 2
-2.811369	y 3
-2.811369	y 4
-2.694863	y 5
-2.694863	y 6
-2.381244	y 7
-2.43395	y 8
-2.217742	y 9
-2.272099	y :
-1.961524	y ;
-2.478154	y </s>
-2.420162	y [
-1.33092	y a
-1.493948	y b
-1.282848	y c
-1.609342	y d
-2.462914	y e
-2.603093	y f
-2.624282	y g
-1.73498	y h
-1.895928	y i
-2.033217	y j
-1.318931	y k
-1.952184	y l
-1.288824	y m
-1.439591	y n
-1.651154	y o
-1.156674	y p
-1.726655	y r
-1.054908	y s
-1.293868	y t
-1.556096	y u
-1.348971	y v
-1.410764	y z
-2.846131	y í
-2.478154	y ú
-1.883919	y č
-2.846131	y ď
-2.749221	y ň
-1.891888	y š
-1.43395	y ť
-1.925312	y ž
-2.883919	y –
-2.879137	z "
-2.703046	z ,
-2.849174	z .
-2.26939	z 1
-1.957079	z 2
-2.682842	z 3
-2.746511	z 5
-2.821145	z 8
-2.821145	z 9
-2.983872	z :
-2.983872	z ;
-0.7541206	z a
-2.13317	z b
-2.423205	z c
-1.533903	z d
-1.524206	z e
-2.769992	z f
-2.946084	z g
-1.387775	z h
-1.344024	z i
-2.493786	z j
-1.797378	z k
-1.901413	z l
-1.226614	z m
-1.013694	z n
-1.106187	z o
-1.378861	z p
-1.389781	z r
-2.232873	z s
-1.866902	z t
-1.744232	z u
-1.403051	z v
-2.034039	z y
-2.703046	z z
-1.017517	z á
-2.746511	z é
-1.713511	z í
-2.520115	z ó
-2.225924	z ú
-2.879137	z ý
-2.627325	z č
-2.983872	z ď
-2.493786	z š
-1.876046	z ť
-2.562516	á "
-2.953722	á (
-2.164576	á ,
-2.745447	á .
-3.026273	á 2
-3.026273	á 8
-2.953722	á :
-2.725243	á ;
-2.128147	á a
-2.192605	á b
-1.01	á c
-1.349995	á d
-2.863546	á e
-2.745447	á f
-1.967295	á h
-2.465606	á i
-2.089942	á j
-1.421262	á k
-1.301997	á l
-1.444417	á m
-0.7458604	á n
-2.268325	á o
-1.791204	á p
-1.220093	á r
-1.379246	á s
-0.8565453	á t
-2.080894	á u
-0.9051015	á v
-1.659426	á z
-2.725243	á ú
-2.386425	á č
-3.026273	á ď
-2.766636	á ľ
-2.296814	á š
-2.988485	á ť
-1.874541	á ž
-1.945827	ã o
-1.816399	ä :
-2.024675	ä a
-2.059437	ä c
-1.515369	ä d
-2.097226	ä f
-2.097226	ä h
-2.097226	ä i
-1.758407	ä j
-1.934498	ä k
-1.101192	ä n
-1.962527	ä o
-1.67622	ä p
-2.059437	ä r
-1.37519	ä s
-1.620105	ä t
-1.99249	ä u
-1.883346	ä v
-1.30611	ä z
-2.059437	ä ú
-1.339278	ä č
-1.776891	ä ť
-2.097226	ä ž
-1.947166	å e
-1.909378	å l
-1.947166	å r
-1.945827	ç ã
-1.908485	è r
-2.621543	é "
-2.6759	é (
-2.810599	é )
-1.611442	é ,
-2.144422	é .
-2.77281	é 1
-2.596719	é :
-2.471781	é ;
-2.810599	é </s>
-2.810599	é [
-1.540238	é a
-1.851992	é b
-2.189234	é c
-1.84767	é d
-2.454052	é e
-2.346842	é f
-2.573238	é g
-0.7649205	é h
-1.86522	é i
-2.249932	é j
-1.678805	é k
-2.032448	é l
-1.159145	é m
-1.299324	é n
-1.333478	é o
-1.047171	é p
-1.751621	é r
-1.191126	é s
-1.721658	é t
-1.762087	é u
-1.035088	é v
-1.477243	é z
-2.810599	é á
-1.971178	é ú
-1.897749	é č
-2.77281	é ď
-2.810599	é ľ
-1.355062	é š
-2.810599	é ť
-2.647872	é ž
-2.77281	é –
-1.908485	ê c
-2.773188	í "
-2.296067	í (
-2.735399	í )
-1.484167	í ,
-1.933767	í .
-2.700637	í 1
-2.700637	í 3
-2.735399	í 5
-2.700637	í 9
-2.492361	í :
-2.191331	í ;
-2.283102	í </s>
-2.610461	í [
-1.511384	í a
-1.880082	í b
-1.292136	í c
-1.597097	í d
-1.801743	í e
-2.735399	í f
-2.472158	í h
-2.399607	í i
-2.01524	í j
-1.436183	í k
-1.221294	í l
-1.161368	í m
-1.249914	í n
-1.777154	í o
-1.013177	í p
-1.818945	í r
-0.8119825	í s
-1.535827	í t
-1.885162	í u
-1.09277	í v
-1.810259	í z
-2.492361	í ú
-2.201797	í č
-2.773188	í ď
-2.735399	í ľ
-1.916953	í š
-1.963322	í ž
-2.773188	í —
-1.594161	ó b
-1.144844	ó d
-2.186237	ó f
-1.780472	ó g
-2.051538	ó l
-2.051538	ó m
-1.456778	ó n
-0.6910712	ó p
-1.14127	ó r
-1.594161	ó t
-1.780472	ó z
-1.585894	ô b
-1.783384	ô c
-1.783384	ô d
-1.94017	ô j
-1.921687	ô k
-1.63914	ô l
-2.260505	ô n
-2.260505	ô p
-1.444565	ô r
-1.023144	ô s
-2.071449	ô t
-1.034726	ô v
-1.710833	ô z
-2.260505	ô ľ
-0.6614163	ô ž
-2.665942	ú "
-2.107787	ú ,
-2.274735	ú .
-2.738492	ú 1
-2.478855	ú :
-2.457666	ú ;
-1.8714	ú a
-2.117127	ú b
-0.8576787	ú c
-1.322003	ú d
-2.437462	ú e
-2.524612	ú f
-2.738492	ú g
-1.910653	ú h
-2.223583	ú i
-2.457666	ú j
-1.665942	ú k
-1.024773	ú l
-1.941036	ú m
-1.439441	ú n
-1.754579	ú o
-1.178912	ú p
-1.173504	ú r
-1.410669	ú s
-1.334281	ú t
-1.820844	ú u
-1.18882	ú v
-1.534372	ú z
-2.167101	ú ú
-1.055609	ú č
-2.738492	ú ď
-2.478855	ú ľ
-2.126673	ú š
-1.811402	ú ť
-2.437462	ú ž
-1.945827	ü r
-2.767042	ý "
-2.839592	ý (
-2.767042	ý )
-2.278925	ý ,
-2.650536	ý .
-2.767042	ý :
-2.839592	ý ;
-2.048476	ý a
-1.377194	ý b
-0.4891681	ý c
-1.809103	ý d
-2.704894	ý e
-2.558766	ý f
-2.839592	ý g
-2.190789	ý h
-2.650536	ý i
-2.301201	ý j
-1.395264	ý k
-2.257736	ý l
-0.740477	ý m
-1.744264	ý n
-1.827906	ý o
-1.620914	ý p
-1.151011	ý r
-1.599952	ý s
-2.190789	ý t
-2.449621	ý u
-1.430736	ý v
-1.816527	ý z
-2.324682	ý ú
-2.005924	ý č
-2.767042	ý ď
-1.544525	ý š
-2.801804	ý ť
-2.449621	ý ž
-1.945827	ć n
-2.870776	č ,
-1.219322	č .
-2.870776	č 1
-2.870776	č 9
-1.293076	č a
-2.870776	č b
-2.870776	č d
-0.8510936	č e
-0.9847986	č i
-2.870776	č j
-2.268716	č k
-0.5017291	č l
-2.766041	č m
-0.8526055	č n
-1.68172	č o
-2.870776	č p
-2.870776	č r
-2.832988	č s
-1.886863	č t
-2.141317	č u
-2.870776	č z
-1.571725	č í
-2.407019	č ň
-2.148741	č š
-2.199157	ď ,
-2.199157	ď .
-2.161368	ď :
-1.183644	ď a
-2.064458	ď b
-2.161368	ď c
-2.094421	ď d
-2.199157	ď h
-1.985277	ď j
-2.064458	ď k
-2.161368	ď m
-2.064458	ď n
-1.825576	ď o
-1.898127	ď p
-2.064458	ď r
-1.684247	ď s
-2.126606	ď t
-1.939519	ď u
-2.126606	ď v
-2.126606	ď z
-2.094421	ď č
-0.4939151	ď ž
-1.638304	ĺ p
-0.8024964	ĺ ň
-1.727245	ĺ ž
-2.428135	ľ "
-2.390346	ľ (
-2.265408	ľ ,
-2.355584	ľ .
-2.355584	ľ :
-2.428135	ľ ;
-0.6415124	ľ a
-2.390346	ľ b
-2.428135	ľ c
-2.355584	ľ d
-2.428135	ľ f
-2.428135	ľ h
-1.729165	ľ i
-2.054554	ľ j
-1.561042	ľ k
-1.816315	ľ m
-1.025483	ľ n
-0.7205646	ľ o
-2.022369	ľ p
-2.390346	ľ r
-1.561042	ľ s
-2.147308	ľ t
-1.577433	ľ u
-1.342423	ľ v
-2.239079	ľ z
-2.428135	ľ ú
-2.428135	ľ č
-2.390346	ľ ž
-2.173186	ň "
-1.997095	ň ,
-2.138424	ň .
-2.048248	ň 1
-2.173186	ň 2
-2.173186	ň 5
-2.210975	ň 7
-2.210975	ň 8
-2.138424	ň :
-2.210975	ň ;
-0.7796111	ň a
-2.10624	ň b
-2.210975	ň c
-2.138424	ň d
-2.173186	ň f
-2.210975	ň h
-1.973614	ň j
-2.210975	ň k
-2.210975	ň m
-1.951338	ň n
-0.7810758	ň o
-1.650308	ň p
-2.076276	ň r
-2.076276	ň s
-1.973614	ň t
-1.122034	ň u
-2.076276	ň v
-2.076276	ň z
-1.928993	ŕ d
-1.627963	ŕ m
-1.374706	ŕ ň
-2.538762	š ,
-1.557246	š a
-0.9647309	š e
-1.125183	š i
-1.424819	š k
-2.112793	š l
-0.9580272	š n
-1.742882	š o
-1.48761	š p
-0.5110729	š t
-1.974491	š u
-2.33919	š v
-2.295724	š á
-1.490839	š í
-2.576551	š č
-2.387495	š ľ
-1.862069	š š
-2.086464	š ť
-2.326905	ť "
-2.540784	ť (
-1.341628	ť ,
-1.782836	ť .
-2.468234	ť 0
-2.303423	ť 1
-2.378057	ť 2
-2.468234	ť 3
-2.540784	ť 5
-2.540784	ť 8
-2.239754	ť :
-2.050698	ť ;
-2.406086	ť </s>
-0.980117	ť a
-2.105056	ť b
-2.077027	ť c
-1.478373	ť d
-2.239754	ť e
-2.303423	ť f
-2.540784	ť g
-2.184237	ť h
-1.743328	ť i
-1.980117	ť j
-1.488755	ť k
-1.928964	ť l
-1.796847	ť m
-1.266207	ť n
-1.154042	ť o
-1.081118	ť p
-1.701363	ť r
-1.331757	ť s
-1.556871	ť t
-1.529099	ť u
-1.180776	ť v
-1.394656	ť z
-1.991112	ť ú
-1.900936	ť č
-2.303423	ť ď
-2.540784	ť ľ
-2.135019	ť š
-2.281147	ť ž
-2.668047	ž "
-2.563312	ž )
-2.668047	ž ,
-2.668047	ž .
-2.294466	ž 1
-2.595496	ž 2
-2.668047	ž 3
-2.563312	ž 4
-2.630258	ž 5
-2.595496	ž 6
-2.668047	ž 7
-2.595496	ž 9
-2.668047	ž :
-1.412774	ž a
-1.953565	ž b
-2.50532	ž c
-1.218078	ž d
-0.5507756	ž e
-2.668047	ž f
-2.668047	ž g
-2.595496	ž h
-0.7576165	ž i
-2.38722	ž j
-1.56022	ž k
-2.668047	ž l
-2.38722	ž m
-1.223718	ž n
-1.889896	ž o
-2.141238	ž p
-2.668047	ž r
-1.494596	ž s
-2.630258	ž t
-1.270107	ž u
-2.232318	ž v
-2.563312	ž z
-2.668047	ž á
-2.668047	ž é
-1.379026	ž í
-2.454167	ž ú
-2.668047	ž č
-2.165371	ž ň
-2.10738	ž š
-1.945827	ά δ
-1.945827	α ν
-1.945827	γ α
-1.94672	δ η
-1.94672	δ ο
-1.94672	δ ρ
-1.946274	ε )
-1.946274	ε λ
-1.945827	η ρ
-1.946274	ι δ
-1.946274	ι σ
-1.946274	λ ά
-1.946274	λ λ
-1.946274	μ ω
-1.946274	μ ό
-1.946274	ν ε
-1.946274	ν ι
-1.947166	ο δ
-1.947166	ο ρ
-1.947166	ο ς
-1.947166	ο σ
-1.94672	ρ γ
-1.94672	ρ ο
-1.94672	ρ ό
-1.946274	ς a
-1.946274	ς σ
-1.94672	σ ε
-1.94672	σ ι
-1.94672	σ μ
-1.945827	ω ν
-1.946274	ό μ
-1.946274	ό ς
-1.912488	– a
-1.950276	– c
-1.912488	– d
-1.950276	– e
-1.950276	– l
-1.950276	– m
-1.950276	– p
-1.950276	– s
-1.950276	– v
-1.949833	— "
-1.949833	— 1
-1.949833	— a
-1.949833	— b
-1.949833	— c
-1.912045	— p
-1.949833	— s
-1.949833	— t
-1.949833	— z
-1.945827	“ ,
-1.945827	„ ú
-1.945827	… </s>
-1.947166	≥ 0
-1.947166	≥ 3
-1.909378	≥ 5

\end\
