
\data\
ngram 1=89
ngram 2=1893

\1-grams:
-2.896872	"	1.035666
-3.709447	%	0.5336719
-2.353093	(	0.3572424
-2.350782	)	0.9498596
-4.591139	*	-0.006073022
-4.625901	+	-0.007930257
-1.85462	,	0.4498984
-3.076694	-	0.9161015
-2.122792	.	0.6927032
-2.514751	/	-0.2980764
-2.598212	0	0.4953142
-2.243134	1	0.2960961
-2.355999	2	0.202216
-2.590138	3	0.1294048
-2.73288	4	0.2193012
-2.809108	5	0.3189169
-2.747475	6	0.4372214
-2.774133	7	0.2089087
-2.757649	8	0.0005237372
-2.477196	9	0.2473904
-2.966302	:	0.103887
-2.736599	;	0.3279668
-2.090396	</s>
-99	<s>	-0.2141025
-3.071614	[	-0.2110019
-3.071614	]	0.2099497
-1.045014	a	0.6111594
-1.800421	b	0.1827856
-2.117708	c	0.6281438
-1.421306	d	0.3452646
-1.013223	e	0.1916725
-2.789155	f	0.1640715
-1.866422	g	-0.1355697
-1.962672	h	0.8279076
-1.070102	i	0.2203209
-1.425895	j	0.1000684
-1.486153	k	0.3635404
-1.422121	l	-0.02215733
-1.670775	m	0.8858052
-1.181414	n	0.5939966
-1.072271	o	0.2560259
-1.473053	p	-0.01833866
-4.382863	q	-0.004494539
-1.296571	r	0.2250722
-1.375583	s	-0.1117278
-1.390373	t	0.1437428
-1.668374	u	0.6441497
-1.35182	v	0.5282617
-4.426329	w	0.04268814
-4.257925	x	0.207713
-4.404052	y	0.08891432
-1.617337	z	0.1038438
-4.625901	á	0.02836629
-4.66369	ã	0.0329656
-4.625901	ä	0.01075906
-4.591139	å	0.02870948
-4.66369	ç	-0.005447235
-4.625901	è	0.01656301
-4.474634	é	0.1137158
-4.625901	ê	-0.002624748
-4.66369	ó	0.02412885
-4.66369	ü	0.01705569
-1.815557	č	-0.01774468
-4.66369	ĺ	0.03885613
-2.273397	š	-0.174304
-2.228106	ž	0.1366783
-4.66369	ά	-0.005445523
-4.66369	α	-0.005446379
-4.66369	γ	-0.005447235
-4.591139	δ	-0.01650923
-4.625901	ε	-0.009019049
-4.66369	η	-0.005445523
-4.625901	ι	-0.01094787
-4.625901	λ	-0.01095044
-4.625901	μ	-0.01095044
-4.625901	ν	-0.01094958
-4.558954	ο	-0.0221293
-4.591139	ρ	-0.01651009
-4.625901	ς	0.03007429
-4.591139	σ	-0.01651094
-4.66369	ω	-0.005446379
-4.625901	ό	-0.01094958
-3.905742	–	0.1451649
-4.44981	—	0.07629321
-4.500962	‘	0.0620095
-4.625901	’	0.03007805
-4.500962	‚	0.08913527
-4.66369	…	-0.001915398
-4.558954	≥	-0.01413833

\2-grams:
-1.781899	" (
-1.781899	" )
-1.546371	" ,
-1.674689	" .
-1.764866	" 1
-1.837416	" 2
-1.818111	" 3
-2.138446	" 4
-2.100658	" 5
-2.065896	" 6
-2.138446	" 7
-2.138446	" 8
-2.065896	" 9
-2.065896	" :
-1.408987	" ;
-1.225596	" </s>
-1.85762	" a
-1.94939	" b
-1.702718	" d
-1.975719	" e
-2.065896	" f
-2.100658	" g
-1.732681	" i
-2.100658	" j
-1.94939	" k
-2.033711	" l
-1.878809	" m
-1.600055	" n
-1.748475	" o
-1.15865	" p
-1.94939	" r
-1.536386	" s
-1.818111	" t
-1.901085	" u
-1.674689	" v
-1.799628	" z
-1.577779	" č
-2.138446	" š
-2.138446	" ž
-2.065896	" —
-1.907143	% "
-1.944931	% )
-1.643901	% ,
-1.664104	% .
-1.944931	% :
-1.840196	% ;
-1.810233	% a
-1.944931	% b
-1.944931	% c
-1.907143	% d
-1.907143	% e
-1.87238	% i
-1.907143	% j
-1.907143	% k
-1.907143	% m
-1.782204	% n
-1.907143	% o
-1.70757	% p
-1.944931	% r
-1.755875	% s
-1.731051	% v
-1.810233	% z
-2.380072	( "
-2.452623	( %
-2.192985	( -
-2.452623	( 0
-1.057853	( 1
-1.099564	( 2
-1.464632	( 3
-1.590925	( 4
-1.715864	( 5
-1.840803	( 6
-1.975501	( 7
-2.002654	( 8
-1.914232	( 9
-2.452623	( [
-1.151593	( a
-1.155559	( b
-1.281828	( c
-1.601921	( d
-0.8219175	( e
-1.778012	( f
-2.046857	( g
-2.132288	( h
-1.525532	( i
-2.215262	( j
-2.113804	( k
-2.289895	( l
-2.238743	( m
-2.096075	( n
-2.238743	( o
-2.113804	( p
-2.452623	( q
-2.347887	( r
-2.132288	( s
-2.215262	( t
-2.414834	( u
-1.881232	( v
-2.414834	( w
-2.317924	( z
-2.452623	( š
-2.452623	( ο
-1.676139	) "
-1.391879	) (
-2.45429	) )
-1.210126	) ,
-2.45429	) -
-1.571404	) .
-2.240411	) 1
-2.291563	) 2
-2.349555	) 3
-2.45429	) 4
-2.45429	) 5
-2.319592	) :
-1.85223	) ;
-1.85223	) </s>
-2.240411	) [
-1.9159	) a
-2.133955	) b
-2.38174	) c
-1.278199	) d
-2.319592	) e
-2.349555	) f
-2.173464	) g
-2.265234	) h
-1.349555	) i
-2.194653	) j
-1.402261	) k
-2.216929	) l
-2.018562	) m
-1.747495	) n
-1.541441	) o
-1.343395	) p
-2.115472	) r
-1.302558	) s
-1.763289	) t
-1.328366	) u
-1.531895	) v
-2.45429	) w
-2.416502	) y
-1.536642	) z
-1.85223	) č
-0.8786827	) š
-2.319592	) ž
-2.45429	) –
-1.832017	* ]
-1.904076	+ 2
-1.904076	+ 3
-2.558327	, "
-2.356681	, (
-2.859357	, ,
-2.821568	, -
-2.57853	, 0
-2.621996	, 1
-2.395599	, 2
-2.621996	, 3
-2.6703	, 4
-2.645477	, 5
-2.6703	, 6
-2.6703	, 7
-2.502809	, 8
-2.539021	, 9
-1.209668	, </s>
-1.754621	, a
-2.237992	, b
-2.502809	, c
-0.9393283	, d
-2.257297	, e
-2.382236	, f
-2.423628	, g
-2.696629	, h
-1.317551	, i
-1.946507	, j
-0.6122766	, k
-2.087836	, l
-1.840052	, m
-1.351746	, n
-1.588995	, o
-1.09866	, p
-1.79016	, r
-1.289026	, s
-1.786806	, t
-1.817964	, u
-1.379611	, v
-2.786806	, x
-1.419307	, z
-1.626592	, č
-2.438351	, š
-2.696629	, ž
-2.033088	- "
-2.070877	- 0
-1.966142	- 1
-2.070877	- 2
-2.070877	- 4
-2.033088	- 5
-1.998326	- 7
-2.070877	- 8
-1.936179	- </s>
-1.750542	- a
-1.881821	- b
-2.070877	- c
-1.544068	- d
-1.71433	- e
-1.936179	- f
-1.998326	- g
-1.90815	- h
-1.555967	- i
-1.936179	- j
-1.580791	- k
-1.90815	- l
-1.90815	- m
-1.71433	- n
-1.60712	- o
-1.51021	- p
-1.568202	- r
-1.299356	- s
-1.635149	- t
-1.750542	- u
-1.555967	- v
-1.665112	- z
-1.81124	- č
-2.033088	- š
-2.033088	- ž
-2.070877	- ο
-1.856997	- –
-1.966142	- ‚
-1.6069	. "
-2.30963	. (
-2.557415	. )
-2.557415	. ,
-2.557415	. .
-2.467238	. 0
-1.372505	. 1
-1.483837	. 2
-1.814026	. 3
-2.273418	. 4
-2.256385	. 5
-2.370328	. 6
-2.194237	. 7
-2.12729	. 8
-2.349139	. 9
-0.5117908	. </s>
-2.027905	. a
-2.239994	. b
-2.440909	. c
-1.221109	. d
-2.416085	. e
-2.12729	. f
-2.349139	. g
-2.115056	. i
-1.413679	. j
-1.567554	. k
-2.416085	. l
-1.757544	. m
-1.675723	. n
-1.475458	. o
-1.401845	. p
-2.30963	. r
-1.741939	. s
-1.741939	. t
-2.12729	. u
-1.425845	. v
-1.629965	. z
-1.588573	. č
-2.52523	. š
-2.557415	. ž
-2.342423	/ 0
-1.370978	/ 1
-1.323117	/ 2
-1.526483	/ 3
-1.266544	/ 4
-1.584475	/ 5
-1.269872	/ 6
-1.420027	/ 7
-1.366782	/ 8
-1.035511	/ 9
-1.486188	/ a
-2.304634	/ c
-0.6669776	/ e
-2.304634	/ h
-2.342423	/ i
-2.342423	/ m
-2.304634	/ p
-2.237687	/ s
-2.342423	/ u
-2.269872	/ š
-2.253055	0 "
-1.599843	0 %
-1.698768	0 (
-1.917263	0 )
-1.688784	0 ,
-2.253055	0 -
-1.457175	0 .
-1.058079	0 /
-0.7640347	0 0
-1.440142	0 1
-1.363753	0 2
-1.584048	0 3
-1.855115	0 4
-1.989814	0 5
-1.900873	0 6
-1.775934	0 7
-1.869838	0 8
-1.869838	0 9
-2.290844	0 ;
-1.633266	0 </s>
-2.010017	0 [
-2.053483	0 ]
-2.076964	0 a
-2.290844	0 b
-2.156145	0 c
-1.827086	0 d
-2.010017	0 e
-2.290844	0 f
-2.253055	0 g
-2.253055	0 h
-2.053483	0 i
-2.156145	0 j
-2.128116	0 k
-2.253055	0 l
-2.186108	0 m
-2.253055	0 n
-1.719453	0 o
-1.989814	0 p
-1.970509	0 s
-2.156145	0 t
-2.218293	0 u
-2.101788	0 v
-2.290844	0 w
-2.010017	0 z
-2.290844	0 č
-2.496814	1 %
-1.496814	1 (
-1.239536	1 )
-1.621753	1 ,
-0.9355142	1 .
-1.399904	1 /
-1.320723	1 0
-1.402809	1 1
-1.436117	1 2
-1.49321	1 3
-1.479086	1 4
-1.458724	1 5
-1.598272	1 6
-1.554806	1 7
-1.646577	1 8
-0.9020536	1 9
-2.320723	1 :
-2.371876	1 ;
-1.558962	1 </s>
-2.320723	1 [
-1.554806	1 ]
-2.253776	1 a
-2.070846	1 d
-2.496814	1 e
-2.462052	1 g
-1.913238	1 i
-2.534603	1 j
-2.462052	1 k
-2.496814	1 l
-2.462052	1 m
-2.233573	1 n
-2.031928	1 o
-2.084634	1 p
-2.534603	1 r
-1.984931	1 s
-2.345547	1 t
-2.274966	1 u
-2.297242	1 v
-2.233573	1 z
-2.450529	2 "
-2.345794	2 %
-1.523439	2 (
-1.102756	2 )
-1.640663	2 ,
-2.450529	2 -
-1.0148	2 .
-1.217764	2 /
-0.9272556	2 0
-1.634589	2 1
-1.500696	2 2
-1.578108	2 3
-1.50515	2 4
-1.562503	2 5
-1.628599	2 6
-1.767646	2 7
-1.69953	2 8
-1.611108	2 9
-2.41274	2 :
-2.261473	2 ;
-1.402017	2 </s>
-2.287802	2 [
-1.523439	2 ]
-2.213168	2 a
-2.450529	2 b
-2.093982	2 d
-2.31583	2 e
-2.450529	2 g
-1.889862	2 i
-2.345794	2 j
-2.345794	2 k
-2.450529	2 l
-2.213168	2 m
-2.345794	2 n
-1.838709	2 o
-2.149499	2 p
-2.014801	2 s
-2.41274	2 t
-2.190892	2 u
-2.190892	2 v
-2.00056	2 z
-2.41274	2 š
-2.295667	3 "
-2.190932	3 %
-1.485801	3 (
-1.2507	3 )
-1.596697	3 ,
-2.295667	3 -
-1.025306	3 .
-1.160968	3 /
-1.461998	3 0
-1.428575	3 1
-1.604666	3 2
-1.745995	3 3
-1.83191	3 4
-1.805581	3 5
-1.491962	3 6
-1.63809	3 7
-1.768858	3 8
-1.703591	3 9
-2.257879	3 :
-2.160969	3 ;
-1.368577	3 </s>
-2.058306	3 [
-1.467828	3 ]
-2.160969	3 a
-2.223116	3 b
-1.818546	3 d
-2.223116	3 e
-1.735	3 i
-2.257879	3 k
-2.295667	3 l
-2.190932	3 n
-1.845698	3 o
-1.994637	3 p
-1.889902	3 s
-2.190932	3 t
-1.956849	3 u
-2.190932	3 v
-1.994637	3 z
-2.215806	4 "
-2.178017	4 %
-1.50901	4 (
-1.298157	4 )
-1.567002	4 ,
-1.123659	4 .
-1.126865	4 /
-1.644415	4 0
-1.633949	4 1
-1.486346	4 2
-1.613746	4 3
-1.859258	4 4
-1.895471	4 5
-1.666134	4 6
-1.876987	4 7
-1.62373	4 8
-1.549628	4 9
-2.081107	4 ;
-1.418349	4 </s>
-2.053078	4 [
-1.479047	4 ]
-2.11107	4 a
-2.02675	4 d
-2.215806	4 e
-2.215806	4 g
-1.876987	4 i
-2.143255	4 m
-2.11107	4 n
-1.7948	4 o
-1.956168	4 p
-2.215806	4 r
-1.934979	4 s
-2.081107	4 t
-2.02675	4 u
-2.02675	4 v
-2.143255	4 z
-2.17793	5 "
-1.700809	5 %
-1.495047	5 (
-1.350091	5 )
-1.617262	5 ,
-1.181896	5 .
-1.228096	5 /
-1.617262	5 0
-1.727961	5 1
-1.639539	5 2
-1.714172	5 3
-1.651121	5 4
-1.857595	5 5
-1.687844	5 6
-1.821383	5 7
-1.742201	5 8
-1.8769	5 9
-2.17793	5 :
-2.043231	5 ;
-1.511752	5 </s>
-1.8769	5 [
-1.529126	5 ]
-2.105379	5 a
-2.17793	5 c
-1.940569	5 d
-2.140141	5 e
-2.015203	5 g
-1.772164	5 i
-2.043231	5 k
-2.17793	5 l
-2.073195	5 m
-2.073195	5 n
-1.742201	5 o
-1.821383	5 p
-1.897103	5 s
-2.105379	5 t
-2.043231	5 u
-2.105379	5 v
-1.96405	5 z
-2.17793	5 ž
-2.103559	6 %
-1.550717	6 (
-1.57759	6 )
-1.636904	6 ,
-2.208295	6 -
-1.2859	6 .
-1.004175	6 /
-1.493813	6 0
-1.802529	6 1
-1.478835	6 2
-1.787289	6 3
-1.705619	6 4
-1.818324	6 5
-1.464358	6 6
-1.559491	6 7
-1.436774	6 8
-1.787289	6 9
-2.208295	6 :
-2.073596	6 ;
-1.517294	6 </s>
-1.970934	6 [
-1.658623	6 ]
-2.135744	6 a
-1.744537	6 d
-2.208295	6 e
-1.907265	6 i
-2.208295	6 k
-2.135744	6 l
-2.073596	6 m
-2.135744	6 n
-1.705619	6 o
-2.103559	6 p
-2.208295	6 r
-1.948657	6 s
-2.208295	6 t
-2.019238	6 u
-2.208295	6 v
-1.970934	6 z
-2.208295	6 č
-2.157104	7 %
-1.472857	7 (
-1.717771	7 )
-1.692217	7 ,
-2.194893	7 -
-1.385027	7 .
-1.122342	7 /
-1.512009	7 0
-1.668084	7 1
-1.555044	7 2
-1.573527	7 3
-1.692217	7 4
-1.503891	7 5
-1.528715	7 6
-1.48041	7 7
-1.391187	7 8
-1.656502	7 9
-2.194893	7 :
-2.060194	7 ;
-1.555044	7 </s>
-1.893863	7 [
-1.773887	7 ]
-2.157104	7 a
-2.194893	7 b
-1.935255	7 d
-2.157104	7 g
-1.789127	7 i
-2.194893	7 j
-2.194893	7 k
-2.122342	7 m
-2.122342	7 n
-1.773887	7 o
-2.005836	7 p
-2.194893	7 r
-1.981013	7 s
-2.157104	7 t
-2.005836	7 u
-2.194893	7 v
-1.914066	7 z
-2.194893	7 č
-2.194893	7 —
-1.572427	8 (
-1.642465	8 )
-1.864313	8 ,
-1.33604	8 .
-1.003975	8 /
-1.688222	8 0
-1.481097	8 1
-1.739375	8 2
-1.688222	8 3
-1.739375	8 4
-1.528521	8 5
-1.504162	8 6
-1.424981	8 7
-1.554328	8 8
-1.375293	8 9
-2.098397	8 ;
-1.563283	8 </s>
-1.902102	8 [
-1.813161	8 ]
-2.098397	8 a
-1.989252	8 d
-2.068433	8 g
-1.829551	8 i
-2.203132	8 m
-2.165343	8 n
-1.713046	8 o
-2.068433	8 p
-1.882797	8 s
-2.165343	8 t
-2.014076	8 u
-2.165343	8 v
-1.989252	8 z
-2.203132	8 č
-2.203132	8 –
-2.366847	9 %
-1.745482	9 (
-1.90309	9 )
-1.993267	9 ,
-1.516145	9 .
-1.185524	9 /
-1.382934	9 0
-1.370813	9 1
-1.359022	9 2
-1.374816	9 3
-1.516145	9 4
-1.550907	9 5
-1.378856	9 6
-1.378856	9 7
-1.237978	9 8
-0.8342087	9 9
-2.366847	9 :
-2.20412	9 ;
-1.784991	9 </s>
-2.177791	9 [
-2.065817	9 ]
-2.294297	9 a
-2.262112	9 b
-2.20412	9 d
-2.262112	9 e
-2.329059	9 g
-2.294297	9 h
-1.976876	9 i
-2.366847	9 j
-2.329059	9 k
-2.329059	9 m
-2.329059	9 n
-1.864172	9 o
-2.329059	9 p
-2.366847	9 r
-2.294297	9 s
-2.294297	9 t
-2.065817	9 u
-2.177791	9 z
-2.366847	9 č
-1.689278	: "
-1.789948	: (
-1.947556	: -
-2.005548	: 1
-0.4795784	: </s>
-2.110284	: a
-2.110284	: d
-2.072495	: e
-2.072495	: k
-2.110284	: l
-2.110284	: o
-2.072495	: p
-1.975585	: s
-1.975585	: t
-2.110284	: u
-1.872923	: v
-2.037733	: z
-2.110284	: č
-2.110284	: —
-2.110284	: …
-2.024824	; "
-2.21388	; )
-2.21388	; ,
-2.176091	; .
-2.21388	; ;
-0.4279032	; </s>
-1.875061	; a
-2.109144	; d
-2.21388	; e
-1.808115	; i
-2.21388	; j
-1.032556	; k
-2.21388	; l
-2.109144	; n
-2.024824	; o
-1.933053	; p
-2.21388	; s
-2.079181	; t
-2.21388	; u
-1.893545	; v
-2.109144	; z
-2.109144	; č
-1.6605	<s> "
-0.798106	<s> (
-2.656534	<s> ,
-1.238534	<s> -
-2.618745	<s> .
-1.296526	<s> 1
-1.303475	<s> 2
-1.502027	<s> 3
-1.773647	<s> 4
-1.957564	<s> 5
-2.179413	<s> 6
-2.250768	<s> 7
-2.419173	<s> 8
-2.442654	<s> 9
-2.336199	<s> b
-2.467478	<s> c
-1.676737	<s> d
-2.299986	<s> e
-2.618745	<s> f
-2.551798	<s> h
-2.192776	<s> i
-1.095866	<s> k
-2.618745	<s> l
-2.521835	<s> m
-2.141624	<s> n
-1.129725	<s> o
-1.608021	<s> p
-2.355504	<s> r
-1.449953	<s> s
-1.567593	<s> t
-1.891747	<s> u
-1.773647	<s> v
-1.693605	<s> z
-0.9435781	<s> č
-2.618745	<s> ž
-2.583983	<s> —
-2	[ *
-0.961655	[ 1
-1.109622	[ 2
-1.25062	[ 3
-1.373581	[ 4
-1.50116	[ 5
-1.582464	[ 6
-1.752216	[ 7
-1.791724	[ 8
-1.883494	[ 9
-2.072551	] (
-2.072551	] )
-0.6923394	] ,
-2.072551	] -
-1.460731	] .
-1.557641	] ;
-2.072551	] a
-1.858671	] d
-1.460731	] i
-2.034762	] j
-2.072551	] m
-1.909823	] n
-1.883494	] o
-1.858671	] p
-1.812913	] s
-1.909823	] t
-1.812913	] u
-2.034762	] v
-1.937852	] z
-2.072551	] č
-2.875864	a "
-2.378221	a (
-2.319951	a )
-1.706834	a ,
-3.346036	a -
-2.164465	a .
-3.554312	a /
-3.589074	a 0
-1.906328	a 1
-2.302768	a 2
-2.709214	a 3
-2.960685	a 4
-3.055472	a 5
-3.005498	a 6
-2.842181	a 7
-2.978059	a 8
-2.677029	a 9
-2.754441	a :
-2.531535	a ;
-2.960685	a </s>
-2.862076	a [
-2.236892	a a
-1.679251	a b
-1.804933	a c
-1.204064	a d
-2.302768	a e
-2.619037	a f
-1.834471	a g
-1.566852	a h
-1.714496	a i
-1.240283	a j
-1.349149	a k
-1.162292	a l
-1.536637	a m
-0.8483826	a n
-1.755502	a o
-1.389273	a p
-3.522127	a q
-1.392023	a r
-1.319367	a s
-1.255291	a t
-1.934256	a u
-0.9470221	a v
-3.626863	a y
-1.375556	a z
-3.626863	a ç
-1.639684	a č
-2.238503	a š
-2.24501	a ž
-3.367225	a –
-3.626863	a ‘
-2.835398	b (
-1.66604	b )
-2.123266	b ,
-2.907948	b -
-2.835398	b .
-2.835398	b 1
-2.907948	b 3
-2.87016	b :
-2.87016	b ;
-2.87016	b </s>
-2.907948	b [
-0.9989763	b a
-2.907948	b b
-1.888643	b d
-0.8206189	b e
-2.87016	b g
-2.87016	b h
-0.7958312	b i
-1.606919	b j
-2.56913	b k
-1.169745	b l
-2.193466	b m
-1.215342	b n
-0.9256773	b o
-2.216948	b p
-1.15976	b r
-1.842131	b s
-2.486943	b t
-1.318913	b u
-1.401567	b v
-2.551401	b z
-2.56913	b č
-2.803213	b š
-2.596322	c "
-2.374473	c (
-1.482379	c )
-1.777876	c ,
-2.634111	c -
-2.213105	c .
-2.634111	c /
-2.596322	c 2
-2.634111	c 3
-2.634111	c 9
-2.634111	c :
-2.39675	c ;
-2.56156	c </s>
-2.56156	c [
-0.9512275	c a
-2.228345	c b
-2.596322	c c
-2.445055	c d
-0.5894997	c e
-2.634111	c f
-2.56156	c g
-2.170353	c h
-0.5198637	c i
-2.634111	c j
-2.56156	c k
-2.529375	c l
-2.56156	c m
-1.976533	c n
-1.599956	c o
-1.985307	c p
-2.24414	c r
-2.073443	c s
-2.471383	c t
-1.702376	c u
-2.09572	c v
-2.26053	c z
-2.634111	c é
-2.596322	c č
-2.56156	c ž
-3.047729	d "
-3.024248	d (
-2.368503	d )
-2.840604	d ,
-2.941274	d .
-3.261609	d /
-3.22382	d 0
-2.578726	d 1
-3.189058	d 2
-3.024248	d 3
-3.261609	d 4
-3.22382	d 5
-3.22382	d 6
-3.261609	d 8
-3.098881	d ;
-3.261609	d </s>
-0.9157898	d a
-1.149187	d b
-2.941274	d c
-2.006336	d d
-0.8918871	d e
-3.261609	d f
-2.399912	d g
-2.554814	d h
-0.9899784	d i
-2.077692	d j
-1.952754	d k
-1.463524	d l
-2.457904	d m
-1.060709	d n
-0.8542953	d o
-1.609275	d p
-0.9609739	d r
-1.447482	d s
-2.490088	d t
-1.521965	d u
-1.783174	d v
-3.261609	d w
-1.952754	d z
-3.22382	d á
-3.261609	d é
-3.001971	d č
-3.047729	d š
-3.12691	d ž
-2.866965	e "
-2.341539	e (
-2.860624	e )
-1.5789	e ,
-3.26811	e -
-2.159144	e .
-3.658081	e 0
-2.575622	e 1
-2.526287	e 2
-3.167994	e 3
-3.42072	e 4
-3.319262	e 5
-3.222352	e 6
-2.959111	e 7
-3.046261	e 8
-2.726346	e 9
-2.854375	e :
-2.526287	e ;
-2.695152	e </s>
-2.959111	e [
-2.274592	e a
-1.576275	e b
-2.144379	e c
-0.9924145	e d
-2.553345	e e
-2.745231	e f
-1.265224	e g
-2.037661	e h
-1.720837	e i
-1.417758	e j
-1.394337	e k
-1.362014	e l
-1.243867	e m
-0.8212391	e n
-1.76548	e o
-1.382246	e p
-1.305197	e r
-1.23993	e s
-1.285002	e t
-1.867604	e u
-1.121178	e v
-3.658081	e w
-3.523382	e x
-1.423932	e z
-1.743786	e č
-2.469025	e š
-2.171844	e ž
-3.301533	e –
-3.620292	e ‘
-2.187521	f (
-1.547672	f )
-2.187521	f .
-2.149732	f 1
-1.458061	f a
-2.187521	f c
-2.149732	f d
-1.3151	f e
-2.187521	f g
-0.6774634	f i
-1.81394	f l
-1.61613	f n
-0.9712349	f o
-1.723763	f r
-1.751792	f s
-1.723763	f t
-1.79755	f u
-2.187521	f z
-2.187521	f ü
-2.714162	g "
-2.848861	g (
-2.427855	g )
-2.288193	g ,
-2.634981	g .
-2.848861	g /
-2.686133	g ;
-2.811072	g </s>
-2.811072	g [
-0.5033978	g a
-2.811072	g b
-2.77631	g c
-2.634981	g d
-1.231288	g e
-2.848861	g f
-2.811072	g g
-1.076006	g i
-2.237041	g k
-1.150681	g l
-2.714162	g m
-2.134378	g n
-0.6717178	g o
-2.256785	g p
-1.618412	g r
-1.095765	g s
-2.385103	g t
-1.719992	g u
-2.47528	g v
-2.568034	g z
-2.848861	g é
-2.848861	g ž
-2.726727	h "
-2.575459	h (
-2.300758	h )
-1.43116	h ,
-2.691965	h -
-1.999728	h .
-2.726727	h /
-2.463486	h 1
-2.527155	h 2
-2.691965	h 3
-2.629817	h 7
-2.691965	h 8
-2.764516	h 9
-2.629817	h :
-2.214844	h ;
-2.659781	h </s>
-2.390935	h [
-1.618388	h a
-2.249606	h b
-2.17244	h c
-1.296706	h d
-2.006568	h e
-2.35875	h f
-2.26184	h g
-2.550636	h h
-1.220448	h i
-1.819137	h j
-1.026312	h k
-1.832781	h l
-1.734026	h m
-1.385953	h n
-1.024871	h o
-1.001769	h p
-1.498412	h r
-1.189958	h s
-1.174465	h t
-1.607251	h u
-1.389268	h v
-2.764516	h w
-2.764516	h x
-2.764516	h y
-1.475495	h z
-2.764516	h ä
-1.819137	h č
-2.407969	h š
-2.035056	h ž
-2.927647	i "
-2.792392	i (
-2.652424	i )
-1.54883	i ,
-3.529707	i -
-2.071941	i .
-3.564469	i 0
-3.030866	i 1
-3.181252	i 2
-3.388377	i 3
-3.497522	i 4
-3.43953	i 5
-3.321431	i 6
-3.212286	i 7
-3.301227	i 8
-3.125136	i 9
-2.550228	i :
-2.436824	i ;
-2.679862	i </s>
-3.010182	i [
-2.15089	i a
-2.165084	i b
-1.488314	i c
-1.549878	i d
-2.309196	i e
-2.303206	i f
-2.24571	i g
-1.103696	i h
-1.548132	i i
-1.123429	i j
-1.526047	i k
-1.253068	i l
-1.379541	i m
-0.9332788	i n
-1.646701	i o
-1.454722	i p
-3.564469	i q
-1.443347	i r
-1.105831	i s
-1.25025	i t
-1.990438	i u
-1.269268	i v
-3.497522	i x
-1.047383	i z
-3.602257	i é
-3.602257	i ó
-1.660927	i č
-2.057063	i š
-2.395677	i ž
-3.529707	i –
-3.602257	i ‚
-3.497522	i ≥
-3.219432	j "
-2.918402	j (
-3.019859	j )
-2.168279	j ,
-2.707548	j .
-2.95619	j 1
-3.152485	j 2
-3.25722	j 4
-3.04334	j 5
-3.25722	j 7
-3.25722	j 8
-3.219432	j 9
-3.094493	j :
-2.918402	j ;
-3.094493	j </s>
-3.094493	j [
-0.6749502	j a
-2.58261	j b
-2.608417	j c
-2.334825	j d
-0.4727327	j e
-3.219432	j f
-3.152485	j g
-2.900673	j h
-1.067653	j i
-2.95619	j j
-2.379535	j k
-3.122522	j l
-1.867249	j m
-1.601384	j n
-0.8680542	j o
-2.152485	j p
-2.936885	j r
-1.635855	j s
-2.685829	j t
-1.136646	j u
-2.33013	j v
-2.417799	j z
-2.807251	j č
-1.880312	j š
-3.25722	j –
-2.9859	k "
-2.940143	k (
-2.9859	k )
-2.360359	k ,
-2.697105	k .
-3.19978	k 0
-2.879445	k 1
-3.19978	k 2
-3.095045	k 3
-3.19978	k 4
-3.19978	k 5
-3.19978	k 6
-3.161992	k 8
-2.843233	k :
-2.9859	k ;
-3.19978	k </s>
-3.19978	k [
-0.9258323	k a
-2.962419	k b
-2.258902	k c
-2.37785	k d
-1.007923	k e
-3.19978	k f
-2.879445	k g
-3.161992	k h
-0.8042154	k i
-2.343546	k j
-2.736023	k k
-1.101609	k l
-2.133963	k m
-2.037053	k n
-0.6218707	k o
-2.327359	k p
-1.338083	k r
-2.028985	k s
-1.19978	k t
-1.094115	k u
-1.955616	k v
-3.161992	k x
-2.428259	k z
-2.962419	k č
-2.232573	k š
-3.161992	k ž
-3.19978	k –
-3.223042	l "
-3.223042	l %
-3.126131	l (
-3.156095	l )
-2.302223	l ,
-3.188279	l -
-2.940495	l .
-3.26083	l 2
-3.223042	l 3
-3.156095	l :
-2.980003	l ;
-3.223042	l </s>
-3.071774	l [
-0.6387102	l a
-3.001193	l b
-2.098103	l c
-2.554035	l d
-0.7711271	l e
-3.04695	l f
-2.711158	l g
-3.26083	l h
-0.8152258	l i
-0.897218	l j
-2.076913	l k
-2.9598	l l
-2.980003	l m
-1.265195	l n
-0.7859518	l o
-2.476148	l p
-3.156095	l q
-3.188279	l r
-2.168684	l s
-2.427161	l t
-1.832401	l u
-2.639465	l v
-2.4389	l z
-3.098103	l č
-3.188279	l š
-2.734021	l ž
-3.223042	l ’
-2.863769	m "
-2.725466	m (
-2.766859	m )
-1.613044	m ,
-3.026496	m -
-2.261709	m .
-2.988708	m /
-2.099406	m 1
-2.43442	m 2
-2.605491	m 3
-2.812616	m 4
-2.789135	m 5
-2.669949	m 6
-2.812616	m 7
-2.706161	m 8
-2.953945	m 9
-2.312014	m :
-2.476824	m ;
-2.921761	m </s>
-2.953945	m [
-1.007191	m a
-1.474603	m b
-2.789135	m c
-2.063567	m d
-0.5690271	m e
-2.953945	m f
-2.74567	m g
-2.921761	m h
-0.7782999	m i
-2.455105	m j
-2.148811	m k
-1.664768	m l
-2.43442	m m
-1.587882	m n
-0.9321203	m o
-1.557344	m p
-2.085618	m r
-1.657956	m s
-2.085618	m t
-1.533863	m u
-1.822376	m v
-2.988708	m y
-1.988708	m z
-2.181398	m č
-2.83744	m š
-2.812616	m ž
-2.988708	m –
-3.192415	n "
-2.695989	n (
-3.256084	n )
-3.455657	n +
-2.414264	n ,
-3.420895	n -
-3.003359	n .
-2.626353	n /
-3.192415	n 0
-2.158261	n 1
-2.212619	n 2
-2.47414	n 3
-2.595319	n 4
-2.77141	n 5
-2.749508	n 6
-2.77141	n 7
-2.794475	n 8
-2.778963	n 9
-3.119865	n :
-3.119865	n ;
-2.90137	n </s>
-0.7205905	n a
-2.99077	n b
-2.04488	n c
-1.950507	n d
-0.8663589	n e
-2.2918	n f
-2.401299	n g
-3.043476	n h
-0.7296091	n i
-0.8891211	n j
-1.884531	n k
-2.932778	n l
-2.671515	n m
-2.188485	n n
-0.8395315	n o
-1.85906	n p
-2.493445	n r
-1.625817	n s
-1.77141	n t
-1.785875	n u
-2.079993	n v
-3.420895	n x
-3.493445	n y
-1.993259	n z
-3.493445	n é
-2.007208	n č
-2.728658	n š
-3.043476	n ž
-2.969426	o "
-2.628686	o (
-3.194366	o )
-1.818049	o ,
-2.82861	o -
-2.411075	o .
-3.600131	o 0
-2.815449	o 1
-3.22655	o 2
-2.951328	o 3
-3.465432	o 4
-3.495396	o 5
-3.465432	o 6
-3.411075	o 7
-3.261312	o 8
-3.150162	o 9
-2.51119	o :
-2.738434	o ;
-3.36277	o </s>
-3.340494	o [
-2.365062	o a
-1.281878	o b
-2.36049	o c
-0.9371157	o d
-2.562342	o e
-2.988311	o f
-1.447565	o g
-2.6638	o h
-1.593859	o i
-1.63335	o j
-1.643701	o k
-1.245499	o l
-1.240468	o m
-1.464276	o n
-1.754469	o o
-1.238575	o p
-1.09154	o r
-1.038163	o s
-1.387459	o t
-1.858335	o u
-0.9659286	o v
-3.600131	o y
-1.496949	o z
-1.361173	o č
-1.769367	o š
-1.922192	o ž
-3.562342	o –
-3.52758	o ‘
-3.212236	p "
-3.212236	p (
-2.72215	p )
-2.822265	p ,
-3.212236	p -
-3.02318	p .
-3.212236	p 8
-3.212236	p 9
-3.212236	p :
-3.174448	p ;
-3.174448	p </s>
-1.407292	p a
-3.212236	p b
-2.610176	p c
-2.855689	p d
-1.653746	p e
-3.212236	p g
-3.139685	p h
-1.355452	p i
-3.139685	p j
-1.882561	p k
-1.604294	p l
-3.077538	p m
-1.354356	p n
-0.4651068	p o
-3.077538	p p
-0.4129582	p r
-1.662564	p s
-2.640845	p t
-2.356002	p u
-2.378567	p v
-3.077538	p z
-3.174448	p ê
-3.212236	p č
-2.911206	p š
-3.212236	p ž
-3.174448	p –
-1.908485	q )
-1.835934	q ,
-1.908485	q .
-1.745758	q u
-3.080594	r "
-3.343835	r (
-3.192567	r )
-2.73282	r ,
-3.343835	r -
-2.991653	r .
-3.218896	r 1
-3.218896	r 2
-3.309073	r 3
-3.343835	r 5
-3.343835	r 6
-3.381624	r 7
-3.381624	r 8
-3.381624	r 9
-3.192567	r :
-3.381624	r ;
-3.192567	r </s>
-3.343835	r [
-0.7115466	r a
-2.488518	r b
-2.473626	r c
-2.092602	r d
-0.5415176	r e
-3.218896	r f
-1.556139	r g
-3.167744	r h
-0.9208625	r i
-1.440293	r j
-2.667141	r k
-2.343835	r l
-1.9488	r m
-1.647042	r n
-0.9931027	r o
-2.333111	r p
-2.991653	r r
-1.605451	r s
-2.066991	r t
-1.378869	r u
-2.044618	r v
-3.381624	r w
-2.454533	r z
-3.343835	r å
-2.644865	r č
-2.179978	r š
-1.341309	r ž
-3.381624	r –
-3.004419	s "
-3.116393	s (
-1.687877	s )
-2.264056	s ,
-3.091569	s -
-2.630838	s .
-3.232898	s 1
-3.305449	s 4
-3.305449	s 5
-3.116393	s :
-2.790539	s ;
-2.985114	s </s>
-2.309415	s [
-1.485307	s a
-3.305449	s b
-2.841692	s c
-2.884444	s d
-0.8547801	s e
-3.024622	s f
-3.267661	s g
-2.96663	s h
-1.31503	s i
-2.884444	s j
-0.8048883	s k
-1.484114	s l
-2.006398	s m
-1.625031	s n
-1.25342	s o
-1.133324	s p
-2.045812	s r
-2.065808	s s
-0.5364748	s t
-2.148185	s u
-1.550962	s v
-2.383054	s z
-2.140016	s č
-3.068088	s š
-3.267661	s –
-3.053887	t "
-3.12852	t (
-3.186512	t )
-2.418827	t ,
-3.253459	t -
-1.645111	t .
-3.253459	t 0
-3.102191	t 1
-3.156549	t 2
-3.218697	t 3
-3.253459	t 5
-3.253459	t 6
-3.186512	t :
-2.901277	t ;
-3.186512	t </s>
-3.12852	t [
-0.8802406	t a
-2.814126	t b
-3.12852	t c
-2.513097	t d
-0.7192215	t e
-3.186512	t f
-3.12852	t g
-3.03161	t h
-0.6429765	t i
-1.779972	t j
-1.855519	t k
-2.418827	t l
-2.62507	t m
-1.469913	t n
-0.9466769	t o
-2.32404	t p
-0.9835572	t r
-2.171273	t s
-2.689188	t t
-1.518393	t u
-1.33351	t v
-3.291248	t w
-3.291248	t y
-2.403221	t z
-3.291248	t å
-3.253459	t è
-3.291248	t é
-3.253459	t č
-3.291248	t ĺ
-3.253459	t š
-3.102191	t ž
-2.526044	u "
-2.791358	u (
-2.990931	u )
-1.606219	u ,
-2.048923	u .
-1.962902	u 1
-2.306684	u 2
-2.50191	u 3
-2.727689	u 4
-2.791358	u 5
-2.708384	u 6
-2.769082	u 7
-2.894021	u 8
-2.791358	u 9
-2.865992	u :
-2.398014	u ;
-2.923984	u </s>
-2.791358	u [
-1.865992	u a
-2.115869	u b
-2.096984	u c
-1.433624	u d
-2.11107	u e
-2.526044	u f
-1.375507	u g
-2.479047	u h
-1.882591	u i
-1.336915	u j
-1.409246	u k
-1.7065	u l
-1.434628	u m
-1.409246	u n
-1.97669	u o
-0.6897196	u p
-0.9629018	u r
-1.028324	u s
-1.6972	u t
-2.101629	u u
-1.546365	u v
-1.548974	u z
-1.491473	u č
-2.270771	u š
-1.529782	u ž
-2.990931	u –
-3.139249	v "
-2.971758	v (
-3.00797	v )
-1.701312	v ,
-2.269328	v .
-3.255755	v /
-2.82563	v 1
-2.864548	v 2
-3.047479	v 3
-3.139249	v 4
-3.165578	v 5
-3.193607	v 6
-3.193607	v 7
-3.090945	v 8
-3.139249	v 9
-3.139249	v :
-2.563518	v ;
-2.851184	v </s>
-2.892577	v [
-0.8242673	v a
-2.756914	v b
-2.259109	v c
-1.954725	v d
-0.7222174	v e
-2.778634	v f
-2.637304	v g
-3.00797	v h
-0.8637346	v i
-2.187855	v j
-1.512366	v k
-1.536551	v l
-2.420308	v m
-1.241299	v n
-0.9766497	v o
-1.517218	v p
-1.451668	v r
-1.165578	v s
-1.941563	v t
-2.141811	v u
-1.944816	v v
-1.594452	v z
-1.881147	v č
-2.82563	v š
-2.778634	v ž
-3.290517	v –
-1.907509	w )
-1.802774	w i
-1.907509	w p
-1.907509	w t
-1.907509	w y
-1.907509	w ä
-1.807148	x ,
-1.911884	x .
-1.911884	x 1
-1.911884	x a
-1.911884	x d
-1.911884	x e
-1.722827	x i
-1.911884	x k
-1.911884	x o
-1.870209	y a
-1.870209	y l
-1.870209	y m
-1.870209	y p
-1.907997	y s
-1.907997	y z
-2.686206	z "
-2.941478	z (
-3.076177	z )
-2.702596	z ,
-2.862297	z .
-3.038388	z 1
-3.038388	z 2
-2.755842	z :
-3.076177	z ;
-3.076177	z [
-0.4893851	z a
-1.944383	z b
-3.003626	z c
-1.121058	z d
-1.528738	z e
-2.91345	z f
-2.198492	z g
-2.537786	z h
-1.389216	z i
-2.304656	z j
-1.905382	z k
-1.558861	z l
-1.679819	z m
-0.9814835	z n
-1.349672	z o
-1.449184	z p
-1.737358	z r
-2.401566	z s
-1.924445	z t
-1.563686	z u
-0.9628413	z v
-2.113248	z z
-1.686206	z č
-2.61242	z š
-2.655172	z ž
-3.076177	z ‚
-1.904076	á s
-1.904076	á v
-1.903583	ã o
-1.904076	ä d
-1.904076	ä h
-1.866779	å l
-1.904568	å r
-1.903583	ç ã
-1.866287	è r
-1.868742	é a
-1.906531	é c
-1.906531	é n
-1.906531	é p
-1.906531	é r
-1.906531	é t
-1.866287	ê c
-1.903583	ó n
-1.903583	ü r
-2.894316	č "
-2.430559	č ,
-2.856528	č .
-2.789581	č 1
-2.856528	č 2
-2.894316	č 3
-2.894316	č 5
-2.894316	č :
-2.856528	č ;
-2.894316	č </s>
-2.894316	č [
-1.211433	č a
-1.401683	č b
-2.759618	č d
-0.7974061	č e
-2.856528	č f
-2.789581	č g
-0.7983546	č i
-1.650151	č j
-1.78342	č k
-0.525269	č l
-2.789581	č m
-0.9956906	č n
-2.593286	č o
-2.344644	č p
-2.016631	č r
-2.520736	č s
-2.731589	č t
-1.587404	č u
-2.70526	č v
-2.520736	č z
-2.894316	č š
-1.903583	ĺ e
-1.148078	š a
-1.278754	š e
-1.245415	š i
-1.836908	š j
-1.096545	š k
-1.862715	š l
-1.030467	š n
-2.406783	š o
-1.87167	š p
-0.5468735	š t
-2.406783	š u
-2.297639	š v
-1.010086	š č
-2.546206	ž (
-2.546206	ž )
-2.332326	ž ,
-2.546206	ž .
-2.546206	ž </s>
-0.5197842	ž a
-1.189659	ž b
-2.473655	ž c
-2.508417	ž d
-0.8363196	ž e
-2.546206	ž h
-0.7582949	ž i
-1.847236	ž j
-2.207387	ž k
-2.069085	ž l
-2.546206	ž m
-1.235416	ž n
-2.207387	ž o
-2.546206	ž p
-2.473655	ž r
-2.508417	ž s
-2.140441	ž u
-2.207387	ž v
-2.473655	ž z
-1.903583	ά δ
-1.903583	α ν
-1.903583	γ α
-1.904568	δ η
-1.904568	δ ο
-1.904568	δ ρ
-1.904076	ε )
-1.904076	ε λ
-1.903583	η ρ
-1.904076	ι δ
-1.904076	ι σ
-1.904076	λ ά
-1.904076	λ λ
-1.904076	μ ω
-1.904076	μ ό
-1.904076	ν ε
-1.904076	ν ι
-1.90506	ο δ
-1.90506	ο ρ
-1.90506	ο ς
-1.90506	ο σ
-1.904568	ρ γ
-1.904568	ρ ο
-1.904568	ρ ό
-1.904076	ς a
-1.904076	ς σ
-1.904568	σ ε
-1.904568	σ ι
-1.904568	σ μ
-1.903583	ω ν
-1.904076	ό μ
-1.904076	ό ς
-1.928489	– 2
-1.336413	– </s>
-1.855938	– c
-1.855938	– d
-1.855938	– i
-1.928489	– j
-1.928489	– k
-1.928489	– m
-1.928489	– o
-1.855938	– p
-1.928489	– s
-1.928489	– z
-1.928489	– š
-1.90702	— "
-1.90702	— 1
-1.90702	— a
-1.90702	— b
-1.90702	— c
-1.90702	— o
-1.90702	— p
-1.90702	— š
-1.906041	‘ a
-1.906041	‘ p
-1.801306	‘ v
-1.904076	’ a
-1.904076	’ é
-1.868253	‚ a
-1.906041	‚ h
-1.906041	‚ o
-1.868253	‚ s
-1.903583	… </s>
-1.90506	≥ 0
-1.90506	≥ 3
-1.867271	≥ 5

\end\
