
\data\
ngram 1=82
ngram 2=1793

\1-grams:
-4.715488	!	-0.002789203
-3.057043	"	0.540622
-3.807491	%	0.479747
-4.6777	&	-0.001145935
-4.526432	'	0.06161049
-2.625262	(	0.6106384
-2.478814	)	0.7303534
-4.6777	*	-0.005021624
-4.6777	+	-0.009217371
-2.255274	,	0.605252
-2.914272	-	0.9756635
-2.108131	.	0.8108827
-2.566269	/	-0.2519518
-2.65651	0	0.1537381
-2.288977	1	0.4682418
-2.405858	2	-0.133822
-2.638947	3	0.06427681
-2.784215	4	0.8232942
-2.851625	5	0.695537
-2.786999	6	0.2293455
-2.818862	7	0.09195457
-2.79546	8	0.01846323
-2.521353	9	-0.2126588
-3.134667	:	0.8600236
-3.971551	;	0.3314191
-2.142195	</s>
-99	<s>	0.4377026
-4.610753	=	-0.0159559
-4.610753	>	-0.007523776
-4.58079	[	0.009031552
-4.58079	]	0.04703994
-4.414458	`	0.1228232
-1.065349	a	0.6990498
-1.971266	b	-0.3364361
-2.075549	c	0.06250716
-1.342142	d	-0.02330326
-0.9859848	e	-0.2482228
-1.628352	f	-0.4780916
-1.49638	g	0.1415132
-1.914521	h	1.327092
-1.228466	i	-0.00873409
-2.350852	j	-0.1507677
-1.512827	k	-0.06065752
-1.259233	l	0.4135656
-1.437921	m	0.2180872
-1.1018	n	0.5766054
-1.436963	o	-0.3273744
-1.798508	p	0.3103531
-4.642938	q	0.02099795
-1.104838	r	0.5234945
-1.217015	s	-0.2103048
-1.104644	t	0.9122812
-1.870221	u	-0.0901287
-1.664406	v	0.5209728
-4.341908	w	0.1518508
-3.056177	x	0.1630832
-2.392893	y	0.1684415
-4.040878	z	0.110454
-4.715488	²	-0.00253186
-4.715488	¸	-0.005921745
-4.715488	¼	-0.005920984
-4.715488	à	-0.003990418
-4.715488	á	-0.005921745
-4.58079	â	-0.007538231
-4.715488	ã	-0.005922505
-1.743159	ä	-0.8437439
-1.99744	å	0.6601381
-4.6777	ç	0.004257803
-4.610753	è	0.03286137
-3.365946	é	0.1927251
-4.6777	ê	-0.002801106
-4.6777	ë	-0.01190917
-4.715488	ì	-0.005922505
-4.6777	í	-0.01173353
-4.642938	ï	-0.0100585
-4.715488	ð	-0.005920224
-4.642938	ñ	-0.01796705
-4.6777	ò	0.0271509
-4.610753	ó	0.01664037
-1.757925	ö	-0.6054069
-4.715488	ù	-0.005921745
-4.610753	ü	0.02001425

\2-grams:
-1.867628	! </s>
-2.035096	" (
-1.968149	" )
-1.734066	" ,
-1.968149	" -
-1.336126	" .
-1.716337	" 1
-1.813247	" 2
-1.792058	" 3
-2.072885	" 4
-2.035096	" 5
-2.000334	" 6
-2.072885	" 7
-2.072885	" 8
-2.035096	" 9
-2.072885	" :
-1.080854	" </s>
-1.358402	" a
-1.792058	" b
-2.072885	" c
-1.716337	" d
-1.480809	" e
-1.667119	" f
-2.000334	" g
-1.938186	" h
-1.534494	" i
-2.072885	" j
-1.771855	" k
-1.938186	" l
-1.752549	" m
-2.000334	" n
-1.771855	" o
-1.910157	" p
-1.595763	" s
-1.771855	" t
-1.792058	" u
-1.910157	" v
-2.072885	" w
-2.035096	" ä
-2.072885	" å
-2.000334	" ö
-1.587174	% ,
-1.626683	% .
-1.346842	% a
-1.834958	% e
-1.802774	% f
-1.834958	% i
-1.907509	% l
-1.907509	% m
-1.86972	% n
-1.907509	% o
-1.86972	% p
-1.907509	% r
-1.834958	% s
-1.907509	% t
-1.907509	% u
-1.86972	% ä
-1.830375	& h
-1.798279	' a
-1.870829	' b
-1.870829	' i
-1.870829	' o
-1.870829	' é
-2.291853	( "
-2.291853	( (
-1.600852	( )
-2.254065	( *
-2.291853	( 0
-1.000807	( 1
-1.145725	( 2
-1.34202	( 3
-1.469923	( 4
-1.547916	( 5
-1.60897	( 6
-1.765044	( 7
-1.765044	( 8
-1.709996	( 9
-2.157154	( a
-2.054492	( b
-1.918272	( c
-2.219302	( d
-0.6742809	( e
-1.935306	( f
-2.254065	( g
-2.187118	( h
-1.971518	( i
-2.291853	( j
-2.254065	( k
-2.291853	( l
-2.102797	( m
-1.856124	( n
-2.219302	( o
-2.187118	( p
-2.219302	( r
-1.870848	( s
-1.776943	( t
-2.254065	( u
-2.254065	( v
-2.254065	( w
-2.291853	( y
-2.219302	( z
-2.219302	( å
-2.291853	( ï
-2.254065	( ö
-2.25479	) "
-1.939519	) (
-0.9189976	) ,
-2.389488	) -
-1.42656	) .
-2.175608	) 1
-2.3517	) 2
-2.389488	) 4
-2.3517	) :
-1.706605	) </s>
-1.496382	) a
-1.682693	) b
-1.355334	) d
-1.496382	) e
-1.397457	) f
-1.899402	) g
-1.807632	) h
-1.418044	) i
-2.389488	) j
-1.787428	) k
-2.284753	) l
-1.768123	) m
-0.7587831	) n
-1.54439	) o
-1.899402	) p
-2.069153	) r
-1.491362	) s
-1.807632	) t
-1.731911	) u
-1.899402	) v
-2.389488	) w
-2.3517	) y
-2.389488	) z
-2.389488	) â
-2.032941	) ä
-2.284753	) å
-2.175608	) ö
-1.830375	* )
-1.868163	+ 2
-1.868163	+ 3
-2.298198	, "
-2.4531	, (
-2.557835	, -
-2.298198	, 0
-2.298198	, 1
-2.094078	, 2
-2.298198	, 3
-2.343955	, 4
-2.298198	, 5
-2.256805	, 6
-2.423137	, 7
-2.219017	, 8
-2.256805	, 9
-0.971862	, </s>
-1.546149	, a
-1.565804	, b
-2.298198	, c
-1.578039	, d
-1.341549	, e
-1.306972	, f
-1.975979	, g
-2.080714	, h
-1.247045	, i
-2.343955	, j
-1.68015	, k
-1.883224	, l
-1.450009	, m
-1.891658	, n
-1.065202	, o
-1.891658	, p
-2.042925	, r
-0.7790264	, s
-1.701601	, t
-1.594906	, u
-1.594906	, v
-2.485285	, x
-2.557835	, z
-1.8358	, ä
-2.080714	, å
-2.15207	, ö
-2.028804	- "
-1.813204	- ,
-2.133539	- 0
-1.852712	- 1
-2.028804	- 2
-1.99884	- 3
-2.028804	- 4
-2.060988	- 5
-2.060988	- 6
-2.028804	- 7
-2.09575	- 8
-2.060988	- 9
-1.512174	- a
-1.813204	- b
-2.028804	- c
-1.450656	- d
-1.355388	- e
-1.442538	- f
-1.970812	- g
-1.919659	- h
-1.521719	- i
-2.09575	- j
-1.656418	- k
-1.852712	- l
-1.467361	- m
-1.541463	- n
-1.085027	- o
-1.512174	- p
-1.595148	- r
-1.467361	- s
-1.743568	- t
-1.896178	- u
-1.727774	- v
-1.944483	- ä
-2.028804	- å
-2.133539	- ö
-2.679097	. !
-1.641309	. "
-2.51637	. (
-2.641309	. )
-2.606547	. ,
-2.641309	. .
-2.606547	. 0
-1.439457	. 1
-1.432688	. 2
-1.822863	. 3
-1.921149	. 4
-2.176422	. 5
-2.32255	. 6
-2.574362	. 7
-2.441736	. 8
-2.606547	. 9
-0.3820336	. </s>
-2.641309	. `
-1.641309	. a
-1.900946	. b
-2.606547	. c
-1.194151	. d
-1.648608	. e
-1.58377	. f
-2.176422	. g
-2.32255	. h
-1.51637	. i
-1.637705	. k
-2.41946	. l
-1.51637	. m
-1.900946	. n
-1.707653	. o
-2.11843	. p
-2.097241	. r
-1.900946	. s
-2.057732	. t
-2.077037	. u
-1.928098	. v
-2.641309	. y
-2.441736	. ä
-2.41946	. å
-2.679097	. ö
-1.333826	/ 1
-1.310555	/ 2
-1.51392	/ 3
-1.253981	/ 4
-1.565073	/ 5
-1.247401	/ 6
-1.431733	/ 7
-1.333826	/ 8
-1.005765	/ 9
-2.32986	/ a
-2.292071	/ c
-2.32986	/ d
-0.6115848	/ e
-2.292071	/ h
-2.292071	/ i
-2.32986	/ r
-2.292071	/ t
-2.292071	/ u
-2.32986	/ v
-2.272475	0 "
-1.597864	0 %
-1.866709	0 (
-1.822505	0 )
-1.734084	0 ,
-2.272475	0 -
-1.521476	0 .
-1.039709	0 /
-0.7492012	0 0
-1.433054	0 1
-1.350079	0 2
-1.573505	0 3
-1.836746	0 4
-1.952139	0 5
-1.898894	0 6
-1.769799	0 7
-1.851469	0 8
-1.836746	0 9
-1.606297	0 </s>
-1.734084	0 a
-2.167739	0 b
-2.109747	0 c
-1.836746	0 d
-2.058595	0 e
-2.058595	0 f
-2.272475	0 h
-1.782388	0 i
-1.933656	0 j
-2.109747	0 k
-1.971444	0 m
-2.234686	0 n
-1.589591	0 o
-2.234686	0 p
-2.272475	0 r
-1.952139	0 s
-2.109747	0 t
-2.234686	0 u
-2.272475	0 w
-2.167739	0 ä
-2.53113	1 "
-2.493342	1 %
-2.110125	1 (
-1.417187	1 )
-1.780131	1 ,
-2.174583	1 -
-0.9950313	1 .
-1.387832	1 /
-1.347214	1 0
-1.396432	1 1
-1.45858	1 2
-1.472153	1 3
-1.479101	1 4
-1.445418	1 5
-1.599395	1 6
-1.55549	1 7
-1.638025	1 8
-0.8841033	1 9
-2.368403	1 :
-2.45858	1 ;
-1.543139	1 </s>
-2.53113	1 ]
-1.664038	1 a
-1.939055	1 b
-2.174583	1 c
-1.92907	1 d
-2.054009	1 e
-1.900425	1 f
-2.396432	1 g
-2.53113	1 h
-1.60404	1 i
-1.686032	1 j
-2.342074	1 k
-2.493342	1 l
-2.081161	1 m
-2.396432	1 n
-1.543139	1 o
-2.53113	1 p
-2.493342	1 r
-1.746448	1 s
-2.2301	1 t
-2.45858	1 u
-2.426395	1 v
-2.45858	1 ä
-2.404263	2 "
-2.369501	2 %
-2.141022	2 (
-1.322077	2 )
-1.670531	2 ,
-2.252996	2 -
-0.9002458	2 .
-1.204691	2 /
-0.9271421	2 0
-1.663901	2 1
-1.470607	2 2
-1.564367	2 3
-1.496673	2 4
-1.559165	2 5
-1.580355	2 6
-1.767441	2 7
-1.691053	2 8
-1.585818	2 9
-2.442052	2 :
-1.390023	2 </s>
-2.404263	2 ]
-1.735257	2 a
-2.036287	2 b
-2.307353	2 c
-2.161225	2 d
-2.161225	2 e
-1.964931	2 f
-2.404263	2 g
-2.369501	2 h
-1.479123	2 i
-2.161225	2 j
-2.369501	2 k
-2.228172	2 m
-2.307353	2 n
-1.519657	2 o
-1.743082	2 s
-2.228172	2 t
-2.404263	2 u
-2.369501	2 v
-2.252996	2 ä
-2.283301	3 "
-2.178566	3 %
-2.023664	3 (
-1.287267	3 )
-1.733629	3 ,
-2.023664	3 -
-0.9232934	3 .
-1.154432	3 /
-1.438203	3 0
-1.416209	3 1
-1.600418	3 2
-1.74491	3 3
-1.833332	3 4
-1.768391	3 5
-1.473436	3 6
-1.617124	3 7
-1.74491	3 8
-1.681241	3 9
-2.245513	3 :
-1.360906	3 </s>
-1.793215	3 a
-2.069421	3 b
-2.178566	3 c
-2.148603	3 d
-1.982271	3 e
-1.982271	3 f
-2.283301	3 g
-2.283301	3 h
-1.400415	3 i
-2.002475	3 j
-2.283301	3 k
-2.148603	3 m
-2.178566	3 n
-1.498619	3 o
-2.245513	3 p
-1.691225	3 s
-2.120574	3 t
-2.245513	3 u
-2.245513	3 v
-2.283301	3 ä
-2.126356	4 "
-2.198907	4 %
-1.961546	4 (
-1.295817	4 )
-1.63824	4 ,
-2.198907	4 -
-1.022816	4 .
-1.10042	4 /
-1.63824	4 0
-1.606831	4 1
-1.484425	4 2
-1.606831	4 3
-1.84236	4 4
-1.860088	4 5
-1.649235	4 6
-1.860088	4 7
-1.606831	4 8
-1.524296	4 9
-1.401451	4 </s>
-1.777902	4 a
-2.064208	4 b
-2.198907	4 c
-2.064208	4 d
-1.985027	4 e
-2.064208	4 f
-2.198907	4 g
-2.198907	4 h
-1.524296	4 i
-1.91808	4 j
-2.094172	4 k
-2.198907	4 l
-2.064208	4 m
-2.161118	4 n
-1.568202	4 o
-2.161118	4 p
-2.198907	4 r
-1.860088	4 s
-2.009851	4 t
-2.198907	4 u
-2.198907	4 v
-2.161118	4 ä
-1.728083	5 %
-1.790231	5 (
-1.291391	5 )
-1.637003	5 ,
-2.126023	5 -
-1.087933	5 .
-1.218433	5 /
-1.59242	5 0
-1.713843	5 1
-1.61414	5 2
-1.728083	5 3
-1.625421	5 4
-1.882985	5 5
-1.661136	5 6
-1.824993	5 7
-1.673725	5 8
-1.882985	5 9
-2.163812	5 :
-1.497634	5 </s>
-1.790231	5 a
-2.029113	5 b
-2.091261	5 c
-1.824993	5 d
-2.001084	5 e
-1.974755	5 f
-2.126023	5 g
-1.625421	5 i
-1.790231	5 j
-2.029113	5 k
-2.163812	5 l
-1.949932	5 m
-2.001084	5 n
-1.441776	5 o
-2.126023	5 p
-2.163812	5 q
-2.163812	5 r
-1.790231	5 s
-2.091261	5 t
-2.163812	5 v
-2.091261	5 ä
-2.163812	5 å
-2.09267	6 %
-1.916579	6 (
-1.453469	6 )
-1.682496	6 ,
-2.034679	6 -
-1.234477	6 .
-0.9835261	6 /
-1.475371	6 0
-1.776401	6 1
-1.475371	6 2
-1.761677	6 3
-1.670597	6 4
-1.776401	6 5
-1.446407	6 6
-1.539829	6 7
-1.40629	6 8
-1.761677	6 9
-2.09267	6 :
-1.498436	6 </s>
-1.877071	6 a
-2.197406	6 b
-1.937769	6 d
-2.124855	6 e
-1.877071	6 f
-2.159617	6 g
-1.626015	6 i
-1.858587	6 j
-2.159617	6 k
-2.197406	6 l
-2.062707	6 m
-2.159617	6 n
-1.522795	6 o
-1.840859	6 s
-2.197406	6 t
-2.124855	6 u
-2.197406	6 v
-2.062707	6 ä
-2.142754	7 %
-1.774778	7 (
-1.609152	7 )
-1.730574	7 ,
-2.142754	7 -
-1.277453	7 .
-1.107992	7 /
-1.481573	7 0
-1.642152	7 1
-1.531739	7 2
-1.568723	7 3
-1.690457	7 4
-1.473748	7 5
-1.49766	7 6
-1.481573	7 7
-1.376838	7 8
-1.630871	7 9
-2.180543	7 :
-1.549838	7 </s>
-1.774778	7 a
-2.045844	7 b
-2.107992	7 c
-1.899716	7 d
-2.142754	7 e
-1.943182	7 f
-2.075808	7 h
-1.653734	7 i
-1.943182	7 j
-2.180543	7 l
-1.966663	7 m
-2.107992	7 n
-1.559178	7 o
-1.860208	7 s
-2.142754	7 t
-2.142754	7 v
-1.872536	8 (
-1.553023	8 )
-1.872536	8 ,
-2.120321	8 -
-1.294745	8 .
-0.9789916	8 /
-1.654481	8 0
-1.463412	8 1
-1.729114	8 2
-1.677962	8 3
-1.742902	8 4
-1.509988	8 5
-1.486076	8 6
-1.370941	8 7
-1.535294	8 8
-1.365032	8 9
-1.562166	8 </s>
-2.192871	8 ]
-1.742902	8 a
-2.192871	8 b
-1.95551	8 d
-2.192871	8 e
-2.058173	8 f
-1.690196	8 i
-1.891841	8 j
-1.933234	8 m
-2.155083	8 n
-1.518261	8 o
-1.854053	8 s
-2.120321	8 t
-2.088136	8 u
-2.192871	8 v
-2.192871	8 ä
-2.360008	9 %
-2.170952	9 (
-1.778151	9 )
-2.225309	9 ,
-1.482322	9 .
-1.176091	9 /
-1.380211	9 0
-1.367977	9 1
-1.336943	9 2
-1.367977	9 3
-1.509306	9 4
-1.532169	9 5
-1.348322	9 6
-1.329519	9 7
-1.205501	9 8
-0.8320267	9 9
-1.767932	9 </s>
-2.360008	9 ]
-2.039673	9 a
-2.197281	9 b
-2.225309	9 d
-2.146128	9 e
-2.255272	9 f
-2.322219	9 g
-2.322219	9 h
-1.869922	9 i
-2.100371	9 j
-2.170952	9 m
-1.60206	9 o
-2.058978	9 s
-2.322219	9 t
-2.360008	9 u
-2.322219	9 v
-2.360008	9 ä
-1.638846	: "
-2.006822	: -
-2.044611	: .
-1.909912	: 1
-2.044611	: 3
-0.6898044	: </s>
-1.638846	: a
-2.006822	: b
-2.044611	: c
-1.638846	: d
-1.517802	: e
-1.939876	: f
-1.909912	: g
-2.006822	: h
-1.688064	: i
-2.006822	: k
-1.97206	: l
-2.006822	: m
-2.006822	: n
-2.006822	: o
-2.044611	: p
-1.881884	: r
-1.743581	: s
-1.939876	: t
-2.044611	: u
-1.784974	: v
-1.909912	: ä
-2.044611	: å
-1.573275	; </s>
-1.82106	; a
-1.89361	; b
-1.633973	; d
-1.758912	; e
-1.855822	; f
-1.704554	; i
-1.89361	; l
-1.855822	; m
-1.89361	; n
-1.855822	; o
-1.89361	; p
-1.89361	; s
-1.89361	; u
-1.89361	; å
-1.658365	<s> "
-1.273487	<s> (
-1.247744	<s> -
-1.268543	<s> 1
-1.283549	<s> 2
-1.490391	<s> 3
-1.752269	<s> 4
-1.899397	<s> 5
-2.16031	<s> 6
-2.214667	<s> 7
-2.349366	<s> 8
-2.390759	<s> 9
-2.577845	<s> [
-0.8338532	<s> a
-1.482273	<s> b
-1.678951	<s> c
-1.146481	<s> d
-1.43411	<s> e
-1.5395	<s> f
-2.048336	<s> g
-1.616242	<s> h
-1.571215	<s> i
-2.515697	<s> j
-1.666483	<s> k
-2.413035	<s> l
-1.13912	<s> m
-2.089729	<s> n
-1.678951	<s> o
-2.068539	<s> p
-1.943601	<s> r
-1.992818	<s> s
-2.349366	<s> t
-2.186639	<s> u
-2.079005	<s> v
-2.612607	<s> y
-2.46134	<s> ä
-2.612607	<s> å
-2.577845	<s> ö
-1.869232	= 0
-1.869232	= 3
-1.831443	= 5
-1.764496	> =
-1.831976	[ 1
-1.797214	[ d
-1.797214	] </s>
-1.869765	] e
-1.869765	] k
-1.873479	` ,
-1.835691	` :
-1.873479	` a
-1.835691	` e
-1.873479	` f
-1.835691	` i
-1.873479	` o
-1.835691	` p
-3.494424	a "
-3.657151	a '
-3.154476	a (
-2.531227	a )
-2.207182	a ,
-3.318333	a -
-2.215671	a .
-3.619363	a /
-3.584601	a 0
-2.725416	a 1
-3.017303	a 2
-3.318333	a 3
-3.494424	a 4
-3.397514	a 5
-3.419791	a 6
-3.376325	a 7
-3.318333	a 8
-3.419791	a 9
-3.236146	a :
-3.336816	a ;
-3.075295	a </s>
-3.657151	a `
-1.82814	a a
-1.906152	a b
-2.391048	a c
-1.387426	a d
-2.003939	a e
-1.571439	a f
-1.279249	a g
-2.378398	a h
-1.813183	a i
-2.681511	a j
-1.576984	a k
-1.151632	a l
-1.37819	a m
-0.8027902	a n
-1.945728	a o
-1.549633	a p
-0.8556854	a r
-1.09066	a s
-0.9342933	a t
-2.109712	a u
-1.022949	a v
-2.859695	a x
-3.236146	a y
-3.494424	a z
-2.508213	a ä
-2.499887	a å
-3.657151	a ç
-2.966151	a ö
-2.797708	b "
-2.797708	b (
-1.731891	b )
-2.477373	b ,
-2.516881	b -
-2.477373	b .
-2.725157	b 1
-2.797708	b ;
-2.797708	b </s>
-1.336674	b a
-2.320587	b b
-2.797708	b d
-0.3224332	b e
-2.663009	b f
-2.663009	b h
-0.9775664	b i
-1.95261	b j
-2.725157	b k
-1.560347	b l
-2.75992	b m
-1.333951	b o
-1.354801	b r
-2.075673	b s
-2.441161	b t
-1.618993	b u
-2.725157	b v
-1.801674	b y
-1.889711	b ä
-2.295033	b å
-1.327217	b ö
-2.602138	c (
-1.727076	c )
-2.447236	c ,
-2.405843	c -
-2.386538	c .
-2.634322	c 3
-2.706873	c 9
-2.669084	c :
-2.350326	c a
-2.285868	c b
-2.333292	c c
-2.669084	c d
-1.067024	c e
-2.706873	c g
-0.308775	c h
-1.193171	c i
-0.7742147	c k
-2.669084	c l
-2.706873	c m
-2.669084	c n
-2.216787	c o
-2.301108	c p
-2.669084	c r
-2.517817	c s
-2.544146	c t
-2.146206	c u
-2.706873	c v
-2.447236	c y
-2.706873	c ä
-2.706873	c å
-2.706873	c é
-2.871605	d "
-2.996544	d (
-2.621728	d )
-2.58281	d ,
-3.313965	d -
-2.519423	d .
-3.197459	d 1
-3.313965	d 2
-3.386515	d 3
-3.386515	d 5
-3.223788	d :
-3.386515	d ;
-3.085485	d </s>
-1.071882	d a
-1.63974	d b
-3.251817	d c
-1.695514	d d
-0.3325293	d e
-1.863242	d f
-2.058692	d g
-2.251817	d h
-1.168314	d i
-1.881365	d j
-1.974589	d k
-1.343332	d l
-2.129055	d m
-1.313297	d n
-1.800542	d o
-2.338003	d p
-1.369102	d r
-1.603131	d s
-2.011267	d t
-1.578488	d u
-1.895154	d v
-3.348727	d w
-2.672033	d y
-2.024787	d ä
-2.524818	d å
-3.386515	d é
-2.493409	d ö
-3.497991	e "
-3.02087	e (
-3.044351	e )
-2.68684	e ,
-3.095504	e -
-2.458681	e .
-3.735352	e /
-3.735352	e 1
-3.697563	e 2
-3.697563	e 3
-3.735352	e 4
-3.697563	e 5
-2.624456	e :
-3.697563	e ;
-3.232677	e </s>
-1.668518	e a
-2.147335	e b
-2.064095	e c
-1.185569	e d
-1.807329	e e
-1.78111	e f
-1.499135	e g
-1.954577	e h
-2.012569	e i
-3.475715	e j
-1.525837	e k
-1.046609	e l
-1.372082	e m
-0.6994495	e n
-2.324958	e o
-2.118733	e p
-0.7034298	e r
-1.229093	e s
-0.8916664	e t
-1.944875	e u
-2.073453	e v
-3.735352	e w
-2.233919	e x
-3.572625	e y
-3.735352	e z
-2.531232	e ä
-2.471393	e å
-2.873655	e ö
-3.112239	f (
-2.573848	f )
-3.074451	f ,
-3.074451	f -
-3.039689	f .
-3.074451	f 1
-1.021052	f a
-3.112239	f b
-3.112239	f d
-1.665081	f e
-1.546177	f f
-3.112239	f g
-1.277992	f i
-2.463436	f j
-3.112239	f k
-1.9633	f l
-3.039689	f n
-1.342728	f o
-3.112239	f p
-1.156246	f r
-3.007504	f s
-1.117802	f t
-2.204242	f u
-1.88179	f y
-1.839765	f ä
-1.520164	f å
-0.3173712	f ö
-3.112239	f ü
-2.747686	g "
-1.511267	g (
-1.589856	g )
-1.767282	g ,
-2.6881	g -
-1.797722	g .
-3.237772	g /
-3.199984	g 1
-3.237772	g 2
-3.237772	g 3
-2.802044	g :
-3.199984	g ;
-2.392674	g </s>
-3.237772	g [
-3.237772	g `
-0.733116	g a
-2.421832	g b
-3.237772	g c
-2.155313	g d
-0.744758	g e
-1.830459	g f
-1.578461	g g
-1.332222	g h
-1.275274	g i
-2.434067	g j
-2.625952	g k
-1.726497	g l
-2.233842	g m
-1.846196	g n
-1.353337	g o
-2.427907	g p
-1.367475	g r
-1.089955	g s
-1.247353	g t
-2.329775	g u
-2.515737	g v
-2.917437	g y
-3.237772	g à
-1.382088	g ä
-1.775374	g å
-3.199984	g é
-1.764617	g ö
-2.713547	h "
-2.685518	h (
-2.547215	h )
-2.371124	h ,
-2.659189	h -
-2.775694	h .
-2.090297	h /
-2.775694	h 0
-2.21754	h 1
-2.133763	h 2
-2.333335	h 3
-2.52791	h 4
-2.567419	h 5
-2.634365	h 6
-2.509427	h 7
-2.458274	h 8
-2.458274	h 9
-1.844315	h </s>
-0.7339982	h a
-1.935395	h b
-2.44248	h c
-1.529802	h d
-0.706368	h e
-1.617796	h f
-2.111486	h g
-2.014576	h h
-1.661751	h i
-2.266388	h j
-1.775694	h k
-2.12621	h l
-1.634365	h m
-2.309854	h n
-1.505822	h o
-1.836559	h p
-1.82518	h r
-1.383133	h s
-1.852211	h t
-1.582142	h u
-1.876801	h v
-2.848245	h w
-2.810457	h x
-2.333335	h y
-2.848245	h z
-1.182068	h ä
-1.351819	h å
-1.237391	h ö
-3.392458	i "
-3.334466	i (
-2.746195	i )
-2.839616	i ,
-3.237556	i -
-2.790398	i .
-2.30559	i 1
-2.84839	i 2
-3.392458	i 3
-3.392458	i 5
-3.459405	i 8
-3.497194	i 9
-3.497194	i :
-3.259833	i </s>
-1.614307	i a
-1.984703	i b
-2.007107	i c
-1.289633	i d
-1.440635	i e
-1.443766	i f
-1.008643	i g
-2.915337	i h
-2.061465	i i
-3.459405	i j
-1.142736	i k
-0.9796379	i l
-1.953126	i m
-0.6516446	i n
-1.239079	i o
-1.993279	i p
-3.459405	i q
-1.5805	i r
-1.047085	i s
-1.381432	i t
-2.614307	i u
-1.264428	i v
-3.459405	i w
-3.459405	i x
-3.459405	i y
-3.176858	i z
-3.308137	i ä
-3.424643	i å
-3.497194	i é
-3.497194	i ó
-2.822583	i ö
-2.348564	j )
-2.348564	j ,
-2.483263	j -
-2.126716	j 1
-2.378528	j 2
-2.483263	j 3
-2.410712	j :
-0.6409943	j a
-2.483263	j b
-1.817086	j d
-0.8488774	j e
-2.410712	j f
-2.483263	j h
-2.320536	j i
-1.463958	j l
-1.776468	j n
-1.174408	j o
-2.445474	j p
-1.843414	j s
-2.202436	j t
-0.8003799	j u
-2.483263	j v
-1.219304	j ä
-1.471577	j ö
-3.22203	k "
-3.059303	k (
-3.087332	k )
-2.744909	k ,
-3.14948	k -
-2.801025	k .
-3.087332	k :
-3.117295	k </s>
-3.184242	k `
-0.5998163	k a
-2.68364	k b
-3.22203	k c
-2.507548	k d
-0.8728411	k e
-2.334004	k f
-2.600665	k g
-2.772061	k h
-1.646423	k i
-2.984669	k j
-2.744909	k k
-1.52623	k l
-2.786302	k m
-1.261689	k n
-0.8830308	k o
-2.485272	k p
-1.251853	k r
-1.571458	k s
-0.7784118	k t
-1.787752	k u
-1.790667	k v
-1.919031	k y
-1.739677	k ä
-3.032974	k å
-2.152833	k ö
-3.003407	l "
-3.394613	l '
-2.990043	l (
-3.429375	l )
-2.455478	l ,
-3.061399	l -
-2.530833	l .
-3.467164	l 0
-1.793389	l 1
-2.007497	l 2
-2.21409	l 3
-2.429375	l 4
-2.549515	l 5
-2.463234	l 6
-2.549515	l 7
-2.669708	l 8
-2.651224	l 9
-2.676048	l :
-3.429375	l ;
-3.031435	l </s>
-3.467164	l `
-0.8874843	l a
-2.050675	l b
-3.003407	l c
-1.546661	l d
-0.9312947	l e
-1.850545	l f
-2.064512	l g
-2.321036	l h
-1.02057	l i
-1.577608	l j
-1.687043	l k
-0.5801096	l l
-2.095257	l m
-2.047659	l n
-1.82192	l o
-2.43301	l p
-2.381452	l r
-1.296369	l s
-1.555764	l t
-1.601145	l u
-1.923096	l v
-3.429375	l x
-2.326713	l y
-1.42113	l ä
-2.182221	l å
-2.47113	l ö
-3.189189	m "
-3.256136	m &
-3.080045	m (
-3.159226	m )
-2.509243	m ,
-3.056564	m -
-2.564466	m .
-3.256136	m /
-3.104869	m 1
-3.104869	m 2
-3.256136	m 3
-3.256136	m 4
-3.293925	m 5
-3.293925	m 8
-3.159226	m :
-3.256136	m ;
-2.87292	m </s>
-1.006734	m a
-1.705908	m b
-3.256136	m c
-1.580969	m d
-0.6062337	m e
-1.361267	m f
-1.922018	m g
-1.746486	m h
-1.092528	m i
-2.490219	m j
-1.981209	m k
-2.082464	m l
-1.016628	m m
-1.510541	m n
-1.604535	m o
-1.398301	m p
-1.788775	m r
-1.166525	m s
-1.642471	m t
-1.814179	m u
-2.168	m v
-1.814179	m y
-3.293925	m ²
-1.497729	m ä
-1.686957	m å
-2.097271	m ö
-2.856521	n "
-3.58352	n '
-2.70366	n (
-3.082918	n )
-3.58352	n +
-1.992455	n ,
-3.131222	n -
-2.000889	n .
-3.458581	n /
-3.516573	n 0
-2.293485	n 1
-2.48661	n 2
-2.811443	n 3
-3.407429	n 4
-3.300973	n 5
-3.300973	n 6
-3.320278	n 7
-3.383948	n 8
-3.320278	n 9
-3.17134	n :
-3.407429	n ;
-2.914513	n </s>
-3.516573	n >
-3.621309	n [
-3.548758	n `
-0.9056849	n a
-1.962863	n b
-2.594515	n c
-0.8623966	n d
-1.246061	n e
-1.574565	n f
-0.9270225	n g
-1.93516	n h
-0.9968389	n i
-2.938425	n j
-1.737905	n k
-1.628474	n l
-1.878798	n m
-1.476593	n n
-1.433788	n o
-2.136362	n p
-1.80057	n r
-1.02212	n s
-1.17022	n t
-2.072752	n u
-1.840533	n v
-2.594515	n y
-3.432252	n z
-1.904547	n ä
-2.336365	n å
-3.621309	n è
-3.58352	n é
-2.131222	n ö
-3.105791	o "
-3.294847	o (
-3.035209	o )
-3.257058	o ,
-2.580365	o -
-3.13212	o .
-3.294847	o 1
-3.294847	o 2
-3.257058	o :
-2.756456	o a
-2.232436	o b
-0.8692237	o c
-1.281244	o d
-2.503731	o e
-1.896907	o f
-1.890635	o g
-2.956028	o h
-2.873842	o i
-2.993817	o j
-2.057486	o k
-1.401741	o l
-0.4883585	o m
-0.851655	o n
-2.792171	o o
-1.595877	o p
-0.817594	o r
-1.967024	o s
-1.609512	o t
-2.993817	o u
-1.997783	o v
-3.257058	o w
-2.71299	o x
-3.294847	o y
-3.257058	o z
-3.294847	o ä
-3.13212	o å
-2.953628	p "
-2.881077	p (
-2.915839	p )
-2.580047	p ,
-2.848893	p -
-2.652598	p .
-2.953628	p 1
-2.881077	p 4
-2.953628	p 6
-2.953628	p </s>
-1.03455	p a
-2.580047	p b
-2.848893	p c
-2.322923	p d
-0.7960888	p e
-1.767134	p f
-1.562051	p g
-1.953628	p h
-1.782833	p i
-2.953628	p j
-2.438718	p k
-1.28745	p l
-2.476507	p m
-1.537139	p n
-1.265046	p o
-0.8557714	p p
-0.8510695	p r
-1.573417	p s
-2.008249	p t
-1.439926	p u
-2.403956	p v
-2.881077	p y
-2.953628	p ¼
-2.764572	p ä
-0.9950206	p å
-2.915839	p ê
-2.953628	p ö
-1.868698	q s
-1.830909	q u
-3.068652	r "
-2.735437	r (
-3.261777	r )
-1.97667	r ,
-3.228353	r -
-2.073129	r .
-3.580535	r /
-3.380963	r 0
-2.158657	r 1
-2.354365	r 2
-2.705474	r 3
-3.317294	r 4
-3.182595	r 5
-3.404444	r 6
-3.154567	r 7
-3.182595	r 8
-3.337497	r 9
-2.987619	r :
-3.580535	r ;
-2.630333	r </s>
-3.618324	r `
-0.8705591	r a
-1.708865	r b
-3.182595	r c
-1.142389	r d
-0.9465622	r e
-1.418918	r f
-1.900805	r g
-2.00554	r h
-1.072567	r i
-2.151861	r j
-1.593018	r k
-1.852182	r l
-1.694045	r m
-1.331949	r n
-1.144771	r o
-2.041668	r p
-2.03854	r r
-1.125183	r s
-1.153076	r t
-1.603193	r u
-1.795205	r v
-3.618324	r w
-2.529383	r y
-3.545773	r z
-3.580535	r â
-1.512659	r ä
-1.508653	r å
-2.059834	r ö
-3.248745	s "
-3.508383	s '
-3.207353	s (
-2.896563	s )
-2.301802	s ,
-2.581293	s -
-2.118412	s .
-3.087378	s 1
-3.294503	s 2
-3.508383	s 5
-3.169564	s :
-3.435832	s ;
-3.248745	s </s>
-3.508383	s `
-1.117287	s a
-1.999547	s b
-2.757384	s c
-2.066902	s d
-1.123915	s e
-1.546315	s f
-2.324466	s g
-2.470594	s h
-1.107453	s i
-2.370799	s j
-0.8345245	s k
-1.567052	s l
-1.736194	s m
-1.925493	s n
-0.9907072	s o
-1.633848	s p
-2.201471	s r
-1.088427	s s
-0.7825454	s t
-1.897529	s u
-1.907311	s v
-1.832938	s y
-3.470594	s z
-1.476791	s ä
-1.811788	s å
-2.271022	s ö
-3.068842	t "
-3.047123	t (
-3.317484	t )
-2.194524	t ,
-3.182786	t -
-2.122088	t .
-3.580725	t /
-3.580725	t 0
-2.414394	t 1
-2.796584	t 2
-3.091705	t 3
-3.197509	t 4
-3.298179	t 5
-3.483815	t 6
-3.429458	t 7
-3.381153	t 8
-2.978665	t 9
-2.821058	t :
-3.358877	t ;
-2.790675	t </s>
-0.8477289	t a
-1.918755	t b
-3.298179	t c
-1.73305	t d
-0.8436654	t e
-1.556787	t f
-1.742927	t g
-2.292551	t h
-0.7701569	t i
-2.545963	t j
-2.104812	t k
-1.968825	t l
-1.804994	t m
-1.757904	t n
-1.523503	t o
-2.108457	t p
-1.38853	t r
-1.129323	t s
-0.8957306	t t
-1.786005	t u
-1.97596	t v
-3.618514	t w
-3.580725	t x
-1.998094	t y
-3.618514	t z
-3.618514	t â
-1.455515	t ä
-2.335624	t å
-3.545963	t è
-2.286995	t é
-2.083565	t ö
-2.88818	u "
-2.815629	u ,
-2.88818	u -
-2.815629	u .
-2.88818	u :
-1.843212	u a
-2.181384	u b
-1.865114	u c
-1.613602	u d
-1.965784	u e
-1.912539	u f
-2.181384	u g
-2.725452	u h
-2.628542	u i
-1.047617	u k
-1.368471	u l
-1.33518	u m
-0.7812781	u n
-2.783444	u o
-0.8989725	u p
-0.9188483	u r
-1.709464	u s
-0.6718936	u t
-2.783444	u u
-2.137181	u v
-2.783444	u x
-2.88818	u ö
-3.005741	v "
-3.078292	v (
-2.943594	v )
-2.447587	v ,
-3.040504	v -
-2.141961	v .
-3.078292	v 0
-2.943594	v 1
-2.486216	v 2
-3.078292	v 4
-2.588206	v 6
-2.137414	v 7
-2.205871	v 8
-1.923785	v 9
-3.040504	v :
-3.040504	v ;
-2.563382	v </s>
-0.797052	v a
-1.789271	v b
-2.943594	v c
-1.174216	v d
-0.7651921	v e
-1.487227	v f
-1.943593	v g
-2.456927	v h
-0.8831474	v i
-2.614535	v j
-1.834127	v k
-2.102651	v l
-1.82302	v m
-1.840931	v n
-1.840931	v o
-2.005741	v p
-1.713145	v r
-1.013834	v s
-1.726988	v t
-2.090301	v u
-1.937841	v v
-2.642563	v y
-3.078292	v â
-1.150735	v ä
-1.836383	v å
-2.657287	v ö
-1.875587	w )
-1.875587	w -
-1.875587	w a
-1.875587	w e
-1.875587	w g
-1.686531	w i
-1.837799	w t
-1.875587	w y
-1.875587	w ä
-2.000668	x ,
-1.752883	x .
-2.073218	x 1
-1.374248	x a
-2.03543	x b
-1.968483	x c
-1.491362	x e
-2.03543	x f
-1.200797	x i
-1.792392	x k
-1.93852	x l
-1.884162	x m
-2.03543	x n
-1.910491	x o
-0.9443493	x p
-0.9187113	x t
-2.073218	x v
-2.073218	x y
-2.451647	y ,
-1.68686	y a
-2.19201	y b
-1.250002	y c
-1.144735	y d
-2.413858	y e
-1.548557	y f
-1.146687	y g
-2.451647	y h
-2.413858	y i
-2.19201	y k
-1.137014	y l
-1.839827	y m
-0.7787098	y n
-2.214286	y o
-1.501814	y p
-1.314063	y r
-1.013033	y s
-1.06007	y t
-2.451647	y u
-2.451647	y w
-2.451647	y z
-1.889047	z -
-1.889047	z a
-1.889047	z e
-1.889047	z g
-1.784312	z i
-1.32838	z o
-1.889047	z u
-1.816496	z y
-1.867628	² .
-1.867628	¸ ë
-1.867628	¼ ñ
-1.867628	à j
-1.867628	á í
-1.735066	â -
-1.867628	ã á
-2.900016	ä ,
-2.966963	ä .
-3.004751	ä :
-1.919039	ä c
-1.658754	ä d
-2.137659	ä f
-1.382443	ä g
-3.004751	ä h
-1.421862	ä k
-0.9072099	ä l
-0.8611686	ä m
-0.7457658	ä n
-2.842024	ä o
-2.2266	ä p
-0.602568	ä r
-2.220069	ä s
-1.047884	ä t
-1.693961	ä v
-2.290269	ä x
-3.004751	ä ç
-3.004751	ä ï
-3.004751	ä ñ
-2.77465	å "
-2.77465	å (
-2.77465	å )
-2.56077	å ,
-2.77465	å -
-2.236259	å .
-2.736861	å 0
-2.702099	å 1
-2.736861	å 2
-2.736861	å 3
-2.77465	å 4
-2.669914	å 5
-2.736861	å 6
-2.77465	å 8
-2.77465	å :
-2.669914	å </s>
-1.698771	å a
-1.87156	å b
-2.77465	å c
-0.8074422	å d
-1.500072	å e
-1.580514	å f
-1.175561	å g
-2.368884	å h
-2.100039	å i
-2.611922	å j
-2.023651	å k
-1.089315	å l
-1.762964	å m
-0.8279295	å n
-2.100039	å o
-2.100039	å p
-0.9503463	å r
-1.394438	å s
-0.9587098	å t
-2.25974	å u
-1.645781	å v
-2.454314	å ä
-2.418102	å å
-2.56077	å ö
-1.868163	ç o
-1.868163	ç ñ
-1.796681	è r
-1.869232	è v
-1.978139	é (
-1.94035	é ,
-1.94035	é .
-1.905588	é </s>
-1.94035	é a
-1.978139	é b
-1.978139	é c
-1.84344	é e
-1.657804	é f
-0.7272756	é n
-1.978139	é p
-1.94035	é r
-1.677109	é s
-1.94035	é t
-1.978139	é v
-1.978139	é ä
-1.978139	é ó
-1.830375	ê c
-1.868163	ë ë
-1.868163	ë ü
-1.867628	ì ù
-1.868163	í ¸
-1.868163	í é
-1.868698	ï ä
-1.868698	ï ò
-1.868698	ï ó
-1.867628	ð ü
-1.868698	ñ ã
-1.868698	ñ ï
-1.868698	ñ ü
-1.868163	ò a
-1.868163	ò ó
-1.869232	ó n
-1.869232	ó å
-1.869232	ó é
-1.869232	ó ð
-2.802009	ö a
-2.856366	ö c
-1.45727	ö d
-2.710238	ö f
-2.054734	ö g
-2.953276	ö h
-2.991065	ö i
-1.892578	ö j
-1.737991	ö k
-1.241469	ö l
-2.129368	ö m
-2.151644	ö n
-2.953276	ö o
-2.05933	ö p
-0.1598934	ö r
-1.925248	ö s
-1.98324	ö t
-1.195501	ö v
-1.867628	ù í
-1.869232	ü r
-1.869232	ü ä
-1.869232	ü ì
-1.869232	ü ò

\end\
