
\data\
ngram 1=15098

\1-grams:
-2.653528	"
-5.875594	$
-4.139197	'
-6.000533	'a
-6.477654	'affaires
-5.778684	'djamena
-6.477654	'er
-5.574564	'i
-5.273534	'is
-4.416956	'ivoire
-3.261224	's
-6.477654	'état
-2.392756	(
-2.392756	)
-4.504526	*
-6.477654	+
-1.218375	,
-4.645145	-
-6.477654	-managed
-6.477654	-owned
-1.871412	.
-5.523411	...
-2.147849	/
-5.574564	0.001
-6.176624	0.01
-6.477654	0.026
-6.477654	0.05
-5.097443	0.15
-5.574564	0.2
-5.273534	0.20
-5.875594	0.36
-6.477654	0.4
-5.523411	0.5
-4.972504	0.7
-5.875594	0.75
-6.477654	0.969
-6.477654	00
-6.176624	001
-6.477654	0223
-5.875594	03
-5.574564	07
-6.176624	09
-2.806481	1
-6.176624	1,000
-6.477654	1,007,000
-6.477654	1,020,000
-6.477654	1,025
-5.875594	1,025,092
-6.477654	1,032
-6.477654	1,032,000
-6.477654	1,049
-6.477654	1,050,000
-6.477654	1,061,400
-6.477654	1,072,500
-6.477654	1,076,225
-6.477654	1,079,000
-6.477654	1,100
-6.176624	1,114,100
-6.477654	1,117,005
-6.477654	1,119,200
-6.477654	1,133,672,200
-6.477654	1,140,446
-6.477654	1,149,200
-6.477654	1,153.9
-6.477654	1,154,600
-6.477654	1,212,554
-6.477654	1,213,381,487
-6.477654	1,250
-6.477654	1,265,280,800
-6.477654	1,267,844,600
-6.176624	1,275,653,700
-6.477654	1,277,600
-6.176624	1,284,633
-6.477654	1,286,710,550
-6.477654	1,297,600
-6.176624	1,312,589,350
-6.477654	1,316,374
-6.477654	1,370,050
-6.477654	1,412,370
-6.477654	1,413,400
-6.477654	1,421.6
-6.477654	1,438,826
-6.477654	1,444,200
-6.176624	1,458
-6.477654	1,500
-6.477654	1,504,500
-6.477654	1,535,450
-6.477654	1,560,456
-6.477654	1,569,031,566
-6.477654	1,574,900
-6.176624	1,575,700
-6.176624	1,580,430,150
-6.477654	1,597,340
-6.477654	1,606,290,850
-6.477654	1,635,000
-6.477654	1,649,331,800
-6.176624	1,700
-6.477654	1,712,700
-6.477654	1,716.7
-6.477654	1,737,300
-6.477654	1,737,605
-6.477654	1,737,712
-6.477654	1,774,600
-6.477654	1,778,786
-6.477654	1,816,000
-6.477654	1,842,200
-6.477654	1,844,807
-6.477654	1,858,600
-6.000533	1,876.7
-6.477654	1,879,308
-6.477654	1,880,000
-6.477654	1,899
-6.176624	1,899,456,250
-6.477654	1,924,840,250
-6.477654	1,934,999
-6.477654	1,985,625
-6.477654	1,988,700
-6.477654	1,998,234,600
-6.176624	1-b
-6.000533	1.0
-6.477654	1.10
-6.477654	1.12
-6.477654	1.13
-6.176624	1.14
-6.477654	1.15
-5.778684	1.2
-6.477654	1.21
-6.176624	1.26
-6.477654	1.27
-6.477654	1.274
-6.477654	1.29
-6.176624	1.3
-6.477654	1.34
-6.477654	1.4
-5.699502	1.5
-6.176624	1.54
-5.875594	1.7
-6.477654	1.75
-6.477654	1.9
-6.176624	1.b
-3.158965	10
-5.875594	10,000
-6.477654	10,100
-6.176624	10,292,650
-6.477654	10,376,100
-6.477654	10,511,100
-6.176624	10,718,300
-6.477654	10,936,100
-6.477654	10-year
-6.477654	10.1
-6.477654	10.14
-6.176624	10.2
-6.176624	10.3
-6.176624	10.4
-6.176624	10.5
-6.477654	10.6
-6.477654	10.8
-6.477654	10.9
-4.384232	100
-6.176624	100,000
-6.477654	100,980,428
-6.477654	100-series
-6.176624	100.3
-4.456464	101
-4.553374	102
-6.477654	102,192,982
-6.477654	1022
-4.796412	103
-6.477654	103.3
-4.714226	104
-6.477654	104,100
-6.477654	104,461,100
-6.477654	104.4
-6.000533	104.7
-4.495383	105
-6.477654	105,200
-6.477654	105.4
-6.477654	105.5
-5.778684	105.6
-6.477654	1051
-4.664741	106
-6.176624	106,334,600
-6.477654	106,667
-6.477654	1060
-4.513866	107
-5.875594	1073
-4.533171	108
-6.477654	108,262,500
-6.477654	108,487,700
-4.602592	109
-6.477654	109.3
-5.778684	10a
-5.699502	10b
-6.000533	10c
-6.176624	10d
-6.477654	10e
-3.235858	11
-6.477654	11,024,350
-6.477654	11,149,250
-6.477654	11,234,300
-6.477654	11,314,500
-6.477654	11,380,200
-6.477654	11,434,200
-6.477654	11,633,000
-6.477654	11,860,400
-6.477654	11.10
-6.477654	11.16
-6.000533	11.2.4
-6.000533	11.2.5
-6.000533	11.2.6
-6.477654	11.89
-4.626395	110
-6.477654	110,665,500
-6.477654	110.3
-4.626395	111
-6.477654	111.0
-5.699502	1111
-6.477654	1113
-6.477654	1115
-4.814896	112
-6.477654	112.3
-6.477654	1128
-6.000533	1129
-4.753378	113
-6.477654	113,232,600
-6.477654	113.3
-6.477654	1138
-4.753378	114
-6.477654	114.0
-6.477654	114.3
-5.699502	1143
-5.875594	1145
-4.761651	115
-6.176624	115,500
-5.778684	1153
-6.477654	1154
-4.65811	116
-6.176624	1160
-6.477654	1167
-4.778684	117
-6.477654	117,662,100
-6.477654	117.1
-6.477654	1173
-5.875594	1175
-4.778684	118
-4.74526	119
-6.477654	119.9
-6.477654	1193
-6.477654	1194
-5.574564	1196
-5.301563	1197
-6.176624	1199
-6.000533	11a
-6.477654	11a.2
-6.477654	11a.31
-6.477654	11a.43
-5.875594	11b
-6.176624	11c
-6.477654	11d
-6.477654	11th
-3.167598	12
-6.477654	12,132,500
-6.477654	12,191,000
-6.477654	12,661,600
-6.176624	12,785,200
-6.477654	12,800
-6.176624	12,810,200
-6.477654	12,813,400
-6.477654	12,930,700
-6.176624	12.1
-6.176624	12.10
-6.477654	12.11
-6.477654	12.14
-6.477654	12.15
-6.477654	12.21
-6.477654	12.22
-6.176624	12.29
-6.477654	12.3
-6.477654	12.5
-6.176624	12.54
-6.176624	12.7
-6.477654	12.8
-4.473332	120
-6.176624	1203
-6.477654	1205
-6.477654	1206
-6.477654	1207
-4.844185	121
-5.699502	1210
-6.477654	1214
-4.632556	122
-6.477654	122,179,200
-4.626395	123
-6.477654	1234
-6.176624	1239
-4.824441	124
-6.477654	124,268,800
-6.477654	124,750
-6.477654	124,900
-6.477654	1240
-5.699502	1242
-5.030496	1244
-4.706802	125
-5.875594	125,000
-5.875594	1258
-4.824441	126
-5.574564	1265
-5.778684	1266
-5.632556	1267
-6.477654	1269
-4.614331	127
-6.477654	127,300
-6.176624	127,900
-6.477654	127.9
-6.000533	1270
-5.574564	1272
-6.477654	1273
-6.477654	1274
-6.000533	1279
-4.685262	128
-6.477654	128,416,670
-6.176624	128,536,700
-6.477654	128,800
-5.778684	1281
-5.574564	1284
-4.787458	129
-6.176624	1291
-6.477654	1295
-5.477654	1296
-5.778684	1299
-6.176624	12a
-6.176624	12b
-6.176624	12c
-6.176624	12d
-6.176624	12e
-6.000533	12f
-6.477654	12g
-3.323534	13
-6.477654	13,185,850
-6.477654	13,288,950
-6.477654	13,337,250
-6.477654	13,378,650
-6.176624	13,383,200
-6.477654	13,435,164
-6.477654	13,596,491
-6.477654	13,660,500
-6.176624	13,727,500
-6.477654	13.9
-4.814896	130
-6.477654	130,938,600
-6.176624	1301
-5.699502	1302
-5.574564	1304
-6.477654	1306
-6.176624	1308
-6.176624	1309
-4.678313	131
-6.477654	131,996,500
-6.477654	1310
-6.000533	1312
-6.477654	1316
-5.875594	1319
-4.86487	132
-6.477654	132,650
-5.875594	1322
-6.477654	1323
-5.000533	1325
-5.778684	1329
-4.761651	133
-6.477654	133,119,500
-6.477654	133,375,991
-6.477654	133,678,100
-6.000533	1330
-6.477654	1332
-5.875594	1333
-6.176624	1338
-4.770083	134
-6.477654	134,879,200
-5.875594	1341
-5.699502	1345
-6.176624	1349
-4.86487	135
-6.000533	1352
-6.477654	1355
-5.523411	1359
-4.933586	136
-6.477654	136,062,800
-6.000533	1360
-6.477654	1365
-5.875594	1366
-6.477654	1367
-5.523411	1368
-6.477654	1369
-4.95914	137
-6.477654	137,257,440
-6.477654	137,385,100
-6.477654	1370
-5.632556	1371
-6.477654	1372
-4.787458	1373
-6.176624	1376
-5.477654	1377
-5.778684	1378
-5.875594	1379
-6.477654	137th
-4.86487	138
-6.477654	1382
-5.875594	1383
-6.477654	1386
-4.95914	139
-6.477654	139.4
-6.477654	139.7
-6.000533	1390
-6.477654	1391
-6.176624	1392
-5.398473	1397
-6.176624	13a
-6.176624	13b
-6.176624	13c
-6.477654	13d
-6.477654	13e
-6.477654	13f
-3.249767	14
-6.477654	14,100
-6.477654	14,213,700
-6.176624	14,400,050
-6.176624	14,583,900
-6.477654	14,598,640
-6.477654	14,724,100
-6.477654	14,728,900
-6.477654	14,769,600
-6.477654	14,889,500
-6.477654	14,943,699
-6.000533	14.18
-6.000533	14.19
-6.477654	14.26
-6.477654	14.4
-6.176624	14.47
-6.477654	14.5
-4.921351	140
-6.000533	1401
-6.176624	1409
-4.513866	141
-6.477654	141,889,841
-6.000533	1410
-6.477654	1413
-6.477654	1417
-6.176624	1419
-4.714226	142
-5.632556	1429
-4.778684	143
-6.477654	143,140,420
-6.000533	1431
-6.477654	1433
-6.477654	1436
-6.477654	1438
-4.74526	144
-6.477654	144.4
-6.000533	1440
-4.664741	145
-6.477654	1450
-6.477654	1453
-6.477654	1455
-5.632556	1456
-5.875594	1459
-4.513866	146
-6.477654	146,833,694
-5.875594	1460
-6.176624	1465
-4.651579	147
-6.477654	1473
-4.824441	148
-6.477654	148,220,200
-6.176624	1480
-6.176624	1483
-4.796412	149
-6.477654	149,021,150
-5.778684	1493
-5.523411	1495
-6.477654	1497
-6.176624	14a
-6.176624	14b
-3.231894	15
-6.477654	15,000
-6.477654	15,353,900
-6.176624	15,637,800
-6.176624	15,638,200
-6.477654	15,664,375
-6.477654	15,671,000
-6.477654	15,879,900
-6.477654	15,889,150
-6.176624	15.10
-6.477654	15.12
-6.477654	15.14
-6.477654	15.35
-6.477654	15.5
-6.477654	15.7
-4.729466	150
-6.477654	150,000
-5.1989	1502
-5.632556	1503
-6.176624	1509
-4.620321	151
-6.477654	1510
-6.000533	1512
-4.1989	1514
-5.222381	1515
-6.477654	1516
-4.737291	152
-6.477654	152,443,900
-6.477654	152.6
-6.000533	1521
-6.477654	1522
-6.477654	1526
-6.000533	1528
-6.176624	1529
-4.805556	153
-6.477654	153.8
-6.477654	1530
-6.477654	1533
-6.176624	1534
-6.000533	1535
-6.477654	1536
-5.699502	1539
-6.477654	153rd
-4.796412	154
-6.477654	154,400
-5.436261	1540
-4.678313	1541
-6.000533	1542
-6.176624	1543
-6.000533	1544
-6.176624	1545
-5.778684	1547
-4.796412	155
-6.477654	1556
-4.834201	156
-6.477654	1562
-6.477654	1563
-6.176624	1565
-6.000533	1566
-4.706802	157
-6.000533	1570
-4.678313	158
-6.477654	1589
-4.986292	159
-6.477654	159,455,750
-6.477654	1590
-6.477654	1592
-6.176624	1596
-6.000533	1598
-6.477654	15a
-6.477654	15b
-3.289288	16
-6.477654	16,103,750
-6.477654	16,159,096
-6.477654	16,207,492
-6.477654	16,211,300
-6.477654	16,533,333
-6.477654	16,541,039
-6.477654	16,634,763
-6.477654	16.7
-4.558576	160
-6.477654	1608
-5.875594	1609
-4.86487	161
-6.477654	161,936,100
-5.331526	1612
-6.477654	1616
-4.538135	162
-6.477654	1623
-6.000533	1624
-6.176624	1625
-6.477654	1627
-4.875594	163
-6.477654	1631
-6.176624	1634
-6.477654	1635
-4.844185	164
-5.875594	1643
-6.477654	1645
-4.86487	165
-6.477654	1652
-5.632556	1653
-6.477654	1659
-4.972504	166
-6.477654	1662
-6.477654	1664
-4.824441	167
-6.477654	167,800
-6.477654	1674
-6.176624	1675
-4.834201	168
-6.477654	1682
-4.59684	169
-5.875594	169,431,700
-6.477654	1692
-6.477654	1693
-6.477654	16a
-6.477654	16a.1
-6.477654	16a.13
-6.477654	16a.15
-6.477654	16a.17
-6.477654	16a.9
-6.477654	16b
-3.367401	17
-6.477654	17,006,900
-6.477654	17,010,200
-6.477654	17,027,947
-6.477654	17,267,400
-6.477654	17,374,700
-6.477654	17,480,400
-6.477654	17,695,050
-6.477654	17,777,000
-6.477654	17.10
-6.477654	17.12
-6.176624	17.13
-6.477654	17.15
-6.477654	17.17
-6.477654	17.18
-6.477654	17.33
-6.477654	17.37
-6.477654	17.41
-6.477654	17.42
-6.477654	17.50
-6.477654	17.54
-6.477654	17.55
-6.477654	17.59
-6.477654	17.7
-6.477654	17.9
-4.814896	170
-6.477654	170,221,100
-6.000533	1701
-6.477654	1704
-6.477654	1707
-4.886589	171
-6.477654	171,057,107
-6.477654	1710
-6.176624	1715
-4.86487	172
-6.477654	172,417,700
-6.176624	172,480,500
-6.477654	172,851,200
-6.477654	1720
-6.176624	1721
-6.477654	1729
-4.626395	173
-6.477654	173,611,600
-6.477654	173,650,800
-4.933586	174
-6.477654	174,679,200
-6.477654	174,689,650
-6.477654	174,708
-4.753378	175
-6.000533	1754
-4.814896	176
-6.176624	176,268,900
-6.477654	176,866,900
-6.477654	1769
-4.824441	177
-6.477654	177,739,400
-6.477654	177,826,200
-6.477654	1778
-4.89787	178
-6.477654	178,295,585
-4.834201	179
-6.477654	179,097,566
-6.477654	179.4
-6.000533	1798
-6.477654	17b
-3.310632	18
-6.477654	18,022,600
-6.477654	18,335,800
-6.477654	18,372,475
-6.477654	18,803,200
-6.477654	18,806,733
-6.477654	18,890,600
-6.477654	18.2
-6.477654	18.9
-4.714226	180
-6.477654	180,230,584
-4.620321	181
-6.477654	181,300
-6.477654	181,993,500
-4.377283	182
-6.176624	182,444,000
-5.875594	182,600
-6.477654	182,870,700
-4.778684	183
-4.972504	184
-6.477654	184,000
-4.753378	185
-4.770083	186
-6.477654	186.6
-4.814896	187
-6.477654	187,262,900
-5.015256	1874
-4.824441	188
-4.886589	189
-6.477654	1896
-6.477654	1899
-6.477654	18a.10
-6.477654	18a.12
-6.477654	18a.18
-6.477654	18a.25
-3.323534	19
-6.477654	19,062,200
-6.477654	19,097,000
-6.176624	19,200
-6.477654	19,447,016
-6.477654	19,523,800
-6.477654	19,791,400
-6.477654	19,876,500
-6.477654	19,962,000
-6.176624	19.1
-6.176624	19.10
-6.176624	19.11
-6.176624	19.12
-6.176624	19.13
-6.477654	19.14
-6.176624	19.15
-6.176624	19.16
-6.176624	19.17
-6.176624	19.18
-6.477654	19.19
-6.477654	19.2
-6.477654	19.21
-6.477654	19.22
-6.176624	19.3
-6.176624	19.4
-6.477654	19.40
-6.477654	19.48
-6.176624	19.5
-6.176624	19.6
-5.778684	19.7
-6.176624	19.8
-6.000533	19.9
-4.909452	190
-6.477654	190,456
-5.273534	1907
-4.89787	191
-6.176624	191,550,900
-6.176624	1911
-4.844185	192
-6.477654	192,312,400
-6.477654	192,333,400
-5.247205	1925
-6.176624	1926
-4.946175	193
-6.176624	193,245,850
-6.176624	193,337,100
-6.477654	193,800
-6.176624	193,819,705
-5.523411	1930
-4.432331	194
-6.477654	194,261,300
-6.176624	194,823,300
-5.273534	1946
-5.115926	1947
-4.678313	1948
-4.07798	1949
-4.796412	195
-5.331526	1950
-4.770083	1951
-6.477654	1952
-6.477654	1953
-4.986292	1954
-4.645145	1955
-5.523411	1957
-5.36371	1958
-5.778684	1959
-4.814896	196
-6.477654	196,100,900
-6.477654	196,227,505
-6.176624	196,593,590
-4.37385	1960
-4.946175	1961
-6.000533	1962
-4.805556	1963
-5.699502	1965
-5.1989	1966
-3.876681	1967
-4.95914	1968
-4.946175	1969
-4.787458	197
-6.477654	197,127,300
-4.651579	1970
-4.854404	1971
-4.796412	1972
-4.37385	1973
-4.909452	1974
-4.814896	1975
-6.477654	1975-1979
-5.000533	1976
-4.509171	1977
-4.518612	1978
-4.585559	1979
-4.844185	198
-4.290133	1980
-5.523411	1980s
-4.249767	1981
-4.310337	1982
-4.737291	1983
-4.664741	1984
-4.528264	1985
-4.387749	1986
-4.44827	1987
-4.416956	1988
-4.334639	1989
-4.74526	199
-4.194353	1990
-6.477654	1990-2000
-4.685262	1990s
-3.899015	1991
-6.176624	1991-2000
-3.964436	1992
-6.176624	1992-1993
-3.706802	1993
-5.875594	1993-1994
-5.875594	1993-2002
-3.738081	1994
-6.477654	1994-2002
-3.69375	1995
-6.477654	1995-1997
-4.886589	1995-2004
-3.688779	1996
-4.787458	1996-2005
-3.668094	1997
-6.477654	1997-1998
-6.000533	1997-1999
-4.854404	1997-2006
-3.536639	1998
-5.632556	1998-1999
-6.477654	1998-2001
-6.000533	1998-2002
-6.477654	1998-2007
-3.325671	1999
-6.000533	1999-2000
-6.176624	1999-2003
-6.000533	1st
-2.913935	2
-6.477654	2,027,743,750
-6.477654	2,046,840
-6.477654	2,060,629,050
-6.477654	2,085,679,850
-6.477654	2,096,500
-6.477654	2,100
-6.477654	2,116,800
-6.176624	2,160,000
-6.477654	2,172,400
-6.477654	2,177,700
-6.477654	2,192,100
-6.176624	2,200
-6.477654	2,210,000
-6.477654	2,227,000
-6.477654	2,241,667,450
-6.477654	2,274,439,650
-6.477654	2,305,800
-6.477654	2,307,500
-6.477654	2,313,100
-6.477654	2,340,000
-6.477654	2,352,900
-6.477654	2,354,300
-6.477654	2,357,200
-6.176624	2,384,700
-6.477654	2,384.2
-6.176624	2,442
-6.477654	2,486,900
-6.477654	2,515.3
-6.477654	2,533,125,400
-6.477654	2,535,689,200
-6.477654	2,537,000
-6.176624	2,563,800
-6.477654	2,600
-6.477654	2,600,200
-6.176624	2,625,178,700
-6.477654	2,664,500
-6.176624	2,667,000
-6.477654	2,699,267,800
-6.477654	2,735,500
-6.477654	2,751,000
-6.477654	2,764,917
-6.477654	2,773,885
-6.477654	2,773,914
-6.477654	2,783
-6.477654	2,807,300
-6.477654	2,876
-6.477654	2,891,068,700
-6.477654	2,937,000
-6.477654	2,955,600
-6.477654	2.13
-5.875594	2.15
-5.875594	2.17
-5.875594	2.19
-5.699502	2.22
-5.875594	2.24
-6.000533	2.26
-6.477654	2.3
-6.176624	2.31
-5.778684	2.33
-5.875594	2.35
-6.176624	2.39
-5.875594	2.41
-5.778684	2.43
-6.477654	2.45
-6.176624	2.46
-6.477654	2.48
-5.632556	2.5
-6.477654	2.7
-6.176624	2.8
-6.477654	2.9
-6.000533	2.92
-3.17619	20
-6.477654	20,000
-6.477654	20,051,150
-6.477654	20,053,100
-6.477654	20,087,200
-6.477654	20,220,700
-6.477654	20,456,600
-4.580027	200
-5.331526	200,000
-6.477654	200,126,100
-6.477654	200,150,000
-6.477654	200,279,308
-6.176624	200,646,600
-6.176624	200,867,400
-3.096178	2000
-4.678313	2000-2001
-6.477654	2000-2002
-5.875594	2000-2003
-6.477654	2000-2004
-6.176624	2000-2005
-3.116115	2001
-6.000533	2001-2002
-5.523411	2001-2003
-5.875594	2001-2004
-5.699502	2001-2005
-4.328434	2001-2010
-3.146429	2002
-4.168024	2002-2003
-5.875594	2002-2004
-4.796412	2002-2005
-6.000533	2002-2006
-6.176624	2002-2007
-3.152549	2003
-6.000533	2003-2004
-6.000533	2003-2007
-3.219496	2004
-4.131301	2004-2005
-5.778684	2004-2006
-5.778684	2004-2007
-3.199129	2005
-5.778684	2005-2006
-5.875594	2005-2007
-5.574564	2005-2009
-6.477654	2005-2014
-4.921351	2005-2015
-3.394151	2006
-4.187619	2006-2007
-6.000533	2006-2009
-5.699502	2006-2010
-3.682469	2007
-6.000533	2007-2008
-5.778684	2007-2009
-6.477654	2007-2010
-4.135231	2008
-4.46062	2008-2009
-5.699502	2008-2011
-6.477654	2008-2013
-5.875594	2008-2017
-6.477654	2008-2018
-4.796412	2009
-4.796412	201
-6.477654	201,423,900
-6.477654	201,784,900
-6.477654	201.2
-4.405772	2010
-6.000533	2010-2011
-6.477654	2010-2013
-6.477654	2010-2020
-6.477654	2010s
-5.477654	2011
-6.477654	2011-2012
-5.331526	2012
-6.176624	2013
-6.477654	2014
-4.37385	2015
-4.844185	202
-6.477654	202,500
-5.155435	2020
-6.477654	2021
-6.176624	2028
-4.770083	203
-6.477654	203,962,600
-4.921351	204
-6.477654	204,230,264
-4.787458	205
-6.477654	2057
-4.753378	206
-6.477654	206,566,300
-4.761651	207
-6.176624	207,246,100
-6.176624	207,407,400
-4.580027	208
-6.477654	208,479,700
-4.761651	209
-6.176624	20th
-3.3403	21
-6.477654	21,008,100
-6.176624	21,012,700
-6.477654	21,193,700
-6.477654	21,789,400
-6.477654	21,939,900
-6.176624	21,962,900
-6.176624	21.1
-6.477654	21.10
-6.477654	21.12
-6.477654	21.14
-6.477654	21.16
-6.477654	21.17
-6.477654	21.2
-6.477654	21.20
-6.477654	21.22
-6.477654	21.24
-6.477654	21.28
-6.477654	21.30
-6.477654	21.32
-6.477654	21.5
-6.477654	21.6
-6.176624	21.60
-4.44827	210
-4.714226	211
-4.714226	212
-4.580027	213
-6.176624	213,000
-6.477654	213,298,950
-6.477654	213th
-4.620321	214
-6.477654	214,646,100
-4.626395	215
-4.651579	216
-4.770083	217
-4.65811	218
-6.477654	218,216,300
-6.477654	218,242,100
-6.477654	218,725,650
-4.721779	219
-6.477654	21adopted
-3.234368	22
-6.477654	22,220,931
-6.477654	22,242,700
-6.477654	22,329,871
-6.477654	22,383,900
-6.477654	22,405,400
-6.477654	22,450,100
-6.176624	22.1
-6.477654	22.11
-6.477654	22.2
-6.477654	22.27
-6.176624	22.3
-6.477654	22.5
-6.477654	22.7
-6.477654	22.8
-6.477654	22.9
-4.56384	220
-6.477654	220.9
-5.331526	2205
-4.729466	221
-4.523411	222
-6.176624	222,031,700
-4.875594	223
-6.477654	223,169,800
-4.844185	224
-6.000533	224,300
-4.770083	225
-6.477654	225,682,400
-5.574564	2252
-4.796412	226
-4.602592	227
-6.477654	227,521,500
-6.176624	227,600
-6.477654	227,630,600
-4.921351	228
-6.477654	228,552
-5.778684	2286
-4.946175	229
-3.292112	23
-6.477654	23,000,128
-6.477654	23,472,200
-6.477654	23,556,753
-6.477654	23,782,100
-6.477654	23,800
-6.176624	23,827,500
-6.477654	23.11
-6.477654	23.14
-6.477654	23.2
-6.477654	23.3
-6.477654	23.35
-6.477654	23.4
-6.477654	23.7
-4.886589	230
-6.477654	230,616,400
-6.477654	230,900
-4.761651	231
-6.176624	231,506,500
-6.477654	231,612,600
-5.875594	2312
-4.699502	232
-6.477654	232,890,200
-6.176624	2329
-4.56384	233
-6.477654	2331
-4.65811	234
-6.477654	234,100
-6.477654	234,583,330
-5.574564	2341
-4.46062	235
-6.477654	235,324,200
-6.176624	235,955,000
-4.608422	236
-4.56384	237
-6.477654	237,244
-6.000533	2373
-4.886589	238
-6.477654	238,400
-4.875594	239
-6.477654	239.9
-3.508238	24
-6.477654	24,089,777
-6.477654	24,258,500
-6.477654	24,840,100
-6.477654	24.11
-6.477654	24.14
-6.176624	24.15
-6.477654	24.18
-6.477654	24.29
-6.176624	24.3
-6.176624	24.39
-6.477654	24.4
-6.477654	24.5
-6.477654	24.58
-6.477654	24.6
-6.176624	24.8
-4.814896	240
-6.477654	240,323,000
-6.477654	240,912,700
-4.796412	241
-4.380744	242
-6.477654	242,400
-6.477654	242,791,600
-4.74526	243
-4.753378	244
-6.477654	244,800
-5.574564	2443
-4.834201	245
-5.000533	246
-6.477654	246,890,000
-6.000533	2464
-4.805556	247
-6.477654	247,466,600
-4.65811	248
-6.477654	248,140,985
-6.477654	248,926,200
-4.778684	249
-6.477654	249,500
-6.000533	24th
-3.525346	25
-5.875594	25,000
-6.477654	25,395,513
-6.176624	25,668,500
-6.477654	25,820,787
-6.176624	25,878,800
-6.477654	25.1
-6.477654	25.10
-6.477654	25.12
-6.477654	25.14
-6.477654	25.18
-6.477654	25.27
-6.477654	25.3
-6.477654	25.30
-6.176624	25.4
-6.000533	25.5
-6.176624	25.6
-4.761651	250
-6.477654	250,000
-4.699502	251
-6.477654	251,230,584
-4.909452	252
-6.477654	252,602,200
-6.176624	2529
-4.699502	253
-4.89787	254
-6.477654	254,603,800
-6.176624	254,757,400
-6.477654	2545
-4.972504	255
-6.176624	255,909,500
-6.477654	255,949,300
-6.000533	2550
-4.834201	256
-5.155435	257
-6.477654	257,114,600
-6.477654	257,200
-6.176624	257,340,400
-4.875594	258
-5.115926	259
-6.477654	25th
-3.627007	26
-6.477654	26,443,300
-5.875594	26,500
-6.477654	26,732,000
-6.477654	26,748,816
-6.477654	26,763,400
-6.477654	26,954,800
-5.000533	260
-6.000533	2602
-4.95914	261
-4.986292	262
-6.176624	262,653,700
-5.574564	2621
-5.176624	2625
-5.247205	263
-5.331526	264
-4.824441	265
-6.176624	265,300
-6.000533	2656
-4.770083	266
-6.477654	266,644
-4.89787	267
-6.477654	267,356,200
-5.04629	268
-4.844185	269
-6.477654	269,500
-6.477654	269,758,400
-3.665409	27
-6.477654	27,080,680
-6.477654	27,200
-6.477654	27,476,200
-6.477654	27,708,400
-6.176624	27.2
-6.477654	27.49
-6.176624	27.5
-4.49993	270
-5.301563	271
-5.135231	272
-6.000533	2728
-5.222381	273
-6.176624	273,025,800
-6.176624	273,375,000
-5.135231	274
-6.176624	2749
-4.95914	275
-5.079714	276
-6.477654	276,474,100
-5.436261	277
-6.176624	277,127,700
-5.222381	278
-6.477654	278,559,400
-5.135231	279
-6.477654	279,501,300
-6.477654	279,512,400
-6.176624	2791
-6.176624	27a
-6.477654	27c
-6.477654	27c.1
-6.477654	27c.12
-6.477654	27c.16
-6.477654	27c.20
-6.477654	27c.21
-6.477654	27c.26
-6.477654	27c.4
-6.477654	27c.5
-6.477654	27c.5.
-6.477654	27c.6
-6.477654	27d
-6.477654	27g
-3.637548	28
-6.477654	28,061,500
-6.477654	28,099,800
-6.176624	28,452,600
-6.477654	28,511,400
-6.477654	28,624,323
-6.477654	28,857,800
-6.477654	28,946,129
-6.477654	28-30
-6.477654	28.10
-6.477654	28.11
-6.477654	28.18
-6.176624	28.22
-6.477654	28.24
-6.477654	28.29
-6.477654	28.3
-6.477654	28.30
-6.477654	28.31
-6.477654	28.33
-6.477654	28.4
-6.477654	28.50
-6.477654	28.6
-6.477654	28.66
-6.477654	28.7
-6.477654	28.8
-5.574564	280
-5.331526	281
-5.331526	2819
-5.115926	282
-4.761651	283
-6.477654	283,688,500
-5.875594	2832
-6.000533	2838
-5.436261	284
-5.04629	285
-6.477654	2855
-5.015256	286
-5.015256	287
-6.477654	287,709
-5.301563	288
-6.477654	288,322,200
-5.436261	289
-6.477654	28a
-5.875594	28c
-5.778684	28d
-5.875594	28e
-6.000533	28f
-5.875594	28g
-6.176624	28th
-3.593992	29
-6.477654	29,073,300
-6.477654	29,147,500
-6.477654	29,352,833
-6.477654	29,509,150
-6.477654	29,637,700
-6.477654	29,943,800
-6.477654	29.8
-5.1989	290
-5.398473	291
-4.946175	292
-6.477654	292,069,000
-5.778684	293
-5.436261	294
-5.301563	295
-4.921351	296
-5.875594	297
-6.477654	297,130,500
-6.477654	297,146,300
-6.477654	297.9
-6.477654	2971
-5.699502	298
-6.477654	298,226,300
-6.176624	298,437,000
-6.000533	299
-5.331526	2997
-6.477654	29a
-6.477654	29a.10
-6.477654	29a.5
-6.477654	29a.8
-6.477654	29adopted
-6.477654	29b
-6.477654	29b.10
-6.477654	29b.31
-6.477654	29b.5
-6.477654	29b.8
-6.477654	29c
-6.477654	29c.22
-6.477654	29c.9
-6.176624	29d
-6.477654	29d.12
-6.477654	29d.5
-6.477654	29e
-6.477654	29e.12
-6.477654	29e.6
-6.477654	29e.8
-6.477654	29f
-6.477654	29f.20
-6.477654	29f.7
-6.477654	29f.9
-6.477654	29g
-6.477654	29g.12
-6.477654	29g.6
-6.477654	29g.8
-6.477654	29th
-2.954298	3
-6.477654	3,000,128
-6.477654	3,002,600
-6.477654	3,004,991
-6.477654	3,010,100
-6.477654	3,089,599
-6.477654	3,098,505
-6.477654	3,098,900
-6.477654	3,121,550
-6.477654	3,136
-6.176624	3,160,860,300
-6.477654	3,169,775
-6.477654	3,179,196,100
-6.477654	3,183,700
-6.176624	3,307,300
-6.477654	3,351,190
-6.477654	3,400
-6.477654	3,412,000
-6.477654	3,426,800
-6.477654	3,500
-6.477654	3,530,657
-6.477654	3,559,600
-6.477654	3,563,700
-6.477654	3,571,900
-6.477654	3,621,900,000
-6.477654	3,642,200
-6.176624	3,684,650
-6.477654	3,737,508,800
-6.176624	3,798,912,500
-6.477654	3,799
-6.477654	3,829,916,200
-6.176624	3,851,900
-6.477654	3,867,900
-6.176624	3,875,900
-6.477654	3,914,000
-6.176624	3,933,700
-5.523411	3.1
-6.477654	3.11
-6.477654	3.12
-6.477654	3.13
-6.477654	3.16
-6.477654	3.19
-5.574564	3.2
-6.477654	3.21
-6.477654	3.25
-6.477654	3.26
-6.477654	3.27
-6.477654	3.3
-6.477654	3.38
-6.477654	3.4
-6.176624	3.44
-6.477654	3.47
-6.000533	3.5
-6.176624	3.7
-6.000533	3.8
-6.477654	3.87
-5.875594	3.9
-3.528264	30
-6.477654	30,006,300
-6.176624	30,485,600
-6.477654	30,888,283
-6.477654	30.10
-6.477654	30.12
-6.477654	30.8
-4.86487	300
-5.778684	300-series
-5.135231	302
-6.000533	3026
-6.176624	303
-6.000533	304
-5.222381	305
-6.477654	305,137,300
-6.477654	305,300
-6.477654	306
-5.477654	307
-6.477654	307,400
-6.000533	308
-6.477654	308,305,200
-5.699502	309
-3.573479	31
-5.699502	31,000
-6.477654	31,046,400
-6.477654	31,200
-6.477654	31,460,500
-6.000533	31,523,100
-6.477654	31,547,800
-6.477654	31.1
-6.477654	31.24
-6.477654	31.9
-5.699502	310
-5.079714	3101
-6.000533	3106
-6.477654	3108
-5.176624	311
-5.632556	312
-6.000533	313
-6.477654	314
-6.000533	3148
-6.176624	315,997,200
-5.523411	316
-6.477654	316,458,000
-6.477654	316,472,100
-6.176624	3166
-6.477654	317
-6.477654	317.1
-5.632556	318
-6.000533	3187
-5.875594	319
-6.477654	31c
-6.176624	31st
-4.006362	32
-6.477654	32,772,200
-6.000533	32,836,900
-6.176624	32.5
-6.477654	320
-6.477654	321,184
-5.699502	323
-5.632556	3236
-6.477654	324,700
-5.875594	325
-6.477654	326
-6.477654	326,400
-6.477654	326,500,000
-6.176624	326,573,900
-6.477654	326,700
-5.574564	3263
-6.000533	327
-5.523411	3281
-6.176624	329,317,900
-6.477654	329,714,400
-3.929879	33
-6.477654	33,371,214
-6.477654	33,771,930
-6.176624	330,000
-6.477654	331,000
-5.436261	3327
-6.176624	3331
-6.477654	3331b
-6.176624	335
-5.778684	3369
-5.301563	337
-5.632556	3375
-5.632556	3376
-4.805556	338
-6.000533	3391
-6.477654	33rd
-4.07282	34
-6.477654	34,642,200
-6.477654	342
-6.176624	343,979,700
-6.477654	347,566,900
-5.574564	3474
-6.477654	348,979,300
-5.632556	3499
-6.176624	34th
-4.06268	35
-6.477654	35,262,900
-6.477654	35,400
-5.875594	35,500
-6.477654	35,958,875
-6.176624	350
-6.000533	3502
-6.477654	351,100
-6.477654	354
-6.477654	355
-6.477654	355,539
-6.477654	355,679,000
-6.477654	355,949,300
-4.033609	36
-6.477654	36,149,331
-6.477654	36.6
-6.477654	361,298,900
-6.477654	362
-6.477654	363
-6.477654	363,000
-6.477654	364,200
-6.477654	367
-5.875594	36th
-4.127406	37
-6.477654	37,200
-6.477654	37,259,284
-6.477654	37,294,100
-6.477654	37,500
-6.176624	370
-6.477654	371
-6.477654	376
-6.176624	376,400
-6.477654	379,046,800
-5.875594	37th
-4.035174	38
-6.477654	38,092
-6.477654	38,200
-6.477654	380,822,700
-6.477654	381
-6.477654	382
-6.477654	382,900
-6.000533	383
-6.477654	383,187,800
-6.477654	384
-5.875594	386
-6.176624	386,587,300
-6.176624	386,892,500
-6.000533	387
-6.477654	387,360
-6.477654	388
-6.000533	389
-6.176624	38th
-4.153371	39
-6.176624	39,458,000
-6.176624	390
-6.000533	391
-6.176624	392
-6.477654	393
-4.886589	394
-5.477654	395
-6.176624	396
-6.477654	397
-6.477654	398
-6.477654	399
-5.778684	39th
-6.176624	3l
-2.96537	4
-6.477654	4,007,000
-6.477654	4,064
-6.477654	4,147,870
-6.477654	4,154,500
-6.477654	4,165,800
-6.176624	4,171,359,700
-6.477654	4,194,726,800
-6.176624	4,237,100
-6.477654	4,254,100
-6.477654	4,273,000
-6.477654	4,287,900
-6.477654	4,302,005,000
-6.176624	4,370,800
-6.477654	4,371,700
-6.477654	4,392,200
-6.477654	4,393,500
-6.477654	4,403,742
-6.477654	4,490,400
-6.477654	4,509,200
-6.176624	4,517,100
-6.176624	4,521,450
-6.477654	4,560,400
-6.176624	4,595,100
-6.477654	4,657,600
-6.477654	4,777,737
-6.477654	4,797
-6.477654	4,854,700
-6.477654	4,900,800
-6.477654	4,966,000
-6.477654	4-6
-6.477654	4.1
-6.000533	4.10
-6.477654	4.13
-6.477654	4.14
-5.875594	4.2
-5.778684	4.25
-6.176624	4.3
-6.477654	4.39
-5.875594	4.4
-6.176624	4.5
-6.477654	4.6
-6.477654	4.7
-6.477654	4.8
-6.477654	4.9
-4.125471	40
-5.875594	40,000
-6.477654	40,200
-6.477654	40,909,090
-6.477654	400
-6.176624	400,000
-6.477654	400,716
-5.778684	401
-6.477654	402
-6.176624	403
-6.477654	403,500
-5.778684	404
-6.477654	404,295,400
-5.699502	405
-6.176624	406
-5.778684	407
-5.632556	408
-6.477654	409
-5.632556	40th
-4.061013	41
-6.477654	41,011,800
-6.477654	41,240,583
-6.477654	41,300
-6.477654	41.2
-6.176624	410
-5.875594	410,000
-6.477654	410,036,100
-6.176624	411
-5.523411	412
-6.477654	413
-6.477654	413,600
-6.477654	414
-6.477654	414,429,600
-5.36371	415
-6.477654	415,291,800
-6.477654	415,340,500
-6.477654	416
-5.222381	417
-6.176624	418
-5.477654	419
-6.000533	41st
-4.161684	42
-6.477654	42,256,334
-6.176624	42,695,300
-6.477654	42.23
-5.699502	420
-5.632556	421
-5.247205	422
-6.477654	422,053,500
-5.875594	423
-5.632556	424
-5.176624	425
-5.778684	426
-6.477654	427
-6.477654	427,355,200
-6.176624	428
-6.176624	428,977,800
-5.699502	429
-6.176624	42nd
-4.071114	43
-6.477654	43,055,543
-6.176624	43,066,850
-6.477654	43,150,650
-6.477654	43,212,641
-6.176624	43,237,650
-6.477654	43,379,202
-6.477654	43,646,200
-6.000533	431
-5.523411	432
-5.632556	433
-6.477654	434
-6.477654	434,860,100
-5.875594	435
-5.875594	436
-5.699502	437
-5.699502	438
-6.176624	438,366,800
-5.030496	439
-5.523411	43rd
-4.069414	44
-6.477654	44,700
-6.477654	44,927,300
-6.477654	44,991
-6.477654	44.2
-5.778684	440
-5.875594	441
-6.000533	442
-4.909452	443
-5.778684	444
-6.477654	445
-6.477654	445,193,514
-5.574564	446
-5.632556	448
-6.477654	448,600
-6.477654	449
-5.699502	44th
-3.918945	45
-6.176624	45,504,300
-6.477654	45,828,200
-6.000533	450
-6.477654	450,202,500
-5.632556	451
-6.000533	452
-5.523411	453
-5.632556	454
-5.699502	455
-5.632556	456
-5.875594	457
-5.699502	458
-6.477654	458,000,128
-4.972504	459
-6.477654	459,200
-6.176624	45th
-3.809268	46
-6.477654	46,414,900
-6.477654	46,916,666
-6.477654	46,916,670
-6.477654	46-year
-6.477654	46.4
-5.477654	460
-5.778684	461
-4.95914	462
-4.921351	463
-5.523411	464
-5.135231	465
-6.000533	466
-6.477654	466,700
-6.176624	467
-5.778684	468
-6.477654	468,100
-5.699502	469
-5.699502	46th
-3.818689	47
-6.477654	47,239,772
-6.477654	47,462,700
-6.477654	47,626,700
-6.176624	47,759,100
-6.477654	47,807,018
-6.176624	47,844,850
-5.699502	470
-5.632556	471
-5.273534	472
-5.523411	473
-6.477654	473,636
-5.699502	474
-5.778684	475
-5.436261	476
-5.632556	477
-5.04629	478
-5.574564	479
-6.000533	47th
-3.788345	48
-6.176624	48,312,450
-6.477654	48,700
-6.176624	48.13
-6.477654	48.4
-6.477654	48.the
-5.699502	480
-5.331526	481
-5.875594	482
-5.247205	483
-5.398473	484
-5.699502	485
-6.477654	485,500
-5.632556	486
-5.699502	487
-5.1989	488
-5.699502	489
-5.875594	48th
-3.724837	49
-6.477654	49,259,800
-6.477654	49,715,100
-6.477654	49,800
-6.477654	49,961,500
-6.477654	49.2
-5.574564	490
-5.778684	491
-5.247205	492
-6.477654	492,248,800
-6.000533	493
-5.398473	494
-6.176624	494,887,000
-5.632556	495
-5.477654	496
-4.706802	497
-5.699502	498
-6.477654	498,100
-5.436261	499
-5.477654	4rs
-3.061013	5
-6.477654	5,000
-6.477654	5,077
-6.176624	5,202,750
-6.477654	5,210,000
-6.477654	5,234,553
-6.477654	5,284,652
-6.477654	5,288,432
-6.477654	5,310,100
-6.477654	5,340,700
-6.477654	5,385,700
-6.477654	5,414,300
-6.176624	5,419,300
-6.477654	5,428,116
-6.477654	5,444,104
-6.477654	5,500
-6.477654	5,792,000
-6.477654	5,849,531
-6.477654	5,870,566
-6.477654	5,873,600
-5.778684	5.1
-6.477654	5.11
-6.477654	5.12
-6.477654	5.14
-6.477654	5.16
-5.574564	5.2
-6.477654	5.24
-6.477654	5.25
-6.176624	5.29
-6.000533	5.3
-6.477654	5.32
-6.477654	5.33
-6.176624	5.39
-6.176624	5.4
-6.477654	5.43
-6.000533	5.5
-5.301563	5.6
-6.477654	5.7
-6.000533	5.8
-6.176624	5.9
-3.655486	50
-5.778684	50,000
-6.477654	50,342,425
-6.477654	50,567,834
-6.477654	50,609,069
-5.778684	500
-5.875594	500,000
-5.331526	501
-5.632556	502
-4.844185	503
-5.632556	504
-5.778684	505
-5.778684	506
-5.574564	507
-4.875594	508
-6.477654	5084th
-4.933586	509
-5.632556	50th
-3.675565	51
-6.477654	51,276,000
-6.477654	51,509,800
-6.477654	51,899,313
-4.933586	510
-6.477654	510,695
-5.36371	511
-5.699502	512
-5.699502	513
-5.875594	514
-5.523411	515
-6.477654	515,460,600
-6.000533	516
-5.699502	517
-5.632556	518
-5.574564	519
-5.875594	51st
-3.620321	52
-6.477654	52,412,641
-6.477654	52,714,100
-5.398473	520
-5.398473	521
-6.000533	522
-6.176624	523
-6.000533	524
-6.176624	525
-6.176624	526
-6.000533	527
-5.699502	528
-5.477654	529
-4.986292	52nd
-3.620925	53
-6.176624	53,047,600
-6.176624	53,518,525
-6.477654	53,633,300
-6.477654	53,824,800
-5.632556	530
-5.574564	531
-5.222381	532
-6.477654	532,469,200
-5.875594	533
-5.699502	534
-5.875594	535
-5.097443	536
-5.477654	537
-5.875594	538
-6.000533	539
-6.477654	539,900
-5.36371	53rd
-3.421893	54
-6.176624	54.14
-6.000533	540
-6.000533	541
-6.176624	542
-6.477654	543
-6.176624	544
-6.000533	545
-6.477654	546
-6.477654	546,051,600
-5.36371	547
-6.000533	548
-5.36371	549
-6.000533	54th
-3.182747	55
-6.176624	55,600
-5.632556	550
-5.778684	551
-5.632556	552
-5.875594	553
-5.875594	554
-5.778684	555
-4.89787	556
-5.699502	557
-5.574564	558
-5.000533	559
-6.176624	55th
-3.228945	56
-6.477654	56,726,221
-6.477654	56,731,900
-6.176624	56.28
-6.176624	56.29
-5.36371	560
-5.301563	561
-6.477654	561,900
-5.574564	562
-5.523411	563
-5.875594	564
-6.477654	564,494,300
-6.477654	564,879
-5.778684	565
-5.632556	566
-6.000533	567
-6.477654	567,246
-6.000533	568
-6.477654	568,706
-6.176624	569
-5.06268	56th
-3.203727	57
-6.176624	57,469,600
-6.477654	57,866,667
-5.523411	570
-5.331526	571
-5.331526	572
-5.477654	573
-6.477654	573,600
-5.36371	574
-6.000533	575
-5.477654	576
-6.176624	577
-5.523411	578
-5.436261	579
-4.74526	57th
-3.253121	58
-6.176624	58,066,375
-6.477654	58,300
-6.176624	58.2
-6.176624	58.3
-6.477654	58.5
-5.778684	580
-5.574564	581
-5.273534	582
-4.909452	583
-6.477654	583,800
-5.875594	584
-6.176624	585
-6.000533	586
-5.778684	587
-5.778684	588
-5.875594	589
-5.632556	58th
-3.312409	59
-6.477654	59,038,300
-6.477654	59,120,770
-6.477654	59,360,200
-6.176624	590
-6.477654	590,000
-6.176624	591
-6.477654	591,900
-5.632556	592
-5.477654	593
-6.176624	594
-6.477654	594,091
-5.574564	595
-6.000533	596
-5.523411	597
-5.699502	598
-6.000533	599
-5.436261	59th
-6.477654	5th
-3.071114	6
-6.477654	6,000
-6.477654	6,012,810
-6.477654	6,021,721
-6.477654	6,069,700
-6.477654	6,177,656
-6.477654	6,301,700
-6.000533	6,392,600
-6.477654	6,464,658
-6.477654	6,500
-6.477654	6,531,900
-6.477654	6,650,766
-6.477654	6,685,385
-6.477654	6,820,197
-6.176624	6,863,750
-6.477654	6,865,300
-6.477654	6,896,100
-6.477654	6-week
-6.477654	6.1
-6.477654	6.3
-6.477654	6.4
-5.875594	6.5
-6.477654	6.6
-3.357738	60
-6.477654	60,000
-6.477654	60,039,000
-6.176624	60,187,150
-6.477654	60.13
-6.477654	60.18
-5.574564	600
-5.778684	601
-4.933586	602
-5.875594	603
-6.000533	604
-5.875594	605
-5.875594	606
-6.477654	607
-5.699502	608
-6.176624	609
-5.574564	60th
-3.433506	61
-6.176624	61,089,600
-6.477654	61,180,707
-6.477654	61,600
-6.176624	61,722,500
-6.000533	61.6
-6.477654	610
-6.176624	611
-6.477654	612
-6.176624	613
-6.477654	614
-6.477654	615
-6.477654	616
-6.477654	617
-4.729466	61st
-3.726375	62
-6.176624	62,434,375
-6.477654	621
-6.477654	625
-6.477654	629,045
-4.854404	62nd
-4.360383	63
-6.176624	63,045,250
-6.477654	63,842
-6.477654	631
-6.477654	634
-6.176624	637
-6.477654	637,300
-6.176624	639
-5.477654	63rd
-4.398473	64
-6.176624	64,275,950
-6.477654	64,648,400
-6.477654	640
-6.477654	640,000
-6.477654	642,540
-6.176624	644
-6.477654	646
-6.477654	647
-5.699502	648
-6.000533	649
-4.580027	64th
-4.513866	65
-6.176624	65,656,200
-6.477654	65.5
-6.000533	650
-6.477654	650,000
-6.000533	651
-5.778684	652
-5.699502	653
-6.176624	654
-6.000533	655
-6.176624	656
-6.176624	657
-6.477654	657,750
-5.36371	658
-6.477654	659
-4.95914	65th
-4.49993	66
-6.477654	661
-6.176624	663
-6.176624	664
-6.477654	665
-6.477654	667
-4.699502	66th
-4.585559	67
-6.176624	67,439,600
-6.477654	67,609,214
-6.477654	67.5
-6.477654	67.9
-6.477654	678,600
-4.721779	67th
-4.473332	68
-6.176624	68,031,400
-6.477654	68,421,052
-6.176624	681
-6.000533	686
-5.632556	687
-6.000533	688
-6.477654	689
-4.518612	68th
-4.528264	69
-6.176624	69,123,700
-6.176624	69,577,475
-6.477654	69,845,400
-5.398473	690
-6.477654	691
-5.875594	692
-6.477654	693,126,185
-6.477654	699,230,584
-4.558576	69th
-3.122586	7
-6.477654	7,061,830
-6.477654	7,185,000
-6.176624	7,191,775
-6.477654	7,217,700
-6.176624	7,229,867
-6.477654	7,230,584
-6.477654	7,249,409
-6.477654	7,377,600
-6.477654	7,451,064
-6.477654	7,546,100
-6.477654	7,854,800
-6.477654	7,885,117
-6.477654	7,958,900
-6.477654	7.2
-6.477654	7.3
-6.176624	7.5
-6.477654	7.6
-6.477654	7.7
-6.477654	7.8
-6.477654	7.ii
-4.325366	70
-6.477654	70,000
-6.477654	700,000
-6.477654	702
-6.477654	703
-6.477654	706,500
-6.477654	707
-6.477654	709
-6.000533	70th
-4.36371	71
-6.176624	71,124,250
-6.477654	710
-6.477654	711
-6.000533	712
-6.000533	713
-6.477654	714
-6.176624	715
-6.477654	717
-4.608422	71st
-4.523411	72
-6.477654	722
-6.477654	724
-6.477654	726
-6.477654	728
-6.477654	729
-4.761651	72nd
-4.176624	73
-6.477654	730
-6.477654	731
-5.875594	733
-6.477654	734
-6.176624	735
-5.699502	736
-6.176624	737
-6.477654	738
-6.477654	739
-5.030496	73rd
-4.574564	74
-6.477654	74,322,400
-6.477654	74,384,900
-6.477654	74.8
-6.477654	740
-6.477654	741
-6.477654	748,200
-4.59684	74th
-4.265466	75
-6.000533	75,000
-6.477654	75,858
-6.477654	750
-6.477654	750,000
-4.518612	75th
-4.284529	76
-6.176624	76,221,950
-6.477654	76,659,100
-6.477654	76,909,100
-6.477654	765,100
-4.553374	76th
-4.079714	77
-6.477654	77,071,800
-6.477654	77,200
-6.477654	771
-6.477654	774,893
-6.477654	779,197
-4.310337	77th
-4.469054	78
-6.477654	78,500
-6.477654	78,764,500
-6.477654	78,959,200
-6.176624	78,995,675
-6.176624	781,300
-6.477654	783,672,200
-4.325366	78th
-4.638805	79
-6.477654	792nd
-4.440228	79th
-6.477654	7a
-6.477654	7b
-6.477654	7c
-3.059187	8
-6.477654	8,007,450
-6.176624	8,081,900
-6.477654	8,183,100
-6.477654	8,193,000
-6.477654	8,198,000
-6.477654	8,260,509
-6.477654	8,311,500
-6.176624	8,741,600
-6.477654	8,970,800
-6.477654	8-9
-6.477654	8.10
-6.176624	8.12
-6.176624	8.14
-6.477654	8.16
-6.176624	8.18
-6.477654	8.3
-6.176624	8.31
-6.176624	8.39
-6.176624	8.7
-6.477654	8.8
-4.490882	80
-6.477654	80,770,800
-6.176624	80.4
-6.477654	800
-6.000533	800,000
-6.477654	802
-5.436261	80th
-4.608422	81
-6.477654	81,246,800
-6.176624	81,300,850
-6.176624	81,600
-6.477654	81,708,200
-6.477654	81,965,400
-6.477654	81.5
-6.477654	811,838
-4.46062	81st
-4.428436	82
-6.477654	82,769,071
-6.477654	826
-6.176624	827
-4.946175	82nd
-4.59684	83
-4.632556	83rd
-4.706802	84
-6.477654	84,961,407
-6.477654	84.9
-5.778684	840
-6.477654	842
-5.574564	845
-4.834201	84th
-4.614331	85
-6.477654	85,153,700
-6.477654	85,607,600
-6.477654	85,652,987
-6.477654	852
-6.176624	854
-5.015256	85th
-4.638805	86
-6.477654	86,301,300
-6.477654	86,375,800
-6.477654	86,758,400
-6.176624	86,940,250
-6.477654	862,915
-5.398473	86th
-4.558576	87
-6.176624	87,344,825
-6.477654	879,200
-4.796412	87th
-4.671474	88
-6.477654	88,536,700
-6.176624	88,605,150
-6.176624	88,933,450
-6.477654	888,500
-6.176624	888,800
-4.638805	88th
-4.685262	89
-6.477654	89,563,100
-5.135231	89th
-6.176624	8th
-3.11536	9
-6.477654	9,004,200
-6.176624	9,115,500
-6.176624	9,190,200
-6.477654	9,214,400
-6.477654	9,406,800
-6.176624	9,418,200
-6.477654	9,432,500
-6.477654	9,972,300
-6.477654	9.1
-6.477654	9.1.4
-6.477654	9.12
-6.477654	9.13
-6.477654	9.16
-6.477654	9.2
-6.477654	9.21
-6.477654	9.22
-6.477654	9.3
-6.477654	9.30
-6.477654	9.62
-6.477654	9.69
-6.477654	9.7
-6.176624	9.9
-4.331526	90
-6.176624	90,148,375
-5.247205	904
-4.921351	90th
-4.692324	91
-6.477654	91,118,900
-6.477654	91,722,700
-6.176624	910
-5.574564	913
-5.632556	91st
-4.638805	92
-6.477654	92,700
-6.477654	92,864,793
-6.000533	922
-4.886589	92nd
-4.834201	93
-6.477654	93,974,800
-6.176624	93.7
-4.486428	94
-6.176624	94,621,400
-6.477654	942
-6.477654	944.1
-4.753378	95
-6.477654	95,200
-6.176624	95,883,600
-6.477654	950
-6.477654	955
-6.477654	956,307
-4.558576	96
-6.477654	96,443,900
-6.477654	969,150
-6.477654	969,468,800
-4.737291	97
-6.477654	97,235,083
-6.176624	97,558,500
-6.477654	97,579,600
-4.585559	973
-4.770083	98
-6.176624	98,050,450
-6.477654	98,100
-6.477654	98,338,700
-5.574564	984
-5.523411	986
-6.477654	987
-4.74526	99
-6.176624	99,548,960
-6.477654	992,600
-6.477654	998,600
-6.176624	9a
-6.000533	9b
-6.477654	9c
-6.477654	9d
-6.477654	9th
-2.980586	:
-1.972056	;
-1.632556	</s>
-99	<s>
-5.699502	=
-5.247205	[
-5.247205	]
-5.699502	_
-2.102594	a
-4.89787	a.
-6.477654	a.1002
-6.477654	a.27d.16
-6.477654	a.962
-6.477654	a.979
-6.477654	a.i.
-5.778684	a.m.
-6.477654	a1
-6.477654	a2
-6.477654	a3
-6.477654	a4
-6.477654	a5
-5.778684	aa
-5.135231	ababa
-6.477654	abandon
-5.436261	abandoned
-6.176624	abandonment
-6.477654	abatement
-5.632556	abducted
-5.632556	abductee
-6.477654	abductees
-5.632556	abducting
-4.632556	abduction
-5.778684	abductions
-6.477654	abdullah
-6.477654	aberrations
-6.000533	abetting
-5.632556	abhorrent
-4.585559	abide
-6.477654	abided
-5.398473	abiding
-5.331526	abilities
-4.413196	ability
-6.477654	abiotic
-6.477654	abject
-5.632556	abkhazia
-4.328434	able
-5.097443	abolish
-5.36371	abolished
-5.875594	abolishing
-5.04629	abolition
-6.000533	abortions
-3.536639	about
-3.747679	above
-6.477654	above-described
-4.543155	above-mentioned
-5.632556	abridgement
-5.36371	abroad
-5.436261	abrogate
-6.176624	abrupt
-4.553374	absence
-4.909452	absolute
-6.176624	absolutely
-6.477654	absorb
-6.176624	absorbed
-6.477654	absorbing
-6.176624	absorption
-6.477654	absorptions
-5.778684	absorptive
-6.477654	abstain
-6.477654	abstaining
-4.875594	abstention
-3.77179	abstentions
-6.477654	abstinence
-6.176624	abstract
-5.477654	abu-ghneim
-4.729466	abuja
-6.176624	abundance
-3.877771	abuse
-5.875594	abused
-5.699502	abusers
-4.737291	abuses
-5.436261	abusive
-5.477654	academia
-4.770083	academic
-5.699502	academics
-5.273534	academy
-4.325366	accede
-4.533171	acceded
-6.176624	accedes
-4.290133	acceding
-4.405772	accelerate
-4.706802	accelerated
-4.86487	accelerating
-5.273534	acceleration
-6.477654	accentuated
-6.477654	accentuates
-6.176624	accentuation
-4.685262	accept
-4.477654	acceptable
-6.477654	acceptably
-4.224801	acceptance
-5.36371	acceptances
-4.473332	accepted
-4.972504	accepting
-5.176624	accepts
-3.383882	access
-6.477654	accessed
-4.834201	accessibility
-4.436261	accessible
-6.176624	accessibly
-5.36371	accessing
-4.237104	accession
-5.06268	accessions
-5.06268	accident
-4.933586	accidental
-5.36371	accidents
-5.1989	accommodate
-6.477654	accommodated
-5.247205	accommodation
-6.477654	accommodations
-5.222381	accompanied
-5.523411	accompany
-5.398473	accompanying
-5.699502	accomplice
-6.000533	accomplices
-4.921351	accomplish
-5.030496	accomplished
-5.398473	accomplishing
-4.538135	accomplishment
-4.538135	accomplishments
-4.486428	accord
-2.987274	accordance
-4.753378	accorded
-4.319291	according
-4.854404	accordingly
-5.079714	accords
-3.202112	account
-6.477654	account-funded
-6.477654	account-opening
-4.106586	accountability
-4.464817	accountable
-6.477654	accountants
-6.477654	accounted
-4.986292	accounting
-4.844185	accounts
-5.778684	accra
-6.477654	accredit
-4.972504	accreditation
-5.000533	accredited
-5.523411	accrue
-6.477654	accrued
-5.875594	accruing
-6.477654	accumulate
-5.222381	accumulated
-6.176624	accumulating
-5.06268	accumulation
-5.015256	accuracy
-4.608422	accurate
-5.632556	accurately
-5.699502	accusations
-5.222381	accused
-6.176624	achievable
-3.575107	achieve
-3.886589	achieved
-3.630698	achievement
-4.428436	achievements
-6.477654	achieves
-3.64835	achieving
-5.699502	acid
-5.875594	acidification
-5.06268	acknowledge
-5.1989	acknowledged
-5.273534	acknowledgement
-4.07798	acknowledges
-3.984893	acknowledging
-6.477654	acquainted
-6.000533	acquiesce
-6.477654	acquiesced
-5.875594	acquiescence
-4.620321	acquire
-4.482018	acquired
-6.000533	acquires
-4.834201	acquiring
-4.424575	acquisition
-5.875594	acquisitions
-6.477654	acres
-6.477654	acronym
-4.626395	across
-3.937324	act
-6.000533	acted
-4.509171	acting
-2.877553	action
-4.737291	action-oriented
-3.617316	actions
-6.477654	activation
-3.924986	active
-3.986292	actively
-6.477654	activist
-5.176624	activists
-2.868486	activities
-4.424575	activity
-5.523411	actor
-3.980724	actors
-3.581128	acts
-4.86487	actual
-5.176624	actually
-4.933586	actuarial
-5.247205	actuaries
-5.477654	actuary
-5.222381	acute
-6.477654	acutely
-6.176624	acuteness
-3.689486	ad
-6.477654	adama
-5.04629	adapt
-6.477654	adaptability
-5.1989	adaptation
-5.436261	adapted
-5.574564	adapting
-6.477654	adaptive
-4.203496	add
-3.835189	add.1
-4.110298	add.2
-4.580027	add.3
-5.176624	add.4
-5.222381	add.5
-5.331526	add.6
-5.523411	add.7
-5.523411	add.8
-6.477654	add.9
-5.155435	added
-6.000533	addenda
-5.1989	addendum
-5.574564	addiction
-5.632556	addictions
-6.477654	addicts
-5.778684	adding
-5.135231	addis
-4.380744	addition
-3.572938	additional
-6.477654	additions
-3.47076	address
-4.215203	addressed
-5.523411	addressee
-5.36371	addresses
-3.805556	addressing
-6.477654	adduce
-6.176624	adelboden
-5.436261	adequacy
-3.547214	adequate
-4.56384	adequately
-4.761651	adhere
-5.574564	adhered
-4.301563	adherence
-5.778684	adherents
-5.523411	adhering
-4.921351	adjacent
-6.000533	adjudicate
-5.778684	adjudicating
-5.875594	adjudication
-5.36371	adjust
-6.000533	adjustable
-6.477654	adjustable-rate
-4.805556	adjusted
-5.574564	adjusting
-4.614331	adjustment
-4.721779	adjustments
-5.574564	administer
-4.580027	administered
-3.614926	administering
-3.732579	administration
-3.506378	administrative
-5.000533	administrator
-6.477654	administrators
-5.778684	admissibility
-5.778684	admissible
-4.778684	admission
-6.477654	admissions
-5.699502	admit
-5.36371	admitted
-6.000533	admitting
-5.632556	adolescence
-5.301563	adolescent
-4.787458	adolescents
-3.928651	adopt
-2.851724	adopted
-4.265466	adopting
-3.595129	adoption
-5.247205	adoptions
-5.135231	adopts
-6.477654	ador
-6.000533	adriatic
-5.079714	adult
-6.477654	adulteration
-6.477654	adulthood
-5.273534	adults
-4.276257	advance
-4.714226	advanced
-4.05605	advancement
-5.778684	advancements
-4.761651	advances
-4.678313	advancing
-4.548235	advantage
-5.778684	advantageous
-5.030496	advantages
-6.477654	advent
-6.477654	adventist
-6.477654	adversaries
-4.268139	adverse
-4.495383	adversely
-6.176624	advertised
-5.875594	advertising
-4.440228	advice
-5.778684	advisability
-6.477654	advisable
-5.030496	advise
-5.875594	advised
-4.614331	adviser
-5.1989	advisers
-6.176624	advises
-5.222381	advising
-6.477654	advisories
-6.477654	advisors
-3.448676	advisory
-4.986292	advocacy
-5.523411	advocate
-5.699502	advocated
-5.176624	advocates
-5.574564	advocating
-5.331526	aegis
-5.523411	aerial
-3.649639	affairs
-4.108438	affect
-3.568633	affected
-4.222381	affecting
-4.580027	affects
-4.909452	affiliated
-5.778684	affiliation
-5.574564	affirm
-5.699502	affirmation
-5.436261	affirmative
-4.986292	affirmed
-4.229681	affirming
-4.093838	affirms
-6.477654	affixed
-5.778684	afflict
-6.477654	afflicted
-5.699502	afflicting
-6.000533	affluent
-4.875594	afford
-5.875594	affordability
-4.558576	affordable
-5.574564	afforded
-5.477654	affording
-5.477654	affront
-4.007832	afghan
-6.176624	afghan-led
-3.605498	afghanistan
-5.222381	afghans
-4.95914	aforementioned
-3.211893	africa
-6.477654	africa-latin
-6.477654	africa-related
-3.281201	african
-5.875594	african-led
-6.000533	african-owned
-6.000533	africans
-6.477654	africities
-3.84621	after
-5.176624	aftermath
-6.176624	afternoon
-5.875594	afterwards
-6.176624	ag
-4.07282	again
-2.961251	against
-4.219975	age
-6.000533	age-
-5.115926	age-appropriate
-6.000533	age-disaggregated
-5.699502	age-sensitive
-6.477654	age-specific
-6.176624	aged
-4.287322	ageing
-6.477654	ageing-mainstreaming
-6.000533	ageing-related
-6.477654	ageing-specific
-3.222864	agencies
-3.469906	agency
-3.241873	agenda
-5.097443	agendas
-6.176624	agent
-5.06268	agents
-5.176624	ages
-5.778684	aggravate
-5.000533	aggravated
-5.273534	aggravating
-5.436261	aggregate
-4.714226	aggression
-5.875594	aggressive
-5.778684	ago
-6.477654	agony
-5.699502	agrarian
-4.436261	agree
-3.502222	agreed
-6.176624	agreed-upon
-5.273534	agreeing
-3.325671	agreement
-6.477654	agreement-specific
-3.512452	agreements
-4.215203	agrees
-4.394868	agricultural
-3.833215	agriculture
-6.477654	agriculture-related
-6.176624	agro-based
-5.574564	agro-industry
-6.477654	ah
-5.523411	ahead
-5.331526	ahg
-6.477654	ahmad
-6.477654	ahtisaari
-6.477654	ai
-4.270828	aid
-6.477654	aide
-6.477654	aide-memoire
-5.778684	aiding
-3.741257	aids
-6.000533	aids-
-6.176624	aids-infected
-6.000533	aids-related
-4.066034	aim
-3.548235	aimed
-5.030496	aiming
-4.424575	aims
-4.424575	air
-5.699502	aircraft
-5.273534	aires
-6.477654	airlifts
-6.000533	airline
-6.176624	airlines
-5.477654	airport
-5.778684	airports
-6.176624	airspace
-5.875594	akin
-6.477654	akita
-5.632556	al-adha
-5.699502	al-amud
-5.632556	al-fitr
-6.000533	al-khalil
-5.574564	al-qaida
-5.398473	al-quds
-5.875594	alarm
-4.602592	alarmed
-5.778684	alarming
-5.875594	alarmingly
-4.591163	albania
-5.875594	albanian
-5.398473	albatrosses
-6.477654	albeit
-5.36371	alcohol
-6.477654	alegre
-5.331526	alert
-5.574564	alerts
-4.313301	algeria
-5.015256	algiers
-3.240613	alia
-5.030496	alien
-6.176624	aliens
-5.331526	align
-5.778684	aligned
-5.36371	aligning
-5.36371	alignment
-4.95914	alike
-6.176624	alive
-6.477654	alkhalkalaki
-2.356028	all
-6.477654	all-east
-5.875594	all-embracing
-5.331526	all-inclusive
-5.699502	all-pervasive
-6.477654	all-round
-5.574564	allay
-5.875594	allegation
-4.933586	allegations
-6.477654	allege
-4.714226	alleged
-5.699502	allegedly
-6.477654	alleges
-6.477654	allegiance
-6.000533	alleging
-4.538135	alleviate
-6.176624	alleviated
-4.854404	alleviating
-4.86487	alleviation
-4.714226	alliance
-5.301563	alliances
-6.176624	allied
-6.176624	allies
-4.671474	allocate
-4.933586	allocated
-6.477654	allocates
-5.523411	allocating
-4.370444	allocation
-4.886589	allocations
-4.19662	allow
-6.000533	allowable
-5.079714	allowance
-5.247205	allowances
-5.523411	allowed
-4.787458	allowing
-5.097443	allows
-5.574564	alluvial
-4.509171	almaty
-6.477654	almaty-tashkent-tehran-istanbul
-5.36371	almost
-5.04629	alone
-4.753378	along
-5.778684	alongside
-6.000533	alphabetical
-5.632556	alps
-3.946175	already
-2.668094	also
-5.273534	alter
-5.247205	alteration
-5.331526	altered
-6.176624	altering
-5.477654	alternate
-6.477654	alternating
-6.477654	alternation
-4.185398	alternative
-5.273534	alternatives
-4.814896	although
-6.477654	aluminium
-5.36371	always
-6.176624	amalie
-5.632556	ambassador
-5.778684	ambassadors
-5.875594	ambitious
-6.477654	ambitiously
-5.699502	ameliorate
-5.632556	ameliorating
-5.115926	amend
-4.44827	amended
-5.273534	amending
-4.257546	amendment
-4.569169	amendments
-6.477654	amends
-6.477654	amenities
-5.247205	amerasinghe
-3.689486	america
-4.001983	american
-4.909452	americas
-6.477654	amicable
-6.477654	amicably
-6.477654	amid
-6.176624	amman
-4.65811	ammunition
-6.477654	ammunitions
-5.778684	amnesties
-6.176624	amnesty
-3.143401	among
-6.477654	amongst
-3.734929	amount
-5.247205	amounting
-5.097443	amounts
-6.176624	amphetamine
-5.176624	amphetamine-type
-6.176624	ample
-5.632556	amputation
-5.699502	amputations
-2.749869	an
-6.000533	anadromous
-6.477654	analogous
-4.699502	analyse
-6.176624	analysed
-5.097443	analyses
-5.097443	analysing
-4.131301	analysis
-4.645145	analytical
-6.000533	analytically
-5.778684	anchored
-6.477654	anchoring
-5.875594	ancient
-5.875594	ancillary
-1.350206	and
-4.95914	andean
-5.632556	andijan
-4.553374	andorra
-4.183187	angola
-6.000533	angolan
-4.678313	anguilla
-6.477654	anguillan
-5.477654	animal
-5.523411	animals
-6.176624	animosity
-6.477654	ankara
-5.875594	annan
-3.814896	annex
-5.115926	annexation
-4.553374	annexed
-4.834201	annexes
-5.778684	anniversaries
-4.13721	anniversary
-6.176624	annotated
-6.176624	announce
-4.921351	announced
-5.135231	announcement
-5.477654	announcements
-6.477654	announcing
-3.772646	annual
-6.477654	annualization
-6.477654	annualized
-4.553374	annually
-6.176624	annul
-6.477654	annum
-6.477654	anomalies
-5.632556	anomaly
-6.176624	anonymous
-6.477654	anonymously
-4.06268	another
-5.778684	answer
-6.477654	answers
-6.176624	antagonism
-6.176624	antagonistic
-6.477654	antalya
-6.477654	antananarivo
-4.814896	antarctic
-4.95914	antarctica
-6.477654	antenatal
-6.477654	anterior
-5.699502	anthropogenic
-5.1989	anti-ballistic
-6.176624	anti-bullying
-6.477654	anti-competitive
-5.398473	anti-corruption
-5.523411	anti-discrimination
-5.632556	anti-doping
-5.574564	anti-dumping
-5.778684	anti-fouling
-6.477654	anti-harassment
-5.875594	anti-malarial
-5.699502	anti-money-laundering
-5.875594	anti-narcotic
-4.276257	anti-personnel
-5.699502	anti-poverty
-6.176624	anti-racist
-5.36371	anti-semitism
-5.778684	anti-terrorism
-5.36371	anti-trafficking
-6.477654	antibiotics
-5.699502	anticipate
-5.000533	anticipated
-5.477654	anticipates
-4.626395	antigua
-5.778684	antimalarial
-6.477654	antimalarials
-5.398473	antiretroviral
-6.477654	anxiety
-3.148256	any
-6.477654	anyone
-6.176624	anything
-5.875594	anywhere
-5.875594	apart
-5.699502	apartheid
-6.477654	aperture
-5.875594	apia
-6.176624	apology
-5.875594	appalling
-6.477654	apparatus
-6.176624	apparatuses
-5.632556	apparent
-6.477654	apparently
-4.391294	appeal
-6.477654	appealed
-5.778684	appealing
-3.882158	appeals
-5.574564	appear
-5.699502	appearance
-6.176624	appearing
-5.699502	appears
-6.176624	appellate
-6.000533	appended
-5.574564	appendices
-6.477654	appending
-6.176624	appendix
-6.477654	applauded
-5.632556	applauding
-6.000533	applauds
-4.569169	applicability
-3.882158	applicable
-5.398473	applicant
-5.778684	applicants
-3.705332	application
-4.059352	applications
-4.473332	applied
-4.886589	applies
-4.071114	apply
-4.59684	applying
-4.89787	appoint
-4.59684	appointed
-5.247205	appointing
-4.328434	appointment
-5.115926	appointments
-6.477654	appoints
-4.580027	apportion
-4.796412	apportioned
-6.477654	apportioning
-4.490882	apportionment
-6.000533	apportionments
-4.370444	appraisal
-6.000533	appraisals
-5.574564	appraise
-6.477654	appraised
-6.477654	appraising
-6.477654	appreciable
-4.74526	appreciates
-5.000533	appreciating
-3.278997	appreciation
-5.523411	appreciative
-6.477654	apprehend
-6.477654	apprehended
-6.477654	apprehension
-5.778684	apprenticeship
-5.574564	apprise
-5.155435	apprised
-3.717986	approach
-6.176624	approached
-4.047902	approaches
-2.958745	appropriate
-4.787458	appropriated
-5.097443	appropriately
-5.699502	appropriateness
-4.504526	appropriation
-4.585559	appropriations
-4.217582	approval
-4.729466	approve
-3.865931	approved
-4.210482	approves
-5.331526	approving
-6.477654	approximate
-6.176624	approximately
-3.542146	april
-6.477654	aptitude
-5.1989	aquaculture
-5.574564	aquatic
-6.176624	aquifer
-6.176624	aquifers
-3.711985	arab
-5.331526	arab-israeli
-4.518612	arabia
-5.097443	arabic
-6.176624	arable
-4.620321	arabs
-5.135231	arbitral
-5.030496	arbitrarily
-4.13721	arbitrary
-4.678313	arbitration
-6.000533	arbitrator
-5.398473	arbitrators
-5.436261	archaeological
-6.477654	archaeology
-6.477654	archipelagic
-4.814896	architecture
-5.477654	archival
-4.972504	archives
-6.176624	arctic
-6.176624	arduous
-2.846007	are
-3.77179	area
-6.000533	area-based
-3.390583	areas
-4.278997	argentina
-6.477654	argentine
-6.477654	argues
-6.176624	arid
-4.86487	arise
-5.436261	arisen
-5.176624	arises
-4.05605	arising
-6.477654	arithmetical
-6.000533	arm
-6.176624	armament
-4.620321	armaments
-3.559623	armed
-4.456464	armenia
-6.477654	armies
-5.436261	armistice
-3.39165	arms
-5.574564	arms-limitation
-6.477654	arms-trafficking
-4.651579	army
-6.477654	armées
-5.875594	arose
-4.384232	around
-6.477654	arousing
-5.176624	arrange
-4.436261	arrangement
-3.437843	arrangements
-6.000533	arranging
-5.574564	array
-4.699502	arrears
-4.513866	arrest
-5.176624	arrested
-6.176624	arresting
-5.301563	arrests
-6.477654	arrival
-6.176624	arrivals
-6.176624	arrive
-5.06268	arrived
-6.000533	arriving
-4.761651	arsenals
-5.699502	art
-5.699502	arta
-5.398473	artefacts
-5.574564	artemisinin
-5.477654	artemisinin-based
-6.477654	arteries
-3.09169	article
-4.009306	articles
-5.574564	articulate
-5.875594	articulated
-5.875594	articulation
-6.176624	artifacts
-6.477654	artificial
-5.699502	artillery
-5.301563	artisanal
-6.176624	artistic
-6.477654	artists
-5.778684	arts
-6.000533	aruba
-5.875594	arusha
-6.477654	arvid
-2.190479	as
-6.176624	as-available
-6.477654	ascending
-6.000533	ascension
-5.176624	ascertain
-4.909452	ascertained
-4.834201	ascertaining
-6.477654	ascertainment
-6.477654	ascribed
-6.000533	asean
-6.477654	ashgabat
-4.052772	asia
-6.176624	asia-africa
-6.176624	asia-europe
-4.824441	asia-pacific
-4.49993	asian
-5.079714	asian-african
-5.875594	aside
-6.176624	ask
-5.699502	asks
-5.36371	aspect
-3.624564	aspects
-5.574564	asphyxiating
-5.699502	aspiration
-4.34732	aspirations
-6.000533	aspiring
-6.477654	ass
-6.477654	assassinating
-6.176624	assassination
-6.000533	assassinations
-5.398473	assault
-5.778684	assaulting
-5.699502	assaults
-5.574564	assemble
-5.875594	assembled
-6.000533	assemblies
-6.477654	assembling
-2.5526	assembly
-6.000533	assert
-6.477654	asserted
-6.477654	asserting
-6.477654	assertion
-4.46062	assess
-6.176624	assessable
-4.174458	assessed
-4.614331	assessing
-3.66075	assessment
-6.176624	assessmenta
-3.983499	assessments
-5.875594	assessors
-4.721779	asset
-6.477654	asset-liability
-4.163786	assets
-5.04629	assign
-4.591163	assigned
-4.477654	assignee
-5.632556	assignees
-5.436261	assigning
-4.380744	assignment
-4.946175	assignments
-4.543155	assignor
-6.477654	assimilated
-6.000533	assimilation
-3.553892	assist
-2.8508	assistance
-4.986292	assistant
-5.574564	assistants
-5.398473	assisted
-4.006362	assisting
-5.574564	assistive
-5.477654	assists
-4.753378	associate
-3.801875	associated
-6.477654	associates
-4.074533	association
-6.477654	associational
-4.651579	associations
-5.222381	assume
-4.972504	assumed
-5.331526	assuming
-5.273534	assumption
-5.632556	assumptions
-4.972504	assurance
-4.824441	assurances
-4.391294	assure
-5.247205	assured
-6.477654	assures
-5.574564	assuring
-6.000533	assyrians
-6.176624	astana
-5.699502	astronautical
-5.574564	astronomical
-5.632556	astronomy
-5.875594	asunción
-4.513866	asylum
-6.000533	asylum-seeker
-4.805556	asylum-seekers
-5.778684	asylum-seeking
-6.000533	asymmetries
-2.343381	at
-6.176624	at-large
-6.176624	at-risk
-6.176624	at-sea
-6.176624	atambua
-5.699502	athens
-5.523411	athletes
-6.176624	athletic
-4.706802	atlantic
-4.886589	atmosphere
-4.071114	atomic
-5.699502	atrocious
-5.331526	atrocities
-5.135231	attach
-4.770083	attached
-4.875594	attaches
-5.477654	attachment
-4.986292	attack
-5.778684	attacking
-4.192097	attacks
-4.95914	attain
-4.778684	attainable
-4.95914	attained
-4.875594	attaining
-4.585559	attainment
-6.477654	attainments
-4.86487	attempt
-5.875594	attempted
-5.436261	attempting
-5.273534	attempts
-4.753378	attend
-5.222381	attendance
-6.176624	attendant
-6.477654	attendants
-5.632556	attended
-4.972504	attending
-3.624564	attention
-6.176624	attentive
-5.875594	attenuate
-5.875594	attesting
-6.176624	attests
-5.155435	attitude
-4.805556	attitudes
-6.000533	attitudinal
-5.778684	attorneys
-5.000533	attract
-5.699502	attracted
-4.921351	attracting
-5.632556	attractive
-6.477654	attributability
-6.000533	attributable
-5.632556	attribute
-6.176624	attributed
-5.523411	attributes
-5.477654	attribution
-6.000533	attrition
-6.176624	au
-6.000533	audience
-4.986292	audiences
-6.176624	audio
-5.115926	audio-visual
-5.632556	audiovisual
-4.523411	audit
-4.95914	audited
-5.247205	auditing
-6.176624	auditor
-4.247205	auditors
-5.523411	audits
-5.398473	augment
-6.176624	augmentation
-5.875594	augmentative
-6.176624	augmented
-6.000533	augmenting
-3.644507	august
-5.04629	aung
-6.477654	auschwitz
-4.284529	auspices
-5.778684	austerity
-4.34732	australia
-4.157507	austria
-6.477654	austrian-swedish
-5.875594	aut
-5.273534	authentic
-6.000533	authentication
-6.000533	authenticity
-5.331526	author
-6.000533	authoritative
-3.799135	authorities
-3.770084	authority
-5.04629	authorization
-4.933586	authorize
-4.292963	authorized
-4.678313	authorizes
-5.477654	authorizing
-6.477654	authorship
-5.632556	autism
-5.523411	automated
-5.778684	automatic
-6.477654	automatically
-5.247205	autonomous
-5.097443	autonomy
-6.477654	autorité
-6.176624	autumn
-6.477654	auxiliaries
-6.477654	auxiliary
-4.921351	avail
-4.353802	availability
-3.571319	available
-6.000533	avena
-5.875594	avenues
-5.06268	average
-5.135231	avert
-6.477654	averting
-5.477654	avian
-5.699502	aviation
-6.477654	aviators
-4.19662	avoid
-5.523411	avoidance
-5.523411	avoided
-4.89787	avoiding
-6.477654	awaited
-5.778684	awaiting
-6.477654	awaits
-5.176624	award
-5.301563	awarded
-6.000533	awarding
-5.301563	awards
-3.873428	aware
-3.780424	awareness
-6.477654	awareness-
-6.477654	awareness-building
-5.155435	awareness-raising
-6.477654	awareness-training
-5.273534	away
-4.377283	azerbaijan
-5.875594	azeris
-6.477654	azores
-3.129934	b
-4.986292	b.
-4.608422	back
-6.477654	back-to-back
-6.477654	back-up
-6.477654	backdrop
-6.176624	backed
-4.761651	background
-4.86487	backgrounds
-5.000533	backlog
-5.477654	backstopping
-5.778684	backtracking
-6.477654	backup
-6.477654	backwardness
-4.787458	bacteriological
-6.477654	badawi
-5.574564	baghdad
-6.477654	baghlan
-5.097443	baha
-4.86487	bahamas
-6.477654	bahr
-6.176624	bahr-el-ghazal
-4.651579	bahrain
-6.176624	baie
-6.000533	bait
-6.000533	baker
-5.875594	baku
-4.117818	balance
-6.477654	balance-of-payments
-4.35708	balanced
-5.875594	balances
-5.523411	balancing
-4.972504	bali
-6.176624	balkan
-5.36371	balkans
-5.632556	ballast
-6.477654	ballesteros
-5.097443	ballistic
-5.477654	ballot
-5.875594	baltic
-5.778684	baluchis
-4.921351	bamako
-6.477654	bamian
-5.135231	ban
-5.875594	banding
-6.477654	bangalore
-4.569169	bangkok
-4.273534	bangladesh
-6.477654	bangui
-6.477654	banja
-5.699502	banjul
-3.956516	bank
-5.875594	bank-international
-4.946175	banking
-6.477654	bankrupt
-4.482018	banks
-4.875594	banning
-6.477654	banyuke
-6.477654	baptist
-5.778684	bar
-4.543155	barbados
-6.477654	barbarous
-4.632556	barbuda
-5.778684	barcelona
-6.477654	bargaining
-5.574564	barrier
-6.176624	barrier-free
-4.729466	barriers
-6.477654	bartered
-4.203496	base
-3.611367	based
-6.176624	basel
-5.574564	baseline
-6.176624	baselines
-5.477654	bases
-3.926204	basic
-5.36371	basin
-6.477654	basing
-3.246184	basis
-5.632556	bata
-6.477654	battering
-6.000533	battle
-6.477654	batumi
-2.678244	be
-5.574564	beach
-4.44423	bear
-6.176624	bearer
-3.398111	bearing
-6.000533	bears
-6.176624	beating
-6.176624	beatings
-5.398473	became
-4.638805	because
-3.947454	become
-4.886589	becomes
-4.249767	becoming
-6.176624	bed
-6.176624	bednets
-6.000533	bedrock
-6.176624	beds
-6.477654	beef
-3.502222	been
-6.477654	befitting
-3.921351	before
-6.176624	beforehand
-5.155435	began
-6.477654	begging
-4.89787	begin
-4.56384	beginning
-6.176624	begins
-5.331526	begun
-4.49993	behalf
-6.477654	behave
-4.886589	behaviour
-6.477654	behavioural
-6.176624	behaviours
-5.436261	behind
-3.957826	beijing
-3.648994	being
-4.409468	beings
-5.436261	beirut
-6.477654	beit
-4.26281	belarus
-5.632556	belarusian
-4.208141	belgium
-5.632556	belgrade
-3.936074	belief
-4.805556	beliefs
-5.398473	believe
-6.176624	believes
-4.608422	believing
-6.477654	belinga-eboutou
-4.440228	belize
-5.477654	belong
-6.477654	belonger
-4.292963	belonging
-5.875594	belongs
-4.805556	below
-5.477654	belts
-5.477654	benchmark
-5.015256	benchmarks
-4.685262	beneficial
-5.115926	beneficiaries
-5.222381	beneficiary
-4.001983	benefit
-5.301563	benefit-sharing
-5.301563	benefited
-5.04629	benefiting
-3.888822	benefits
-4.495383	benin
-5.331526	berlin
-4.854404	bermuda
-6.176624	bermudian
-6.477654	bernales
-6.477654	bernard
-6.176624	beset
-5.875594	besides
-3.941095	best
-6.000533	best-practice
-6.477654	best-qualified
-5.875594	bestowing
-5.1989	bethlehem
-3.89787	better
-6.176624	better-performing
-3.037848	between
-4.151318	beyond
-5.000533	bhutan
-6.477654	biambwe
-5.523411	bias
-5.778684	biased
-6.477654	biases
-6.000533	bibliographic
-5.875594	bid
-5.875594	bidding
-5.398473	bidirectional
-6.477654	bids
-4.533171	biennial
-5.699502	biennialization
-6.176624	biennialized
-6.477654	biennializing
-5.632556	biennially
-3.591163	biennium
-5.436261	bienniums
-5.875594	biggest
-6.176624	bigotry
-6.176624	biketawa
-3.803712	bilateral
-5.155435	bilaterally
-5.331526	bill
-6.477654	billing
-5.155435	billion
-6.176624	bills
-6.477654	bind
-4.44423	binding
-4.432331	biodiversity
-5.523411	biodiversity-related
-5.699502	bioethics
-6.477654	biofouling
-6.176624	biogeographic
-3.968451	biological
-6.176624	biologically
-5.778684	biomass
-4.796412	biosafety
-6.477654	biosphere
-6.176624	biotechnologies
-5.222381	biotechnology
-6.477654	biotic
-6.477654	birmingham
-4.770083	birth
-6.477654	birthday
-6.477654	birthplace
-5.699502	birthright
-6.477654	births
-5.632556	bis
-5.115926	bishkek
-6.176624	biwa
-6.477654	biweekly
-6.477654	biyongho
-4.553374	black
-6.176624	blacks
-6.477654	blancas
-6.477654	blank
-6.477654	blantyre
-5.875594	bleaching
-6.176624	bleak
-6.477654	blind
-5.632556	blinding
-6.477654	bliss
-5.523411	block
-6.000533	blocking
-6.176624	blocks
-6.176624	blood
-5.699502	blood-borne
-6.176624	blue
-6.000533	blueprint
-3.606665	board
-5.699502	boarding
-5.176624	boards
-6.477654	boat
-3.226259	bodies
-4.088488	body
-6.000533	bogotá
-6.477654	boisard
-6.477654	bolanga
-5.632556	bold
-5.015256	bolivarian
-4.585559	bolivia
-6.477654	bomb
-5.574564	bombardment
-6.176624	bombardments
-6.176624	bombers
-5.632556	bombing
-5.1989	bombings
-6.477654	bomblets
-6.477654	bombs
-5.632556	bona
-5.632556	bond
-6.477654	bond-issuing
-5.699502	bondage
-6.477654	bonded
-5.699502	bonds
-6.477654	boniface
-4.59684	bonn
-6.477654	bonnici
-6.477654	bono
-5.875594	bonus
-5.079714	booby
-6.176624	book
-6.477654	bookkeeping
-5.135231	books
-6.176624	bookstores
-6.477654	booms
-5.699502	boost
-6.477654	boosting
-6.477654	booth
-6.477654	bordeaux
-4.692324	border
-5.632556	bordering
-5.875594	borderline
-4.585559	borders
-4.875594	born
-4.721779	borne
-6.176624	borrow
-6.477654	borrower
-6.477654	borrowers
-4.814896	borrowing
-6.176624	borrowings
-4.092048	bosnia
-5.875594	bosnian
-3.575651	both
-4.737291	botswana
-6.477654	bottlenecks
-5.176624	bottom
-5.632556	bottom-up
-6.000533	bougainville
-6.477654	bought
-4.721779	bound
-5.523411	boundaries
-5.632556	boundary
-5.778684	bounds
-6.477654	boycott
-4.513866	boys
-5.778684	braille
-6.477654	brain
-4.95914	branch
-6.477654	branco
-5.778684	brasilia
-4.237104	brazil
-5.398473	brazzaville
-6.000533	brcko
-4.678313	breach
-5.699502	breached
-4.986292	breaches
-6.477654	breadth
-5.778684	break
-6.000533	breakdown
-5.477654	breaking
-6.477654	breakthrough
-5.778684	breastfeeding
-6.477654	breeding
-4.37385	bretton
-5.030496	bribery
-6.176624	bribes
-5.875594	brides
-5.301563	bridge
-5.778684	bridges
-4.921351	bridging
-5.477654	brief
-6.477654	briefed
-5.331526	briefing
-5.875594	briefings
-4.972504	brindisi
-3.946175	bring
-4.469054	bringing
-5.398473	brings
-4.129349	britain
-4.824441	british
-4.340933	broad
-6.477654	broad-banding
-4.706802	broad-based
-6.176624	broadcast
-4.972504	broadcasters
-4.834201	broadcasting
-6.477654	broadcasts
-4.699502	broaden
-6.477654	broadened
-4.89787	broadening
-4.721779	broader
-5.301563	broadest
-4.986292	broadly
-6.176624	broken
-5.301563	brokering
-5.875594	brotherhood
-4.398473	brought
-6.477654	brovina
-4.65811	brunei
-5.699502	brunt
-4.513866	brussels
-5.523411	brutal
-5.301563	bucharest
-3.495383	budget
-6.477654	budget-cutting
-3.721018	budgetary
-6.000533	budgeted
-4.95914	budgeting
-4.796412	budgets
-5.273534	buenos
-6.176624	bug
-6.477654	bugobe
-4.125471	build
-5.574564	build-up
-3.987695	building
-6.477654	building-block
-5.1989	buildings
-5.523411	builds
-5.436261	built
-5.574564	bujumbura
-4.402107	bulgaria
-5.436261	bulk
-5.523411	bulletin
-6.477654	bulletins
-5.875594	bullying
-6.477654	bunia
-6.477654	bunyatenge
-4.46062	burden
-5.030496	burden-
-4.86487	burden-sharing
-6.477654	burdening
-4.753378	burdens
-4.986292	bureau
-6.176624	bureaucracy
-5.574564	bureaucratic
-5.000533	bureaux
-4.509171	burkina
-6.000533	burning
-4.56384	burundi
-6.000533	busan
-6.000533	bush
-6.477654	bush-gorbachev
-4.210482	business
-5.155435	businesses
-6.176624	businessmen
-4.022809	but
-6.477654	buyers
-6.000533	buyout
-2.241822	by
-4.699502	by-catch
-6.477654	by-laws
-6.477654	byelorussian
-6.477654	bypass
-6.477654	bávaro
-3.408356	c
-5.36371	c.
-6.176624	c.5
-5.875594	cabinet
-6.176624	cadre
-4.909452	caicos
-5.155435	cairo
-6.176624	calamities
-5.000533	calculated
-6.477654	calculating
-5.36371	calculation
-6.000533	calculations
-4.163786	caledonia
-5.574564	caledonian
-5.875594	caledonians
-4.706802	calendar
-6.477654	calendars
-4.030496	call
-4.07282	called
-4.469054	calling
-2.910745	calls
-4.004898	cambodia
-5.222381	cambodian
-6.477654	cambodians
-5.523411	came
-6.477654	camera
-4.56384	cameroon
-6.000533	cameroon-nigeria
-6.477654	caminos
-5.301563	camp
-4.543155	campaign
-6.000533	campaigning
-4.440228	campaigns
-4.805556	camps
-6.176624	campuses
-3.54114	can
-4.151318	canada
-6.477654	canberra
-5.398473	cancel
-4.787458	cancellation
-6.000533	cancellations
-6.176624	cancelled
-6.477654	cancelling
-6.176624	cancer
-6.477654	cancun
-5.875594	cancún
-5.398473	candidate
-4.360383	candidates
-6.176624	candidature
-6.477654	candidatures
-5.155435	cannabis
-6.477654	cannibalism
-4.513866	cannot
-5.398473	canouan
-6.176624	cantonal
-6.477654	cantonization
-6.477654	cantonment
-6.477654	cap
-4.1989	capabilities
-5.06268	capability
-4.834201	capable
-3.901312	capacities
-3.472903	capacity
-6.176624	capacity-
-3.795509	capacity-building
-6.176624	capacity-development
-4.436261	cape
-5.247205	capita
-4.07798	capital
-6.477654	capital-account
-5.699502	capitalize
-6.176624	capitals
-6.477654	captivity
-6.477654	captors
-5.247205	capture
-6.477654	capturing
-6.176624	caracas
-6.477654	carbon
-6.176624	card
-5.273534	cards
-3.984893	care
-5.875594	cared
-5.097443	career
-6.477654	career-development
-5.875594	careful
-5.135231	carefully
-5.247205	caregivers
-6.477654	caretakers
-5.477654	cargo
-6.477654	cargoes
-3.665409	caribbean
-5.699502	caribbean-focused
-6.176624	caring
-6.176624	carnegie
-6.477654	carolina
-5.778684	carpathians
-6.477654	carrefour-feuilles
-6.000533	carriage
-4.019772	carried
-5.778684	carriers
-5.398473	carries
-4.000533	carry
-4.180989	carrying
-4.608422	cartagena
-6.477654	cartegena
-6.176624	cartographic
-6.477654	cartography
-4.14724	case
-4.585559	case-by-case
-6.477654	caseload
-4.010786	cases
-4.753378	cash
-6.477654	cash-flow
-6.477654	caspian
-5.778684	cast
-6.477654	castelo
-6.477654	castries
-4.886589	casualties
-6.000533	casualty
-6.000533	catalogue
-6.176624	catalogues
-5.699502	cataloguing
-6.477654	catalonia
-6.477654	catalysed
-5.699502	catalysing
-5.632556	catalyst
-5.015256	catalytic
-5.135231	catastrophe
-5.436261	catastrophes
-5.247205	catastrophic
-4.875594	catch
-5.301563	catches
-4.504526	categories
-6.477654	categorize
-5.097443	category
-5.574564	catering
-6.477654	cattle
-6.176624	caucasus
-5.523411	caught
-4.523411	cause
-4.201192	caused
-3.973863	causes
-4.986292	causing
-6.176624	caution
-6.477654	cautiously
-4.824441	cayman
-5.699502	caymanian
-5.436261	cd
-4.391294	cease
-5.523411	ceased
-4.591163	ceasefire
-6.477654	ceasefires
-5.222381	ceases
-5.523411	ceiling
-6.477654	ceilings
-5.222381	celebrate
-5.632556	celebrated
-6.000533	celebrating
-5.015256	celebration
-6.477654	celebrations
-6.176624	celebrities
-4.95914	celestial
-6.176624	censorship
-5.523411	census
-5.699502	censuses
-3.972504	cent
-6.477654	centennial
-3.496288	central
-5.699502	centrality
-6.477654	centralization
-6.477654	centralizing
-6.176624	centrally
-3.546705	centre
-3.811136	centres
-6.477654	centuries
-4.239608	century
-6.176624	ceremonial
-5.574564	ceremonies
-6.000533	ceremony
-4.049519	certain
-5.398473	certainty
-5.06268	certificate
-5.523411	certificates
-4.509171	certification
-5.477654	certified
-5.398473	certifies
-6.477654	certifying
-4.651579	cessation
-6.000533	cetaceans
-4.714226	chad
-5.36371	chain
-5.875594	chains
-4.796412	chair
-5.247205	chaired
-5.247205	chairing
-4.337775	chairman
-5.574564	chairman-designate
-5.436261	chairman-in-office
-5.36371	chairmanship
-5.778684	chairmen
-4.921351	chairperson
-6.176624	chairperson-designate
-6.477654	chairperson-in-office
-6.477654	chairperson-rapporteur
-5.301563	chairpersons
-6.477654	chairs
-4.44423	challenge
-6.000533	challenged
-3.739666	challenges
-6.477654	challenging
-5.331526	chamber
-4.946175	chambers
-4.770083	chamorro
-5.574564	chamorros
-5.778684	chance
-3.964436	change
-5.632556	changed
-4.212836	changes
-4.678313	changing
-5.135231	channel
-6.176624	channelled
-5.875594	channelling
-4.875594	channels
-6.477654	chap
-3.921351	chapter
-5.247205	chapters
-4.07282	character
-6.477654	characteristic
-4.761651	characteristics
-5.875594	characterization
-5.875594	characterize
-5.436261	characterized
-6.477654	characterizes
-4.834201	charge
-5.875594	chargeable
-4.933586	charged
-5.135231	charges
-5.875594	charging
-6.477654	chargé
-6.000533	charitable
-6.176624	charlotte
-6.176624	chart
-3.231401	charter
-6.176624	charterers
-5.273534	charters
-5.477654	charting
-5.015256	charts
-6.477654	cheaper
-6.176624	chechen
-6.477654	check
-6.176624	checklist
-5.36371	checkpoints
-6.176624	checks
-4.168024	chemical
-4.805556	chemicals
-6.477654	chemoprophylaxis
-6.000533	cherished
-5.574564	cherishing
-4.456464	chernobyl
-5.699502	chernobyl-related
-4.337775	chief
-6.000533	chiefs
-3.409097	child
-5.875594	child-
-6.477654	child-care
-5.778684	child-centred
-6.000533	child-focused
-6.477654	child-friendly
-6.000533	child-headed
-6.477654	child-led
-6.176624	child-oriented
-5.875594	child-protection
-6.477654	child-rearing
-6.477654	child-related
-6.477654	child-sensitive
-6.477654	child-suitable
-6.477654	child-targeted
-5.699502	childbearing
-5.523411	childcare
-5.247205	childhood
-3.128376	children
-5.875594	children-to-children
-4.268139	chile
-4.380744	china
-5.778684	china-africa
-6.477654	china-middle
-5.331526	chinese
-6.477654	chisinau
-6.477654	cho
-5.222381	choice
-5.1989	choices
-4.946175	choose
-6.477654	chooses
-5.523411	choosing
-5.115926	chosen
-6.477654	christ
-5.778684	christian
-6.477654	christian-muslim
-5.523411	christianophobia
-5.36371	christians
-6.477654	christmas
-5.398473	chronic
-5.875594	chronically
-5.436261	chronicle
-6.000533	church
-5.875594	churches
-6.477654	cidaho
-6.477654	cinemas
-5.36371	circles
-5.699502	circular
-4.721779	circulate
-5.477654	circulated
-6.477654	circulating
-4.56384	circulation
-6.477654	circumcision
-5.699502	circumstance
-4.007832	circumstances
-6.176624	citations
-6.477654	cited
-4.533171	cities
-5.632556	citizen
-6.477654	citizenry
-4.402107	citizens
-5.079714	citizenship
-4.44423	city
-5.273534	civic
-6.477654	civics
-3.35511	civil
-5.875594	civil-military
-3.83618	civilian
-4.219975	civilians
-4.796412	civilization
-5.699502	civilizational
-3.956516	civilizations
-6.477654	cl
-4.933586	claim
-5.398473	claimant
-6.000533	claimed
-5.699502	claiming
-4.933586	claims
-5.699502	clandestine
-5.222381	clarification
-6.477654	clarifications
-6.176624	clarified
-4.95914	clarify
-5.06268	clarifying
-5.632556	clarity
-5.778684	clashes
-6.477654	class
-6.477654	classes
-5.875594	classification
-5.875594	classifications
-5.574564	classified
-6.176624	classroom
-5.699502	clause
-5.36371	clauses
-5.523411	clean
-6.176624	clean-out
-5.778684	clean-up
-5.574564	cleaner
-5.632556	cleansing
-4.469054	clear
-4.875594	clearance
-6.477654	cleared
-5.273534	clearer
-5.699502	clearing
-6.477654	clearing-house
-4.706802	clearly
-6.477654	clerical
-5.875594	clerics
-6.477654	clerk
-5.699502	client
-5.875594	client-oriented
-6.477654	clientele
-5.778684	clients
-3.955209	climate
-6.176624	climate-study
-6.000533	climatic
-6.477654	clinic
-5.875594	clinical
-6.477654	clinics
-5.875594	clinton
-5.778684	cloning
-3.899015	close
-5.222381	closed
-4.15959	closely
-4.424575	closer
-5.778684	closest
-5.477654	closing
-4.844185	closure
-5.632556	closures
-5.574564	clothing
-5.079714	club
-5.778684	clubs
-5.015256	cluster
-6.477654	clustered
-6.176624	clustering
-5.247205	clusters
-5.398473	cm
-6.477654	co-chaired
-5.632556	co-chairmen
-5.574564	co-chairpersons
-6.176624	co-financing
-6.176624	co-hosted
-6.477654	co-lead
-5.875594	co-location
-6.477654	co-organized
-5.875594	co-publishing
-6.477654	co-sponsor
-6.477654	co-sponsored
-6.000533	co-sponsoring
-5.36371	co-sponsors
-6.477654	co-sponsorship
-6.477654	co2
-5.115926	coalition
-6.477654	coalitions
-5.699502	coast
-4.172302	coastal
-5.875594	coastline
-5.523411	cobalt-rich
-6.000533	coca
-6.176624	cocaine
-4.219975	code
-4.946175	codes
-4.787458	codification
-5.477654	codified
-6.477654	codify
-6.477654	coding
-5.36371	coerce
-5.699502	coerced
-6.477654	coerces
-6.477654	coercing
-4.814896	coercion
-4.313301	coercive
-5.436261	coexistence
-6.176624	cognitive
-5.778684	cognizance
-4.814896	cognizant
-4.322318	coherence
-4.436261	coherent
-6.477654	coherently
-5.36371	cohesion
-5.875594	cohesive
-5.875594	coincide
-5.097443	cold
-4.638805	collaborate
-6.176624	collaborating
-3.878863	collaboration
-6.477654	collaborations
-4.632556	collaborative
-6.477654	collaboratively
-6.176624	collaborators
-5.632556	collapse
-5.273534	collate
-6.000533	collateral
-6.477654	collating
-5.875594	collation
-4.608422	collect
-5.477654	collected
-4.692324	collecting
-4.331526	collection
-5.778684	collections
-4.316286	collective
-4.74526	collectively
-4.95914	college
-6.176624	collegial
-5.574564	collisions
-5.778684	cologne
-4.319291	colombia
-3.934828	colonial
-4.313301	colonialism
-6.477654	colonization
-6.176624	colony
-4.796412	colour
-5.632556	column
-3.602592	combat
-5.176624	combatants
-6.000533	combated
-3.808337	combating
-5.030496	combination
-6.176624	combinations
-5.301563	combine
-5.875594	combined
-6.000533	combines
-6.176624	combining
-4.933586	come
-5.301563	comes
-5.36371	coming
-5.477654	command
-6.477654	command-control
-5.699502	commander
-6.477654	commanders
-5.155435	commemorate
-5.477654	commemorated
-6.477654	commemorates
-5.875594	commemorating
-4.89787	commemoration
-6.477654	commemorations
-5.436261	commemorative
-4.608422	commence
-5.523411	commenced
-4.645145	commencement
-6.477654	commences
-4.89787	commencing
-6.000533	commend
-5.36371	commendable
-6.477654	commended
-4.452348	commending
-3.877771	commends
-4.580027	commensurate
-6.477654	commensurately
-4.933586	comment
-6.176624	commentaries
-6.000533	commentary
-4.189852	comments
-5.04629	commerce
-4.232141	commercial
-5.875594	commercialization
-5.699502	commercialized
-2.897299	commission
-5.699502	commissioned
-3.371463	commissioner
-4.456464	commissioner-general
-6.000533	commissioners
-6.477654	commissioning
-4.019772	commissions
-4.428436	commit
-3.469054	commitment
-3.611958	commitments
-5.875594	commits
-3.704599	committed
-2.636733	committee
-5.875594	committee-related
-4.301563	committees
-5.436261	committing
-4.538135	commodities
-4.464817	commodity
-4.854404	commodity-dependent
-6.477654	commodity-exporting
-6.176624	commodity-processing
-6.477654	commodity-related
-6.477654	commodity-specific
-3.64835	common
-5.875594	commonalities
-6.477654	commonality
-5.778684	commonly
-4.753378	commonwealth
-5.436261	communal
-6.000533	commune
-6.477654	communes
-5.247205	communicable
-4.706802	communicate
-5.331526	communicated
-5.574564	communicating
-3.805556	communication
-3.943628	communications
-6.176624	communications-based
-4.986292	communiqué
-6.000533	communiqués
-3.990515	communities
-3.106401	community
-4.651579	community-based
-6.477654	community-driven
-5.699502	community-level
-6.000533	community-related
-6.000533	commutation
-6.477654	commutations
-6.176624	commuted
-6.477654	comorian
-4.360383	comoros
-4.886589	compact
-5.875594	compacts
-4.770083	companies
-6.176624	companion
-5.273534	company
-6.176624	comparability
-4.796412	comparable
-5.06268	comparative
-5.1989	comparator
-6.477654	comparators
-6.477654	compare
-5.097443	compared
-6.477654	comparing
-5.574564	comparison
-6.477654	comparisons
-6.477654	compassion
-6.477654	compassionate
-5.301563	compatibility
-5.06268	compatible
-6.477654	compelled
-5.875594	compelling
-5.875594	compendium
-5.36371	compensate
-6.176624	compensated
-6.477654	compensating
-4.46062	compensation
-5.875594	compensatory
-5.778684	compete
-4.194353	competence
-5.778684	competencies
-6.176624	competency
-3.983499	competent
-5.331526	competing
-5.176624	competition
-6.176624	competitions
-4.89787	competitive
-4.86487	competitiveness
-5.04629	compilation
-5.079714	compile
-6.000533	compiled
-6.477654	compiles
-5.477654	compiling
-6.000533	complacency
-6.176624	complainant
-5.574564	complainants
-5.398473	complaint
-6.477654	complaint-handling
-5.030496	complaints
-4.464817	complement
-4.95914	complementarities
-4.664741	complementarity
-4.651579	complementary
-5.097443	complemented
-5.273534	complementing
-5.36371	complements
-3.934828	complete
-4.86487	completed
-5.301563	completely
-5.523411	completeness
-6.176624	completes
-5.04629	completing
-4.229681	completion
-4.44827	complex
-5.574564	complexities
-5.135231	complexity
-3.770936	compliance
-6.000533	complications
-5.436261	complied
-5.273534	complies
-6.477654	compliments
-4.059352	comply
-5.247205	complying
-4.626395	component
-4.424575	components
-5.155435	composed
-6.477654	composite
-4.436261	composition
-6.176624	compound
-5.574564	compounded
-3.366055	comprehensive
-4.886589	comprehensively
-6.000533	comprehensiveness
-5.436261	comprise
-5.523411	comprised
-6.176624	comprises
-5.135231	comprising
-5.778684	compromise
-5.301563	compromised
-5.632556	compromising
-5.875594	compulsion
-6.477654	compulsorily
-4.946175	compulsory
-5.875594	computation
-5.875594	computational
-5.273534	computer
-6.000533	computer-assisted
-6.477654	computer-mediated
-5.523411	computer-related
-6.477654	computerized
-5.699502	computerizing
-5.875594	computers
-6.176624	computing
-5.436261	conakry
-5.477654	conceal
-6.176624	concealed
-5.875594	concealing
-5.477654	concealment
-6.477654	conceived
-5.36371	concentrate
-5.36371	concentrated
-5.699502	concentrating
-5.331526	concentration
-6.000533	concentrations
-6.477654	concepción
-4.638805	concept
-5.778684	conception
-4.805556	concepts
-6.000533	conceptual
-6.176624	conceptualization
-3.268675	concern
-3.248484	concerned
-3.534654	concerning
-4.093838	concerns
-5.875594	concert
-4.486428	concerted
-5.699502	concession
-5.030496	concessional
-6.000533	concessionary
-6.000533	concessions
-5.699502	conciliate
-4.394868	conciliation
-5.015256	conciliator
-5.222381	conciliators
-5.301563	concise
-4.49993	conclude
-4.528264	concluded
-5.398473	concludes
-4.495383	concluding
-4.052772	conclusion
-3.861704	conclusions
-6.477654	conclusive
-6.477654	concomitant
-6.176624	concordance
-3.884368	concrete
-6.477654	concretely
-4.95914	concurrence
-6.176624	concurrent
-5.632556	concurrently
-5.523411	concurring
-5.04629	concurs
-5.079714	condemn
-5.523411	condemnable
-4.796412	condemnation
-5.097443	condemned
-4.95914	condemning
-4.1659	condemns
-4.59684	condition
-5.331526	conditional
-6.477654	conditionalities
-5.875594	conditioned
-3.523411	conditions
-5.523411	condolences
-6.176624	condoms
-6.176624	condone
-5.36371	condoned
-4.254937	conducive
-3.850288	conduct
-4.394868	conducted
-4.509171	conducting
-6.176624	conducts
-6.477654	conduit
-6.477654	conf.157
-5.875594	confederation
-6.477654	confer
-2.879739	conference
-6.176624	conference-european
-4.972504	conference-servicing
-3.585559	conferences
-5.398473	conferred
-6.477654	conferring
-6.176624	confers
-4.523411	confidence
-5.398473	confidence-
-4.025867	confidence-building
-6.477654	confident
-5.015256	confidential
-5.135231	confidentiality
-6.000533	confidentially
-6.176624	configurations
-6.000533	confined
-5.875594	confinement
-6.176624	confirm
-5.398473	confirmation
-6.176624	confirmations
-4.875594	confirmed
-5.273534	confirming
-5.273534	confirms
-5.097443	confiscated
-4.585559	confiscation
-3.430379	conflict
-6.176624	conflict-free
-6.477654	conflict-of-laws
-6.000533	conflict-resolution
-6.000533	conflicting
-3.903623	conflicts
-5.778684	confluence
-5.477654	conform
-3.830271	conformity
-6.000533	confront
-6.176624	confrontation
-6.477654	confrontational
-6.477654	confrontations
-5.04629	confronted
-5.273534	confronting
-3.759152	congo
-6.477654	congo-rwanda-uganda
-5.135231	congolese
-5.247205	congratulates
-6.176624	congratulating
-6.176624	congratulations
-4.172302	congress
-4.886589	congresses
-5.699502	congruent
-4.638805	conjunction
-6.176624	connect
-5.155435	connected
-5.778684	connecting
-4.066034	connection
-5.699502	connections
-5.875594	connectivity
-6.477654	connotes
-4.528264	conscience
-6.176624	conscientious
-4.157507	conscious
-6.477654	consciously
-5.301563	consciousness
-5.875594	conscripting
-5.699502	conscription
-5.331526	consecutive
-5.523411	consensual
-3.984893	consensus
-5.523411	consensus-building
-4.518612	consent
-5.875594	consented
-6.000533	consents
-5.135231	consequence
-3.794607	consequences
-4.972504	consequent
-6.176624	consequential
-5.331526	consequently
-3.848244	conservation
-5.155435	conserve
-5.398473	conserving
-3.224316	consider
-4.59684	considerable
-5.699502	considerably
-3.388809	consideration
-4.651579	considerations
-3.520046	considered
-3.83618	considering
-4.334639	considers
-6.176624	consignment
-5.778684	consignments
-5.273534	consist
-4.721779	consistency
-3.709016	consistent
-5.247205	consistently
-4.787458	consisting
-4.331526	consolidate
-4.464817	consolidated
-4.574564	consolidating
-4.229681	consolidation
-6.477654	consortia
-5.574564	consortium
-6.176624	conspiracy
-5.632556	constant
-6.477654	constantly
-6.477654	constituencies
-6.477654	constituency
-5.155435	constituent
-4.05605	constitute
-4.986292	constituted
-4.239608	constitutes
-5.079714	constituting
-4.367064	constitution
-6.176624	constitution-drafting
-4.145216	constitutional
-6.000533	constitutionally
-6.477654	constitutions
-5.273534	constitutive
-6.477654	constrain
-5.247205	constrained
-5.875594	constraining
-6.477654	constrains
-5.398473	constraint
-4.44827	constraints
-5.875594	construct
-5.436261	constructed
-6.176624	constructing
-4.290133	construction
-6.477654	construction-in-progress
-4.237104	constructive
-5.176624	constructively
-5.574564	construed
-4.44827	consular
-6.477654	consulate-general
-4.452348	consult
-5.398473	consultancy
-5.875594	consultant
-5.000533	consultants
-3.810201	consultation
-3.852341	consultations
-4.036745	consultative
-4.946175	consulting
-5.778684	consumer
-5.523411	consumers
-4.886589	consumption
-4.946175	contact
-6.477654	contacting
-4.645145	contacts
-5.331526	contagion
-5.875594	contagious
-4.753378	contain
-3.282308	contained
-6.000533	container
-4.117818	containing
-5.778684	containment
-4.706802	contains
-6.477654	contaminants
-6.000533	contamination
-5.436261	contemplated
-4.469054	contemporary
-6.000533	contempt
-4.59684	content
-5.398473	content-providing
-5.301563	contentious
-5.115926	contents
-6.176624	contested
-3.305343	context
-5.273534	contexts
-5.632556	contiguity
-6.477654	contiguous
-4.778684	continent
-4.533171	continental
-6.477654	continents
-4.761651	contingency
-5.523411	contingent
-6.477654	contingent-owned
-5.875594	contingents
-6.477654	continual
-6.000533	continually
-5.778684	continuance
-4.239608	continuation
-2.826764	continue
-3.519568	continued
-4.112166	continues
-3.490435	continuing
-4.972504	continuity
-4.328434	continuous
-5.1989	continuously
-6.000533	continuum
-6.477654	contraband
-6.477654	contraceptive
-4.413196	contract
-6.000533	contracted
-4.469054	contracting
-5.875594	contraction
-6.176624	contractor
-5.436261	contractors
-4.737291	contracts
-4.972504	contractual
-6.477654	contradiction
-5.875594	contradictory
-4.29581	contrary
-5.436261	contravene
-6.477654	contravenes
-5.398473	contravention
-3.417334	contribute
-4.452348	contributed
-4.278997	contributes
-4.123545	contributing
-3.547214	contribution
-3.348932	contributions
-6.000533	contributor
-4.814896	contributors
-5.778684	contributory
-3.46062	control
-6.477654	control-related
-5.36371	controlled
-5.477654	controlling
-4.737291	controls
-6.477654	convalescent
-4.212836	convene
-4.452348	convened
-6.176624	convenes
-5.875594	convenience
-3.997647	convening
-6.477654	convenor
-2.707981	convention
-4.074533	conventional
-3.83618	conventions
-6.477654	conventiony
-6.477654	converge
-6.477654	converged
-5.36371	convergence
-6.477654	conversant
-5.015256	conversion
-5.875594	conversions
-5.875594	convert
-5.699502	converted
-5.875594	convertibility
-5.632556	convey
-6.477654	conveyances
-6.000533	conveys
-5.273534	convicted
-4.523411	conviction
-5.778684	convictions
-5.699502	convince
-3.710498	convinced
-6.477654	convoked
-5.632556	convoys
-6.477654	coomaraswamy
-3.562782	cooperate
-5.699502	cooperated
-4.972504	cooperating
-2.689203	cooperation
-4.380744	cooperative
-5.331526	cooperatively
-4.569169	cooperatives
-4.212836	coordinate
-3.972504	coordinated
-5.436261	coordinates
-4.244658	coordinating
-3.285644	coordination
-4.215203	coordinator
-4.834201	coordinators
-6.477654	cop.5
-6.000533	cop.6
-6.477654	cop.8
-4.805556	cope
-4.558576	copenhagen
-5.04629	copies
-5.273534	coping
-5.36371	copy
-6.477654	copyright
-4.714226	coral
-5.273534	corals
-4.187619	core
-6.477654	corner
-5.523411	corners
-4.89787	cornerstone
-6.477654	cornerstones
-5.574564	corollary
-5.523411	corporal
-4.59684	corporate
-6.477654	corporation
-5.1989	corporations
-6.176624	corporeal
-5.778684	corps
-6.000533	corpus
-4.249767	corr.1
-5.04629	corr.1-3
-6.176624	corr.2
-5.247205	correct
-6.477654	corrected
-5.632556	correcting
-6.477654	correction
-5.875594	correctional
-5.875594	corrective
-6.176624	correlation
-5.398473	correspond
-6.176624	correspondence
-6.000533	correspondent
-5.523411	correspondents
-4.778684	corresponding
-6.000533	corresponds
-5.875594	corridor
-6.477654	corridor-europe-caucasus-asia
-5.778684	corridors
-6.477654	corrigendum
-6.477654	corrosive
-4.671474	corrupt
-6.477654	corrupted
-3.811136	corruption
-6.176624	corruption-related
-4.35708	cost
-5.875594	cost-benefit
-4.65811	cost-effective
-5.875594	cost-effectively
-5.222381	cost-effectiveness
-6.477654	cost-efficient
-5.875594	cost-neutral
-5.632556	cost-of-living
-5.574564	cost-saving
-6.477654	cost-shared
-5.176624	cost-sharing
-4.360383	costa
-6.176624	costing
-6.477654	costly
-4.064354	costs
-5.273534	cotonou
-6.000533	cotton
-3.857518	could
-2.961648	council
-6.176624	councillors
-5.436261	councils
-4.946175	counsel
-4.805556	counselling
-6.176624	count
-5.699502	counted
-4.316286	counter
-6.477654	counter-cyclical
-6.477654	counter-kidnapping
-4.972504	counter-narcotics
-4.428436	counter-terrorism
-5.523411	counteract
-6.000533	counterclaim
-6.477654	counterclaims
-5.875594	counterfeit
-4.387749	countering
-6.477654	countermeasure
-5.155435	countermeasures
-5.778684	counterpart
-5.36371	counterparts
-6.477654	counterproductive
-6.176624	countersigned
-5.778684	countervailing
-5.699502	countless
-2.59201	countries
-3.45399	country
-5.875594	country-driven
-5.699502	country-led
-4.86487	country-level
-6.176624	country-owned
-5.155435	country-specific
-6.000533	counts
-6.176624	coup
-6.477654	couple
-5.477654	coupled
-5.398473	courage
-5.574564	courageous
-6.477654	courageously
-4.405772	course
-4.495383	courses
-3.668768	court
-6.477654	courtesies
-4.834201	courts
-3.863812	covenant
-4.244658	covenants
-4.875594	cover
-6.176624	cover-up
-4.933586	coverage
-4.340933	covered
-4.486428	covering
-5.699502	covers
-5.632556	covert
-6.477654	cozumel
-5.778684	crackdowns
-6.000533	craft
-6.477654	crashes
-4.016756	create
-4.620321	created
-5.222381	creates
-4.229681	creating
-4.024335	creation
-5.06268	creative
-6.176624	creativity
-4.89787	credentials
-5.632556	credibility
-4.834201	credible
-4.678313	credit
-6.477654	credit-rating
-5.398473	credited
-5.115926	creditor
-4.685262	creditors
-5.030496	credits
-6.477654	creole
-4.814896	crescent
-3.29098	crime
-3.866994	crimes
-3.387043	criminal
-5.1989	criminality
-5.331526	criminalization
-5.115926	criminalize
-5.875594	criminalizing
-6.176624	criminally
-5.875594	criminals
-4.645145	crises
-4.135231	crisis
-6.000533	crisis-prone
-6.477654	cristián
-4.384232	criteria
-6.176624	criterion
-4.022809	critical
-5.778684	critically
-6.477654	criticism
-6.477654	criticisms
-4.301563	croatia
-6.176624	croats
-6.477654	croix
-6.477654	croker
-4.834201	crop
-4.787458	crops
-4.232141	cross
-5.301563	cross-border
-4.86487	cross-cutting
-6.176624	cross-fertilization
-6.477654	cross-purposes
-6.477654	cross-reference
-6.000533	cross-regional
-6.176624	cross-section
-5.331526	cross-sectoral
-5.574564	crossing
-5.632556	crossings
-6.477654	crossroads
-4.394868	crucial
-4.025867	cruel
-6.477654	cruelest
-6.477654	cruellest
-5.523411	crusts
-6.477654	cruz
-6.477654	crystallizing
-4.229681	cuba
-5.331526	cuban
-6.176624	culminated
-6.176624	culminating
-5.778684	cultivate
-4.614331	cultivation
-3.256762	cultural
-6.477654	culturally
-3.754198	culture
-4.153371	cultures
-6.477654	cumulative
-5.778684	cup
-6.477654	curable
-5.523411	curative
-4.95914	curb
-4.796412	curbing
-5.477654	curfews
-5.875594	curitiba
-5.632556	currencies
-5.015256	currency
-3.843177	current
-4.523411	currently
-5.155435	curricula
-5.875594	curriculum
-6.176624	curriculums
-6.000533	curtail
-6.176624	cusco
-6.477654	cushion
-6.477654	custodial
-4.737291	custody
-5.398473	custom
-4.814896	customary
-5.875594	customer
-5.574564	customers
-4.796412	customs
-6.176624	cut
-6.176624	cut-off
-5.632556	cuts
-6.477654	cyber-vulnerabilities
-5.778684	cybercrime
-6.477654	cybercrimes
-6.176624	cyberschoolbus
-5.097443	cybersecurity
-5.778684	cyberseek
-6.000533	cyberspace
-4.805556	cycle
-5.247205	cycles
-5.875594	cyclical
-5.875594	cyclone
-5.574564	cyclones
-4.247205	cyprus
-4.304468	czech
-4.416956	côte
-3.473763	d
-5.398473	d-1
-5.079714	d-2
-5.398473	d.
-4.651579	d.c.
-4.778684	dag
-5.06268	daily
-4.89787	dakar
-4.212836	damage
-5.301563	damaged
-5.778684	damages
-5.398473	damaging
-4.509171	danger
-4.770083	dangerous
-4.626395	dangers
-6.176624	danish
-5.699502	danube
-5.778684	dar
-5.331526	darfur
-4.65811	darussalam
-3.841166	data
-5.331526	data-collection
-6.477654	data-gathering
-6.477654	data-protection
-6.176624	databank
-6.477654	databanks
-4.770083	database
-4.972504	databases
-3.977967	date
-4.626395	dated
-5.030496	dates
-6.477654	dato
-6.477654	daunting
-5.477654	daw
-5.699502	dawn
-4.036745	day
-6.176624	day-to-day
-4.585559	days
-6.000533	dayton
-5.699502	ddt
-4.495383	de
-5.632556	de-alert
-6.176624	de-alerting
-6.477654	de-escalation
-6.176624	de-targeting
-5.632556	deactivate
-6.000533	dead
-5.273534	deadline
-5.36371	deadlines
-6.477654	deadlock
-5.632556	deadly
-6.000533	deaf
-6.477654	deafblind
-4.322318	deal
-6.000533	dealers
-4.334639	dealing
-6.176624	dealings
-5.398473	deals
-4.824441	dealt
-4.436261	death
-4.626395	deaths
-4.387749	debate
-6.477654	debated
-4.89787	debates
-6.477654	debating
-6.477654	debilitating
-4.402107	debris
-3.669443	debt
-6.176624	debt-burden
-6.477654	debt-equity
-6.000533	debt-for-sustainable-development
-6.000533	debt-management
-6.477654	debt-reduction
-5.778684	debt-relief
-5.875594	debt-service
-4.986292	debt-servicing
-6.176624	debt-sustainability
-6.176624	debt-tracking
-6.477654	debt-treatment
-6.176624	debt-work-out
-4.464817	debtor
-5.015256	debtors
-5.247205	debts
-5.436261	dec
-6.477654	dec.
-6.176624	dec.127
-6.477654	dec.141
-6.477654	dec.154
-5.699502	dec.155
-6.477654	dec.160
-6.000533	dec.165
-6.477654	dec.197
-6.477654	dec.215
-6.477654	dec.284
-6.477654	dec.319
-6.477654	dec.38
-6.477654	dec.46
-6.477654	dec.531
-6.477654	dec.598
-6.477654	dec.6
-6.477654	dec.667
-6.477654	dec.8
-3.604915	decade
-5.097443	decades
-6.477654	decay
-5.875594	deceased
-2.526851	december
-4.921351	decent
-5.477654	decentralization
-5.778684	decentralized
-6.477654	deception
-4.770083	decide
-4.141194	decided
-3.123545	decides
-5.222381	deciding
-3.417712	decision
-6.176624	decision-makers
-4.117818	decision-making
-3.687369	decisions
-5.222381	decisive
-6.477654	decisively
-6.477654	decl
-6.477654	decl.1
-6.477654	decl.4
-2.859187	declaration
-4.350549	declarations
-4.580027	declare
-4.495383	declared
-4.814896	declares
-5.247205	declaring
-5.015256	decline
-5.875594	declined
-5.778684	declines
-5.135231	declining
-6.477654	decolonisation
-4.049519	decolonization
-4.886589	decrease
-5.36371	decreased
-5.632556	decreasing
-5.36371	decree
-5.699502	decrees
-6.477654	decrying
-6.176624	dedere
-6.176624	dedicate
-5.000533	dedicated
-5.273534	dedication
-6.477654	deduct
-6.477654	deducted
-6.477654	deductibility
-5.030496	deem
-4.620321	deemed
-5.097443	deems
-3.881057	deep
-6.000533	deep-sea
-5.097443	deepen
-6.477654	deepened
-5.04629	deepening
-5.222381	deeper
-5.778684	deepest
-3.953907	deeply
-5.06268	defamation
-5.523411	default
-5.523411	defeat
-6.477654	defect
-4.456464	defence
-5.632556	defenceless
-5.176624	defences
-5.778684	defend
-5.875594	defendant
-6.176624	defendants
-4.287322	defenders
-5.115926	defending
-6.477654	defensive
-5.273534	defer
-6.477654	deferral
-5.436261	deferred
-5.574564	deficiencies
-5.699502	deficient
-6.000533	deficit
-6.477654	deficits
-5.222381	define
-4.34732	defined
-6.000533	defines
-5.030496	defining
-6.477654	definite
-4.721779	definition
-5.301563	definitions
-5.632556	definitive
-6.176624	definitively
-5.398473	deforestation
-6.000533	defray
-5.632556	defraying
-4.432331	degradation
-6.477654	degrade
-6.477654	degraded
-4.022809	degrading
-5.115926	degree
-6.000533	degrees
-6.477654	dehumanizing
-4.084957	delay
-6.477654	delayed
-6.477654	delaying
-5.222381	delays
-5.875594	delegate
-6.000533	delegated
-5.222381	delegates
-6.176624	delegating
-5.135231	delegation
-4.558576	delegations
-4.74526	delete
-6.176624	deleted
-5.699502	deleterious
-5.301563	delhi
-5.155435	deliberate
-5.331526	deliberately
-6.477654	deliberating
-5.632556	deliberation
-4.44423	deliberations
-5.477654	deliberative
-4.946175	delimitation
-5.331526	delineation
-6.176624	delinquency
-6.477654	delinquent
-5.030496	deliver
-5.176624	delivered
-6.176624	deliveries
-5.04629	delivering
-5.875594	delivers
-4.086719	delivery
-4.185398	demand
-5.632556	demand-driven
-5.247205	demanded
-6.477654	demanding
-4.452348	demands
-6.477654	dembri
-6.477654	demeanour
-5.699502	demilitarization
-5.097443	demining
-6.477654	demise
-4.504526	demobilization
-5.477654	demobilize
-5.523411	demobilized
-6.000533	demobilizing
-4.778684	democracies
-3.757494	democracy
-6.176624	democracy-goma
-6.477654	democracy-liberation
-3.477654	democratic
-6.000533	democratically
-4.585559	democratization
-5.097443	demographic
-6.477654	demolish
-5.875594	demolition
-5.574564	demonstrable
-5.000533	demonstrate
-5.000533	demonstrated
-5.875594	demonstrates
-5.699502	demonstrating
-5.436261	demonstration
-5.273534	demonstrations
-6.000533	demonstrators
-6.477654	demurrage
-4.706802	denial
-6.477654	denials
-5.273534	denied
-4.208141	denmark
-6.477654	denominate
-5.436261	denounce
-5.778684	denounced
-6.477654	denounces
-6.000533	densely
-6.176624	denuclearization
-5.778684	denuclearized
-4.933586	denunciation
-6.477654	denunciations
-5.222381	deny
-6.477654	denying
-6.477654	depart
-3.449489	department
-5.1989	departmental
-4.26281	departments
-6.477654	departs
-5.1989	departure
-6.477654	departures
-5.875594	depayin
-5.699502	depend
-6.000533	dependant
-5.436261	dependants
-5.699502	dependence
-5.36371	dependency
-4.933586	dependent
-5.699502	depending
