# Input file: fd 3
# Token count: 2933681
# Smoothing: Modified Kneser-Ney
\data\
ngram 1=17863

\1-grams:
-6.420247	<unk>
0	<s>
-1.6325573	</s>
-3.1834602	RESOLUTION
-3.1827989	55
-2.147854	/
-4.3850594	100
-3.159431	Adopted
-2.3461068	at
-1.0633863	the
-4.4616065	81st
-3.1342916	plenary
-2.981449	meeting
-1.2183759	,
-1.9363647	on
-2.9654012	4
-2.5268624	December
-3.0962203	2000
-3.2047071	recommendation
-1.2467332	of
-2.6445217	Committee
-2.3927643	(
-3.0106728	A
-4.936523	602
-4.110738	Add.2
-1.3502096	and
-4.250374	Corr.1
-3.2552588	para
-1.8714148	.
-4.4874744	94
-2.3927643	)
-2.242081	by
-2.1598878	a
-3.7265563	recorded
-3.142444	vote
-4.6663194	106
-1.4931141	to
-2.8065028	1
-2.1802268	with
-4.586875	67
-3.7719917	abstentions
-2.1909108	as
-3.713654	follows
-2.9806185	:
-4.7985525	Respect
-1.9779837	for
-3.178634	right
-3.6702783	universal
-3.7018511	freedom
-4.367859	travel
-4.2555513	vital
-2.9549797	importance
-4.0732236	family
-4.7312994	reunification
-2.8417919	The
-2.5608966	General
-2.5565522	Assembly
-3.2733264	Reaffirming
-2.109111	that
-2.3753655	all
-2.6770217	human
-2.6475296	rights
-3.3935194	fundamental
-3.5069518	freedoms
-2.8465385	are
-4.554596	indivisible
-4.44518	interdependent
-4.4293513	interrelated
-2.81172	Recalling
-3.238664	provisions
-3.927714	Universal
-2.8922198	Declaration
-2.9815874	Human
-2.9128973	Rights
-2.8616235	well
-3.3208733	article
-3.1676483	12
-2.7346332	International
-3.8640614	Covenant
-3.9634194	Civil
-3.8556843	Political
-3.7930202	Stressing
-4.2205415	stated
-1.6658258	in
-3.0286748	Programme
-3.127064	Action
-2.928925	Conference
-4.4371934	Population
-2.9292934	Development
-5.1204033	documented
-3.8791215	migrants
-2.8358066	is
-2.7592547	an
-3.4036555	important
-4.510274	factor
-2.4099967	international
-4.0402775	migration
-4.9622555	remittances
-2.441194	their
-2.6507523	countries
-3.8577635	origin
-4.514981	often
-4.056438	constitute
-4.659665	very
-4.5294166	source
-4.0339775	foreign
-3.8619518	exchange
-5.4456763	instrumental
-3.8661811	improving
-4.105176	well-being
-4.91223	relatives
-5.1399136	left
-5.4456763	behind
-2.1670718	its
-2.611026	resolution
-3.4219835	54
-4.5981903	169
-3.3674803	17
-3.3257437	1999
-4.9005747	Once
-4.090684	again
-3.3529005	calls
-2.8746433	upon
-2.3155746	States
-4.2769017	guarantee
-4.772097	universally
-4.011136	recognized
-4.296485	nationals
-4.5197396	legally
-5.4070954	residing
-3.8217819	territory
-1.9720594	;
-2.9139636	2
-3.3266628	Reaffirms
-3.1358705	Governments
-2.7938178	particular
-2.870868	those
-4.609809	receiving
-3.754392	must
-4.2452574	recognize
-3.1057065	promote
-4.91223	incorporation
-2.950699	into
-2.8501074	national
-3.8791215	legislation
-3.133898	order
-2.941757	ensure
-3.1632042	protection
-4.7985525	unity
-4.056438	families
-2.9543283	3
-3.105522	Calls
-4.1971574	allow
-3.8305016	conformity
-3.789444	free
-4.4216485	flow
-3.0804503	financial
-3.473434	country
-3.0865839	Also
-4.208692	refrain
-2.7123754	from
-4.9005747	enacting
-5.0838313	repeal
-3.8198676	if
-2.989842	it
-3.9464765	already
-4.653111	exists
-4.539314	intended
-4.3140035	coercive
-4.250374	measure
-5.901994	discriminates
-2.9618113	against
-3.9810505	individuals
-2.5316556	or
-3.5935588	groups
-3.4544985	legal
-4.4964514	adversely
-4.388582	affecting
-5.1204033	send
-5.716923	remittance
-3.0610526	5
-3.1998696	Decides
-2.8269808	continue
-3.3938775	consideration
-2.7758472	this
-3.544286	question
-3.817012	fifty-seventh
-2.6803334	session
-2.9421363	under
-3.4250505	item
-3.2107723	entitled
-2.6535432	"
-4.0531573	questions
-4.4574413	101
-4.715996	104
-3.6204636	52
-3.2319527	15
-3.5046349	purposes
-3.2987447	principles
-3.282373	contained
-3.2346742	Charter
-2.18669	United
-2.20719	Nations
-3.5757794	achieve
-2.7681494	cooperation
-3.3938775	promoting
-4.061406	encouraging
-3.1133347	respect
-4.817129	solving
-3.5907323	problems
-3.0924473	humanitarian
-4.0732236	character
-2.987307	accordance
-3.4790614	Article
-3.229003	56
-2.9460773	Member
-2.9267209	have
-4.659665	pledged
-4.0156093	themselves
-3.0851743	take
-3.99369	joint
-4.549442	separate
-3.2371635	action
-2.9421363	Organization
-3.6308444	achievement
-3.4363542	set
-4.0466695	forth
-2.528373	including
-3.985223	observance
-3.0998442	without
-4.4616065	distinction
-4.012622	race
-4.2741747	sex
-4.123999	language
-3.8011758	religion
-2.8768156	also
-5.003961	Preamble
-4.155923	determination
-4.4411683	reaffirm
-4.603961	faith
-4.012622	dignity
-5.253274	worth
-3.7930202	person
-3.665567	equal
-4.108876	men
-3.0489094	women
-4.0531573	nations
-4.164284	large
-3.6015723	small
-3.2706218	promotion
-2.6850686	be
-3.5201595	considered
-3.568224	priority
-3.805774	objective
-3.7227216	purpose
-3.0640583	within
-3.5046349	framework
-3.5958333	these
-4.2741747	legitimate
-3.2687385	concern
-3.18545	community
-4.030862	Considering
-3.6144714	major
-4.222951	changes
-3.2865484	taking
-3.8374069	place
-4.9757175	scene
-4.3480797	aspirations
-3.3928044	peoples
-3.6222775	based
-4.2452574	enshrined
-3.8515556	principle
-3.6446571	self-determination
-3.0709834	peace
-3.8484848	democracy
-3.5676894	justice
-3.7288737	equality
-3.7527523	rule
-2.9722645	law
-4.7012134	pluralism
-2.539146	development
-3.9015841	better
-3.7159033	standards
-3.870452	living
-4.2452574	solidarity
-3.2652626	Recognizing
-3.1013024	should
-4.9491987	devise
-3.7912283	ways
-3.4200773	means
-4.5981903	remove
-3.8454354	current
-4.0818663	obstacles
-3.817962	meet
-3.7702847	challenges
-3.101485	full
-3.7430427	realization
-3.5550508	prevent
-4.2427216	continuation
-3.7062397	violations
-4.054795	resulting
-5.003961	therefrom
-3.8132336	throughout
-3.325132	world
-4.0482826	pay
-3.624708	attention
-3.900433	mutual
-3.7077124	understanding
-3.5752354	dialogue
-3.5823617	ensuring
-4.1664	enhancement
-3.3470743	field
-3.6569507	essential
-5.716923	birthright
-4.4178476	beings
-2.9211385	such
-3.6595836	being
-3.6615689	first
-3.6144714	responsibility
-4.6340218	treat
-4.846575	globally
-4.0482826	fair
-3.62961	manner
-3.9866228	same
-4.846575	footing
-4.1926274	emphasis
-2.9352312	further
-3.6669078	various
-4.133725	articles
-4.4964514	setting
-3.3054118	out
-3.6408463	respective
-4.9622555	powers
-4.011136	functions
-3.236166	Security
-2.9627392	Council
-3.2193124	Economic
-3.2990324	Social
-4.7895536	paramount
-3.5102162	commitment
-3.870452	fulfil
-3.4561486	obligations
-2.6464393	other
-3.5106847	instruments
-3.3551874	Taking
-3.228024	account
-4.7985525	103
-4.2936325	event
-3.4721456	conflict
-3.0378847	between
-4.183708	Members
-3.1640472	any
-3.7948194	agreement
-3.0885296	shall
-4.9757175	prevail
-4.22781	Affirms
-4.867376	solemn
-3.44513	enhance
-4.1015077	solution
-3.8305016	compliance
-3.2406723	inter
-3.2406723	alia
-4.3051558	strict
-4.6157365	Articles
-4.174968	thereof
-3.473004	Stresses
-3.1412413	role
-2.933615	work
-2.845423	regional
-3.477322	arrangements
-4.514981	acting
-5.253274	consistently
-4.6730776	affirms
-2.8828454	activities
-3.3787458	fully
-4.0630746	comply
-4.3746576	respecting
-4.44518	sovereign
-5.3389063	refraining
-3.7535713	threat
-3.1382492	use
-3.5362597	force
-3.7993503	territorial
-4.0052423	integrity
-3.2918952	political
-3.967425	independence
-3.0773294	State
-4.836536	inconsistent
-3.5634356	cooperate
-2.9472282	through
-4.237694	constructive
-3.7144024	peaceful
-4.168526	solutions
-3.6265397	actions
-3.3759878	towards
-4.4178476	strictly
-4.2796454	norms
-2.920536	Requests
-2.5387957	Secretary-General
-3.9464765	bring
-3.1865594	present
-3.8780282	organs
-3.2326932	bodies
-4.4786797	components
-2.8865042	system
-3.488309	intergovernmental
-3.2809901	non-governmental
-2.694482	organizations
-4.302246	disseminate
-4.4574413	widest
-3.3127766	possible
-3.2462444	basis
-3.0711539	6
-3.2384133	consider
-3.924057	fifty-sixth
-4.554596	102
-4.817129	112
-3.8094878	46
-4.9242067	Globalization
-3.5254602	impact
-3.8237045	enjoyment
-4.3448687	Guided
-4.341682	expressing
-2.9327474	need
-3.9204304	Vienna
-3.1462743	adopted
-3.034741	World
-3.5254602	25
-3.3756442	June
-3.7069755	1993
-3.6216722	Cultural
-4.3140035	Right
-4.061406	41
-4.686918	128
-4.388582	1986
-3.366807	Millennium
-3.5144498	outcome
-3.9701161	documents
-4.011136	twenty-third
-4.3480797	twenty-fourth
-3.1137102	special
-3.7265563	sessions
-3.178416	held
-4.296485	respectively
-3.3477178	New
-3.9620924	York
-3.1590137	10
-3.7129068	Geneva
-3.6271522	26
-3.3938775	July
-4.9242067	Realizing
-3.785897	globalization
-4.586875	affects
-5.4880223	differently
-4.7895536	makes
-3.3181577	them
-3.4821222	more
-4.826724	exposed
-4.0630746	external
-3.8902075	developments
-3.9741845	positive
-3.975549	negative
-3.0610526	not
-5.4456763	merely
-2.9545887	economic
-3.2331877	process
-4.0231686	but
-3.2639332	has
-3.1013024	social
-3.8394	environmental
-3.5023305	cultural
-4.425483	dimensions
-2.7088113	which
-3.539252	multilateral
-3.5412586	mechanisms
-4.6157365	unique
-3.86512	play
-3.8217819	opportunities
-4.351314	presented
-3.7250185	Expressing
-5.534947	turbulence
-4.000874	Deeply
-3.3157578	concerned
-4.91223	widening
-4.474348	gap
-3.5014122	developed
-2.9274542	developing
-4.4533157	contributed
-5.0501013	deepening
-3.3154588	poverty
-3.5692952	affected
-3.1758072	Noting
-4.5981903	strive
-5.253274	respectful
-3.8354228	diversity
-3.0325537	regard
-3.4320319	they
-3.7114165	consistent
-4.425483	aims
-3.536757	Recognizes
-3.5703692	while
-3.35486	may
-4.108876	affect
-5.3084474	foremost
-5.534947	narrowing
-4.8568506	rich
-4.2796454	poor
-3.5785098	both
-5.4456763	explicit
-3.9204304	goal
-3.2684703	levels
-3.5918608	part
-4.0482826	effort
-4.018617	create
-4.0630746	enabling
-3.5703692	environment
-3.8237045	reaffirms
-3.3461108	global
-4.2555513	conducive
-3.7189205	elimination
-3.8780282	good
-3.9338787	governance
-3.6446571	each
-3.439525	level
-3.87585	transparency
-4.7985525	monetary
-4.103338	trading
-3.6259284	systems
-4.027768	open
-3.8275754	equitable
-4.7471614	rule-based
-4.296485	predictable
-4.2402005	non-discriminatory
-4.4874744	offers
-4.364499	great
-3.8902075	benefits
-5.0501013	unevenly
-4.3448687	shared
-4.0664315	costs
-4.9757175	distributed
-5.371664	aspect
-3.9634194	recognizes
-3.9951174	only
-4.341682	broad
-3.978291	sustained
-2.759587	efforts
-3.3551874	policies
-2.8385894	measures
-3.586248	future
-4.3578568	our
-3.6784759	common
-4.2607913	humanity
-3.5417616	can
-3.1430464	made
-4.2402005	inclusive
-4.5704355	face
-4.155923	thus
-4.1396675	contributing
-4.465812	complex
-4.609809	structural
-4.9491987	transformation
-4.7985525	numerous
-5.0838313	interdisciplinary
-3.7359004	aspects
-3.478191	civil
-3.1226308	7
-3.9634194	respond
-4.3545732	posed
-4.9757175	ensures
-3.0592258	8
-4.181506	Underlines
-4.1456923	therefore
-4.7012134	analyse
-3.8256357	consequences
-3.1154044	9
-3.3022103	Takes
-2.973351	note
-4.646654	preliminary
-2.6228158	report
-3.1466794	requests
-3.971468	different
-3.7422433	views
-3.3777094	submit
-3.4312506	comprehensive
-3.7018511	subject
-4.7471614	Question
-4.351314	enforced
-5.181777	involuntary
-4.739158	disappearances
-4.2452574	Covenants
-2.7525785	relevant
-3.9301693	33
-4.627841	173
-3.176241	20
-4.5197396	1978
-3.5402544	concerning
-4.889224	disappeared
-3.1598487	persons
-3.8151188	previous
-2.9132524	resolutions
-3.6210675	53
-4.7312994	150
-3.536757	1998
-3.8189137	47
-4.763625	133
-3.3107018	18
-3.9647505	1992
-5.1017327	proclaiming
-3.7288737	Protection
-3.7174091	All
-3.7390602	Persons
-4.9005747	Enforced
-5.279985	Disappearance
-4.1201687	body
-4.3200035	according
-3.7312033	Working
-3.5009534	Group
-5.0501013	Involuntary
-5.1399136	Disappearances
-2.9086587	Commission
-4.054795	practice
-3.5555701	number
-5.4456763	run
-4.3169928	counter
-4.9622555	intensification
-3.8813162	regions
-4.085372	growing
-3.3470743	reports
-4.41408	harassment
-5.0501013	ill-treatment
-4.3578568	intimidation
-4.9242067	witnesses
-3.6210675	who
-3.7242515	Emphasizing
-4.2327237	impunity
-4.2796454	contributes
-5.4880223	perpetuation
-4.539314	phenomenon
-4.2427216	constitutes
-3.5055602	one
-5.799674	elucidation
-4.0732236	manifestations
-3.755214	interest
-3.5050974	initiatives
-3.4062269	taken
-3.5812576	end
-3.635192	Bearing
-3.366807	mind
-4.1278634	37
-3.5422654	April
-4.9622555	transmission
-4.565091	Subcommission
-4.1201687	Promotion
-3.5998425	draft
-4.085372	convention
-4.1600833	forced
-4.559812	disappearance
-3.7939188	Convinced
-4.0715156	needed
-4.378097	wider
-3.7903352	awareness
-4.032417	act
-4.1859207	offence
-3.9810505	grave
-4.9757175	flagrant
-4.0871353	violation
-4.4533157	proclaimed
-4.3993273	reaffirmed
-3.805774	rules
-3.260232	Urges
-2.9594343	appropriate
-3.9439273	legislative
-3.635192	steps
-4.878163	suppress
-4.646654	keeping
-3.668253	provision
-3.3780546	technical
-2.890868	assistance
-3.7903352	when
-4.4700594	state
-3.922845	emergency
-5.181777	introduced
-5.371664	ensured
-4.694007	regards
-3.4892	prevention
-5.253274	Reminds
-5.5875635	reminds
-3.9838278	competent
-3.8048506	authorities
-3.92894	conduct
-4.539314	prompt
-4.4964514	impartial
-5.534947	inquiries
-4.011136	circumstances
-3.86512	there
-5.1017327	reason
-5.4070954	believe
-4.708542	occurred
-3.9647505	jurisdiction
-4.936523	allegations
-4.878163	confirmed
-4.218146	perpetrators
-5.1017327	prosecuted
-3.4812455	urges
-3.6847272	protect
-4.5443482	subjected
-3.2876685	Encourages
-3.624708	some
-3.6702783	done
-3.1228225	provide
-3.8935895	concrete
-2.9159844	information
-3.7374775	give
-3.924057	effect
-4.780738	encountered
-4.1201687	possibility
-4.4919395	disseminating
-4.3545732	text
-3.8577635	languages
-3.5402544	facilitate
-3.8813162	dissemination
-3.7040398	local
-3.270083	Notes
-3.8132336	encourage
-2.6882308	implementation
-3.6174572	invites
-3.4189377	contribute
-3.5211184	continued
-3.8672447	exercise
-3.432423	mandate
-5.534947	modify
-3.6764119	working
-4.0402775	methods
-3.1428454	necessary
-3.9413934	Recalls
-3.886852	primary
-4.4964514	described
-5.181777	channel
-3.8354228	communication
-3.3387942	view
-5.03417	sufficiently
-4.708542	clearly
-4.188145	identified
-4.0515265	individual
-4.014113	cases
-5.0838313	investigated
-5.181777	ascertain
-4.2851863	whether
-5.716923	falls
-4.708542	contains
-3.7430427	required
-4.105176	elements
-4.061406	seek
-4.208692	comments
-4.640292	preparing
-3.235917	11
-3.3369057	Invites
-4.032417	identify
-4.694007	recommend
-4.889224	overcoming
-3.909729	light
-4.105176	final
-3.7374775	submitted
-4.763625	rapporteurs
-4.5981903	appointed
-3.323606	13
-4.6340218	utmost
-3.2157338	children
-4.1600833	closely
-4.3480797	search
-3.2498276	14
-4.2040415	Appeals
-3.6910698	yet
-5.716923	replied
-3.988027	communications
-4.5704355	transmitted
-5.228111	reply
-4.4874744	promptly
-3.2275355	so
-5.1399136	discretion
-4.6730776	perform
-3.7438436	serious
-4.7471614	inviting
-4.2741747	visit
-3.6875348	enable
-4.646654	even
-3.649791	effectively
-3.2893543	16
-3.5478446	Expresses
-4.694007	profound
-5.371664	thanks
-3.7754266	many
-5.716923	cooperated
-4.395716	invited
-3.2157338	recommendations
-4.23026	inform
-3.9062197	study
-3.7626839	matter
-5.03417	deem
-4.4786797	pursuit
-4.3200035	task
-3.5946946	follow-up
-4.7471614	considers
-4.889224	Renews
-3.7719917	facilities
-4.247808	requires
-3.5009534	especially
-4.181506	carrying
-3.7462552	missions
-3.74868	following
-3.9452	up
-3.323606	19
-3.9908493	keep
-4.2327237	informed
-4.308085	he
-3.9314022	takes
-4.2427216	secure
-4.4830546	widespread
-3.3163564	implement
-3.3403745	21
-4.069814	sub-item
-4.222951	alternative
-4.0499015	approaches
-3.0158906	effective
-4.2040415	Strengthening
-4.817129	non-selectivity
-4.4964514	impartiality
-4.694007	objectivity
-3.1434486	among
-4.534337	friendly
-3.8879676	relations
-3.234178	strengthen
-3.6549864	achieving
-4.9757175	Desirous
-3.2292478	progress
-4.549442	embodied
-4.4700594	convinced
-4.3353767	range
-3.4528546	existing
-4.035544	societies
-5.253274	realities
-3.9838278	basic
-4.5443482	universality
-3.3684926	issues
-4.9896097	affirmed
-4.351314	Affirming
-3.7250185	representatives
-4.425483	thematic
-3.4598844	members
-3.6485019	mandates
-4.1859207	Underlining
-3.9038959	obligation
-4.000874	carry
-3.9555173	responsibilities
-3.6174572	undertaken
-3.6446571	Reiterates
-4.653111	virtue
-4.1317625	freely
-4.308085	determine
-4.878163	interference
-3.5566106	status
-4.0023255	pursue
-3.975549	every
-4.0783887	duty
-4.1396675	remain
-5.716923	vigilant
-4.4216485	wherever
-4.659665	occur
-4.3353767	base
-4.549442	Considers
-3.3187597	make
-3.9204304	practical
-3.5483553	contribution
-3.758518	urgent
-3.9204304	preventing
-3.966086	mass
-3.3584757	strengthening
-3.0582328	security
-4.5443482	guided
-3.8813162	used
-5.1017327	ends
-3.9555173	independent
-3.935122	experts
-4.5443482	duly
-5.1204033	contents
-4.5245514	conviction
-5.6474447	unbiased
-3.7242515	approach
-3.3080487	context
-3.499581	continuing
-3.853615	situations
-4.1600833	events
-4.271465	adopting
-3.6982276	proposals
-4.3169928	invite
-4.609809	ideas
-3.6358163	would
-4.4964514	105
-3.7319825	Regional
-4.006708	32
-4.6157365	127
-4.510274	1977
-3.8374069	subsequent
-3.6757262	51
-3.6861286	March
-3.976918	advisory
-3.370524	services
-3.7296488	most
-3.7374775	recent
-4.4919395	80
-4.218146	reiterates
-4.017111	establishing
-3.5796068	subregional
-3.3920906	where
-3.7939188	do
-4.3051558	exist
-4.2824073	recommended
-3.0042012	resources
-3.571446	available
-3.221715	programme
-3.1941798	Office
-3.3435519	High
-3.3715432	Commissioner
-4.2824073	protecting
-4.514981	reinforce
-3.886852	achieved
-4.19944	far
-4.2851863	auspices
-3.474295	specialized
-3.230721	agencies
-4.1396675	continues
-3.8217819	substantive
-4.4332547	supportive
-4.6217465	possibilities
-3.7265563	increased
-3.596975	satisfaction
-3.1810403	Welcomes
-4.763625	machinery
-3.5483553	aimed
-3.8217819	capacity-building
-3.3322198	public
-3.354533	education
-4.9005747	exchanging
-4.2017345	experience
-3.554014	welcomes
-3.899285	close
-3.8285487	organization
-3.478626	training
-4.4964514	courses
-4.5813255	workshops
-3.938874	high-level
-4.133725	governmental
-4.170663	expert
-3.5407562	meetings
-3.6723132	conferences
-3.239165	institutions
-4.2687716	creating
-3.8802173	greater
-3.6932049	procedures
-4.836536	examining
-4.474348	accepted
-4.302246	identifying
-4.030862	ratification
-4.406641	principal
-3.940132	treaties
-3.5692952	strategies
-4.534337	overcome
-4.91223	depends
-4.646654	primarily
-5.3389063	imply
-4.889224	intensive
-3.4000082	coordination
-3.9073863	partners
-3.9994278	involved
-5.3389063	renews
-4.4332547	appeal
-3.9156418	making
-4.807741	offered
-4.686918	organizing
-4.2017345	government
-3.4945853	personnel
-3.7211971	application
-3.6569507	notes
-3.423131	establishment
-3.909729	projects
-4.889224	exchanges
-4.6217465	created
-4.3353767	dealing
-4.867376	hand
-3.7144024	Europe
-3.4687285	Cooperation
-4.826724	Inter-American
-3.2812665	African
-3.8958588	Peoples
-4.1396675	'
-4.332258	appointment
-4.3051558	four
-5.4456763	personalities
-4.271465	serve
-6.2711554	advisors
-3.2958777	will
-3.8802173	significant
-4.9896097	advocacy
-4.364499	design
-3.9951174	partnerships
-3.3701847	region
-3.558176	assist
-4.936523	example
-4.7012134	parliamentary
-6.1610317	bar
-4.694007	associations
-4.4533157	presence
-4.6340218	southern
-3.2119484	Africa
-4.381564	guidance
-4.07666	Unity
-4.4830546	reviewing
-3.8275754	regular
-3.372906	needs
-3.8039289	area
-5.4456763	subregions
-3.883522	Framework
-4.1298084	Technical
-4.826724	Asia-Pacific
-4.9757175	Region
-3.7219586	enhancing
-5.3389063	Quito
-4.9242067	Field
-5.181777	serves
-3.927714	strategy
-3.913267	capacities
-4.0889063	Latin
-3.6896524	America
-3.665567	Caribbean
-3.6259284	Central
-4.0531573	Asia
-3.566622	trafficking
-3.3938775	areas
-4.549442	concluding
-3.5244915	agreements
-4.7012134	suitable
-5.1017327	foreseen
-4.3578568	medium-term
-3.7196782	plan
-3.5332875	period
-6.2711554	1998-2001
-3.554014	adequate
-3.5254602	budget
-4.0231686	assisting
-3.497303	request
-3.33911	include
-3.9647505	therein
-3.872603	results
-4.708542	pursuance
-4.2824073	extreme
-4.559812	Copenhagen
-3.4129097	Summit
-3.6939187	1995
-4.1396675	document
-4.188145	beyond
-4.807741	globalizing
-4.817129	196
-3.2344263	22
-4.4964514	declared
-3.560798	October
-4.2607913	Day
-4.2017345	Eradication
-4.4700594	Poverty
-3.7885544	48
-4.780738	183
-3.6889453	1996
-3.8048506	Year
-3.6556401	50
-4.514981	107
-3.6358163	Decade
-4.8568506	1997-2006
-4.739158	97
-4.9491987	193
-3.668253	1997
-4.889224	emphasized
-4.514981	146
-4.772097	134
-3.7610128	was
-4.7012134	232
-3.8791215	expressed
-3.885739	deep
-3.2344263	people
-3.509281	increase
-5.0838313	constituting
-4.465812	majority
-3.8619518	group
-3.9687686	February
-3.7382681	1994
-3.5083477	24
-3.2921784	23
-3.5941262	29
-3.6446571	August
-3.6595836	Prevention
-3.6903605	Discrimination
-4.91223	Minorities
-4.559812	exclusion
-3.4155366	society
-4.9896097	constituted
-5.0501013	stressed
-3.935122	complete
-4.6157365	in-depth
-6.036102	thoughts
-5.0501013	poorest
-3.6216722	eradication
-4.4574413	challenge
-3.976918	coordinated
-5.228111	decisive
-4.364499	existence
-5.4070954	inhibits
-4.510274	might
-3.8454354	life
-4.218146	immediate
-4.91223	alleviation
-4.91223	eventual
-3.8464494	high
-4.252955	interim
-3.8505297	eliminate
-4.23026	foster
-3.3229973	participation
-4.118266	decision-making
-4.4830546	live
-3.7069755	combat
-3.9073863	vulnerable
-5.4070954	empowered
-4.381564	organize
-3.7788887	participate
-4.014113	planning
-3.9477565	become
-4.3448687	genuine
-3.6174572	Emphasizes
-3.723486	issue
-4.215763	addressed
-5.1204033	prerequisite
-6.1610317	surmounting
-5.3389063	interrelationship
-3.5032508	goals
-4.936523	absolute
-5.716923	renders
-4.9242067	popular
-4.817129	fragile
-3.6126897	commitments
-3.2826502	appreciation
-3.692492	specific
-3.8683112	Children
-3.2612863	's
-3.2876685	Fund
-3.9073863	Educational
-3.6472166	Scientific
-4.4216485	mitigate
-3.860901	effects
-4.8568506	alleviating
-4.402969	links
-4.603961	109
-3.9120843	democratic
-3.5964038	adoption
-3.7265563	62
-3.3942356	relating
-4.020129	carried
-4.2253737	sovereignty
-4.772097	non-use
-4.936523	non-intervention
-3.8030093	matters
-5.066639	essentially
-3.720437	domestic
-4.332258	everyone
-4.9896097	realized
-5.279985	save
-5.253274	succeeding
-4.5245514	generations
-4.867376	scourge
-4.1070223	war
-3.602729	establish
-3.534771	conditions
-4.0664315	arising
-3.9085562	sources
-4.7235804	maintained
-4.7895536	larger
-5.4456763	practise
-4.0246964	tolerance
-4.936523	good-neighbourliness
-5.181777	employ
-4.2824073	advancement
-5.253274	proclaims
-4.878163	born
-4.44518	kind
-4.7985525	colour
-4.0037813	opinion
-3.7652028	property
-4.772097	birth
-4.056438	mutually
-4.329162	reinforcing
-4.0339775	own
-4.402969	lives
-4.640292	concept
-4.1015077	transparent
-4.465812	accountable
-3.899285	administration
-4.000874	sectors
-4.4830546	foundations
-5.1017327	people-centred
-3.2570844	sustainable
-3.8122942	fact
-4.5443482	imperative
-4.889224	becomes
-5.4070954	correspond
-3.723486	economies
-3.7144024	transition
-4.9242067	formulated
-4.2253737	implemented
-5.534947	Resolved
-6.1610317	eve
-3.4136589	new
-4.3480797	century
-4.772097	millennium
-4.4216485	power
-5.0501013	fosters
-3.7040398	Further
-3.336278	b
-4.1859207	permanent
-3.8424072	over
-3.4918842	natural
-5.066639	wealth
-3.4945853	c
-3.571446	d
-3.6996734	e
-4.4700594	interdependence
-3.9050562	f
-4.7553153	Solidarity
-4.215763	value
-5.1204033	managed
-3.982437	way
-5.716923	distributes
-4.7553153	burdens
-5.4880223	fairly
-4.4103446	equity
-4.6663194	suffer
-4.006708	benefit
-3.6669078	least
-4.3260875	receive
-3.9838278	help
-4.1144857	g
-4.299356	consolidation
-4.341682	just
-4.250374	h
-5.716923	gender-balanced
-4.1664	representation
-4.449229	composition
-3.511623	staff
-3.9204304	i
-4.3578568	balanced
-5.799674	equilibrium
-5.5875635	reciprocity
-5.6474447	correcting
-5.018803	inequalities
-4.5294166	j
-3.6996734	since
-5.1204033	enhances
-3.913267	knowledge
-4.867376	backgrounds
-4.763625	advances
-4.627841	across
-4.3993273	stable
-4.2017345	worldwide
-4.715996	k
-5.901994	entitlement
-5.181777	healthy
-4.7235804	l
-3.3931618	access
-4.069814	distribution
-3.9452	enhanced
-4.3140035	commercial
-4.91223	m
-4.3051558	heritage
-4.402969	mankind
-4.91223	preserving
-4.8568506	diverse
-3.9144528	nature
-5.03417	particularities
-4.646654	historical
-3.8802173	religious
-3.7151523	stresses
-4.554596	significance
-4.7235804	borne
-4.5813255	regardless
-3.9477565	maintenance
-3.7610128	general
-3.2207525	disarmament
-3.5504045	control
-4.9622555	released
-4.7235804	proclamation
-4.3578568	urgently
-4.780738	irrespective
-5.253274	correct
-4.846575	redress
-5.4070954	injustices
-5.716923	steadily
-4.878163	accelerating
-3.8354228	treaty
-3.8324633	due
-3.3698456	contributions
-4.3746576	Bretton
-4.3746576	Woods
-4.534337	108
-4.4533157	inalienable
-4.2907987	opportunity
-5.279985	prerogative
-4.2253737	integral
-4.5197396	link
-4.2741747	elaboration
-4.763625	holistic
-4.936523	vision
-4.4786797	integrating
-3.8683112	than
-5.3084474	fifty
-3.7610128	years
-3.8791215	after
-5.534947	unacceptable
-3.4200773	situation
-4.2253737	hunger
-4.7471614	disease
-4.108876	lack
-4.6799426	shelter
-5.0838313	illiteracy
-6.036102	hopelessness
-4.059744	remains
-5.799674	lot
-5.160341	billion
-4.085372	central
-3.7242515	policy
-4.2452574	main
-5.003961	participant
-5.228111	beneficiary
-4.0715156	apply
-3.44513	gender
-3.924057	perspective
-3.9252727	active
-4.157998	empowerment
-4.6157365	spheres
-4.4332547	favourable
-3.3992825	Welcoming
-3.6960678	Agenda
-5.228111	declares
-3.8577635	priorities
-6.2711554	invigorating
-4.609809	renewed
-4.211036	strengthened
-4.054795	partnership
-5.716923	imperatives
-5.901994	insufficiently
-5.253274	disseminated
-3.8122942	bilateral
-3.04665	programmes
-4.235202	mandated
-3.164892	paragraph
-4.514981	141
-4.7553153	175
-4.3200035	Intergovernmental
-4.4293513	Experts
-3.9426584	second
-3.8132336	proposed
-4.188145	welcoming
-4.061406	mechanism
-3.446745	established
-4.032417	potential
-3.8577635	could
-4.936523	passage
-4.807741	demands
-5.6474447	top
-3.4300814	agenda
-6.1610317	essence
-4.4178476	includes
-4.4830546	minimum
-6.2711554	necessities
-4.510274	For
-3.7975323	stability
-6.1610317	endure
-4.0246964	critical
-4.395716	element
-4.4874744	experiences
-4.4533157	reflect
-4.7985525	differences
-5.6474447	setbacks
-5.4070954	spectrum
-4.41408	wide
-4.7312994	experienced
-4.5443482	rapid
-3.7535713	growth
-4.271465	past
-4.817129	dynamic
-3.9452	economy
-4.549442	At
-3.641479	time
-5.534947	unacceptably
-4.299356	difficulties
-4.168526	participating
-3.8454354	risk
-4.807741	marginalized
-5.1399136	excluded
-4.4830546	Democracy
-6.2711554	spreading
-4.9242067	everywhere
-4.9757175	raised
-5.799674	expectations
-6.2711554	non-fulfilment
-4.181506	risks
-6.2711554	rekindling
-6.2711554	non-democratic
-4.222951	forces
-4.505617	reforms
-5.4070954	destabilize
-4.592496	democratization
-3.87585	processes
-4.609809	Effective
-4.627841	component
-4.080124	successful
-4.2769017	lasting
-6.2711554	broadened
-4.91223	pursuing
-3.6308444	implementing
-5.204326	acknowledged
-4.9491987	ever
-4.1664	necessity
-5.253274	deriving
-2.8733451	support
-5.003961	solve
-4.514981	intention
-4.592496	assigned
-4.5245514	72
-3.4189377	decision
-4.846575	269
-3.528379	30
-5.4880223	authorizing
-4.7895536	consisting
-4.4919395	open-ended
-3.4725745	provided
-4.0889063	holding
-3.4235144	September
-4.534337	Open-ended
-5.4456763	chairmanship
-5.228111	Mr.
-6.2711554	M.
-6.2711554	S.
-6.2711554	Dembri
-4.3140035	Algeria
-3.2964494	encourages
-4.807741	proceed
-4.836536	scheduled
-3.7823787	January
-3.1161594	2001
-5.534947	participates
-5.253274	focuses
-4.772097	requiring
-4.157998	Report
-6.2711554	Attacking
-3.9838278	Bank
-4.878163	cover
-3.546316	funds
-3.8958588	year
-4.715996	duration
-4.4874744	covering
-3.8285487	her
-5.5875635	Inter-agency
-3.6826334	regarding
-4.44518	deliberations
-3.534276	during
-4.646654	fifty-fifth
-5.181777	Enhancement
-4.6217465	181
-4.3260875	70
-4.0889063	recalling
-4.7553153	113
-4.208692	Dialogue
-4.5294166	Civilizations
-4.554596	underlining
-4.3578568	religions
-4.1621785	cultures
-4.092469	civilizations
-4.7012134	greatly
-4.9896097	encouragement
-4.0402775	confidence-building
-5.181777	fifty-first
-3.8324633	noting
-5.003961	fifty-second
-3.8630054	consultations
-3.989436	actively
-4.5981903	endeavour
-5.716923	44th
-5.6474447	L.18
-3.8354228	Add.1
-3.8824177	sponsored
-4.653111	Bahrain
-4.3611655	Comoros
-4.218146	Djibouti
-4.22781	Egypt
-4.3200035	Iraq
-4.3353767	Jordan
-4.378097	Kuwait
-4.2634354	Lebanon
-4.6799426	Libyan
-3.712161	Arab
-4.6799426	Jamahiriya
-4.565091	Mauritania
-4.222951	Morocco
-4.510274	Oman
-4.41408	Qatar
-4.5197396	Saudi
-4.5197396	Arabia
-3.9477565	Sudan
-3.9439273	Syrian
-3.1941798	Republic
-4.329162	Tunisia
-4.539314	Emirates
-4.4700594	Yemen
-3.6277652	Palestine
-4.19944	League
-3.560798	Having
-4.6663194	Pact
-5.799674	entrusts
-4.341682	function
-4.739158	determining
-5.03417	whereby
-4.640292	collaborate
-4.708542	desire
-4.332258	consolidate
-3.546316	develop
-4.9757175	ties
-3.8394	administrative
-3.89814	fields
-4.4216485	An
-3.651732	Peace
-3.7374775	section
-4.133725	VII
-4.9242067	Supplement
-4.021646	efficient
-4.250374	utilization
-3.576324	objectives
-3.665567	two
-4.118266	Acknowledging
-4.4411683	closer
-4.041867	Commends
-4.7895536	lend
-4.092469	him
-4.3921347	secretariats
-3.4812455	Secretariat
-4.772097	sectoral
-4.009655	youth
-3.9326386	employment
-5.4456763	Beirut
-3.6421127	May
-4.1948867	competence
-3.9594505	intensify
-4.0681195	decolonization
-3.4640734	forms
-3.7903352	racism
-3.7535713	racial
-3.4683032	discrimination
-3.336278	his
-3.4794974	capacity
-4.0052423	interests
-3.201476	To
-4.6217465	expanding
-3.5779624	technology
-4.406641	step
-4.2741747	seminars
-3.8736827	preparation
-4.549442	studies
-3.9581354	maintain
-4.646654	contacts
-3.6265397	improve
-3.8189137	consultation
-5.799674	counterpart
-4.653111	whenever
-4.5443482	execution
-4.3353767	later
-4.090684	energy
-4.032417	rural
-4.592496	desertification
-5.799674	green
-5.4880223	belts
-4.7553153	vocational
-4.3578568	documentation
-4.3578568	periodic
-3.303081	review
-4.188145	Recommends
-4.554596	greatest
-4.2741747	expertise
-4.388582	appraisal
-4.085372	once
-4.1971574	inter-agency
-4.4533157	convened
-4.565091	biennial
-3.474295	address
-4.2687716	next
-3.5946946	provisional
-4.627841	110
-4.780738	117
-3.7250185	49
-4.1144857	unilateral
-4.474348	120
-4.867376	172
-4.936523	pertinent
-5.534947	Duties
-5.534947	3281
-4.889224	XXIX
-4.91223	1974
-3.6917803	no
-5.066639	type
-5.371664	coerce
-4.0647497	another
-4.686918	obtain
-5.371664	subordination
-3.7885544	pursuant
-4.1948867	reaffirming
-4.0732236	called
-5.228111	creates
-3.4808078	trade
-5.066639	impedes
-5.160341	references
-3.9581354	Beijing
-3.9301693	Platform
-4.1278634	Fourth
-3.5550508	Women
-4.780738	Istanbul
-4.143675	Settlements
-4.105176	Habitat
-3.8266046	II
-3.5458076	about
-4.0052423	investment
-4.3200035	despite
-4.296485	contrary
-5.0838313	promulgated
-4.143675	implications
-5.5875635	social-humanitarian
-4.6157365	extraterritorial
-4.1859207	thereby
-3.632082	additional
-3.5576537	practices
-4.4103446	criteria
-4.7553153	impeding
-5.534947	counteract
-5.3389063	Rejects
-4.371245	tools
-5.066639	pressure
-4.646654	because
-4.694007	vast
-4.0466695	populations
-4.867376	elderly
-4.7553153	initiated
-4.4293513	commit
-4.1201687	party
-5.5875635	revoking
-4.653111	earliest
-4.9896097	enactment
-3.967425	laws
-5.066639	discharging
-3.7745652	bearing
-3.7912283	population
-3.7930202	annual
-4.609809	collect
-4.646654	analytical
-3.7788887	thereon
-5.181777	highlighting
-4.22781	preventive
-4.0630746	examine
-4.627841	111
-5.716923	Extrajudicial
-4.1278634	summary
-4.155923	arbitrary
-4.250374	executions
-4.739158	guarantees
-4.332258	liberty
-4.936523	136
-4.640292	92
-4.653111	147
-4.474348	68
-3.5736072	31
-4.6663194	1984
-4.085372	safeguards
-5.066639	guaranteeing
-4.351314	facing
-4.4371934	death
-4.592496	penalty
-4.554596	annexed
-3.8334475	thereto
-4.3353767	1989
-4.3993273	64
-4.836536	Basic
-3.9326386	Principles
-3.7174091	Justice
-4.653111	Victims
-3.509281	Crime
-5.003961	Abuse
-3.6491458	Power
-4.125927	40
-4.0732236	34
-3.2098336	November
-4.5294166	1985
-5.1017327	alarmed
-4.772097	persistence
-4.0836153	scale
-4.402969	extrajudicial
-3.8780282	parts
-6.036102	Dismayed
-5.799674	negation
-4.5245514	cause
-4.7312994	occurrence
-3.6723132	Criminal
-3.7312033	Court
-4.4700594	prosecution
-4.2824073	Conventions
-4.0783887	1949
-5.0838313	judgement
-5.6474447	pronounced
-4.4700594	regularly
-4.5443482	court
-5.4880223	affording
-4.094262	judicial
-4.9757175	generally
-4.5294166	indispensable
-5.6474447	abhorrent
-4.7471614	represent
-4.143675	Strongly
-4.4371934	condemns
-4.1948867	Acknowledges
-4.9242067	historic
-4.1664	Rome
-4.188145	Statute
-4.1396675	signed
-4.296485	ratified
-4.0889063	signing
-4.164284	ratifying
-4.708542	Demands
-4.3993273	brought
-3.1116488	Special
-3.5935588	Rapporteur
-3.9338787	given
-4.2851863	involving
-5.901994	exhaustive
-4.534337	investigations
-5.1017327	suspected
-3.952915	responsible
-5.1017327	hearing
-5.03417	tribunal
-4.659665	grant
-4.4964514	compensation
-3.649791	victims
-3.92894	adopt
-5.253274	recurrence
-4.351314	investigate
-5.3084474	thoroughly
-4.708542	killings
-3.8780282	committed
-4.505617	name
-5.4880223	passion
-4.6157365	honour
-5.4456763	killed
-4.708542	reasons
-3.2555192	related
-4.2879834	defenders
-4.565091	journalists
-5.279985	racially
-4.575846	motivated
-3.4121623	violence
-4.07666	leading
-4.6663194	victim
-4.164284	whose
-3.5023305	been
-5.253274	violated
-3.935122	before
-4.4786797	judiciary
-5.181777	neither
-5.371664	condoned
-5.018803	nor
-5.901994	sanctioned
-4.080124	officials
-3.9120843	undertake
-4.1070223	loss
-5.279985	demonstrations
-4.133725	internal
-5.4456763	communal
-5.901994	unrest
-4.4178476	emergencies
-3.6004183	armed
-4.4786797	police
-4.9005747	thorough
-4.3611655	restrictions
-5.228111	firearms
-4.2452574	discharge
-4.388582	included
-4.1201687	post-conflict
-4.505617	peace-building
-4.329162	able
-4.609809	reliable
-5.3084474	comes
-4.406641	follow
-4.381564	visits
-4.826724	265
-4.308085	endorsed
-4.1518016	extend
-3.9620924	three
-4.299356	played
-3.76689	requested
-4.299356	findings
-4.0531573	together
-3.8630054	conclusions
-5.1017327	deems
-5.5875635	warrant
-5.1399136	imminent
-4.514981	seriously
-5.228111	threatened
-4.299356	participants
-4.323035	belonging
-4.1948867	minorities
-4.505617	defence
-3.8769376	monitoring
-4.836536	imposition
-4.157998	capital
-4.1144857	punishment
-4.3611655	interpretation
-3.985223	Second
-4.037116	Optional
-3.4777563	Protocol
-4.772097	undue
-4.085372	delay
-4.1070223	others
-4.6340218	she
-5.066639	issuing
-5.4070954	invitations
-5.716923	asks
-5.1399136	carefully
-4.3545732	similar
-5.5875635	educating
-3.7077124	military
-3.9439273	enforcement
-4.7235804	officers
-3.7114165	peacekeeping
-4.4700594	observer
-5.160341	connected
-4.164284	appeals
-4.646654	endeavours
-3.6079738	particularly
-3.758518	early
-4.686918	deterioration
-4.3480797	medical
-5.5875635	forensic
-5.371664	abolished
-3.847466	referred
-5.4880223	Again
-3.9464765	best
-4.3993273	standard
-5.716923	appears
-4.559812	respected
-3.966086	material
-3.883522	collaboration
-3.988027	form
-4.323035	deal
-4.5813255	Add.3
-4.123999	Situation
-4.030862	Myanmar
-4.867376	elaborated
-3.883522	applicable
-3.9413934	Aware
-4.846575	promotes
-4.603961	states
-4.027768	authority
-3.1629937	Government
-4.3260875	still
-4.0996847	elections
-4.1948867	1990
-4.772097	186
-3.253182	58
-4.1416664	decided
-5.181777	nominate
-5.534947	rapporteur
-5.066639	observation
-4.554596	absence
-4.539314	pertaining
-4.559812	root
-6.1610317	Still
-5.534947	gravely
-5.799674	unabated
-4.780738	suppression
-4.5245514	thought
-4.2581635	expression
-4.4293513	association
-4.118266	movement
-4.603961	reported
-4.9491987	deeply
-4.554596	placed
-5.0501013	Aung
-4.4332547	San
-5.0501013	Suu
-5.0501013	Kyi
-4.118266	National
-3.9490404	instrument
-5.6474447	oppression
-3.7414453	increasing
-4.1278634	detention
-4.9622555	lawyers
-4.2851863	systematic
-4.2851863	had
-4.2687716	adverse
-3.5308263	health
-4.5981903	welfare
-4.5443482	Envoy
-4.2879834	extended
-5.3084474	regretting
-4.559812	failure
-4.826724	assurances
-5.279985	preconditions
-4.061406	mission
-4.3051558	direct
-4.1456923	Red
-4.250374	Cross
-4.7895536	allowing
-4.708542	communicate
-4.9757175	detainees
-4.2327237	modalities
-5.3389063	hopes
-4.715996	pursued
-4.694007	Deplores
-4.565091	rape
-3.8094878	torture
-4.1518016	inhuman
-3.7694335	treatment
-5.3389063	arrests
-4.1220794	labour
-5.1204033	relocation
-4.715996	denial
-4.5981903	assembly
-4.4830546	increasingly
-6.2711554	persecute
-4.7012134	opposition
-6.2711554	sympathizers
-4.0450625	ethnic
-3.095139	parties
-6.1610317	intimidatory
-4.514981	arrest
-3.9120843	abuse
-5.371664	harsh
-4.0450625	long-term
-4.807741	prison
-5.0501013	sentences
-6.2711554	rallies
-3.9144528	media
-4.4411683	campaigns
-4.9005747	exercising
-4.3921347	cease
-3.6932049	internationally
-5.5875635	speech
-4.41408	outside
-4.3746576	release
-4.3200035	immediately
-5.204326	unconditionally
-4.694007	detained
-4.3578568	leaders
-4.653111	prisoners
-3.971468	physical
-4.474348	permit
-4.2879834	reconciliation
-2.726624	Convention
-4.406641	either
-6.2711554	Parliament-elect
-4.694007	express
-4.807741	restore
-4.9491987	frame
-6.1610317	occasions
-4.646654	restoration
-4.4574413	engage
-4.388582	committee
-4.646654	representing
-3.9027386	People
-5.253274	Parliament
-5.160341	failed
-4.1926274	Labour
-6.2711554	compelled
-4.7312994	limit
-5.5875635	prompted
-4.1396675	certain
-5.204326	Inquiry
-4.505617	No.
-5.0838313	compulsory
-5.534947	1930
-5.799674	awaiting
-4.5197396	executive
-4.2879834	eradicate
-5.253274	reopening
-5.4456763	university
-4.826724	exercised
-5.371664	willing
-3.6421127	reduction
-5.1204033	length
-4.772097	academic
-5.371664	division
-5.4880223	student
-6.1610317	dispersal
-6.036102	distant
-6.1610317	campuses
-4.3578568	directed
-6.2711554	portering
-6.036102	relocations
-4.4616065	anti-personnel
-4.7235804	landmines
-3.7815037	destruction
-4.9622555	crops
-6.036102	dispossession
-4.094262	land
-6.1610317	deprives
-5.1017327	subsistence
-4.826724	large-scale
-4.2452574	displacement
-4.2851863	flows
-3.494134	refugees
-4.6730776	neighbouring
-3.9073863	internally
-3.6642303	displaced
-3.99369	causes
-3.8404002	refugee
-3.5493789	voluntary
-3.9144528	return
-4.0681195	reintegration
-3.6589239	safety
-3.9965494	safe
-4.646654	unhindered
-5.4880223	belong
-3.891332	sexual
-3.874765	exploitation
-3.7618475	Elimination
-4.7471614	prosecute
-4.807741	punish
-4.8568506	violate
-6.1610317	gender-sensitization
-4.094262	recruitment
-4.514981	soldiers
-4.3993273	strongly
-4.586875	hostilities
-5.1204033	incidence
-4.395716	immunodeficiency
-4.6340218	virus
-4.4874744	acquired
-4.6663194	syndrome
-3.7257867	HIV
-3.74868	AIDS
-4.817129	infection
-4.826724	receives
-4.3200035	sufficient
-3.896998	funding
-4.018617	workers
-4.1163716	highest
-3.988027	care
-4.3169928	rates
-4.763625	malnutrition
-6.1610317	pre-school-aged
-3.8104212	food
-4.780738	attainable
-5.204326	repercussions
-4.7312994	alleged
-5.1017327	agents
-4.686918	endorses
-4.846575	initiation
-4.250374	lead
-4.659665	supports
-4.147719	discussions
-4.371245	South-Eastern
-4.867376	presidential
-4.1015077	statements
-4.772097	1951
-4.1416664	Status
-3.8141751	Refugees
-4.4700594	Additional
-3.9464765	Protocols
-4.586875	borders
-3.5060236	Agreement
-4.092469	Bosnia
-4.092469	Herzegovina
-4.867376	annexes
-4.7471614	collectively
-4.302246	Croatia
-4.3140035	Federal
-3.9426584	Yugoslavia
-5.4070954	surrounding
-5.5875635	afforded
-4.6157365	Stability
-5.799674	Cologne
-4.090684	Germany
-4.9242067	admission
-4.807741	extraordinary
-4.586875	Table
-5.3084474	Bucharest
-3.847466	Representative
-3.8693802	entities
-4.0630746	European
-3.885739	Community
-4.715996	Monitoring
-3.6602445	Mission
-6.1610317	1160
-6.1610317	1199
-6.1610317	1203
-6.1610317	1239
-5.03417	1244
-4.1220794	statement
-4.351314	Chairman
-5.253274	fifty-fourth
-4.640292	79
-3.665567	27
-4.50101	Kosovo
-4.807741	condemnation
-6.2711554	Serbian
-5.3389063	offensive
-4.0231686	civilian
-4.539314	resulted
-3.874765	crimes
-3.975549	gross
-5.5875635	inflicted
-6.2711554	Kosovars
-5.716923	Condemning
-5.3389063	murder
-6.036102	Serb
-5.799674	Roma
-5.901994	Albanian
-6.2711554	extremists
-4.4533157	entire
-5.228111	aftermath
-4.170663	stressing
-4.6157365	linguistic
-3.6819377	Tribunal
-4.341682	Prosecution
-4.1015077	Responsible
-4.1664	Serious
-4.179316	Violations
-3.9965494	Humanitarian
-3.5111535	Law
-4.188145	Committed
-3.369507	Territory
-4.2607913	Former
-3.899285	1991
-6.2711554	Distressed
-4.4830546	Serbia
-6.1610317	Kosovar
-5.279985	pledge
-4.586875	abide
-4.0482826	call
-4.395716	crucial
-4.3260875	underlines
-4.50101	Condemns
-3.8122942	problem
-3.704772	criminal
-6.1610317	827
-3.772848	transfer
-4.739158	custody
-5.6474447	indicted
-4.0482826	territories
-5.4880223	varying
-6.036102	degrees
-4.235202	substantial
-4.371245	several
-4.020129	functioning
-4.4574413	structures
-4.9622555	returns
-4.586875	calling
-4.7895536	minority
-6.2711554	eviction
-3.9413934	illegal
-6.036102	occupants
-4.6663194	housing
-5.799674	Republika
-5.799674	Srpska
-5.901994	Bosnian
-6.1610317	Serbs
-4.035544	Federation
-6.1610317	Croats
-6.1610317	Constituent
-4.91223	Constitutional
-5.003961	reflects
-4.7553153	returning
-4.653111	homes
-5.0501013	recurrent
-4.772097	instances
-5.1017327	rebuild
-4.474348	sites
-6.2711554	manipulation
-4.9491987	press
-5.4456763	selective
-6.2711554	slander
-5.003961	tax
-6.2711554	harass
-6.2711554	editors
-3.6917803	decisions
-4.3746576	declarations
-3.4077032	Implementation
-5.181777	Ombudsman
-5.4880223	Chamber
-5.534947	Real
-4.4533157	Property
-5.901994	Claims
-5.0501013	Displaced
-5.6474447	staffed
-5.03417	funded
-6.036102	protects
-4.708542	citizens
-4.5704355	election
-4.351314	ministerial
-4.514981	Brussels
-4.1600833	change
-5.6474447	shows
-4.474348	clear
-4.9491987	choose
-3.74868	integration
-6.2711554	dictatorship
-5.3389063	isolation
-4.640292	looks
-4.250374	forward
-4.213393	membership
-4.739158	abuses
-4.9491987	repression
-5.181777	activists
-6.036102	hidden
-5.371664	detentions
-4.4964514	deprived
-4.0664315	connection
-4.157998	crisis
-4.715996	hinder
-3.9568243	terms
-4.539314	alleviate
-4.449229	suffering
-3.6198606	providing
-5.018803	pressing
-4.9242067	announced
-5.6474447	Belgrade
-5.4456763	built
-3.9109051	annex
-4.3353767	Interim
-4.23026	Administration
-4.0732236	Force
-4.090684	fulfilment
-3.6376958	28
-4.133725	strong
-5.1204033	Police
-4.037116	Service
-4.188145	core
-5.018803	multi-ethnic
-5.204326	respects
-5.534947	municipal
-6.1610317	landmark
-4.381564	commends
-4.0630746	35
-4.539314	points
-4.0339775	36
-5.0838313	condemn
-3.5998425	acts
-3.5447927	terrorism
-5.5875635	evictions
-4.367859	places
-4.5197396	resident
-5.228111	whatever
-4.772097	background
-6.2711554	whoever
-4.9491987	influence
-4.3611655	leadership
-6.2711554	stopping
-4.4964514	incidents
-4.474348	bringing
-4.1317625	expresses
-5.3389063	impediments
-4.035544	38
-4.4216485	offer
-4.9896097	wish
-4.565091	doing
-4.153857	39
-4.9896097	desist
-6.2711554	sort
-5.1204033	parallel
-4.807741	transferred
-5.534947	specify
-4.836536	charge
-4.878163	afford
-4.332258	observers
-5.1399136	unimpeded
-5.5875635	prominent
-6.2711554	activist
-6.1610317	Flora
-6.2711554	Brovina
-5.799674	twenty-three
-4.936523	fate
-5.181777	whereabouts
-4.7012134	missing
-5.901994	clarification
-4.1621785	42
-4.6799426	guiding
-6.2711554	Rambouillet
-5.716923	accords
-5.1017327	reverse
-4.4964514	de
-5.1204033	facto
-5.1204033	jure
-5.4880223	permits
-6.2711554	cantonization
-4.0715156	43
-4.846575	stop
-4.069814	44
-4.3480797	monitor
-3.9192283	45
-4.3578568	examination
-4.7553153	114
-3.975549	Islamic
-4.2063603	Iran
-4.043462	Mindful
-3.9050562	Forms
-3.9555173	Racial
-3.921636	Child
-4.826724	177
-5.279985	true
-5.4456763	Iranian
-3.966086	reform
-5.901994	penitentiary
-4.323035	line
-3.6736753	assessment
-4.878163	code
-4.9896097	penal
-4.1163716	procedure
-5.228111	attendance
-5.228111	kinds
-6.1610317	lawsuits
-4.323035	project
-5.4880223	re-establishing
-4.0836153	offices
-5.003961	judge
-6.036102	prosecutor
-4.708542	recently
-4.266095	put
-4.653111	longer
-5.799674	obliged
-4.5981903	applying
-4.763625	marriage
-5.799674	licence
-5.1399136	Developments
-5.1204033	observed
-6.2711554	bill
-4.5245514	currently
-4.505617	raising
-4.2427216	age
-4.266095	invitation
-5.228111	suspension
-5.716923	newspapers
-4.4411683	prohibition
-4.4786797	publications
-5.799674	intellectuals
-6.1610317	pretext
-5.228111	deny
-5.204326	restrict
-5.6474447	apparent
-4.1926274	cruel
-4.188145	degrading
-5.4456763	pattern
-4.889224	persecution
-5.1017327	Baha
-5.279985	'is
-5.3389063	sentencing
-3.7912283	intolerance
-4.780738	resume
-5.03417	evolution
-5.1017327	near
-5.901994	verdicts
-4.3260875	imposed
-5.204326	disregard
-4.5981903	statistics
-4.406641	accelerate
-4.406641	investigation
-5.534947	suspicious
-4.627841	deaths
-4.3993273	grounds
-4.2017345	until
-5.3084474	completely
-6.1610317	emancipated
-5.6474447	amputation
-4.763625	115
-3.3578162	60
-6.036102	686
-5.5875635	Kuwaitis
-5.6474447	687
-6.036102	688
-5.253274	demanded
-5.018803	Iraqi
-6.036102	insisted
-5.534947	986
-5.716923	1111
-6.036102	1129
-5.716923	1143
-5.799674	1153
-5.901994	1175
-5.716923	1210
-5.716923	1242
-5.799674	1266
-5.799674	1281
-5.716923	1302
-4.2936325	authorized
-5.3389063	imports
-4.91223	oil
-5.1204033	purchase
-4.549442	supplies
-5.5875635	1284
-5.534947	ceiling
-6.036102	allowable
-5.204326	import
-3.7359004	amount
-5.371664	revenue
-5.003961	laid
-5.003961	down
-4.211036	designed
-4.4293513	achievements
-4.9005747	reiterated
-4.323035	repatriation
-5.4880223	Kuwaiti
-5.066639	third-country
-4.271465	observations
-5.6474447	treaty-monitoring
-4.329162	point
-4.1317625	hold
-4.7235804	bound
-5.4456763	pointing
-4.0466695	sanctions
-5.066639	daily
-4.739158	dire
-6.1610317	appealing
-3.2752297	management
-5.5875635	dismay
-4.0037813	improvement
-5.204326	extremely
-6.036102	all-pervasive
-4.708542	broad-based
-4.878163	terror
-5.1204033	fear
-4.9622555	imprisonment
-5.279985	expulsion
-5.3389063	house
-5.901994	demolition
-4.4371934	faced
-4.07666	threats
-5.181777	opponents
-5.371664	abroad
-5.5875635	Summary
-5.3084474	so-called
-6.1610317	clean-out
-5.253274	prisons
-5.901994	routinely
-5.4880223	practised
-5.799674	routine
-6.036102	Widespread
-4.188145	maintaining
-5.716923	decrees
-5.901994	prescribing
-4.1664	offences
-5.181777	ethnicity
-5.204326	stationing
-5.6474447	monitors
-5.4456763	abrogate
-4.817129	granting
-4.5704355	specified
-4.9757175	killing
-6.036102	injuring
-5.003961	prescribed
-5.371664	prescribe
-4.878163	mutilation
-5.901994	Revolution
-5.901994	Command
-5.901994	Decree
-5.799674	840
-5.066639	penalize
-5.4456763	repressive
-5.4880223	Kurds
-6.036102	Assyrians
-5.4880223	Turkmen
-5.534947	deportation
-6.2711554	Kirkuk
-6.2711554	Khanaqin
-6.2711554	marsh
-6.2711554	drainage
-6.2711554	provoked
-6.036102	Shi
-6.036102	'a
-5.4880223	Tripartite
-4.009655	Subcommittee
-4.1497555	resolve
-4.3200035	remaining
-4.323035	hundred
-4.218146	occupation
-4.715996	coordinator
-5.6474447	died
-5.901994	692
-5.181777	arrested
-5.534947	certificates
-5.901994	deceased
-4.3200035	aid
-5.018803	northern
-4.659665	sections
-3.8324633	timely
-4.9005747	remote
-6.036102	purchased
-6.2711554	oil-for-humanitarian-goods
-5.003961	pregnant
-5.066639	disabled
-6.1610317	mentally
-5.253274	ill
-6.1610317	unobstructed
-6.1610317	involuntarily
-5.003961	demonstrate
-5.716923	resided
-4.1144857	six
-4.4178476	months
-4.5197396	temporary
-4.6730776	residence
-4.2741747	identification
-5.3084474	minefields
-4.1163716	facilitating
-5.799674	marking
-5.901994	clearing
-3.916834	decides
-4.659665	116
-4.6157365	85
-3.8048506	relief
-3.9062197	conflicts
-4.6157365	firm
-3.967425	belief
-3.885739	settlement
-4.0231686	initiative
-4.1201687	Authority
-4.029312	creation
-5.5875635	Sudanese
-4.323035	Liberation
-4.836536	Army
-4.3850594	Movement
-5.160341	willingness
-5.4070954	Abduction
-3.7711372	response
-4.030862	communities
-4.2936325	representative
-4.9242067	reflecting
-5.901994	Recent
-4.646654	Act
-5.1399136	announcement
-4.4874744	commission
-6.1610317	stipulation
-4.505617	Constitution
-4.037116	operation
-6.036102	promulgate
-6.1610317	liberties
-6.2711554	Leniency
-4.3921347	led
-5.4880223	imprisoned
-6.2711554	exiled
-6.2711554	Rumbek
-3.9908493	Executive
-4.250374	Director
-4.867376	recruit
-5.4880223	eighteen
-5.4880223	demobilize
-3.5687592	child
-5.03417	n
-4.014113	convening
-4.388582	fourth
-3.9062197	Assistance
-5.6474447	attended
-4.559812	delegations
-5.1017327	communiqué
-5.1399136	o
-5.1204033	repeated
-4.6217465	favour
-5.181777	monitored
-4.7895536	ceasefire
-6.1610317	worsened
-6.036102	breakdown
-5.799674	upsurge
-6.2711554	confrontations
-6.1610317	allies
-6.1610317	insurgent
-4.0732236	ii
-5.181777	combatants
-5.716923	conscription
-4.2205415	civilians
-4.296485	iii
-4.715996	abduction
-4.514981	iv
-4.936523	indiscriminate
-5.534947	aerial
-6.1610317	bombardments
-6.2711554	recurrently
-5.0838313	installations
-5.4070954	bombings
-4.878163	schools
-5.4880223	hospitals
-4.836536	premises
-4.836536	v
-3.2771413	weapons
-5.716923	artillery
-5.6474447	shelling
-5.03417	vi
-4.659665	withdrawal
-5.0501013	potentially
-5.3084474	endangered
-4.6799426	thousands
-5.4456763	vii
-6.2711554	Precarious
-5.3389063	frequent
-6.2711554	interrogations
-4.9622555	Acts
-4.627841	Restrictions
-3.4235144	Information
-4.9005747	avoiding
-4.3921347	severe
-5.6474447	punishments
-4.91223	utilized
-4.7235804	negotiated
-5.371664	runs
-4.1926274	attacks
-5.4456763	usually
-4.586875	days
-6.036102	tranquillity
-3.5074167	agreed
-6.2711554	polio
-6.1610317	vaccination
-4.0871353	delivery
-6.2711554	Bahr
-6.2711554	el-Ghazal
-5.799674	Nuba
-4.9491987	Mountains
-4.329162	Western
-6.1610317	Upper
-6.036102	Nile
-3.921636	Coordination
-3.8525841	Affairs
-4.179316	Operation
-5.4070954	Lifeline
-3.6875348	negotiations
-3.9866228	soon
-3.8384023	In
-6.2711554	misappropriate
-4.449229	itself
-5.5875635	Not
-4.2796454	advance
-4.514981	demobilization
-4.772097	unaccompanied
-4.9005747	minors
-4.170663	case
-4.09787	were
-5.6474447	abducted
-6.036102	travelling
-5.1399136	team
-5.1017327	subsequently
-4.780738	enjoy
-5.228111	accused
-4.5704355	ordinary
-5.3084474	trials
-4.2427216	Torture
-3.8217819	Other
-4.5245514	Cruel
-4.5245514	Inhuman
-4.5245514	Degrading
-4.299356	Treatment
-4.4574413	Punishment
-5.901994	sure
-5.799674	abductions
-4.7985525	trial
-4.0023255	supporting
-5.03417	cooperating
-3.8285487	addressing
-6.1610317	definitively
-5.5875635	bombardment
-4.009655	targets
-5.901994	wholly
-4.609809	Armed
-4.4700594	Conflict
-5.03417	Standard
-5.371664	Minimum
-4.323035	Rules
-5.901994	Prisoners
-4.351314	raise
-4.2555513	expand
-4.3611655	63
-3.677099	Democratic
-3.7593482	Congo
-4.836536	179
-5.5875635	1304
-4.817129	mindful
-5.03417	Ceasefire
-4.878163	Lusaka
-5.4880223	Kampala
-5.371664	disengagement
-4.6663194	signatories
-5.018803	Extraordinary
-4.059744	Heads
-4.9491987	Southern
-5.018803	Maputo
-4.510274	summit
-4.092469	heads
-5.6474447	Kinshasa
-4.092469	Concerned
-4.3993273	mentioned
-4.708542	incitement
-4.510274	hatred
-4.5245514	dimension
-4.1201687	Great
-5.3084474	Lakes
-5.1204033	Rapporteurs
-4.009655	member
-4.91223	begin
-4.7235804	Encouraging
-5.066639	earlier
-4.029312	conventions
-5.1017327	progressively
-5.1017327	abolish
-5.901994	trying
-5.253274	Military
-5.1399136	Congolese
-4.2687716	office
-5.4456763	Ministry
-5.901994	concert
-6.1610317	amnesty
-5.5875635	ordered
-3.9109051	President
-6.1610317	Kabila
-5.799674	inter-Congolese
-5.228111	deplores
-3.9796686	date
-3.8813162	Forum
-6.1610317	Demobilization
-6.2711554	Soldiers
-5.799674	Rally
-5.1204033	regrets
-5.160341	however
-6.2711554	apparently
-4.6217465	unable
-5.279985	acceleration
-6.1610317	1291
-4.936523	authorize
-4.3448687	expansion
-6.036102	hate
-6.2711554	preoccupying
-4.826724	eastern
-5.3389063	massacres
-4.9005747	perpetrated
-4.4103446	course
-5.279985	disproportionate
-5.1017327	occurring
-6.2711554	Lisenda-8
-4.3611655	road
-6.2711554	Katogata
-6.2711554	Kamanyola
-6.2711554	Lurbarika
-6.2711554	Luberezi
-6.2711554	Ngenge
-6.2711554	Kalehe
-6.2711554	Kilambo
-6.2711554	Cidaho
-6.2711554	Uvira
-6.2711554	Shabunda
-6.2711554	Lusenda-Lubumba
-4.807741	fighting
-6.1610317	Kisangani
-6.1610317	Ugandan
-4.6663194	Rwandan
-6.2711554	hospital
-6.2711554	Libenge
-6.2711554	Gemena
-5.534947	elsewhere
-6.1610317	Hema
-6.1610317	Lendu
-5.253274	province
-6.1610317	beating
-5.716923	politicians
-5.799674	reprisals
-4.653111	excessive
-5.066639	accumulation
-4.659665	spread
-3.478191	arms
-3.623491	illicit
-4.6217465	circulation
-4.9896097	breaches
-4.2879834	whole
-6.1610317	Churches
-4.7312994	insecurity
-6.036102	minimizes
-4.41408	ability
-5.181777	re-establishment
-4.510274	engagement
-5.901994	all-inclusive
-4.425483	activity
-4.565091	Hague
-5.6474447	Laws
-5.204326	Customs
-4.2205415	War
-4.763625	Land
-5.279985	1907
-4.3260875	Genocide
-4.510274	speedy
-4.5197396	deployment
-3.886852	associated
-5.4070954	contravention
-5.228111	define
-5.3084474	lawful
-4.7471614	border
-4.2741747	using
-5.4880223	try
-4.1278634	relation
-4.4332547	types
-4.867376	stipulated
-5.534947	lifting
-4.0231686	Rwanda
-4.7012134	Citizens
-4.2741747	Such
-4.6663194	Neighbouring
-3.694634	crime
-4.603961	genocide
-3.7227216	rehabilitation
-4.780738	118
-4.371245	Haiti
-4.817129	187
-4.4700594	78
-5.4456763	277
-6.2711554	Adama
-6.2711554	Dieng
-4.2936325	Civilian
-4.3260875	Support
-4.2796454	considering
-5.1017327	reinforcement
-5.4070954	Haitian
-6.2711554	professionalize
-4.213393	coordinate
-4.592496	Commending
-4.0023255	American
-3.9810505	actors
-4.7471614	found
-5.5875635	deficiencies
-4.708542	notably
-4.332258	electoral
-5.0501013	parliament
-4.91223	institution
-6.2711554	Haitians
-4.0339775	fight
-5.799674	convictions
-6.2711554	Carrefour-Feuilles
-5.716923	massacre
-4.763625	opening
-6.2711554	Raboteau
-5.1017327	Deploring
-4.646654	met
-5.160341	upholding
-5.901994	Provisional
-4.867376	Electoral
-5.4880223	neutral
-4.170663	preparations
-4.739158	forthcoming
-6.2711554	senatorial
-4.6799426	gratitude
-5.716923	supervising
-6.1610317	Missions
-4.5294166	concluded
-4.1278634	build
-5.279985	obtained
-3.8683112	performance
-4.715996	efficiently
-4.9622555	curb
-5.799674	alarming
-4.3385177	ratify
-4.108876	interested
-3.6289942	sector
-4.9491987	properly
-5.3084474	politically
-5.371664	vigorous
-5.1399136	orders
-4.640292	reasonable
-6.2711554	timeframes
-3.834434	combating
-5.799674	Truth
-4.2687716	proceedings
-4.4964514	Permanent
-4.640292	conjunction
-4.1298084	options
-4.627841	resolving
-6.036102	conflicting
-6.2711554	interpretations
-4.5704355	hope
-3.8958588	result
-5.901994	corrective
-5.204326	renewal
-3.9204304	third
-5.901994	Senate
-4.836536	credible
-5.253274	restoring
-5.6474447	credibility
-4.0037813	involvement
-3.834434	reconstruction
-4.91223	incorporating
-4.7471614	119
-3.6056352	Afghanistan
-4.2796454	relative
-4.3051558	Time
-4.008179	Afghan
-4.9005747	finding
-6.036102	Mazar-e
-6.036102	Sharif
-6.2711554	Bamian
-5.901994	alarm
-4.6730776	resumption
-4.6730776	Taliban
-5.6474447	summer
-6.036102	Taloqan
-4.889224	massive
-3.6982276	girls
-5.6474447	diplomats
-6.036102	correspondent
-4.9242067	News
-3.490093	Agency
-6.1610317	Taliban-held
-5.371664	heinous
-5.534947	persisting
-5.716923	substantiated
-4.4919395	extensive
-4.807741	millions
-4.41408	Pakistan
-4.2824073	Tajikistan
-5.160341	deliberate
-6.2711554	life-sustaining
-3.6917803	operations
-6.036102	sharp
-6.2711554	Shamali
-6.036102	Plains
-6.1610317	Panjshir
-5.534947	Valley
-5.5875635	north-east
-6.2711554	interfering
-4.0783887	affairs
-4.371245	supply
-4.836536	ammunition
-4.213393	equipment
-5.181777	fuel
-5.534947	identifiable
-5.6474447	concurrently
-4.554596	Personal
-5.5875635	Tashkent
-5.0501013	Fundamental
-4.50101	Peaceful
-5.0501013	Settlement
-5.4456763	laying
-4.603961	foundation
-5.228111	publicly
-4.9896097	halt
-6.2711554	wanton
-4.2555513	mines
-4.1859207	mine
-4.763625	prohibit
-5.901994	conscripting
-5.901994	enlisting
-4.7235804	remedies
-5.799674	suspects
-5.279985	convicted
-6.2711554	captors
-6.036102	non-criminal
-4.364499	diplomatic
-4.2879834	nationality
-4.9005747	discriminate
-4.694007	impede
-4.559812	mental
-4.603961	regret
-6.036102	Front
-5.799674	unsatisfactory
-6.2711554	north
-5.279985	denied
-5.0501013	investigating
-3.7166555	ongoing
-4.9005747	completed
-3.9951174	overall
-5.3084474	looting
-6.1610317	artifacts
-3.9701161	emphasizes
-4.07666	share
-4.539314	seeking
-5.204326	accommodate
-6.1610317	45th
-5.716923	L.14
-4.554596	Andorra
-4.183708	Angola
-4.627841	Antigua
-4.6340218	Barbuda
-4.2796454	Argentina
-4.4574413	Armenia
-4.3480797	Australia
-4.157998	Austria
-4.378097	Azerbaijan
-4.2741747	Bangladesh
-4.2634354	Belarus
-4.208692	Belgium
-4.4411683	Belize
-4.4964514	Benin
-5.003961	Bhutan
-4.739158	Botswana
-4.237694	Brazil
-4.659665	Brunei
-4.659665	Darussalam
-4.402969	Bulgaria
-4.510274	Burkina
-4.510274	Faso
-4.565091	Burundi
-4.0052423	Cambodia
-4.1518016	Canada
-4.4371934	Cape
-4.4874744	Verde
-4.715996	Chad
-4.2687716	Chile
-4.381564	China
-4.3200035	Colombia
-4.3611655	Costa
-4.3611655	Rica
-4.4178476	Côte
-4.4178476	'Ivoire
-4.23026	Cuba
-4.247808	Cyprus
-4.3051558	Czech
-4.0996847	Korea
-4.208692	Denmark
-4.4830546	Dominican
-4.3480797	Ecuador
-4.266095	El
-4.4216485	Salvador
-4.6340218	Eritrea
-4.4574413	Estonia
-4.2607913	Ethiopia
-4.4964514	Fiji
-4.208692	Finland
-4.108876	France
-4.4700594	Gabon
-4.694007	Gambia
-4.406641	Georgia
-4.6799426	Ghana
-4.147719	Greece
-4.135697	Guatemala
-4.1201687	Guinea
-4.554596	Guyana
-4.6157365	Honduras
-4.395716	Hungary
-4.41408	Iceland
-4.351314	India
-4.213393	Indonesia
-3.8693802	Ireland
-3.6485019	Israel
-4.043462	Italy
-4.5704355	Jamaica
-4.0889063	Japan
-4.311034	Kazakhstan
-4.4919395	Kenya
-4.586875	Kyrgyzstan
-4.7985525	Lao
-4.549442	Latvia
-4.708542	Lesotho
-4.351314	Liberia
-4.5197396	Liechtenstein
-4.4178476	Lithuania
-4.23026	Luxembourg
-4.3611655	Madagascar
-4.3353767	Malaysia
-5.003961	Maldives
-4.378097	Mali
-4.2555513	Malta
-4.7312994	Marshall
-3.8683112	Islands
-4.188145	Mexico
-4.3545732	Monaco
-4.247808	Mongolia
-4.3850594	Mozambique
-4.364499	Namibia
-4.694007	Nauru
-4.627841	Nepal
-4.2040415	Netherlands
-4.118266	Zealand
-4.4371934	Nicaragua
-4.5981903	Niger
-4.41408	Nigeria
-4.23026	Norway
-4.465812	Panama
-4.659665	Papua
-4.6217465	Paraguay
-4.3545732	Peru
-4.4574413	Philippines
-4.3385177	Poland
-4.1518016	Portugal
-4.3260875	Moldova
-4.2687716	Romania
-4.029312	Russian
-4.1126075	Saint
-4.9491987	Kitts
-4.9491987	Nevis
-4.4371934	Samoa
-4.627841	Marino
-4.846575	Sao
-4.8568506	Tome
-4.867376	Principe
-4.2607913	Senegal
-4.3611655	Sierra
-4.364499	Leone
-4.592496	Singapore
-4.3545732	Slovakia
-4.299356	Slovenia
-4.846575	Solomon
-3.74868	South
-4.17281	Spain
-4.836536	Sri
-4.836536	Lanka
-4.5704355	Suriname
-4.846575	Swaziland
-4.215763	Sweden
-4.3353767	Thailand
-4.008179	former
-4.2851863	Yugoslav
-4.2936325	Macedonia
-4.4216485	Togo
-4.6340218	Trinidad
-4.6340218	Tobago
-4.2769017	Turkey
-4.6217465	Uganda
-4.174968	Ukraine
-4.125927	Kingdom
-4.1298084	Britain
-4.1518016	Northern
-4.5443482	Tanzania
-4.474348	Uruguay
-4.586875	Uzbekistan
-4.575846	Venezuela
-4.807741	Viet
-4.807741	Nam
-4.5704355	Zambia
-4.6799426	Zimbabwe
-5.6474447	Korean
-5.716923	peninsula
-5.6474447	inter-Korean
-4.575846	consolidating
-6.2711554	Pyongyang
-3.9951174	declaration
-6.2711554	breakthrough
-4.6157365	realizing
-5.901994	wake
-6.2711554	Co-Chairpersons
-4.110738	reached
-4.4830546	sides
-4.878163	solid
-4.9491987	82nd
-5.716923	L.44
-5.6474447	Rev.2
-4.586875	Bolivia
-4.9757175	Equatorial
-4.627841	215
-4.4293513	82
-4.7985525	149
-4.878163	clearance
-4.9005747	191
-5.3389063	tremendous
-4.2063603	caused
-4.936523	unexploded
-4.575846	devices
-4.772097	obstacle
-4.9491987	normal
-5.066639	mine-affected
-4.5294166	pose
-4.1278634	Reiterating
-4.2851863	76
-3.8266046	disabilities
-4.41408	urgency
-5.03417	mine-clearance
-4.308085	eliminating
-4.554596	First
-5.1204033	Annual
-3.3864217	Parties
-5.003961	Amended
-4.640292	Prohibitions
-3.9555173	Use
-4.780738	Certain
-4.4874744	Conventional
-3.6085606	Weapons
-4.780738	Which
-4.4874744	Be
-4.7895536	Deemed
-4.7895536	Excessively
-4.7895536	Injurious
-4.659665	Have
-4.7895536	Indiscriminate
-4.5443482	Effects
-4.247808	inclusion
-4.6157365	requirement
-5.901994	detectability
-3.8577635	entry
-3.8113568	Review
-4.096062	concerns
-5.716923	covers
-4.027768	Prohibition
-4.381564	Stockpiling
-4.3578568	Production
-4.603961	Transfer
-4.7895536	Anti-personnel
-4.627841	Mines
-4.110738	Their
-4.364499	Destruction
-4.449229	entered
-4.534337	acceded
-5.716923	thirty-nine
-5.228111	nine
-3.817962	Meeting
-5.03417	things
-5.4880223	mine-awareness
-5.3389063	inter-sessional
-5.716923	convince
-5.534947	deployments
-3.7930202	effectiveness
-3.9741845	efficiency
-5.4070954	maps
-4.1600833	otherwise
-4.465812	render
-5.228111	ineffective
-5.4070954	booby
-5.4070954	traps
-4.2796454	limited
-4.367859	availability
-4.659665	cost-effective
-5.534947	mine-detection
-3.896998	research
-4.9622555	conscious
-4.3611655	cost
-4.381564	addition
-4.7553153	devote
-4.772097	Mine
-3.452035	Department
-4.50101	Peacekeeping
-4.3921347	Operations
-4.505617	mine-action
-3.8132336	centres
-4.237694	trust
-4.772097	direction
-3.9426584	donor
-4.565091	recipient
-5.279985	impediment
-4.183708	donors
-5.716923	in-kind
-4.5245514	Voluntary
-4.054795	Trust
-4.4216485	ownership
-4.1926274	sustainability
-3.849506	integrated
-4.7235804	broader
-4.0499015	socio-economic
-5.371664	gender-
-5.1204033	age-appropriate
-5.799674	child-centred
-4.168526	reducing
-6.036102	relieving
-4.4830546	plight
-4.332258	continuous
-4.2327237	focal
-5.6474447	mine-related
-5.3389063	landmine
-5.204326	multisectoral
-3.9866228	assessments
-5.160341	surveys
-5.1017327	certification
-3.976918	guidelines
-4.826724	followed
-3.611506	Centre
-5.5875635	Demining
-4.7471614	Project
-4.0836153	Services
-4.9757175	continuity
-3.8444238	data
-4.4533157	useful
-6.036102	surveying
-5.1399136	detection
-3.9144528	scientific
-5.534947	recording
-4.6340218	location
-5.4456763	retaining
-4.367859	records
-4.7553153	cessation
-5.5875635	locate
-5.1204033	destroy
-4.19944	technological
-4.7985525	techniques
-5.1017327	lower
-5.3389063	safer
-3.8947227	operational
-5.0501013	revision
-6.2711554	dogs
-6.2711554	mechanical
-4.889224	test
-4.0023255	evaluation
-4.364499	outlined
-4.3051558	how
-4.1903806	sound
-4.846575	121
-4.6340218	83rd
-6.036102	568
-5.1017327	atomic
-4.534337	radiation
-5.5875635	913
-4.271465	X
-4.646654	1955
-4.1144857	Atomic
-5.1204033	Radiation
-4.50101	66
-5.018803	Sources
-6.2711554	Ionizing
-6.036102	Annexes
-4.609809	desirability
-4.4616065	harmful
-4.2327237	Conscious
-5.0838313	compile
-4.7985525	ionizing
-4.3353767	valuable
-5.4880223	forty-five
-5.253274	inception
-4.708542	fulfilling
-4.592496	original
-4.2687716	provides
-4.4574413	latest
-5.066639	evaluations
-3.922845	reporting
-4.014113	Endorses
-5.4880223	intentions
-3.7788887	plans
-4.50101	behalf
-3.7610128	Environment
-4.554596	rendered
-4.118266	Energy
-5.3084474	scientists
-4.7235804	readiness
-5.5875635	doses
-4.6340218	122
-6.1610317	569
-4.592496	uses
-3.847466	outer
-3.5576537	space
-4.5704355	exploration
-4.5813255	derived
-4.308085	adherence
-5.1204033	Seriously
-4.19944	capabilities
-4.6157365	condition
-4.4293513	debris
-4.147719	applications
-4.3993273	cooperative
-3.853615	Space
-4.2402005	Third
-4.7553153	Exploration
-4.6157365	Uses
-4.1317625	Outer
-4.559812	UNISPACE
-3.8693802	III
-4.090684	science
-5.4456763	telemedicine
-5.5875635	tele-education
-4.6663194	Earth
-4.6730776	forty-third
-4.213393	governing
-4.2907987	acceding
-5.1017327	thirty-ninth
-4.125927	Legal
-5.0501013	geostationary
-4.9896097	orbit
-4.780738	endorsement
-4.936523	fortieth
-4.7235804	Consider
-4.378097	items
-4.170663	five
-4.7312994	Matters
-4.772097	definition
-5.003961	delimitation
-5.5875635	rational
-4.213393	prejudice
-4.836536	Telecommunication
-3.7576897	Union
-4.534337	single
-4.311034	discussion
-5.1399136	Relevant
-3.8020916	Nuclear
-3.747062	Institute
-5.6474447	Unification
-5.371664	Private
-6.1610317	mobile
-4.772097	protocol
-6.1610317	Continue
-4.780738	launching
-5.1017327	forty-first
-3.1464767	2002
-3.7478704	above
-4.807741	reconvene
-5.018803	bureaux
-4.157998	subsidiary
-4.5294166	term
-4.9896097	starting
-4.3051558	consensus
-4.565091	agrees
-5.1204033	elect
-6.2711554	chairmen
-4.565091	beginning
-5.0838313	thirty-eighth
-4.708542	forty-fourth
-3.1525972	2003
-5.0501013	thirty-seventh
-4.474348	Agrees
-4.4616065	assess
-4.4830546	mitigation
-3.982437	extent
-4.91223	model
-5.901994	characterize
-4.7012134	introduction
-4.7985525	Applications
-5.716923	sensing
-5.03417	satellite
-3.145061	nuclear
-5.3084474	Means
-5.160341	space-based
-3.7519348	disaster
-6.1610317	370
-5.4070954	Examination
-5.534947	attributes
-3.544286	private
-6.1610317	engineering
-4.157998	proposal
-4.181506	Research
-5.716923	Astronautical
-4.807741	liaison
-5.181777	arrange
-5.1399136	symposium
-4.4371934	theme
-6.2711554	Terrestrial
-4.5813255	hazards
-4.715996	objects
-5.160341	phenomena
-4.8568506	week
-4.4616065	industry
-4.2879834	emerging
-4.465812	navigation
-4.627841	productivity
-4.035544	infrastructure
-3.9144528	organized
-3.8030093	paragraphs
-5.160341	Whole
-4.4786797	list
-3.8661811	approved
-5.1204033	Expert
-4.708542	French
-4.846575	English
-4.6663194	located
-5.160341	began
-4.1126075	educational
-4.7985525	Science
-4.575846	Technology
-4.133725	Education
-3.8577635	Pacific
-4.7553153	furthering
-4.4786797	Network
-4.7553153	Institutions
-4.7012134	Eastern
-5.4880223	grow
-4.388582	network
-6.036102	nodes
-4.9005747	usefulness
-4.91223	Americas
-4.2205415	convene
-4.836536	periodically
-5.371664	convergence
-4.4103446	positions
-4.510274	conducting
-5.4880223	space-related
-4.5443482	above-mentioned
-5.1017327	agendas
-4.817129	forty-seventh
-3.2195523	2004
-4.07666	prepare
-4.2427216	submission
-5.5875635	appraise
-3.789444	fifty-ninth
-4.22781	Headquarters
-4.807741	launch
-5.181777	Week
-5.228111	celebrate
-5.1399136	industries
-4.388582	paid
-4.4786797	preservation
-5.5875635	collisions
-4.1948867	improved
-5.066639	compilation
-4.559812	affordable
-4.351314	minimize
-4.763625	orderly
-3.7273273	disasters
-5.4880223	prominently
-4.7471614	promoted
-4.311034	sharing
-5.4880223	seats
-6.036102	rotating
-4.381564	namely
-5.5875635	terminated
-5.160341	enlargement
-4.341682	requesting
-4.2253737	informal
-4.4964514	reaching
-5.5875635	Spin-off
-4.1497555	scope
-4.9757175	ethical
-5.0838313	subjects
-5.4070954	studied
-5.181777	preamble
-4.627841	123
-5.534947	570
-4.836536	156
-4.5294166	69
-4.4332547	194
-4.6799426	1948
-4.4574413	Commissioner-General
-4.19944	Relief
-4.3746576	Works
-4.3578568	Near
-3.4843216	East
-3.8237045	Middle
-4.2327237	signature
-4.646654	Washington
-4.653111	D.C.
-4.592496	Self-Government
-4.50101	Arrangements
-4.91223	Multilateral
-5.03417	effected
-4.640292	Conciliation
-4.7312994	find
-4.609809	exert
-3.874765	recognizing
-4.5704355	limits
-4.4411683	success
-5.4070954	expense
-3.8619518	occupied
-4.7012134	expedite
-3.3400578	Palestinian
-4.7895536	move
-4.3385177	budgetary
-4.7471614	unified
-4.3480797	structure
-3.5912962	biennium
-4.6799426	2000-2001
-4.3921347	significantly
-4.5197396	consultative
-3.8813162	host
-5.716923	shortfall
-5.4456763	finances
-4.6217465	generous
-5.003961	anticipated
-5.4456763	moving
-4.3611655	headquarters
-4.609809	Gaza
-6.1610317	non-contributing
-4.826724	124
-3.8824177	Financing
-6.036102	2656
-4.9242067	XXV
-4.653111	1970
-6.036102	2728
-6.1610317	2791
-5.0838313	XXVI
-4.8568506	1971
-4.9622555	462
-4.311034	1982
-4.772097	took
-5.4070954	emergency-related
-4.4293513	construction
-4.218146	approval
-4.708542	125
-3.8769376	1967
-5.5875635	2252
-5.5875635	ES-V
-5.5875635	2341
-3.5524635	B
-5.0838313	XXII
-4.565091	237
-5.1204033	259
-4.9622555	1968
-4.364499	71
-4.7471614	XII
-4.708542	accelerated
-5.3084474	meanwhile
-4.878163	practicable
-4.6340218	generously
-5.0501013	consulting
-4.826724	126
-4.559812	160
-4.505617	none
-4.878163	abstention
-5.4070954	Offers
-4.7985525	grants
-4.846575	scholarships
-4.4293513	higher
-4.715996	212
-4.2907987	1980
-4.575846	H
-4.250374	1981
-4.170663	D
-4.5981903	83
-4.739158	1983
-4.7471614	99
-4.867376	165
-4.449229	1987
-3.2037816	57
-4.4178476	1988
-4.1771364	73
-4.889224	Cognizant
-4.592496	last
-5.181777	decades
-5.0501013	lost
-4.9005747	lands
-4.878163	livelihood
-4.332258	90
-4.4411683	F
-4.5813255	commensurate
-5.4070954	augment
-4.889224	allocations
-5.204326	responded
-4.91223	favourably
-6.1610317	Untied
-4.7553153	students
-4.1664	University
-5.3389063	universities
-3.8217819	Jerusalem
-5.4070954	Al-Quds
-5.4880223	trustee
-5.181777	award
-4.817129	qualified
-4.3611655	candidates
-4.708542	157
-5.1399136	302
-4.110738	IV
-4.44518	letter
-4.627841	dated
-3.6015723	Advisory
-4.302246	E
-4.565091	J
-4.153857	C
-4.549442	Privileges
-4.4700594	Immunities
-4.6157365	applicability
-4.715996	aware
-3.796626	Occupied
-4.510274	Gravely
-4.836536	injury
-4.807741	tragic
-5.279985	letters
-4.174968	relationship
-5.228111	417
-5.253274	tireless
-4.6217465	City
-4.50101	duties
-4.0996847	occupying
-4.686918	accept
-5.03417	scrupulously
-4.936523	safeguarding
-5.4070954	obstructing
-5.1399136	vehicles
-4.6730776	detrimental
-5.371664	compensate
-5.799674	damages
-3.8217819	Israeli
-4.878163	side
-4.5981903	issuance
-5.279985	cards
-5.4880223	descendants
-5.6474447	henceforth
-4.381564	Coordinator
-4.014113	Process
-5.799674	austerity
-4.1070223	quality
-4.7012134	modernization
-4.9896097	archives
-5.066639	ease
-4.4616065	constraints
-4.9242067	properties
-4.91223	revenues
-4.575846	74
-4.7895536	uphold
-5.03417	arbitrarily
-4.889224	394
-4.1497555	V
-5.3389063	1950
-4.23026	completion
-4.817129	twenty-second
-4.889224	schedule
-5.1017327	owners
-5.253274	file
-5.0501013	defining
-5.4880223	particulars
-4.609809	commence
-3.989436	income
-4.17281	assets
-4.4786797	preserve
-5.3084474	modernize
-4.9242067	possession
-4.7895536	129
-4.44518	G
-4.6663194	K
-3.952915	I
-4.817129	130
-4.266095	75
-6.2711554	July1999
-4.534337	specifically
-4.388582	giving
-5.901994	hindrances
-5.901994	48th
-5.6474447	L.23
-4.271465	Mauritius
-4.739158	Seychelles
-5.3389063	Admission
-4.2427216	received
-5.371664	admitted
-5.716923	admit
-5.3389063	571
-4.694007	91
-3.4335988	61
-5.03417	Work
-4.7235804	Investigate
-4.640292	Practices
-4.7235804	Affecting
-4.6217465	Arabs
-3.3381639	Territories
-5.5875635	2443
-5.371664	XXIII
-6.1610317	uprising
-6.1610317	intifada
-4.826724	represents
-4.6799426	injuries
-4.6663194	Israeli-Palestinian
-4.3746576	West
-4.6730776	Strip
-5.1399136	Sharm
-5.279985	el-Sheikh
-5.253274	Memorandum
-4.846575	performing
-4.2741747	tasks
-4.2936325	reflected
-5.4456763	few
-4.772097	weeks
-5.1204033	sixty
-4.2687716	pending
-5.0838313	termination
-4.4533157	consult
-4.090684	regulations
-5.1017327	safeguarded
-5.181777	arises
-4.889224	thereafter
-4.7235804	circulate
-3.6192586	Public
-5.5875635	reprint
-4.565091	entrusted
-4.6799426	131
-4.739158	152
-5.5875635	Applicability
-5.204326	contracting
-4.4964514	Switzerland
-4.653111	depositary
-4.559812	Contracting
-4.627841	ES-10
-4.575846	enforce
-4.867376	132
-4.213393	settlements
-4.1376777	Golan
-4.846575	affirming
-4.826724	inadmissibility
-4.425483	acquisition
-4.1456923	tenth
-4.381564	242
-5.5875635	446
-4.586875	1979
-5.1399136	465
-4.708542	497
-5.901994	started
-4.41408	Madrid
-5.4880223	Jabal
-5.4880223	Abu-Ghneim
-4.772097	dangerous
-5.1017327	settlers
-5.6474447	illustrated
-6.036102	worshippers
-6.036102	settler
-6.036102	Al-Khalil
-5.253274	904
-4.603961	confiscation
-4.0664315	aim
-5.901994	1073
-5.901994	1322
-5.1204033	army
-6.036102	Jericho
-6.036102	redeployments
-6.1610317	agreed-upon
-4.44518	phase
-5.03417	redeployment
-4.332258	collective
-4.8568506	closure
-5.1204033	annexation
-4.0732236	geographical
-5.1017327	demographic
-5.181777	mostly
-5.4456763	Palestinians
-4.351314	goods
-5.253274	understandings
-5.716923	El-Sheikh
-4.9005747	urging
-6.2711554	honestly
-4.936523	participated
-5.4880223	Temporary
-5.5875635	Presence
-5.5875635	Hebron
-5.1017327	Determines
-4.659665	validity
-4.640292	removal
-5.1204033	illegality
-4.7012134	impose
-5.4070954	inadmissible
-4.807741	338
-4.3746576	1973
-5.5875635	stalling
-5.1204033	tracks
-4.878163	null
-4.878163	void
-5.0501013	rescind
-5.160341	forthwith
-4.6799426	changing
-4.0749383	institutional
-5.4070954	purport
-5.279985	alter
-4.9491987	imposing
-5.1017327	citizenship
-4.4371934	identity
-4.867376	135
-5.3389063	572
-4.222951	Comprehensive
-3.3942356	2006
-5.799674	XIX
-5.716923	1965
-4.609809	81
-4.4919395	Panel
-4.817129	RESOLUTIONS
-5.4880223	573
-3.7660456	Questions
-4.014113	service
-4.640292	disparities
-5.066639	capability
-4.308085	values
-5.5875635	endogenous
-3.8890862	production
-4.9622555	what
-4.3260875	forums
-5.5875635	termed
-5.3389063	seen
-4.694007	evolving
-5.371664	interact
-4.609809	infrastructures
-4.772097	attached
-5.279985	independently
-4.3746576	professional
-5.228111	resolutely
-4.9757175	broadcasters
-4.565091	operating
-5.3084474	suited
-4.6340218	radio
-4.826724	television
-4.836536	broadcasting
-5.066639	telecommunication
-4.5813255	interregional
-4.6217465	facilitation
-4.772097	advanced
-4.1456923	market
-4.9896097	Communication
-5.534947	Concurring
-4.9622555	heart
-4.0466695	strategic
-3.874765	culture
-5.5875635	permeate
-5.371664	informing
-5.279985	1946
-3.7535713	technologies
-5.1204033	widen
-5.0501013	benefiting
-5.0501013	revolution
-5.5875635	rectifying
-5.279985	imbalances
-4.7895536	reorientation
-4.4371934	coherent
-5.228111	results-oriented
-5.03417	bridging
-4.7985525	2002-2005
-4.329162	emphasizing
-4.603961	amendments
-4.763625	207
-4.118266	focus
-4.110738	key
-4.271465	departments
-5.0501013	publicize
-4.539314	accomplishments
-3.6854274	debt
-3.7335455	drug
-4.449229	relevance
-5.4880223	closing
-4.7012134	digital
-4.807741	divide
-5.716923	spurring
-5.5875635	gulf
-4.7012134	drawing
-5.4456763	coexistence
-4.222951	web
-4.323035	site
-5.1204033	promotional
-4.8568506	campaign
-5.534947	enjoys
-5.3084474	broadest
-4.846575	202
-4.9005747	254
-4.826724	designation
-4.4332547	widely
-4.9242067	Appreciates
-5.018803	s
-4.9242067	formation
-6.1610317	day-to-day
-4.715996	stage
-5.204326	interdepartmental
-4.5704355	selection
-5.3084474	spokespersons
-4.3578568	skills
-5.4880223	duplicate
-4.936523	produced
-4.780738	Dag
-4.780738	Hammarskjöld
-4.5704355	Library
-5.716923	virtual
-4.889224	library
-4.5294166	outreach
-4.058088	materials
-4.4411683	accessible
-5.5875635	electronically
-5.5875635	readers
-4.91223	users
-5.204326	enrich
-4.9622555	stock
-5.1399136	books
-5.5875635	journals
-5.279985	development-related
-4.9896097	broadly
-4.1771364	resource
-4.7553153	contain
-5.4456763	editorial
-5.018803	accuracy
-4.7235804	consistency
-5.901994	briefings
-6.036102	Spokesman
-5.4070954	fashion
-4.889224	comprehensively
-4.878163	ninth
-5.4456763	disappointment
-3.9363692	per
-3.972824	cent
-4.708542	staffing
-4.772097	decade
-4.708542	acknowledges
-4.6799426	feasible
-4.586875	case-by-case
-5.1017327	autonomy
-5.03417	opinions
-5.3389063	replies
-5.6474447	questionnaire
-5.0501013	revitalize
-5.5875635	rationalizing
-6.036102	effecting
-5.534947	disbursement
-5.253274	imbalance
-4.3140035	factors
-5.799674	look
-5.253274	appointing
-5.799674	directors
-5.3084474	autonomous
-6.1610317	capitals
-5.066639	substitute
-4.381564	allocation
-3.916834	requirements
-4.609809	accurate
-4.936523	coverage
-5.371664	releases
-4.1948867	having
-4.388582	issued
-3.671634	official
-5.1204033	far-reaching
-5.3084474	Radio
-4.2402005	directly
-4.3850594	stations
-4.592496	programming
-6.2711554	Creole
-3.9810505	Unit
-4.846575	pilot
-5.03417	managerial
-5.4880223	output
-4.341682	traditional
-4.889224	channels
-4.549442	advantage
-4.3545732	Internet
-5.018803	pages
-5.4070954	rationalize
-4.603961	content
-5.4070954	overlap
-5.716923	repetition
-4.9896097	multilingual
-4.91223	enrichment
-4.058088	building
-6.2711554	modular
-4.9622555	parity
-4.936523	ultimately
-4.659665	publication
-4.351314	collection
-5.799674	trainees
-4.807741	news
-5.6474447	tours
-6.1610317	displays
-5.4456763	kept
-6.1610317	informative
-5.1204033	up-to-date
-5.901994	technologically
-4.1926274	innovative
-4.4574413	Chernobyl
-4.867376	138
-4.4830546	recalls
-4.836536	ecological
-4.772097	Semipalatinsk
-5.3389063	tests
-3.3124795	59
-4.1771364	durable
-4.9622555	137
-5.371664	574
-4.807741	153
-3.6702783	Non-Self-Governing
-4.308085	examined
-4.125927	chapter
-3.9838278	Granting
-3.9810505	Independence
-3.988027	Colonial
-3.490093	Countries
-4.9896097	XVIII
-4.807741	1963
-4.19944	1514
-4.029312	XV
-4.3746576	1960
-3.6150668	administering
-4.0156093	Powers
-4.6663194	papers
-4.2769017	Approves
-4.9622555	attained
-4.559812	self-government
-4.3480797	Chapter
-4.694007	XI
-4.341682	transmit
-4.474348	fullest
-4.22781	constitutional
-4.425483	maximum
-5.160341	expiration
-5.204326	drawn
-5.204326	published
-6.036102	575
-4.6217465	151
-4.4371934	inhabitants
-3.9109051	indigenous
-4.586875	size
-4.559812	diversification
-4.105176	vulnerability
-4.4332547	degradation
-4.3353767	wishes
-4.772097	valid
-5.4456763	exploiting
-4.9005747	detriment
-4.7985525	successive
-4.329162	Conferences
-4.351314	Non-Aligned
-4.118266	containing
-5.253274	dispose
-5.4456763	deprive
-4.1971574	avoid
-5.5875635	2621
-4.609809	corporate
-4.6157365	operate
-4.627841	enterprises
-5.4070954	damaging
-5.6474447	plundering
-3.6833303	marine
-4.708542	prosperity
-4.6730776	safeguard
-4.6799426	discriminatory
-5.5875635	wages
-4.7235804	disposal
-5.279985	unions
-4.91223	diversifying
-5.0838313	viability
-4.9622555	139
-5.4880223	576
-4.6799426	1541
-3.9634194	island
-4.7553153	associate
-4.029312	commissions
-4.817129	sphere
-5.253274	constrained
-4.6799426	securing
-4.763625	expanded
-5.0838313	enlist
-4.3353767	formulation
-5.0501013	hurricanes
-5.5875635	cyclones
-5.4880223	sea-level
-4.772097	rise
-4.2824073	recognition
-4.9622555	legitimacy
-5.1399136	entails
-5.5875635	corollary
-4.846575	extension
-4.3921347	formulate
-5.0501013	Environmental
-4.836536	volcanic
-5.204326	eruptions
-5.5875635	beach
-4.211036	coastal
-4.9757175	erosion
-5.1399136	droughts
-5.1399136	Ways
-4.3200035	money-laundering
-4.6217465	utilize
-4.5294166	recommends
-4.3385177	preparedness
-4.2427216	elected
-4.9896097	accord
-4.388582	debate
-5.901994	51st
-5.6474447	L.13
-4.867376	Bahamas
-4.6217465	Malawi
-4.609809	Lucia
-6.2711554	immuno-deficiency
-4.763625	283
-6.1610317	1308
-4.3169928	twenty-first
-5.204326	thirteen
-4.449229	Ministers
-4.817129	Foreign
-5.716923	Ouagadougou
-4.5813255	fifth
-5.6474447	Pan-African
-4.817129	Crescent
-5.4070954	Societies
-5.371664	Confirms
-5.160341	composed
-4.7553153	interactive
-5.253274	round-table
-5.018803	themes
-5.4880223	finalized
-3.9965494	preparatory
-4.7235804	discuss
-4.867376	epidemic
-5.4880223	stigma
-5.228111	gender-specific
-4.4293513	impacts
-6.036102	microbicides
-4.080124	drugs
-5.003961	orphans
-5.6474447	vaccine
-4.9622555	concurrence
-5.4456763	presentations
-5.253274	chaired
-4.3200035	organizational
-4.6799426	submitting
-4.9005747	appoint
-6.1610317	facilitators
-3.896998	Joint
-4.037116	secretariat
-4.9005747	input
-5.6474447	describing
-4.889224	developmental
-4.7471614	gaps
-4.6663194	inputs
-3.954214	outcomes
-5.901994	apart
-4.807741	below
-3.6162603	Board
-6.2711554	non-objection
-4.2452574	business
-4.9757175	pharmaceutical
-4.772097	companies
-4.763625	along
-4.3480797	defined
-4.147719	fund
-4.237694	mobilization
-4.44518	system-wide
-5.204326	precedent
-4.9242067	140
-6.1610317	577
-4.640292	86
-4.2327237	prepared
-5.5875635	845
-4.6730776	IX
-4.9896097	1954
-4.5294166	encouraged
-4.9242067	avail
-5.181777	prospective
-5.1017327	Draws
-5.534947	578
-4.514981	Sahara
-5.4880223	depth
-4.559812	87
-5.716923	Frente
-5.716923	Popular
-4.44518	la
-5.799674	Liberación
-5.716923	Saguia
-5.716923	el-Hamra
-5.6474447	y
-4.867376	Rio
-5.716923	Oro
-5.371664	658
-5.4070954	690
-4.889224	attaches
-4.836536	talks
-5.160341	faithful
-6.1610317	1301
-6.1610317	1309
-4.2253737	acceptance
-4.4830546	detailed
-5.253274	package
-4.889224	voters
-4.3353767	outstanding
-4.2879834	spirit
-4.7235804	shown
-6.036102	James
-6.036102	Baker
-4.3051558	undertaking
-6.1610317	anything
-4.7471614	undermine
-4.7235804	phases
-6.036102	faithfully
-6.036102	loyally
-4.9896097	supervision
-4.715996	referendum
-4.715996	142
-4.164284	Caledonia
-5.716923	exemplified
-4.609809	Nouméa
-4.653111	Accord
-4.6730776	harmony
-5.3389063	Kanak
-4.575846	immigration
-5.5875635	emancipation
-5.534947	comprised
-5.901994	Caledonians
-5.534947	destiny
-5.066639	diversify
-5.5875635	Caledonian
-5.279985	Matignon
-5.204326	Accords
-5.5875635	Melanesian
-5.5875635	Zonéco
-4.4830546	map
-4.708542	evaluate
-3.9439273	zone
-6.2711554	hydrocarbons
-4.2427216	accession
-5.534947	unfolding
-4.780738	143
-3.9516196	Tokelau
-5.181777	delivered
-5.901994	Ulu-o-Tokelau
-4.44518	now
-4.936523	constitution
-5.5875635	self-governing
-5.371664	preference
-4.686918	89
-5.5875635	expectation
-5.901994	expect
-5.901994	besides
-5.4880223	exemplary
-4.3993273	visiting
-4.653111	collaborative
-4.9622555	dispatch
-5.5875635	exemplifies
-5.4880223	seeks
-5.1204033	firmly
-5.3389063	assuming
-4.1903806	VI
-5.1017327	pace
-5.371664	inauguration
-5.3084474	village
-5.0838313	adult
-5.253274	suffrage
-4.3480797	seminar
-5.5875635	Majuro
-5.3084474	Modern
-5.1399136	House
-6.2711554	Tokelauans
-6.1610317	Faipule
-4.9622555	Fono
-6.036102	overwhelming
-5.4456763	confirmation
-5.0501013	twelve
-4.646654	produce
-4.9622555	momentum
-5.3084474	truly
-5.4456763	nation
-4.603961	withdraw
-5.4070954	employer
-5.1399136	consequence
-5.716923	reassurance
-4.514981	cannot
-4.565091	adequately
-5.534947	balancing
-5.5875635	self-reliant
-4.7312994	inherent
-5.901994	smallest
-4.9757175	assurance
-5.4070954	develops
-4.7471614	144
-4.6799426	Anguilla
-4.8568506	Bermuda
-4.826724	British
-4.5294166	Virgin
-4.826724	Cayman
-4.235202	Guam
-4.817129	Montserrat
-4.826724	Pitcairn
-4.9491987	St.
-4.6730776	Helena
-4.91223	Turks
-4.91223	Caicos
-5.228111	hereinafter
-4.341682	covered
-4.763625	characteristics
-5.5875635	sentiments
-4.2796454	require
-4.7012134	flexible
-4.694007	guide
-5.6474447	forty
-4.640292	colonialism
-4.329162	target
-4.592496	Colonialism
-4.565091	acknowledging
-5.0501013	expressions
-5.4070954	enunciated
-4.1497555	position
-4.936523	dependent
-4.889224	locally
-4.549442	frameworks
-4.780738	decide
-5.1017327	Yokohama
-4.014113	Strategy
-5.4456763	Safer
-4.4574413	Guidelines
-4.807741	Natural
-4.1126075	Disaster
-5.371664	Preparedness
-4.9896097	Mitigation
-3.5023305	Plan
-3.5901692	Sustainable
-3.9796686	Small
-4.23026	Island
-3.9838278	Developing
-5.3084474	referendums
-4.836536	ascertaining
-4.6799426	long
-5.018803	sending
-5.5875635	hear
-5.160341	apprised
-5.3084474	venues
-5.3389063	helpful
-5.204326	sent
-5.1399136	listed
-5.253274	Organisation
-5.4880223	haven
-4.936523	insufficient
-4.9622555	attain
-4.44518	updated
-4.91223	indicate
-5.160341	conserve
-4.364499	enter
-5.5875635	usher
-5.5875635	noble
-4.653111	initiate
-5.1017327	furtherance
-4.474348	regulatory
-4.936523	environments
-4.3140035	highly
-5.4880223	licensing
-5.5875635	robust
-5.3084474	supervisory
-5.901994	well-established
-5.716923	anti-money-laundering
-4.686918	regimes
-5.6474447	jurisdictions
-5.5875635	classified
-5.716923	havens
-5.4880223	Individual
-5.5875635	Referring
-5.799674	Samoan
-4.9242067	Governor
-5.371664	Nadi
-6.036102	deficit
-5.5875635	compounded
-4.299356	demand
-4.715996	rapidly
-5.716923	isolated
-5.4456763	infrastructural
-3.938874	reduce
-4.367859	expenditures
-4.91223	ascertained
-4.4830546	Strategic
-4.817129	Country
-5.901994	2000-2003
-4.592496	viable
-5.716923	well-regulated
-4.9757175	offshore
-4.406641	centre
-5.4070954	investors
-4.7985525	modern
-5.279985	company
-5.181777	insurance
-5.716923	computerizing
-4.9896097	registry
-5.003961	tackling
-5.279985	coalition
-6.036102	1997-1999
-4.5981903	considerable
-5.901994	domain
-5.1399136	incorporated
-4.4411683	Tourism
-5.901994	contraction
-5.204326	quarter
-6.1610317	rebounded
-4.41408	reach
-5.5875635	viewpoints
-4.7553153	smooth
-4.772097	White
-5.228111	Paper
-3.8546486	Partnership
-5.066639	Progress
-5.4070954	Prosperity
-5.371664	Overseas
-4.686918	elaborate
-5.4880223	bases
-5.371664	coming
-4.592496	amended
-5.901994	1993-1994
-6.036102	constitutionally
-4.3611655	Chief
-4.9622555	Minister
-6.036102	ready
-5.3389063	gradual
-4.41408	countering
-5.4880223	commemorated
-5.5875635	Islands-United
-5.5875635	Friendship
-5.5875635	ceremonies
-5.799674	Tortola
-5.534947	enjoyed
-4.4830546	tourism
-6.1610317	21.1
-4.168526	million
-3.423898	dollars
-5.0838313	loans
-6.036102	19.9
-3.7296488	financing
-6.2711554	Beef
-6.2711554	Airport
-6.1610317	1992-1993
-6.1610317	sentiment
-5.3389063	altered
-5.253274	capita
-5.5875635	incomes
-4.133725	climate
-5.4880223	virtually
-4.836536	unemployment
-6.036102	localization
-5.253274	emerged
-4.659665	Legislative
-5.534947	Vision
-4.135697	2008
-5.716923	Caymanian
-4.586875	smuggling
-4.9242067	registered
-4.739158	eligible
-4.7553153	Commonwealth
-4.772097	Chamorro
-5.1017327	removed
-5.0501013	transferring
-4.6730776	surplus
-4.9005747	federal
-5.279985	unconditional
-4.554596	expeditious
-5.5875635	Chamorros
-4.250374	becoming
-5.5875635	homeland
-3.817962	fishing
-4.3850594	agriculture
-6.036102	realigning
-6.036102	Navy
-5.228111	closed
-5.4456763	Decolonization
-4.7235804	Exercise
-6.036102	Self-Determination
-4.3993273	supported
-5.5875635	landowners
-4.4411683	agricultural
-6.2711554	Castries
-4.6340218	occasion
-5.799674	Fighting
-4.9491987	Freedom
-5.4880223	dispatched
-5.799674	union
-5.160341	self-reliance
-5.901994	Montsoufriere
-5.901994	volcano
-5.5875635	evacuation
-5.534947	quarters
-4.836536	contingency
-5.181777	shelters
-5.6474447	shortage
-4.4830546	VIII
-3.988027	conservation
-4.7471614	suggestions
-4.1497555	transport
-6.036102	Ascension
-5.371664	charter
-5.799674	flights
-6.036102	Cabinet
-5.6474447	legislature
-5.901994	John
-5.066639	remained
-4.659665	product
-4.3578568	estimated
-6.1610317	8.7
-4.91223	low
-5.003961	inflation
-6.036102	1998-2002
-4.7012134	ten
-5.6474447	diversified
-5.799674	ventures
-4.7985525	welcomed
-4.826724	although
-6.1610317	80.4
-6.1610317	27.5
-5.799674	electorate
-6.1610317	voted
-4.449229	binding
-6.1610317	undecided
-4.329162	Association
-5.371664	joining
-4.183708	Drug
-4.1903806	Control
-4.4964514	heavily
-4.534337	indebted
-6.1610317	borrow
-5.181777	bank
-5.279985	computer
-4.9491987	fiscal
-5.228111	accumulated
-4.826724	newly
-4.7985525	five-year
-4.388582	Relations
-4.474348	owing
-5.6474447	voter
-4.6663194	145
-4.505617	*
-5.160341	Dissemination
-4.91223	publicity
-4.640292	transmitting
-5.3389063	marks
-4.181506	anniversary
-6.2711554	1990-2000
-4.867376	Thirteenth
-3.982437	Ministerial
-4.609809	Cartagena
-4.6217465	noted
-5.03417	Declares
-4.329162	2001-2010
-4.9491987	redouble
-5.253274	sixty-fifth
-6.036102	L.58
-6.1610317	begins
-5.534947	Reconfirming
-4.406641	2010
-5.901994	non-participation
-5.901994	informally
-5.534947	manifestation
-4.575846	incompatible
-4.878163	colonial
-4.4874744	envisaged
-4.739158	finalize
-4.4293513	observe
-4.554596	annually
-5.253274	instead
-5.799674	terminate
-4.739158	moral
-4.817129	formally
-4.826724	148
-4.836536	84th
-5.901994	605
-4.080124	77
-4.867376	161
-4.7985525	155
-4.559812	96
-5.6474447	Thanking
-5.371664	Fact-Finding
-5.160341	attitude
-5.228111	advising
-4.878163	offering
-6.036102	Twenty-sixth
-5.1399136	Event
-5.03417	celebration
-6.1610317	Petersburg
-6.2711554	centennial
-5.253274	highlighted
-4.7312994	topic
-5.534947	came
-5.181777	discussing
-4.9757175	trend
-5.4456763	similarly
-6.036102	Twenty-seventh
-5.6474447	reiteration
-4.7235804	numbers
-4.586875	committees
-5.901994	606
-5.3389063	Consideration
-4.5294166	consular
-4.772097	Alarmed
-5.181777	innocent
-5.6474447	impeded
-5.4456763	sympathy
-5.066639	inviolability
-4.867376	privileges
-4.640292	immunities
-5.4456763	enjoying
-4.7312994	offenders
-4.836536	168
-4.878163	never
-5.003961	justified
-5.1017327	officially
-5.901994	instigate
-5.4880223	perpetration
-5.003961	juridical
-4.4830546	dispute
-4.208692	disputes
-4.7985525	154
-5.716923	L.19
-5.534947	Amendment
-4.7985525	241
-4.299356	High-level
-4.0818663	System
-4.867376	opened
-5.799674	Tuesday
-5.799674	Monday
-5.3389063	preceding
-6.1610317	holiday
-4.4332547	day
-6.2711554	say
-4.846575	224
-4.878163	239
-4.218146	ad
-4.2555513	hoc
-5.03417	dates
-5.371664	fifty-third
-5.1399136	amend
-4.694007	read
-4.9005747	commencing
-4.2824073	amendment
-6.2711554	607
-5.03417	jurisdictional
-5.204326	Jurisdictional
-4.296485	Sixth
-4.772097	98
-4.7895536	writing
-3.8424072	Ad
-3.8444238	Hoc
-4.826724	elaborating
-4.4786797	acceptable
-5.716923	608
-3.5586991	Trade
-5.3389063	thirty-third
-5.3389063	2205
-5.253274	XXI
-5.204326	1966
-4.367859	progressive
-4.4919395	harmonization
-4.9622555	unification
-4.44518	bear
-4.936523	removing
-5.1017327	harmonizing
-6.1610317	unifying
-5.4456763	undesirable
-4.5704355	duplication
-4.332258	coherence
-4.7012134	texts
-5.1017327	uniform
-5.534947	practitioners
-5.716923	academics
-5.799674	privately
-4.5245514	financed
-6.1610317	culminated
-5.716923	UNCITRAL
-5.066639	Guide
-5.5875635	Privately
-5.5875635	Financed
-5.4070954	Infrastructure
-5.4456763	Projects
-4.867376	receivables
-5.4880223	circulated
-4.1376777	regime
-5.3084474	arbitral
-5.799674	awards
-5.371664	Recognition
-5.160341	Enforcement
-5.6474447	Arbitral
-5.4880223	Awards
-5.371664	1958
-5.716923	sponsoring
-5.371664	symposia
-5.3389063	briefing
-4.565091	Cameroon
-5.160341	enabled
-5.5875635	Symposia
-5.253274	fellowships
-4.936523	Reconstruction
-4.739158	Main
-5.799674	bounds
-4.9757175	emanating
-6.2711554	Gerold
-6.2711554	Herrmann
-4.5704355	Secretary
-5.799674	retire
-4.1416664	devoted
-6.1610317	609
-4.9491987	codification
-4.7895536	Friendly
-5.228111	referring
-4.836536	drafting
-4.4919395	topics
-4.694007	Seminar
-5.6474447	structuring
-5.371664	concentrated
-4.826724	dealt
-4.8568506	Wishing
-4.465812	interaction
-5.03417	accomplished
-4.9005747	debates
-4.7012134	written
-4.867376	courts
-5.0501013	Diplomatic
-4.659665	orally
-4.878163	liability
-5.799674	injurious
-4.9491987	prohibited
-4.653111	reading
-4.8568506	transboundary
-4.222951	damage
-4.694007	hazardous
-6.2711554	726
-5.901994	733
-6.2711554	syllabuses
-6.2711554	734
-6.1610317	735
-5.716923	736
-4.9757175	attending
-5.5875635	cost-saving
-6.1610317	639
-5.066639	indicating
-4.3746576	statute
-6.1610317	737
-6.2711554	741
-5.279985	drafts
-4.627841	formulating
-5.3084474	Codification
-3.9838278	Division
-4.7553153	attend
-4.836536	oral
-5.3389063	distribute
-5.3389063	topical
-4.085372	conclusion
-6.2711554	610
-5.6474447	Nationality
-4.6217465	succession
-4.7895536	reiterating
-4.5197396	Annex
-5.03417	governed
-4.6217465	acquire
-5.279985	statelessness
-4.9491987	1961
-6.036102	Succession
-5.371664	Treaties
-6.2711554	Archives
-6.2711554	Debts
-4.2879834	Part
-5.901994	Every
-5.003961	predecessor
-5.6474447	mode
-5.4456763	replacement
-6.1610317	Predecessor
-5.716923	replaced
-6.1610317	Successor
-4.7553153	successor
-6.2711554	Person
-6.2711554	Date
-4.9896097	relates
-6.1610317	Cases
-5.0501013	stateless
-6.2711554	Presumption
-5.018803	Subject
-5.1017327	habitual
-5.6474447	presumed
-6.1610317	Legislation
-4.17281	Each
-4.6730776	enact
-4.807741	It
-5.204326	choices
-5.901994	thereunder
-5.799674	attribution
-4.807741	option
-4.237694	does
-5.6474447	attribute
-4.534337	unless
-6.2711554	Renunciation
-4.889224	When
-5.716923	renunciation
-5.003961	latter
-5.160341	However
-4.4919395	applied
-5.534947	rendering
-5.3389063	temporarily
-6.1610317	Loss
-4.889224	voluntarily
-5.799674	lose
-5.181777	retain
-6.1610317	opt
-6.2711554	opted
-6.1610317	renounced
-4.653111	Where
-5.228111	impair
-6.2711554	reunited
-5.901994	residents
-5.1204033	leave
-5.4070954	Non-discrimination
-6.1610317	discriminating
-4.6157365	ground
-5.6474447	Procedures
-4.936523	retention
-6.036102	processed
-5.901994	Exchange
-4.534337	negotiation
-4.8568506	Nothing
-5.6474447	treating
-5.799674	precludes
-4.686918	beneficial
-4.7235804	Provisions
-4.505617	categories
-4.3850594	Section
-5.799674	Attribution
-4.708542	indicated
-4.780738	granted
-6.036102	unite
-5.371664	personality
-6.036102	identical
-5.901994	united
-6.2711554	Dissolution
-6.2711554	dissolves
-5.228111	ceases
-4.6663194	subparagraph
-5.204326	constituent
-4.807741	unit
-5.3084474	subparagraphs
-5.534947	leaving
-6.2711554	Separation
-6.1610317	Withdrawal
-5.279985	Unless
-5.799674	Are
-6.1610317	611
-5.018803	Host
-5.3389063	2819
-5.066639	advise
-4.9005747	violating
-5.6474447	Counsel
-5.3084474	visas
-5.901994	Nations-related
-5.003961	accredited
-4.554596	resolved
-4.739158	controls
-4.694007	previously
-4.878163	nationalities
-5.534947	anticipates
-5.5875635	parking
-4.539314	responding
-4.3578568	engaged
-6.2711554	612
-4.6340218	Establishment
-4.0037813	Final
-5.4880223	Plenipotentiaries
-4.2327237	Preparatory
-4.7553153	aggression
-4.586875	expeditiously
-4.653111	commencement
-4.7235804	deposited
-4.6217465	evidence
-4.9622555	standing
-5.0838313	copies
-5.228111	delegates
-6.1610317	613
-4.4919395	Role
-5.6474447	3499
-4.8568506	XXX
-4.817129	1975
-4.565091	233
-4.4964514	revitalization
-5.371664	Equitable
-5.6474447	Representation
-5.4456763	Increase
-5.5875635	Membership
-4.23026	Related
-4.8568506	organ
-4.878163	workload
-5.003961	Repertory
-4.6799426	Practice
-4.780738	Organs
-5.03417	Repertoire
-4.5813255	208
-4.539314	162
-5.716923	Trusteeship
-5.716923	Renewing
-5.003961	backlog
-4.9491987	Chairperson
-5.279985	confronting
-4.9005747	join
-5.0501013	confronted
-4.474348	Its
-5.0838313	diplomacy
-4.780738	paper
-4.9622555	overview
-3.7780206	Administrative
-5.253274	invoking
-4.449229	210
-5.799674	IV.E
-5.799674	Targeting
-4.1456923	Internal
-4.2402005	Oversight
-4.381564	trends
-6.036102	microeconomic
-4.780738	corresponding
-5.6474447	subprogrammes
-5.1017327	recourse
-5.799674	specially
-4.9896097	causing
-4.807741	magnitude
-5.160341	unintended
-5.204326	streamline
-4.686918	units
-5.279985	collate
-4.6663194	methodology
-4.6157365	assessing
-5.181777	actually
-5.03417	incurred
-4.2555513	explore
-5.0838313	exploring
-4.406641	mobilizing
-4.6799426	158
-6.2711554	614
-4.395716	Measures
-5.228111	Occasion
-5.181777	Fiftieth
-5.160341	Anniversary
-5.1204033	disturbed
-4.351314	terrorist
-5.03417	whomsoever
-4.6799426	Eliminate
-4.4216485	Terrorism
-5.716923	wherein
-4.715996	Twelfth
-4.0156093	Durban
-3.8505297	conference
-5.1017327	unjustifiable
-5.003961	calculated
-5.6474447	provoke
-4.694007	considerations
-5.6474447	philosophical
-5.534947	ideological
-5.018803	invoked
-5.018803	justify
-4.9757175	facts
-5.4880223	inaccurate
-5.4070954	unverified
-4.395716	conducted
-4.252955	protocols
-4.7553153	Suppression
-5.5875635	Terrorist
-5.6474447	Bombings
-5.4880223	enables
-5.4070954	became
-5.1204033	Branch
-4.936523	allocated
-4.9896097	159
-6.2711554	615
-5.018803	commending
-5.181777	Desiring
-4.4411683	Inspection
-5.716923	appropriateness
-4.7985525	seven
-4.9896097	whom
-5.3084474	possess
-4.9491987	requisite
-5.204326	qualifications
-5.799674	Only
-5.901994	sit
-5.716923	reappointed
-4.4574413	replace
-5.901994	expired
-5.3389063	remainder
-6.1610317	inserted
-5.799674	sitting
-5.716923	raises
-5.160341	refer
-5.716923	quorum
-6.1610317	renumbered
-4.9005747	accordingly
-6.2711554	pronouns
-5.5875635	appear
-4.653111	serving
-4.9242067	served
-4.6157365	known
-5.799674	pass
-6.036102	alleging
-5.901994	non-observance
-4.867376	contracts
-5.279985	words
-4.4533157	pension
-5.534947	ceased
-5.799674	succeeded
-5.6474447	show
-4.4216485	contract
-5.799674	relied
-5.204326	settled
-5.4070954	complaint
-5.901994	arose
-4.402969	prior
-5.901994	Vice-Presidents
-4.9757175	No
-6.2711554	dismissed
-5.279985	unanimous
-6.2711554	unsuited
-5.901994	resignation
-4.3993273	This
-4.6340218	notification
-5.1204033	vacant
-5.534947	fixed
-6.2711554	convoked
-4.2581635	expenses
-6.036102	Election
-6.036102	Composition
-5.901994	Presentation
-6.2711554	Intervention
-6.2711554	Hearing
-5.5875635	though
-4.6157365	receivable
-4.105176	Staff
-4.2402005	Regulations
-5.3389063	communicated
-4.807741	except
-5.4070954	applicant
-5.371664	insofar
-6.2711554	Rejected
-6.036102	Failed
-5.371664	thirty
-5.5875635	unfavourable
-5.716923	unanimously
-6.2711554	frivolous
-5.901994	filed
-5.4070954	ninety
-6.1610317	reckoned
-4.9896097	periods
-4.3850594	If
-5.716923	circumstance
-6.2711554	anterior
-6.1610317	Nevertheless
-5.181777	said
-6.2711554	heirs
-4.739158	manage
-6.1610317	files
-5.4880223	suspend
-6.2711554	filing
-5.716923	suspending
-6.1610317	contested
-4.609809	exceptional
-6.2711554	finds
-6.036102	founded
-6.1610317	rescinding
-6.036102	fix
-6.1610317	compensated
-4.9757175	exceed
-4.817129	equivalent
-4.0402775	net
-4.780738	salary
-4.2907987	payment
-6.1610317	indemnity
-5.534947	accompany
-5.1204033	Should
-5.3084474	merits
-6.1610317	remanded
-6.2711554	correction
-5.253274	procedural
-4.817129	agency
-5.279985	judgements
-6.036102	originals
-5.371664	copy
-6.1610317	Copies
-6.036102	discovery
-6.036102	unknown
-5.716923	claiming
-5.371664	always
-6.1610317	ignorance
-6.2711554	negligence
-6.2711554	Clerical
-6.2711554	arithmetical
-6.2711554	mistakes
-6.2711554	errors
-4.936523	accidental
-6.2711554	slip
-5.534947	omission
-6.2711554	corrected
-6.036102	motion
-5.4880223	Registry
-4.2555513	Pension
-4.5981903	Any
-5.3084474	awarded
-4.694007	entity
-5.6474447	L.21
-4.586875	attainment
-5.0838313	upcoming
-6.036102	Quebec
-6.1610317	AG
-6.2711554	RES.1733
-6.2711554	XXX-O
-6.2711554	00
-4.715996	thirtieth
-6.2711554	Adolescent
-5.901994	lead-up
-5.003961	Verification
-5.799674	inter-American
-6.036102	hemispheric
-6.2711554	616
-4.8568506	Observer
-5.716923	648
-5.018803	85th
-5.799674	L.56
-4.708542	Rev.1
-4.505617	Follow-up
-4.9757175	history
-5.534947	gathered
-4.936523	translate
-4.559812	individually
-4.6217465	Committees
-5.371664	adjust
-4.4830546	banks
-5.181777	intensifying
-4.183708	diseases
-5.03417	pandemics
-4.1971574	landlocked
-4.9896097	relate
-5.1017327	parliaments
-5.534947	supplemented
-5.5875635	array
-5.018803	benchmarks
-5.253274	highlight
-5.3389063	cross-sectoral
-4.878163	cross-cutting
-5.3084474	Reports
-4.889224	draw
-6.2711554	appraised
-4.878163	163
-5.6474447	L.38
-4.378097	182
-4.7235804	219
-5.03417	neutrality
-6.2711554	faciliatation
-4.9757175	mitigating
-5.3084474	optimize
-6.2711554	listings
-5.716923	directory
-5.5875635	inventory
-5.716923	lay
-4.058088	Reduction
-5.1204033	losses
-5.3389063	lacking
-4.3353767	determined
-4.3993273	warning
-4.9005747	Under-Secretary-General
-4.514981	Emergency
-4.3353767	Inter-Agency
-4.2402005	Standing
-4.7235804	teams
-6.2711554	excessively
