
\data\
ngram 1=8092
ngram 2=61840
ngram 3=40419

\1-grams:
-2.738482	"	-0.5216401
-4.179784	'	-0.4568875
-5.559995	'a	-0.2344126
-5.082874	'djamena	-0.5713314
-5.082874	'is	-0.3580644
-4.861025	'ivoire	-1.029101
-3.383904	's	-0.5005952
-2.351823	(	-1.217441
-2.351823	)	-0.6884197
-4.413867	*	-1.171255
-1.227234	,	-0.7891362
-4.957935	-	-0.3520628
-1.83934	.	-1.35146
-2.156703	/	-0.9754763
-5.258965	0.001	-0.5222673
-5.559995	0.01	-0.2344413
-5.559995	0.026	-0.2344413
-5.559995	0.15	-0.2203109
-5.559995	0.20	-0.2344413
-5.559995	0.36	-0.2344413
-4.861025	0.7	-1.055555
-5.559995	0.75	-0.2344413
-5.559995	00	-0.2325818
-2.71119	1	-1.476447
-5.559995	1,212,554	-0.234336
-5.559995	1,213,381,487	-0.234336
-5.559995	1,265,280,800	-0.2317231
-5.559995	1,267,844,600	-0.234336
-5.559995	1,284,633	-0.234336
-5.559995	1,412,370	-0.234336
-5.559995	1,816,000	-0.234336
-5.559995	1,988,700	-0.234336
-5.559995	1-b	-0.2203109
-3.165544	10	-1.294979
-4.518602	100	-0.3702626
-5.559995	100,980,428	-0.234336
-4.656905	101	-0.3253547
-4.781844	102	-0.3438839
-5.559995	102,192,982	-0.234336
-5.559995	1022	-0.2325818
-4.957935	103	-0.3106985
-4.861025	104	-0.2766102
-5.082874	104.7	-0.5703006
-4.656905	105	-0.4892248
-5.559995	105.4	-0.2325818
-5.559995	105.5	-0.2324977
-5.559995	105.6	-0.2325818
-4.656905	106	-0.3418571
-4.383904	107	-0.6817271
-5.258965	1073	-0.5204078
-4.861025	108	-0.3604537
-5.559995	108,487,700	-0.2317231
-4.781844	109	-0.4436305
-3.213642	11	-1.333265
-5.559995	11,234,300	-0.234336
-5.559995	11.89	-0.2344413
-4.781844	110	-0.2203447
-4.383904	111	-0.5957596
-5.082874	1111	-0.5703006
-5.559995	1113	-0.2325818
-4.781844	112	-0.2203447
-5.559995	1128	-0.2325818
-5.559995	1129	-0.2325818
-4.861025	113	-0.3604537
-5.559995	113.3	-0.2079872
-5.559995	1138	-0.2325818
-4.714897	114	-0.3707386
-5.082874	1143	-0.5703006
-5.082874	115	-0.1902059
-5.258965	1153	-0.5204078
-4.861025	116	-0.3604537
-5.559995	1160	-0.2325818
-5.559995	1167	-0.2325818
-4.781844	117	-0.3719808
-5.559995	1173	-0.2325818
-5.258965	1175	-0.5204078
-5.082874	118	-0.1902059
-4.656905	119	-0.3400018
-5.559995	119.9	-0.2324977
-5.559995	1193	-0.2325818
-5.258965	1196	-0.5204078
-5.082874	1197	-0.5703006
-5.559995	1199	-0.2325818
-3.128631	12	-1.178773
-4.446052	120	-0.2940353
-5.559995	1203	-0.2325818
-5.559995	1206	-0.2325818
-5.559995	1207	-0.2325818
-4.781844	121	-0.4311905
-5.082874	1210	-0.5703006
-5.559995	1214	-0.2325818
-4.861025	122	-0.3604537
-5.082874	123	-0.2171988
-5.559995	1234	-0.2325818
-5.559995	1239	-0.2325818
-5.082874	124	-0.1902059
-5.559995	124,268,800	-0.234336
-5.559995	1240	-0.2325818
-5.082874	1242	-0.5703006
-4.446052	1244	-1.144192
-4.656905	125	-0.3415182
-5.559995	1258	-0.2325818
-4.781844	126	-0.2975537
-5.559995	1265	-0.2325818
-5.258965	1266	-0.5204078
-5.258965	1267	-0.5204078
-4.957935	127	-0.3106985
-5.082874	1272	-0.5703006
-5.559995	1273	-0.2325818
-5.559995	1274	-0.2325818
-5.559995	1279	-0.2325818
-4.781844	128	-0.3301655
-5.559995	128,416,670	-0.234336
-5.559995	128,800	-0.234336
-5.258965	1281	-0.5204078
-5.258965	1284	-0.5204078
-4.861025	129	-0.2788118
-5.258965	1291	-0.5204078
-5.559995	1295	-0.2325818
-5.559995	1296	-0.2325818
-5.559995	1299	-0.2325818
-3.297544	13	-0.9816968
-5.559995	13,435,164	-0.234336
-5.559995	13,596,491	-0.234336
-4.957935	130	-0.3106985
-5.258965	1301	-0.5204078
-5.082874	1302	-0.5703006
-4.861025	1304	-1.053696
-5.559995	1306	-0.2325818
-5.559995	1308	-0.2325818
-5.258965	1309	-0.5204078
-4.957935	131	-0.3106985
-5.559995	1310	-0.2325818
-5.559995	1312	-0.2325818
-5.559995	1316	-0.2325818
-5.258965	1319	-0.5204078
-4.861025	132	-0.3604537
-5.258965	1322	-0.5204078
-5.559995	1323	-0.2325818
-5.082874	1329	-0.5703006
-4.957935	133	-0.3106985
-4.861025	134	-0.3604537
-5.082874	135	-0.1902059
-4.957935	136	-0.1820319
-5.082874	137	-0.1902059
-4.861025	138	-0.200144
-5.082874	139	-0.1902059
-5.559995	139.4	-0.2344892
-3.231616	14	-1.117867
-5.559995	14,213,700	-0.234336
-4.781844	140	-0.141119
-4.605752	141	-0.5448513
-5.559995	141,889,841	-0.234336
-4.957935	142	-0.3106985
-4.957935	143	-0.3231386
-5.258965	144	-0.2243104
-4.957935	145	-0.1744448
-4.413867	146	-0.3363756
-5.559995	146,833,694	-0.234336
-4.656905	147	-0.4266747
-4.861025	148	-0.1699394
-5.559995	148,220,200	-0.234336
-4.518602	149	-0.4392937
-3.151755	15	-1.181221
-5.559995	15,353,900	-0.234336
-4.559995	150	-0.4944652
-4.446052	151	-0.4932852
-4.162055	1514	-1.413037
-4.781844	152	-0.2507372
-4.656905	153	-0.4266747
-4.605752	154	-0.3596401
-4.714897	1541	-0.8226234
-5.559995	1547	-0.2325818
-4.781844	155	-0.3438839
-5.559995	1556	-0.2306998
-4.781844	156	-0.4436305
-4.861025	157	-0.268016
-4.861025	158	-0.1855433
-5.082874	159	-0.2026459
-5.559995	159,455,750	-0.234336
-3.265529	16	-1.037575
-4.518602	160	-0.410853
-4.957935	161	-0.1744448
-4.518602	162	-0.4914535
-4.781844	163	-0.4436305
-5.082874	164	-0.1902059
-4.714897	165	-0.3150272
-5.559995	1653	-0.2325818
-5.258965	166	-0.2174328
-4.861025	167	-0.268016
-4.861025	168	-0.2835279
-4.355875	169	-0.2728962
-3.237776	17	-1.124953
-4.781844	170	-0.3112721
-5.082874	171	-0.1902059
-4.781844	172	-0.3112721
-5.559995	1729	-0.2325818
-4.861025	173	-0.3604537
-4.957935	174	-0.3180175
-4.714897	175	-0.2999814
-4.957935	176	-0.3106985
-4.714897	177	-0.5952072
-4.957935	178	-0.1744448
-4.781844	179	-0.4311905
-5.559995	179,097,566	-0.234336
-5.559995	1798	-0.2325818
-3.358598	18	-1.063046
-5.559995	18.9	-0.2344892
-4.714897	180	-0.2748979
-4.605752	181	-0.5641562
-4.355875	182	-0.6676887
-4.781844	183	-0.4311905
-4.957935	184	-0.1700157
-4.605752	185	-0.4206701
-4.714897	186	-0.3716885
-4.781844	187	-0.4311905
-4.861025	1874	-1.053696
-4.861025	188	-0.3604537
-4.781844	189	-0.2620515
-3.392678	19	-0.932667
-5.559995	19,097,000	-0.234336
-5.258965	19,200	-0.5221621
-5.559995	19,523,800	-0.234336
-5.559995	19.1	-0.1937507
-5.559995	19.10	-0.2344916
-5.559995	19.11	-0.2338427
-5.559995	19.12	-0.2338427
-5.559995	19.13	-0.224789
-5.559995	19.14	-0.224789
-5.559995	19.15	-0.2316195
-5.559995	19.16	-0.2344916
-5.559995	19.17	-0.2338427
-5.559995	19.18	-0.2338427
-5.559995	19.2	-0.1937507
-5.559995	19.3	-0.2318206
-5.559995	19.4	-0.1937507
-5.559995	19.5	-0.2316195
-5.559995	19.6	-0.2344916
-5.559995	19.7	-0.2338427
-5.559995	19.8	-0.2338427
-5.258965	19.9	-0.1937192
-4.861025	190	-0.3604537
-5.559995	190,456	-0.234336
-5.258965	1907	-0.4958133
-4.957935	191	-0.1859756
-5.559995	1911	-0.2325818
-4.656905	192	-0.4420077
-4.861025	1925	-0.5249506
-4.957935	193	-0.3106985
-5.258965	1930	-0.2280805
-4.446052	194	-0.6669754
-5.559995	194,261,300	-0.234336
-5.258965	1946	-0.4958133
-5.082874	1947	-0.3580644
-4.656905	1948	-0.5265087
-4.041481	1949	-0.9746612
-4.861025	195	-0.1855433
-5.258965	1950	-0.2012522
-4.605752	1951	-1.169631
-4.957935	1954	-0.3275124
-4.656905	1955	-0.9277118
-5.559995	1958	-0.2300368
-4.957935	196	-0.3106985
-4.329546	1960	-1.025844
-4.861025	1961	-0.2924758
-5.559995	1962	-0.2083736
-4.714897	1963	-0.5644155
-5.258965	1965	-0.1886253
-5.258965	1966	-0.1886253
-3.827601	1967	-1.356926
-5.082874	1968	-0.3753679
-4.957935	1969	-0.4143847
-4.781844	197	-0.3266051
-4.656905	1970	-0.5113888
-4.781844	1971	-0.4246265
-4.656905	1972	-0.3830191
-4.446052	1973	-0.4925302
-5.082874	1974	-0.545706
-4.957935	1975	-0.6502331
-4.957935	1976	-0.4316882
-4.413867	1977	-0.8186963
-4.383904	1978	-0.4297489
-4.559995	1979	-0.4760046
-4.605752	198	-0.3720011
-4.217573	1980	-0.8968375
-5.559995	1980s	-0.2317628
-4.179784	1981	-0.8694108
-4.237776	1982	-1.020467
-4.329546	1983	-0.9353271
-4.383904	1984	-0.985038
-4.413867	1985	-1.030345
-4.217573	1986	-0.8702824
-4.355875	1987	-0.9181588
-4.198267	1988	-0.8358215
-4.082874	1989	-0.8626859
-4.957935	199	-0.3106985
-3.96893	1990	-1.129069
-5.559995	1990-2000	-0.2317628
-4.383904	1990s	-0.6422532
-3.684934	1991	-1.106757
-5.559995	1991-2000	-0.2079872
-3.727486	1992	-0.7788955
-5.559995	1992-1993	-0.2079872
-3.522569	1993	-1.022349
-5.559995	1993-1994	-0.2079872
-3.582272	1994	-0.8246753
-3.480814	1995	-1.15308
-5.559995	1995-1997	-0.2300368
-5.559995	1995-2004	-0.2079872
-3.429661	1996	-1.070178
-4.304723	1996-2005	-0.42286
-3.407707	1997	-1.272805
-5.559995	1997-1998	-0.2341158
-5.559995	1997-1999	-0.2345011
-4.861025	1997-2006	-1.053696
-3.165544	1998	-1.255007
-4.781844	1998-1999	-0.4486985
-5.559995	1998-2001	-0.2079872
-5.559995	1998-2002	-0.2079872
-2.924511	1999	-1.273672
-5.258965	1999-2000	-0.4958133
-5.559995	1999-2003	-0.2079872
-5.559995	1st	-0.2341924
-2.825195	2	-1.509987
-5.559995	2,210,000	-0.234336
-5.559995	2,227,000	-0.234336
-5.559995	2,515.3	-0.2344892
-5.559995	2,535,689,200	-0.2317231
-5.258965	2,563,800	-0.5221621
-5.258965	2,667,000	-0.5221621
-5.559995	2,735,500	-0.234336
-5.559995	2,937,000	-0.234336
-5.559995	2.5	-0.2344892
-3.196383	20	-1.090583
-4.446052	200	-0.3722562
-2.639872	2000	-1.285591
-4.145022	2000-2001	-0.42575
-5.559995	2000-2003	-0.2079872
-3.141694	2001	-1.005585
-4.861025	2001-2003	-0.1909536
-5.559995	2001-2004	-0.2079872
-4.781844	2001-2010	-0.3181504
-3.926527	2002	-0.8198629
-4.145022	2002-2003	-0.5493335
-4.714897	2002-2005	-0.4954942
-4.281241	2003	-0.451746
-4.781844	2004	-0.3133426
-4.559995	2005	-0.2316032
-5.258965	2006	-0.2059288
-4.781844	2008	-0.2624142
-4.781844	201	-0.3112721
-5.559995	2010	-0.2079872
-4.656905	2015	-0.6372239
-4.714897	202	-0.3832194
-5.559995	2020	-0.2079872
-5.559995	2028	-0.2325818
-4.781844	203	-0.2620515
-5.082874	204	-0.1902059
-4.861025	205	-0.2542976
-4.714897	206	-0.3832194
-4.714897	207	-0.2792508
-5.258965	207,407,400	-0.5221621
-4.446052	208	-0.3546419
-4.605752	209	-0.3545521
-3.299924	21	-0.9002538
-5.559995	21,193,700	-0.234336
-5.559995	21.1	-0.2344892
-4.329546	210	-0.4185289
-4.861025	211	-0.3066262
-4.781844	212	-0.2641392
-4.559995	213	-0.4754637
-5.559995	213,000	-0.234336
-4.714897	214	-0.5952072
-5.559995	214,646,100	-0.234336
-4.656905	215	-0.3526497
-4.480814	216	-0.4257462
-4.446052	217	-0.4095292
-4.383904	218	-0.7532008
-4.781844	219	-0.2155905
-5.559995	21adopted	-0.2324977
-3.386809	22	-1.002901
-4.480814	220	-0.4002679
-5.559995	2205	-0.2325818
-4.656905	221	-0.2762272
-4.781844	222	-0.2327057
-5.082874	223	-0.1902059
-4.518602	224	-0.4386306
-5.082874	224,300	-0.5720549
-4.714897	225	-0.2535203
-5.559995	2252	-0.2325818
-4.781844	226	-0.1852916
-4.605752	227	-0.3596314
-5.559995	227,521,500	-0.234336
-5.082874	228	-0.1902059
-5.559995	228,552	-0.234336
-5.559995	2286	-0.2325818
-4.957935	229	-0.3106985
-3.329546	23	-1.228278
-4.656905	230	-0.5186724
-5.082874	231	-0.1902059
-5.559995	2312	-0.2325818
-4.198267	232	-0.7811536
-4.480814	233	-0.3191794
-5.559995	2331	-0.2325818
-4.656905	234	-0.2196838
-5.559995	234,583,330	-0.234336
-5.559995	2341	-0.2341314
-4.861025	235	-0.3604537
-4.714897	236	-0.5952072
-4.605752	237	-0.3055909
-4.861025	238	-0.2542976
-5.559995	238,400	-0.234336
-4.656905	239	-0.4527887
-3.656905	24	-0.8138391
-4.957935	240	-0.3243957
-4.861025	241	-0.3342524
-4.355875	242	-0.9082328
-4.861025	243	-0.2974511
-5.559995	2443	-0.2325818
-4.861025	245	-0.525032
-4.957935	246	-0.4562322
-5.559995	247	-0.2341314
-4.714897	248	-0.2732805
-4.383904	249	-0.4618948
-3.591512	25	-0.8292908
-5.559995	25,395,513	-0.234336
-4.656905	250	-0.429421
-4.957935	251	-0.3004774
-5.082874	252	-0.5460924
-5.559995	254	-0.2083736
-5.559995	2545	-0.2325818
-5.559995	256	-0.2083736
-5.559995	257	-0.2203109
-5.559995	258	-0.2083736
-5.258965	259	-0.206317
-3.65151	26	-0.7178389
-5.559995	261	-0.2083736
-5.082874	262	-0.3495812
-5.559995	2621	-0.2325818
-5.559995	263	-0.2203109
-5.559995	265	-0.2083736
-5.559995	2656	-0.2325818
-5.559995	266,644	-0.234336
-4.559995	267	-0.4294573
-5.082874	268	-0.5703006
-4.861025	269	-1.029487
-3.656905	27	-0.7318974
-5.559995	27.5	-0.2344413
-5.559995	270	-0.2338978
-5.559995	272	-0.2079872
-5.559995	2728	-0.2325818
-5.559995	2749	-0.2325818
-5.559995	277	-0.2083736
-5.559995	2791	-0.2325818
-3.667901	28	-0.7588784
-5.559995	281	-0.2083736
-5.258965	2819	-0.5204078
-5.559995	283	-0.2083736
-5.559995	283,688,500	-0.234336
-4.957935	287	-0.1749225
-3.684934	29	-0.6728507
-4.957935	290	-0.6748276
-5.559995	292,069,000	-0.234336
-5.559995	2997	-0.2325818
-2.87785	3	-1.582188
-5.559995	3,412,000	-0.234336
-5.559995	3,851,900	-0.234336
-5.559995	3.9	-0.2344413
-3.495537	30	-0.9167352
-5.559995	300	-0.234336
-5.258965	302	-0.206317
-5.559995	303	-0.2083736
-3.47009	31	-1.25999
-5.559995	3101	-0.2325818
-4.028516	32	-0.8311741
-5.559995	323	-0.2083736
-5.559995	3236	-0.2325818
-5.559995	3263	-0.2325818
-5.559995	3281	-0.2325818
-4.112837	33	-0.4480731
-5.559995	33,371,214	-0.234336
-5.559995	33,771,930	-0.234336
-5.559995	3375	-0.2325818
-5.559995	3376	-0.2325818
-4.781844	338	-0.7214765
-4.179784	34	-0.6073575
-5.559995	34,642,200	-0.234336
-5.559995	342	-0.2296813
-5.559995	3474	-0.2325818
-5.559995	3499	-0.2325818
-3.980211	35	-0.5195603
-5.559995	35,958,875	-0.234336
-4.041481	36	-0.7420288
-5.559995	36,149,331	-0.234336
-5.559995	361,298,900	-0.2317231
-5.559995	363,000	-0.2317231
-4.097597	37	-0.8981687
-5.559995	37,200	-0.234336
-5.559995	370	-0.2083736
-4.003693	38	-0.5616325
-5.559995	38,092	-0.234336
-5.559995	383	-0.2325818
-5.559995	386	-0.2325818
-5.559995	38th	-0.2341924
-4.162055	39	-0.6595664
-5.258965	39,458,000	-0.5221621
-5.559995	394	-0.2325818
-5.559995	39th	-0.2341924
-2.871575	4	-1.546407
-5.559995	4,147,870	-0.234336
-5.559995	4,237,100	-0.234336
-5.258965	4,370,800	-0.5221621
-5.258965	4,595,100	-0.5221621
-5.559995	4,797	-0.2317231
-5.559995	4.2	-0.2163278
-5.559995	4.25	-0.2344413
-4.054845	40	-0.5724339
-5.559995	400,716	-0.234336
-5.082874	401	-0.1799847
-4.028516	41	-0.8749535
-5.082874	417	-0.373052
-5.258965	41st	-0.5220184
-4.198267	42	-0.9301068
-5.258965	42,695,300	-0.5221621
-5.559995	422,053,500	-0.234336
-5.258965	425	-0.5204078
-3.878754	43	-0.9758215
-5.258965	43,066,850	-0.5221621
-5.559995	43,150,650	-0.234336
-5.559995	43,379,202	-0.234336
-4.054845	44	-0.9682937
-5.559995	444	-0.2325818
-5.559995	446	-0.2325818
-5.559995	448,600	-0.234336
-5.258965	44th	-0.5220184
-3.811807	45	-0.6509774
-5.258965	45,504,300	-0.5221621
-5.559995	450	-0.2344892
-4.957935	451	-0.6763772
-4.957935	456	-0.6625568
-4.957935	458	-0.6506194
-5.559995	45th	-0.2341924
-3.740451	46	-0.9070404
-5.559995	46,916,666	-0.234336
-5.559995	46,916,670	-0.234336
-5.559995	462	-0.2083736
-5.258965	465	-0.5204078
-5.559995	468	-0.2083736
-5.559995	469	-0.2083736
-3.721146	47	-1.121587
-5.559995	47,239,772	-0.234336
-5.559995	47,807,018	-0.234336
-4.957935	472	-0.6729456
-5.559995	473	-0.2083736
-5.258965	478	-0.5204078
-3.673504	48	-1.332279
-5.258965	48,312,450	-0.5221621
-5.559995	489	-0.2083736
-5.559995	48th	-0.2341924
-3.591512	49	-1.182937
-5.559995	49,715,100	-0.234336
-5.559995	492	-0.2083736
-4.714897	497	-0.8226234
-3.001287	5	-1.297182
-5.559995	5,310,100	-0.234336
-5.559995	5,414,300	-0.234336
-5.559995	5,428,116	-0.234336
-5.559995	5,873,600	-0.234336
-5.258965	5.1	-0.216248
-5.258965	5.2	-0.206317
-5.559995	5.5	-0.2079872
-5.559995	5.8	-0.2079872
-5.559995	5.9	-0.2079872
-3.573223	50	-1.297762
-5.559995	50,342,425	-0.234336
-5.559995	50,609,069	-0.234336
-3.459625	51	-1.535288
-5.559995	51,899,313	-0.234336
-5.559995	517	-0.2314798
-5.082874	51st	-0.5719112
-3.452785	52	-1.369349
-5.258965	521	-0.204757
-5.559995	52nd	-0.2341924
-3.342511	53	-1.699706
-4.957935	532	-0.4305164
-5.559995	534	-0.2079872
-5.258965	537	-0.2131593
-3.050793	54	-1.251886
-5.559995	546,051,600	-0.234336
-5.258965	54th	-0.5220184
-2.682048	55	-2.006706
-5.559995	552	-0.2079872
-5.559995	554	-0.2079872
-5.559995	555	-0.2079872
-5.559995	556	-0.2079872
-5.559995	557	-0.2079872
-5.559995	558	-0.2079872
-4.162055	559	-1.388443
-5.559995	55th	-0.2341924
-4.781844	56	-0.3554147
-4.656905	560	-0.9277118
-5.082874	561	-0.545706
-5.559995	562	-0.2079872
-5.258965	563	-0.2079567
-5.559995	564	-0.2079872
-5.559995	565	-0.2079872
-5.559995	566	-0.2079872
-5.559995	567	-0.2079872
-5.559995	567,246	-0.234336
-5.559995	568	-0.2079872
-5.559995	569	-0.2079872
-5.559995	56th	-0.2341924
-4.714897	57	-0.2344701
-4.714897	570	-0.7980288
-4.861025	571	-1.029101
-5.559995	572	-0.2079872
-5.559995	573	-0.2079872
-5.559995	574	-0.2079872
-5.559995	575	-0.2079872
-5.559995	576	-0.2079872
-5.559995	577	-0.2079872
-4.957935	578	-0.6502331
-4.781844	579	-0.7203745
-4.446052	58	-0.3242444
-5.258965	580	-0.4958133
-4.714897	581	-0.8215214
-4.559995	582	-1.038355
-5.082874	584	-0.545706
-5.559995	585	-0.2079872
-5.559995	586	-0.2163278
-5.258965	587	-0.4958133
-5.559995	588	-0.2079872
-5.559995	589	-0.2079872
-5.258965	58th	-0.5220184
-4.656905	59	-0.3554877
-5.559995	59,120,770	-0.234336
-5.559995	591	-0.2079872
-5.559995	591,900	-0.234336
-5.559995	592	-0.2079872
-4.781844	593	-0.6968819
-5.559995	594	-0.2079872
-4.781844	595	-0.7052225
-5.559995	596	-0.2079872
-4.781844	597	-0.6968819
-5.258965	598	-0.4958133
-5.559995	599	-0.2079872
-2.985964	6	-1.475657
-5.559995	6.5	-0.2344413
-4.383904	60	-0.2979995
-4.957935	600	-0.6502331
-5.082874	601	-0.545706
-4.258965	602	-1.319181
-5.559995	605	-0.2079872
-5.559995	606	-0.2079872
-5.559995	607	-0.2079872
-5.559995	608	-0.2079872
-5.559995	609	-0.2079872
-5.559995	60th	-0.2341924
-4.605752	61	-0.3546911
-5.559995	61,180,707	-0.234336
-5.559995	610	-0.2079872
-5.559995	611	-0.2163278
-5.559995	612	-0.2079872
-5.258965	613	-0.5041538
-5.559995	614	-0.2079872
-5.559995	615	-0.2079872
-5.559995	616	-0.2079872
-5.559995	61st	-0.2341924
-4.559995	62	-0.2931986
-5.559995	62nd	-0.2341924
-4.383904	63	-0.3575471
-5.559995	637	-0.2325818
-5.559995	639	-0.2083736
-4.518602	64	-0.3801503
-5.559995	648	-0.2079872
-4.714897	65	-0.1854349
-5.258965	658	-0.5204078
-4.605752	66	-0.330496
-5.559995	663	-0.2079872
-5.559995	664	-0.2079872
-4.559995	67	-0.1871272
-5.559995	67,609,214	-0.234336
-4.518602	68	-0.3657373
-5.559995	68,421,052	-0.234336
-5.258965	681	-0.4958133
-5.559995	686	-0.2325818
-5.258965	687	-0.5204078
-5.559995	688	-0.2325818
-5.559995	689	-0.2079872
-4.559995	69	-0.3810212
-5.082874	690	-0.3753679
-5.559995	691	-0.2079872
-5.258965	692	-0.2059288
-3.869799	69th	-1.698645
-3.097597	7	-1.328627
-5.559995	7,061,830	-0.234336
-5.258965	7,191,775	-0.5221621
-5.559995	7,217,700	-0.234336
-5.258965	7,229,867	-0.5221621
-4.383904	70	-0.2189166
-5.559995	702	-0.2079872
-5.559995	703	-0.2079872
-5.559995	709	-0.2079872
-5.559995	70th	-0.2341924
-4.446052	71	-0.4655141
-5.559995	710	-0.2079872
-5.559995	711	-0.2079872
-5.258965	712	-0.4958133
-5.258965	713	-0.4958133
-5.258965	71st	-0.5220184
-4.605752	72	-0.4621366
-5.559995	726	-0.2203109
-5.559995	72nd	-0.2341924
-4.329546	73	-0.7186075
-5.258965	733	-0.206317
-5.559995	734	-0.2163278
-5.559995	735	-0.2083736
-5.559995	736	-0.2083736
-5.559995	737	-0.2203109
-4.714897	74	-0.3263415
-5.559995	741	-0.2083736
-4.957935	74th	-0.6764383
-4.281241	75	-0.287397
-4.179784	76	-0.5429026
-3.796567	77	-0.5850614
-5.559995	77,200	-0.234336
-4.559995	78	-0.2789592
-5.559995	78,764,500	-0.234336
-4.781844	78th	-0.7230871
-4.861025	79	-0.2795468
-5.559995	79th	-0.2341924
-3.032365	8	-1.368141
-5.258965	8,741,600	-0.5221621
-5.559995	8.7	-0.2344413
-4.605752	80	-0.3052091
-5.559995	80.4	-0.2344413
-4.957935	81	-0.1897778
-5.559995	81.5	-0.2344892
-5.559995	811,838	-0.234336
-3.852425	81st	-1.715678
-4.559995	82	-0.5005007
-5.559995	82,769,071	-0.234336
-5.258965	827	-0.5204078
-5.258965	82nd	-0.5220184
-4.656905	83	-0.1896253
-4.128632	83rd	-1.446833
-4.656905	84	-0.3059503
-5.559995	840	-0.2083736
-5.559995	845	-0.2325818
-4.413867	84th	-1.175766
-4.559995	85	-0.3979586
-5.559995	85,607,600	-0.234336
-5.559995	85,652,987	-0.234336
-4.480814	85th	-1.113618
-4.656905	86	-0.2762272
-5.559995	86,301,300	-0.234336
-5.559995	86,758,400	-0.234336
-4.714897	86th	-0.824234
-4.781844	87	-0.3554147
-4.028516	87th	-1.543743
-5.258965	88	-0.1932696
-4.957935	88th	-0.6764383
-5.559995	89	-0.2083736
-4.217573	89th	-1.361402
-5.559995	8th	-0.2341924
-3.106677	9	-1.357092
-5.258965	9,190,200	-0.5221621
-4.714897	90	-0.5082703
-5.082874	904	-0.5703006
-5.082874	91	-0.3627087
-5.559995	913	-0.2325818
-4.861025	92	-0.5189618
-5.082874	93	-0.5460924
-5.559995	93,974,800	-0.2317231
-5.559995	93.7	-0.2344892
-4.383904	94	-1.055288
-5.559995	942	-0.2083736
-4.957935	95	-0.4147887
-4.480814	96	-0.3086338
-5.559995	96,443,900	-0.234336
-4.957935	97	-0.4810956
-4.518602	973	-1.077245
-5.082874	98	-0.3584684
-5.559995	984	-0.2325818
-4.957935	986	-0.6748276
-4.957935	99	-0.3286362
-2.937781	:	-1.058465
-1.988636	;	-2.270488
-1.617987	</s>
-99	<s>	-1.419714
-5.258965	=	-0.5223128
-2.057841	a	-0.7270469
-5.082874	a.	-0.2343576
-5.559995	aa	-0.2083736
-4.861025	ababa	-0.3891537
-5.559995	abandon	-0.1937507
-5.559995	abatement	-0.2163278
-5.258965	abducted	-0.2292759
-5.559995	abductee	-0.2330429
-5.559995	abducting	-0.2330429
-4.480814	abduction	-0.5930099
-5.559995	abductions	-0.2083736
-5.258965	abetting	-0.4958133
-5.559995	abhorrent	-0.234476
-4.413867	abide	-1.063688
-5.559995	abiding	-0.2343947
-5.559995	abilities	-0.2079872
-4.605752	ability	-0.8051559
-5.559995	abject	-0.2163278
-5.559995	abkhazia	-0.2079872
-4.518602	able	-1.261591
-5.559995	abolish	-0.1937507
-5.559995	abolished	-0.2203109
-3.530611	about	-0.7767585
-3.721146	above	-0.845101
-5.559995	above-described	-0.2342666
-4.413867	above-mentioned	-0.2617989
-5.258965	abroad	-0.5041538
-5.082874	abrogate	-0.5702994
-4.559995	absence	-1.015248
-4.861025	absolute	-0.4041169
-4.957935	abstention	-0.6502331
-3.789143	abstentions	-1.751621
-5.258965	abu-ghneim	-0.1886253
-5.258965	abuja	-0.5175073
-3.878754	abuse	-0.7924328
-5.559995	abusers	-0.224789
-4.605752	abuses	-0.5353629
-5.258965	abusive	-0.2344198
-4.714897	academic	-0.2802531
-5.559995	academics	-0.2079872
-4.446052	accede	-1.030306
-4.559995	acceded	-1.22024
-4.559995	acceding	-1.027186
-4.383904	accelerate	-0.617413
-4.861025	accelerated	-0.4035871
-4.781844	accelerating	-0.1606003
-5.082874	acceleration	-0.5460924
-5.559995	accentuation	-0.2083736
-4.559995	accept	-0.656735
-4.355875	acceptable	-0.6970494
-3.947211	acceptance	-1.003298
-5.082874	acceptances	-0.5460924
-4.258965	accepted	-0.4563251
-4.861025	accepting	-0.3337709
-4.957935	accepts	-0.3103487
-3.555674	access	-1.340309
-4.714897	accessible	-0.3340079
-5.559995	accessibly	-0.2317628
-5.258965	accessing	-0.2341756
-4.082874	accession	-0.7038657
-5.082874	accessions	-0.5580297
-5.559995	accident	-0.2330429
-4.781844	accidental	-0.3770447
-5.082874	accommodate	-0.3631727
-4.605752	accompanied	-0.9973027
-5.559995	accompany	-0.2343241
-4.957935	accomplice	-0.6670349
-4.861025	accomplish	-1.014865
-4.861025	accomplished	-0.3227551
-5.559995	accomplishing	-0.2329685
-5.258965	accomplishment	-0.4961996
-4.162055	accomplishments	-0.5498357
-4.383904	accord	-0.2711935
-2.946153	accordance	-2.611999
-4.714897	accorded	-0.2497912
-4.480814	according	-1.299383
-4.861025	accordingly	-0.3722059
-4.957935	accords	-0.3084275
-3.179784	account	-0.7824842
-4.605752	accountability	-0.2897231
-4.559995	accountable	-0.34697
-5.559995	accountants	-0.2300368
-5.559995	accounting	-0.2344341
-4.714897	accounts	-0.3612398
-4.480814	accreditation	-0.3176939
-4.957935	accredited	-0.6625568
-5.559995	accruing	-0.2203109
-5.258965	accumulated	-0.2343384
-5.082874	accumulation	-0.5540466
-5.559995	accuracy	-0.2163278
-4.957935	accurate	-0.1884724
-5.559995	accurately	-0.2345143
-4.957935	accused	-0.4597099
-3.640917	achieve	-0.5330328
-3.781844	achieved	-0.685428
-3.80412	achievement	-0.8946543
-4.217573	achievements	-0.5137393
-3.753815	achieving	-0.5582297
-5.258965	acid	-0.5223248
-5.258965	acknowledge	-0.1737285
-5.258965	acknowledged	-0.2311195
-4.329546	acknowledges	-0.9402746
-4.097597	acknowledging	-1.266495
-4.237776	acquire	-0.6190413
-4.304723	acquired	-0.7732211
-5.258965	acquiring	-0.2330057
-4.179784	acquisition	-0.7189781
-5.559995	acquisitions	-0.2318206
-4.656905	across	-0.4955394
-3.980211	act	-0.465903
-5.258965	acted	-0.2311436
-4.281241	acting	-0.9145774
-2.929567	action	-1.036443
-4.518602	action-oriented	-0.2548625
-3.702663	actions	-0.5024983
-3.96893	active	-0.6329854
-4.003693	actively	-0.5605063
-5.559995	activist	-0.2079872
-5.082874	activists	-0.3580644
-2.901984	activities	-0.9450702
-4.304723	activity	-0.3578089
-3.991793	actors	-0.6723562
-3.702663	acts	-0.8027068
-4.781844	actual	-0.2910987
-5.082874	actually	-0.2344509
-4.714897	actuarial	-0.3486041
-5.258965	actuaries	-0.1886253
-5.258965	actuary	-0.1890293
-5.559995	acute	-0.2340643
-3.596207	ad	-2.058793
-5.559995	adama	-0.2345167
-5.258965	adaptation	-0.1890293
-5.258965	adapting	-0.17812
-5.559995	adaptive	-0.2344413
-4.714897	add	-0.5945536
-3.774665	add.1	-1.589902
-4.383904	add.2	-1.225314
-4.559995	add.3	-1.014862
-4.957935	add.4	-0.6502331
-4.957935	add.5	-0.6502331
-5.258965	add.6	-0.4958133
-5.082874	add.8	-0.545706
-5.258965	added	-0.1932696
-5.559995	addenda	-0.2079872
-4.957935	addendum	-0.5174384
-5.559995	addiction	-0.2203109
-5.559995	addictions	-0.2079872
-4.861025	addis	-1.055626
-4.355875	addition	-1.396989
-3.491809	additional	-0.5380316
-3.551395	address	-0.5847244
-4.217573	addressed	-0.4695914
-4.957935	addresses	-0.312107
-3.861025	addressing	-0.6075968
-3.667901	adequate	-0.4989602
-4.446052	adequately	-0.3538372
-5.082874	adhere	-0.5580297
-5.559995	adhered	-0.2203109
-4.237776	adherence	-1.211428
-4.861025	adjacent	-1.055475
-5.559995	adjudication	-0.2163278
-5.258965	adjust	-0.1920485
-4.446052	adjusted	-1.033663
-4.217573	adjustment	-0.5761344
-4.480814	adjustments	-0.4247634
-4.605752	administered	-0.5663502
-3.56436	administering	-1.999833
-3.684934	administration	-0.7240853
-3.47721	administrative	-0.8646315
-5.559995	administrator	-0.2083736
-5.559995	administrators	-0.2079872
-5.559995	admissible	-0.2345083
-4.480814	admission	-0.9355036
-5.258965	admit	-0.193731
-4.957935	admitted	-0.6625568
-5.559995	adolescence	-0.2344557
-5.258965	adolescent	-0.2077086
-5.258965	adolescents	-0.1886253
-3.843992	adopt	-0.5004711
-2.845665	adopted	-1.658059
-4.480814	adopting	-0.2344641
-3.600954	adoption	-1.049459
-4.957935	adoptions	-0.1583809
-5.082874	adopts	-0.5314695
-5.559995	adriatic	-0.2344054
-5.559995	adult	-0.2345167
-4.518602	advance	-0.299875
-5.258965	advanced	-0.234464
-4.112837	advancement	-1.096447
-5.258965	advancements	-0.2242566
-5.082874	advances	-0.1535046
-5.258965	advancing	-0.1936981
-4.518602	advantage	-0.897715
-5.559995	advantageous	-0.2344401
-5.559995	advantages	-0.2163278
-4.304723	adverse	-0.5695922
-4.559995	adversely	-0.4283484
-4.446052	advice	-0.566697
-5.559995	advise	-0.1937507
-4.957935	adviser	-0.6719272
-5.258965	advisers	-0.2335995
-5.258965	advising	-0.1936075
-5.559995	advisors	-0.2079872
-3.47009	advisory	-1.290226
-5.559995	advocacy	-0.2341349
-5.559995	advocated	-0.2281849
-5.258965	advocates	-0.2030949
-5.559995	advocating	-0.2343719
-5.258965	aegis	-0.180142
-5.082874	aerial	-0.2345107
-3.747082	affairs	-0.7607709
-4.054845	affect	-0.7695809
-3.47009	affected	-0.8505974
-4.446052	affecting	-1.307668
-4.605752	affects	-0.3344114
-5.559995	affiliated	-0.2316195
-5.258965	affirm	-0.2329241
-5.559995	affirmed	-0.224789
-4.383904	affirming	-0.7205181
-4.179784	affirms	-1.088841
-5.559995	afflict	-0.2344964
-4.656905	afford	-0.3132371
-4.957935	affordable	-0.205049
-4.861025	afforded	-0.3776498
-5.258965	affording	-0.2325169
-3.789143	afghan	-0.8399349
-3.547158	afghanistan	-0.8482178
-5.082874	afghans	-0.3809682
-4.861025	aforementioned	-0.2329372
-3.233659	africa	-1.0095
-3.309575	african	-0.9949079
-5.559995	africans	-0.224789
-3.852425	after	-0.694799
-5.559995	aftermath	-0.2079872
-5.559995	afterwards	-0.2300368
-5.559995	ag	-0.2314798
-4.041481	again	-0.4063542
-2.971164	against	-0.8569141
-4.355875	age	-0.4899454
-5.082874	age-appropriate	-0.2338727
-4.329546	ageing	-0.3626821
-3.229581	agencies	-1.237649
-3.559995	agency	-0.7732285
-3.108209	agenda	-1.278786
-5.258965	agendas	-0.2036129
-5.559995	agents	-0.224789
-5.559995	ages	-0.2317628
-5.559995	aggravate	-0.2344736
-4.781844	aggravated	-0.7247002
-5.258965	aggravating	-0.2344569
-5.082874	aggregate	-0.5721518
-4.656905	aggression	-0.4342131
-5.559995	ago	-0.2079872
-5.559995	agrarian	-0.234281
-4.198267	agree	-0.9330044
-3.635716	agreed	-0.6191198
-5.559995	agreed-upon	-0.2345047
-5.258965	agreeing	-0.2267503
-3.353169	agreement	-0.7711299
-3.442724	agreements	-0.8299809
-4.329546	agrees	-0.7031867
-4.957935	agricultural	-0.3090861
-4.413867	agriculture	-0.5995352
-5.559995	ahead	-0.2316195
-5.559995	ai	-0.2314798
-4.413867	aid	-0.2980602
-5.258965	aiding	-0.4958133
-4.028516	aids	-0.5438121
-5.559995	aids-infected	-0.2345131
-4.162055	aim	-0.769875
-3.568769	aimed	-2.183861
-5.258965	aiming	-0.2227229
-4.304723	aims	-0.4506988
-4.861025	air	-0.3779311
-5.082874	aircraft	-0.204543
-5.258965	aires	-0.2070249
-5.559995	airport	-0.2300368
-5.559995	akita	-0.2079872
-5.559995	al-adha	-0.2079872
-5.559995	al-fitr	-0.2163278
-5.559995	al-khalil	-0.2296813
-4.957935	al-quds	-0.67597
-4.957935	alarm	-0.189982
-4.518602	alarmed	-0.6261654
-5.082874	alarming	-0.2341625
-4.957935	albania	-0.6502331
-4.957935	albanian	-0.3535068
-5.559995	alcohol	-0.2163278
-5.559995	alert	-0.2083736
-4.258965	algeria	-1.506959
-4.861025	algiers	-0.2896452
-3.248241	alia	-2.379806
-5.082874	alien	-0.4039271
-4.861025	alike	-0.518705
-2.351554	all	-0.8148681
-5.258965	all-inclusive	-0.2159584
-5.559995	all-pervasive	-0.2345083
-5.559995	allay	-0.1937507
-5.559995	allegation	-0.2281849
-5.082874	allegations	-0.2293098
-4.480814	alleged	-0.5487788
-5.258965	alleging	-0.5223404
-4.413867	alleviate	-0.8566472
-4.605752	alleviating	-0.333403
-5.258965	alleviation	-0.1890293
-4.559995	alliance	-0.5020175
-5.559995	allies	-0.2163278
-4.781844	allocate	-0.3764984
-5.082874	allocated	-0.2152175
-4.781844	allocation	-0.4049891
-5.258965	allocations	-0.5177431
-4.179784	allow	-0.2726694
-5.559995	allowable	-0.2345155
-4.957935	allowance	-0.323091
-4.714897	allowances	-0.1910463
-4.656905	allowing	-0.3565937
-4.957935	allows	-0.2796014
-4.957935	almaty	-0.4952496
-5.082874	alone	-0.2291911
-4.656905	along	-0.3577034
-5.559995	alongside	-0.1937507
-3.916543	already	-0.3773547
-2.689006	also	-0.8614444
-5.082874	alter	-0.3615694
-5.258965	alteration	-0.4958133
-4.781844	altered	-0.441511
-5.559995	alternate	-0.2343073
-4.355875	alternative	-0.524451
-5.258965	alternatives	-0.2102547
-5.082874	although	-0.1936679
-4.861025	always	-0.2329853
-5.082874	amend	-0.1932998
-4.145022	amended	-0.755237
-5.559995	amending	-0.2343193
-3.887897	amendment	-0.7094049
-4.446052	amendments	-0.8003249
-5.559995	amerasinghe	-0.2345167
-3.605753	america	-0.713018
-3.897237	american	-0.7215989
-4.781844	americas	-0.4332818
-4.446052	ammunition	-1.424713
-5.258965	amnesty	-0.2299147
-3.179784	among	-0.7418571
-3.708737	amount	-0.9973977
-5.082874	amounts	-0.3670772
-5.559995	amphetamine	-0.2079872
-5.258965	amphetamine-type	-0.5223415
-5.559995	ample	-0.2344964
-5.559995	amputation	-0.2300368
-2.709962	an	-0.8875626
-4.781844	analyse	-0.307015
-4.957935	analysing	-0.1863032
-4.112837	analysis	-0.4703687
-4.446052	analytical	-0.3670416
-5.559995	analytically	-0.2163278
-5.559995	anchored	-0.2203109
-5.559995	ancillary	-0.2203109
-1.387013	and	-0.5006665
-4.446052	andorra	-1.119597
-4.383904	angola	-1.062929
-4.861025	anguilla	-0.2541417
-3.615512	annex	-1.014218
-5.082874	annexation	-0.1889881
-4.559995	annexed	-1.22024
-4.480814	annexes	-0.4871467
-5.258965	anniversaries	-0.2032222
-4.355875	anniversary	-1.407733
-5.082874	announced	-0.2318133
-4.957935	announcement	-0.4339588
-5.559995	announcing	-0.2345083
-3.843992	annual	-0.5809968
-4.480814	annually	-0.3305908
-5.559995	anomaly	-0.2330429
-3.906783	another	-0.6614051
-5.258965	antagonism	-0.5041538
-5.082874	antarctic	-0.5720034
-5.559995	anterior	-0.2203109
-4.559995	anti-ballistic	-1.04138
-5.258965	anti-dumping	-0.2163053
-5.559995	anti-money-laundering	-0.2345083
-4.237776	anti-personnel	-1.678825
-5.258965	anti-poverty	-0.2344473
-5.258965	anti-semitism	-0.5041538
-5.559995	anti-trafficking	-0.2344581
-5.559995	anticipate	-0.234409
-4.957935	anticipated	-0.2331749
-5.559995	anticipates	-0.2312882
-4.518602	antigua	-1.060991
-3.067235	any	-0.4476978
-5.559995	anyone	-0.2334472
-5.559995	anything	-0.2312882
-5.559995	anywhere	-0.2079872
-5.258965	apart	-0.2272664
-5.559995	apia	-0.2079872
-5.559995	apparatus	-0.2163278
-5.559995	apparent	-0.2345059
-5.559995	apparently	-0.2345059
-4.237776	appeal	-0.4233869
-5.559995	appealing	-0.2203109
-3.947211	appeals	-0.8454469
-5.258965	appear	-0.512615
-5.559995	appearance	-0.2083736
-5.082874	appears	-0.224041
-5.559995	appendices	-0.2163278
-5.559995	appending	-0.2306998
-4.559995	applicability	-1.015248
-3.916543	applicable	-0.6694102
-4.605752	applicant	-0.3418877
-3.555674	application	-0.8360776
-4.068634	applications	-0.2664524
-4.162055	applied	-0.8917512
-4.781844	applies	-0.394085
-3.980211	apply	-0.5130468
-4.518602	applying	-0.2811725
-4.957935	appoint	-0.3242404
-4.518602	appointed	-0.459691
-5.258965	appointing	-0.2343025
-4.383904	appointment	-0.4972917
-5.559995	appointments	-0.2163278
-4.518602	apportion	-0.8032467
-4.714897	apportioned	-0.3916299
-5.559995	apportioning	-0.1937507
-4.217573	apportionment	-1.335279
-5.559995	apportionments	-0.2344473
-4.281241	appraisal	-1.274886
-5.258965	appraise	-0.2077226
-5.559995	appraised	-0.2316195
-5.559995	appraising	-0.2344246
-5.559995	appreciable	-0.2343971
-5.082874	appreciates	-0.3431676
-5.082874	appreciating	-0.1927629
-3.272193	appreciation	-1.542435
-5.082874	appreciative	-0.5460924
-5.559995	apprise	-0.1937507
-5.082874	apprised	-0.1770837
-3.781844	approach	-0.5391682
-4.237776	approaches	-0.6083463
-2.980211	appropriate	-0.6748217
-5.258965	appropriated	-0.5196466
-5.559995	appropriately	-0.2343899
-5.559995	appropriateness	-0.2083736
-4.518602	appropriation	-0.448627
-4.518602	appropriations	-0.4663871
-3.906783	approval	-0.7931772
-5.559995	approve	-0.2330429
-3.789143	approved	-0.7191885
-4.162055	approves	-0.7109263
-5.082874	approving	-0.5707617
-3.491809	april	-1.18214
-3.640917	arab	-1.272471
-5.258965	arab-israeli	-0.5221621
-4.518602	arabia	-0.9171965
-4.957935	arabic	-0.6502331
-4.559995	arabs	-0.8584372
-4.957935	arbitral	-0.5221393
-4.957935	arbitrarily	-0.3549854
-4.015927	arbitrary	-0.9249294
-4.446052	arbitration	-0.4253136
-5.258965	arbitrators	-0.2198422
-4.781844	architecture	-0.4953934
-5.082874	archives	-0.3584684
-2.874254	are	-0.369618
-3.796567	area	-0.9640321
-3.442724	areas	-0.8037176
-4.162055	argentina	-1.601035
-5.082874	arise	-0.4030482
-5.258965	arises	-0.2247792
-4.112837	arising	-0.9247
-5.559995	arithmetical	-0.2345167
-5.559995	arm	-0.2083736
-4.559995	armaments	-0.3198254
-3.542962	armed	-1.228946
-4.446052	armenia	-1.119597
-3.332108	arms	-1.083487
-5.559995	arms-limitation	-0.2338427
-4.329546	army	-1.117097
-5.559995	arose	-0.2344964
-4.781844	around	-0.7276626
-5.559995	arrange	-0.2306998
-4.198267	arrangement	-0.502105
-3.43289	arrangements	-0.6919867
-5.559995	array	-0.2083736
-4.355875	arrears	-0.5629014
-4.605752	arrest	-0.417657
-5.258965	arrested	-0.2325914
-4.957935	arrests	-0.3087629
-5.559995	arrive	-0.2324977
-4.861025	arrived	-1.053612
-4.714897	arsenals	-0.4781938
-5.082874	arta	-0.3768143
-5.559995	artefacts	-0.2163278
-2.878754	article	-0.8595322
-3.878754	articles	-0.3201713
-5.258965	artifacts	-0.2061779
-5.258965	artillery	-0.5223415
-5.559995	aruba	-0.2079872
-2.199023	as	-0.7759237
-5.559995	ascension	-0.2344389
-4.861025	ascertain	-0.2832097
-4.559995	ascertained	-1.04101
-4.861025	ascertaining	-1.014865
-5.559995	ascribed	-0.2203109
-3.852425	asia	-1.296731
-4.781844	asia-pacific	-0.7681427
-4.480814	asian	-0.4940646
-4.861025	asian-african	-1.055436
-5.559995	ask	-0.1937507
-5.559995	asks	-0.2343193
-5.258965	aspect	-0.4961996
-3.646181	aspects	-0.9255892
-5.258965	asphyxiating	-0.4958133
-5.559995	aspiration	-0.2083736
-4.162055	aspirations	-1.601426
-5.559995	assault	-0.2079872
-5.559995	assaulting	-0.2343983
-5.559995	assembled	-0.2324977
-5.559995	assemblies	-0.2203109
-2.550969	assembly	-1.304647
-4.518602	assess	-0.8834307
-4.028516	assessed	-0.8428937
-4.714897	assessing	-0.3689022
-3.610605	assessment	-0.8191561
-5.559995	assessmenta	-0.2239233
-3.897237	assessments	-0.8424863
-4.781844	asset	-0.5927153
-4.656905	assets	-0.3427556
-4.714897	assign	-0.3209375
-4.559995	assigned	-0.5371763
-5.559995	assigning	-0.2344246
-4.781844	assignment	-0.2610367
-5.559995	assimilated	-0.2203109
-3.530611	assist	-0.7126248
-2.83083	assistance	-0.9503987
-5.559995	assistant	-0.2332589
-5.258965	assisted	-0.2279785
-4.041481	assisting	-0.4570918
-4.861025	associate	-0.4040067
-3.887897	associated	-1.320646
-4.258965	association	-0.4916427
-4.605752	associations	-0.4333593
-5.082874	assume	-0.2272712
-5.258965	assumed	-0.193188
-5.258965	assuming	-0.2306853
-4.861025	assurance	-0.5156656
-4.714897	assurances	-0.3197469
-4.329546	assure	-0.8092605
-5.559995	assured	-0.2281849
-5.559995	assures	-0.2344246
-5.559995	assuring	-0.2314485
-5.559995	assyrians	-0.2163278
-5.559995	astronautical	-0.2344736
-4.355875	asylum	-0.4390847
-4.781844	asylum-seekers	-0.3204409
-5.559995	asymmetries	-0.224789
-2.333395	at	-1.106363
-5.559995	atambua	-0.2296813
-4.605752	atlantic	-0.2004371
-5.082874	atmosphere	-0.3777809
-4.082874	atomic	-1.305122
-5.559995	atrocities	-0.2163278
-5.082874	attach	-0.216102
-4.781844	attached	-0.6019784
-4.861025	attaches	-0.5305688
-5.258965	attack	-0.2344975
-5.258965	attacking	-0.2343265
-4.355875	attacks	-0.624117
-4.957935	attain	-0.1881292
-5.082874	attainable	-0.4038601
-4.861025	attained	-0.1813239
-4.714897	attaining	-0.3036041
-4.605752	attainment	-0.9738557
-5.082874	attempt	-0.3882259
-5.559995	attempted	-0.2203109
-4.957935	attempting	-0.6625568
-4.957935	attempts	-0.6625568
-5.258965	attend	-0.4815767
-4.861025	attendance	-0.2773449
-5.258965	attended	-0.5196466
-4.957935	attending	-0.3107674
-3.625497	attention	-0.8818347
-5.258965	attitude	-0.207757
-4.861025	attitudes	-0.2789672
-5.559995	attorneys	-0.2332625
-4.781844	attract	-0.3102466
-4.861025	attracting	-0.4065658
-5.559995	attractive	-0.2203109
-4.714897	attribute	-0.82149
-5.559995	attributes	-0.2083736
-4.656905	attribution	-0.6628777
-5.559995	audio-visual	-0.2163278
-5.258965	audiovisual	-0.5222865
-4.480814	audit	-0.2646652
-4.957935	audited	-0.6763617
-5.559995	auditing	-0.2344353
-5.258965	auditor	-0.5223248
-4.217573	auditors	-0.4159791
-5.082874	audits	-0.5460924
-5.082874	augment	-0.1701961
-3.679182	august	-0.8996168
-5.082874	aung	-0.5722152
-4.128632	auspices	-1.134176
-5.559995	austerity	-0.2338427
-4.304723	australia	-1.252223
-4.054845	austria	-1.491983
-5.082874	authentic	-0.545706
-5.258965	authenticity	-0.2097219
-5.559995	author	-0.2344975
-3.522569	authorities	-0.7166563
-3.789143	authority	-0.514509
-4.714897	authorization	-0.3296801
-4.781844	authorize	-0.7276481
-4.413867	authorized	-0.541229
-4.957935	authorizes	-0.6359966
-5.559995	authorizing	-0.1937507
-5.258965	automatic	-0.2079859
-5.559995	automatically	-0.2344724
-5.258965	autonomous	-0.2343229
-5.258965	autonomy	-0.180142
-5.559995	auxiliary	-0.2330429
-5.082874	avail	-0.5722092
-4.656905	availability	-0.5039429
-3.573223	available	-0.5559117
-4.714897	average	-0.294458
-5.559995	avert	-0.2306998
-4.413867	avoid	-0.2423982
-5.258965	avoided	-0.2061779
-4.957935	avoiding	-0.3138332
-5.559995	awaiting	-0.1937507
-4.957935	award	-0.1968326
-5.258965	awarded	-0.5196466
-5.258965	awards	-0.1886253
-3.861025	aware	-1.889756
-3.811807	awareness	-0.8483408
-5.258965	awareness-raising	-0.2344856
-5.258965	away	-0.5214387
-4.281241	azerbaijan	-1.154557
-3.050793	b	-1.575026
-5.082874	b.	-0.2341242
-4.957935	back	-0.189551
-5.559995	backdrop	-0.2083736
-4.605752	background	-0.2336714
-4.957935	backgrounds	-0.3180605
-4.861025	backlog	-1.045903
-4.559995	bacteriological	-1.21933
-5.559995	baghlan	-0.2163278
-5.082874	baha	-0.5722331
-4.559995	bahamas	-1.014862
-5.559995	bahr	-0.2345167
-4.605752	bahrain	-0.9734693
-5.559995	baker	-0.2344318
-5.559995	baku	-0.2339877
-4.068634	balance	-0.6701108
-5.559995	balance-of-payments	-0.2339996
-4.329546	balanced	-0.3332522
-5.258965	balances	-0.2198422
-5.559995	balancing	-0.2314485
-4.861025	balkans	-0.3470816
-5.082874	bamako	-0.1923703
-5.559995	bamian	-0.2079872
-5.258965	ban	-0.2295579
-4.518602	bangkok	-0.6279457
-4.258965	bangladesh	-1.295689
-5.559995	banja	-0.2345167
-5.559995	banjul	-0.2079872
-3.827601	bank	-0.9407082
-4.957935	banking	-0.3367718
-4.656905	banks	-0.5088465
-4.714897	banning	-0.7837923
-5.559995	bar	-0.2345071
-4.518602	barbados	-0.6426318
-4.518602	barbuda	-1.230018
-4.957935	barriers	-0.3262579
-4.217573	base	-0.3402292
-3.573223	based	-1.221515
-5.559995	basel	-0.2335107
-5.559995	baseline	-0.2336127
-5.258965	bases	-0.2061779
-3.897237	basic	-0.5420054
-5.559995	basin	-0.2339949
-5.559995	basing	-0.1937507
-3.20016	basis	-1.171717
-5.559995	bata	-0.2339877
-5.559995	battle	-0.2344988
-2.567884	be	-0.5090727
-5.559995	beach	-0.2163278
-4.413867	bear	-0.6320878
-3.361338	bearing	-2.191668
-5.559995	beating	-0.2079872
-5.559995	became	-0.2338307
-4.656905	because	-0.6228921
-3.887897	become	-0.5249331
-4.957935	becomes	-0.6729456
-4.518602	becoming	-0.4294936
-5.559995	beef	-0.2344389
-3.392678	been	-0.3063946
-3.947211	before	-0.5368567
-5.559995	beforehand	-0.2079872
-4.957935	began	-0.3416235
-4.714897	begin	-0.2279734
-4.559995	beginning	-0.5033697
-5.258965	begins	-0.2218248
-5.258965	begun	-0.2173158
-4.480814	behalf	-0.9574736
-5.082874	behaviour	-0.1856263
-5.258965	behind	-0.2079821
-3.936746	beijing	-1.856278
-3.568769	being	-0.5234272
-4.413867	beings	-0.381352
-5.258965	beirut	-0.2028441
-4.355875	belarus	-1.203918
-4.041481	belgium	-1.504948
-5.258965	belgrade	-0.2160508
-4.957935	belief	-0.4923793
-5.082874	believe	-0.569007
-4.605752	believing	-0.6044469
-4.237776	belize	-0.6694623
-5.258965	belong	-0.5081369
-4.446052	belonging	-1.131921
-5.258965	belongs	-0.2137657
-4.861025	below	-0.3746166
-5.559995	belts	-0.2079872
-5.559995	benchmark	-0.2345167
-5.258965	benchmarks	-0.2332697
-4.957935	beneficial	-0.2200537
-5.559995	beneficiaries	-0.2083736
-5.258965	beneficiary	-0.2079236
-3.869799	benefit	-0.3208125
-5.559995	benefited	-0.2336127
-5.258965	benefiting	-0.5214387
-3.861025	benefits	-0.5081053
-4.383904	benin	-1.368961
-5.082874	bermuda	-0.3661556
-5.559995	besides	-0.2314485
-4.028516	best	-0.6033559
-4.304723	bethlehem	-0.7218409
-4.015927	better	-0.3501527
-3.032365	between	-0.8607471
-4.068634	beyond	-0.3992024
-5.082874	bhutan	-0.545706
-5.559995	bid	-0.2300368
-5.559995	bids	-0.2296813
-4.605752	biennial	-0.4499933
-5.258965	biennialization	-0.5218317
-5.258965	biennialized	-0.4958133
-5.559995	biennially	-0.2203109
-3.767603	biennium	-1.258474
-3.702663	bilateral	-0.7745436
-5.082874	bilaterally	-0.1880559
-5.559995	bill	-0.2345011
-5.082874	billion	-0.2078219
-4.413867	binding	-0.4459335
-5.082874	biodiversity	-0.2112491
-4.028516	biological	-1.267896
-5.082874	biosafety	-0.2073408
-5.258965	biotechnology	-0.2115291
-5.559995	birmingham	-0.2079872
-5.082874	birth	-0.206414
-5.559995	birthplace	-0.2083736
-5.559995	birthright	-0.2083736
-5.082874	bis	-0.1922266
-5.559995	bishkek	-0.2296813
-4.480814	black	-1.113831
-5.258965	blacks	-0.4958133
-5.559995	blank	-0.234476
-5.559995	blinding	-0.2345167
-5.559995	block	-0.224789
-3.568769	board	-0.893874
-5.082874	boards	-0.5460924
-3.261142	bodies	-0.963927
-4.128632	body	-0.4320605
-5.559995	bogotá	-0.2296813
-5.559995	bold	-0.2345143
-4.656905	bolivia	-0.9277118
-5.559995	bombardment	-0.2083736
-5.559995	bombardments	-0.2079872
-5.559995	bombing	-0.2163278
-4.957935	bombings	-0.2799598
-5.258965	bona	-0.5223415
-5.559995	bonn	-0.2079872
-4.861025	booby	-1.055626
-5.559995	books	-0.2163278
-5.559995	boost	-0.2345131
-5.559995	booth	-0.2299171
-4.605752	border	-0.3910076
-4.518602	borders	-0.5439889
-4.714897	born	-0.4188965
-4.413867	borne	-0.8278629
-5.559995	borrow	-0.2343001
-4.957935	borrowing	-0.6766752
-3.646181	bosnia	-1.900888
-4.957935	bosnian	-0.5223391
-3.600954	both	-0.3359582
-4.656905	botswana	-0.9277118
-4.258965	bound	-1.52306
-5.559995	boundary	-0.224789
-5.559995	bounds	-0.2083736
-4.714897	boys	-0.2757071
-5.559995	branch	-0.2083736
-5.559995	brasilia	-0.224789
-4.097597	brazil	-1.665493
-5.559995	brazzaville	-0.2339877
-5.082874	brcko	-0.403271
-5.559995	breach	-0.2083736
-4.861025	breaches	-0.4820152
-5.559995	breadth	-0.2083736
-5.559995	break	-0.1937507
-5.559995	breakdown	-0.2083736
-5.559995	breaking	-0.1937507
-5.559995	breakthrough	-0.224789
-4.329546	bretton	-1.255252
-4.714897	bribery	-0.4731557
-5.559995	brides	-0.2163278
-5.559995	bridge	-0.1937507
-5.258965	bridging	-0.4815767
-5.559995	brief	-0.2340032
-5.258965	briefing	-0.5222602
-5.258965	briefings	-0.2077939
-4.957935	brindisi	-0.6502331
-3.861025	bring	-0.6676247
-4.383904	bringing	-0.3587729
-5.559995	brings	-0.2344712
-3.991793	britain	-1.561594
-4.781844	british	-0.7233982
-4.198267	broad	-0.3820849
-4.480814	broad-based	-0.3709385
-5.082874	broadcasters	-0.5540466
-4.861025	broadcasting	-0.2285149
-5.258965	broaden	-0.193618
-5.559995	broadened	-0.2163278
-4.957935	broadening	-0.3335539
-4.605752	broader	-0.2620331
-5.082874	broadest	-0.2319493
-5.082874	broadly	-0.2157736
-5.559995	brotherhood	-0.2079872
-4.383904	brought	-0.6147016
-5.559995	brovina	-0.2079872
-4.781844	brunei	-0.7234054
-5.559995	brunt	-0.2083736
-4.605752	brussels	-0.48606
-5.258965	brutal	-0.2161207
-5.082874	bucharest	-0.398205
-3.484448	budget	-0.8074135
-3.843992	budgetary	-0.9107945
-5.559995	budgeted	-0.2345143
-4.861025	budgeting	-0.2703899
-4.861025	budgets	-0.1927483
-5.258965	buenos	-0.5223415
-5.258965	bug	-0.5215501
-4.518602	build	-0.3261403
-4.198267	building	-0.3874947
-5.559995	buildings	-0.2079872
-5.559995	built	-0.2339026
-5.082874	bujumbura	-0.5713314
-4.281241	bulgaria	-1.486208
-5.559995	bulk	-0.2083736
-5.559995	bulletin	-0.2344772
-4.518602	burden	-0.3114515
-4.559995	burden-sharing	-0.4175399
-4.518602	burdens	-0.4781613
-4.656905	bureau	-0.5103548
-5.258965	bureaux	-0.2034857
-4.446052	burkina	-1.146112
-5.559995	burning	-0.2163278
-4.656905	burundi	-0.9277118
-4.383904	business	-0.3595465
-5.559995	businesses	-0.2334616
-3.991793	but	-0.3827275
-2.208199	by	-0.9050596
-5.559995	by-laws	-0.2083736
-5.559995	bypass	-0.2330429
-3.285837	c	-1.644802
-5.258965	c.	-0.234208
-5.258965	cabinet	-0.2203035
-4.861025	caicos	-1.055583
-4.957935	cairo	-0.3487213
-4.518602	calculated	-0.5596997
-5.258965	calculation	-0.4961996
-5.559995	calculations	-0.2083736
-4.179784	caledonia	-0.5663095
-5.559995	caledonian	-0.2344509
-5.559995	caledonians	-0.2345035
-4.446052	calendar	-0.4523351
-4.015927	call	-0.932146
-4.112837	called	-1.662071
-4.518602	calling	-0.8391068
-2.89913	calls	-2.063314
-4.714897	cambodia	-0.5833665
-5.559995	came	-0.2203109
-4.605752	cameroon	-0.9734693
-4.518602	campaign	-0.351636
-4.355875	campaigns	-0.4070306
-4.861025	camps	-0.1770195
-5.559995	campuses	-0.2163278
-3.640917	can	-0.4748739
-4.028516	canada	-1.517537
-5.258965	cancel	-0.5204066
-4.714897	cancellation	-0.3548583
-5.559995	cancellations	-0.2342606
-5.559995	cancelled	-0.2344318
-4.480814	candidates	-0.5436141
-4.446052	cannot	-0.5016131
-5.559995	cantonal	-0.2345167
-5.559995	cantonization	-0.2300368
-4.304723	capabilities	-0.4466169
-5.258965	capability	-0.4961996
-4.861025	capable	-1.029487
-4.198267	capacities	-0.5402487
-3.591512	capacity	-1.052934
-4.003693	capacity-building	-0.5630192
-4.605752	cape	-0.9999892
-4.605752	capita	-0.6926205
-4.145022	capital	-0.5267551
-5.559995	capital-account	-0.2344928
-5.559995	capitals	-0.2079872
-5.559995	captors	-0.2203109
-5.258965	cards	-0.2250287
-4.145022	care	-0.5280721
-5.559995	cared	-0.2299171
-5.559995	career	-0.2331509
-5.559995	careful	-0.2343516
-5.082874	carefully	-0.1916104
-5.258965	cargo	-0.2251497
-3.582272	caribbean	-0.8102335
-5.559995	carrefour-feuilles	-0.2345143
-3.878754	carried	-1.689951
-4.861025	carriers	-0.4006207
-5.258965	carries	-0.234269
-3.96893	carry	-1.512796
-4.082874	carrying	-1.711375
-4.480814	cartagena	-0.6590903
-5.559995	cartegena	-0.2342439
-3.887897	case	-0.6045963
-4.714897	case-by-case	-0.8242854
-3.906783	cases	-0.5339297
-4.656905	cash	-0.5231423
-5.559995	castries	-0.2079872
-4.781844	casualties	-0.2594003
-5.559995	catalyst	-0.2299171
-5.258965	catalytic	-0.5220914
-5.082874	catastrophe	-0.3935315
-5.258965	catastrophic	-0.5222853
-4.383904	categories	-0.3468167
-4.518602	cause	-0.4196261
-4.198267	caused	-1.265719
-3.906783	causes	-1.096222
-4.861025	causing	-0.1914572
-4.781844	cayman	-0.7233635
-5.559995	caymanian	-0.2343863
-5.258965	cd	-0.5193058
-4.198267	cease	-0.3969892
-5.082874	ceased	-0.545706
-4.217573	ceasefire	-0.7294837
-5.559995	ceases	-0.2203109
-5.082874	ceiling	-0.1930275
-5.082874	celebrate	-0.3936895
-5.258965	celebrated	-0.2219713
-4.861025	celebration	-0.5151027
-5.559995	celebrations	-0.2083736
-5.082874	celestial	-0.5719986
-5.559995	census	-0.2079872
-3.827601	cent	-0.8611184
-5.559995	centennial	-0.2083736
-3.347808	central	-1.212572
-3.526572	centre	-0.9272788
-3.843992	centres	-0.5824159
-3.980211	century	-0.8222736
-5.258965	ceremonies	-0.512615
-4.082874	certain	-0.3500261
-5.559995	certainty	-0.2312882
-5.559995	certificates	-0.2299171
-4.781844	certification	-0.3685901
-5.082874	certified	-0.40125
-4.714897	cessation	-0.7984152
-4.781844	chad	-0.6968819
-5.559995	chair	-0.2083736
-5.258965	chaired	-0.5196466
-4.329546	chairman	-1.229128
-5.559995	chairman-in-office	-0.2163278
-4.957935	chairmanship	-0.6506194
-5.559995	chairmen	-0.2299171
-5.258965	chairperson	-0.1890293
-5.559995	chairperson-in-office	-0.2083736
-5.559995	chairpersons	-0.2083736
-4.480814	challenge	-0.2413729
-3.789143	challenges	-0.7497416
-4.861025	chamber	-0.2455003
-4.714897	chamorro	-0.63908
-5.559995	chamorros	-0.2345047
-5.559995	chance	-0.2203109
-4.355875	change	-0.3286881
-5.258965	changed	-0.2102547
-4.198267	changes	-0.5291907
-4.781844	changing	-0.2694606
-5.258965	channel	-0.2082249
-4.605752	channels	-0.4166298
-3.916543	chapter	-0.6179832
-5.258965	chapters	-0.2078956
-4.054845	character	-0.8903459
-4.861025	characteristics	-0.5060983
-5.559995	characterize	-0.1937507
-5.559995	characterized	-0.2318206
-5.258965	charge	-0.2157936
-4.781844	charged	-0.4627934
-5.559995	charging	-0.2344808
-5.258965	chart	-0.2296801
-3.209747	charter	-1.126239
-4.957935	charters	-0.3126124
-5.258965	charts	-0.2147896
-4.329546	chemical	-1.446407
-4.714897	chemicals	-0.3890363
-5.559995	cherished	-0.2317628
-5.559995	cherishing	-0.2343193
-4.605752	chernobyl	-0.6922865
-4.480814	chief	-0.5557864
-5.559995	chiefs	-0.2079872
-3.324467	child	-0.7707548
-5.559995	child-	-0.2163278
-5.559995	child-care	-0.2163278
-5.258965	child-centred	-0.522253
-5.559995	child-focused	-0.2163278
-5.559995	child-related	-0.2343504
-5.559995	childhood	-0.2163278
-3.03495	children	-0.9641811
-5.559995	children-to-children	-0.2345143
-4.198267	chile	-1.35368
-4.559995	china	-1.014862
-5.258965	china-africa	-0.5214159
-4.957935	chinese	-0.4143847
-5.258965	choice	-0.2160283
-4.957935	choices	-0.228961
-5.082874	choose	-0.2342546
-5.559995	choosing	-0.2336127
-5.559995	christ	-0.2163278
-5.559995	christians	-0.2079872
-5.559995	christmas	-0.2079872
-5.559995	churches	-0.2163278
-5.559995	cidaho	-0.2079872
-5.258965	circles	-0.4958133
-4.714897	circulate	-0.2304988
-5.258965	circulated	-0.5196466
-4.281241	circulation	-1.32838
-5.559995	circumstance	-0.2345143
-4.003693	circumstances	-0.3151648
-4.605752	cities	-0.4334076
-4.258965	citizens	-0.695973
-5.559995	citizenship	-0.2163278
-4.518602	city	-0.5163616
-3.439421	civil	-1.197081
-3.690763	civilian	-0.8745679
-4.145022	civilians	-0.6657386
-4.861025	civilization	-0.4993482
-5.258965	civilizational	-0.5223176
-3.957935	civilizations	-0.7781859
-5.559995	claim	-0.2345131
-5.559995	claimed	-0.2343504
-5.082874	claiming	-0.4008791
-4.957935	claims	-0.2937173
-4.957935	clarification	-0.3083089
-5.559995	clarify	-0.2339637
-5.559995	clarifying	-0.2344569
-5.559995	clashes	-0.2341146
-5.559995	classifications	-0.2342618
-5.258965	classified	-0.5195888
-5.258965	clause	-0.5117493
-5.559995	clauses	-0.2239233
-5.559995	clean-out	-0.2083736
-5.559995	cleaner	-0.2163278
-4.781844	clear	-0.2125646
-4.559995	clearance	-0.3772318
-5.258965	clearer	-0.2343205
-5.559995	clearing	-0.2300368
-4.656905	clearly	-0.2718908
-5.559995	clerical	-0.2330429
-4.281241	climate	-0.4908296
-3.796567	close	-0.4999567
-5.258965	closed	-0.224723
-4.281241	closely	-0.4185722
-4.413867	closer	-0.3324513
-4.781844	closing	-0.143403
-4.781844	closure	-0.6972682
-5.258965	club	-0.213305
-5.559995	cluster	-0.2083736
-5.559995	cm	-0.2314798
-5.082874	co-chairmen	-0.5460924
-5.559995	co-chairpersons	-0.2083736
-5.559995	co-financing	-0.2345119
-5.258965	co-sponsors	-0.4961996
-5.258965	coalition	-0.2295591
-5.559995	coalitions	-0.2316195
-4.162055	coastal	-0.6606229
-4.781844	code	-0.6972682
-5.559995	codes	-0.2083736
-4.861025	codification	-0.2529928
-5.559995	coerce	-0.2344641
-5.559995	coercion	-0.2079872
-4.237776	coercive	-0.9685512
-5.258965	coexistence	-0.1886253
-5.559995	cognizance	-0.2083736
-4.656905	cognizant	-0.778975
-4.480814	coherence	-0.3576193
-4.559995	coherent	-0.3164626
-5.258965	coincide	-0.5194455
-5.258965	cold	-0.5222853
-4.656905	collaborate	-0.514066
-5.559995	collaborating	-0.2316195
-4.054845	collaboration	-0.7188575
-4.714897	collaborative	-0.2796541
-5.258965	collate	-0.2163191
-5.559995	collating	-0.2079872
-4.605752	collect	-0.2907495
-4.957935	collected	-0.4597554
-4.781844	collecting	-0.4338834
-4.605752	collection	-0.4971859
-4.383904	collective	-0.2974282
-4.605752	collectively	-0.5234416
-4.714897	college	-0.5016559
-5.559995	collisions	-0.2083736
-4.957935	cologne	-0.6502331
-4.082874	colombia	-1.464831
-3.852425	colonial	-1.210876
-4.217573	colonialism	-0.5538419
-5.082874	colour	-0.3758582
-5.559995	column	-0.224789
-3.542962	combat	-0.6337703
-5.082874	combatants	-0.545706
-5.559995	combated	-0.2318206
-3.861025	combating	-0.4076211
-5.258965	combine	-0.2337493
-5.258965	come	-0.5081369
-5.082874	comes	-0.3896993
-5.082874	coming	-0.4034304
-5.559995	command	-0.2340451
-5.258965	commander	-0.4961996
-5.258965	commemorated	-0.5192745
-4.714897	commemoration	-0.3903975
-5.559995	commemorative	-0.2343564
-4.480814	commence	-0.4445802
-5.559995	commenced	-0.2079872
-4.518602	commencement	-1.053037
-5.082874	commencing	-0.2294393
-5.258965	commendable	-0.2338559
-4.413867	commending	-1.035444
-3.869799	commends	-0.9866364
-4.605752	commensurate	-0.9971016
-4.179784	comments	-0.6236262
-4.714897	commerce	-0.2173439
-4.068634	commercial	-0.5145133
-5.559995	commercialized	-0.2344999
-2.852425	commission	-1.079896
-3.358598	commissioner	-1.125383
-4.329546	commissioner-general	-0.6840861
-4.015927	commissions	-0.6412696
-4.198267	commit	-0.4989173
-3.547158	commitment	-1.04272
-3.740451	commitments	-0.3933567
-3.573223	committed	-0.6526057
-2.635199	committee	-1.339367
-4.480814	committees	-0.3375333
-5.258965	committing	-0.2337397
-4.413867	commodities	-0.4208292
-4.281241	commodity	-0.4059924
-4.605752	commodity-dependent	-0.6011147
-5.559995	commodity-processing	-0.2344772
-3.684934	common	-0.4921268
-4.957935	commonwealth	-0.32864
-5.559995	communal	-0.2343911
-4.605752	communicate	-0.4471427
-4.861025	communicated	-0.3845791
-3.936746	communication	-0.6513881
-4.198267	communications	-0.3985168
-5.082874	communiqué	-0.2035705
-4.355875	communities	-0.4635706
-3.125426	community	-1.225137
-4.714897	community-based	-0.4303443
-5.559995	community-level	-0.2344114
-5.258965	commutation	-0.233772
-5.559995	commutations	-0.2079872
-5.258965	commuted	-0.2279785
-4.446052	comoros	-1.119597
-4.861025	companies	-0.2612075
-4.957935	company	-0.3352735
-5.082874	comparable	-0.5722235
-5.559995	comparative	-0.2345167
-5.082874	comparator	-0.5720788
-5.559995	compare	-0.2344988
-5.258965	compared	-0.5194455
-5.559995	compassionate	-0.2344999
-5.258965	compatibility	-0.1890293
-5.258965	compatible	-0.5194455
-5.559995	compelled	-0.1937507
-5.559995	compendium	-0.2083736
-5.258965	compensate	-0.1886945
-5.258965	compensated	-0.2295143
-4.355875	compensation	-0.3881536
-5.559995	compete	-0.224789
-3.991793	competence	-0.6971
-3.861025	competent	-0.8410885
-5.082874	competition	-0.4030961
-5.258965	competitive	-0.2344975
-4.781844	competitiveness	-0.3219419
-5.082874	compilation	-0.3584684
-5.258965	compile	-0.2073523
-5.258965	compiled	-0.2318181
-5.559995	compiling	-0.2339206
-5.559995	complacency	-0.224789
-5.258965	complaint	-0.2163265
-5.258965	complaints	-0.2137657
-4.861025	complement	-0.1554806
-4.861025	complementarities	-0.3858553
-4.656905	complementarity	-0.4850895
-5.082874	complementary	-0.2196851
-5.559995	complemented	-0.2318206
-5.559995	complementing	-0.1937507
-3.869799	complete	-0.518308
-4.957935	completed	-0.1969383
-5.258965	completely	-0.2163265
-5.559995	completing	-0.2345155
-4.304723	completion	-0.9627013
-4.518602	complex	-0.4225878
-5.559995	complexities	-0.2344569
-4.957935	complexity	-0.4147887
-3.827601	compliance	-1.126011
-4.068634	comply	-0.9965776
-4.861025	complying	-1.052733
-4.714897	component	-0.5015217
-4.383904	components	-0.4922964
-4.781844	composed	-0.6972682
-4.217573	composition	-1.187656
-5.258965	compounded	-0.5196466
-3.426456	comprehensive	-0.646272
-4.861025	comprehensively	-0.2928768
-5.559995	comprised	-0.2344162
-5.559995	comprises	-0.2344437
-5.258965	compromise	-0.4815767
-5.258965	compromised	-0.2273114
-5.258965	compulsion	-0.2231099
-4.861025	compulsory	-0.4292534
-4.781844	computer	-0.3711908
-5.559995	computer-assisted	-0.2345035
-4.957935	computer-related	-0.3545917
-5.559995	computerizing	-0.1937507
-4.957935	computers	-0.4224758
-5.082874	conakry	-0.5713314
-5.258965	concealing	-0.2314882
-4.957935	concealment	-0.3352059
-5.559995	concentrated	-0.234415
-5.258965	concentrating	-0.1884352
-4.656905	concept	-0.5329837
-4.559995	concepts	-0.3937983
-3.295177	concern	-1.054853
-3.093127	concerned	-0.7313346
-3.495537	concerning	-0.5696639
-4.179784	concerns	-0.6369341
-5.082874	concert	-0.3965473
-4.413867	concerted	-0.4101632
-4.957935	concessional	-0.3363999
-4.714897	conciliation	-0.5831285
-5.258965	conciliators	-0.5041538
-5.258965	concise	-0.2162729
-4.304723	conclude	-0.3118319
-4.605752	concluded	-0.2170799
-5.559995	concludes	-0.2312882
-4.480814	concluding	-0.4214906
-4.112837	conclusion	-0.724108
-3.819633	conclusions	-0.9459642
-3.936746	concrete	-0.4918762
-5.559995	concurrence	-0.2316195
-5.559995	concurrently	-0.2079872
-5.559995	concurring	-0.2316195
-5.082874	concurs	-0.5693383
-4.957935	condemn	-0.2139125
-5.559995	condemnable	-0.2079872
-4.714897	condemnation	-0.7984152
-5.559995	condemned	-0.2341457
-4.781844	condemning	-0.4316247
-4.054845	condemns	-0.7499933
-4.559995	condition	-0.5019921
-4.714897	conditional	-0.533076
-3.491809	conditions	-0.6833851
-5.559995	condoned	-0.2345131
-4.162055	conducive	-1.13851
-3.714897	conduct	-0.6184102
-4.656905	conducted	-0.5797117
-4.656905	conducting	-0.2433881
-5.559995	confer	-0.2306998
-2.811032	conference	-1.221304
-5.082874	conference-servicing	-0.5719124
-3.667901	conferences	-0.8909903
-4.861025	confidence	-0.2961836
-5.559995	confidence-	-0.2163278
-4.097597	confidence-building	-0.9055872
-5.559995	confident	-0.2312882
-4.861025	confidential	-0.1564238
-5.258965	confidentiality	-0.4958133
-5.258965	confined	-0.5081369
-4.957935	confirmation	-0.4312677
-4.714897	confirmed	-0.2866801
-5.082874	confirming	-0.1736074
-4.957935	confirms	-0.4159612
-4.605752	confiscated	-0.4174675
-4.413867	confiscation	-0.2453073
-3.378152	conflict	-0.9903646
-5.258965	conflicting	-0.2338295
-3.936746	conflicts	-0.7499574
-3.827601	conformity	-1.658471
-5.559995	confrontation	-0.224789
-5.559995	confrontations	-0.2079872
-4.957935	confronted	-0.6738654
-5.258965	confronting	-0.1937113
-3.789143	congo	-0.7940701
-4.861025	congolese	-0.2232265
-4.128632	congress	-0.6975066
-4.480814	conjunction	-1.270883
-4.861025	connected	-0.5485198
-3.980211	connection	-0.9526256
-5.559995	connections	-0.2079872
-4.128632	conscious	-1.183571
-5.258965	conscripting	-0.520869
-5.258965	conscription	-0.2032222
-5.559995	consecutive	-0.2344988
-4.162055	consensus	-0.4101491
-4.518602	consent	-0.5862384
-5.559995	consents	-0.2203109
-5.082874	consequence	-0.5460924
-3.869799	consequences	-0.8984931
-5.258965	consequent	-0.2343791
-5.559995	consequential	-0.2345035
-4.383904	conservation	-0.8952626
-5.559995	conserve	-0.1937507
-3.215603	consider	-0.5594236
-4.781844	considerable	-0.4035597
-3.41698	consideration	-1.095739
-5.258965	considerations	-0.2081855
-3.459625	considered	-0.9229105
-3.861025	considering	-0.8116124
-4.217573	considers	-1.020983
-5.559995	consignments	-0.2203109
-5.559995	consist	-0.2083736
-5.082874	consistency	-0.3827441
-3.835719	consistent	-1.059326
-5.258965	consistently	-0.2316123
-4.861025	consisting	-1.029487
-4.198267	consolidate	-0.4200158
-4.446052	consolidated	-0.5130966
-4.518602	consolidating	-0.4545522
-4.054845	consolidation	-1.182704
-5.559995	conspiracy	-0.2203109
-5.559995	constant	-0.2163278
-5.559995	constantly	-0.2345155
-4.559995	constituent	-0.5981241
-4.068634	constitute	-0.6337335
-4.957935	constituted	-0.2278765
-4.329546	constitutes	-0.7048103
-4.957935	constituting	-0.4806455
-4.480814	constitution	-0.509803
-4.329546	constitutional	-0.5310496
-5.559995	constitutionally	-0.2344569
-5.559995	constitutive	-0.2344724
-5.258965	constrained	-0.1976381
-5.559995	constraining	-0.23379
-4.480814	constraints	-0.463667
-5.559995	constructed	-0.2079872
-4.656905	construction	-0.3851781
-4.237776	constructive	-0.5790803
-5.258965	construed	-0.5081369
-4.281241	consular	-0.6429632
-5.559995	consulate-general	-0.2083736
-4.383904	consult	-0.4623479
-5.082874	consultancy	-0.5715951
-5.559995	consultants	-0.2163278
-3.852425	consultation	-1.153636
-3.827601	consultations	-0.5834521
-3.991793	consultative	-0.9382424
-4.957935	consulting	-0.5194431
-5.559995	consumers	-0.2083736
-4.957935	consumption	-0.1835693
-5.082874	contact	-0.2307022
-4.559995	contacts	-0.4956433
-5.559995	contagion	-0.2344318
-4.559995	contain	-0.2955537
-3.307142	contained	-2.435843
-4.028516	containing	-0.5129402
-5.559995	containment	-0.2083736
-4.518602	contains	-0.4311024
-5.559995	contemplated	-0.2318206
-4.258965	contemporary	-1.158087
-5.559995	contempt	-0.2299171
-4.861025	content	-0.35922
-5.258965	contentious	-0.5221764
-5.559995	contents	-0.2083736
-5.258965	contested	-0.2266882
-3.314482	context	-0.9995378
-5.559995	contexts	-0.2344222
-4.957935	continent	-0.3214684
-4.355875	continental	-1.42541
-4.781844	contingency	-0.7674288
-5.559995	contingent	-0.2339026
-5.559995	contingent-owned	-0.2344856
-5.559995	contingents	-0.2300368
-4.281241	continuation	-0.9949159
-2.840664	continue	-1.26604
-3.547158	continued	-0.358682
-4.128632	continues	-1.432951
-3.426456	continuing	-0.3545873
-4.605752	continuity	-0.6364492
-4.518602	continuous	-0.2545244
-5.559995	continuously	-0.2339206
-5.559995	contraband	-0.2300368
-5.559995	contraceptive	-0.2345155
-5.258965	contract	-0.2326382
-5.559995	contracted	-0.2299171
-4.957935	contracting	-0.4334031
-5.258965	contraction	-0.2214859
-4.861025	contracts	-0.2837413
-4.237776	contrary	-1.515089
-5.559995	contravention	-0.2083736
-3.43289	contribute	-1.088344
-4.383904	contributed	-0.8829753
-4.413867	contributes	-1.065217
-4.112837	contributing	-0.8925674
-3.605753	contribution	-0.9709457
-3.283533	contributions	-1.087954
-5.258965	contributor	-0.1928695
-4.781844	contributors	-0.589008
-5.559995	contributory	-0.2344258
-3.446052	control	-0.7783916
-4.781844	controlled	-0.4772597
-5.559995	controlling	-0.1937507
-4.957935	controls	-0.3255429
-4.068634	convene	-0.5217877
-4.446052	convened	-0.2879357
-3.861025	convening	-0.8996204
-5.559995	convenor	-0.2083736
-2.683777	convention	-1.085447
-4.041481	conventional	-1.131398
-3.774665	conventions	-0.7397144
-5.559995	conventiony	-0.2203109
-5.559995	converged	-0.2300368
-5.082874	convergence	-0.5460924
-4.656905	conversion	-0.4619508
-5.559995	conversions	-0.2345143
-5.258965	converted	-0.2064191
-5.559995	convey	-0.2203109
-5.559995	conveyances	-0.2163278
-4.957935	convicted	-0.4325663
-4.413867	conviction	-1.032966
-5.082874	convictions	-0.3777898
-5.559995	convince	-0.2345107
-3.727486	convinced	-1.897097
-5.559995	convoked	-0.2318206
-5.559995	convoys	-0.2163278
-3.50309	cooperate	-1.166041
-5.258965	cooperated	-0.5194455
-5.082874	cooperating	-0.3990248
-2.670693	cooperation	-1.234314
-4.781844	cooperative	-0.2332517
-4.162055	coordinate	-0.2944929
-4.097597	coordinated	-0.3971424
-5.258965	coordinates	-0.2030949
-4.237776	coordinating	-0.2827632
-3.314482	coordination	-0.9532056
-4.198267	coordinator	-0.3707331
-5.258965	coordinators	-0.1886253
-5.082874	cope	-0.5693383
-4.559995	copenhagen	-1.219877
-4.656905	copies	-0.6636764
-5.082874	coping	-0.5693383
-4.656905	copy	-0.6182851
-4.559995	core	-0.3778025
-4.656905	cornerstone	-0.6511812
-5.559995	corollary	-0.2079872
-5.258965	corporate	-0.2325289
-5.258965	corporations	-0.2115291
-5.559995	corporeal	-0.2330429
-4.097597	corr.1	-1.648871
-5.258965	correct	-0.1937481
-5.559995	corrected	-0.2318206
-5.559995	correcting	-0.1937507
-5.559995	correction	-0.2083736
-5.559995	corrective	-0.2344318
-5.258965	correspond	-0.5081369
-5.258965	correspondent	-0.4961996
-4.605752	corresponding	-0.2340164
-5.559995	corresponds	-0.2203109
-5.559995	corridor-europe-caucasus-asia	-0.2338847
-5.559995	corrosive	-0.2344569
-4.957935	corrupt	-0.6766728
-3.897237	corruption	-0.781149
-4.281241	cost	-0.5988702
-4.656905	cost-effective	-0.441925
-5.082874	cost-effectiveness	-0.3584684
-5.559995	cost-neutral	-0.2344485
-5.258965	cost-of-living	-0.2345011
-5.559995	cost-saving	-0.2338427
-5.258965	cost-sharing	-0.5221836
-4.162055	costa	-1.414943
-3.887897	costs	-0.591484
-5.082874	cotonou	-0.3772216
-3.811807	could	-0.58085
-2.963398	council	-1.061218
-4.957935	counsel	-0.3045432
-4.656905	counselling	-0.2629608
-5.082874	counted	-0.5694816
-4.258965	counter	-0.9006564
-5.559995	counteract	-0.1937507
-4.480814	countering	-0.5407785
-5.258965	countermeasures	-0.21568
-5.559995	counterpart	-0.234184
-5.082874	counterparts	-0.2093988
-5.258965	countervailing	-0.2338212
-2.616006	countries	-1.21607
-3.530611	country	-0.60199
-5.559995	country-driven	-0.2163278
-5.559995	country-level	-0.2344629
-5.258965	country-owned	-0.522168
-5.559995	coupled	-0.2316195
-5.258965	courage	-0.5041538
-5.559995	courageous	-0.2163278
-4.413867	course	-0.6075413
-4.656905	courses	-0.2718166
-3.679182	court	-0.6667732
-4.957935	courts	-0.335281
-4.082874	covenant	-1.486525
-4.281241	covenants	-1.296193
-4.861025	cover	-0.3616852
-5.559995	coverage	-0.2083736
-3.811807	covered	-1.830816
-4.383904	covering	-0.5846533
-5.082874	covers	-0.4014366
-5.559995	covert	-0.2343791
-5.258965	craft	-0.1886253
-4.028516	create	-0.8268062
-4.656905	created	-0.3490576
-5.258965	creates	-0.2344018
-4.413867	creating	-0.3119817
-4.128632	creation	-0.9789093
-5.258965	creative	-0.2332457
-4.714897	credentials	-0.5830941
-5.258965	credibility	-0.4961996
-4.957935	credible	-0.2154276
-5.559995	credit	-0.2299171
-5.258965	credited	-0.231152
-4.714897	creditor	-0.8264254
-4.957935	creditors	-0.2982911
-5.559995	creole	-0.224789
-4.957935	crescent	-0.3284252
-3.135113	crime	-1.010205
-3.684934	crimes	-0.7854066
-3.237776	criminal	-1.135444
-4.861025	criminality	-0.3518286
-4.714897	criminalization	-0.7903995
-5.258965	criminalize	-0.2161144
-5.559995	criminally	-0.2344808
-5.559995	criminals	-0.2163278
-4.559995	crises	-0.4067733
-4.179784	crisis	-0.5066667
-4.714897	criteria	-0.1922622
-5.559995	criterion	-0.2300368
-4.281241	critical	-0.3986983
-4.162055	croatia	-1.094055
-5.258965	croats	-0.5178628
-5.559995	crop	-0.2344712
-4.656905	crops	-0.6467698
-4.128632	cross	-0.5748084
-5.559995	cross-border	-0.2344437
-5.082874	cross-cutting	-0.2342834
-5.559995	cross-section	-0.2083736
-5.559995	cross-sectoral	-0.2343504
-5.258965	crossing	-0.2330297
-4.446052	crucial	-0.3699011
-4.329546	cruel	-0.9373886
-5.559995	crystallizing	-0.2343432
-4.128632	cuba	-1.144961
-5.258965	cuban	-0.2341517
-5.559995	culminated	-0.224789
-5.082874	cultivation	-0.3580644
-3.395642	cultural	-0.9355051
-3.926527	culture	-1.109102
-4.518602	cultures	-0.4846668
-5.082874	curb	-0.3630558
-5.082874	curbing	-0.5314695
-5.258965	currencies	-0.2289549
-5.258965	currency	-0.2078206
-3.80412	current	-0.3305717
-4.413867	currently	-0.2872443
-5.082874	curricula	-0.385742
-5.559995	curriculum	-0.2345167
-4.480814	custody	-0.4527932
-5.258965	customary	-0.522253
-5.559995	customer	-0.2344952
-5.559995	customers	-0.2330429
-4.781844	customs	-0.2357008
-5.559995	cybercrime	-0.2079872
-5.258965	cyberspace	-0.180142
-5.258965	cycle	-0.2032222
-5.559995	cycles	-0.2300368
-5.559995	cyclones	-0.2163278
-4.097597	cyprus	-1.655267
-4.217573	czech	-1.361369
-4.861025	côte	-1.055444
-3.364095	d	-1.240873
-5.559995	d-1	-0.2343085
-5.082874	d-2	-0.394014
-5.258965	d.	-0.23447
-4.281241	d.c.	-1.484682
-5.559995	dag	-0.2345167
-5.258965	daily	-0.2162754
-4.957935	dakar	-0.4335812
-4.518602	damage	-0.3357319
-5.559995	damaged	-0.2344509
-5.559995	damages	-0.2203109
-5.559995	damaging	-0.2344533
-4.518602	danger	-0.3184506
-4.781844	dangerous	-0.2648569
-4.605752	dangers	-0.3179736
-5.082874	danube	-0.1879468
-4.781844	darussalam	-0.6968819
-3.957935	data	-0.5111088
-5.559995	data-collection	-0.23447
-4.861025	database	-0.2023575
-5.559995	databases	-0.2163278
-3.727486	date	-0.7963937
-4.656905	dated	-0.3319323
-4.781844	dates	-0.3373613
-5.258965	dawn	-0.4961996
-4.097597	day	-0.4372794
-5.559995	day-to-day	-0.2344724
-4.355875	days	-0.3948117
-5.559995	dayton	-0.2079872
-4.383904	de	-0.5298166
-5.559995	de-alert	-0.2163278
-5.559995	deactivate	-0.2344856
-5.559995	deadline	-0.2300368
-5.258965	deadlines	-0.2281837
-4.198267	deal	-0.9473073
-4.217573	dealing	-1.358829
-5.559995	deals	-0.2316195
-5.082874	dealt	-0.5693383
-4.413867	death	-0.458732
-4.518602	deaths	-0.8931777
-4.413867	debate	-0.6140717
-4.861025	debates	-0.3484605
-4.559995	debris	-0.3053209
-3.667901	debt	-0.6580229
-5.559995	debt-burden	-0.2344461
-5.559995	debt-equity	-0.2345167
-5.559995	debt-management	-0.2344748
-5.559995	debt-reduction	-0.2338427
-4.957935	debt-relief	-0.4595134
-4.957935	debt-service	-0.4602509
-4.480814	debt-servicing	-0.744975
-5.559995	debt-sustainability	-0.2343671
-5.559995	debt-treatment	-0.2338427
-4.957935	debtor	-0.675711
-5.559995	debtors	-0.2079872
-4.714897	debts	-0.5559322
-5.559995	dec.531	-0.2325818
-3.573223	decade	-0.8209432
-4.957935	decades	-0.4331931
-5.258965	deceased	-0.2343073
-2.500432	december	-1.80294
-5.559995	decent	-0.2163278
-5.559995	decentralization	-0.2163278
-5.559995	deception	-0.2079872
-4.605752	decide	-0.4862136
-4.041481	decided	-0.990534
-3.057568	decides	-2.205705
-4.861025	deciding	-0.3992767
-3.395642	decision	-0.6869165
-4.413867	decision-making	-0.4138464
-3.538806	decisions	-0.703283
-5.082874	decisive	-0.4034603
-2.913591	declaration	-1.287315
-4.383904	declarations	-0.4892266
-4.446052	declare	-0.4961861
-4.413867	declared	-0.2737042
-4.656905	declares	-0.54501
-4.861025	declaring	-0.4006289
-5.082874	decline	-0.5580297
-5.559995	declined	-0.2079872
-4.714897	declining	-0.4351151
-4.097597	decolonization	-0.6026119
-4.957935	decrease	-0.4237931
-5.559995	decreased	-0.234038
-4.656905	decree	-0.3449492
-5.258965	decrees	-0.231287
-4.957935	dedicated	-0.4459775
-4.957935	dedication	-0.3107316
-4.861025	deem	-0.4034888
-4.656905	deemed	-0.9400355
-4.714897	deems	-0.5372977
-3.936746	deep	-1.27914
-4.861025	deepening	-0.3349876
-5.258965	deeper	-0.2079745
-3.869799	deeply	-1.120436
-5.559995	defeat	-0.2314485
-4.355875	defence	-0.3300339
-5.559995	defenceless	-0.2344868
-5.258965	defences	-0.2068069
-5.258965	defend	-0.1916223
-5.258965	defendant	-0.2058394
-5.258965	defenders	-0.2064191
-5.258965	defer	-0.2338403
-4.781844	deferred	-0.7234042
-5.559995	deficiencies	-0.2083736
-5.559995	deficit	-0.2163278
-5.082874	define	-0.173701
-4.413867	defined	-0.6245502
-4.957935	defining	-0.2898265
-4.781844	definition	-0.5734841
-5.258965	definitions	-0.1928695
-5.559995	definitively	-0.1937507
-5.082874	defray	-0.5314695
-5.258965	defraying	-0.4815767
-4.446052	degradation	-0.3698662
-4.413867	degrading	-1.380539
-5.082874	degree	-0.5460924
-5.559995	degrees	-0.2083736
-5.559995	dehumanizing	-0.2343779
-3.916543	delay	-0.5743166
-5.258965	delays	-0.512615
-5.082874	delegates	-0.1927576
-5.258965	delegation	-0.4961996
-4.480814	delegations	-0.2370519
-5.559995	delete	-0.1937507
-5.258965	deliberate	-0.2343851
-5.258965	deliberately	-0.2345047
-4.446052	deliberations	-0.4986832
-5.258965	deliberative	-0.2079529
-5.258965	delimitation	-0.4961996
-5.082874	delineation	-0.3770447
-5.559995	delinquent	-0.2330429
-5.559995	deliver	-0.2314485
-5.082874	delivered	-0.5695394
-5.559995	deliveries	-0.2163278
-4.054845	delivery	-0.7184648
-4.217573	demand	-0.847598
-5.258965	demanded	-0.2304342
-5.559995	demanding	-0.2312882
-4.329546	demands	-0.6001827
-5.559995	dembri	-0.2325818
-4.861025	demining	-0.3965104
-4.518602	demobilization	-0.5799339
-5.258965	demobilize	-0.2323811
-5.559995	demobilized	-0.2344964
-4.446052	democracies	-0.3952103
-3.696672	democracy	-1.16263
-3.456192	democratic	-0.8591644
-4.258965	democratization	-0.4752845
-5.258965	demographic	-0.5223176
-5.559995	demolition	-0.2163278
-4.861025	demonstrable	-0.4043145
-4.957935	demonstrate	-0.3089784
-4.957935	demonstrated	-0.3490597
-5.258965	demonstration	-0.4961996
-5.258965	demonstrations	-0.1886253
-4.781844	denial	-0.4312871
-4.957935	denied	-0.281841
-4.082874	denmark	-1.464831
-5.082874	denounce	-0.5711852
-5.082874	denounced	-0.5717352
-5.559995	denounces	-0.1937507
-5.559995	denuclearization	-0.2343408
-5.559995	denuclearized	-0.2344988
-4.656905	denunciation	-0.5210229
-5.082874	deny	-0.2325469
-3.843992	department	-1.093885
-5.258965	departmental	-0.5218329
-4.329546	departments	-0.5286079
-5.258965	departure	-0.5214387
-5.559995	dependant	-0.2343384
-5.559995	dependants	-0.2300368
-4.957935	dependency	-0.6767554
-4.781844	dependent	-0.4748964
-5.258965	depending	-0.5175073
-4.861025	depends	-0.4158355
-5.258965	depletion	-0.4961996
-4.480814	deplores	-0.9642185
-5.082874	deploring	-0.5314695
-5.082874	deploy	-0.233887
-5.258965	deployed	-0.2160595
-4.861025	deploying	-0.4997522
-4.480814	deployment	-0.7401412
-5.559995	deployments	-0.2083736
-5.559995	deportation	-0.2336127
-4.237776	deposit	-0.6609035
-4.355875	depositary	-1.01649
-4.237776	deposited	-0.8101486
-5.258965	deposits	-0.5192745
-5.258965	depressed	-0.2341685
-5.082874	deprivation	-0.5460924
-5.559995	deprive	-0.2343193
-4.781844	deprived	-0.6972682
-5.559995	deprives	-0.2339517
-5.559995	depriving	-0.234336
-5.258965	depth	-0.1935812
-5.258965	deputy	-0.2326094
-5.559995	derive	-0.2336127
-4.656905	derived	-0.6628636
-5.559995	derives	-0.2336127
-5.082874	deriving	-0.5713314
-5.082874	descendants	-0.3877506
-5.559995	descent	-0.2330429
-5.559995	describe	-0.1937507
-4.559995	described	-0.9209154
-5.559995	describing	-0.234409
-4.656905	description	-0.6375912
-4.179784	desertification	-1.179406
-5.082874	deserve	-0.2137206
-5.559995	deserving	-0.2083736
-4.714897	design	-0.3806072
-4.861025	designate	-0.2821712
-4.413867	designated	-0.4000821
-5.559995	designates	-0.1937507
-4.861025	designation	-0.3711124
-4.097597	designed	-1.072843
-5.258965	designee	-0.2343372
-4.518602	desirability	-0.9437829
-5.258965	desirable	-0.225388
-4.714897	desire	-0.4922645
-5.559995	desired	-0.2163278
-5.082874	desiring	-0.5580297
-4.861025	desirous	-1.029487
-4.781844	desist	-0.7225074
-4.781844	desktop	-0.6189128
-4.097597	despite	-0.5713839
-5.559995	destabilization	-0.2083736
-5.258965	destabilize	-0.2330189
-5.258965	destabilizing	-0.5223404
-4.957935	destination	-0.1850195
-5.559995	destined	-0.2299171
-5.559995	destiny	-0.2300368
-4.957935	destroy	-0.3533531
-5.258965	destroyed	-0.2317519
-5.082874	destroying	-0.377411
-3.760655	destruction	-0.751003
-5.559995	destructive	-0.2339733
-5.559995	detail	-0.2317628
-4.304723	detailed	-0.4967912
-4.781844	details	-0.6972682
-4.518602	detained	-0.3849401
-5.559995	detainee	-0.2300368
-4.861025	detainees	-0.4057592
-5.559995	detaining	-0.2343193
-5.559995	detargeting	-0.2339972
-4.714897	detect	-0.2854102
-5.559995	detectability	-0.2079872
-4.861025	detecting	-0.3263308
-4.714897	detection	-0.5644155
-4.237776	detention	-0.4423612
-4.957935	detentions	-0.4764513
-5.082874	deter	-0.3431676
-5.559995	deteriorate	-0.2324977
-5.559995	deteriorating	-0.2337792
-4.656905	deterioration	-0.4909273
-4.128632	determination	-0.7639139
-4.281241	determine	-0.4051955
-4.217573	determined	-0.6721224
-4.957935	determines	-0.4569958
-4.559995	determining	-0.3990205
-5.082874	detriment	-0.3627087
-4.714897	detrimental	-0.360092
-4.656905	devastating	-0.4899431
-5.559995	devastation	-0.2344904
-3.714897	develop	-0.4426782
-3.398627	developed	-1.272424
-2.946153	developing	-1.35971
-2.502709	development	-1.111812
-4.781844	development-oriented	-0.2921531
-5.559995	development-related	-0.2343504
-4.861025	developmental	-0.3275744
-3.916543	developments	-0.6358368
-5.559995	develops	-0.2314485
-4.304723	devices	-0.2922981
-4.957935	devise	-0.4336575
-5.082874	devising	-0.1932275
-4.861025	devote	-0.1932643
-4.112837	devoted	-1.667358
-3.534689	dialogue	-1.058731
-4.559995	diamond	-0.5370024
-5.258965	diamond-producing	-0.5212913
-4.258965	diamonds	-0.3106634
-5.559995	dictatorship	-0.2163278
-4.957935	did	-0.6763521
-5.559995	died	-0.2330429
-5.559995	dieng	-0.2079872
-5.559995	difference	-0.2341146
-4.957935	differences	-0.3513191
-4.068634	different	-0.3545755
-5.258965	differential	-0.2342175
-5.559995	differentials	-0.2345095
-5.559995	differentiated	-0.2344784
-5.559995	differentiation	-0.2338367
-5.559995	differently	-0.2163278
-4.656905	difficult	-0.3043293
-4.097597	difficulties	-0.3267929
-5.559995	difficulty	-0.2083736
-5.082874	diffusion	-0.5460924
-4.957935	digital	-0.4602126
-5.258965	dignified	-0.2342941
-4.028516	dignity	-1.064861
-5.258965	dilatory	-0.5223415
-5.258965	diligence	-0.2173158
-4.559995	dimension	-0.384723
-4.714897	dimensions	-0.4831632
-5.082874	diminish	-0.3631846
-5.559995	diminished	-0.2079872
-5.258965	diminishing	-0.5220914
-5.258965	diminution	-0.180142
-5.082874	diplomacy	-0.3580644
-4.082874	diplomatic	-0.7416785
-5.559995	diplomats	-0.2163278
-5.082874	dire	-0.4034447
-4.179784	direct	-0.4172286
-4.518602	directed	-0.372564
-5.082874	directing	-0.3762881
-4.957935	direction	-0.1823934
-5.559995	directive	-0.2083736
-5.559995	directives	-0.2079872
-4.304723	directly	-0.6817324
-4.304723	director	-1.458885
-4.861025	director-general	-1.029487
-4.957935	directors	-0.4190289
-5.559995	directory	-0.2083736
-4.605752	disabilities	-0.4365752
-5.559995	disability	-0.2163278
-4.957935	disabled	-0.1878882
-5.258965	disadvantaged	-0.2161806
-4.656905	disappearance	-0.3515799
-4.304723	disappearances	-0.4135792
-4.781844	disappeared	-0.4381328
-5.258965	disappointment	-0.2292529
-3.000088	disarmament	-0.8654798
-5.258965	disarmament-related	-0.2342798
-5.559995	disarming	-0.2163278
-3.916543	disaster	-0.5015606
-3.843992	disasters	-0.901906
-5.559995	disbanding	-0.2083736
-5.559995	disbursed	-0.1937507
-5.559995	disbursement	-0.2083736
-5.258965	disbursements	-0.5214387
-4.304723	discharge	-0.6051049
-5.258965	discharging	-0.232876
-5.559995	disciplinary	-0.2330429
-5.258965	disclose	-0.5212924
-5.258965	disclosing	-0.512615
-4.714897	disclosure	-0.3145102
-5.559995	discontinue	-0.1937507
-5.559995	discontinued	-0.2079872
-5.082874	discount	-0.215435
-5.559995	discounts	-0.2344808
-5.258965	discourage	-0.4815767
-5.559995	discouragement	-0.2083736
-5.559995	discourages	-0.2345119
-5.258965	discovery	-0.4961996
-4.861025	discretion	-0.329715
-5.559995	discretionary	-0.2343217
-5.559995	discriminate	-0.2340535
-5.559995	discriminates	-0.2340535
-5.559995	discriminating	-0.2296813
-3.20016	discrimination	-1.317222
-4.656905	discriminatory	-0.4534046
-4.861025	discuss	-0.2076348
-5.258965	discussed	-0.5194455
-4.957935	discussing	-0.4088118
-4.413867	discussion	-0.4484622
-4.446052	discussions	-0.5858265
-4.861025	disease	-0.2769521
-4.605752	diseases	-0.382634
-4.957935	disengagement	-0.6766166
-5.258965	disguise	-0.4961996
-5.559995	disguising	-0.1937507
-5.559995	disintegration	-0.2083736
-5.559995	disk	-0.2339817
-5.559995	dismantle	-0.2345143
-5.559995	dismantlement	-0.2083736
-5.559995	dismantling	-0.2083736
-5.258965	dismay	-0.2292529
-5.559995	dismayed	-0.2312882
-5.559995	dismissed	-0.2318206
-5.559995	disparate	-0.2344114
-4.656905	disparities	-0.3721267
-5.258965	disparity	-0.2244953
-4.861025	dispatch	-0.5151027
-5.559995	dispatched	-0.224789
-5.559995	dispersal	-0.2203109
-5.559995	dispersion	-0.2163278
-3.596207	displaced	-1.399774
-4.304723	displacement	-0.7438287
-5.559995	displacements	-0.2083736
-5.559995	displaying	-0.1937507
-5.559995	displays	-0.224789
-4.781844	disposal	-0.4094833
-5.258965	dispose	-0.4961996
-5.559995	disposed	-0.2083736
-4.861025	disposition	-0.3487178
-5.559995	dispossession	-0.2083736
-5.559995	disproportionate	-0.2344533
-5.559995	disproportionately	-0.1937507
-4.413867	dispute	-0.4487851
-4.258965	disputes	-0.3398865
-5.559995	disqualified	-0.2336127
-5.559995	disqualifying	-0.2318206
-5.258965	disregard	-0.4961996
-5.559995	disrupt	-0.1937507
-4.281241	disseminate	-0.3515051
-4.957935	disseminated	-0.4419275
-4.446052	disseminating	-0.7721869
-3.906783	dissemination	-1.259385
-5.559995	dissolution	-0.2083736
-5.559995	dissolves	-0.2163278
-5.559995	dissuasive	-0.2342666
-5.559995	distance	-0.2345155
-5.559995	distant	-0.2345167
-5.082874	distinct	-0.4028563
-4.518602	distinction	-0.5340056
-5.559995	distinctive	-0.2344796
-5.559995	distorted	-0.2318206
-5.559995	distortions	-0.224789
-5.559995	distressed	-0.2318206
-5.559995	distribute	-0.2306998
-4.957935	distributed	-0.1907354
-5.258965	distributes	-0.1936889
-4.145022	distribution	-0.7700225
-4.957935	district	-0.3253649
-5.559995	districts	-0.224789
-4.957935	disturbed	-0.4566847
-4.957935	diverse	-0.3547677
-4.355875	diversification	-0.6849934
-5.559995	diversified	-0.2344892
-5.082874	diversify	-0.1719459
-4.781844	diversifying	-0.3407449
-4.781844	diversion	-0.6972682
-3.887897	diversity	-0.7268456
-5.559995	divert	-0.2343193
-5.082874	divide	-0.3828936
-4.054845	division	-0.5613787
-5.559995	divisions	-0.2163278
-5.559995	divorce	-0.2330429
-4.957935	divorced	-0.354977
-4.329546	djibouti	-0.9311234
-3.835719	do	-1.267675
-5.559995	doctors	-0.2079872
-5.559995	doctrine	-0.2083736
-4.413867	doctrines	-0.722007
-3.65151	document	-0.8543136
-4.304723	documentation	-0.3784235
-5.559995	documentation-	-0.2163278
-4.957935	documented	-0.442021
-3.774665	documents	-0.5251808
-4.446052	does	-1.145716
-5.559995	dogs	-0.2163278
-4.446052	doing	-0.4970891
-5.082874	dollar	-0.5684186
-3.378152	dollars	-1.142179
-5.559995	domain	-0.2083736
-3.538806	domestic	-0.8314586
-5.082874	domination	-0.1869857
-4.957935	dominica	-0.6502331
-4.446052	dominican	-1.145769
-5.559995	donation	-0.2336127
-3.789143	done	-1.054906
-3.926527	donor	-0.8231843
-4.112837	donors	-0.7138323
-5.559995	doses	-0.2079872
-5.559995	doubt	-0.2079872
-4.957935	down	-0.2131417
-5.258965	dowry-related	-0.5222171
-3.530611	draft	-0.7719284
-4.861025	drafting	-0.3591775
-5.258965	drafts	-0.2082833
-5.559995	drain	-0.1937507
-5.559995	drainage	-0.2344617
-5.258965	dramatically	-0.2344581
-4.861025	draw	-0.3229718
-4.714897	drawing	-0.1673432
-5.082874	drawn	-0.4030002
-5.258965	draws	-0.4815767
-5.559995	drinking	-0.2345047
-5.559995	driving	-0.2343241
-5.559995	drop-out	-0.2344796
-4.329546	drought	-0.8761381
-5.258965	droughts	-0.4958133
-3.480814	drug	-1.309873
-5.559995	drug-free	-0.2343863
-5.559995	drug-related	-0.2344282
-5.559995	drug-trafficking	-0.2339733
-3.936746	drugs	-0.5231562
-5.559995	dual	-0.2345119
-4.957935	dual-use	-0.4575077
-3.906783	due	-0.7795205
-4.559995	duly	-0.4687377
-4.957935	dumping	-0.2989626
-5.559995	duplicate	-0.2334472
-5.559995	duplicating	-0.2344605
-4.957935	duplication	-0.4147887
-5.559995	duplications	-0.2312882
-4.112837	durable	-1.004411
-5.082874	duration	-0.3584684
-4.518602	durban	-1.052651
-5.258965	duress	-0.2064191
-3.514672	during	-0.9965873
-4.304723	duties	-0.458038
-4.162055	duty	-0.9018694
-4.957935	duty-	-0.6585737
-5.559995	duty-free	-0.2345143
-5.559995	dwellers	-0.2317628
-4.656905	dynamic	-0.4120156
-5.559995	dynamics	-0.2163278
-3.499297	e	-1.401881
-5.258965	e-v	-0.5204078
-4.957935	e-vii	-0.6748276
-5.258965	e.	-0.2343599
-5.258965	e.g.	-0.2079847
-3.35048	each	-0.9663253
-4.781844	earlier	-0.3706976
-4.781844	earliest	-0.4750405
-3.747082	early	-0.5486237
-5.258965	early-warning	-0.5223033
-5.559995	earmark	-0.2345167
-5.082874	earnings	-0.3770154
-4.656905	earth	-0.3741938
-5.559995	earthquakes	-0.2079872
-5.082874	ease	-0.233814
-5.258965	easily	-0.5211677
-5.559995	easing	-0.2083736
-3.484448	east	-0.8033481
-5.559995	easter	-0.2079872
-4.383904	eastern	-0.4763158
-5.559995	easy	-0.2345035
-5.559995	easy-to-measure	-0.2345035
-4.656905	ecological	-0.4142424
-5.258965	ecologically	-0.234464
-2.76971	economic	-1.122769
-4.413867	economically	-0.8093811
-3.796567	economies	-1.13892
-3.811807	economy	-0.6764614
-5.559995	ecosoc	-0.2335215
-4.957935	ecosystem	-0.3089997
-4.957935	ecosystems	-0.4764513
-4.258965	ecuador	-1.508991
-5.559995	edition	-0.2083736
-5.559995	editorial	-0.234409
-5.559995	editors	-0.2300368
-5.258965	educate	-0.5041538
-5.559995	educating	-0.2344306
-3.452785	education	-0.6995897
-3.696672	educational	-0.9874008
-4.957935	educators	-0.6502331
-3.852425	effect	-0.7524752
-4.957935	effected	-0.3084341
-5.082874	effecting	-0.2328088
-3.044121	effective	-0.5454729
-3.662368	effectively	-0.4984202
-4.054845	effectiveness	-1.11503
-3.702663	effects	-0.8567581
-4.054845	efficiency	-1.047604
-4.128632	efficient	-0.5678212
-4.714897	efficiently	-0.3859796
-4.003693	effort	-0.9943314
-2.776092	efforts	-1.262231
-4.198267	egypt	-1.35368
-4.656905	eight	-0.3621499
-4.781844	eighteen	-0.3501373
-5.082874	eighth	-0.2306479
-5.559995	eighty-seventh	-0.233482
-4.559995	either	-0.1749496
-4.097597	el	-1.477086
-5.559995	el-ghazal	-0.2079872
-5.258965	el-hamra	-0.5223367
-4.656905	el-sheikh	-0.5286202
-4.861025	elaborate	-0.2769992
-4.861025	elaborated	-0.3915772
-5.559995	elaborates	-0.2296813
-4.714897	elaborating	-0.6063934
-4.015927	elaboration	-1.402505
-5.559995	elder-care	-0.2343384
-4.861025	elderly	-0.4243794
-5.559995	elders	-0.2079872
-4.957935	elect	-0.1590745
-4.304723	elected	-0.4051013
-5.559995	electing	-0.2203109
-4.861025	election	-0.5184875
-4.015927	elections	-0.6578553
-4.656905	electoral	-0.3353111
-5.559995	electorate	-0.2312882
-4.413867	electronic	-0.3018427
-5.559995	electronically	-0.2203109
-5.559995	elects	-0.2203109
-4.480814	element	-0.5388262
-4.068634	elements	-0.5773548
-4.957935	eleventh	-0.3534696
-5.559995	eliciting	-0.2329685
-4.861025	eligibility	-0.4212177
-4.656905	eligible	-0.2978906
-3.916543	eliminate	-0.6815967
-5.258965	eliminated	-0.2271325
-4.304723	eliminating	-0.4083374
-3.410776	elimination	-1.881865
-5.258965	elsewhere	-0.4958133
-5.258965	elucidation	-0.4961996
-5.559995	em-i	-0.2314798
-5.258965	emanating	-0.5214387
-5.559995	emancipated	-0.2300368
-5.559995	emancipation	-0.2341637
-5.082874	embargo	-0.4034615
-5.559995	embark	-0.2296813
-5.559995	embarkation	-0.2163278
-5.559995	embarking	-0.2296813
-4.304723	embodied	-1.269025
-5.082874	embodying	-0.3631727
-5.559995	embrace	-0.1937507
-5.559995	embracing	-0.2343875
-5.559995	emerge	-0.2336127
-4.861025	emerged	-0.4437569
-5.082874	emergence	-0.1884485
-4.480814	emergencies	-0.350583
-3.843992	emergency	-0.5553581
-5.258965	emergency-related	-0.5220101
-4.446052	emerging	-0.2874644
-5.258965	eminent	-0.2340619
-4.413867	emirates	-1.342845
-5.559995	emissions	-0.2083736
-4.258965	emphasis	-0.7461239
-4.714897	emphasize	-0.39084
-5.258965	emphasized	-0.4815767
-3.518602	emphasizes	-1.423711
-3.630576	emphasizing	-1.281788
-5.559995	emplacement	-0.2079872
-5.258965	employ	-0.5200641
-5.082874	employed	-0.1926272
-5.082874	employees	-0.1782127
-5.559995	employer	-0.2083736
-4.957935	employing	-0.6755084
-4.054845	employment	-0.4579639
-5.559995	empower	-0.2314485
-5.258965	empowered	-0.5081369
-5.258965	empowering	-0.234287
-4.656905	empowerment	-0.9280982
-5.559995	empowers	-0.2341804
-3.721146	enable	-0.8654695
-5.559995	enabled	-0.1937507
-5.559995	enables	-0.2343193
-4.068634	enabling	-0.6688863
-4.714897	enact	-0.3887668
-5.258965	enacting	-0.2079745
-5.258965	enactment	-0.2068069
-5.559995	encompass	-0.2344808
-5.559995	encompassing	-0.2306998
-4.656905	encountered	-0.450711
-5.559995	encounters	-0.2299171
-3.926527	encourage	-0.4043581
-4.446052	encouraged	-0.6407099
-5.082874	encouragement	-0.5460924
-3.141694	encourages	-0.9143984
-4.003693	encouraging	-0.6089174
-3.596207	end	-0.8290136
-5.559995	end-users	-0.2079872
-4.714897	endanger	-0.7578056
-4.861025	endangered	-0.2202651
-4.217573	endeavour	-0.8526998
-4.781844	endeavours	-0.1761871
-4.861025	ended	-1.055485
-4.413867	ending	-1.032007
-5.559995	endogenous	-0.2343432
-4.329546	endorsed	-0.9698184
-4.714897	endorsement	-0.3777301
-3.96893	endorses	-1.254619
-5.559995	endorsing	-0.1937507
-5.258965	endowment	-0.5220172
-5.258965	ends	-0.2032222
-5.559995	endure	-0.2079872
-5.559995	energies	-0.2079872
-3.852425	energy	-0.6589691
-5.559995	energy-based	-0.2344485
-4.518602	enforce	-0.37284
-4.198267	enforced	-1.044007
-3.926527	enforcement	-0.5973093
-5.258965	enforcing	-0.189555
-4.559995	engage	-0.54247
-4.304723	engaged	-1.176077
-4.413867	engagement	-0.5204695
-5.559995	engages	-0.224789
-5.559995	engaging	-0.224789
-5.559995	engendered	-0.224789
-5.559995	engine	-0.2083736
-5.559995	engineering	-0.2300368
-5.559995	engines	-0.2083736
-4.957935	english	-0.4337122
-3.534689	enhance	-0.7454075
-3.852425	enhanced	-0.4723611
-4.128632	enhancement	-1.620393
-5.082874	enhances	-0.2341302
-3.897237	enhancing	-0.5039583
-4.714897	enjoy	-0.246438
-5.559995	enjoyed	-0.2343947
-5.258965	enjoying	-0.233893
-4.028516	enjoyment	-1.577173
-5.082874	enjoys	-0.1937179
-5.559995	enlarged	-0.2343971
-4.861025	enlargement	-1.029487
-5.559995	enlarging	-0.2314485
-5.082874	enlist	-0.1737038
-5.258965	enlisting	-0.521943
-5.559995	enormous	-0.23379
-5.559995	enrich	-0.1937507
-5.559995	enrichment	-0.2083736
-4.304723	enshrined	-1.452911
-5.559995	ensuing	-0.2345167
-2.957935	ensure	-0.9461126
-4.861025	ensured	-0.3966435
-4.957935	ensures	-0.1880852
-3.662368	ensuring	-0.5958183
-4.957935	entail	-0.19366
-5.082874	entails	-0.2069612
-4.237776	enter	-1.555687
-4.605752	entered	-1.184415
-4.957935	entering	-0.6762407
-5.559995	enterprise	-0.2331509
-5.559995	enterprise-to-enterprise	-0.2335899
-4.714897	enterprises	-0.4968144
-4.861025	enters	-1.055109
-4.413867	entire	-0.3972349
-5.559995	entirely	-0.2344461
-4.054845	entities	-0.5667273
-3.213642	entitled	-1.822751
-5.082874	entitlement	-0.192274
-5.258965	entitlements	-0.1932696
-5.559995	entitles	-0.2306998
-4.518602	entity	-0.3526152
-4.861025	entrusted	-0.5280387
-5.559995	entrusts	-0.1937507
-3.73392	entry	-1.281331
-5.258965	enumerated	-0.512615
-5.082874	enunciated	-0.3914695
-3.324467	environment	-0.9173017
-5.258965	environment-friendly	-0.4958133
-3.916543	environmental	-0.4805923
-5.082874	environmentally	-0.572214
-5.559995	environments	-0.2316195
-4.446052	envisaged	-0.476589
-4.518602	envoy	-0.2948771
-5.258965	envoys	-0.1928695
-4.714897	epidemic	-0.2946397
-5.559995	epidemiology	-0.2083736
-3.80412	equal	-0.7635602
-3.843992	equality	-1.013779
-4.518602	equalization	-1.078855
-4.480814	equally	-0.2688943
-4.861025	equatorial	-1.055591
-5.559995	equilibrium	-0.2163278
-4.128632	equipment	-0.5814353
-5.559995	equipment-contributing	-0.2334652
-5.559995	equipped	-0.2203109
-3.811807	equitable	-0.5267146
-5.559995	equitably	-0.2344904
-4.446052	equity	-0.3634095
-5.559995	equivalencies	-0.2341146
-5.082874	equivalency	-0.57219
-4.861025	equivalent	-0.2866342
-5.559995	equivalents	-0.2344569
-4.861025	era	-0.3009998
-4.413867	eradicate	-0.329191
-4.781844	eradicating	-0.2690853
-3.605753	eradication	-1.004594
-4.559995	eritrea	-0.356464
-5.082874	erosion	-0.1594671
-5.559995	errors	-0.2344844
-4.861025	eruptions	-0.3880614
-4.781844	es-10	-0.7203745
-5.258965	es-7	-0.5193058
-5.559995	es-v	-0.2325818
-5.559995	escalation	-0.2300368
-3.426456	especially	-0.8172113
-5.258965	essence	-0.180142
-3.796567	essential	-0.5788962
-4.861025	essentially	-0.4024329
-3.555674	establish	-0.7393656
-3.389734	established	-0.7935393
-5.082874	establishes	-0.3339583
-3.926527	establishing	-0.6088572
-3.369663	establishment	-1.452025
-4.714897	estimate	-0.5644684
-4.198267	estimated	-0.5845792
-4.446052	estimates	-0.4312803
-4.355875	estonia	-0.9146365
-5.559995	etc	-0.2281849
-5.258965	ethic	-0.4961996
-4.861025	ethical	-0.386547
-4.413867	ethiopia	-1.045497
-3.878754	ethnic	-0.6049861
-4.781844	ethnicity	-0.4471157
-5.258965	euro-atlantic	-0.2342666
-5.559995	euro-mediterranean	-0.2335899
-3.413867	europe	-0.9003528
-3.774665	european	-0.7715164
-5.559995	evacuation	-0.2083736
-5.559995	evade	-0.1937507
-5.559995	evaded	-0.1937507
-4.781844	evaluate	-0.2156175
-5.258965	evaluating	-0.2149023
-4.145022	evaluation	-0.449665
-5.258965	evaluations	-0.2036129
-5.559995	eve	-0.2083736
-4.480814	even	-0.2970696
-3.991793	event	-0.7820566
-4.258965	events	-0.3211304
-4.605752	eventual	-0.3394082
-5.559995	eventuality	-0.2083736
-4.861025	ever	-0.4007666
-5.559995	ever-widening	-0.2345047
-3.878754	every	-0.664672
-4.781844	everyone	-0.3247767
-4.861025	everywhere	-0.5146503
-5.559995	evicting	-0.2344653
-5.559995	eviction	-0.2083736
-5.559995	evictions	-0.2336127
-4.355875	evidence	-0.1984083
-5.559995	evidenced	-0.2318206
-5.258965	evidencing	-0.2345095
-4.781844	evidentiary	-0.3105856
-4.781844	evolution	-0.3297902
-4.781844	evolving	-0.2862022
-5.559995	exacerbated	-0.2079872
-5.559995	exacerbating	-0.1937507
-4.355875	examination	-0.6434921
-5.559995	examinations	-0.2083736
-4.068634	examine	-0.600911
-4.281241	examined	-1.461806
-4.957935	examining	-0.2942143
-4.861025	example	-0.4077026
-5.258965	examples	-0.4961996
-5.082874	exceed	-0.5314695
-5.559995	exceeded	-0.1937507
-5.258965	exceeding	-0.2344509
-4.329546	except	-0.5141823
-5.082874	exception	-0.3495812
-4.605752	exceptional	-0.5347344
-5.559995	excess	-0.2203109
-4.559995	excessive	-0.3438096
-4.656905	excessively	-0.6905648
-3.887897	exchange	-0.8092394
-5.559995	exchanged	-0.2341146
-4.559995	exchanges	-0.3884804
-4.957935	exchanging	-0.6761665
-5.559995	exclude	-0.1937507
-5.258965	excluded	-0.5214387
-4.957935	exclusion	-0.4948509
-5.559995	exclusionist	-0.2345131
-5.559995	exclusive	-0.2345035
-5.559995	exclusively	-0.2299171
-4.605752	exclusiveness	-0.9818099
-5.082874	exclusivity	-0.3580644
-5.258965	exculpatory	-0.5081369
-5.082874	execute	-0.3629717
-5.082874	executed	-0.1944819
-5.258965	executing	-0.2306985
-4.179784	execution	-0.6026894
-4.097597	executions	-0.6304525
-3.869799	executive	-0.9160267
-5.082874	exemplary	-0.215325
-5.559995	exemplified	-0.2318206
-5.559995	exemplifies	-0.1937507
-5.559995	exemption	-0.2203109
-5.258965	exemptions	-0.2190955
-3.747082	exercise	-1.016946
-4.656905	exercised	-0.2682553
-5.559995	exercises	-0.2079872
-4.781844	exercising	-0.4708001
-4.714897	exert	-0.608247
-5.258965	exerted	-0.5196466
-5.559995	exertion	-0.2083736
-4.957935	exhausted	-0.4143847
-5.559995	exhaustive	-0.2163278
-5.258965	exhibit	-0.2198422
-5.559995	exhibitions	-0.2163278
-5.559995	exhumations	-0.2163278
-5.559995	exiled	-0.2345047
-4.480814	exist	-0.3461399
-4.304723	existence	-1.116689
-3.615512	existing	-0.3735648
-4.781844	exists	-0.3283188
-5.082874	exit	-0.3985612
-4.383904	expand	-0.3473075
-4.781844	expanded	-0.2332025
-4.656905	expanding	-0.2706524
-4.281241	expansion	-0.9659861
-5.559995	expatriate	-0.2343396
-5.559995	expect	-0.2336127
-5.258965	expectation	-0.5191143
-5.559995	expectations	-0.2345119
-4.217573	expected	-1.082153
-5.559995	expecting	-0.2325806
-4.605752	expedite	-0.3349486
-4.518602	expeditious	-0.330286
-4.656905	expeditiously	-0.1545422
-5.559995	expelling	-0.2342559
-5.559995	expended	-0.2318206
-5.258965	expenditure	-0.2161981
-4.281241	expenditures	-0.4683877
-5.559995	expense	-0.2083736
-4.112837	expenses	-0.8147411
-4.162055	experience	-0.4348366
-4.559995	experienced	-0.9209844
-4.559995	experiences	-0.5315784
-4.559995	experiencing	-1.23059
-5.258965	experiment	-0.5041538
-5.258965	experimental	-0.5220699
-3.980211	expert	-0.4611108
-4.355875	expertise	-0.3107929
-3.878754	experts	-0.5556329
-5.559995	expiration	-0.2083736
-5.258965	expired	-0.5216209
-5.082874	expiry	-0.5460924
-5.258965	explicit	-0.2344222
-5.082874	exploit	-0.204766
-3.827601	exploitation	-1.019747
-5.559995	exploitative	-0.2163278
-5.559995	exploiting	-0.1937507
-4.480814	exploration	-1.29071
-4.355875	explore	-0.4493701
-5.559995	explored	-0.224789
-4.957935	exploring	-0.201593
-4.714897	explosions	-0.4070501
-4.559995	explosive	-1.041371
-4.957935	explosives	-0.3367319
-4.480814	export	-0.4509116
-4.957935	exportation	-0.6585737
-5.258965	exporters	-0.4961996
-4.656905	exporting	-0.494332
-4.518602	exports	-0.3510646
-4.957935	exposed	-0.4806955
-5.559995	exposing	-0.2345167
-4.656905	express	-0.2439438
-3.852425	expressed	-0.6815254
-3.358598	expresses	-1.360697
-3.605753	expressing	-0.9786397
-4.413867	expression	-0.8494158
-5.082874	expressions	-0.5460924
-5.082874	expulsion	-0.1869857
-4.128632	extend	-0.3666468
-4.237776	extended	-0.7306243
-4.861025	extending	-0.3599156
-5.559995	extends	-0.2314485
-4.413867	extension	-0.97734
-4.559995	extensive	-0.3798261
-5.559995	extensively	-0.2339026
-3.747082	extent	-0.9553432
-3.957935	external	-0.5630659
-5.559995	extra	-0.23379
-4.656905	extrabudgetary	-0.562353
-5.082874	extraditable	-0.403768
-4.861025	extradite	-0.3258332
-4.041481	extradition	-0.3339862
-4.198267	extrajudicial	-1.35368
-4.781844	extraordinary	-0.2324424
-4.383904	extraterritorial	-0.7490072
-4.237776	extreme	-1.342247
-5.082874	extremely	-0.2342139
-5.559995	extremist	-0.2343767
-5.559995	extremists	-0.2079872
-3.65151	f	-1.319506
-5.258965	f.	-0.234415
-4.480814	face	-0.3694284
-4.518602	faced	-0.9594098
-5.559995	faces	-0.234409
-5.559995	faciliatation	-0.2083736
-3.526572	facilitate	-0.6658638
-4.128632	facilitating	-0.6401747
-4.957935	facilitation	-0.4059014
-5.559995	facilitators	-0.2203109
-3.827601	facilities	-0.5811423
-4.198267	facility	-0.5122802
-4.480814	facing	-0.7924883
-3.774665	fact	-1.484708
-4.861025	fact-finding	-0.3271491
-5.559995	faction	-0.2344904
-5.559995	faction-ridden	-0.2344975
-4.957935	factions	-0.3030519
-5.258965	facto	-0.2330393
-4.383904	factor	-0.5684038
-4.383904	factors	-0.3259903
-4.861025	facts	-0.2819305
-4.861025	factual	-0.4203081
-4.861025	failed	-0.530768
-4.518602	failure	-0.5917463
-5.258965	faipule	-0.2049427
-4.128632	fair	-0.6117538
-5.082874	fairly	-0.3670772
-5.082874	fairness	-0.3580644
-4.446052	faith	-0.3610644
-4.957935	faithful	-0.3278029
-5.559995	faithfully	-0.2163278
-5.559995	faizabad	-0.2079872
-5.258965	fall	-0.2062277
-4.861025	falling	-0.4038521
-5.258965	falls	-0.2291633
-4.957935	false	-0.2079007
-5.559995	falsely	-0.2341984
-5.258965	falsified	-0.520869
-4.128632	families	-0.6780643
-4.258965	family	-0.4058144
-4.258965	far	-0.426359
-5.559995	far-reaching	-0.2344724
-5.559995	fascism	-0.2079872
-5.082874	fashion	-0.2298228
-5.258965	fashioning	-0.5185258
-4.446052	faso	-1.119597
-5.258965	faster	-0.2343049
-5.082874	fate	-0.3584684
-5.559995	fauna	-0.2079872
