
\data\
ngram 1=6250
ngram 2=39297
ngram 3=21639

\1-grams:
-2.750441	"	-0.4367703
-4.095488	'	-0.4029884
-5.271579	'a	-0.2306927
-4.794458	'is	-0.3374023
-4.794458	'ivoire	-0.4750231
-3.390765	's	-0.4545673
-2.383399	(	-1.159206
-2.383399	)	-0.8182017
-4.572609	*	-0.7834697
-1.217618	,	-0.8020059
-1.894273	.	-1.298781
-2.124521	/	-0.748041
-5.271579	0.15	-0.2165156
-5.271579	0.20	-0.2307856
-5.271579	0.36	-0.2307856
-4.572609	0.7	-0.7881478
-5.271579	00	-0.229053
-2.804712	1	-1.061525
-5.271579	1,284,633	-0.2307856
-5.271579	1-b	-0.2165156
-3.199697	10	-1.038996
-4.572609	100	-0.2720147
-4.572609	101	-0.1514733
-4.493428	102	-0.324726
-4.669519	103	-0.2968798
-4.572609	104	-0.2654918
-4.368489	105	-0.4181348
-5.271579	105.5	-0.2287822
-4.426481	106	-0.265942
-4.125451	107	-0.8245829
-4.970549	1073	-0.4858789
-4.794458	108	-0.1871812
-4.669519	109	-0.309669
-3.192398	11	-1.067637
-5.271579	11.89	-0.2307856
-4.669519	110	-0.1570643
-4.794458	111	-0.1871812
-4.794458	1111	-0.5003666
-4.493428	112	-0.2099921
-5.271579	1129	-0.229053
-4.669519	113	-0.2968798
-5.271579	113.3	-0.2037094
-4.794458	114	-0.1871812
-4.794458	1143	-0.5003666
-4.970549	115	-0.2148551
-4.970549	1153	-0.4858789
-4.669519	116	-0.2968798
-5.271579	1160	-0.229053
-4.669519	117	-0.309669
-4.970549	1175	-0.4858789
-4.970549	118	-0.2148551
-4.669519	119	-0.1833121
-5.271579	119.9	-0.2287822
-5.271579	1193	-0.229053
-5.271579	1199	-0.229053
-3.12236	12	-1.059338
-4.317337	120	-0.1976088
-5.271579	1203	-0.229053
-4.794458	121	-0.1871812
-4.794458	1210	-0.5003666
-5.271579	1214	-0.229053
-4.572609	122	-0.3290978
-4.970549	123	-0.2148551
-5.271579	1234	-0.229053
-5.271579	1239	-0.229053
-4.970549	124	-0.2148551
-4.794458	1242	-0.5003666
-4.317337	1244	-0.9981999
-4.669519	125	-0.171299
-5.271579	1258	-0.229053
-4.794458	126	-0.1871812
-5.271579	1265	-0.229053
-4.970549	1266	-0.4858789
-4.970549	1267	-0.4858789
-4.669519	127	-0.2968798
-4.970549	1272	-0.4858789
-5.271579	1273	-0.229053
-5.271579	1279	-0.229053
-4.794458	128	-0.1871812
-4.970549	1281	-0.4858789
-4.970549	1284	-0.4858789
-4.970549	129	-0.2148551
-4.970549	1291	-0.4858789
-5.271579	1296	-0.229053
-3.254546	13	-0.8963574
-4.794458	130	-0.1871812
-4.970549	1301	-0.4858789
-4.794458	1302	-0.5003666
-4.669519	1304	-0.7986664
-5.271579	1308	-0.229053
-4.970549	1309	-0.4858789
-4.970549	131	-0.2148551
-5.271579	1310	-0.229053
-5.271579	1316	-0.229053
-4.970549	1319	-0.4858789
-4.970549	132	-0.2148551
-4.970549	1322	-0.4858789
-5.271579	1323	-0.229053
-4.794458	133	-0.1871812
-4.572609	134	-0.3290978
-4.970549	135	-0.2148551
-4.794458	136	-0.1945094
-4.970549	137	-0.2148551
-4.669519	138	-0.1996784
-4.970549	139	-0.2148551
-5.271579	139.4	-0.2308437
-3.188794	14	-0.9956074
-4.493428	140	-0.1381013
-4.493428	141	-0.4771241
-5.271579	141,889,841	-0.2307856
-4.669519	142	-0.2968798
-4.970549	143	-0.2148551
-4.970549	144	-0.2217345
-4.970549	145	-0.2148551
-4.368489	146	-0.2081616
-5.271579	146,833,694	-0.2307856
-4.493428	147	-0.324726
-4.970549	148	-0.2148551
-4.493428	149	-0.4771241
-3.157636	15	-0.9596611
-4.493428	150	-0.324726
-4.317337	151	-0.4054068
-3.891368	1514	-1.39614
-4.669519	152	-0.309669
-4.669519	153	-0.309669
-4.493428	154	-0.27187
-4.426481	1541	-1.093844
-4.669519	155	-0.171299
-4.493428	156	-0.4899133
-4.669519	157	-0.171299
-4.794458	158	-0.1871812
-4.970549	159	-0.2148551
-3.222361	16	-0.8988131
-4.368489	160	-0.2374553
-4.794458	161	-0.1871812
-4.368489	162	-0.3431117
-4.970549	163	-0.2148551
-4.794458	164	-0.1871812
-4.493428	165	-0.3404361
-4.970549	166	-0.2148551
-4.572609	167	-0.256729
-4.669519	168	-0.2968798
-4.192398	169	-0.2835156
-3.25039	17	-0.9461997
-4.572609	170	-0.3290978
-4.794458	171	-0.1871812
-4.493428	172	-0.2861047
-4.572609	173	-0.3290978
-4.669519	174	-0.304208
-4.572609	175	-0.3290978
-4.669519	176	-0.2968798
-4.426481	177	-0.5026559
-4.669519	178	-0.171299
-4.572609	179	-0.3290978
-5.271579	1798	-0.229053
-3.262979	18	-0.9267226
-4.493428	180	-0.27187
-4.426481	181	-0.5026559
-4.192398	182	-0.7687232
-4.493428	183	-0.4771241
-4.669519	184	-0.1666632
-4.317337	185	-0.4090637
-4.493428	186	-0.2861047
-4.493428	187	-0.4771241
-5.271579	1874	-0.229053
-4.572609	188	-0.3290978
-4.572609	189	-0.1830086
-3.33206	19	-0.8572806
-5.271579	19.9	-0.2308437
-4.572609	190	-0.3290978
-5.271579	190,456	-0.2307856
-5.271579	1907	-0.2037094
-4.669519	191	-0.1833121
-4.572609	192	-0.2723105
-4.794458	193	-0.1871812
-5.271579	1930	-0.2261404
-4.271579	194	-0.4151483
-4.970549	1946	-0.4605353
-5.271579	1947	-0.2037094
-4.493428	1948	-0.4885814
-3.794458	1949	-0.9327688
-4.572609	195	-0.1830086
-4.970549	1950	-0.1977717
-5.271579	1951	-0.2304508
-4.794458	1954	-0.2032689
-4.970549	1955	-0.4605353
-5.271579	1958	-0.2261404
-4.669519	196	-0.2968798
-4.125451	1960	-0.9088377
-5.271579	1961	-0.2037094
-5.271579	1962	-0.2042113
-4.970549	1963	-0.4605353
-5.271579	1965	-0.2123404
-4.970549	1966	-0.1839753
-3.766429	1967	-1.067083
-4.794458	1968	-0.35522
-4.572609	197	-0.3290978
-4.493428	1970	-0.4731067
-4.794458	1971	-0.3521181
-4.970549	1972	-0.4605353
-4.669519	1973	-0.3113599
-5.271579	1974	-0.2037094
-5.271579	1975	-0.2037094
-4.970549	1976	-0.201793
-4.271579	1977	-0.4371792
-4.572609	1978	-0.1764867
-4.669519	1979	-0.2829443
-4.493428	198	-0.2228892
-4.271579	1980	-0.372256
-4.192398	1981	-0.552045
-4.493428	1982	-0.6726936
-4.493428	1983	-0.4706467
-4.493428	1984	-0.3887107
-4.669519	1985	-0.7733228
-4.493428	1986	-0.6726936
-4.426481	1987	-0.494197
-4.317337	1988	-1.155153
-4.157636	1989	-0.5041912
-4.669519	199	-0.2968798
-3.992826	1990	-1.027214
-5.271579	1990-2000	-0.2280227
-4.192398	1990s	-0.5386148
-3.669519	1991	-1.227034
-3.7401	1992	-0.7947593
-5.271579	1992-1993	-0.2037094
-3.493428	1993	-0.9765724
-5.271579	1993-1994	-0.2037094
-3.599481	1994	-0.7549375
-3.590338	1995	-0.8898277
-3.408256	1996	-0.8529743
-4.016306	1996-2005	-0.4464039
-3.420321	1997	-1.205374
-5.271579	1997-1998	-0.2303834
-5.271579	1997-1999	-0.2308344
-4.572609	1997-2006	-0.7864152
-3.116243	1998	-1.223855
-5.271579	1998-2001	-0.2037094
-5.271579	1998-2002	-0.2037094
-2.861646	1999	-1.13612
-5.271579	1999-2003	-0.2037094
-5.271579	1st	-0.230509
-2.849975	2	-1.244896
-3.222361	20	-0.9200429
-4.426481	200	-0.2479005
-2.604126	2000	-1.209212
-4.669519	2000-2001	-0.3889347
-5.271579	2000-2003	-0.2037094
-3.230186	2001	-0.8804295
-5.271579	2001-2003	-0.2261404
-5.271579	2001-2004	-0.2037094
-4.794458	2001-2010	-0.3379689
-3.794458	2002	-0.8088199
-4.572609	2002-2003	-0.1572901
-5.271579	2002-2005	-0.2037094
-4.493428	2003	-0.2337984
-4.794458	2004	-0.4750231
-4.970549	2005	-0.20869
-5.271579	2006	-0.229053
-5.271579	2008	-0.2290133
-4.493428	201	-0.2861047
-5.271579	2010	-0.2037094
-4.493428	2015	-0.6424507
-4.426481	202	-0.4180084
-4.669519	203	-0.2109414
-4.794458	204	-0.1871812
-4.669519	205	-0.1570643
-4.426481	206	-0.4180084
-4.426481	207	-0.2576224
-4.192398	208	-0.2894059
-4.368489	209	-0.3431117
-3.171209	21	-0.8617703
-5.271579	21.1	-0.2308437
-4.067459	210	-0.3678283
-4.572609	211	-0.2963714
-4.572609	212	-0.2981341
-4.572609	213	-0.2424944
-4.493428	214	-0.4771241
-4.493428	215	-0.4771241
-4.192398	216	-0.4155634
-4.317337	217	-0.2564527
-4.426481	218	-0.3110725
-4.572609	219	-0.251546
-5.271579	21adopted	-0.2287822
-3.303096	22	-1.031945
-4.426481	220	-0.2576224
-5.271579	2205	-0.229053
-4.572609	221	-0.152916
-4.493428	222	-0.2228892
-4.794458	223	-0.1871812
-4.368489	224	-0.3543439
-4.572609	225	-0.2961071
-5.271579	2252	-0.229053
-4.493428	227	-0.4558142
-5.271579	228	-0.2042113
-5.271579	228,552	-0.2307856
-4.970549	229	-0.4610372
-3.426481	23	-0.8011519
-4.970549	230	-0.4610372
-5.271579	231	-0.2042113
-4.493428	232	-0.5758631
-4.317337	233	-0.4373296
-4.669519	234	-0.2686592
-5.271579	2341	-0.2305811
-5.271579	235	-0.2042113
-5.271579	236	-0.2042113
-4.493428	237	-0.3816283
-4.794458	238	-0.328719
-5.271579	239	-0.2042113
-3.638111	24	-0.5402481
-5.271579	240	-0.2042113
-4.669519	241	-0.2686592
-4.230186	242	-0.6619433
-4.970549	243	-0.204194
-5.271579	2443	-0.229053
-4.572609	248	-0.239443
-4.669519	249	-0.1951406
-3.669519	25	-0.6547508
-4.970549	251	-0.2040531
-4.794458	252	-0.4755249
-5.271579	254	-0.2042113
-5.271579	257	-0.2165156
-4.970549	259	-0.2022971
-3.658795	26	-0.5144575
-5.271579	261	-0.2042113
-5.271579	262	-0.2042113
-5.271579	2621	-0.229053
-5.271579	263	-0.2165156
-5.271579	265	-0.2042113
-5.271579	2656	-0.229053
-5.271579	266,644	-0.2307856
-4.368489	267	-0.3847859
-4.970549	269	-0.4610372
-3.703377	27	-0.472999
-5.271579	27.5	-0.2307856
-5.271579	270	-0.230274
-5.271579	272	-0.2037094
-5.271579	2728	-0.229053
-5.271579	277	-0.2042113
-5.271579	2791	-0.229053
-3.715276	28	-0.574399
-5.271579	281	-0.2042113
-4.970549	2819	-0.4858789
-5.271579	283	-0.2042113
-3.794458	29	-0.3978692
-5.271579	2997	-0.229053
-2.927187	3	-1.250373
-5.271579	3.9	-0.2307856
-3.599481	30	-0.6917703
-5.271579	302	-0.229053
-3.486249	31	-1.011323
-4.095488	32	-0.4377314
-5.271579	3281	-0.229053
-4.271579	33	-0.4191981
-4.970549	338	-0.4858789
-4.368489	34	-0.3788428
-5.271579	342	-0.2261075
-5.271579	3499	-0.229053
-4.192398	35	-0.378827
-5.271579	35,958,875	-0.2307856
-4.271579	36	-0.582087
-5.271579	36,149,331	-0.2307856
-4.368489	37	-0.5315456
-5.271579	370	-0.2042113
-4.271579	38	-0.5278545
-5.271579	38,092	-0.2307856
-5.271579	386	-0.229053
-4.493428	39	-0.4932759
-5.271579	394	-0.229053
-2.961949	4	-1.225031
-5.271579	4.25	-0.2307856
-4.125451	40	-0.413701
-4.794458	401	-0.1751229
-4.317337	41	-0.5750171
-4.970549	417	-0.1991987
-4.317337	42	-0.5478328
-5.271579	425	-0.229053
-4.125451	43	-0.7818701
-5.271579	43,150,650	-0.2307856
-5.271579	43,379,202	-0.2307856
-4.125451	44	-0.585117
-5.271579	446	-0.229053
-5.271579	44th	-0.230509
-4.04113	45	-0.9183632
-5.271579	451	-0.2305811
-5.271579	456	-0.2165156
-5.271579	458	-0.2042113
-5.271579	45th	-0.230509
-3.7401	46	-0.8312176
-5.271579	462	-0.2042113
-4.970549	465	-0.4858789
-5.271579	468	-0.2042113
-3.727511	47	-1.125068
-5.271579	472	-0.2273556
-3.658795	48	-1.330331
-5.271579	48th	-0.230509
-3.608821	49	-1.112065
-4.669519	497	-0.7986664
-3.03103	5	-1.055307
-5.271579	5.1	-0.2307856
-3.638111	50	-1.076686
-5.271579	50,342,425	-0.2307856
-5.271579	50,609,069	-0.2307856
-3.379484	51	-1.456107
-4.794458	51st	-0.5018227
-3.445504	52	-1.42148
-5.271579	52nd	-0.230509
-3.312538	53	-1.852763
-4.970549	537	-0.2089247
-3.086888	54	-2.0779
-4.970549	54th	-0.4873348
-2.637102	55	-2.32253
-5.271579	55th	-0.230509
-4.794458	56	-0.3517075
-5.271579	568	-0.2037094
-5.271579	569	-0.2037094
-5.271579	56th	-0.230509
-4.572609	57	-0.1780719
-4.426481	570	-1.068501
-4.572609	571	-0.7610716
-5.271579	572	-0.2037094
-5.271579	573	-0.2037094
-5.271579	574	-0.2037094
-5.271579	575	-0.2037094
-5.271579	576	-0.2037094
-5.271579	577	-0.2037094
-4.669519	578	-0.7733228
-4.493428	579	-0.6965646
-4.572609	58	-0.1942996
-4.970549	580	-0.4605353
-4.426481	581	-1.092372
-4.271579	582	-1.03812
-4.794458	584	-0.4750231
-5.271579	585	-0.2037094
-5.271579	586	-0.2123404
-4.970549	587	-0.4605353
-5.271579	588	-0.2037094
-5.271579	589	-0.2037094
-5.271579	58th	-0.230509
-4.970549	59	-0.2250019
-5.271579	59,120,770	-0.2307856
-5.271579	595	-0.2123404
-3.033533	6	-1.196977
-5.271579	6.5	-0.2307856
-4.572609	60	-0.3263421
-3.970549	602	-1.318947
-5.271579	605	-0.2037094
-5.271579	606	-0.2037094
-5.271579	607	-0.2037094
-5.271579	608	-0.2037094
-5.271579	609	-0.2037094
-4.572609	61	-0.3671005
-5.271579	61,180,707	-0.2307856
-5.271579	610	-0.2037094
-5.271579	611	-0.2123404
-5.271579	612	-0.2037094
-4.970549	613	-0.4691663
-5.271579	614	-0.2037094
-5.271579	615	-0.2037094
-5.271579	616	-0.2037094
-4.794458	62	-0.4755249
-4.493428	63	-0.4743684
-5.271579	637	-0.229053
-5.271579	639	-0.2042113
-4.794458	64	-0.3526258
-5.271579	648	-0.2037094
-4.970549	658	-0.4858789
-5.271579	66	-0.2042113
-4.493428	67	-0.2329679
-4.493428	68	-0.6140481
-5.271579	681	-0.2037094
-5.271579	686	-0.229053
-4.970549	687	-0.4858789
-5.271579	688	-0.229053
-5.271579	689	-0.2037094
-4.426481	69	-0.3757402
-4.794458	690	-0.35522
-5.271579	692	-0.229053
-3.134859	7	-1.139907
-4.970549	7,191,775	-0.4876115
-4.970549	7,229,867	-0.4876115
-4.970549	70	-0.4610372
-5.271579	702	-0.2037094
-5.271579	703	-0.2037094
-5.271579	709	-0.2037094
-5.271579	71	-0.2042113
-4.572609	72	-0.5806125
-5.271579	726	-0.2165156
-4.157636	73	-1.043443
-4.970549	733	-0.2022971
-5.271579	734	-0.2123404
-5.271579	735	-0.2042113
-5.271579	736	-0.2042113
-5.271579	737	-0.2165156
-5.271579	74	-0.2042113
-5.271579	741	-0.2042113
-5.271579	75	-0.2042113
-5.271579	76	-0.2042113
-4.493428	77	-0.5758631
-4.970549	78	-0.4610372
-4.970549	79	-0.4610372
-3.002066	8	-1.13424
-5.271579	8.7	-0.2307856
-4.669519	80	-0.3613393
-5.271579	80.4	-0.2307856
-4.970549	81	-0.2039221
-3.970549	81st	-1.321875
-4.572609	82	-0.4693825
-5.271579	82,769,071	-0.2307856
-5.271579	827	-0.229053
-4.970549	82nd	-0.4873348
-4.794458	83	-0.204016
-3.840215	83rd	-1.446814
-5.271579	84	-0.2307856
-5.271579	840	-0.2042113
-5.271579	845	-0.229053
-4.125451	84th	-1.175747
-4.572609	85	-0.3288845
-5.271579	85,652,987	-0.2307856
-4.192398	85th	-1.113599
-4.794458	86	-0.3573491
-5.271579	86,301,300	-0.2307856
-5.271579	86,758,400	-0.2307856
-4.426481	86th	-1.0953
-4.970549	87	-0.4610372
-3.7401	87th	-1.543724
-4.669519	88th	-0.8001224
-5.271579	89	-0.2042113
-4.493428	89th	-0.6994932
-3.128564	9	-1.061238
-4.426481	90	-0.5424291
-4.794458	904	-0.5003666
-4.970549	91	-0.1889507
-5.271579	913	-0.229053
-4.794458	92	-0.4755249
-5.271579	93	-0.2042113
-4.125451	94	-1.027595
-5.271579	942	-0.2042113
-4.669519	95	-0.3705478
-4.368489	96	-0.2549237
-4.970549	97	-0.4610372
-4.970549	973	-0.4858789
-4.794458	98	-0.3379275
-4.669519	986	-0.7986664
-4.794458	99	-0.204016
-3.051471	:	-0.8126025
-1.966873	;	-2.243235
-1.630601	</s>
-99	<s>	-1.436303
-4.970549	=	-0.4876626
-2.095778	a	-0.6397532
-4.794458	a.	-0.2306438
-4.794458	ababa	-0.2152046
-5.271579	abandon	-0.1876692
-5.271579	abatement	-0.2123404
-5.271579	abducted	-0.2261075
-5.271579	abductee	-0.2300762
-5.271579	abducting	-0.2300762
-4.493428	abduction	-0.4441334
-5.271579	abductions	-0.2042113
-5.271579	abhorrent	-0.2307949
-4.230186	abide	-0.9458919
-5.271579	abilities	-0.2037094
-4.493428	ability	-0.5895217
-5.271579	abkhazia	-0.2037094
-4.493428	able	-0.6854998
-5.271579	abolish	-0.1876692
-5.271579	abolished	-0.2165156
-3.472239	about	-0.7640052
-3.753065	above	-0.6912436
-4.426481	above-mentioned	-0.2288033
-4.970549	abroad	-0.4691663
-4.794458	abrogate	-0.5001776
-4.572609	absence	-0.7615734
-4.669519	absolute	-0.4161165
-4.970549	abstention	-0.4605353
-3.809181	abstentions	-1.449978
-4.970549	abu-ghneim	-0.1839753
-4.493428	abuse	-0.4441334
-4.368489	abuses	-0.5141256
-4.669519	academic	-0.2118794
-5.271579	academics	-0.2037094
-4.794458	acceded	-0.4878293
-4.794458	acceding	-0.4878293
-4.368489	accelerate	-0.5223324
-4.970549	accelerated	-0.2296825
-4.669519	accelerating	-0.1853606
-5.271579	acceleration	-0.2042113
-5.271579	accentuation	-0.2042113
-4.794458	accept	-0.4589828
-4.669519	acceptable	-0.3256566
-4.493428	acceptance	-0.3899567
-4.426481	accepted	-0.3540738
-4.794458	accepts	-0.3378525
-3.414247	access	-1.269512
-4.669519	accessible	-0.2163835
-5.271579	accessing	-0.2304113
-4.794458	accession	-0.2034743
-5.271579	accident	-0.2300762
-4.794458	accidental	-0.3842336
-4.970549	accommodate	-0.187646
-5.271579	accompanied	-0.2282238
-5.271579	accompany	-0.2307601
-4.970549	accomplished	-0.2261404
-5.271579	accomplishing	-0.2292349
-4.669519	accomplishments	-0.2831459
-4.271579	accord	-0.2345535
-3.116243	accordance	-2.155427
-4.970549	accorded	-0.224705
-4.368489	according	-0.939905
-5.271579	accordingly	-0.2261404
-4.794458	accords	-0.1832317
-3.207121	account	-0.7857623
-4.572609	accountability	-0.2395318
-4.317337	accountable	-0.354165
-5.271579	accounting	-0.2307694
-4.493428	accounts	-0.2737498
-4.192398	accreditation	-0.3282585
-4.669519	accredited	-0.7861291
-4.970549	accumulated	-0.2305648
-4.970549	accumulation	-0.4691663
-5.271579	accuracy	-0.2123404
-5.271579	accurate	-0.2037094
-5.271579	accused	-0.2304648
-3.669519	achieve	-0.428275
-3.753065	achieved	-0.8736988
-4.157636	achievement	-1.119486
-4.493428	achievements	-0.3284681
-3.753065	achieving	-0.4308142
-5.271579	acknowledged	-0.2307089
-4.192398	acknowledges	-0.7829046
-4.016306	acknowledging	-0.9055331
-4.157636	acquire	-0.9731877
-4.192398	acquired	-0.8226396
-4.271579	acquisition	-0.873379
-4.970549	across	-0.1840038
-3.909851	act	-0.4738421
-4.368489	acting	-0.577966
-3.03103	action	-0.8264554
-4.794458	action-oriented	-0.230018
-3.703377	actions	-0.4843695
-3.94936	active	-0.4730297
-3.970549	actively	-0.3559557
-5.271579	activist	-0.2037094
-4.794458	activists	-0.3374023
-2.972726	activities	-0.8548541
-4.493428	activity	-0.3980978
-3.970549	actors	-0.4089716
-3.658795	acts	-0.7560961
-4.970549	actually	-0.2308275
-4.493428	actuarial	-0.3452495
-4.970549	actuaries	-0.1839753
-4.970549	actuary	-0.1845005
-3.809181	ad	-1.477054
-5.271579	adama	-0.2308507
-5.271579	adaptation	-0.2123404
-5.271579	adapting	-0.2165156
-5.271579	adaptive	-0.2307694
-4.970549	add	-0.4444951
-3.703377	add.1	-1.769995
-4.095488	add.2	-1.154259
-4.271579	add.3	-1.014249
-4.669519	add.4	-0.7733228
-4.669519	add.5	-0.7733228
-4.970549	add.6	-0.4605353
-4.794458	add.8	-0.4750231
-5.271579	added	-0.2042113
-4.669519	addendum	-0.4828934
-4.794458	addis	-0.5021597
-4.426481	addition	-1.081307
-3.531216	additional	-0.4818493
-3.547303	address	-0.4649824
-4.230186	addressed	-0.2949786
-4.970549	addresses	-0.187664
-3.824421	addressing	-0.6154382
-3.669519	adequate	-0.4226482
-4.317337	adequately	-0.2938248
-5.271579	adhered	-0.2165156
-4.794458	adherence	-0.4878293
-5.271579	adjust	-0.2292349
-5.271579	adjusted	-0.2282238
-3.970549	adjustment	-0.5862072
-4.493428	adjustments	-0.330874
-4.794458	administered	-0.1977641
-3.275944	administering	-1.999693
-3.766429	administration	-0.4539301
-3.515704	administrative	-0.6852379
-5.271579	administrator	-0.2042113
-5.271579	administrators	-0.2037094
-4.317337	admission	-0.9733583
-4.970549	admit	-0.1876589
-4.970549	admitted	-0.4733415
-5.271579	adolescent	-0.2037094
-4.230186	adopt	-0.2767544
-2.87538	adopted	-1.620418
-4.493428	adopting	-0.271453
-3.658795	adoption	-1.10116
-5.271579	adriatic	-0.2307717
-5.271579	adult	-0.2308507
-4.493428	advance	-0.1951499
-5.271579	advanced	-0.2307856
-4.04113	advancement	-1.100189
-4.970549	advances	-0.1766973
-5.271579	advancing	-0.2308065
-4.368489	advantage	-0.9276007
-5.271579	advantageous	-0.2307694
-5.271579	advantages	-0.2123404
-4.192398	adverse	-0.5878778
-4.317337	adversely	-0.3483272
-4.493428	advice	-0.4579161
-5.271579	advise	-0.1876692
-5.271579	adviser	-0.2261075
-4.970549	advisers	-0.22999
-5.271579	advising	-0.2307345
-5.271579	advisors	-0.2037094
-3.970549	advisory	-0.7725995
-5.271579	advocacy	-0.2304462
-4.794458	aerial	-0.2308391
-3.794458	affairs	-0.5462641
-4.016306	affect	-0.7304065
-3.322189	affected	-0.7562987
-4.230186	affecting	-1.229044
-4.426481	affects	-0.2800218
-5.271579	affiliated	-0.2279174
-5.271579	affirmed	-0.2209316
-4.368489	affirming	-0.7959956
-4.095488	affirms	-0.9826468
-4.794458	afford	-0.34086
-4.970549	affordable	-0.2307856
-5.271579	afforded	-0.2282238
-4.970549	affording	-0.2288196
-3.500727	afghan	-0.8381745
-3.312538	afghanistan	-0.7804852
-4.794458	afghans	-0.3611059
-4.970549	aforementioned	-0.2294821
-3.303096	africa	-0.9098399
-3.352501	african	-0.9174425
-3.929156	after	-0.5283507
-5.271579	aftermath	-0.2037094
-5.271579	ag	-0.2275804
-4.016306	again	-0.3357451
-3.327096	against	-0.5601749
-4.493428	age	-0.6731955
-5.271579	age-appropriate	-0.2308484
-3.12236	agencies	-1.394407
-3.43273	agency	-0.7328742
-2.990546	agenda	-1.072821
-5.271579	agendas	-0.2042113
-5.271579	agents	-0.2209316
-4.669519	aggravated	-0.3708115
-4.970549	aggression	-0.198691
-5.271579	ago	-0.2037094
-5.271579	agrarian	-0.2305159
-4.970549	agree	-0.2116099
-3.608821	agreed	-0.585234
-5.271579	agreed-upon	-0.2308368
-5.271579	agreeing	-0.2261075
-3.385088	agreement	-0.5578809
-3.479187	agreements	-0.6738068
-4.317337	agrees	-0.9968608
-4.669519	agricultural	-0.2936325
-4.271579	agriculture	-0.4976166
-5.271579	ai	-0.2275804
-4.230186	aid	-0.2292042
-3.891368	aids	-0.5595069
-4.317337	aim	-0.6702565
-3.547303	aimed	-1.881576
-5.271579	aiming	-0.2287822
-4.230186	aims	-0.3054714
-5.271579	airport	-0.2261404
-5.271579	al-adha	-0.2037094
-5.271579	al-fitr	-0.2123404
-5.271579	al-khalil	-0.2261075
-4.669519	al-quds	-0.7996942
-4.669519	alarm	-0.1839391
-4.669519	alarmed	-0.4829662
-4.794458	alarming	-0.2304159
-5.271579	albania	-0.2037094
-4.669519	albanian	-0.3397375
-4.271579	algeria	-1.201793
-3.238155	alia	-2.192518
-4.970549	alike	-0.4605353
-2.340121	all	-0.6491976
-4.970549	all-inclusive	-0.2118721
-5.271579	all-pervasive	-0.2308368
-4.794458	allegations	-0.2254774
-4.669519	alleged	-0.2306322
-4.970549	alleging	-0.4876719
-4.230186	alleviate	-0.9238485
-4.572609	alleviating	-0.2690505
-4.970549	alleviation	-0.1845005
-4.271579	alliance	-0.5035152
-5.271579	allies	-0.2123404
-5.271579	allocate	-0.2037094
-4.794458	allocated	-0.2115176
-4.794458	allocation	-0.4755249
-4.970549	allocations	-0.4832129
-4.016306	allow	-0.2158134
-5.271579	allowable	-0.2308507
-4.794458	allowance	-0.3521181
-4.426481	allowances	-0.1869165
-4.794458	allowing	-0.4589828
-4.970549	allows	-0.1989537
-4.970549	almaty	-0.4605353
-4.970549	alone	-0.2301507
-4.572609	along	-0.4498859
-5.271579	alongside	-0.1876692
-3.794458	already	-0.3318071
-2.668435	also	-0.7693446
-5.271579	alter	-0.1876692
-5.271579	altered	-0.2037094
-5.271579	alternate	-0.2306229
-4.317337	alternative	-0.3754723
-4.970549	although	-0.230774
-5.271579	always	-0.2307136
-4.970549	amend	-0.187587
-4.192398	amended	-0.500585
-4.230186	amendment	-0.7668464
-4.970549	amendments	-0.2161576
-3.572609	america	-0.6118396
-3.669519	american	-0.6769657
-4.572609	americas	-0.3753891
-4.794458	ammunition	-0.3374023
-4.970549	amnesty	-0.2263846
-3.275944	among	-0.535574
-4.157636	amount	-1.273941
-5.271579	amputation	-0.2261404
-2.778819	an	-0.6820229
-4.572609	analyse	-0.3052481
-5.271579	analysing	-0.2306648
-4.230186	analysis	-0.3305351
-4.317337	analytical	-0.4675261
-5.271579	analytically	-0.2123404
-5.271579	anchored	-0.2165156
-1.37954	and	-0.4269448
-4.368489	andorra	-0.9270989
-4.794458	angola	-0.4750231
-4.572609	anguilla	-0.2414907
-3.590338	annex	-0.8485442
-4.970549	annexation	-0.1845005
-4.493428	annexed	-0.6170458
-4.572609	annexes	-0.273766
-4.970549	anniversaries	-0.198691
-4.970549	anniversary	-0.4610372
-4.794458	announced	-0.2282098
-4.970549	announcement	-0.2039963
-3.992826	annual	-0.3600236
-4.970549	annually	-0.1824608
-4.157636	another	-0.8540505
-5.271579	anterior	-0.2165156
-4.970549	anti-dumping	-0.2123113
-5.271579	anti-money-laundering	-0.2308461
-4.317337	anti-personnel	-0.7935478
-4.970549	anti-poverty	-0.2307903
-4.970549	anticipated	-0.229827
-5.271579	anticipates	-0.2277138
-4.493428	antigua	-0.6813246
-3.196032	any	-0.3391164
-5.271579	anything	-0.2277138
-5.271579	apart	-0.230011
-5.271579	apia	-0.2037094
-5.271579	apparatus	-0.2123404
-5.271579	apparent	-0.2308414
-5.271579	apparently	-0.2308461
-4.157636	appeal	-0.4384579
-5.271579	appealing	-0.2165156
-3.873639	appeals	-0.8750038
-5.271579	appear	-0.2209316
-4.970549	appears	-0.2205582
-4.317337	applicability	-0.9733583
-3.970549	applicable	-0.4657787
-4.368489	applicant	-0.3013765
-3.599481	application	-0.5880307
-3.970549	applications	-0.2306536
-4.426481	applied	-0.3028066
-4.426481	apply	-0.3402047
-4.794458	applying	-0.2261263
-4.970549	appoint	-0.1999854
-4.317337	appointed	-0.513872
-4.970549	appointing	-0.2306183
-4.317337	appointment	-0.4550629
-4.970549	apportion	-0.4874488
-4.970549	apportioned	-0.4777575
-4.970549	apportionment	-0.4874488
-4.04113	appraisal	-1.228631
-4.970549	appraise	-0.2033803
-5.271579	appraised	-0.2279174
-4.794458	appreciates	-0.3206018
-4.970549	appreciating	-0.1866387
-3.226256	appreciation	-1.310558
-4.794458	appreciative	-0.4755249
-4.794458	apprised	-0.1723027
-3.794458	approach	-0.5790396
-4.271579	approaches	-0.3350145
-3.054095	appropriate	-0.6664045
-5.271579	appropriated	-0.2282238
-5.271579	appropriately	-0.2307066
-5.271579	appropriateness	-0.2042113
-4.317337	approval	-0.5182952
-4.125451	approved	-0.3957017
-4.016306	approves	-0.6287127
-3.385088	april	-0.9779989
-3.43273	arab	-1.077439
-4.794458	arabia	-0.3374023
-5.271579	arabic	-0.2037094
-4.368489	arabs	-0.9276007
-4.970549	arbitral	-0.4876743
-4.669519	arbitrarily	-0.3405191
-3.7401	arbitrary	-0.8688796
-4.493428	architecture	-0.4600898
-4.794458	archives	-0.3379275
-2.933123	are	-0.2677271
-3.691796	area	-0.7492169
-3.337081	areas	-0.7457304
-4.067459	argentina	-1.203305
-5.271579	arise	-0.230011
-4.970549	arises	-0.2209245
-3.929156	arising	-0.8399484
-5.271579	arithmetical	-0.2308507
-5.271579	arm	-0.2042113
-3.608821	armed	-0.980191
-4.426481	armenia	-1.068501
-4.230186	arms	-0.3496517
-4.095488	army	-1.376316
-5.271579	arose	-0.2308368
-4.669519	around	-0.3737139
-5.271579	arrange	-0.2273556
-4.669519	arrangement	-0.2979654
-3.479187	arrangements	-0.4681331
-5.271579	array	-0.2042113
-4.794458	arrears	-0.3374023
-4.317337	arrest	-0.4052628
-4.970549	arrested	-0.2296872
-4.669519	arrests	-0.293288
-4.794458	arta	-0.3566612
-5.271579	artefacts	-0.2123404
-3.210881	article	-0.589313
-3.809181	articles	-0.2454683
-4.970549	artifacts	-0.2019818
-4.970549	artillery	-0.4876743
-5.271579	aruba	-0.2037094
-2.18736	as	-0.7227519
-5.271579	ascension	-0.2307298
-4.794458	ascertain	-0.1870604
-4.271579	ascertained	-1.040986
-4.572609	ascertaining	-0.7450314
-3.873639	asia	-1.440307
-5.271579	asia-pacific	-0.2306927
-4.669519	asian	-0.2290226
-5.271579	asks	-0.2306392
-4.970549	aspect	-0.4610372
-3.766429	aspects	-0.702143
-5.271579	aspiration	-0.2042113
-3.929156	aspirations	-1.335086
-5.271579	assault	-0.2037094
-2.53598	assembly	-1.278016
-4.493428	assess	-0.5581584
-4.493428	assessed	-0.6996583
-4.669519	assessing	-0.3719289
-3.840215	assessment	-0.4244187
-5.271579	assessmenta	-0.2205654
-4.368489	assessments	-0.3379312
-5.271579	asset	-0.2307136
-4.669519	assets	-0.2939146
-5.271579	assign	-0.2307508
-4.572609	assigned	-0.2989353
-5.271579	assignment	-0.2261404
-3.486249	assist	-0.5605565
-2.771892	assistance	-0.9403168
-5.271579	assisted	-0.2282238
-3.970549	assisting	-0.4019296
-4.669519	associate	-0.3398167
-3.703377	associated	-1.128883
-4.016306	association	-0.4445552
-4.669519	associations	-0.2638891
-5.271579	assume	-0.2273556
-4.970549	assumed	-0.1871349
-5.271579	assuming	-0.2273556
-5.271579	assurance	-0.2042113
-4.970549	assurances	-0.227763
-4.970549	assure	-0.2241909
-5.271579	assuring	-0.2275359
-5.271579	assyrians	-0.2123404
-5.271579	astronautical	-0.2308042
-5.271579	asylum	-0.2123404
-5.271579	asymmetries	-0.2209316
-2.322677	at	-0.989472
-5.271579	atambua	-0.2261075
-4.970549	atmosphere	-0.4610372
-4.426481	atomic	-0.5542755
-5.271579	attach	-0.2273556
-4.794458	attached	-0.3672249
-4.669519	attaches	-0.7861291
-5.271579	attack	-0.2308507
-5.271579	attacking	-0.2305671
-4.271579	attacks	-0.3975717
-4.794458	attain	-0.2253244
-4.970549	attainable	-0.487665
-4.970549	attained	-0.2273181
-4.572609	attaining	-0.2690324
-4.493428	attainment	-0.6731955
-5.271579	attempt	-0.2165156
-5.271579	attempting	-0.2165156
-4.970549	attempts	-0.4733415
-5.271579	attend	-0.1876692
-4.794458	attendance	-0.1815741
-5.271579	attended	-0.2282238
-4.794458	attending	-0.183864
-3.669519	attention	-0.7217175
-5.271579	attitude	-0.2042113
-4.572609	attract	-0.3155085
-4.794458	attracting	-0.3840593
-5.271579	attractive	-0.2165156
-4.426481	attribute	-1.092327
-5.271579	attributes	-0.2042113
-4.368489	attribution	-0.8151804
-4.368489	audit	-0.2440584
-4.669519	audited	-0.7999968
-3.970549	auditors	-0.3321214
-4.970549	audits	-0.4610372
-4.794458	augment	-0.1633315
-3.64833	august	-0.7203647
-4.794458	aung	-0.5021411
-4.016306	auspices	-0.9532187
-5.271579	austerity	-0.2303345
-4.230186	australia	-1.052038
-3.970549	austria	-1.295076
-5.271579	author	-0.2308437
-3.564009	authorities	-0.5987282
-3.94936	authority	-0.6188061
-4.794458	authorize	-0.4589828
-5.271579	authorized	-0.2292979
-5.271579	authorizes	-0.1876692
-5.271579	authorizing	-0.1876692
-4.970549	autonomous	-0.2306322
-4.970549	autonomy	-0.175292
-4.970549	avail	-0.487651
-4.669519	availability	-0.3892667
-3.539185	available	-0.4852948
-4.970549	average	-0.2036797
-4.317337	avoid	-0.2325918
-4.669519	avoiding	-0.2970597
-5.271579	awaiting	-0.1876692
-4.794458	award	-0.2030881
-4.970549	awarded	-0.4850497
-4.970549	awards	-0.1839753
-3.727511	aware	-1.429482
-3.891368	awareness	-0.5408207
-4.970549	away	-0.4868369
-4.317337	azerbaijan	-0.6560864
-3.203393	b	-1.714906
-4.794458	b.	-0.2304578
-4.794458	back	-0.1857166
-5.271579	backdrop	-0.2042113
-4.426481	background	-0.2069786
-4.794458	backgrounds	-0.1930744
-4.794458	backlog	-0.4922453
-5.271579	baghlan	-0.2123404
-4.794458	baha	-0.5021597
-4.493428	bahamas	-0.6726936
-5.271579	bahr	-0.2308507
-4.970549	bahrain	-0.4605353
-5.271579	baker	-0.2307577
-5.271579	baku	-0.2302531
-4.794458	balance	-0.3566043
-5.271579	balance-of-payments	-0.2302973
-4.426481	balanced	-0.2667647
-4.970549	balances	-0.2160758
-5.271579	balancing	-0.2275359
-4.572609	balkans	-0.3144161
-5.271579	bamian	-0.2037094
-4.970549	ban	-0.2260957
-4.572609	bangkok	-0.6108236
-4.572609	bangladesh	-0.7610716
-3.753065	bank	-0.6800714
-4.970549	banking	-0.2122774
-4.669519	banks	-0.3700226
-5.271579	banning	-0.1876692
-5.271579	bar	-0.2308437
-4.572609	barbados	-0.3752517
-4.493428	barbuda	-0.5845464
-4.669519	barriers	-0.3112505
-4.157636	base	-0.2726816
-3.669519	based	-0.9144365
-4.970549	bases	-0.2019818
-3.856606	basic	-0.4506027
-3.222361	basis	-1.052613
-5.271579	battle	-0.2308484
-2.698708	be	-0.3528049
-5.271579	beach	-0.2123404
-4.669519	bear	-0.2862511
-3.396518	bearing	-1.870892
-5.271579	beating	-0.2037094
-5.271579	became	-0.2304252
-4.493428	because	-0.5587164
-3.873639	become	-0.4014223
-4.970549	becomes	-0.4841814
-4.368489	becoming	-0.5238479
-5.271579	beef	-0.2307298
-3.420321	been	-0.2811282
-3.824421	before	-0.5150763
-4.970549	began	-0.2271564
-4.794458	begin	-0.2129971
-4.669519	beginning	-0.7738247
-4.970549	begins	-0.217928
-5.271579	begun	-0.2279174
-4.794458	behalf	-0.3572799
-5.271579	behind	-0.2037094
-4.794458	beijing	-0.5015667
-3.599481	being	-0.4985069
-4.572609	beings	-0.2688303
-4.970549	beirut	-0.198656
-4.271579	belarus	-1.014249
-3.929156	belgium	-1.334584
-4.970549	belgrade	-0.2120566
-5.271579	belief	-0.2277138
-5.271579	believe	-0.2277138
-4.04113	belize	-0.5994957
-4.970549	belong	-0.4733415
-4.317337	belonging	-0.9856626
-4.794458	below	-0.3540108
-5.271579	belts	-0.2037094
-5.271579	benchmark	-0.2308507
-4.970549	benchmarks	-0.2299062
-5.271579	beneficial	-0.2165156
-5.271579	beneficiaries	-0.2042113
-5.271579	beneficiary	-0.2042113
-3.992826	benefit	-0.3211966
-5.271579	benefited	-0.230011
-4.970549	benefiting	-0.4868369
-3.703377	benefits	-0.4586805
-4.572609	benin	-0.7610716
-4.794458	bermuda	-0.3461768
-5.271579	besides	-0.2275359
-4.067459	best	-0.3947854
-4.095488	bethlehem	-0.6249987
-4.125451	better	-0.3280587
-2.939141	between	-0.9320089
-4.095488	beyond	-0.3529987
-4.970549	bhutan	-0.4605353
-5.271579	bid	-0.2261404
-5.271579	bids	-0.2261075
-4.426481	biennial	-0.4000087
-4.192398	biennium	-0.56635
-3.873639	bilateral	-0.5469725
-5.271579	bill	-0.2308344
-4.970549	billion	-0.2303903
-5.271579	binding	-0.2123404
-4.794458	biodiversity	-0.2069919
-3.909851	biological	-1.59213
-4.794458	biosafety	-0.2032614
-4.970549	biotechnology	-0.2076788
-5.271579	birth	-0.2300762
-5.271579	birthplace	-0.2042113
-5.271579	birthright	-0.2042113
-4.970549	bis	-0.1991987
-4.230186	black	-1.0791
-3.408256	board	-0.9457298
-4.794458	boards	-0.4755249
-3.289308	bodies	-0.8428073
-4.016306	body	-0.414948
-5.271579	bogotá	-0.2261075
-5.271579	bold	-0.2308507
-4.572609	bolivia	-0.7610716
-5.271579	bombardment	-0.2042113
-5.271579	bombardments	-0.2037094
-5.271579	bombing	-0.2123404
-4.669519	bombings	-0.2638891
-5.271579	bonn	-0.2037094
-4.970549	booby	-0.4876743
-5.271579	books	-0.2123404
-5.271579	boost	-0.2308437
-5.271579	booth	-0.226387
-5.271579	border	-0.2261404
-4.970549	borders	-0.1839753
-4.426481	born	-0.3868624
-4.669519	borne	-0.4042888
-5.271579	borrow	-0.2305601
-5.271579	borrowing	-0.2307461
-3.929156	bosnia	-1.343215
-4.669519	bosnian	-0.4876696
-3.638111	both	-0.3328112
-4.572609	botswana	-0.7610716
-4.794458	bound	-0.4995375
-5.271579	bounds	-0.2042113
-5.271579	branch	-0.2042113
-4.016306	brazil	-1.454226
-4.572609	breaches	-0.4236058
-5.271579	breakdown	-0.2042113
-5.271579	breakthrough	-0.2209316
-4.095488	bretton	-1.204085
-4.669519	bribery	-0.4499662
-5.271579	bridge	-0.1876692
-4.970549	bridging	-0.4444951
-5.271579	brief	-0.230395
-4.970549	briefing	-0.4875767
-4.970549	briefings	-0.2036574
-5.271579	brindisi	-0.2037094
-3.766429	bring	-0.4810349
-4.230186	bringing	-0.2714593
-3.891368	britain	-1.379427
-4.493428	british	-0.6998093
-4.095488	broad	-0.3459898
-4.271579	broad-based	-0.4067013
-4.970549	broadcasters	-0.4691663
-4.669519	broadcasting	-0.2250419
-4.970549	broaden	-0.1874843
-5.271579	broadened	-0.2123404
-4.794458	broadening	-0.3623053
-4.493428	broader	-0.2782032
-5.271579	broadest	-0.2283851
-4.970549	broadly	-0.230388
-4.157636	brought	-0.7278125
-5.271579	brovina	-0.2037094
-5.271579	brunei	-0.2308507
-4.426481	brussels	-0.4317615
-5.271579	bucharest	-0.2261075
-4.016306	budget	-0.443321
-4.095488	budgetary	-0.7247853
-4.970549	bug	-0.4869067
-4.572609	build	-0.2927435
-4.157636	building	-0.2873532
-5.271579	buildings	-0.2037094
-5.271579	built	-0.230274
-4.157636	bulgaria	-1.118984
-5.271579	bulk	-0.2042113
-4.572609	burden	-0.1959321
-4.794458	burden-sharing	-0.2071785
-4.493428	burdens	-0.3286926
-4.426481	bureau	-0.5667316
-4.970549	bureaux	-0.1994611
-4.426481	burkina	-1.095628
-5.271579	burning	-0.2123404
-4.669519	burundi	-0.7733228
-4.157636	business	-0.3959051
-4.067459	but	-0.3626151
-2.21927	by	-0.8691116
-5.271579	by-laws	-0.2042113
-5.271579	bypass	-0.2300762
-3.486249	c	-1.476013
-4.970549	c.	-0.2305438
-4.970549	cabinet	-0.2165036
-4.572609	caicos	-0.7881339
-4.970549	cairo	-0.2255009
-5.271579	calculated	-0.2165156
-3.891368	caledonia	-0.557009
-5.271579	caledonian	-0.2307484
-5.271579	caledonians	-0.2308344
-4.368489	calendar	-0.4963786
-4.067459	call	-0.4336948
-4.125451	called	-0.9798419
-4.572609	calling	-0.4912624
-2.906091	calls	-2.031298
-4.669519	cambodia	-0.7733228
-5.271579	came	-0.2165156
-4.572609	cameroon	-0.7610716
-4.572609	campaign	-0.3753891
-4.970549	campaigns	-0.198691
-4.970549	camps	-0.2037044
-5.271579	campuses	-0.2123404
-3.856606	can	-0.3762723
-3.94936	canada	-1.315279
-5.271579	cancel	-0.2288639
-4.493428	cancellation	-0.3876365
-5.271579	cancellations	-0.2305973
-5.271579	cancelled	-0.2307949
-4.794458	candidates	-0.2207652
-4.970549	cannot	-0.2299621
-5.271579	cantonization	-0.2261404
-4.271579	capabilities	-0.3361553
-5.271579	capability	-0.2042113
-3.992826	capacities	-0.4420648
-3.572609	capacity	-0.7728583
-3.840215	capacity-building	-0.515681
-4.572609	cape	-0.7882036
-5.271579	capita	-0.2308484
-4.04113	capital	-0.6444593
-5.271579	capital-account	-0.2308042
-5.271579	capitals	-0.2037094
-5.271579	captors	-0.2165156
-4.970549	cards	-0.2215921
-4.271579	care	-0.339666
-4.970549	carefully	-0.187664
-3.390765	caribbean	-0.8514232
-5.271579	carrefour-feuilles	-0.2308461
-3.909851	carried	-1.379965
-5.271579	carries	-0.2306066
-4.016306	carry	-1.180077
-3.929156	carrying	-1.573006
-4.271579	cartagena	-0.7174779
-5.271579	cartegena	-0.2307787
-3.856606	case	-0.3823966
-4.669519	case-by-case	-0.8002061
-3.929156	cases	-0.4920215
-4.794458	cash	-0.2122361
-5.271579	castries	-0.2037094
-4.970549	casualties	-0.2034644
-5.271579	catastrophe	-0.2209316
-4.271579	categories	-0.2617588
-4.493428	cause	-0.4940998
-4.067459	caused	-1.103918
-4.04113	causes	-0.9954425
-4.669519	causing	-0.186721
-4.493428	cayman	-0.6997559
-5.271579	caymanian	-0.2307438
-4.125451	cease	-0.3997918
-4.970549	ceased	-0.4605353
-3.94936	ceasefire	-0.6751555
-5.271579	ceases	-0.2165156
-5.271579	ceiling	-0.226387
-4.794458	celebrate	-0.3739567
-5.271579	celebrated	-0.2209316
-4.794458	celebration	-0.3470816
-5.271579	celebrations	-0.2042113
-5.271579	census	-0.2037094
-3.824421	cent	-0.8204117
-5.271579	centennial	-0.2042113
-3.390765	central	-0.8898467
-3.840215	centre	-0.5981532
-3.680515	centres	-0.4257519
-4.230186	century	-0.3430832
-4.970549	ceremonies	-0.4777575
-4.125451	certain	-0.2526905
-5.271579	certificates	-0.226387
-4.970549	certification	-0.2282027
-4.794458	cessation	-0.4755249
-4.970549	chad	-0.4605353
-5.271579	chair	-0.2042113
-5.271579	chaired	-0.2282238
-4.572609	chairman	-0.7615734
-5.271579	chairman-in-office	-0.2123404
-4.970549	chairmanship	-0.4610372
-5.271579	chairmen	-0.226387
-4.970549	chairperson	-0.1845005
-5.271579	chairperson-in-office	-0.2042113
-5.271579	chairpersons	-0.2042113
-4.572609	challenge	-0.212687
-3.703377	challenges	-0.631873
-5.271579	chamber	-0.2037094
-4.426481	chamorro	-0.5458046
-5.271579	chamorros	-0.2308344
-4.192398	change	-0.301973
-5.271579	changed	-0.2165156
-4.067459	changes	-0.5523828
-4.970549	changing	-0.1876615
-5.271579	channel	-0.2042113
-5.271579	channels	-0.2165156
-3.715276	chapter	-0.6331908
-5.271579	chapters	-0.2037094
-4.095488	character	-0.490826
-5.271579	characteristics	-0.2123404
-5.271579	characterize	-0.1876692
-5.271579	characterized	-0.2282238
-4.970549	charge	-0.2118357
-4.970549	charged	-0.2165132
-5.271579	charging	-0.2308228
-3.092602	charter	-1.07812
-5.271579	chemicals	-0.2037094
-4.317337	chernobyl	-0.5838015
-4.426481	chief	-0.6471123
-3.856606	child	-0.4201314
-5.271579	child-centred	-0.2307345
-3.402347	children	-0.6375072
-4.125451	chile	-1.148948
-4.572609	china	-0.7610716
-4.970549	china-africa	-0.4866482
-5.271579	chinese	-0.2123404
-4.794458	choices	-0.2260111
-4.970549	choose	-0.2307275
-5.271579	christ	-0.2123404
-5.271579	christmas	-0.2037094
-5.271579	churches	-0.2123404
-5.271579	cidaho	-0.2037094
-4.794458	circulate	-0.2062474
-4.970549	circulated	-0.4850497
-4.794458	circulation	-0.3379275
-5.271579	circumstance	-0.2308484
-4.157636	circumstances	-0.3054141
-4.368489	cities	-0.3568369
-4.230186	citizens	-0.3342944
-5.271579	citizenship	-0.2123404
-4.572609	city	-0.3118114
-3.368489	civil	-1.157102
-3.493428	civilian	-0.7882124
-3.929156	civilians	-0.617938
-4.368489	civilizations	-0.244964
-5.271579	claim	-0.2308461
-5.271579	claiming	-0.2308414
-5.271579	claims	-0.2042113
-4.669519	clarification	-0.292741
-5.271579	clarify	-0.2302414
-5.271579	classifications	-0.2306578
-5.271579	classified	-0.2280227
-5.271579	clean-out	-0.2042113
-5.271579	cleaner	-0.2123404
-4.794458	clear	-0.2088709
-4.271579	clearance	-0.3819031
-5.271579	clearing	-0.2261404
-4.669519	clearly	-0.3403912
-5.271579	clerical	-0.2300762
-4.192398	climate	-0.4858093
-3.703377	close	-0.5580632
-5.271579	closed	-0.230781
-4.192398	closely	-0.2536668
-4.317337	closer	-0.2754148
-4.572609	closing	-0.1360711
-4.493428	closure	-0.6731955
-4.970549	club	-0.2092765
-5.271579	cluster	-0.2042113
-4.794458	co-chairmen	-0.4755249
-5.271579	co-chairpersons	-0.2042113
-5.271579	co-financing	-0.2308437
-5.271579	coalition	-0.2303019
-5.271579	coalitions	-0.2279174
-4.669519	coastal	-0.4166958
-5.271579	code	-0.2042113
-4.572609	codification	-0.2396039
-5.271579	coerce	-0.2308228
-4.157636	coercive	-0.9989763
-4.970549	coexistence	-0.1839753
-5.271579	cognizance	-0.2042113
-4.572609	cognizant	-0.5822865
-4.271579	coherence	-0.4047181
-4.368489	coherent	-0.3567736
-4.669519	collaborate	-0.3995284
-3.909851	collaboration	-0.7468457
-4.572609	collaborative	-0.3147443
-5.271579	collate	-0.2123404
-4.794458	collect	-0.2013057
-4.970549	collection	-0.4691663
-4.794458	collective	-0.230781
-4.794458	collectively	-0.3110144
-4.426481	college	-0.5351067
-5.271579	collisions	-0.2042113
-4.794458	cologne	-0.4750231
-4.016306	colombia	-1.25161
-3.618366	colonial	-1.580969
-3.929156	colonialism	-0.520075
-5.271579	colour	-0.2037094
-3.873639	combat	-0.5612968
-5.271579	combatants	-0.2037094
-4.426481	combating	-0.2014252
-4.970549	combine	-0.2299784
-5.271579	come	-0.2165156
-4.970549	comes	-0.4876139
-4.794458	coming	-0.3838174
-5.271579	command	-0.2302973
-4.970549	commemorated	-0.4843618
-4.970549	commemoration	-0.1991987
-4.970549	commence	-0.2260511
-4.794458	commencement	-0.4755249
-5.271579	commencing	-0.2261075
-4.368489	commending	-0.7984338
-3.873639	commends	-1.273088
-4.669519	commensurate	-0.7975308
-4.067459	comments	-0.3868768
-4.669519	commerce	-0.2976962
-4.157636	commercial	-0.4053146
-2.780217	commission	-1.064648
-3.564009	commissioner	-0.7939914
-4.04113	commissioner-general	-0.6910232
-3.929156	commissions	-0.5911629
-4.669519	commit	-0.3400773
-3.465399	commitment	-1.036255
-3.638111	commitments	-0.3017854
-3.891368	committed	-0.4821733
-2.616441	committee	-1.233702
-4.426481	committees	-0.3930587
-4.125451	commodities	-0.4614554
-3.992826	commodity	-0.4202696
-4.317337	commodity-dependent	-0.6039197
-5.271579	commodity-processing	-0.2307926
-3.658795	common	-0.4947517
-4.794458	commonwealth	-0.3840453
-5.271579	communal	-0.2307949
-4.794458	communicate	-0.3797154
-4.669519	communicated	-0.3200459
-3.809181	communication	-0.6254564
-4.095488	communications	-0.400748
-5.271579	communiqué	-0.2261404
-4.271579	communities	-0.3415856
-3.081247	community	-1.022715
-4.970549	community-based	-0.230388
-5.271579	commutation	-0.2308158
-5.271579	commutations	-0.2037094
-4.669519	comoros	-0.7733228
-4.572609	companies	-0.2479518
-4.970549	company	-0.2123356
-4.794458	comparable	-0.5021551
-5.271579	comparative	-0.2308507
-4.794458	comparator	-0.5019807
-4.970549	compatibility	-0.1845005
-5.271579	compelled	-0.1876692
-4.970549	compensate	-0.1827335
-5.271579	compensated	-0.2304694
-4.317337	compensation	-0.3478382
-5.271579	compete	-0.2209316
-4.192398	competence	-0.4840444
-4.317337	competent	-0.3414759
-4.794458	competition	-0.3834962
-4.970549	competitive	-0.2308321
-4.493428	competitiveness	-0.2952904
-4.970549	compilation	-0.1845005
-5.271579	compile	-0.2302158
-5.271579	complaint	-0.2308507
-4.970549	complement	-0.214614
-4.572609	complementarities	-0.3534949
-4.493428	complementarity	-0.5942256
-5.271579	complementary	-0.2303903
-5.271579	complementing	-0.1876692
-4.067459	complete	-0.2708828
-4.794458	completed	-0.1956424
-5.271579	completely	-0.2308507
-5.271579	completing	-0.2308507
-4.271579	completion	-0.7180589
-4.493428	complex	-0.3443018
-4.04113	compliance	-1.154136
-4.067459	comply	-0.7580265
-4.794458	component	-0.3470816
-4.426481	components	-0.2329692
-4.493428	composed	-0.6731955
-4.230186	composition	-0.8718889
-5.271579	compounded	-0.2282238
-3.555576	comprehensive	-0.5604259
-4.669519	comprehensively	-0.1951078
-5.271579	comprised	-0.230688
-5.271579	comprises	-0.2307763
-5.271579	compromise	-0.1876692
-4.970549	compulsory	-0.2307926
-4.970549	computer	-0.230767
-5.271579	computer-assisted	-0.2308321
-5.271579	computerizing	-0.1876692
-4.794458	computers	-0.3461768
-5.271579	conakry	-0.230011
-5.271579	concentrated	-0.2307601
-4.572609	concept	-0.3427495
-5.271579	concepts	-0.2037094
-3.242195	concern	-1.014108
-3.006761	concerned	-0.6890994
-3.465399	concerning	-0.5079874
-4.157636	concerns	-0.5647695
-5.271579	concert	-0.2279174
-4.669519	concerted	-0.2264832
-4.669519	concessional	-0.3215465
-4.572609	conciliation	-0.7874942
-4.970549	concise	-0.2122434
-5.271579	conclude	-0.2037094
-4.493428	concluded	-0.2823572
-4.970549	concluding	-0.2306694
-4.669519	conclusion	-0.2816528
-3.856606	conclusions	-0.6756382
-4.230186	concrete	-0.3304343
-5.271579	concurrence	-0.2279174
-5.271579	concurrently	-0.2037094
-5.271579	concurring	-0.2279174
-5.271579	concurs	-0.2279174
-4.970549	condemn	-0.2288616
-4.669519	condemnation	-0.7738247
-4.572609	condemning	-0.3263525
-3.856606	condemns	-0.7062668
-4.493428	condition	-0.6264459
-3.458666	conditions	-0.6159496
-5.271579	condoned	-0.2308484
-4.095488	conducive	-1.088948
-4.04113	conduct	-0.4087984
-4.572609	conducted	-0.6018506
-4.794458	conducting	-0.1837992
-2.896831	conference	-1.131255
-4.794458	conference-servicing	-0.5018017
-3.515704	conferences	-0.868468
-4.970549	confidence-building	-0.2303252
-5.271579	confined	-0.2165156
-4.970549	confirmation	-0.2014152
-4.794458	confirmed	-0.1538687
-5.271579	confirming	-0.2307624
-4.669519	confirms	-0.3702478
-4.970549	confiscation	-0.4610372
-3.385088	conflict	-0.8698822
-4.970549	conflicting	-0.2304229
-3.909851	conflicts	-0.7388383
-3.794458	conformity	-1.488426
-5.271579	confrontation	-0.2209316
-5.271579	confrontations	-0.2037094
-4.669519	confronted	-0.7975308
-4.970549	confronting	-0.1876332
-3.564009	congo	-0.7159514
-4.572609	congolese	-0.2195433
-5.271579	congress	-0.2165156
-4.426481	conjunction	-0.5631189
-4.572609	connected	-0.4931719
-3.840215	connection	-0.8422076
-5.271579	connections	-0.2037094
-4.04113	conscious	-1.106628
-4.970549	conscripting	-0.4869021
-4.970549	conscription	-0.198691
-4.572609	consensus	-0.3066944
-5.271579	consequence	-0.2042113
-3.7401	consequences	-0.7045251
-5.271579	consequent	-0.2308275
-5.271579	consequential	-0.2308391
-4.192398	conservation	-0.6177048
-5.271579	conserve	-0.1876692
-3.210881	consider	-0.5004907
-4.669519	considerable	-0.230409
-3.390765	consideration	-0.8340792
-4.970549	considerations	-0.2040704
-3.414247	considered	-0.9597324
-3.909851	considering	-0.6988862
-4.230186	considers	-0.9013889
-5.271579	consist	-0.2042113
-4.794458	consistency	-0.3627036
-3.929156	consistent	-0.82273
-4.970549	consistently	-0.227908
-5.271579	consisting	-0.2042113
-4.157636	consolidate	-0.250916
-4.271579	consolidated	-0.3415846
-4.572609	consolidating	-0.3290644
-4.016306	consolidation	-1.115737
-5.271579	constant	-0.2123404
-4.572609	constituent	-0.3722605
-4.125451	constitute	-0.5386003
-4.794458	constituted	-0.2272712
-4.493428	constitutes	-0.3951448
-4.794458	constituting	-0.3402972
-4.317337	constitution	-0.3825288
-4.230186	constitutional	-0.3600075
-5.271579	constitutionally	-0.2307833
-5.271579	constitutive	-0.2307996
-4.970549	constrained	-0.1931403
-5.271579	constraining	-0.2300156
-4.192398	constraints	-0.4375457
-4.493428	construction	-0.3836059
-4.067459	constructive	-0.5008293
-4.04113	consular	-0.6672292
-5.271579	consulate-general	-0.2042113
-4.368489	consult	-0.224785
-3.753065	consultation	-1.085059
-3.703377	consultations	-0.3970906
-4.067459	consultative	-0.6454812
-4.669519	consulting	-0.4847386
-5.271579	consumers	-0.2042113
-5.271579	consumption	-0.2261404
-5.271579	contact	-0.2303205
-4.426481	contacts	-0.471727
-5.271579	contagion	-0.2307368
-5.271579	contain	-0.2307322
-3.262979	contained	-2.185243
-3.891368	containing	-0.6171325
-5.271579	containment	-0.2042113
-4.426481	contains	-0.4920773
-4.794458	content	-0.3576037
-5.271579	contents	-0.2042113
-4.970549	contested	-0.2244904
-3.185219	context	-1.03338
-5.271579	contingency	-0.2303345
-4.095488	continuation	-0.9800851
-2.735021	continue	-1.184667
-3.414247	continued	-0.3721175
-3.929156	continues	-1.34739
-3.284807	continuing	-0.3119556
-4.426481	continuity	-0.6100021
-4.317337	continuous	-0.2565883
-5.271579	contract	-0.2300762
-4.794458	contracting	-0.5017389
-4.970549	contraction	-0.2177196
-4.970549	contracts	-0.2033902
-4.572609	contrary	-0.5698446
-5.271579	contravention	-0.2042113
-3.486249	contribute	-0.8696913
-4.426481	contributed	-0.3978807
-4.426481	contributes	-1.081307
-4.493428	contributing	-0.5059178
-3.64833	contribution	-0.8927537
-3.385088	contributions	-0.6772833
-5.271579	contributor	-0.2165156
-4.970549	contributors	-0.200367
-5.271579	contributory	-0.2307229
-3.824421	control	-0.4969499
-4.970549	controlled	-0.4850497
-4.970549	controls	-0.203702
-4.230186	convene	-0.3168701
-4.493428	convened	-0.2087267
-3.970549	convening	-0.6963215
-5.271579	convenor	-0.2042113
-3.033533	convention	-1.01704
-4.970549	conventional	-0.4876557
-3.590338	conventions	-0.7232617
-5.271579	conventiony	-0.2165156
-5.271579	converged	-0.2261404
-4.970549	convergence	-0.4610372
-4.794458	conversion	-0.5020923
-5.271579	conversions	-0.2308484
-5.271579	convicted	-0.2300762
-4.669519	conviction	-0.38692
-5.271579	convictions	-0.2042113
-5.271579	convince	-0.2308391
-3.891368	convinced	-1.580084
-5.271579	convoked	-0.2282238
-5.271579	convoys	-0.2123404
-3.385088	cooperate	-1.173828
-4.970549	cooperated	-0.4847433
-5.271579	cooperating	-0.2279174
-2.625175	cooperation	-1.107963
-4.572609	cooperative	-0.2295707
-4.04113	coordinate	-0.2373439
-4.04113	coordinated	-0.3146538
-4.230186	coordinating	-0.370844
-3.271579	coordination	-0.8496454
-4.125451	coordinator	-0.3395517
-5.271579	coordinators	-0.2123404
-4.970549	cope	-0.4847433
-4.794458	copenhagen	-0.5015667
-4.794458	copies	-0.3572799
-4.970549	coping	-0.4847433
-4.970549	copy	-0.4610372
-4.572609	core	-0.2034793
-5.271579	cornerstone	-0.226387
-5.271579	corollary	-0.2037094
-5.271579	corporate	-0.2303694
-5.271579	corporations	-0.226387
-3.970549	corr.1	-1.159305
-4.970549	correct	-0.187664
-5.271579	corrected	-0.2282238
-5.271579	correcting	-0.1876692
-5.271579	correction	-0.2042113
-5.271579	corrective	-0.230767
-5.271579	correspond	-0.2165156
-4.970549	correspondent	-0.4610372
-4.669519	corresponding	-0.2307694
-5.271579	corridor-europe-caucasus-asia	-0.2303066
-4.669519	corrupt	-0.8003712
-4.368489	corruption	-0.469851
-4.426481	cost	-0.5195797
-4.493428	cost-effective	-0.3269763
-5.271579	cost-effectiveness	-0.2042113
-5.271579	cost-neutral	-0.2307833
-4.970549	cost-of-living	-0.2308344
-5.271579	cost-saving	-0.2303345
-4.157636	costa	-1.146098
-4.067459	costs	-0.3585956
-4.970549	cotonou	-0.4875
-3.891368	could	-0.3724482
-2.893181	council	-0.8922389
-5.271579	counsel	-0.2042113
-5.271579	counselling	-0.230702
-4.426481	counter	-0.5136167
-5.271579	counteract	-0.1876692
-4.794458	countering	-0.384036
-5.271579	counterpart	-0.2305694
-4.794458	counterparts	-0.2054942
-4.970549	countervailing	-0.2303066
-2.452035	countries	-1.137469
-3.303096	country	-0.5536085
-5.271579	country-driven	-0.2123404
-5.271579	country-level	-0.2307949
-4.970549	country-owned	-0.487393
-5.271579	coupled	-0.2279174
-4.970549	courage	-0.4691663
-4.669519	course	-0.3613393
-4.572609	courses	-0.2371488
-3.809181	court	-0.4925112
-4.970549	courts	-0.212338
-3.856606	covenant	-1.426618
-4.125451	covenants	-1.171346
-4.970549	cover	-0.1874432
-5.271579	coverage	-0.2042113
-4.192398	covered	-1.297423
-4.157636	covering	-0.6922297
-5.271579	covers	-0.2303461
-3.929156	create	-0.6366159
-4.493428	created	-0.2877966
-4.970549	creates	-0.2307159
-4.230186	creating	-0.4150802
-4.067459	creation	-1.087588
-4.426481	credentials	-0.5656282
-4.970549	credibility	-0.4610372
-4.794458	credible	-0.2120008
-4.426481	creditor	-0.677392
-4.669519	creditors	-0.2826072
-5.271579	creole	-0.2209316
-4.794458	crescent	-0.2036772
-4.157636	crime	-0.5823387
-4.157636	crimes	-0.3594665
-3.873639	criminal	-0.7018461
-4.317337	crises	-0.3850398
-3.909851	crisis	-0.5453596
-4.794458	criteria	-0.1994411
-4.157636	critical	-0.4244937
-4.192398	croatia	-1.218952
-4.970549	croats	-0.4829663
-5.271579	crop	-0.2308112
-4.970549	crops	-0.4691663
-4.067459	cross	-0.3616475
-4.794458	cross-cutting	-0.2305927
-5.271579	cross-sectoral	-0.2306485
-4.493428	crucial	-0.2292513
-4.192398	cruel	-0.7706942
-4.067459	cuba	-0.90279
-4.970549	cuban	-0.2304206
-5.271579	culminated	-0.2209316
-4.970549	cultivation	-0.4605353
-3.322189	cultural	-0.7346478
-4.230186	culture	-0.5678235
-5.271579	cultures	-0.2123404
-5.271579	curb	-0.1876692
-5.271579	currencies	-0.2261404
-4.970549	currency	-0.2034966
-3.691796	current	-0.3090234
-4.368489	currently	-0.3390362
-4.572609	custody	-0.5659143
-4.669519	customs	-0.1541045
-5.271579	cycles	-0.2261404
-5.271579	cyclones	-0.2123404
-4.016306	cyprus	-1.443703
-4.125451	czech	-1.175591
-4.794458	côte	-0.5020109
-3.445504	d	-1.451506
-4.970549	d-2	-0.2207723
-4.970549	d.	-0.2308042
-4.271579	d.c.	-1.201793
-5.271579	dag	-0.2308507
-4.970549	daily	-0.2122774
-5.271579	dakar	-0.2306531
-4.368489	damage	-0.3131541
-5.271579	damaged	-0.2307484
-5.271579	damages	-0.2165156
-5.271579	damaging	-0.2308275
-5.271579	danger	-0.2165156
-4.794458	dangerous	-0.2305066
-5.271579	dangers	-0.2123404
-4.794458	danube	-0.183172
-5.271579	darussalam	-0.2037094
-4.493428	data	-0.2682185
-5.271579	databases	-0.2123404
-3.794458	date	-0.5489323
-4.794458	dated	-0.3840871
-4.669519	dates	-0.2782167
-5.271579	dawn	-0.2042113
-4.157636	day	-0.4536556
-5.271579	day-to-day	-0.2307996
-4.317337	days	-0.3930027
-5.271579	dayton	-0.2037094
-4.157636	de	-0.475579
-5.271579	deadline	-0.2261404
-4.317337	deal	-0.51951
-4.125451	dealing	-1.173156
-4.970549	dealt	-0.4847433
-4.192398	death	-0.4295591
-4.493428	deaths	-0.5850716
-4.271579	debate	-0.4253026
-4.794458	debates	-0.3470816
-4.271579	debris	-0.3224875
-3.402347	debt	-0.6173653
-5.271579	debt-equity	-0.2308507
-5.271579	debt-management	-0.2307903
-5.271579	debt-reduction	-0.2303345
-4.669519	debt-relief	-0.4162748
-4.669519	debt-service	-0.4168748
-4.192398	debt-servicing	-0.6638548
-5.271579	debt-sustainability	-0.2306648
-5.271579	debt-treatment	-0.2303345
-4.669519	debtor	-0.79893
-5.271579	debtors	-0.2037094
-4.493428	debts	-0.5758631
-3.703377	decade	-0.7151367
-4.794458	decades	-0.4750231
-4.970549	deceased	-0.2305717
-2.498524	december	-1.433629
-5.271579	decentralization	-0.2123404
-4.493428	decide	-0.3348163
-4.067459	decided	-0.818676
-3.1317	decides	-1.820058
-3.373952	decision	-0.5938351
-4.230186	decision-making	-0.4209605
-3.486249	decisions	-0.5574557
-4.794458	decisive	-0.3837313
-2.859959	declaration	-1.178519
-4.493428	declarations	-0.4715171
-4.368489	declared	-0.2332032
-4.669519	declares	-0.2902042
-4.493428	declining	-0.4391427
-3.809181	decolonization	-0.574519
-5.271579	decreased	-0.2302787
-4.426481	decree	-0.2978112
-4.970549	decrees	-0.2277115
-5.271579	dedication	-0.2280227
-4.970549	deem	-0.2302019
-4.970549	deemed	-0.4733415
-4.970549	deems	-0.2301274
-3.794458	deep	-1.164296
-4.572609	deepening	-0.299724
-5.271579	deeper	-0.2037094
-3.766429	deeply	-1.003175
-4.794458	defence	-0.3379275
-5.271579	defend	-0.1876692
-4.970549	defenders	-0.2028824
-4.970549	defer	-0.2302717
-4.669519	deferred	-0.8004572
-5.271579	deficiencies	-0.2042113
-5.271579	deficit	-0.2123404
-4.970549	define	-0.1671748
-4.794458	defined	-0.2205915
-4.970549	defining	-0.1838044
-4.794458	definition	-0.3379275
-5.271579	definitively	-0.1876692
-4.794458	defray	-0.4589828
-5.271579	defraying	-0.1876692
-4.368489	degradation	-0.2837449
-4.368489	degrading	-0.8425575
-5.271579	degree	-0.2042113
-5.271579	degrees	-0.2042113
-3.929156	delay	-0.359274
-4.970549	delays	-0.4777575
-4.970549	delegates	-0.198691
-5.271579	delegation	-0.2042113
-4.368489	delegations	-0.2257165
-4.970549	deliberate	-0.2307996
-4.970549	deliberately	-0.2308437
-4.572609	deliberations	-0.3206022
-4.970549	delimitation	-0.4610372
-4.970549	delivered	-0.4850497
-4.095488	delivery	-1.380179
-4.794458	demand	-0.4977006
-4.970549	demanded	-0.2269852
-4.157636	demands	-0.5517067
-5.271579	dembri	-0.229053
-5.271579	demining	-0.2037094
-4.426481	demobilization	-0.3747528
-4.970549	demobilize	-0.2286491
-5.271579	demobilized	-0.2308182
-3.64833	democracy	-0.9321866
-3.25039	democratic	-0.8447711
-4.125451	democratization	-0.4257571
-4.970549	demographic	-0.4876533
-5.271579	demolition	-0.2123404
-4.669519	demonstrable	-0.3399935
-4.970549	demonstrate	-0.226084
-4.794458	demonstrated	-0.3816462
-4.970549	demonstration	-0.4610372
-4.970549	demonstrations	-0.1839753
-4.794458	denial	-0.1860542
-4.970549	denied	-0.1847641
-3.970549	denmark	-1.295076
-5.271579	denounces	-0.1876692
-4.970549	deny	-0.2296872
-3.669519	department	-1.312287
-4.669519	departments	-0.2508419
-5.271579	dependant	-0.2306764
-5.271579	dependants	-0.2261404
-4.669519	dependency	-0.8004502
-4.493428	dependent	-0.4340223
-4.794458	depends	-0.198651
-4.970549	depletion	-0.4610372
-4.368489	deplores	-0.4835759
-4.794458	deploring	-0.4589828
-5.271579	deploy	-0.2303834
-4.970549	deploying	-0.1845005
-4.493428	deployment	-0.5895217
-5.271579	deployments	-0.2042113
-5.271579	deportation	-0.230011
-4.970549	depositary	-0.4610372
-4.970549	deposited	-0.2192761
-5.271579	depressed	-0.2306648
-5.271579	deprive	-0.2306392
-4.669519	deprived	-0.7738247
-5.271579	deprives	-0.2301926
-4.970549	depth	-0.1875613
-5.271579	deputy	-0.2295427
-4.970549	derived	-0.4876696
-4.794458	deriving	-0.5013247
-5.271579	descendants	-0.2209316
-4.572609	described	-0.7782938
-5.271579	describing	-0.2307531
-5.271579	description	-0.2042113
-3.929156	desertification	-1.096951
-4.970549	deserve	-0.2107515
-5.271579	design	-0.2042113
-5.271579	designation	-0.2042113
-4.230186	designed	-1.064844
-4.426481	desirability	-0.5148609
-4.669519	desire	-0.374998
-5.271579	desiring	-0.2165156
-5.271579	desirous	-0.2042113
-4.493428	desist	-0.6989952
-4.125451	despite	-0.5540671
-5.271579	destabilize	-0.2308205
-5.271579	destabilizing	-0.2308484
-5.271579	destination	-0.2123404
-5.271579	destiny	-0.2261404
-5.271579	destroy	-0.2300762
-5.271579	destroyed	-0.2308321
-5.271579	destroying	-0.2037094
-4.04113	destruction	-0.6671587
-5.271579	destructive	-0.2303903
-4.669519	detailed	-0.3397841
-5.271579	details	-0.2042113
-4.368489	detained	-0.2542914
-5.271579	detainee	-0.2261404
-4.572609	detainees	-0.3798828
-5.271579	detaining	-0.2306392
-5.271579	detectability	-0.2037094
-5.271579	detection	-0.2123404
-4.016306	detention	-0.4626587
-4.669519	detentions	-0.4408012
-5.271579	deteriorate	-0.2287822
-5.271579	deteriorating	-0.2299528
-4.572609	deterioration	-0.5806125
-4.271579	determination	-0.5219765
-4.317337	determine	-0.2818663
-4.669519	determined	-0.1822608
-4.970549	determines	-0.4845397
-4.572609	determining	-0.329329
-4.970549	detriment	-0.4610372
-4.493428	detrimental	-0.3687545
-4.493428	devastating	-0.4390288
-5.271579	devastation	-0.2308158
-3.809181	develop	-0.3075089
-3.25039	developed	-1.299007
-2.759696	developing	-1.373321
-2.373952	development	-1.038158
-4.572609	development-oriented	-0.2969573
-5.271579	development-related	-0.2306485
-4.794458	developmental	-0.2304927
-3.929156	developments	-0.6740693
-5.271579	develops	-0.2275359
-4.572609	devices	-0.1866
-4.970549	devise	-0.4875906
-4.970549	devising	-0.1875716
-5.271579	devote	-0.1876692
-4.794458	devoted	-0.3698418
-3.452035	dialogue	-0.8046507
-5.271579	dictatorship	-0.2123404
-4.970549	did	-0.4873139
-5.271579	died	-0.2300762
-5.271579	dieng	-0.2037094
-4.970549	differences	-0.2274141
-4.230186	different	-0.2300203
-4.970549	differential	-0.2305671
-5.271579	differentials	-0.2308484
-5.271579	differentiated	-0.2308275
-5.271579	differently	-0.2123404
-4.669519	difficult	-0.2287122
-3.970549	difficulties	-0.3489543
-4.970549	diffusion	-0.4610372
-4.669519	digital	-0.416819
-4.095488	dignity	-0.6854751
-4.368489	dimension	-0.2879659
-4.669519	dimensions	-0.3888132
-5.271579	diminish	-0.2308507
-4.970549	diminution	-0.175292
-4.970549	diplomacy	-0.1839753
-3.891368	diplomatic	-0.7895092
-5.271579	diplomats	-0.2123404
-4.794458	dire	-0.3835637
-3.992826	direct	-0.3943371
-4.426481	directed	-0.2968662
-5.271579	direction	-0.2042113
-4.493428	directly	-0.2340533
-4.230186	director	-1.240592
-4.572609	director-general	-0.7615734
-4.970549	directors	-0.1889507
-5.271579	directory	-0.2042113
-5.271579	disabilities	-0.2037094
-4.970549	disabled	-0.2035263
-4.970549	disadvantaged	-0.2121828
-4.368489	disappearance	-0.3773127
-4.016306	disappearances	-0.3846073
-4.493428	disappeared	-0.4826597
-5.271579	disappointment	-0.2287822
-4.572609	disarmament	-0.3445586
-5.271579	disarming	-0.2123404
-3.64833	disaster	-0.470666
-3.628126	disasters	-0.7898123
-5.271579	disbanding	-0.2042113
-5.271579	disbursed	-0.1876692
-5.271579	disbursement	-0.2042113
-4.230186	discharge	-0.4067334
-4.970549	discharging	-0.2291696
-5.271579	discouragement	-0.2042113
-5.271579	discourages	-0.2308414
-4.970549	discovery	-0.4610372
-4.970549	discretion	-0.175292
-5.271579	discriminate	-0.2306485
-5.271579	discriminates	-0.2306485
-5.271579	discriminating	-0.2261075
-3.824421	discrimination	-0.6902816
-4.669519	discriminatory	-0.4164842
-4.572609	discuss	-0.2033184
-4.970549	discussed	-0.4847433
-5.271579	discussing	-0.2209316
-4.669519	discussion	-0.4606268
-4.317337	discussions	-0.3889513
-4.970549	disease	-0.2036129
-4.970549	diseases	-0.1839753
-4.669519	disengagement	-0.8003224
-5.271579	disk	-0.2300901
-4.970549	dismay	-0.2256279
-5.271579	dismayed	-0.2277138
-5.271579	dismissed	-0.2282238
-4.794458	disparities	-0.2176262
-4.970549	disparity	-0.2206962
-4.669519	dispatch	-0.3797019
-5.271579	dispatched	-0.2209316
-5.271579	dispersal	-0.2165156
-5.271579	dispersion	-0.2123404
-3.658795	displaced	-1.185761
-4.271579	displacement	-1.175292
-5.271579	displacements	-0.2042113
-5.271579	displays	-0.2209316
-4.970549	disposal	-0.4605353
-4.970549	dispose	-0.4610372
-5.271579	dispossession	-0.2042113
-5.271579	disproportionate	-0.2307577
-4.493428	dispute	-0.3282965
-4.493428	disputes	-0.2524834
-4.970549	disregard	-0.4610372
-5.271579	disrupt	-0.1876692
-4.317337	disseminate	-0.2519384
-4.970549	disseminated	-0.4691663
-4.317337	disseminating	-0.5363749
-3.794458	dissemination	-0.898547
-5.271579	dissolution	-0.2042113
-5.271579	dissolves	-0.2123404
-5.271579	distant	-0.2308507
-4.493428	distinction	-0.2863072
-5.271579	distinctive	-0.2308368
-5.271579	distressed	-0.2282238
-5.271579	distribute	-0.2273556
-4.794458	distributed	-0.1931352
-5.271579	distributes	-0.2308158
-4.192398	distribution	-0.735382
-5.271579	district	-0.2209316
-5.271579	districts	-0.2209316
-4.669519	disturbed	-0.4133326
-4.794458	diverse	-0.38405
-4.067459	diversification	-0.6399294
-5.271579	diversified	-0.2308251
-4.794458	diversify	-0.1653006
-4.493428	diversifying	-0.3180164
-5.271579	diversion	-0.2042113
-3.703377	diversity	-0.5955088
-4.794458	divide	-0.3628134
-4.493428	division	-0.6731955
-5.271579	divisions	-0.2123404
-4.970549	divorced	-0.2308321
-4.317337	djibouti	-0.4249052
-3.873639	do	-0.9743036
-4.04113	document	-0.3086874
-4.125451	documentation	-0.2788717
-5.271579	documentation-	-0.2123404
-4.669519	documented	-0.398378
-4.04113	documents	-0.3042882
-5.271579	does	-0.230488
-5.271579	dogs	-0.2123404
-4.368489	doing	-0.4810099
-4.970549	dollar	-0.4841814
-3.809181	dollars	-0.6667064
-5.271579	domain	-0.2042113
-3.94936	domestic	-0.3168323
-5.271579	dominica	-0.2037094
-4.426481	dominican	-1.095145
-3.824421	done	-0.8708392
-3.794458	donor	-0.9080707
-3.992826	donors	-0.4940231
-5.271579	doses	-0.2037094
-4.794458	down	-0.227763
-3.479187	draft	-0.7510917
-5.271579	drafting	-0.2307763
-5.271579	drafts	-0.2307531
-5.271579	drain	-0.1876692
-5.271579	drainage	-0.2308089
-4.970549	dramatically	-0.2307949
-4.794458	draw	-0.2259524
-4.970549	drawing	-0.2278028
-4.970549	drawn	-0.2299667
-4.970549	draws	-0.4444951
-5.271579	driving	-0.230702
-5.271579	drop-out	-0.2308251
-4.095488	drought	-0.797464
-4.970549	droughts	-0.4605353
-3.891368	drug	-0.8466638
-4.669519	drugs	-0.4596389
-3.856606	due	-0.552286
-4.970549	duly	-0.4872232
-5.271579	dumping	-0.2300762
-5.271579	duplicate	-0.2297548
-5.271579	duplicating	-0.2308182
-4.794458	duplication	-0.3379275
-4.016306	durable	-0.8843965
-5.271579	duration	-0.2042113
-5.271579	durban	-0.2037094
-3.508151	during	-0.8843316
-4.192398	duties	-0.409564
-3.929156	duty	-0.9650362
-4.794458	duty-	-0.4836541
-5.271579	duty-free	-0.2308484
-4.426481	dynamic	-0.3396344
-5.271579	dynamics	-0.2123404
-3.531216	e	-1.913608
-4.970549	e.	-0.2307229
-5.271579	e.g.	-0.2037094
-3.669519	each	-0.5075569
-5.271579	earlier	-0.2307531
-4.794458	earliest	-0.383936
-3.909851	early	-0.5707631
-5.271579	earmark	-0.2308507
-4.794458	earnings	-0.3567083
-4.493428	earth	-0.2698288
-5.271579	earthquakes	-0.2037094
-5.271579	ease	-0.2307647
-3.452035	east	-0.8917978
-5.271579	easter	-0.2037094
-4.095488	eastern	-0.4636189
-5.271579	easy-to-measure	-0.2308437
-5.271579	ecological	-0.2307345
-5.271579	ecologically	-0.2308344
-2.683868	economic	-1.027202
-4.669519	economically	-0.340361
-3.658795	economies	-1.025588
-3.618366	economy	-0.7125294
-4.970549	ecosystem	-0.2036426
-4.794458	ecosystems	-0.3374023
-4.230186	ecuador	-1.052038
-5.271579	editorial	-0.2306764
-5.271579	editors	-0.2261404
-5.271579	educating	-0.230774
-3.555576	education	-0.7402921
-3.780217	educational	-0.815443
-3.7401	effect	-0.5142916
-4.669519	effected	-0.2930288
-5.271579	effecting	-0.2307484
-3.064753	effective	-0.4452628
-3.572609	effectively	-0.3870417
-4.095488	effectiveness	-0.6200141
-3.572609	effects	-0.9311701
-3.94936	efficiency	-0.6227042
-4.271579	efficient	-0.4428791
-4.794458	efficiently	-0.1821724
-4.271579	effort	-0.3289755
-2.715276	efforts	-1.242393
-4.368489	egypt	-0.9270989
-4.669519	eighteen	-0.3954338
-5.271579	eighth	-0.2297571
-4.669519	either	-0.1932772
-3.909851	el	-1.380158
-5.271579	el-ghazal	-0.2037094
-4.970549	el-hamra	-0.4876743
-4.794458	el-sheikh	-0.3571266
-4.794458	elaborate	-0.3534124
-4.970549	elaborated	-0.4777575
-4.794458	elaborating	-0.3806701
-4.271579	elaboration	-1.1845
-4.970549	elderly	-0.2074214
-5.271579	elders	-0.2037094
-4.794458	elect	-0.1984407
-4.067459	elected	-0.427967
-5.271579	electing	-0.2165156
-4.794458	election	-0.3570499
-3.794458	elections	-0.6105388
-4.493428	electoral	-0.281114
-5.271579	electorate	-0.2277138
-4.493428	electronic	-0.5207146
-5.271579	electronically	-0.2165156
-4.572609	element	-0.272439
-4.125451	elements	-0.478612
-4.970549	eleventh	-0.4874558
-4.970549	eligibility	-0.230695
-4.426481	eligible	-0.3189394
-3.840215	eliminate	-0.6476658
-4.970549	eliminated	-0.2235273
-4.794458	eliminating	-0.1858687
-3.970549	elimination	-1.295578
-5.271579	elsewhere	-0.2037094
-4.970549	elucidation	-0.4610372
-5.271579	em-i	-0.2275804
-4.970549	emanating	-0.4868369
-5.271579	emancipated	-0.2261404
-5.271579	emancipation	-0.2304043
-4.794458	embargo	-0.384036
-5.271579	embarking	-0.2261075
-4.271579	embodied	-1.031471
-4.794458	embodying	-0.3410783
-5.271579	embracing	-0.2307252
-4.794458	emerged	-0.3813421
-5.271579	emergence	-0.2123404
-4.572609	emergencies	-0.3342095
-3.669519	emergency	-0.5404337
-4.970549	emergency-related	-0.4873953
-4.368489	emerging	-0.2756093
-5.271579	eminent	-0.2308414
-4.572609	emirates	-0.7610716
-4.230186	emphasis	-0.5291849
-5.271579	emphasize	-0.1876692
-5.271579	emphasized	-0.1876692
-3.414247	emphasizes	-1.209545
-3.581383	emphasizing	-1.091537
-4.970549	employ	-0.485211
-4.970549	employees	-0.1936545
-5.271579	employer	-0.2042113
-5.271579	employing	-0.229559
-3.891368	employment	-0.3280222
-5.271579	empowered	-0.2165156
-5.271579	empowering	-0.2306392
-4.970549	empowerment	-0.4610372
-5.271579	empowers	-0.2304578
-3.766429	enable	-0.8334941
-5.271579	enabled	-0.1876692
-5.271579	enables	-0.2306392
-3.94936	enabling	-0.5305612
-4.794458	enact	-0.203098
-4.970549	enacting	-0.2036995
-5.271579	enactment	-0.2042113
-4.493428	encountered	-0.3089056
-3.970549	encourage	-0.2736194
-4.669519	encouraged	-0.3218789
-4.970549	encouragement	-0.4610372
-3.116243	encourages	-0.7688756
-3.909851	encouraging	-0.672116
-3.515704	end	-0.6565095
-4.970549	endanger	-0.4444951
-4.970549	endangered	-0.2297385
-4.970549	endeavour	-0.198691
-4.794458	endeavours	-0.2060432
-4.572609	ended	-0.7880734
-4.572609	ending	-0.452973
-5.271579	endogenous	-0.2306462
-4.493428	endorsed	-0.293355
-4.794458	endorsement	-0.3548422
-4.04113	endorses	-1.388036
-4.970549	endowment	-0.4873837
-4.970549	ends	-0.198691
-5.271579	endure	-0.2037094
-5.271579	energies	-0.2037094
-3.873639	energy	-0.3191508
-5.271579	energy-based	-0.2307577
-4.794458	enforce	-0.4589828
-3.909851	enforced	-1.067822
-4.271579	enforcement	-0.4872481
-4.572609	engage	-0.362463
-4.669519	engaged	-0.4067293
-4.426481	engagement	-0.3422114
-5.271579	engine	-0.2042113
-5.271579	engineering	-0.2261404
-5.271579	engines	-0.2042113
-5.271579	english	-0.2308112
-3.458666	enhance	-0.7495686
-3.715276	enhanced	-0.5006335
-4.016306	enhancement	-1.252112
-4.970549	enhances	-0.2306345
-3.840215	enhancing	-0.5596561
-4.572609	enjoy	-0.2723079
-5.271579	enjoyed	-0.2306857
-5.271579	enjoying	-0.2304345
-3.873639	enjoyment	-1.555151
-4.970549	enjoys	-0.1876307
-5.271579	enlarged	-0.2306857
-4.970549	enlargement	-0.4610372
-5.271579	enlarging	-0.2275359
-4.794458	enlist	-0.1671559
-4.970549	enlisting	-0.4875069
-5.271579	enormous	-0.2300156
-5.271579	enrich	-0.1876692
-5.271579	enrichment	-0.2042113
-4.317337	enshrined	-0.9900786
-2.937125	ensure	-0.8031245
-4.794458	ensured	-0.3521181
-4.794458	ensures	-0.225682
-3.658795	ensuring	-0.5124023
-4.970549	entails	-0.2035931
-4.572609	enter	-0.6114178
-4.794458	entered	-0.501711
-5.271579	enterprise	-0.2290133
-5.271579	enterprise-to-enterprise	-0.2298224
-4.426481	enterprises	-0.5300248
-4.493428	entire	-0.3803631
-4.125451	entities	-0.3435771
-3.203393	entitled	-1.972503
-4.970549	entitlement	-0.1889507
-4.970549	entitlements	-0.1889507
-4.572609	entity	-0.2925177
-4.794458	entrusted	-0.4878293
-5.271579	entrusts	-0.1876692
-4.493428	entry	-0.6309637
-4.970549	enunciated	-0.2182415
-3.141245	environment	-0.9389675
-4.970549	environment-friendly	-0.4605353
-3.794458	environmental	-0.4135556
-4.970549	environmentally	-0.4876417
-5.271579	environments	-0.2279174
-4.669519	envisaged	-0.1987161
-4.230186	envoy	-0.2676475
-4.572609	epidemic	-0.2617798
-3.824421	equal	-0.5620238
-4.271579	equality	-0.4602455
-4.970549	equalization	-0.4873837
-4.794458	equally	-0.2177987
-5.271579	equatorial	-0.2308158
-5.271579	equilibrium	-0.2123404
-4.317337	equipment	-0.4099627
-3.618366	equitable	-0.5044633
-5.271579	equitably	-0.2308414
-4.271579	equity	-0.2899047
-5.271579	equivalencies	-0.2303531
-4.794458	equivalency	-0.5021155
-4.794458	equivalent	-0.3574381
-5.271579	equivalents	-0.2308019
-5.271579	era	-0.2308507
-4.493428	eradicate	-0.3020511
-5.271579	eradicating	-0.2305671
-3.396518	eradication	-0.9739057
-4.970549	eritrea	-0.4605353
-4.970549	erosion	-0.1839753
-5.271579	errors	-0.2308019
-4.572609	eruptions	-0.3618173
-4.493428	es-10	-0.6965646
-5.271579	es-v	-0.229053
-5.271579	escalation	-0.2261404
-3.43907	especially	-0.6940295
-5.271579	essence	-0.2042113
-3.809181	essential	-0.5320567
-4.669519	essentially	-0.3381515
-3.824421	establish	-0.4892029
-3.515704	established	-0.5805827
-5.271579	establishes	-0.1876692
-4.016306	establishing	-0.4309822
-3.452035	establishment	-1.329002
-4.669519	estimated	-0.3335826
-5.271579	estimates	-0.226387
-4.230186	estonia	-1.052038
-5.271579	ethic	-0.2042113
-4.794458	ethical	-0.2123162
-4.572609	ethiopia	-0.7610716
-3.809181	ethnic	-0.424431
-4.572609	ethnicity	-0.3397711
-3.408256	europe	-0.6982213
-3.809181	european	-0.5828716
-5.271579	evacuation	-0.2042113
-4.669519	evaluate	-0.2121391
-4.230186	evaluation	-0.4221683
-5.271579	evaluations	-0.2042113
-5.271579	eve	-0.2042113
-4.426481	even	-0.2897735
-3.809181	event	-0.7540084
-4.067459	events	-0.2727266
-4.572609	eventual	-0.2305182
-5.271579	ever	-0.2280227
-3.891368	every	-0.4252104
-4.669519	everyone	-0.3896924
-4.970549	everywhere	-0.4605353
-5.271579	eviction	-0.2042113
-5.271579	evictions	-0.230011
-5.271579	evidence	-0.2123404
-4.572609	evolution	-0.273725
-5.271579	evolving	-0.2123404
-5.271579	exacerbated	-0.2037094
-5.271579	exacerbating	-0.1876692
-4.368489	examination	-0.4216432
-5.271579	examinations	-0.2042113
-3.970549	examine	-0.640216
-4.095488	examined	-1.160936
-4.970549	examining	-0.4444951
-5.271579	example	-0.2037094
-5.271579	examples	-0.2042113
-4.970549	exceed	-0.4444951
-4.794458	except	-0.2179136
-4.970549	exception	-0.4610372
-4.572609	exceptional	-0.6121855
-4.368489	excessive	-0.3112713
-4.794458	excessively	-0.3842545
-3.970549	exchange	-0.6427897
-4.426481	exchanges	-0.3411231
-4.794458	exchanging	-0.5015295
-4.970549	excluded	-0.4868369
-4.970549	exclusion	-0.4868369
-5.271579	executed	-0.2279174
-4.157636	execution	-0.4065977
-3.824421	executions	-0.5497658
-3.753065	executive	-0.8917955
-4.970549	exemplary	-0.229806
-5.271579	exemplified	-0.2282238
-5.271579	exemplifies	-0.1876692
-5.271579	exemption	-0.2165156
-5.271579	exemptions	-0.2165156
-3.794458	exercise	-1.004467
-4.572609	exercised	-0.3115634
-4.669519	exercising	-0.7988484
-4.669519	exert	-0.4147432
-5.271579	exerted	-0.2282238
-5.271579	exhausted	-0.2037094
-5.271579	exhaustive	-0.2123404
-5.271579	exiled	-0.2308321
-4.493428	exist	-0.2776129
-4.426481	existence	-0.5561897
-3.680515	existing	-0.2501227
-4.794458	exists	-0.1878796
-4.970549	exit	-0.4868369
-4.271579	expand	-0.22325
-4.572609	expanded	-0.2296266
-4.669519	expanding	-0.1654817
-4.125451	expansion	-0.8174673
-5.271579	expatriate	-0.2306578
-5.271579	expect	-0.230011
-4.970549	expectation	-0.4845397
-5.271579	expectations	-0.2308484
-4.669519	expedite	-0.2971804
-4.493428	expeditious	-0.2816073
-4.970549	expeditiously	-0.1575873
-4.669519	expenditures	-0.1990238
-5.271579	expense	-0.2042113
-4.426481	expenses	-0.5662322
-4.04113	experience	-0.4014594
-4.572609	experienced	-0.3601318
-4.669519	experiences	-0.2831459
-4.317337	experiencing	-1.181493
-4.016306	expert	-0.3842633
-4.970549	expertise	-0.2062573
-4.125451	experts	-0.3846304
-5.271579	expiration	-0.2042113
-4.970549	expired	-0.4873418
-4.970549	explicit	-0.2308182
-4.970549	exploit	-0.2019868
-4.230186	exploitation	-0.4408532
-5.271579	exploiting	-0.1876692
-4.426481	exploration	-1.077132
-4.230186	explore	-0.3215408
-4.970549	exploring	-0.2278753
-4.271579	export	-0.5502551
-4.970549	exporters	-0.4610372
-5.271579	exporting	-0.2293166
-4.368489	exports	-0.3302416
-4.794458	exposed	-0.3418579
-5.271579	exposing	-0.2308507
-4.572609	express	-0.1820398
-3.794458	expressed	-0.5590194
-3.327096	expresses	-1.416441
-3.493428	expressing	-0.851529
-4.157636	expression	-0.9919106
-4.970549	expressions	-0.4610372
-5.271579	expulsion	-0.2037094
-4.04113	extend	-0.2697971
-4.067459	extended	-0.7352961
-4.794458	extending	-0.183185
-5.271579	extends	-0.2275359
-4.970549	extension	-0.2040506
-4.317337	extensive	-0.3794687
-5.271579	extensively	-0.230274
-4.317337	extent	-0.6723021
-3.766429	external	-0.5065084
-4.493428	extrabudgetary	-0.520182
-3.929156	extrajudicial	-1.334584
-4.572609	extraordinary	-0.2286304
-4.426481	extraterritorial	-0.6790646
-3.970549	extreme	-1.321933
-4.970549	extremely	-0.230781
-5.271579	extremist	-0.230702
-5.271579	extremists	-0.2037094
-3.715276	f	-1.159118
-4.970549	f.	-0.2307415
-4.572609	face	-0.2844588
-4.368489	faced	-0.5121615
-5.271579	faces	-0.2307484
-5.271579	faciliatation	-0.2042113
-3.508151	facilitate	-0.6224402
-4.157636	facilitating	-0.6856738
-4.794458	facilitation	-0.328719
-5.271579	facilitators	-0.2165156
-3.780217	facilities	-0.3472387
-3.909851	facility	-0.4637938
-4.317337	facing	-0.4362826
-3.780217	fact	-1.195148
-4.970549	fact-finding	-0.4869579
-5.271579	faction	-0.2308182
-5.271579	faction-ridden	-0.2308251
-4.669519	factions	-0.2877102
-5.271579	facto	-0.2300762
-4.426481	factor	-0.4102775
-4.669519	factors	-0.3078989
-5.271579	facts	-0.2307205
-4.794458	failed	-0.4878293
-4.368489	failure	-0.5254064
-4.970549	faipule	-0.2008727
-3.94936	fair	-0.5404838
-4.970549	fairly	-0.1931403
-4.493428	faith	-0.2160311
-4.669519	faithful	-0.3127049
-5.271579	faithfully	-0.2123404
-5.271579	faizabad	-0.2037094
-4.794458	falling	-0.3833891
-4.970549	falls	-0.2256185
-4.157636	families	-0.4621708
-4.426481	family	-0.4117489
-4.317337	far	-0.2778729
-5.271579	far-reaching	-0.2308065
-4.794458	fashion	-0.225903
-4.970549	fashioning	-0.4841814
-4.426481	faso	-1.068501
-5.271579	faster	-0.2306648
-4.970549	fate	-0.1845005
-4.317337	favour	-1.156733
-4.157636	favourable	-0.3329357
-4.970549	favourably	-0.1718051
-5.271579	favours	-0.1876692
-5.271579	fear	-0.2042113
-4.970549	feasible	-0.1839753
-5.271579	feature	-0.2042113
-3.658795	february	-0.5835184
-3.555576	federal	-1.416426
-5.271579	federated	-0.2292979
-3.94936	federation	-0.5778607
-5.271579	fellowships	-0.2165156
-4.970549	few	-0.230774
-3.34216	field	-1.008009
-3.970549	fields	-0.851768
-4.230186	fifth	-0.454547
-4.970549	fiftieth	-0.2297525
-4.794458	fifty	-0.5020946
-4.970549	fifty-eighth	-0.486583
-3.824421	fifty-fifth	-1.67682
-4.572609	fifty-first	-0.7871193
-4.669519	fifty-fourth	-0.3972441
-4.970549	fifty-ninth	-0.486583
-4.426481	fifty-second	-0.5650779
-3.703377	fifty-seventh	-1.578688
-3.081247	fifty-sixth	-2.192029
-4.970549	fifty-third	-0.2025427
-4.669519	fight	-0.41664
-4.230186	fighting	-0.2559845
-5.271579	figure	-0.2042113
-4.426481	fiji	-1.068501
-5.271579	file	-0.2042113
-4.970549	filed	-0.2205154
-5.271579	files	-0.1876692
-5.271579	filing	-0.2042113
-5.271579	fill	-0.2308484
-3.715276	final	-0.5226095
-4.794458	finalization	-0.4755249
-4.669519	finalize	-0.2672089
-5.271579	finalized	-0.2307182
-4.493428	finance	-0.5963435
-4.794458	financed	-0.3815971
-4.970549	finances	-0.175292
-2.966228	financial	-0.7695708
-4.970549	financially	-0.186811
-3.564009	financing	-0.8426971
-4.426481	find	-0.4588164
-4.572609	finding	-0.3691386
-4.230186	findings	-0.3236011
-5.271579	finds	-0.2277138
-3.94936	finland	-1.315279
-5.271579	firearms	-0.2209316
-4.230186	firm	-0.7760634
-5.271579	firmly	-0.2307972
-3.572609	first	-0.39844
-4.493428	fiscal	-0.3568494
-4.970549	fisheries	-0.2260793
-4.970549	fishing	-0.4691663
-4.317337	five	-0.3805201
-4.970549	five-year	-0.230695
-5.271579	fix	-0.1876692
-4.970549	fixed	-0.4850497
-4.426481	flagrant	-0.6469867
-5.271579	flemming	-0.2307972
-4.970549	flexibility	-0.2231395
-4.794458	flexible	-0.3559623
-5.271579	flexibly	-0.2037094
-5.271579	flights	-0.2037094
-5.271579	floating	-0.2308298
-5.271579	flooding	-0.2037094
-4.572609	floods	-0.2529491
-4.794458	floor	-0.3842057
-5.271579	flora	-0.2308507
-4.271579	flow	-1.204122
-3.753065	flows	-0.6265168
-5.271579	fluctuations	-0.2209316
-4.669519	focal	-0.8004409
-4.095488	focus	-0.4138736
-4.669519	focused	-0.3356957
-5.271579	focuses	-0.2261075
-4.794458	focusing	-0.4974211
-4.192398	follow	-0.9430766
-3.658795	follow-up	-0.7607068
-4.794458	followed	-0.3743325
-3.715276	following	-0.4909854
-3.780217	follows	-1.504764
-5.271579	fono	-0.2209316
-4.157636	food	-0.5286793
-5.271579	food-importing	-0.2300971
-5.271579	foods	-0.2280227
-4.794458	footing	-0.4836541
-4.970549	footnote	-0.2165108
-5.271579	footnoted	-0.2308437
-1.990091	for	-0.7142941
-3.458666	force	-0.66355
-3.929156	forced	-0.385917
-4.125451	forces	-0.235718
-4.794458	forcible	-0.3842545
-5.271579	forecasting	-0.2308205
-3.856606	foreign	-0.5975293
-5.271579	foremost	-0.1876692
-5.271579	forensic	-0.2308205
-5.271579	foreseeable	-0.2307089
-4.970549	foreseen	-0.4777575
-5.271579	forest	-0.2307996
-5.271579	forests	-0.2037094
-5.271579	forged	-0.2123404
-5.271579	forgiveness	-0.2261404
-4.157636	form	-0.3762359
-4.970549	formal	-0.2123331
-5.271579	formalized	-0.2308182
-4.970549	formally	-0.2209293
-4.572609	formation	-0.3263344
-5.271579	formed	-0.1876692
-3.658795	former	-0.8286566
-3.824421	forms	-1.335117
-4.368489	formulate	-0.376999
-4.970549	formulated	-0.2019818
-4.794458	formulating	-0.3791514
-4.794458	formulation	-0.4755249
-4.04113	forth	-1.44869
-4.368489	forthcoming	-0.4065948
-5.271579	forthwith	-0.2275359
-4.426481	fortieth	-0.5451316
-5.271579	forty	-0.230781
-5.271579	forty-first	-0.2297571
-5.271579	forty-five	-0.230781
-4.493428	forty-fourth	-0.6159539
-4.669519	forty-seventh	-0.4157089
-4.368489	forty-third	-0.9531466
-4.04113	forum	-0.6269689
-4.426481	forums	-0.2763893
-4.271579	forward	-0.4245915
-4.317337	foster	-0.2071505
-4.572609	fostering	-0.202689
-4.970549	fosters	-0.1876229
-4.794458	found	-0.3813374
-4.426481	foundation	-0.3418267
-4.426481	foundations	-0.2870364
-5.271579	founded	-0.2037094
-4.125451	four	-0.3976259
-4.157636	fourth	-0.3947103
-4.368489	fragile	-0.2968824
-4.794458	frame	-0.1887868
-3.337081	framework	-1.186262
-4.493428	frameworks	-0.2929012
-3.909851	france	-1.560419
-5.271579	frankfurt	-0.2037094
-3.766429	free	-0.3967095
-5.271579	freed	-0.2304462
-3.581383	freedom	-1.206049
-3.408256	freedoms	-0.7768158
-4.04113	freely	-0.3587557
-4.669519	french	-0.3218717
-4.970549	frente	-0.4876626
-4.970549	frequency	-0.2076788
-4.970549	frequent	-0.2304624
-5.271579	frequently	-0.2307949
-4.426481	freshwater	-0.4071267
-5.271579	friday	-0.2123404
-4.572609	friendly	-0.7881315
-4.970549	friendship	-0.4876487
-5.271579	frivolous	-0.2252774
-2.712871	from	-0.470292
-4.794458	front	-0.1866412
-5.271579	frontiers	-0.2037094
-5.271579	fuel	-0.226387
-3.766429	fulfil	-1.080186
-4.970549	fulfilled	-0.2302321
-4.572609	fulfilling	-0.3241176
-4.230186	fulfilment	-1.240854
-3.13804	full	-0.7262054
-4.970549	full-scale	-0.2307856
-5.271579	full-time	-0.2302438
-5.271579	fuller	-0.2297501
-4.426481	fullest	-0.5931534
-3.222361	fully	-0.5091488
-4.970549	function	-0.2042039
-5.271579	functional	-0.2308019
-3.909851	functioning	-1.023266
-4.04113	functions	-0.4058531
-3.167775	fund	-0.841234
-5.271579	fund-raising	-0.2300156
-3.34216	fundamental	-1.05794
-5.271579	funded	-0.2308298
-3.794458	funding	-0.3892493
-3.608821	funds	-0.6965376
-2.851623	further	-0.4126408
-4.970549	furtherance	-0.4610372
-4.572609	furthering	-0.5485885
-3.479187	future	-0.3751265
-3.824421	g	-1.433842
-4.368489	gabon	-0.9270989
-5.271579	gali	-0.2308507
-4.669519	gambia	-0.7733228
-4.317337	gap	-0.6850345
-4.669519	gaps	-0.2826072
-5.271579	gathered	-0.2287822
-4.493428	gaza	-0.4936301
-5.271579	gc	-0.229053
-5.271579	geared	-0.2165156
-5.271579	gemena	-0.2123404
-3.891368	gender	-0.4576572
-5.271579	gender-	-0.2123404
-4.794458	gender-balanced	-0.3837173
-4.970549	gender-sensitive	-0.2307461
-5.271579	gender-sensitization	-0.2306624
-5.271579	gender-specific	-0.2308461
-2.526504	general	-1.388363
-5.271579	generalized	-0.2300901
-4.794458	generally	-0.2036624
-5.271579	generating	-0.2304113
-4.970549	generation	-0.175292
-4.669519	generations	-0.2064712
-4.230186	generous	-0.3956153
-4.493428	generously	-0.614161
-4.970549	genetic	-0.4873139
-3.508151	geneva	-1.098538
-4.317337	genocide	-0.8237583
-4.192398	genuine	-0.3443584
-4.970549	geographic	-0.2302135
-4.271579	geographical	-0.3248001
-4.230186	georgia	-1.052038
-4.669519	geostationary	-0.8004572
-3.840215	germany	-1.420014
-5.271579	gerold	-0.2308507
-4.669519	ghana	-0.7733228
-4.04113	girls	-0.6186027
-3.856606	give	-0.3538421
-3.94936	given	-0.3707554
-4.970549	giving	-0.1876024
-3.289308	global	-0.466101
-3.493428	globalization	-0.7129568
-4.669519	globalizing	-0.4164028
-4.794458	globally	-0.4922453
-5.271579	go	-0.2308507
-4.493428	goal	-0.4869139
-3.94936	goals	-0.8269358
-3.992826	golan	-0.4401164
-5.271579	gone	-0.2308182
-3.856606	good	-0.8406529
-4.970549	good-neighbourliness	-0.1931403
-4.970549	good-neighbourly	-0.4875953
-4.368489	goods	-0.4393339
-3.909851	governance	-0.5982041
-5.271579	governed	-0.2282238
-3.891368	governing	-0.7894723
-2.896831	government	-1.02859
-4.368489	governmental	-0.4092963
-3.1317	governments	-1.036217
-4.794458	governor	-0.4755249
-5.271579	governors	-0.2042113
-4.493428	grade	-0.340993
-5.271579	grades	-0.2308507
-4.794458	gradual	-0.3656923
-4.192398	grant	-0.2853106
-4.794458	granted	-0.2252468
-3.599481	granting	-1.57522
-4.669519	grants	-0.3980797
-5.271579	grass-roots	-0.2306973
-5.271579	gratification	-0.2277138
-4.317337	gratitude	-0.5644627
-3.909851	grave	-0.8232313
-4.368489	gravely	-0.9538147
-4.970549	gravity	-0.4610372
-3.766429	great	-0.8468372
-3.873639	greater	-0.3149658
-4.794458	greatest	-0.3840453
-4.794458	greatly	-0.3699042
-3.970549	greece	-1.295076
-5.271579	green	-0.2308507
-4.794458	grenada	-0.4750231
-5.271579	grenadines	-0.2037094
-3.970549	gross	-0.6632147
-4.794458	ground	-0.2152094
-5.271579	ground-based	-0.2308507
-4.669519	grounds	-0.3894325
-3.207121	group	-1.000126
-4.368489	groupings	-0.9276007
-3.458666	groups	-0.673645
-5.271579	grow	-0.2303973
-4.095488	growing	-0.3568528
-3.531216	growth	-1.01745
-3.891368	guam	-0.3250937
-4.157636	guarantee	-0.439819
-5.271579	guaranteeing	-0.2305183
-4.572609	guarantees	-0.1490224
-3.715276	guatemala	-0.5233207
-4.970549	guatemalan	-0.2301902
-5.271579	guayaquil	-0.2037094
-4.572609	guidance	-0.2824864
-4.493428	guide	-0.1567392
-3.970549	guided	-1.227283
-4.317337	guidelines	-0.6905618
-4.368489	guiding	-0.4837406
-4.794458	guilty	-0.1834987
-4.067459	guinea	-1.203305
-5.271579	gulf	-0.2303531
-5.271579	gunmen	-0.2037094
-4.368489	guyana	-0.9270989
-3.992826	h	-1.143695
-3.531216	habitat	-1.324449
-4.04113	habitual	-1.417051
-4.016306	had	-0.3333699
-4.572609	hague	-0.2915028
-3.703377	haiti	-0.491051
-4.192398	haitian	-0.5224449
-5.271579	haitians	-0.2037094
-4.669519	halt	-0.1690168
-5.271579	halted	-0.2261404
-5.271579	halve	-0.2037094
-4.970549	halving	-0.4605353
-5.271579	hammarskjöld	-0.2308461
-4.970549	hand	-0.2034817
-4.970549	harare	-0.2255009
-5.271579	harass	-0.2308344
-4.157636	harassment	-0.4475524
-5.271579	hard-currency	-0.2308019
-4.970549	hardship	-0.2123331
-5.271579	harm	-0.2037094
-4.970549	harmful	-0.2307322
-5.271579	harmonious	-0.2308507
-4.368489	harmonization	-0.589974
-4.970549	harmonize	-0.2283944
-4.970549	harmonizing	-0.1671748
-4.970549	harmony	-0.4829663
-5.271579	harsh	-0.2308089
-3.151005	has	-0.5445389
-5.271579	hate	-0.2308461
-5.271579	hatred	-0.2123404
-4.669519	havana	-0.7996244
-2.939141	have	-0.5202234
-4.970549	haven	-0.1884308
-5.271579	havens	-0.2037094
-3.267258	having	-1.090803
-4.794458	hazardous	-0.2118503
-5.271579	hazards	-0.230011
-4.192398	he	-0.4630702
-4.970549	headquarter	-0.4691663
-3.856606	headquarters	-0.3443917
-3.753065	heads	-1.504837
-3.780217	health	-0.555205
-5.271579	health-care	-0.2308507
-5.271579	healthy	-0.2305392
-4.794458	hear	-0.3206018
-4.669519	hearing	-0.3869574
-4.970549	hearings	-0.2275921
-5.271579	heart	-0.2042113
-3.824421	heavily	-1.677927
-4.970549	heavy	-0.230846
-5.271579	hebron	-0.226387
-4.970549	heinous	-0.4876487
-5.271579	heirs	-0.2042113
-3.128564	held	-1.029235
-4.317337	helena	-0.352994
-5.271579	helms-burton	-0.2307996
-4.067459	help	-0.2641588
-5.271579	helpful	-0.2306927
-4.970549	helsinki	-0.2306089
-5.271579	hema	-0.2123404
-5.271579	hemispheric	-0.2307345
-5.271579	hence	-0.2304206
-4.970549	henceforth	-0.2261075
-3.824421	her	-0.2745041
-5.271579	herat	-0.2037094
-5.271579	herein	-0.2252774
-5.271579	hereinafter	-0.230788
-4.271579	heritage	-0.4503107
-5.271579	herrmann	-0.2037094
-3.929156	herzegovina	-0.7816001
-5.271579	hidden	-0.2308437
-3.385088	high	-0.8843426
-3.64833	high-level	-0.7063474
-4.970549	high-priority	-0.4876347
-5.271579	high-quality	-0.2308391
-5.271579	high-ranking	-0.230688
-4.157636	higher	-0.5831401
-4.095488	highest	-0.4566028
-5.271579	highland	-0.2123404
-5.271579	highlight	-0.2209316
-5.271579	highlighted	-0.1876692
-4.970549	highlighting	-0.4444951
-5.271579	highlights	-0.1876692
-4.426481	highly	-0.327171
-3.909851	him	-0.8273788
-5.271579	hinder	-0.1876692
-5.271579	hindering	-0.1876692
-5.271579	hindrances	-0.2277138
-3.368489	his	-0.6038853
-4.317337	historic	-0.3081687
-4.426481	historical	-0.3557053
-4.970549	history	-0.1839753
-3.970549	hiv	-1.318947
-3.809181	hoc	-0.7147061
-4.192398	hold	-0.1826181
-3.992826	holding	-0.6760293
-4.970549	holiday	-0.2015047
-5.271579	holidays	-0.2042113
-5.271579	holiness	-0.2308507
-4.794458	holistic	-0.2122288
-4.794458	holy	-0.2307786
-5.271579	home	-0.2037094
-5.271579	homeland	-0.2037094
-4.192398	homes	-0.5220973
-4.669519	honduras	-0.7733228
-5.271579	honestly	-0.2123404
-5.271579	honesty	-0.2037094
-4.794458	honour	-0.1556712
-5.271579	honoured	-0.2292349
-4.368489	hope	-0.7928286
-5.271579	hopelessness	-0.2308228
-4.970549	hopes	-0.4845397
-5.271579	hospital	-0.2287822
-4.970549	hospitals	-0.1839753
-3.727511	host	-0.8344766
-5.271579	hostage-taking	-0.2037094
-4.669519	hosted	-0.4664222
-4.04113	hostilities	-0.3754655
-4.493428	hosting	-0.2315392
-4.669519	house	-0.3902561
-4.669519	housing	-0.17289
-4.192398	how	-0.450703
-4.426481	however	-1.068501
-2.442919	human	-1.731588
-2.833828	humanitarian	-1.097428
-4.572609	humanity	-0.3828631
-4.970549	humankind	-0.4605353
-4.669519	hundred	-0.3983829
-4.230186	hungary	-1.052038
-4.794458	hunger	-0.4750231
-4.493428	hurricane	-0.6695906
-4.669519	hurricanes	-0.293661
-5.271579	hydrocarbons	-0.2261404
-3.638111	i	-0.8923025
-5.271579	i.a	-0.2042113
-5.271579	i.b	-0.2042113
-5.271579	i.f	-0.2037094
-5.271579	i.h	-0.2042113
-5.271579	ibero-american	-0.2308344
-4.368489	iceland	-0.9270989
-4.970549	id	-0.2308484
-4.572609	ideas	-0.2037613
-4.970549	identical	-0.2159797
-4.970549	identifiable	-0.2030806
-4.271579	identification	-0.8834653
-4.317337	identified	-0.2934986
-4.016306	identify	-0.2565195
-4.426481	identifying	-0.2263297
-4.426481	identity	-0.2959246
-5.271579	ideological	-0.2037094
-3.891368	if	-0.3424768
-5.271579	ignorance	-0.2307647
-3.515704	ii	-0.9384352
-5.271579	ii.a	-0.2042113
-5.271579	ii.b	-0.2042113
-4.970549	ii.e	-0.4610372
-5.271579	ii.f	-0.2037094
-5.271579	ii.g	-0.2042113
-3.658795	iii	-0.7548603
-5.271579	iii.c	-0.2042113
-5.271579	ill	-0.2037094
-4.794458	ill-treatment	-0.1685181
-3.794458	illegal	-0.3921009
-5.271579	illegality	-0.2042113
-4.794458	illegally	-0.5021527
-4.572609	illicit	-0.3726256
-4.970549	illiteracy	-0.1839753
-5.271579	illustrated	-0.2282238
-5.271579	images	-0.2123404
-4.970549	imbalance	-0.2205201
-4.794458	imbalances	-0.1734473
-4.192398	immediate	-0.2110775
-4.095488	immediately	-0.2897556
-4.669519	immigration	-0.1782084
-5.271579	imminent	-0.2300762
-3.970549	immunities	-0.9672424
-4.970549	immunity	-0.2031946
-5.271579	immunization	-0.2123404
-5.271579	immuno-deficiency	-0.2308321
-4.04113	immunodeficiency	-1.255231
-3.515704	impact	-0.9720011
-4.794458	impacts	-0.328719
-5.271579	impair	-0.1876692
-4.230186	impartial	-0.3045974
-4.230186	impartiality	-0.6062493
-4.970549	impede	-0.1876307
-4.970549	impeded	-0.1847641
-4.970549	impedes	-0.4444951
-5.271579	impediment	-0.2165156
-5.271579	impediments	-0.2209316
-5.271579	impeding	-0.1876692
-4.493428	imperative	-0.3029417
-5.271579	imperatives	-0.2042113
-5.271579	impetus	-0.2165156
-3.280353	implement	-0.6651897
-2.595801	implementation	-1.549934
-4.271579	implemented	-0.2424476
-3.703377	implementing	-0.5107332
-4.125451	implications	-0.7243036
-5.271579	imply	-0.2308484
-5.271579	import	-0.2042113
-2.941165	importance	-1.469678
-3.539185	important	-0.4291956
-4.970549	imports	-0.2033159
-4.970549	impose	-0.4843618
-4.04113	imposed	-0.8790892
-4.794458	imposing	-0.2271962
-4.669519	imposition	-0.7738247
-4.970549	imprisoned	-0.2034793
-5.271579	imprisonment	-0.2037094
-3.7401	improve	-0.5939194
-4.095488	improved	-0.3920338
-3.94936	improvement	-1.079654
-4.794458	improvements	-0.3465674
-3.909851	improving	-0.5616735
-4.04113	impunity	-0.4460478
-1.646164	in	-0.9860665
-4.572609	in-depth	-0.2305159
-5.271579	in-kind	-0.2306741
-5.271579	inaccurate	-0.2300762
-5.271579	inadequacy	-0.2042113
-5.271579	inadequate	-0.230609
-4.794458	inadmissibility	-0.4755249
-5.271579	inadmissible	-0.2303694
-4.368489	inalienable	-0.587279
-5.271579	inauguration	-0.2209316
-4.970549	incentives	-0.2062573
-4.970549	inception	-0.175292
-5.271579	incidence	-0.2042113
-4.970549	incident	-0.228579
-4.572609	incidents	-0.1698439
-5.271579	incitement	-0.2165156
-3.479187	include	-0.8387208
-4.572609	included	-0.7782938
-4.426481	includes	-0.4178088
-2.620301	including	-0.494713
-4.317337	inclusion	-0.5007199
-4.493428	inclusive	-0.5017932
-4.192398	income	-0.245208
-5.271579	income-generation	-0.2123404
-4.970549	incomes	-0.1931403
-4.970549	incompatible	-0.4847433
-4.794458	inconsistent	-0.4992311
-5.271579	incorporate	-0.230767
-4.970549	incorporated	-0.4872232
-5.271579	incorporates	-0.2037094
-5.271579	incorporating	-0.2273556
-4.794458	incorporation	-0.3571538
-3.715276	increase	-0.5657301
-3.891368	increased	-0.1520038
-4.970549	increases	-0.2209269
-3.766429	increasing	-0.4148288
-4.426481	increasingly	-0.2306718
-4.970549	incurred	-0.4850497
-3.794458	indebted	-1.067896
-5.271579	indebtedness	-0.2165156
-5.271579	indemnity	-0.2252774
-3.390765	independence	-1.064357
-3.794458	independent	-0.6072
-5.271579	independently	-0.2123404
-4.970549	index	-0.198691
-4.095488	india	-1.176976
-5.271579	indias	-0.2037094
-5.271579	indicate	-0.1876692
-4.426481	indicated	-0.4496214
-4.669519	indicating	-0.2828381
-4.669519	indicators	-0.2980782
-4.970549	indices	-0.2065203
-4.970549	indicted	-0.2304508
-4.271579	indigenous	-0.4112236
-5.271579	indirect	-0.2308251
-4.317337	indiscriminate	-0.4199642
-4.572609	indispensable	-0.3907313
-4.192398	individual	-0.2970475
-5.271579	individually	-0.2123404
-3.929156	individuals	-0.4567089
-4.493428	indivisible	-0.6726936
-3.992826	indonesia	-0.9434223
-5.271579	indonesian	-0.230774
-3.703377	industrial	-0.7080874
-4.669519	industrialization	-0.20257
-4.493428	industrialized	-0.6983008
-4.669519	industries	-0.2776718
-4.572609	industry	-0.2827852
-4.970549	ineffective	-0.2307554
-4.970549	inequalities	-0.2019818
-5.271579	infection	-0.2037094
-5.271579	infectious	-0.2308484
-4.970549	inflation	-0.198691
-5.271579	inflicted	-0.230274
-4.794458	influence	-0.1969081
-5.271579	influenced	-0.2209316
-5.271579	influencing	-0.2304601
-4.368489	inform	-0.4841442
-4.368489	informal	-0.416547
-5.271579	informally	-0.2279174
-5.271579	informatics	-0.2042113
-2.833828	information	-0.7257628
-5.271579	informational	-0.2306903
-5.271579	informative	-0.2037094
-3.970549	informed	-1.167812
-5.271579	informing	-0.1876692
-5.271579	infrastructural	-0.230781
-3.909851	infrastructure	-0.4347607
-4.794458	infrastructures	-0.3655564
-5.271579	infringe	-0.230274
-4.157636	inhabitants	-0.9877694
-4.970549	inherent	-0.4777575
-4.794458	inhibits	-0.4589828
-4.157636	inhuman	-0.6118867
-4.970549	initial	-0.2306508
-5.271579	initialled	-0.2209316
-5.271579	initially	-0.2308414
-4.794458	initiate	-0.2027907
-4.970549	initiated	-0.2278028
-5.271579	initiating	-0.2308321
-4.493428	initiation	-0.4622456
-3.715276	initiative	-0.5198578
-3.824421	initiatives	-0.2964714
-4.669519	injuries	-0.3847384
-5.271579	injuring	-0.2308019
-4.794458	injurious	-0.383424
-4.669519	injury	-0.1830709
-5.271579	injustices	-0.2037094
-4.970549	innocent	-0.2307879
-5.271579	innovation	-0.2037094
-4.970549	innovations	-0.4691663
-4.016306	innovative	-0.3347722
-4.368489	input	-0.4809721
-4.493428	inputs	-0.3113938
-5.271579	inquiries	-0.2209316
-4.794458	inquiry	-0.2255456
-4.970549	insecurity	-0.1931403
-5.271579	inserted	-0.2280227
-4.970549	inside	-0.4874674
-5.271579	insights	-0.2123404
-5.271579	insisted	-0.2277138
-4.970549	insofar	-0.4848486
-4.970549	inspection	-0.4876487
-5.271579	instability	-0.2252774
-4.794458	installations	-0.1698947
-5.271579	instance	-0.2282238
-4.970549	instances	-0.175292
-4.794458	instead	-0.3573392
-5.271579	instigate	-0.2037094
-3.590338	institute	-0.6774405
-4.794458	institutes	-0.2044336
-4.493428	institution	-0.2454341
-4.970549	institution-building	-0.2035783
-4.125451	institutional	-0.4461167
-5.271579	institutionalized	-0.2300901
-3.181674	institutions	-0.8921404
-5.271579	instruction	-0.2308507
-4.317337	instrument	-0.3260513
-5.271579	instrumental	-0.2209316
-3.572609	instruments	-0.7418757
-4.669519	insufficient	-0.2028799
-5.271579	insufficiently	-0.2308484
-4.970549	insurance	-0.2036649
-5.271579	insurgent	-0.230702
-4.271579	integral	-1.230728
-4.669519	integrate	-0.2301507
-3.753065	integrated	-0.3916068
-5.271579	integrates	-0.2273556
-4.669519	integrating	-0.2280741
-3.564009	integration	-0.6824141
-4.04113	integrity	-0.4597549
-4.426481	intellectual	-1.095545
-4.970549	intellectuals	-0.207387
-4.426481	intended	-0.3044735
-4.572609	intensification	-0.7615734
-4.970549	intensified	-0.4691663
-3.94936	intensify	-0.3546633
-5.271579	intensifying	-0.2302973
-4.970549	intensity	-0.2024906
-4.970549	intensive	-0.229594
-5.271579	intent	-0.2123404
-4.317337	intention	-0.8287337
-5.271579	intentionally	-0.2308368
-5.271579	intentions	-0.2123404
-3.238155	inter	-2.037175
-4.067459	inter-agency	-0.4320627
-4.493428	inter-american	-0.3426833
-4.970549	inter-congolese	-0.2303322
-4.493428	inter-korean	-0.4388381
-4.230186	inter-parliamentary	-1.079109
-4.970549	inter-sessional	-0.2300622
-5.271579	inter-state	-0.2308182
-5.271579	interact	-0.2279174
-4.368489	interaction	-0.5438793
-4.970549	interactive	-0.2303391
-5.271579	interdepartmental	-0.230767
-4.157636	interdependence	-0.4525822
-5.271579	interdependencies	-0.2306229
-4.230186	interdependent	-0.9242448
-5.271579	interdisciplinary	-0.2307787
-3.64833	interest	-0.6274448
-4.067459	interested	-0.2993248
-3.766429	interests	-1.07102
-4.669519	interference	-0.1695523
-5.271579	interfering	-0.2209316
-3.303096	intergovernmental	-0.9298978
-3.691796	interim	-0.7013707
-5.271579	interlinkage	-0.2042113
-5.271579	interlinkages	-0.2037094
-5.271579	interlocking	-0.2308182
-5.271579	intermediary	-0.2037094
-4.125451	internal	-0.2887862
-3.909851	internally	-1.380116
-2.246683	international	-1.108699
-4.426481	internationally	-0.5462743
-4.669519	internet	-0.2900267
-3.94936	interpretation	-0.279316
-5.271579	interpretation-related	-0.2307949
-5.271579	interpretations	-0.2042113
-4.970549	interpreter	-0.23026
-5.271579	interpreters	-0.2037094
-4.794458	interregional	-0.2286958
-4.368489	interrelated	-0.5438716
-4.794458	interrelationship	-0.3835498
-5.271579	interrogations	-0.2037094
-5.271579	interrupted	-0.2292349
-5.271579	intersectoral	-0.2308437
-5.271579	intervention	-0.2282238
-5.271579	interventions	-0.2307298
-5.271579	intifada	-0.229053
-4.271579	intimidation	-0.4294105
-5.271579	intimidatory	-0.2308251
-2.979323	into	-1.015394
-4.794458	intolerance	-0.1971493
-5.271579	intranet	-0.2308135
-4.572609	introduced	-0.3377757
-4.572609	introduction	-0.3104347
-5.271579	invalidate	-0.2306392
-4.970549	inventory	-0.4610372
-4.04113	investigate	-0.4859294
-4.794458	investigated	-0.1807038
-5.271579	investigating	-0.2301926
-4.572609	investigation	-0.2568623
-4.493428	investigations	-0.3280847
-3.715276	investment	-0.5405134
-4.493428	investments	-0.2677412
-4.970549	investors	-0.20091
-5.271579	invigorating	-0.2273556
-4.970549	inviolability	-0.4610372
-3.891368	invitation	-0.7808785
-4.970549	invitations	-0.1884308
-4.271579	invite	-0.4120485
-4.426481	invited	-0.30909
-3.214674	invites	-0.8333687
-4.794458	inviting	-0.3388986
-4.970549	invoked	-0.2107515
-5.271579	invoking	-0.2305857
-5.271579	involuntarily	-0.2307577
-4.230186	involuntary	-0.971153
-4.669519	involve	-0.2934616
-3.840215	involved	-0.8740652
-3.94936	involvement	-1.079654
-5.271579	involves	-0.2306671
-4.493428	involving	-0.2999882
-4.426481	ionizing	-1.095614
-3.992826	iran	-0.3195404
-4.794458	iranian	-0.2304182
-3.94936	iraq	-0.3873265
-4.271579	iraqi	-0.3158064
-3.618366	ireland	-1.34973
-4.572609	irrespective	-0.7615734
-2.911744	is	-0.3534197
-3.856606	islamic	-1.325646
-3.547303	island	-0.8844262
-3.727511	islands	-0.6344302
-4.970549	islands-united	-0.4861238
-5.271579	isolated	-0.2308298
-4.794458	isolation	-0.35624
-3.508151	israel	-0.8036686
-3.7401	israeli	-0.5027798
-4.669519	israeli-palestinian	-0.4166679
-4.426481	issuance	-0.4854069
-4.016306	issue	-0.4406428
-4.493428	issued	-0.3281489
-3.327096	issues	-0.5167463
-5.271579	issuing	-0.2308484
-4.493428	istanbul	-0.5100964
-5.271579	isthmus	-0.2037094
-2.977113	it	-0.4957447
-3.873639	italy	-1.59069
-3.420321	item	-1.295757
-4.271579	items	-0.3085593
-2.11868	its	-0.8072043
-4.192398	itself	-0.2892223
-3.970549	iv	-0.5634571
-5.271579	iv.e	-0.2308275
-4.794458	ix	-0.1958288
-4.04113	j	-1.123579
-5.271579	j.9	-0.229053
-4.970549	jabal	-0.4876743
-5.271579	jakarta	-0.230011
-5.271579	jalalabad	-0.2037094
